
\data\
ngram 1=17076
ngram 2=68565

\1-grams:
-4.664341	!	0.0235515
-4.840432	!!!	0.02357693
-4.840432	!.	0.02357693
-4.141462	"	0.02457496
-4.840432	"(2)	2.439213e-05
-4.840432	"),	0.0004479793
-4.840432	",	0.005442829
-4.840432	"....	0.02357693
-4.840432	"...but	0.00489698
-4.840432	"...ie,	-4.459777e-05
-4.840432	"...thus	0.01503324
-4.840432	"1"	9.966631e-05
-4.840432	"355	0.0002377029
-4.238372	"A	0.0001368182
-4.840432	"AR-15	-3.205498e-05
-4.840432	"Ah..I	-4.146211e-05
-4.840432	"Ah..it's	4.007317e-05
-4.840432	"Alright,	-2.891922e-05
-4.840432	"An	-1.010418e-05
-4.840432	"Armed	-4.459777e-05
-4.840432	"Arms"..like	-3.832643e-05
-4.840432	"As	0.004503889
-4.840432	"BS"--it	0.005115872
-4.840432	"Baby	0.001947971
-4.840432	"Because	0.008550055
-4.840432	"Children	-4.459777e-05
-4.840432	"Consistently	-4.459777e-05
-4.840432	"Coward	0.001947971
-4.840432	"Defeat	0.007562894
-4.840432	"Defensive	0.002499585
-4.840432	"Dian	-4.459777e-05
-4.840432	"Do	0.004503889
-4.840432	"Fire!"	0.02357693
-4.840432	"Freeeedom!"	0.02357693
-4.840432	"Fun	0.00489698
-4.840432	"George	-4.459777e-05
-4.840432	"Go	-4.146211e-05
-4.840432	"Going	-4.459777e-05
-4.840432	"Gun	-4.459777e-05
-4.840432	"Guns	0.001274379
-4.840432	"How	0.001095139
-4.840432	"Hurting"	0.001714928
-4.539402	"I	0.0006320037
-4.840432	"I'm	0.001186322
-4.442492	"In	0.009774911
-4.840432	"It	0.005115872
-4.664341	"It's	0.01778332
-4.840432	"Kurdistan"	0.002534281
-4.840432	"Labor	0.005115872
-4.664341	"Laboratory	-6.062302e-05
-4.840432	"Labour	-4.146211e-05
-4.840432	"Land	0.007562894
-4.840432	"Largely"	-4.146211e-05
-4.840432	"Leno	0.0007023302
-4.840432	"Less	-4.459777e-05
-4.840432	"Liberal",	0.005442829
-4.840432	"Life"	0.006546136
-4.840432	"Like	0.0004291444
-4.840432	"London"	-3.832643e-05
-4.840432	"Miller’s	-1.637596e-05
-4.840432	"More	-4.459777e-05
-4.840432	"Mr.	0.006546136
-4.840432	"My	-4.459777e-05
-4.840432	"NO..NO...you	0.0002816329
-4.664341	"NRA"	0.0007679979
-4.840432	"Not	-1.951181e-05
-4.840432	"OMG	-4.459777e-05
-4.840432	"Officials	-4.146211e-05
-4.840432	"Oh	-4.459777e-05
-4.840432	"One	0.0001341714
-4.840432	"Oooh,	-4.459777e-05
-4.840432	"POE".	0.02357693
-4.840432	"PRIDE"	0.001714928
-4.840432	"People"	0.005115872
-4.664341	"Please	4.914118e-05
-4.840432	"READY	-2.891922e-05
-4.840432	"RUN"	0.006546136
-4.840432	"Ready	0.01052471
-4.840432	"Reasonable	0.002499585
-4.840432	"Revolution"	0.001752711
-4.840432	"Rifleshooter"	-4.459777e-05
-4.840432	"Right	0.01052471
-4.840432	"Rule	-4.459777e-05
-4.664341	"Saturday	0.01500781
-4.840432	"Senate	-4.459777e-05
-4.840432	"Shake	8.711969e-05
-4.840432	"So	0.0001247606
-4.840432	"Social	-4.459777e-05
-4.840432	"Take	0.0008939763
-4.664341	"That	0.01057345
-4.840432	"That's	0.0008971189
-4.238372	"The	-8.285531e-05
-4.664341	"There	0.005090439
-4.840432	"This	0.005115872
-4.840432	"Those	0.001069989
-4.840432	"Under	-6.96397e-07
-4.840432	"Unskewed	-4.459777e-05
-4.840432	"Upper	-4.459777e-05
-4.840432	"VALE	-4.459777e-05
-4.840432	"Verax"	0.008550055
-4.840432	"Watch	0.0006206704
-4.539402	"We	0.01794161
-4.840432	"We're	0.0001404453
-4.840432	"Well-Regulated"	0.00489698
-4.664341	"What	-6.410918e-05
-4.840432	"When	0.001220913
-4.840432	"Work	-4.459777e-05
-4.840432	"Yes	0.001359306
-4.664341	"You	0.0002935286
-4.840432	"You're	0.001013406
-4.664341	"a	-7.351672e-05
-4.840432	"abnormal"	0.001714928
-4.840432	"accidental"	-6.968298e-06
-4.664341	"accidents"	0.004310452
-4.840432	"aficionados".	0.02357693
-4.840432	"all	-3.832643e-05
-4.840432	"and	-4.459777e-05
-4.840432	"and".	0.02357693
-4.840432	"animated	-4.459777e-05
-4.840432	"annual	1.184767e-05
-4.840432	"any	5.889118e-05
-4.840432	"appeal	0.01052471
-4.840432	"armed	-4.459777e-05
-4.840432	"arms	-1.951181e-05
-4.840432	"arms"	0.005811346
-4.840432	"article."	0.02357693
-4.840432	"as	9.025633e-05
-4.296364	"assault	0.002153997
-4.539402	"assault"	-8.345127e-06
-4.840432	"astonishing"	-4.146211e-05
-4.664341	"back	0.007579043
-4.840432	"bad	-4.146211e-05
-4.840432	"banning	0.0001498564
-4.840432	"because	0.007562894
-4.840432	"been-there-done-that,	-4.459777e-05
-4.840432	"being	1.811986e-05
-4.840432	"believe	-4.459777e-05
-4.840432	"big"	0.005115872
-4.840432	"buckle	-4.146211e-05
-4.664341	"but	0.005833581
-4.840432	"can	0.001233493
-4.840432	"can't	-4.459777e-05
-4.840432	"can,"	0.002654163
-4.840432	"car	-4.459777e-05
-4.840432	"casual	0.002499585
-4.840432	"civil"	-1.32401e-05
-4.840432	"collective	-4.459777e-05
-4.840432	"color",	3.066444e-05
-4.840432	"colour"!.	0.02357693
-4.840432	"coming	5.889118e-05
-4.664341	"compassion	-6.689441e-05
-4.840432	"compete"	0.005115872
-4.840432	"conservatism".	0.02357693
-4.840432	"constitutional	-3.519071e-05
-4.840432	"cooling	0.0001718163
-4.840432	"could	0.002654163
-4.840432	"could"	1.184767e-05
-4.840432	"crazy".	0.02357693
-4.840432	"crime	-4.459777e-05
-4.840432	"crime"	0.005115872
-4.840432	"debate"	0.005115872
-4.840432	"debate"......................	-3.519071e-05
-4.840432	"debates"	0.001947971
-4.840432	"deemed	0.01052471
-4.840432	"democrat	-4.459777e-05
-4.840432	"denial	-4.459777e-05
-4.840432	"dismissing"	0.01503324
-4.840432	"disorder"	0.01052471
-4.840432	"do	0.01503324
-4.840432	"don't	1.811986e-05
-4.840432	"drug."	0.02357693
-4.840432	"due	-4.459777e-05
-4.840432	"dumbass"	0.006546136
-4.840432	"educated"	1.184767e-05
-4.840432	"emotion",	0.006546136
-4.840432	"en·ti·tle·ment	-4.459777e-05
-4.840432	"escalation.".	0.02357693
-4.840432	"every	2.752826e-05
-4.840432	"everyone	0.005115872
-4.840432	"ex-gang	-4.459777e-05
-4.840432	"excellent	7.457348e-05
-4.840432	"extended	-4.459777e-05
-4.840432	"fair"	0.005811346
-4.840432	"far	0.001022836
-4.840432	"faux	-4.459777e-05
-4.840432	"feel	-4.459777e-05
-4.840432	"firearms	-4.459777e-05
-4.840432	"firearms"	6.516403e-05
-4.840432	"first	-1.010418e-05
-4.840432	"fix"	-4.459777e-05
-4.840432	"free	-1.32401e-05
-4.664341	"freedom"	0.005074522
-4.840432	"freedom"..............	7.143697e-05
-4.664341	"full	-7.97883e-05
-4.840432	"functionally	-4.459777e-05
-4.840432	"give	0.0004699542
-4.840432	"global	-4.459777e-05
-4.840432	"gone	0.0001843654
-4.664341	"good	-7.351673e-05
-4.664341	"good"	0.005074522
-4.840432	"good",	0.0004605362
-4.664341	"got	0.00977399
-4.840432	"government"	0.001069989
-4.840432	"greater	-4.459777e-05
-3.840432	"gun	-0.0003246719
-4.840432	"gun"	0.005811346
-4.840432	"gun-free	-4.459777e-05
-4.664341	"guns	0.001248946
-4.840432	"guns."	0.02357693
-4.840432	"guts	0.006546136
-4.840432	"handguns."	0.02357693
-4.840432	"harassment?"	0.02357693
-4.664341	"hazardous	0.01048026
-4.840432	"hero,	0.0003192906
-4.840432	"him"	-2.891922e-05
-4.840432	"hold	-2.891922e-05
-4.296364	"honest	0.002279936
-4.664341	"if	0.004804884
-4.840432	"ignore"	0.01503324
-4.840432	"illegal"	0.001220913
-4.840432	"imitating	-4.459777e-05
-4.840432	"in	7.143697e-05
-4.840432	"island	-4.459777e-05
-4.664341	"it's	0.003557211
-4.840432	"join	0.01503324
-4.840432	"just	0.00489698
-4.840432	"killers"?	0.02357693
-4.840432	"killing"	-6.968298e-06
-4.840432	"laugh	5.26184e-05
-4.664341	"law	-2.61287e-05
-4.840432	"left	-4.459777e-05
-4.840432	"legal	0.002499585
-4.840432	"legally	-4.146211e-05
-4.840432	"liberal"	0.001714928
-4.840432	"liberalism"	-3.832643e-05
-4.840432	"likes"	0.01052471
-4.840432	"limitation."	0.02357693
-4.840432	"literal"	-4.146211e-05
-4.840432	"love"	-4.146211e-05
-4.840432	"mainstream"	-4.459777e-05
-4.840432	"maintream"	-4.459777e-05
-4.664341	"mass	-8.91955e-05
-4.840432	"may.")	0.02357693
-4.840432	"me"	0.001714928
-4.840432	"media	0.0002377029
-4.664341	"mental	-1.706842e-05
-4.840432	"might	0.002786701
-4.442492	"might"	0.00304143
-4.840432	"minor"	-4.459777e-05
-4.840432	"mom	0.0007023302
-4.296364	"more	0.001763411
-4.840432	"mortality"	0.006546136
-4.840432	"murder	0.005115872
-4.840432	"my"	0.001359306
-4.840432	"narrow	-4.459777e-05
-4.840432	"national	-4.459777e-05
-4.840432	"natural	-3.519071e-05
-4.840432	"necessary?"	0.02357693
-4.664341	"no	-3.274924e-05
-4.840432	"nobody	-4.459777e-05
-4.840432	"non-partisan"	0.001359306
-4.664341	"normal"	0.006266107
-4.664341	"not	-8.91955e-05
-4.840432	"nut	-4.459777e-05
-4.840432	"obviously	-4.459777e-05
-4.840432	"oh,	0.001425374
-4.840432	"opinion"	0.001541802
-4.840432	"or	0.0003600903
-4.840432	"ought	0.01052471
-4.840432	"passion"	0.005811346
-4.840432	"payback"	0.002534281
-4.840432	"perfect"	0.005115872
-4.840432	"person."	0.02357693
-4.840432	"personal	-4.459777e-05
-4.840432	"personal"	0.0001498564
-4.840432	"pets"	0.002534281
-4.840432	"postal"	-4.459777e-05
-4.840432	"pre	-4.459777e-05
-4.840432	"prefatory".	0.02357693
-4.840432	"progressive"	0.006546136
-4.840432	"properly"?.	0.02357693
-4.840432	"prove	-4.459777e-05
-4.840432	"public	-4.459777e-05
-4.840432	"punished"	0.01052471
-4.840432	"punishment."	0.02357693
-4.840432	"purpose",	0.00489698
-4.840432	"quaint"	0.0001341714
-4.840432	"racial	-4.146211e-05
-4.840432	"ready"	0.002534281
-4.840432	"real	-4.459777e-05
-4.840432	"reasonable."	0.02357693
-4.664341	"red	-8.91955e-05
-4.840432	"regular"	0.001220913
-4.840432	"reinterpretations"	0.007562894
-4.840432	"reprisals"	0.001242928
-4.840432	"responsible	0.002499585
-4.840432	"responsible"	0.002499585
-4.840432	"retaliate"	0.001359306
-4.840432	"retard"	0.001714928
-4.840432	"revolution"	0.0001059398
-4.840432	"rewards	0.003178241
-4.840432	"rifle"	0.0007023302
-4.363311	"right	0.01040397
-4.363311	"right"	0.01821451
-4.840432	"right".	0.02357693
-4.840432	"right."	0.02357693
-4.664341	"rights"	0.004865141
-4.840432	"safer	0.00489698
-4.840432	"science,	-4.146211e-05
-4.664341	"scum".	0.0235515
-4.840432	"second	0.0001184869
-4.840432	"semantics"	0.002534281
-4.840432	"set	0.008550055
-4.840432	"ship	0.007562894
-4.664341	"shooting	-6.062302e-05
-4.840432	"smoking	-4.459777e-05
-4.840432	"sniper	-4.459777e-05
-4.840432	"socialist"	0.001022836
-4.840432	"solution"	-3.205498e-05
-4.840432	"some",	0.006546136
-4.664341	"state"	0.006329751
-4.840432	"stop	0.01503324
-4.840432	"stop"	0.0006049683
-4.840432	"strikes	0.001947971
-4.840432	"strong	-2.578344e-05
-4.539402	"study"	0.003873305
-4.840432	"stupid	-4.459777e-05
-4.664341	"supervised"	0.006851976
-4.840432	"support	-1.637596e-05
-4.664341	"take	0.002117663
-4.840432	"taking	0.01503324
-4.10007	"the	0.0003368714
-4.664341	"their	-6.062302e-05
-4.840432	"they	0.0001435823
-4.664341	"this	0.0002590067
-4.840432	"thought"	0.001255508
-4.840432	"thugs"	0.003178241
-4.840432	"tool"...unless,	0.007562894
-4.840432	"toy"	-2.578344e-05
-4.840432	"trickle	-4.459777e-05
-4.840432	"uninterpreted"	-3.832643e-05
-4.664341	"use	0.0007299942
-4.840432	"useless	-3.832643e-05
-4.840432	"usurping	0.007562894
-4.363311	"very	0.0001318408
-4.840432	"violent	-6.968298e-06
-4.840432	"virtually	-4.459777e-05
-4.664341	"we	0.01792057
-4.840432	"we"	0.005115872
-4.442492	"well	0.01559869
-4.840432	"well-regulated	-4.146211e-05
-4.539402	"what	0.01717407
-4.840432	"whatever	0.01503324
-4.840432	"why	0.001268088
-4.840432	"willful".	0.02357693
-4.840432	"win"	0.002534281
-4.840432	"win".	0.02357693
-4.840432	"yes"	0.002351368
-4.840432	"you	0.003178241
-4.296364	#000000;	-0.0001560658
-4.296364	#000;	-0.0001560658
-4.840432	#1	0.0004919306
-4.840432	#23.	0.02357693
-4.664341	#28.	0.0235515
-4.840432	#30.	0.02357693
-4.840432	#44.	0.02357693
-4.664341	#7	3.032246e-05
-4.296364	#FFFFFF;	-0.0001560658
-4.840432	#NotAnAccident	-4.459777e-05
-4.840432	$1	-4.459777e-05
-4.840432	$100	0.002534281
-4.840432	$100/yr	0.002534281
-4.840432	$1250	-2.578344e-05
-4.840432	$135.	0.02357693
-4.840432	$20	0.006546136
-4.840432	$20.00...	0.02357693
-4.840432	$200,	0.01503324
-4.840432	$300/yr.	0.02357693
-4.840432	$40.00	0.006546136
-4.840432	$5	4.634572e-05
-4.840432	$50	1.184767e-05
-4.840432	$50.00.	0.02357693
-4.238372	&	0.02373549
-4.840432	&#39;gun	4.634572e-05
-4.840432	''good,	-4.459777e-05
-4.840432	''semi-insane"	0.001714928
-4.840432	'70's	0.0002377029
-4.840432	'Australia	0.005115872
-4.840432	'Dowlut	0.001255508
-4.840432	'Good	7.143697e-05
-4.840432	'It	0.0003035994
-4.840432	'Lying'	9.025633e-05
-4.840432	'Scuse	4.634572e-05
-4.840432	'The	-3.519071e-05
-4.840432	'Yep,	0.0005641457
-4.840432	'assault	-4.146211e-05
-4.840432	'assualt	-4.146211e-05
-4.840432	'back	0.00489698
-4.840432	'bad'	9.025633e-05
-4.840432	'bad-guys'	0.002351368
-4.840432	'be	-4.459777e-05
-4.664341	'but	0.01500781
-4.840432	'buying'	0.0002157397
-4.840432	'change	0.001491451
-4.840432	'commission'	0.0005641457
-4.840432	'coz	0.01503324
-4.840432	'crippled'	0.0001686791
-4.840432	'dangerous	0.006546136
-4.840432	'dangerous'	0.001353015
-4.840432	'deregulate	-4.459777e-05
-4.840432	'don't	0.001013406
-4.539402	'em	0.01233886
-4.539402	'em,	0.0009651071
-4.840432	'em.	0.02357693
-4.840432	'few	-4.459777e-05
-4.840432	'for	0.01503324
-4.840432	'freedom'	0.002534281
-4.840432	'get	0.0001906401
-4.840432	'good'	0.001353015
-4.840432	'good-guys'	-3.205498e-05
-4.539402	'gun	-0.0001337931
-4.539402	'gun'	-5.539239e-05
-4.840432	'gun'?	0.02357693
-4.664341	'guns	0.003304312
-4.840432	'hate	0.002534281
-4.840432	'how	0.0004071715
-4.840432	'in	7.143697e-05
-4.840432	'inaction'.	0.02357693
-4.840432	'isn't	0.01503324
-4.840432	'just	0.00489698
-4.840432	'lie'	-3.519071e-05
-4.840432	'looked	-4.459777e-05
-4.296364	'lucida	-0.0001560658
-4.840432	'murder'	-3.519071e-05
-4.840432	'new'	-3.832643e-05
-4.840432	'only	9.025633e-05
-4.840432	'or	-4.459777e-05
-4.840432	'overreaching'	-2.264763e-05
-4.840432	'pro-2nd'	5.575476e-05
-4.840432	'putting	0.008550055
-4.840432	'real	-4.459777e-05
-4.664341	's	4.25239e-05
-4.840432	'separation'	0.007562894
-4.840432	'stance'.	0.02357693
-4.840432	'stopped'	0.001186322
-4.840432	'studied'	0.004503889
-4.840432	'supporting'	-1.010418e-05
-4.840432	'thank	-4.459777e-05
-4.539402	'the	-7.420984e-05
-4.840432	'thoughts	0.006546136
-4.840432	'threat'	0.001752711
-4.840432	'tyrannical	-4.459777e-05
-4.840432	'tyrannical'.	0.02357693
-4.840432	'tyranny'	0.0007023302
-4.664341	'we	0.01832605
-4.840432	'well,	-4.459777e-05
-4.840432	'”=	8.084653e-05
-4.296364	(	0.005744556
-4.840432	("A	0.0001812281
-4.840432	("debatepolitics.com"	-3.832643e-05
-4.840432	($3	0.008550055
-4.840432	(*cough*	-2.891922e-05
-4.840432	(..."the	0.0006049683
-4.840432	(0.2%)	0.005811346
-4.840432	(1)	0.001242928
-4.840432	(12	-4.459777e-05
-4.840432	(12):	-4.459777e-05
-4.840432	(1994).	0.02357693
-4.840432	(258,460	4.634572e-05
-4.840432	(45	-4.146211e-05
-4.840432	(45.3	0.001220913
-4.840432	(A)	0.001368744
-4.840432	(And	0.005442829
-4.840432	(And,	0.0006206704
-4.840432	(B)	-3.519071e-05
-4.840432	(Because	0.002499585
-4.840432	(Constitution)	0.006546136
-4.840432	(Down	0.01503324
-4.840432	(ECA),	-3.519071e-05
-4.840432	(English).	0.02357693
-4.840432	(Former	-4.459777e-05
-4.840432	(French)	0.006546136
-4.238372	(I	0.003688818
-4.840432	(I'd	0.0009442585
-4.664341	(I'm	0.002650624
-4.840432	(I.e.	0.02357693
-4.840432	(IIRC)	0.0005704259
-4.840432	(IMHO)	0.002534281
-4.664341	(If	-4.842949e-05
-4.840432	(Illinois,	-4.459777e-05
-4.539402	(In	0.0004467075
-4.840432	(Knowing	0.01503324
-4.840432	(Lautenberg)	-3.519071e-05
-4.664341	(MRI	-6.689441e-05
-4.840432	(MS	-4.459777e-05
-4.840432	(MULTIPLE	0.001220913
-4.840432	(Meals	-4.459777e-05
-4.840432	(NOT	-2.891922e-05
-4.840432	(Nova	-4.459777e-05
-4.840432	(Reagan,	-4.459777e-05
-4.840432	(Schools	-4.459777e-05
-4.840432	(So	-1.010418e-05
-4.840432	(That	0.001255508
-4.840432	(The	-4.146211e-05
-4.840432	(This	0.0007934303
-4.840432	(Those	-6.968298e-06
-4.840432	(USA	-4.459777e-05
-4.840432	(Violence	-4.146211e-05
-4.840432	(a	7.771e-05
-4.840432	(about	-1.010418e-05
-4.840432	(admittedly,	0.001095139
-4.840432	(after	0.000488791
-4.840432	(again)	0.0003035994
-4.840432	(ages	2.125599e-05
-4.840432	(aka	-3.205498e-05
-4.840432	(amnesty's,	0.0001310344
-4.840432	(among	0.0004479793
-3.862709	(and	0.03865957
-4.840432	(another	-3.519071e-05
-4.141462	(as	0.01379228
-4.664341	(at	7.075464e-05
-4.840432	(because	0.005811346
-4.840432	(before	-4.459777e-05
-4.840432	(blah!	0.02357693
-4.664341	(both	0.0001115357
-4.840432	(bum,	-4.459777e-05
-4.840432	(by	0.0007651555
-4.840432	(cash	0.006546136
-4.840432	(changing	-3.205498e-05
-4.840432	(corrupt)	-2.891922e-05
-4.840432	(crushes)	0.0008939763
-4.840432	(current	-4.459777e-05
-4.840432	(despite	0.0005013493
-4.840432	(duh)	0.0004291444
-4.840432	(e.g.	0.02357693
-4.840432	(either	0.001242928
-4.840432	(emphasis	-4.459777e-05
-4.840432	(equiv.	0.02357693
-4.840432	(especially	0.002351368
-4.840432	(especially)	0.01503324
-4.840432	(et	-4.146211e-05
-4.539402	(even	0.01632972
-4.840432	(excepting	0.0008971189
-4.840432	(excluding	-4.459777e-05
-4.840432	(former	-4.459777e-05
-4.840432	(from	6.516403e-05
-4.840432	(guns,	-3.832643e-05
-4.840432	(has	0.01052471
-4.840432	(hi-cap	-3.832643e-05
-4.840432	(high	2.752826e-05
-4.840432	(history	0.007562894
-4.840432	(home	0.007562894
-4.840432	(hopefully)	-6.96397e-07
-4.840432	(however	0.004503889
-4.840432	(i'm	-4.459777e-05
-4.664341	(i.e.	0.0235515
-4.840432	(ie-	0.0005861267
-4.539402	(if	0.01272306
-4.840432	(imo).	0.02357693
-4.840432	(imo,	-3.519071e-05
-4.442492	(in	0.01565072
-4.664341	(including	0.001446875
-4.840432	(insert	-4.146211e-05
-4.840432	(it	0.005115872
-4.840432	(it's	-4.146211e-05
-4.840432	(joking)	0.004503889
-4.840432	(kinda	-4.459777e-05
-4.840432	(lack	0.007562894
-4.840432	(last	-3.519071e-05
-4.442492	(like	0.009242629
-4.840432	(limiting	0.0001090765
-4.840432	(literally)	0.006546136
-4.840432	(looooooong)	-3.519071e-05
-4.840432	(loosely)	-1.010418e-05
-4.840432	(lots	0.007562894
-4.840432	(many	-4.459777e-05
-4.539402	(millions	-8.918951e-05
-4.840432	(mixed	-4.146211e-05
-4.539402	(more	0.0005754644
-4.840432	(most	0.003178241
-4.840432	(mostly)	-4.459777e-05
-4.840432	(much	0.0009442585
-4.840432	(nationalism)	0.0009411159
-4.840432	(nearly	-4.459777e-05
-4.840432	(no	-4.459777e-05
-4.840432	(no)	0.00489698
-4.238372	(not	0.01218703
-4.840432	(novel	-3.519071e-05
-4.840432	(obviously	3.066444e-05
-4.664341	(of	0.0004975767
-4.840432	(often	-4.459777e-05
-4.664341	(on	-8.91955e-05
-4.840432	(only	-4.459777e-05
-4.141462	(or	-0.0001472851
-4.840432	(perhaps	0.0004291444
-4.840432	(pretty	-3.832643e-05
-4.840432	(pun	-4.146211e-05
-4.840432	(rather	0.0006646392
-4.840432	(relatively)	-1.951181e-05
-4.840432	(reported	-4.459777e-05
-4.840432	(say	2.125599e-05
-4.840432	(see:	-2.578344e-05
-4.840432	(shame,	0.0006049683
-4.840432	(sic)	-4.459777e-05
-4.539402	(so	0.0157211
-4.840432	(source)	-2.578344e-05
-4.840432	(stricter	0.0001937774
-4.664341	(stroke)	0.005785914
-4.539402	(such	0.001701847
-4.840432	(supply	-4.459777e-05
-4.840432	(telling	0.0001373083
-4.840432	(that	0.0002314275
-4.539402	(the	-0.0001181141
-4.840432	(the)	-4.146211e-05
-4.840432	(there	0.001255508
-4.840432	(there's	0.008550055
-4.840432	(think	3.380068e-05
-4.539402	(this	0.005109338
-4.664341	(though	0.0009279615
-4.840432	(to	0.002660473
-4.840432	(traditionally	5.575615e-06
-4.664341	(under	6.168739e-05
-4.442492	(unless	0.01213921
-4.840432	(unrealistic,	0.001359306
-4.664341	(usually	-5.783737e-05
-4.840432	(well	0.0003569516
-4.840432	(whatever	0.01503324
-4.840432	(when	0.0006175299
-4.664341	(where	0.02067151
-4.027519	(which	0.02159645
-4.840432	(which,	-3.519071e-05
-4.539402	(who	-2.089155e-05
-4.840432	(wiki)	-2.578344e-05
-4.840432	(with	0.0008971189
-4.840432	(wording	0.005811346
-4.840432	(yes)	0.001714928
-4.664341	(you	0.0001178101
-4.840432	(yourself	-4.146211e-05
-4.539402	)	0.00505856
-4.664341	),	0.001321021
-4.664341	).	0.0235515
-4.027519	*	0.0004984614
-4.840432	**	-3.519071e-05
-4.840432	**)	-1.637596e-05
-4.442492	***	0.001726068
-4.062281	****	0.02077472
-4.840432	****"	0.002499585
-4.840432	****,	-4.459777e-05
-4.442492	****.	0.02350064
-3.911013	****ing	0.002333079
-4.840432	*California	-4.459777e-05
-4.840432	*cough*).	0.02357693
-4.840432	*ex-Marxist	-4.459777e-05
-4.840432	*insert	-4.459777e-05
-4.840432	*sensitive.	0.02357693
-4.840432	*shrug*	0.0006206704
-4.840432	*sigh*.	0.02357693
-4.539402	+	2.963992e-05
-3.937342	,	0.03386438
-3.159191	-	0.07532472
-3.840432	--	0.03544708
-4.840432	--I	0.001274379
-4.840432	--www11	-1.32401e-05
-4.840432	-.	0.02357693
-4.840432	-21	0.003178241
-4.840432	-Antonin	-2.264763e-05
-4.840432	-Did	0.0005641457
-4.840432	-Gen.	-4.459777e-05
-4.840432	-How	0.0002377029
-4.840432	-Is	0.002651006
-4.840432	-Justice	-3.519071e-05
-4.840432	-What	6.516403e-05
-4.840432	-effect.	0.02357693
-4.840432	-what	0.0008594111
-3.460221	.	0.02240858
-4.296364	..	0.02660701
-3.79904	...	0.03723389
-4.840432	....	0.000708612
-4.840432	.....................	0.02357693
-4.840432	.....and	0.0001498564
-4.840432	.....they	0.0001341714
-4.840432	...?.	0.02357693
-4.840432	...Of	4.948208e-05
-4.840432	...Your	-1.951181e-05
-4.840432	...as	-2.578344e-05
-4.539402	...but	0.005792249
-4.840432	...if	0.001220913
-4.840432	...right?.	0.02357693
-4.840432	...that	0.005115872
-4.840432	...there	0.005115872
-4.840432	...you	-2.578344e-05
-4.238372	.22	0.004652029
-4.840432	.22.	0.02357693
-4.363311	.223	-0.0001383123
-4.840432	.22lr	9.025633e-05
-4.664341	.357	0.001327312
-4.840432	.357.	0.02357693
-4.840432	.38	-1.951181e-05
-4.840432	.40	-4.459777e-05
-4.840432	.40-caliber	-3.205498e-05
-4.664341	.44	-8.605979e-05
-4.840432	.45	-4.459777e-05
-4.840432	.45.	0.02357693
-4.840432	.454	-4.459777e-05
-4.840432	.50	-3.205498e-05
-4.840432	.50?	0.02357693
-4.296364	.code{font-family:	-0.0001560658
-4.296364	/	0.002384447
-4.296364	/*overflow:	-0.0001372508
-4.539402	0	0.001267006
-4.840432	0%	0.006546136
-4.840432	0.01%	0.0002847709
-4.840432	0.83%	0.007562894
-4.840432	08.05.2016	-4.459777e-05
-4.027519	0px	-0.0002524917
-3.840432	1	0.02229423
-4.664341	1%	0.007550319
-4.363311	1)	0.001631108
-4.664341	1,	0.005801795
-4.840432	1,000	4.634572e-05
-4.840432	1,731	0.002499585
-4.840432	1-6	-4.146211e-05
-4.363311	1.	0.02381744
-4.840432	1/2	0.007562894
-4.840432	1/4	-4.459777e-05
-3.88619	10	0.01836071
-4.539402	10%	0.005128381
-4.664341	10,000	8.022066e-06
-4.840432	10-12	0.006546136
-4.363311	100	-0.0001379618
-4.141462	100%	0.009864009
-4.238372	100,000	0.001977468
-4.840432	100,000...meaning	0.0008971189
-4.840432	1000	0.001714928
-4.840432	100lbs	-4.146211e-05
-4.840432	100mph	0.00489698
-4.840432	101.	0.02357693
-4.840432	102	-2.578344e-05
-4.840432	1066.	0.02357693
-4.840432	10k	-1.010418e-05
-4.840432	10th	-4.146211e-05
-4.539402	11	-5.50439e-05
-4.840432	11".	0.02357693
-4.840432	11,000	-3.832643e-05
-4.840432	11,004	0.0001310344
-4.840432	110	0.001220913
-4.840432	117,000	-6.96397e-07
-4.840432	11bush	0.0001906401
-4.539402	12	-8.675436e-05
-4.840432	12,000	9.025633e-05
-4.840432	12-gauge	-4.146211e-05
-4.296364	13	0.00273458
-4.840432	130	-4.459777e-05
-4.840432	130)	0.00489698
-4.840432	1317	-3.205498e-05
-4.664341	13th	-6.689441e-05
-4.539402	14	0.005207738
-4.840432	140	-4.146211e-05
-4.840432	14th	-4.459777e-05
-4.664341	14th"	0.006520704
-4.840432	14th,	-4.459777e-05
-4.141462	15	0.017898
-4.840432	15%	0.007562894
-4.840432	15,	-3.519071e-05
-4.840432	150	-4.146211e-05
-4.840432	1500	-4.459777e-05
-4.664341	16	-4.215744e-05
-4.840432	16%	-3.832357e-06
-4.840432	16,	-4.459777e-05
-4.840432	16,000	-1.010418e-05
-4.840432	16-year-old	-4.459777e-05
-4.840432	1611	-3.832643e-05
-4.840432	1615397.	0.02357693
-4.664341	166	0.001343042
-4.539402	17	0.001764339
-4.840432	17,	0.001217769
-4.840432	17.5.	0.02357693
-4.840432	1700's,	0.006546136
-4.840432	1700's?	0.02357693
-4.840432	1776	0.0008594111
-4.840432	1787,	-4.146211e-05
-4.840432	1788).	0.02357693
-4.840432	1788,	0.0001247606
-4.840432	1788?.	0.02357693
-4.840432	1789,	0.006546136
-4.840432	1790.	0.02357693
-4.539402	1791	0.006492155
-4.840432	1791',	0.006546136
-4.840432	1791,	0.002351368
-4.840432	1791.	0.02357693
-4.840432	17s.	0.02357693
-4.840432	17th	-4.146211e-05
-4.238372	18	0.006495686
-4.539402	18,	0.008186134
-4.840432	18.	0.02357693
-4.840432	18.5	4.007317e-05
-4.840432	1800+	-2.891922e-05
-4.664341	1812	0.0007080034
-4.840432	1812,	0.01503324
-4.840432	1867,	-3.519071e-05
-4.840432	1876,	-3.832643e-05
-4.840432	1882	-4.146211e-05
-4.840432	1883	0.01503324
-4.840432	18”	0.006546136
-4.539402	19	0.006501707
-4.840432	1900-1975.	0.02357693
-4.539402	1911	-0.0001243858
-4.840432	1911's.	0.02357693
-4.840432	1920's,	0.001013406
-4.840432	1929,	0.0005641457
-4.840432	1931,	3.066444e-05
-4.840432	1934.	0.02357693
-4.840432	1952,	0.01503324
-4.840432	1955	0.006546136
-4.840432	1960s	0.005811346
-4.840432	1962,	5.575615e-06
-4.840432	1964	-4.459777e-05
-4.840432	1970's	0.006546136
-4.840432	1970's.	0.02357693
-4.840432	1975,	0.01503324
-4.840432	1978,	-1.951181e-05
-4.840432	1980s	0.006546136
-4.840432	1982,	0.006546136
-4.840432	1982–1984.	0.02357693
-4.539402	1987	0.01733074
-4.840432	1987–1990.	0.02357693
-4.840432	1990".	0.02357693
-4.840432	1990's,	9.025633e-05
-4.664341	1990,	0.0006640252
-4.840432	1990s	0.006546136
-4.840432	1990s.	0.02357693
-4.840432	1992	-4.459777e-05
-4.840432	1992,	0.004503889
-4.840432	1994	-3.205498e-05
-4.840432	1995	0.006546136
-4.442492	1996	0.00551892
-4.442492	1996,	0.02388371
-4.840432	1998.	0.02357693
-4.840432	1999	-3.519071e-05
-4.664341	1:	8.957619e-05
-4.296364	1px	-0.0001560658
-4.539402	1st	0.0001673428
-3.779734	2	0.03014348
-4.539402	2%	0.007512031
-4.442492	2)	0.006587772
-4.840432	2,000	3.693692e-05
-4.840432	2,123	0.007562894
-4.840432	2,500,000	-2.264763e-05
-4.840432	2,628,532	-4.459777e-05
-4.840432	2-4%,	0.0004479793
-4.539402	2.	0.02498314
-4.840432	2.1	4.634572e-05
-4.840432	2.2	4.634572e-05
-3.840432	20	0.002975003
-4.840432	20%	0.007562894
-4.840432	20+	-4.146211e-05
-4.840432	20,000	0.0002973231
-4.840432	20-30	0.006546136
-4.664341	20.	0.0235515
-4.363311	200	-3.44527e-05
-4.664341	200,000	0.001333604
-4.840432	2000	0.006546136
-4.840432	2003	-4.459777e-05
-4.840432	2004.	0.02357693
-4.840432	2005,	0.0006049683
-4.840432	2005.	0.02357693
-4.539402	2006.	0.02352607
-4.840432	2007	-1.951181e-05
-4.840432	2007.	0.02357693
-4.840432	2008	-3.519071e-05
-4.840432	2008,	0.01503324
-4.840432	2008.	0.02357693
-4.840432	2009	0.0001718163
-4.840432	2009.	0.02357693
-4.296364	200px;*/}	-0.0001560658
-4.442492	2010	0.007002024
-4.664341	2010,	0.007266383
-4.840432	2010.	0.02357693
-4.840432	2011	-4.146211e-05
-4.840432	2011.	0.02357693
-4.442492	2012	0.001578064
-4.840432	2012,	-4.146211e-05
-4.840432	2012?	0.02357693
-4.840432	2013,"	-2.578344e-05
-4.840432	2014	-3.832643e-05
-4.840432	2014.	0.02357693
-4.840432	2015	0.0008876919
-4.840432	2015,	0.0002157397
-4.840432	2015.	0.02357693
-4.840432	2020.	0.02357693
-4.840432	206	-1.32401e-05
-4.840432	20k	0.007562894
-4.664341	20th	1.743141e-05
-4.840432	21	-1.637596e-05
-4.664341	21,	1.429495e-05
-4.840432	21-years	5.889118e-05
-4.840432	21.	0.02357693
-4.840432	21st	-4.146211e-05
-4.539402	22	7.00782e-05
-4.840432	23-24	9.025633e-05
-4.664341	24	-6.375873e-05
-4.840432	24,	-4.459777e-05
-4.840432	24/7?	0.02357693
-4.664341	240	2.091342e-05
-4.664341	25	-5.470143e-05
-4.664341	25%.	0.0235515
-4.840432	25.	0.02357693
-4.840432	250	-3.832643e-05
-4.840432	26	-4.459777e-05
-4.840432	26-year-old	-3.519071e-05
-4.840432	262	4.634572e-05
-4.840432	26th-highest	3.380068e-05
-4.664341	28	2.997745e-05
-4.840432	28%	0.007562894
-4.664341	2:	0.000155458
-4.296364	2A	0.008714892
-4.840432	2A".	0.02357693
-4.664341	2A.	0.0235515
-4.840432	2a	0.0001561305
-4.840432	2k	-4.459777e-05
-4.840432	2md.	0.02357693
-3.37061	2nd	0.01087348
-4.442492	2nd.	0.02350064
-4.296364	2px;	-0.0001560658
-3.779734	3	0.02517412
-4.840432	3"	0.00489698
-4.442492	3)	-1.843579e-05
-4.840432	3,	-3.519071e-05
-4.664341	3-4	2.056789e-05
-4.664341	3.	0.0235515
-4.840432	3....2....1.....gun	0.0002565295
-4.840432	3.4	0.002499585
-3.88619	30	0.00155779
-4.539402	30%	0.007512031
-4.840432	30%,	0.006546136
-4.840432	30,	-4.459777e-05
-4.539402	30,000	0.003965094
-4.840432	30-06.	0.02357693
-4.840432	30-30	-4.459777e-05
-4.664341	30-caliber	1.74931e-06
-4.539402	30-round	-7.734601e-05
-4.840432	30.	0.02357693
-4.296364	300	-7.870073e-05
-4.840432	300,000,000	0.001220913
-4.664341	3000	-7.351672e-05
-4.840432	30k	0.002499585
-4.840432	30rd	-3.832643e-05
-4.840432	31,706	0.002499585
-4.840432	312	-4.146211e-05
-4.840432	319,000.	0.02357693
-4.840432	31st	-2.891922e-05
-4.840432	32	0.001714928
-4.840432	32,000,000	-4.459777e-05
-4.664341	320	1.74931e-06
-4.840432	320,000	0.001069989
-4.840432	320,000,000	0.001353015
-4.840432	332	0.01052471
-4.840432	34%	0.0005044887
-4.840432	34-year	-4.459777e-05
-4.840432	340	-3.832643e-05
-4.442492	35	0.001292182
-4.840432	35,000.	0.02357693
-4.840432	35-year-old	2.752826e-05
-4.840432	360	-4.459777e-05
-4.840432	375,	0.01503324
-4.664341	38	-6.724504e-05
-4.840432	3:	0.0001310344
-4.539402	3rd	0.0003368236
-4.840432	3rd,	-4.459777e-05
-4.238372	4	0.00040968
-4.442492	4)	0.002107334
-4.840432	4,400	9.652964e-05
-4.840432	4--	9.966631e-05
-4.840432	4-5	9.025633e-05
-4.840432	4-year-old	-3.205498e-05
-4.840432	4.	0.02357693
-4.840432	4.5	-4.146211e-05
-4.141462	40	0.01075701
-4.664341	40%	-6.724503e-05
-4.664341	400	-5.470143e-05
-4.840432	400-yard	7.457348e-05
-4.840432	40601.	0.02357693
-4.840432	41%	0.007562894
-4.840432	42	-4.459777e-05
-4.664341	43%	0.01254789
-4.840432	44	-4.146211e-05
-4.840432	45.	0.02357693
-4.840432	45mph	-3.832643e-05
-4.840432	46,319	0.002499585
-4.664341	47	0.01071166
-4.840432	48	-3.832643e-05
-4.840432	49	-3.205498e-05
-4.840432	4th,	0.006546136
-4.027519	5	0.002887445
-4.840432	5%	0.007562894
-4.664341	5)	0.001349335
-4.840432	5,	-4.459777e-05
-4.840432	5-10	-2.578344e-05
-4.840432	5-4	-3.832643e-05
-4.840432	5-string	-3.832643e-05
-4.840432	5.	0.02357693
-4.539402	5.2	4.184416e-05
-4.840432	5.56	-4.459777e-05
-4.18722	50	0.004068697
-4.840432	50's	-4.146211e-05
-4.840432	50),	0.00489698
-4.840432	50+	-3.832643e-05
-4.840432	50,000	0.01052471
-4.840432	50.	0.02357693
-4.840432	500-mile	-4.146211e-05
-4.840432	5000	-3.832643e-05
-4.840432	50ft,	0.0004479793
-4.840432	51	6.202759e-05
-4.840432	53.2	-1.010418e-05
-4.840432	54	0.006546136
-4.840432	54.6	4.007317e-05
-4.840432	54–56	0.000265943
-4.840432	55,	0.01503324
-4.840432	5525.5,	0.0004479793
-4.840432	56-year-old	-4.146211e-05
-4.840432	58	9.025633e-05
-4.840432	58%	0.007562894
-4.840432	58,000	9.652964e-05
-4.840432	59	-3.832357e-06
-4.363311	5th	-0.000175948
-4.442492	6	0.001099755
-4.840432	6%	0.0005044887
-4.664341	6)	0.01501159
-4.840432	6-shooter	5.575476e-05
-4.840432	6-year	-4.146211e-05
-4.238372	60	-3.7339e-06
-4.840432	60%	0.007562894
-4.539402	600	0.001289298
-4.840432	60s,	-2.264763e-05
-4.840432	62	-1.637596e-05
-4.840432	62.	0.02357693
-4.840432	64,615	4.634572e-05
-4.840432	640,000	3.693692e-05
-4.840432	649	4.634572e-05
-4.539402	65	0.006613122
-4.840432	65,	0.0008876919
-4.840432	650,000	0.0002973231
-4.840432	67	-4.146211e-05
-4.840432	68%	-3.832357e-06
-4.840432	7	-4.459777e-05
-4.840432	7%	0.007562894
-4.664341	70	-1.393216e-05
-4.539402	70%	0.008835317
-4.840432	70%!	0.02357693
-4.840432	700	-4.146211e-05
-4.840432	7000	0.00489698
-4.840432	70s	0.006546136
-4.840432	70s.	0.02357693
-4.840432	71%	0.007562894
-4.664341	72	-3.274922e-05
-4.840432	747	-4.459777e-05
-4.664341	75	-1.393216e-05
-4.840432	75mm	-4.459777e-05
-4.840432	78-16	0.005115872
-4.840432	7998641.	0.02357693
-4.238372	8	0.005782731
-4.664341	80	2.091342e-05
-4.539402	80%	0.007844253
-4.840432	80,000	0.01052471
-4.840432	800	-3.832643e-05
-4.664341	8000	-6.689441e-05
-4.840432	80s.	0.02357693
-4.840432	83	-3.832357e-06
-4.840432	84	-4.459777e-05
-4.840432	87	-1.010418e-05
-4.664341	870	0.005341153
-4.664341	8:00	-7.351672e-05
-4.840432	8:00AM	0.002351368
-4.840432	8:20	-4.459777e-05
-4.840432	9	6.202759e-05
-4.840432	9%	0.007562894
-4.840432	9-11	0.0004479793
-4.840432	9/11....	-4.146211e-05
-4.840432	90	0.001220913
-4.840432	90%	0.007562894
-4.840432	90's,	0.001022836
-4.840432	90's.	0.02357693
-4.840432	90mm	9.966631e-05
-4.840432	90s,	0.0008594111
-4.664341	911	0.01099786
-4.840432	911.	0.02357693
-4.840432	92%	0.007562894
-4.840432	93%	0.007562894
-4.840432	930	2.125599e-05
-4.840432	94	-4.459777e-05
-4.840432	95%	0.007562894
-4.840432	99	4.634572e-05
-4.664341	99%	0.007537461
-4.840432	99.9%	-2.578344e-05
-4.840432	9:00AM.	0.02357693
-4.840432	9mm.	0.02357693
-4.363311	:	0.005665082
-4.840432	:-)	-4.459777e-05
-4.840432	:P.	-3.205498e-05
-4.840432	:pseudo	-3.205498e-05
-4.840432	;	4.634572e-05
-1.276121	</s>
-99	<s>	-0.03174985
-4.296364	=	0.0004699727
-4.840432	================================================	-4.459777e-05
-4.296364	>	0.002393911
-4.840432	>.	0.02357693
-4.840432	>>And	0.005811346
-4.840432	>>Calling	0.0008971189
-4.840432	>>Citation	-4.459777e-05
-4.840432	>>For	0.0011989
-4.840432	>>Gun	6.830049e-05
-4.840432	>>Have	0.004503889
-4.840432	>>I	0.0008625531
-4.840432	>>I'm	-2.264763e-05
-4.840432	>>It's	0.000313014
-4.840432	>>It;s	0.002654163
-4.840432	>>Notice	0.0003318438
-4.840432	>>Only	-4.459777e-05
-4.840432	>>Perhaps	3.693692e-05
-4.840432	>>RPG's	0.003178241
-4.664341	>>See	0.002694804
-4.840432	>>Sigh!!!!	0.02357693
-4.840432	>>The	-4.459777e-05
-4.840432	>>They	0.003178241
-4.840432	>>This	0.005115872
-4.840432	>>WTF	0.0002847709
-4.840432	>>Was	0.0005641457
-4.840432	>>What	0.0007934303
-4.840432	>>Where	0.000708612
-4.442492	>>You	0.006027562
-4.442492	>>Your	0.0003895587
-4.840432	>>our	-2.578344e-05
-4.840432	>>when	0.004503889
-4.141462	?	0.02337351
-4.363311	?.	0.02347521
-4.840432	?....................	0.02357693
-4.840432	?........................	0.02357693
-4.840432	?..............................	0.02357693
-4.840432	?.....................I've	-2.891922e-05
-4.840432	???	0.02357693
-4.840432	?Just	0.002534281
-3.172979	A	0.01588976
-4.664341	A.	0.0235515
-4.840432	AA's	0.004503889
-4.840432	ABSOLUTE	-4.459777e-05
-4.840432	ACA.	0.02357693
-4.664341	ADL,	-4.180826e-05
-4.840432	ADVOCATING),	0.000708612
-4.840432	AIDS.	0.02357693
-4.664341	AK	0.002309958
-4.141462	AK-47	0.01046167
-4.840432	AK-47.	0.02357693
-4.539402	AK-47?	0.02352607
-4.840432	AK47	0.0001624048
-4.840432	AK47's.	0.02357693
-4.840432	AK?	0.02357693
-4.18722	ALL	0.002872705
-4.840432	ALL)	0.007562894
-4.840432	ALOT	0.007562894
-4.840432	ALWAYS	-3.832357e-06
-4.840432	AM	3.066444e-05
-4.840432	AMERICA	9.966631e-05
-4.840432	AN	-4.459777e-05
-4.238372	AND	0.01491311
-4.840432	ANSWER	-4.146211e-05
-4.141462	ANY	0.01019782
-4.840432	ANYONE	0.0001749535
-4.840432	ANYTHING	0.001359306
-4.840432	ANYTHING?	0.02357693
-4.664341	AP	-7.97883e-05
-4.840432	APPLICABLE	-2.891922e-05
-4.296364	AR	0.0001880158
-4.539402	AR's	0.002262242
-4.840432	AR,	0.0011989
-3.743522	AR-15	0.02699298
-4.840432	AR-15's	0.006546136
-4.840432	AR-15,	0.002654163
-4.539402	AR-15.	0.02352607
-4.442492	AR-15s	0.004842764
-4.664341	AR-15s,	0.005417396
-4.840432	AR-15s?	0.02357693
-4.840432	AR-16	-4.459777e-05
-4.296364	ARE	0.02124499
-4.840432	ARE.....!!!!	0.02357693
-4.840432	ARMED	1.498376e-05
-4.840432	ARs	-3.832643e-05
-4.840432	ARs;	-1.637596e-05
-4.840432	ASAP!	0.02357693
-4.840432	ASPD	-4.146211e-05
-4.840432	ASSAULT	-4.459777e-05
-4.840432	AT	-2.578344e-05
-4.664341	ATF	0.01157404
-4.363311	AWB	0.007180756
-4.840432	AWB,	0.004503889
-4.442492	AWB.	0.02350064
-4.840432	AWD,	-4.459777e-05
-4.840432	AZ	0.002786701
-4.840432	Abbott	0.00489698
-4.840432	Abolishing	0.002499585
-4.539402	About	0.01503865
-4.840432	Absentglare	0.005442829
-4.840432	Absolutely	-4.146211e-05
-4.840432	Absurd	-4.146211e-05
-4.840432	Academy	0.0004260053
-4.840432	Acceptable	0.001541802
-4.18722	According	0.01034671
-4.840432	Accurate	5.26184e-05
-4.442492	Act	0.0006659576
-4.539402	Act.	0.02352607
-4.840432	Active	-4.146211e-05
-4.296364	Actually	0.006986372
-4.363311	Actually,	0.03274781
-4.840432	Actualy,	-1.32401e-05
-4.363311	Adam	-0.0001470196
-4.840432	Adam,	0.0001843654
-4.664341	Add	0.01100751
-4.840432	Added	-4.146211e-05
-4.840432	Admittedly,	-2.264763e-05
-4.840432	Adverse	0.0002533917
-4.840432	Afghanistan	0.0004071715
-4.840432	Africa	0.001255508
-4.840432	African	-3.519071e-05
-4.062281	After	0.00984383
-4.363311	Again	0.01062978
-4.10007	Again,	0.01922319
-4.664341	Against	0.01499211
-4.840432	Agree	0.005811346
-4.840432	Agreed.	0.02357693
-4.539402	Ah,	0.005175994
-4.840432	Ahahaha.	0.02357693
-4.664341	Ahh	0.0008713905
-4.840432	Ahhh	0.0008876919
-4.840432	Ahmed	0.001233493
-4.840432	Ain't	-1.637596e-05
-4.664341	Air	-7.97883e-05
-4.840432	Airport	-4.459777e-05
-4.664341	Al	-6.689441e-05
-4.539402	Alaska	0.007234574
-4.840432	Alaska,	-4.459777e-05
-4.840432	Alex	-3.519071e-05
-3.636312	All	0.06053139
-4.840432	Allah	0.00489698
-4.539402	Allow	0.0005880279
-4.840432	Allso,	-1.32401e-05
-4.539402	Almost	0.001723643
-4.840432	Along	0.002351368
-4.664341	Already	-1.079592e-05
-4.840432	Alright,	0.0001059398
-4.10007	Also	0.03357914
-4.062281	Also,	0.04179211
-4.442492	Although	0.006890398
-4.664341	Always	0.0002244878
-4.840432	Always.	0.02357693
-4.840432	Alzheimer's	1.811986e-05
-4.664341	Am	0.005417396
-4.840432	Amazing	0.01503324
-4.840432	Amazing,	0.006546136
-4.664341	Amazing.	0.0235515
-4.840432	Amending	0.01503324
-3.609983	Amendment	0.03700865
-4.664341	Amendment,	0.003026296
-4.363311	Amendment.	0.02347521
-4.840432	Amendment:	0.001368744
-4.840432	Amendment?	0.02357693
-4.840432	AmeriKa.	0.02357693
-3.518213	America	0.03855295
-4.840432	America"	-1.32401e-05
-4.238372	America's	0.002825645
-4.840432	America)	0.005115872
-4.238372	America,	0.01447163
-4.296364	America.	0.02344978
-4.840432	America...	-4.459777e-05
-4.840432	America;	0.0011989
-4.664341	America?	0.0235515
-3.469364	American	0.009962244
-4.840432	American-style	0.002499585
-4.840432	American.	0.02357693
-4.840432	Americana/Country	-3.205498e-05
-3.694304	Americans	0.04460755
-4.840432	Americans).	0.02357693
-4.442492	Americans,	-5.29408e-05
-4.442492	Americans.	0.02350064
-4.840432	Americans...but	0.002786701
-4.840432	Americans?	0.02357693
-4.840432	America…	-4.459777e-05
-4.840432	Ammunition	0.005115872
-4.840432	Among	0.0001310344
-4.10007	An	0.0004361552
-2.869621	And	0.1116609
-4.296364	And,	0.009724284
-4.840432	Andrea	-4.459777e-05
-4.840432	Andreas	-4.459777e-05
-4.840432	Andrew	-4.459777e-05
-4.539402	Angeles	-7.107363e-05
-4.840432	Angeles.	0.02357693
-4.664341	Angry	0.001308437
-4.840432	Ann	-4.459777e-05
-4.840432	Annually	2.439598e-06
-3.965371	Another	0.0004024035
-4.664341	Answer	0.01596065
-4.840432	Answers	9.966631e-05
-4.442492	Antonin	-0.0001086974
-4.18722	Any	0.0005598906
-4.664341	Anybody	0.008652733
-4.840432	Anymore	0.0006646392
-4.238372	Anyone	0.006865115
-4.840432	Anything	0.0002000522
-4.840432	Anytime	4.007317e-05
-4.296364	Anyway,	0.02660283
-4.840432	Anyways	0.000708612
-4.840432	Anyways,	0.0004291444
-4.840432	Anywhere,	-3.519071e-05
-4.840432	Apache	0.006546136
-4.296364	Apparently	0.02021556
-4.840432	Appeal	0.01052471
-4.840432	Appearing	-4.459777e-05
-4.840432	Appears	1.184767e-05
-4.664341	Approximately	-6.375873e-05
-4.840432	April,	-3.832643e-05
-4.840432	Ar-15	0.002351368
-4.840432	Ar15.	0.02357693
-4.840432	Archie	-4.459777e-05
-3.518213	Are	0.01140606
-4.539402	Aren't	0.005725512
-4.840432	Arena	0.003178241
-4.840432	Argue	0.001491451
-4.840432	Aristotle's	-4.459777e-05
-4.840432	Ariz.	1.184767e-05
-4.296364	Arizona	0.004474658
-4.539402	Arizona,	0.01027841
-4.840432	Armed	0.002351368
-4.840432	Arming	-4.459777e-05
-4.539402	Arms	0.01075402
-4.363311	Arms,	-0.0001086885
-4.539402	Army	0.01719039
-4.840432	Army,	-4.459777e-05
-4.840432	Arnold,	-4.459777e-05
-4.840432	Ars	-4.459777e-05
-4.840432	Art	0.005115872
-4.840432	Art,	-4.459777e-05
-4.840432	Art.	0.02357693
-4.840432	Arthur	0.006546136
-4.539402	Article	-0.0001243858
-4.840432	Articles	0.007562894
-4.840432	Artillery	0.005115872
-3.342122	As	0.06507965
-4.840432	Asia.	0.02357693
-4.840432	Asian-Americans	-3.832643e-05
-4.840432	Asians,	-4.459777e-05
-4.442492	Ask	0.0247009
-4.840432	Asked	-4.459777e-05
-4.664341	Asking	0.002489721
-4.141462	Assault	-0.0002086429
-4.664341	Assembly	8.643923e-05
-4.840432	Assn.	0.02357693
-4.363311	Association	0.0007690685
-4.840432	Astonishing	-4.146211e-05
-4.840432	Astorino,	0.006546136
-4.027519	At	0.01878948
-4.840432	Atomic	-1.637596e-05
-4.840432	Attack	0.0009725448
-4.840432	Attacks	0.01503324
-4.840432	Attention,	-4.146211e-05
-4.840432	Attorney	-3.832643e-05
-4.840432	August	-4.459777e-05
-4.664341	Aurora	0.006670401
-4.840432	Aus.	0.02357693
-4.664341	Aussie's	-7.659654e-06
-3.819243	Australia	0.0208936
-4.664341	Australia's	-7.659618e-06
-4.238372	Australia,	0.0008751075
-4.539402	Australia.	0.02352607
-4.840432	Australia.”	0.001368744
-4.442492	Australian	0.0003267654
-4.539402	Australians	0.0003057609
-4.664341	Authorities	0.004855626
-4.840432	Auto,	-4.459777e-05
-4.840432	Auto-5	-3.519071e-05
-4.840432	Auto-5.	0.02357693
-4.840432	Automatic	0.000313014
-4.840432	Automatic-5	0.0002157397
-4.840432	Average	-4.146211e-05
-4.840432	Avila	-1.637596e-05
-4.840432	Avoiding	0.001220913
-4.840432	Ayn	-4.459777e-05
-4.539402	B	0.001131755
-4.539402	B.	0.02352607
-4.840432	B.A	0.00489698
-4.840432	BAM!!!	0.02357693
-4.840432	BATF	-6.96397e-07
-4.664341	BBC	-6.724503e-05
-4.840432	BD.	0.02357693
-4.840432	BEEN	-3.205498e-05
-4.840432	BJJ	0.005115872
-4.840432	BMG	0.001022836
-4.840432	BOTH	-4.146211e-05
-4.296364	BS	0.005426737
-4.840432	BS,	-4.459777e-05
-4.442492	BS.	0.02350064
-4.840432	BS?	0.02357693
-4.840432	BTW	0.001268088
-4.840432	BTW,	0.01503324
-4.840432	BUSHMASTER	7.771e-05
-4.442492	BUT	0.001574915
-4.840432	BUT,	0.00489698
-4.664341	Back	0.004884171
-4.296364	Background	-7.83552e-05
-4.840432	Bad	-4.459777e-05
-4.840432	Badger	-3.832643e-05
-4.840432	Bahamas,	0.006546136
-4.840432	Ballistics	0.003178241
-4.840432	Baltimore	1.498376e-05
-4.539402	Ban	0.001575412
-4.840432	Ban?"	0.02357693
-4.840432	Band.	0.02357693
-4.840432	Bang,	-4.146211e-05
-4.840432	Banks	-4.459777e-05
-4.539402	Banning	0.001843322
-4.840432	Bans	0.001947971
-4.442492	Barack	-2.053767e-05
-4.840432	Barak	5.575476e-05
-4.664341	Based	0.001922539
-4.840432	Basic	8.711617e-06
-4.539402	Basically	0.01755931
-4.840432	Basically,	0.01503324
-4.840432	Battle	0.007562894
-4.840432	Battlefield.	0.02357693
-4.539402	Be	0.0001140015
-4.840432	Beach.	0.02357693
-4.840432	Bears	0.006546136
-3.550398	Because	0.0628926
-4.840432	Because,	0.01052471
-4.840432	Been	-1.951181e-05
-4.840432	Beethoven	0.0008594111
-4.840432	Before	0.004503889
-4.840432	Before,	0.00171178
-4.664341	Being	9.585022e-05
-4.840432	Belgians	0.00489698
-4.840432	BeliefNet	-4.459777e-05
-4.840432	Believe	0.002651006
-4.840432	Bend	-4.459777e-05
-4.664341	Benjamin	-6.375873e-05
-4.840432	Beret.	0.02357693
-4.840432	Bernardino.	0.02357693
-4.664341	Besides	0.006320205
-4.539402	Besides,	0.007132602
-4.840432	Best	-2.578344e-05
-4.840432	Bet	4.948208e-05
-4.664341	Better	0.01050918
-4.442492	Between	-0.0001721189
-4.840432	Beyond	0.005811346
-4.840432	Bias/Fact	-3.519071e-05
-4.840432	Bible.	0.02357693
-4.840432	Biden	0.0001843654
-4.840432	Biden,	-4.459777e-05
-4.840432	Big	-4.459777e-05
-4.840432	Bigger,	-4.146211e-05
-4.10007	Bill	0.007334057
-4.840432	Bill)	0.001752711
-4.840432	Bingo.	0.02357693
-4.840432	BlackBook,	-4.459777e-05
-4.840432	Blacks,	-4.459777e-05
-4.840432	Blah	-4.146211e-05
-4.840432	Blaze.	0.02357693
-4.840432	Bloomberg,	0.006546136
-4.840432	Blunt	-4.459777e-05
-4.664341	BoR	0.0002248215
-4.840432	Board"	-4.459777e-05
-4.840432	Board.".	0.02357693
-4.664341	Bob	0.008505584
-4.840432	Bob,	0.0008876919
-4.840432	Bobs:	8.711969e-05
-4.840432	Bolt	2.439598e-06
-4.840432	Booker	0.001255508
-4.840432	Booty"	-4.146211e-05
-4.840432	Boring	-4.459777e-05
-4.840432	Born	-4.459777e-05
-4.664341	Boston	0.000196247
-4.442492	Both	-0.000128215
-4.840432	Bottom	-3.832643e-05
-4.840432	Bowl	-3.519071e-05
-4.840432	Bowls,	0.01503324
-4.664341	Box	0.001572766
-4.442492	Brady	-0.0001309997
-4.840432	Branch	-4.459777e-05
-4.840432	Branch,	-4.459777e-05
-4.840432	Bravo).	0.02357693
-4.840432	Bravo,	-4.459777e-05
-4.840432	Brazil	0.006546136
-4.840432	Break	0.0003098758
-4.840432	Breitbart,	-2.578344e-05
-4.840432	BretJ	-3.519071e-05
-4.840432	Brewer.	0.02357693
-4.840432	Brian	-4.459777e-05
-4.840432	Bribery,	0.001714928
-4.840432	Bringing	0.0005013493
-4.238372	Britain	0.01582996
-4.664341	Britain.	0.0235515
-4.840432	Britain;	0.01503324
-4.840432	Britannica	0.0002502538
-4.10007	British	0.01383586
-4.664341	British.	0.0235515
-4.840432	Brits.	0.02357693
-4.664341	Bronson	0.001906552
-4.840432	Bronx,	0.001714928
-4.840432	Brought	0.0003098758
-4.840432	Broward	-3.832643e-05
-4.539402	Brown	0.0001830328
-4.840432	Browning	-3.832643e-05
-4.664341	Browning,	0.01077596
-4.840432	Bruce	-4.459777e-05
-4.840432	Btw,	-4.459777e-05
-4.539402	Bubba	0.00824687
-4.664341	Bubbas	0.006504818
-4.840432	Bubble?	0.02357693
-4.840432	Buck.	0.02357693
-4.840432	Bucky,	0.0007651555
-4.840432	Bud,	0.0008939763
-4.840432	Buddy	0.002651006
-4.840432	Building	0.006546136
-4.840432	Building,	0.001947971
-4.840432	Bulge	0.006546136
-4.840432	Bull****,	0.01503324
-4.664341	Bull****.	0.0235515
-4.840432	Bulletstorm,	-4.146211e-05
-4.840432	Bump	-4.146211e-05
-4.840432	Bumper	-3.832643e-05
-4.840432	Bundy	0.001947971
-4.840432	Bunker	0.0001247606
-4.840432	Bureau	0.007562894
-4.840432	Burger	0.0001216237
-4.840432	Burglary	0.006546136
-4.442492	Bush	0.004982304
-4.840432	Bush's	-4.146211e-05
-4.238372	Bushmaster	0.008011425
-4.840432	Bushmaster's	-3.205498e-05
-4.840432	Business	-4.459777e-05
-4.840432	BusterBrown,	0.005442829
-2.956771	But	0.08341137
-3.819243	But,	0.04199058
-3.965371	By	0.02296674
-4.840432	C'mon....give	0.0001906401
-4.664341	C-SPAN,	-6.689441e-05
-4.840432	C:	2.439598e-06
-4.840432	CA.	0.02357693
-4.664341	CAB	0.0007834053
-4.840432	CAN	-4.459777e-05
-4.840432	CANNOT	-4.459777e-05
-4.840432	CAUSE	-4.146211e-05
-4.442492	CC	0.003215216
-4.840432	CC.	0.02357693
-4.840432	CCL	0.006546136
-4.141462	CCW	0.0002112264
-4.141462	CDC	0.003441654
-4.664341	CDC,	0.006501635
-4.664341	CEO	-8.605979e-05
-4.840432	CHOOSE	0.01503324
-4.840432	CIA	0.006546136
-4.840432	CIVILIAN	-4.459777e-05
-4.664341	CMP-	0.0114903
-4.840432	CNET	-2.264763e-05
-4.664341	CNN,	-6.689441e-05
-4.840432	CON	-3.832643e-05
-4.840432	CONFISCATION.	0.02357693
-4.840432	CONGRESS	-4.459777e-05
-4.840432	CRIME	0.001274379
-4.840432	CRIMINALS	-4.459777e-05
-4.664341	CRUE	-6.689441e-05
-4.442492	CT	0.001622645
-4.840432	CT,	-4.459777e-05
-4.664341	Caetano	7.702842e-05
-4.840432	Caine	0.001714928
-4.664341	Cal.	0.0235515
-3.862709	California	0.02481508
-4.442492	California's	0.002870871
-4.840432	California,	0.0004479793
-4.664341	California.	0.0235515
-4.840432	Californians	0.0007934303
-4.664341	Call	0.007537461
-4.840432	Callender	-1.951181e-05
-4.840432	Calm	0.0001592676
-4.840432	Calvary,	-4.146211e-05
-4.840432	Camp	-3.832643e-05
-3.965371	Can	0.007980427
-4.363311	Can't	0.0126823
-4.442492	Canada	0.02117871
-4.840432	Canada"),	-3.205498e-05
-4.664341	Canada's	1.150461e-05
-4.442492	Canada,	0.01492609
-4.442492	Canadian	0.01115998
-4.539402	Canadian,	0.006797922
-4.664341	Canadian.	0.0235515
-4.539402	Canadians	0.004696935
-4.539402	Capital	0.005026826
-4.840432	Capitol	-4.459777e-05
-4.840432	Captain	-4.459777e-05
-4.840432	Carbine	-4.146211e-05
-4.840432	Carbine.	0.02357693
-4.840432	Carcano	0.006546136
-4.664341	Care	0.01049927
-4.840432	Careful	0.005811346
-4.840432	Caribbean.	0.02357693
-4.840432	Carlson	-4.459777e-05
-4.664341	Carolina	0.005979829
-4.840432	Carolina,	-4.459777e-05
-4.840432	Carrie	-4.459777e-05
-4.664341	Carry	-5.783737e-05
-4.840432	Cars	0.003178241
-4.840432	Cartels	0.00489698
-4.664341	Carver	-8.91955e-05
-4.840432	Carver,	-4.459777e-05
-4.840432	Case	0.002534281
-4.840432	Casull	0.00489698
-4.840432	Catawba	0.0008217065
-4.840432	Cause.	0.02357693
-4.840432	Causeless,	0.006546136
-4.664341	Center	0.002786334
-4.840432	Century,	0.0006269514
-4.840432	Cerberus	-3.832643e-05
-4.840432	Cerebus	0.00489698
-4.664341	Certainly	0.01502458
-4.840432	Cessna	0.0003035994
-4.840432	Challenge:	1.498376e-05
-4.840432	Chances	8.711969e-05
-4.840432	Chaney	0.001541802
-4.840432	Chang	0.005115872
-4.840432	Chang,	0.006546136
-4.840432	Changed	0.0004511184
-4.840432	Changing	0.01503324
-4.840432	Charles	-4.146211e-05
-4.840432	Charleston	0.006546136
-4.442492	Check	0.01140756
-4.840432	Checkpoints	0.0003255671
-4.664341	Checks	-3.902141e-05
-4.840432	Chelsea	0.006546136
-4.840432	Chess	-4.459777e-05
-4.141462	Chicago	0.02080909
-4.664341	Chicago,	0.002398253
-4.840432	Chicago.	0.02357693
-4.840432	Chicago....she	-2.578344e-05
-4.840432	Chicagoâs	1.184767e-05
-4.840432	Chicken	0.007562894
-4.363311	Chief	0.007400903
-4.840432	Chiefs	-3.205498e-05
-4.840432	Children	0.0001718163
-4.664341	Children's	-6.689441e-05
-4.840432	China's	0.0001655419
-4.840432	China,	0.006546136
-4.840432	Chipotles	0.0006049683
-4.840432	Choose	0.01503324
-4.664341	Chris	-8.605979e-05
-4.840432	Christ,	-3.832643e-05
-4.539402	Christian	0.0006320037
-4.840432	Christian)	0.0001592676
-4.840432	Christian,	0.005442829
-4.840432	Christians	0.001069989
-4.664341	Christmas	-8.605979e-05
-4.664341	Church	0.00655576
-4.840432	Cite	-1.637596e-05
-4.840432	Citizen"	-2.891922e-05
-4.442492	Citizens	0.01094759
-4.539402	City	0.008016634
-4.539402	City,	0.001632081
-4.840432	City.	0.02357693
-4.840432	Civilians	0.002786701
-4.840432	Claiming	-4.459777e-05
-4.840432	Classic:	0.005442829
-4.664341	Clause	0.00123609
-4.840432	Clean	-4.146211e-05
-4.363311	Clearly	0.007167922
-4.840432	Clearly,	0.005811346
-4.840432	Cletus	0.006546136
-4.840432	Click	0.0001498564
-4.840432	Clingling	0.01052471
-4.442492	Clint	0.009386653
-4.539402	Clinton	0.007049703
-4.840432	Club.	0.02357693
-4.840432	Coast	-2.578344e-05
-4.840432	Codified	0.0002031896
-4.840432	Cohen	-4.459777e-05
-4.664341	Cohen's	-6.375873e-05
-4.664341	Cold	-8.605979e-05
-4.840432	College.	0.02357693
-4.840432	Colo.,	0.0002408406
-4.840432	Colonel.	0.02357693
-4.840432	Colorado	-4.459777e-05
-4.539402	Columbia	0.001191788
-4.442492	Columbine	0.01143365
-4.840432	Columbine,	-4.459777e-05
-4.840432	Columbine.	0.02357693
-4.664341	Columbus	0.000485017
-4.840432	Columbus,	-4.459777e-05
-4.840432	Combat	0.001714928
-4.840432	Combatant	-2.578344e-05
-4.296364	Come	0.01036328
-4.840432	Comey	-4.146211e-05
-4.539402	Comitatus	-0.0001024345
-4.238372	Command	0.01317209
-4.840432	Command.	0.02357693
-4.840432	Command....	0.02357693
-4.840432	Commander	-2.891922e-05
-4.840432	Commanders	0.00489698
-4.840432	Commanding	2.439598e-06
-4.840432	Comments	0.001022836
-4.840432	Commerce	-4.146211e-05
-4.840432	Commissioner	-4.459777e-05
-4.840432	Committee	-3.519071e-05
-4.442492	Common	-4.318426e-05
-4.840432	Commonwealth	0.007562894
-4.840432	Communism	0.0006646392
-4.840432	Compare	0.01503324
-4.840432	Completely	-4.459777e-05
-4.840432	Complex,	-4.459777e-05
-4.840432	Con	-3.205498e-05
-4.840432	ConLaw	-4.459777e-05
-4.840432	Conceal	0.0001749535
-4.442492	Concealed	6.347265e-05
-4.840432	Confederation	0.0004479793
-4.840432	Confiscated	-3.205498e-05
-4.840432	Confiscation	0.005115872
-4.840432	Confiscation?	0.02357693
-4.840432	Congratulations,	0.001425374
-4.363311	Congress	0.0005396896
-4.840432	Congress.	0.02357693
-4.840432	Congress?	0.02357693
-4.840432	Congressional	-4.146211e-05
-4.664341	Congressmen	0.003234791
-4.840432	Conn	0.001714928
-4.840432	Conn.	-3.205498e-05
-4.840432	Conn.,	0.0004699542
-4.141462	Connecticut	0.001346534
-4.840432	Connecticut's	0.0001624048
-4.442492	Connecticut.	0.02350064
-4.664341	Connecticut?	0.0235515
-4.840432	Connecticut’s	-2.891922e-05
-4.539402	Cons	0.006278862
-4.840432	Cons,	0.006546136
-4.664341	Consent	0.0127707
-4.539402	Conservative	-9.616252e-05
-4.18722	Conservatives	0.0139927
-4.840432	Conservatives,	0.00489698
-4.840432	Conservatives?	0.02357693
-4.664341	Considering	0.02105323
-4.840432	Conspiracy	-3.832643e-05
-3.761251	Constitution	0.02442441
-4.238372	Constitution,	0.02126332
-4.363311	Constitution.	0.02347521
-4.840432	Constitution...'.	0.02357693
-4.10007	Constitutional	0.00164186
-4.840432	Constitutional.	0.02357693
-4.664341	Constitutionally	1.115849e-05
-4.840432	Consumers	-3.205498e-05
-4.840432	Contact	0.01503324
-4.840432	Contemporary	-4.459777e-05
-4.840432	Context	-3.519071e-05
-4.840432	Contrary	0.01052471
-4.296364	Control	0.004715654
-4.840432	Control.	0.02357693
-4.840432	Control?	0.02357693
-4.840432	Controlling	0.002499585
-4.840432	Conversations	0.0001749535
-4.840432	Conversely,	-3.205498e-05
-4.840432	Converted	0.0001373083
-4.442492	Convicted	0.01428969
-4.840432	Conviction	-2.891922e-05
-4.840432	Coolidge,	0.006546136
-4.840432	Cooperation	0.006546136
-4.840432	Cop	9.025633e-05
-4.840432	Cops	0.00489698
-4.840432	Cops,	0.0008876919
-4.840432	Corps	0.001022836
-4.840432	Corpus	0.0007023302
-4.840432	Corral,	-4.146211e-05
-4.840432	Corral.	0.02357693
-4.840432	Correct.	0.02357693
-4.539402	Could	0.007789962
-4.840432	Couldn't	0.004503889
-4.840432	Coulter	-4.146211e-05
-4.664341	Countries	0.01077596
-4.664341	County	-8.91955e-05
-4.539402	County,	0.004421163
-4.840432	Courant’s	-4.146211e-05
-3.911013	Court	0.02776269
-4.664341	Court's	-8.292406e-05
-4.539402	Court,	0.006963636
-4.442492	Court.	0.02350064
-4.840432	Court...	-3.832357e-06
-4.840432	Courthouse	-4.459777e-05
-4.840432	Courts	-4.459777e-05
-4.840432	Court’s	7.143697e-05
-4.840432	Cousins,	0.008550055
-4.539402	CrabCake,	0.0200807
-4.840432	Cracking	0.0001592676
-4.840432	Creator	0.002351368
-4.10007	Crime	0.0130389
-4.539402	Crimefree	0.001729697
-4.664341	Crimes	0.006504818
-4.840432	Criminal	-3.205498e-05
-4.664341	Criminals	0.0008493925
-4.840432	Criteria	0.002534281
-4.840432	Critique	0.007562894
-4.840432	Cruz	-4.146211e-05
-4.840432	Cruz.	0.02357693
-4.840432	Cry	0.0004699542
-4.840432	Cubs.	0.02357693
-4.840432	Cudahy	1.498376e-05
-4.664341	Cuomo	0.0006577433
-4.840432	Currently,	0.005811346
-4.840432	Cut	0.0001718163
-4.840432	Czech	-4.459777e-05
-4.840432	DA's	-3.832643e-05
-4.840432	DATA	5.575476e-05
-4.840432	DAY	0.001242928
-4.363311	DC	0.006266261
-4.840432	DC,	-4.146211e-05
-4.840432	DEATH	-4.459777e-05
-4.664341	DEFENSE	0.0002433159
-4.840432	DEFENSE.	0.02357693
-4.840432	DELIBERATE	-1.32401e-05
-4.840432	DESPITE	0.0005013493
-4.840432	DHS	-4.459777e-05
-4.664341	DID	0.00029039
-4.664341	DL	0.01050275
-4.840432	DNA,	0.006546136
-4.840432	DNC	0.002651006
-4.442492	DO	0.002019077
-4.840432	DOA	-4.459777e-05
-4.840432	DOJ	0.005811346
-4.840432	DONT	0.0003255671
-4.539402	DP	-6.793744e-05
-4.840432	DP.	0.02357693
-4.664341	DQ	0.001468903
-4.840432	DQ'ed,	0.002654163
-4.840432	DUI,	-3.519071e-05
-4.539402	Dad	0.0001359648
-4.840432	Dad's	2.125599e-05
-4.840432	Daily?	0.02357693
-4.840432	Dala	-4.459777e-05
-4.840432	Daleiden	0.006546136
-4.840432	Dallas	0.0001718163
-4.840432	Damned	0.001217769
-4.840432	Damon,	-4.459777e-05
-4.840432	Dana	-4.459777e-05
-4.840432	Daniel	-4.459777e-05
-4.840432	Dark	-4.459777e-05
-4.840432	Darryl	-4.459777e-05
-4.840432	Dave	-4.459777e-05
-4.539402	David	-0.0001181141
-4.840432	David,	-4.459777e-05
-4.840432	Davidians.	0.02357693
-4.840432	Davis	-2.264763e-05
-4.840432	Davis.	0.02357693
-4.539402	Day	0.004814272
-4.840432	Day,	-4.459777e-05
-4.840432	Day.	0.02357693
-4.840432	Days."	0.02357693
-4.539402	Dead	0.005172864
-4.840432	Deadly	-3.205498e-05
-4.840432	Death	-4.459777e-05
-4.840432	Debate	-4.459777e-05
-4.840432	Debate,	-3.832643e-05
-4.840432	Debate.org	0.0002973231
-4.840432	Dec	-4.459777e-05
-4.664341	December	-8.605979e-05
-4.840432	Deep	-4.459777e-05
-4.840432	Defending	0.0008971189
-4.664341	Defense	-8.605979e-05
-4.840432	Defensive	-3.832643e-05
-4.840432	Definately	0.0007934303
-4.840432	Definitely	2.439213e-05
-4.840432	Deflections	0.006546136
-4.840432	Delta)	0.0002502538
-4.840432	Demand	-1.010418e-05
-4.840432	Demanding	-4.459777e-05
-4.363311	Dementia	0.005287057
-4.840432	Democracy,	0.006546136
-4.664341	Democrat	0.005093561
-4.840432	Democrat.	0.02357693
-4.539402	Democratic	-0.0001052191
-4.363311	Democrats	0.01322898
-4.664341	Democrats,	0.01207359
-4.363311	Democrats.	0.02347521
-4.664341	Democrats?	0.0235515
-4.840432	Democwats	0.003178241
-4.664341	Demonstrate	0.003032612
-4.442492	Dems	0.01539712
-4.840432	Denied	0.008550055
-4.296364	Department	0.02086442
-4.840432	Depends	0.001947971
-4.840432	Depends,	0.0011989
-4.840432	Dept	0.005115872
-4.840432	Derbigny	-4.146211e-05
-4.363311	Despite	0.01705143
-4.840432	Detective	-4.459777e-05
-4.840432	Deterrence	0.0002220147
-4.539402	Detroit	0.002341077
-4.840432	Deuce,	0.0001624048
-4.840432	Development	4.948208e-05
-4.840432	Diamond,	0.002651006
-4.840432	Dianne	-4.146211e-05
-4.442492	Dick	0.006431703
-4.141462	Did	0.01587883
-4.539402	Didn't	0.004519407
-4.840432	Didn’t	-1.010418e-05
-4.840432	Difference	0.0005013493
-4.664341	Different	0.001317875
-4.840432	Dinkheller	0.001752711
-4.840432	Directive	-4.459777e-05
-4.840432	Disarming	0.001353015
-4.840432	Dishonesty?	0.02357693
-4.840432	Dishonorably	-4.146211e-05
-4.840432	Distribution	-3.519071e-05
-4.363311	District	0.007489989
-4.840432	Ditch	0.005811346
-4.840432	Division,	-4.459777e-05
-3.409069	Do	0.03932333
-4.840432	Doctrine.	0.02357693
-4.539402	Dodge	-0.0001212499
-4.840432	Dodge.	0.02357693
-3.862709	Does	0.02235921
-4.10007	Doesn't	0.001493549
-4.840432	Doing	-4.146211e-05
-4.840432	Domestic	-3.519071e-05
-3.650101	Don't	0.009726636
-4.840432	Dont	0.00044484
-4.840432	Double	-3.832643e-05
-4.840432	Doug	-4.459777e-05
-4.539402	Dowlut	0.006998636
-4.840432	Dowlut?	0.02357693
-4.840432	Down	-3.205498e-05
-4.664341	Dr	0.0009156836
-4.664341	Dr.	-8.605979e-05
-4.840432	Draw	-4.459777e-05
-4.840432	Dreams	-4.459777e-05
-4.840432	Drive.....	-4.459777e-05
-4.840432	Drudge	0.001714928
-4.664341	Drug	-7.665253e-05
-4.539402	Dude,	0.0001767567
-4.840432	Dudes	-3.205498e-05
-4.664341	Due	-5.470141e-05
-4.840432	Duh,	0.0006206704
-4.840432	Duluth,	-4.459777e-05
-4.840432	Dunblane	-3.832643e-05
-4.840432	Duncan	-1.010418e-05
-4.363311	During	0.01641893
-4.664341	Duty	-8.605979e-05
-4.840432	Dyke,	0.001069989
-4.664341	E.	-7.97883e-05
-4.840432	EDIT:	-3.519071e-05
-4.840432	EDIT:Reading	9.025633e-05
-4.840432	ELSE,	0.0002847709
-4.539402	EMNofSeattle	0.0001202766
-4.840432	ENABLING	0.0003192906
-4.840432	ENCOURAGING	-2.578344e-05
-4.840432	ENGAGED	0.005115872
-4.840432	ER?	0.02357693
-4.840432	ETX	-2.264763e-05
-4.840432	EU	-4.146211e-05
-4.840432	EVEN	0.001217769
-4.840432	EVER	0.0001153501
-4.840432	EVERY	-4.459777e-05
-4.840432	EVERYONE	6.830049e-05
-4.840432	EVERYTHING	-2.891922e-05
-4.840432	EVIL.	0.02357693
-4.664341	EXACTLY	0.001503521
-4.840432	EXTENT	0.001359306
-4.539402	Each	0.0004121698
-4.840432	Ear?.	0.02357693
-4.840432	Earl	0.002534281
-4.840432	Earlier	0.001425374
-4.840432	Earth	0.002786701
-4.539402	East	0.001783236
-4.664341	Eastwood	0.006501635
-4.840432	Economic	-4.459777e-05
-4.840432	Economics	-3.832643e-05
-4.840432	Ect	-4.146211e-05
-4.840432	Eden	0.005115872
-4.840432	Edit:	5.575476e-05
-4.840432	Edited	0.01052471
-4.840432	Effects	0.007562894
-4.840432	Egypt	0.005115872
-4.840432	Eighteenth-century	-4.459777e-05
-4.840432	Einstein	0.0002377029
-4.539402	Either	0.00536332
-4.840432	Election	-4.459777e-05
-4.840432	Electoral	-4.459777e-05
-4.664341	Elementary	-7.97883e-05
-4.840432	End	0.007562894
-4.664341	Ending	0.006113403
-4.840432	Ends	0.00489698
-4.840432	Enforcement	-4.459777e-05
-4.363311	England	0.007688223
-4.840432	England,	-4.146211e-05
-4.840432	England????.	0.02357693
-4.141462	English	0.004125455
-4.840432	English.	0.02357693
-4.840432	Englishman	0.0007023302
-4.840432	Enjoy	0.002651006
-4.664341	Enjoy.	0.0235515
-4.840432	Entertainment	-4.459777e-05
-4.840432	Epic	-4.459777e-05
-4.840432	Epilepsy	-4.459777e-05
-4.442492	Especially	0.005512564
-4.840432	Established	-4.459777e-05
-4.840432	Etc...	-6.96397e-07
-4.664341	Europe	0.006504818
-4.840432	Europe,	0.006546136
-4.840432	Europe.	0.02357693
-4.539402	European	-3.657407e-05
-4.840432	Europeans,	-2.578344e-05
-4.840432	Evangelical	-6.968298e-06
-3.679064	Even	0.03561386
-4.840432	Eventually	-1.951181e-05
-4.442492	Ever	0.0001011226
-4.18722	Every	0.000780514
-4.664341	Everybody	0.005122123
-4.539402	Everyone	0.005808143
-4.840432	Everyone).	0.02357693
-4.840432	Everyones	0.0001216237
-4.442492	Everything	0.01115001
-4.840432	Everytime	0.005442829
-4.840432	Evidence	-4.459777e-05
-4.840432	Evidently	-4.459777e-05
-4.664341	Exactly	0.001786864
-4.840432	Exactly!	0.02357693
-4.664341	Exactly.	0.0235515
-4.840432	Exactly....Sad	0.0001153501
-4.840432	Examine	0.01503324
-4.840432	Excellent	-4.146211e-05
-4.539402	Except	0.01108533
-4.840432	Exceptions	-2.264763e-05
-4.840432	Expecting	0.002651006
-4.840432	Experts	3.380068e-05
-4.840432	Explain	0.0005672858
-4.840432	Extended	-4.146211e-05
-4.840432	Extension	0.001368744
-4.840432	F**k	-3.519071e-05
-4.840432	F-35s.	0.02357693
-4.840432	F.E.A.R.	0.02357693
-4.840432	FALSE:	-1.951181e-05
-4.840432	FAR	0.0009725448
-4.18722	FBI	0.01508315
-4.840432	FBI's	-4.459777e-05
-4.840432	FBI,	0.006546136
-4.840432	FDR,	0.0005892668
-4.840432	FEDERAL	-4.459777e-05
-4.840432	FEELINGS	3.066444e-05
-4.840432	FEMA	-4.459777e-05
-4.840432	FIREARM	0.0001467193
-4.840432	FISA	-4.459777e-05
-4.840432	FISA.	0.02357693
-4.840432	FITH.	0.02357693
-4.840432	FL	-4.459777e-05
-4.840432	FL,	0.0001059398
-4.840432	FMJ	0.005115872
-4.840432	FOID	-4.146211e-05
-4.840432	FOR	-2.264763e-05
-4.840432	FORCED	0.01052471
-4.840432	FREE	-4.459777e-05
-4.840432	FS2000	-4.459777e-05
-4.840432	FSU	-4.146211e-05
-4.840432	FYI,	5.575476e-05
-4.840432	Fact	0.005115872
-4.840432	Factcheck.org	-3.205498e-05
-4.840432	Facts	0.006546136
-4.840432	Fail	5.575615e-06
-4.442492	Fair	-1.216185e-05
-4.840432	Fake	-2.264763e-05
-4.840432	False	-4.459777e-05
-4.840432	False,	8.711969e-05
-4.840432	Families	0.007562894
-4.840432	Family	0.005115872
-4.840432	Favorite	-1.951181e-05
-4.539402	Fear	0.01420118
-4.840432	Fearmongers	-1.32401e-05
-4.664341	Fed	-8.292406e-05
-4.18722	Federal	0.0005441781
-4.840432	Federalism	5.575476e-05
-4.840432	Federalist,	-3.832643e-05
-4.840432	Feds	0.0003192906
-4.840432	Feds'	1.811986e-05
-4.840432	Feds.	0.02357693
-4.664341	Feel	0.000111876
-4.664341	Feinstein	0.0003939709
-4.840432	Felons	0.0002879088
-4.840432	Ferguson	0.001714928
-4.840432	Festival	0.00489698
-4.840432	Fewer	0.001353015
-4.840432	Fiction	1.811986e-05
-4.840432	Filling	-4.146211e-05
-4.840432	Filter	-4.459777e-05
-4.840432	Finally	0.005442829
-4.539402	Finally,	0.008102908
-4.664341	Find	0.01552161
-4.840432	Finds	1.184767e-05
-4.840432	Fine,	0.005442829
-4.539402	Finland	0.005325212
-4.840432	Fire	0.01503324
-4.539402	Firearm	-0.0001306573
-4.539402	Firearms	-0.0001275215
-4.840432	Firearms,	-1.637596e-05
-4.840432	Firearms-Control	-4.459777e-05
-4.141462	First	0.007359662
-4.442492	First,	0.02190631
-4.840432	Firstly,	0.001268088
-4.664341	Flamethrowers	0.003772288
-4.840432	Flash	-4.459777e-05
-4.296364	Florida	-1.943799e-05
-4.840432	Florida!	0.02357693
-4.840432	Florida!)	0.02357693
-4.840432	Folding	-3.832643e-05
-3.609983	For	0.0247095
-4.840432	Force	-4.459777e-05
-4.664341	Force,	0.004376977
-4.840432	Forces.	0.02357693
-4.840432	Forget	0.005811346
-4.840432	Forgive	0.0004699542
-4.840432	Form	0.007562894
-4.840432	Fort	-4.459777e-05
-4.664341	Fortunately	0.004256607
-4.840432	Fortunately,	0.0006175299
-4.840432	Forty-five	7.771e-05
-4.840432	Fossey"	-4.459777e-05
-4.840432	Fought	0.00489698
-4.840432	Found	-4.459777e-05
-4.664341	Founders	-3.902141e-05
-4.840432	Fourth	-3.519071e-05
-4.10007	Fox	0.001421865
-4.840432	Fox's	-4.459777e-05
-4.840432	Fox,	1.811986e-05
-4.840432	Framer	-6.96397e-07
-4.840432	Framers	0.0004071715
-4.664341	Framers'	-8.91955e-05
-4.442492	France	0.008183214
-4.664341	France,	0.001676653
-4.840432	France.	0.02357693
-4.840432	France?	0.02357693
-4.840432	Frankfort,	-4.459777e-05
-4.539402	Franklin	0.0002709065
-4.840432	Frankly,	8.711969e-05
-4.840432	Fraternal	-4.146211e-05
-4.539402	Free	-0.0001024345
-4.840432	Free"....	0.02357693
-4.539402	Freedom	0.005045918
-4.840432	Freedom.	0.02357693
-4.442492	French	0.006670591
-4.840432	French,	0.0001247606
-4.840432	Frequently	-4.459777e-05
-4.539402	Friday	0.01501213
-4.840432	Friday.	0.02357693
-4.840432	Friedman/	-4.146211e-05
-4.664341	Friend	0.007537461
-4.027519	From	0.02865847
-4.840432	From?	0.02357693
-4.840432	Fu	0.0004071715
-4.840432	Fugitive:	-4.459777e-05
-4.840432	Fully	2.752826e-05
-4.664341	Funny	0.004586124
-4.539402	Funny,	0.001735995
-4.539402	Further,	0.01980567
-4.840432	Furthermore	0.001752711
-4.664341	Furthermore,	0.002720051
-4.840432	G's	0.0002502538
-4.840432	G-men	2.752826e-05
-4.664341	GA	0.01151929
-4.840432	GENERAL	-4.459777e-05
-4.840432	GET	8.711969e-05
-4.840432	GFZ	0.003178241
-4.840432	GO",	0.00489698
-4.840432	GOD...	0.001069989
-4.840432	GOOD	-1.637596e-05
-4.141462	GOP	0.01296405
-4.840432	GOP's	-3.832643e-05
-4.840432	GOP.	0.02357693
-4.840432	GRADE	-4.459777e-05
-4.840432	GREAT	0.0003004612
-4.664341	GUN	-8.91955e-05
-4.840432	GUN.	0.02357693
-4.664341	GUNS	0.003149485
-4.840432	GUNS,	0.0006175299
-4.840432	GUNS.	0.02357693
-4.840432	GW	-3.519071e-05
-4.840432	GWB	0.0004699542
-4.840432	Gabby	-4.146211e-05
-4.840432	Gaius	3.693692e-05
-4.664341	Gallup	0.0006577433
-4.840432	Gandhi,	0.002534281
-4.840432	Ganesh	-2.578344e-05
-4.840432	Gangland.	0.02357693
-4.840432	Gangs	0.006546136
-4.840432	Garand	0.001255508
-4.840432	Garands.	0.02357693
-4.840432	Garen	-4.146211e-05
-4.840432	Geeze.	0.02357693
-4.442492	Gen.	-0.0001337841
-4.539402	General	-0.0001306573
-4.840432	Generally,	0.0007651555
-4.664341	Geneva.	0.0235515
-4.840432	Genral	-4.459777e-05
-4.840432	Geo	-4.459777e-05
-4.840432	German	-4.459777e-05
-4.664341	Germany,	-7.038089e-05
-4.840432	Germs	0.006546136
-4.840432	Gerrymandered	0.0002157397
-4.840432	Gerrymandered,	-3.205498e-05
-4.296364	Get	0.01146366
-4.664341	Getting	0.008505584
-4.664341	Giffords	7.70284e-05
-4.840432	Gillette	-4.459777e-05
-4.539402	Give	0.003098782
-4.363311	Given	0.02095809
-4.840432	Giving	-2.891922e-05
-4.840432	Glad	0.01052471
-4.539402	Glock	0.00111603
-4.840432	Gloves	0.001274379
-4.10007	Go	0.0114313
-4.442492	God	0.006549554
-4.664341	God's	-8.91955e-05
-4.539402	God,	0.002366307
-4.840432	God-worshiping	0.001353015
-4.840432	Godwin's	0.0003789222
-4.840432	Godwin?.	0.02357693
-4.664341	Going	0.0107213
-4.664341	Golden	-8.292406e-05
-4.840432	Goldfarb	-4.146211e-05
-3.911013	Good	0.002314706
-4.840432	Good,	-3.205498e-05
-4.840432	Goodbye.	0.02357693
-4.840432	Goodnight	0.01052471
-4.840432	Google	2.439598e-06
-4.840432	Gosh,	-4.459777e-05
-4.664341	Goshin,	0.01498886
-4.840432	Goshin.	0.02357693
-4.664341	Got	0.000488157
-4.840432	Gotta	1.498376e-05
-4.539402	Gov	0.00570643
-4.840432	Gov.	0.02357693
-4.840432	Governed.	0.02357693
-4.238372	Government	0.001164482
-4.840432	Government's	1.811986e-05
-4.840432	Government,"	-2.264763e-05
-4.664341	Governments	0.005986189
-4.539402	Governor	0.006479387
-4.539402	Gracie	-2.071795e-06
-4.840432	Gracie,	0.001069989
-4.664341	Gracies	0.006523921
-4.664341	Gracies,	0.001670356
-4.840432	Grader	-4.146211e-05
-4.840432	Graham	0.007562894
-4.664341	Grammar	0.00275477
-4.840432	Grammarians	0.006546136
-4.664341	Grand	-4.529348e-05
-4.664341	Granted,	0.00164517
-4.840432	Gravity	0.002534281
-4.363311	Great	-0.0001916286
-4.840432	Green	-4.459777e-05
-4.840432	Greg	-4.459777e-05
-4.840432	Grimm	-3.832357e-06
-4.840432	Grossman	0.0007023302
-4.840432	Ground?	0.02357693
-4.840432	Group,	-2.578344e-05
-4.840432	Gualtieri	0.007562894
-4.238372	Guard	0.01868314
-4.840432	Guard,	0.001425374
-4.664341	Guard.	0.0235515
-4.539402	Guess	0.00112889
-3.378034	Gun	0.006132074
-4.840432	Gun-howitzer	-2.891922e-05
-4.840432	Gun?"	0.02357693
-4.840432	Gunman	0.0002973231
-3.840432	Guns	0.0175624
-4.840432	Guns".	0.02357693
-4.539402	Guns,	0.0008928083
-4.840432	Gus	9.652964e-05
-4.840432	Guy	-6.96397e-07
-4.840432	Guy,	0.001220913
-4.840432	H-bombs,	-4.459777e-05
-4.840432	H.	-3.205498e-05
-4.840432	HA	-4.459777e-05
-4.840432	HA!.	0.02357693
-4.840432	HALF	0.001022836
-4.840432	HAPPY?	0.02357693
-4.840432	HAVE	-4.459777e-05
-4.840432	HOO	-4.459777e-05
-4.840432	HOWEVER	0.005811346
-4.664341	HS	0.0005195569
-4.840432	HUGE	0.001947971
-4.840432	HUMAN	-4.459777e-05
-4.840432	HUNDREDS	0.007562894
-4.840432	Habeas	-4.459777e-05
-4.840432	Had	0.01503324
-4.840432	Hadn't	7.457348e-05
-4.840432	Hahahahahaha	-4.459777e-05
-4.664341	Half	0.007540745
-4.840432	Hammers	0.003178241
-4.840432	Hand	0.001220913
-4.840432	Handguns	0.003178241
-4.840432	Hannity	-4.146211e-05
-4.840432	Hannity,	0.006546136
-4.840432	Happiness".	0.02357693
-4.840432	Happy	-1.010418e-05
-4.840432	Hard	0.01052471
-4.840432	Harding,	-4.459777e-05
-4.840432	Hardly.	0.02357693
-4.840432	Harkin	0.006546136
-4.840432	Harris	-1.010418e-05
-4.840432	Harris,	0.01503324
-4.840432	Harry	0.0007934303
-4.840432	Harshaw	-4.459777e-05
-4.840432	Hartford	-4.459777e-05
-4.141462	Harvard	0.006107349
-4.840432	Harvard.	0.02357693
-4.840432	Harvey	-4.459777e-05
-4.442492	Has	0.009604678
-4.840432	Hatred.	0.02357693
-4.062281	Have	0.01153921
-4.539402	Having	0.01002475
-4.539402	Hawaii	0.008000783
-4.840432	Hawaii,	6.516403e-05
-4.840432	Haymarket!	0.02357693
-3.460221	He	0.01164998
-4.539402	He's	0.000509511
-4.664341	Head	0.007521598
-4.840432	Headline	-1.951181e-05
-4.840432	Headquarters	-3.832357e-06
-4.840432	Health.	0.02357693
-4.840432	Hear	0.0009411159
-4.664341	Heard	0.001069707
-4.840432	Hearth	0.006546136
-4.840432	Heck	0.001217769
-4.539402	Hell	0.01690005
-4.664341	Hell,	0.001799461
-4.18722	Heller	0.002828476
-4.664341	Heller,	0.01549886
-4.664341	Heller.	0.0235515
-4.840432	Heller?.	0.02357693
-4.840432	Hello	-4.459777e-05
-4.840432	Help	0.0001090765
-4.840432	Helsinki	0.005115872
-4.840432	Hence,	-4.459777e-05
-4.539402	Her	-2.40281e-05
-4.10007	Here	0.03185654
-4.296364	Here's	0.0260915
-4.840432	Here,	0.005442829
-4.840432	Heteronomous	-4.146211e-05
-4.840432	Hey	-4.459777e-05
-4.840432	Hey,	0.005442829
-4.840432	He’s	8.711969e-05
-4.664341	High	-4.215747e-05
-4.840432	Highly	-4.459777e-05
-4.363311	Hillary	0.006285335
-4.840432	Hillary,	-4.146211e-05
-4.840432	Himself	5.575476e-05
-4.442492	His	1.920923e-05
-4.840432	Historically,	0.0008971189
-4.664341	History	4.879724e-05
-4.539402	Hitler	0.0129169
-4.840432	Hmm,	3.693692e-05
-4.840432	Hmm...now	0.005811346
-4.664341	Hmmm	0.01778332
-4.840432	Hodgkinson	0.0004699542
-4.840432	Hogg	0.0007023302
-4.840432	Hold	-1.32401e-05
-4.840432	Hollywood	4.634572e-05
-4.840432	Holy	-3.519071e-05
-4.664341	Home	0.007518407
-4.840432	Homemade	0.000313014
-4.840432	Honestly,	0.0002188772
-4.840432	Honestly.	0.02357693
-4.238372	Hook	0.01114548
-4.664341	Hook,	0.0004410615
-4.664341	Hook.	0.0235515
-4.840432	Hoover	0.0005892668
-4.539402	Hopefully	0.001336221
-4.840432	Hoplophobes	0.006546136
-4.664341	Hospital	0.004868313
-4.840432	Host	0.008550055
-4.442492	House	-9.998873e-05
-4.840432	House.	0.02357693
-4.840432	Houston	0.0001310344
-3.349071	How	0.020351
-4.840432	Howard,	3.693692e-05
-3.779734	However,	0.03159961
-4.840432	However...that	0.0002408406
-4.840432	Huge	-3.832643e-05
-4.840432	Human	-3.205498e-05
-4.664341	Humans	0.002761082
-4.840432	Hundreds	0.007562894
-4.840432	Hunt	-6.96397e-07
-4.840432	Hunter	2.439598e-06
-4.664341	Hunting	0.005433242
-4.840432	Hunting/Sportshooting,	0.006546136
-4.840432	Hyperbole?	0.02357693
-1.900663	I	0.02988558
-4.840432	I"m	0.0001059398
-4.840432	I'VE	-3.519071e-05
-3.469364	I'd	0.009606993
-3.726489	I'll	0.006450232
-2.811049	I'm	0.04475968
-4.840432	I'm,	0.0001843654
-3.206964	I've	0.006068859
-4.442492	I,	0.002429195
-4.840432	I.	0.02357693
-4.840432	I...	-3.519071e-05
-4.840432	I...I	0.001274379
-4.296364	ID	0.009374887
-4.840432	IDEALLY	0.0002973231
-4.840432	IDs	0.001069989
-4.840432	IF	0.01503324
-4.840432	II	0.0002408406
-4.840432	II,	0.0002408406
-4.840432	II?	0.02357693
-4.840432	IIRC.	0.02357693
-4.840432	IMHO.	0.02357693
-4.840432	IMO	0.01503324
-4.442492	IMO,	0.01778942
-4.840432	IMO.	0.02357693
-4.539402	IN	0.001336221
-4.840432	INB4	0.001233493
-4.840432	INDIVIDUALS	0.003178241
-4.840432	INTENT	0.007562894
-4.840432	IOW,	0.0011989
-4.840432	IQ	-3.832643e-05
-4.840432	IRS	-4.459777e-05
-4.539402	IS	0.0151783
-4.664341	ISIS	0.001686099
-4.840432	IT!"	0.02357693
-4.840432	Ice,	0.005442829
-4.539402	Iceland	0.009630106
-4.840432	Id'...	0.0008217065
-4.840432	Idc	0.001217769
-4.840432	Idea,	8.084653e-05
-4.840432	Identify	0.01503324
-4.840432	Ideologically	0.005442829
-2.815126	If	0.06838679
-4.840432	If,	0.001752711
-4.840432	Ignorance.	0.02357693
-4.840432	Ignorant?	0.02357693
-4.840432	Ikari	0.001368744
-4.840432	Ill	2.439598e-06
-4.840432	Illegal	0.002534281
-4.539402	Illinois	0.001789536
-4.664341	Illinois,	0.006820116
-4.442492	Im	0.003057226
-4.238372	Imagine	0.001684678
-4.840432	Imgur	9.966631e-05
-4.840432	Impeachment	-3.519071e-05
-4.840432	Imperial	-4.459777e-05
-4.840432	Improving	0.01503324
-4.840432	Imyoda	1.184767e-05
-3.096139	In	0.03734248
-4.840432	Inaccurate	-4.459777e-05
-4.840432	Incidence	0.007562894
-4.664341	Including	-7.659628e-06
-4.840432	Incognito	-4.459777e-05
-4.840432	Indeed	0.01503324
-4.840432	Indeed,	0.01503324
-4.840432	Index	0.0002973231
-4.840432	India	0.006546136
-4.296364	Indiana	0.01361823
-4.840432	Indiana,	0.0006269514
-4.840432	Indicted	0.002534281
-4.840432	Individuals	0.003178241
-4.840432	Injury	-4.459777e-05
-4.840432	Inland	-4.146211e-05
-4.840432	Innocents	-4.459777e-05
-4.840432	Insider:	-4.146211e-05
-4.840432	Inspections	0.0008594111
-4.840432	Instead	0.007562894
-4.664341	Instead,	0.001963259
-4.840432	Intentions	9.966631e-05
-4.539402	Interesting	0.005722321
-4.840432	Interesting,	-3.205498e-05
-4.539402	Interesting.	0.02352607
-4.840432	Interesting...but	0.001069989
-4.840432	International,	-4.459777e-05
-4.664341	Internet	0.008934377
-4.840432	Internet.	0.02357693
-4.840432	Into	-4.459777e-05
-4.840432	Invaders	0.006546136
-4.840432	Investigation.	0.02357693
-4.840432	Involuntarily	2.439598e-06
-4.664341	Iraq	0.005074522
-4.840432	Iraq.	0.02357693
-4.664341	Ironically	0.005607949
-4.840432	Irony	-2.891922e-05
-4.840432	Irrelevant	-4.459777e-05
-3.622948	Is	0.03040254
-4.840432	Islamic	-3.832643e-05
-4.840432	Islamist	-4.459777e-05
-4.840432	Island.	0.02357693
-4.539402	Isn't	0.005744581
-4.840432	Israel;	0.00171178
-2.903416	It	0.02193085
-4.664341	It'll	0.002982082
-3.088384	It's	0.04685814
-4.840432	It?	0.02357693
-4.840432	Italy,	-4.146211e-05
-3.761251	Its	0.03691273
-4.664341	It’s	0.002672713
-4.664341	Ive	0.0006388969
-4.664341	I’m	0.00262873
-4.840432	I’ve	-1.010418e-05
-4.840432	J-frame	-4.459777e-05
-4.840432	J.	-4.459777e-05
-4.840432	J.T.	0.02357693
-4.664341	JUST	0.02389042
-4.442492	Jack	0.005798602
-4.840432	Jack's	2.439598e-06
-4.840432	Jacksonville,	1.184767e-05
-4.442492	James	-0.0001752548
-4.664341	Jan.	-8.91955e-05
-4.840432	Jane.	0.02357693
-4.664341	January	-8.91955e-05
-4.840432	January.”	0.0002973231
-4.840432	Japan	-4.459777e-05
-4.840432	Japan's	0.001186322
-4.840432	Japan,	0.006546136
-4.664341	Japan.	0.0235515
-4.664341	Jared	-8.91955e-05
-4.442492	Jason	0.002230722
-4.840432	Jay	-4.459777e-05
-4.664341	Jazeera,	0.01500781
-4.840432	Jeet	-4.459777e-05
-4.840432	Jeez,	0.005442829
-4.840432	Jefferies.	0.02357693
-4.539402	Jefferson	0.003104934
-4.840432	Jennifer	-4.459777e-05
-4.539402	Jerry	0.007346294
-4.840432	Jesse	-3.519071e-05
-4.363311	Jesus	0.002583224
-4.840432	Jesus'	-3.832357e-06
-4.840432	Jesus.	0.02357693
-4.840432	Jet	0.0003098758
-4.840432	Jetsons	-3.519071e-05
-4.840432	Jewish	-4.459777e-05
-4.442492	Jim	0.01039459
-4.840432	Jimmy	0.002534281
-4.539402	Joe	0.0003713557
-4.840432	Joey.	0.02357693
-4.442492	John	-0.0001560866
-4.840432	Johnson	0.006546136
-4.840432	Joint	-4.459777e-05
-4.840432	Jon	-3.832643e-05
-4.442492	Jones	0.008534997
-4.840432	Jones.	0.02357693
-4.840432	Jouleen	0.002786701
-4.539402	Journal	0.007492976
-4.840432	Judge	-4.459777e-05
-4.840432	Judicial	-4.459777e-05
-4.840432	Judiciary	-4.459777e-05
-4.840432	Judiciary.	0.02357693
-4.664341	July	-1.706841e-05
-4.840432	June	-4.459777e-05
-4.840432	Jus	-4.146211e-05
-3.451266	Just	0.04807451
-4.442492	Justice	-0.0001306483
-4.664341	Justice,	-6.724505e-05
-4.664341	Justices	0.001903402
-4.840432	Justin	-4.459777e-05
-4.840432	K.C.	0.02357693
-4.539402	KKK	0.008323601
-4.840432	KLTV.com-Tyler,	-4.459777e-05
-4.840432	KY	-4.459777e-05
-4.840432	Kabul,	0.0001435823
-4.840432	Kal	-4.459777e-05
-4.840432	Kal'Stang	0.0002973231
-4.840432	Kamala	-4.459777e-05
-4.840432	Kansas	1.811986e-05
-4.664341	Kant	-7.659618e-06
-4.840432	Kant's	-4.459777e-05
-4.840432	Kanye	0.001069989
-4.840432	Karl	-4.459777e-05
-4.840432	Kates	0.006546136
-4.840432	Katrina	-4.459777e-05
-4.363311	Keep	0.004015325
-4.840432	Keeping	-4.459777e-05
-4.539402	Kelly	0.001197803
-4.840432	Kenny	-4.459777e-05
-4.296364	Kentucky	0.0002916088
-4.840432	Kentucky.	0.02357693
-4.840432	Kids	0.0011989
-4.840432	Killed,	-4.146211e-05
-4.840432	Killer	0.001752711
-4.840432	Killers.”	-2.264763e-05
-4.664341	Killing	8.022113e-06
-4.840432	Killing”.	0.02357693
-4.840432	Kimber	-3.832643e-05
-4.840432	Kimble.	0.02357693
-4.664341	Kind	0.00752798
-4.840432	Kinda	0.0009442585
-4.840432	Kindergarten	-4.459777e-05
-4.664341	King	-7.665253e-05
-4.840432	Kingdom	0.007562894
-4.840432	Kitchen	0.002351368
-4.840432	Kiwi	-4.146211e-05
-4.840432	Klebold	0.006546136
-4.840432	Klein's	-2.891922e-05
-4.840432	Knight	-4.459777e-05
-4.664341	Kokesh	7.075467e-05
-4.840432	Kombat	0.006546136
-4.840432	Kong	0.0005892668
-4.840432	Koon	0.0001184869
-4.539402	Korean	7.338411e-06
-4.840432	Koreatown.	0.02357693
-4.840432	Koresh?.	0.02357693
-4.840432	Kung	-4.459777e-05
-4.664341	Ky.	0.02388047
-4.840432	Kyle	-4.459777e-05
-4.840432	L	-2.578344e-05
-4.840432	L.A	0.001274379
-4.539402	LA	-3.343762e-05
-4.840432	LA?	0.02357693
-4.840432	LAST	0.0002596674
-4.840432	LATimes	-4.459777e-05
-4.840432	LAW	0.001255508
-4.840432	LBJ,	0.002654163
-4.664341	LE	0.01151929
-4.840432	LEA	0.01052471
-4.840432	LEGAL	6.830049e-05
-4.840432	LEGITIMATE	1.811986e-05
-4.840432	LEO	0.007562894
-4.840432	LEO,	-2.264763e-05
-4.840432	LGBT's,	0.001069989
-4.840432	LISTEN	-2.891922e-05
-4.840432	LITERALLY	0.0006206704
-4.840432	LLC	0.005115872
-4.840432	LMR	0.0006049683
-4.664341	LOL	0.0161429
-4.840432	LOL).	0.02357693
-4.664341	LOL,	0.004529074
-4.664341	LOL.	0.0235515
-4.840432	LOL...	-4.459777e-05
-4.840432	LOT	-4.459777e-05
-4.664341	LOVE	0.01052203
-4.664341	La'Pierre	-4.215744e-05
-4.664341	LaMidRighter	0.001714437
-4.18722	LaPierre	0.0002840734
-4.664341	LaPierre,	0.0005446784
-4.664341	LaPierre’s	-7.351672e-05
-4.840432	Labor	0.005115872
-4.840432	Lack	0.007562894
-4.840432	Laden.	0.02357693
-4.840432	Lame,	0.005442829
-4.840432	Landed	0.001069989
-4.027519	Lanza	0.004550102
-4.840432	Lanza's	0.001220913
-4.840432	Larry	-4.459777e-05
-4.664341	Las	-5.748729e-05
-4.539402	Last	0.005824039
-4.664341	Lastly,	-3.274924e-05
-4.840432	Later	-4.459777e-05
-4.840432	Latin	-4.459777e-05
-4.840432	Latin,	0.0005892668
-4.840432	Laugh	-3.832357e-06
-4.840432	Launches	0.0001310344
-4.18722	Law	0.007864428
-4.664341	Law-biding	6.482402e-05
-4.840432	Law.	0.02357693
-4.840432	Law??	0.02357693
-4.141462	Laws	0.00658821
-4.840432	Layout,	0.00171178
-4.664341	Lead	-8.91955e-05
-4.664341	Leave	0.01570368
-4.664341	Lee	-7.97883e-05
-4.296364	Left	0.006849221
-4.840432	Left".	0.02357693
-4.840432	Left's	-4.459777e-05
-4.840432	Left.	0.02357693
-4.840432	Legislation	0.006546136
-4.840432	Legislations	0.003178241
-4.840432	Less	0.001220913
-3.911013	Let	0.01562665
-3.965371	Let's	0.01058984
-4.442492	Lets	0.003496582
-4.840432	Lever	4.948208e-05
-4.840432	Leviticus.	0.02357693
-4.664341	Liberal	0.001251817
-4.840432	Liberal's	2.439213e-05
-4.840432	Liberal.	0.02357693
-4.840432	Liberalism	0.005115872
-4.442492	Liberals	0.0009393882
-4.296364	Libertarian	0.004740964
-4.840432	Libertarianism	2.439598e-06
-4.442492	Libertarians	0.01498128
-4.840432	Libertarians.	0.02357693
-4.363311	Liberty	0.006479472
-4.840432	Liberty,	0.01052471
-4.840432	Library	0.007562894
-4.840432	Libs	0.003178241
-4.840432	License	-1.951181e-05
-4.840432	Licenses.	0.02357693
-4.442492	Life,	-0.0001083474
-4.840432	LifesLittleMysteries.com	-1.951181e-05
-3.761251	Like	0.03148431
-4.539402	Like,	0.0008773874
-4.840432	Likely	0.01503324
-4.840432	Limbaugh	-4.459777e-05
-4.840432	Limited	0.0002502538
-4.840432	Limiting	0.01503324
-4.840432	Lincoln	0.006546136
-4.664341	Lincoln,	0.01502133
-4.840432	Lindsey.	0.02357693
-4.664341	Link	-7.665253e-05
-4.840432	Link:	-4.459777e-05
-4.840432	Live	0.00489698
-4.840432	Liverpool...	-1.32401e-05
-4.840432	Lives:	-4.459777e-05
-4.840432	Living	0.00489698
-4.840432	Loans	-4.459777e-05
-4.664341	Local	0.0003534899
-4.840432	Locke	0.001069989
-4.840432	Logan	-3.832643e-05
-4.840432	Lol	0.0009411159
-4.664341	London	0.0004316428
-4.664341	Long	0.0002715597
-4.840432	Longview,	-4.459777e-05
-4.296364	Look	0.005852676
-4.664341	Look,	0.006676771
-4.840432	Looking	0.001069989
-4.363311	Looks	0.01141724
-4.840432	Lori	-4.459777e-05
-4.442492	Los	-0.0001337841
-4.840432	Loss	0.007562894
-4.840432	Lot	-1.951181e-05
-4.840432	Lots	0.007562894
-4.840432	Lott	0.006546136
-4.840432	Loughner?.	0.02357693
-4.539402	Louisiana	0.0006605833
-4.840432	Louisiana,	0.00171178
-4.840432	Louisiana.	0.02357693
-4.840432	Love	0.0005672858
-4.840432	Low	-4.146211e-05
-4.840432	LowDown	-6.968298e-06
-4.840432	Lower	-4.459777e-05
-4.840432	Loyalists	0.001069989
-4.539402	Lt.	0.02351387
-4.840432	Lubitz,	7.771e-05
-4.664341	Luckily,	0.01550861
-4.840432	Luther's	-3.832643e-05
-4.664341	Lutherf	-7.665253e-05
-4.539402	M&P	-8.953994e-05
-4.840432	M-1	-1.951181e-05
-4.840432	M-16	5.26184e-05
-4.840432	M-16,	0.006546136
-4.840432	M-16?.	0.02357693
-4.840432	M-60	-3.832643e-05
-4.840432	M.D.	0.02357693
-4.664341	M1	-3.90214e-05
-4.539402	M16	0.002101464
-4.664341	M4	-8.91955e-05
-4.840432	MAJORITY	0.007562894
-4.840432	MANY	-3.832643e-05
-4.840432	MEANS	0.01052471
-4.840432	MEMBERS,	0.00171178
-4.840432	MIGHT	0.002786701
-4.840432	MILITARY	-4.459777e-05
-4.840432	MILITIA	0.0008876919
-4.840432	MINORITY	0.007562894
-4.840432	MJ	0.00489698
-4.363311	MMA	0.005639652
-4.840432	MN,	8.711617e-06
-4.840432	MOO	-4.459777e-05
-4.840432	MPH	-4.459777e-05
-4.840432	MRE	-4.459777e-05
-4.664341	MRI	0.0001369725
-4.840432	MSM	0.0007023302
-4.840432	MSNBC	0.0001059398
-4.664341	MSNBC,	0.01500781
-4.840432	MSNBC....	0.0002408406
-4.539402	MUCH	0.00595758
-4.840432	MURDER	-4.146211e-05
-4.840432	MURDER>Violence	-3.832643e-05
-4.840432	MUSKETS	0.0004479793
-4.664341	MUST	-1.079594e-05
-4.840432	Ma	-4.459777e-05
-4.840432	Mac10's,sten's	0.006546136
-4.840432	Machiavellian	0.006546136
-4.840432	Maddow	-1.010418e-05
-4.664341	Made	0.007579043
-4.840432	Madison	0.0002063271
-4.840432	Madison,	-4.146211e-05
-4.840432	Magazine	0.00489698
-4.840432	Magnum	-3.519071e-05
-4.840432	Majesty's	-3.205498e-05
-4.840432	Majority	-4.459777e-05
-4.840432	Make	0.002651006
-4.840432	Maker	-4.459777e-05
-4.539402	Makes	0.0008491022
-4.664341	Making	0.0004253641
-4.840432	Malia.	0.02357693
-4.539402	Man	0.00470962
-4.840432	Man,	0.004503889
-4.840432	Management,	0.0006269514
-4.840432	Manchester	-4.146211e-05
-4.840432	Mandatory	-4.146211e-05
-4.840432	Mansions,	-4.146211e-05
-4.840432	Mansions..etc...	-4.459777e-05
-4.840432	Manta.	0.02357693
-4.840432	Manta;1061906334]No	0.0006175299
-3.965371	Many	0.01606866
-4.664341	Many,	0.0004787375
-4.840432	March	-4.459777e-05
-4.840432	Marine	-4.459777e-05
-4.840432	Marine.	0.02357693
-4.840432	Marines	0.0001153501
-4.840432	Marlboro	-4.146211e-05
-4.840432	Marx's	-4.459777e-05
-4.840432	Marxist	-4.146211e-05
-4.840432	Maryland.	0.02357693
-4.238372	Mass	0.002434741
-4.664341	Massachusetts	0.007260005
-4.840432	Massacre	0.007562894
-4.840432	Massive	-3.832357e-06
-4.840432	Mastering	0.005811346
-4.840432	Material	-4.146211e-05
-4.840432	Matt	-4.459777e-05
-4.840432	Matter	0.007562894
-4.840432	Mauser	0.0005892668
-4.664341	May	0.005398311
-4.840432	May.	0.02357693
-3.58516	Maybe	0.06150506
-4.840432	Maybe,	3.693692e-05
-4.664341	McChrystal	-7.665253e-05
-4.840432	McChrystal:	-1.951181e-05
-4.840432	McDonald	-3.832643e-05
-4.840432	McDonalds	0.001255508
-4.840432	McDowall	-4.146211e-05
-4.840432	McDowall,	-4.459777e-05
-4.840432	McMillon	-1.010418e-05
-4.840432	Mcfly	-4.459777e-05
-4.442492	Me	-6.548743e-05
-4.840432	Means,	0.01052471
-4.840432	Meanwhile	0.0008939763
-4.664341	Media	-8.91955e-05
-4.664341	Medicare	0.007419495
-4.840432	Medicare,	0.006546136
-4.840432	Men	5.575476e-05
-4.840432	Men,	-4.459777e-05
-4.664341	Mental	3.625059e-05
-4.840432	Mercurio,	-4.146211e-05
-4.840432	Merritt.	0.02357693
-4.840432	Mess	0.002351368
-4.840432	Metal	-3.519071e-05
-4.840432	Methinks	0.004503889
-4.840432	Mets	0.0003569516
-4.840432	Mexicans,	-4.459777e-05
-4.840432	Mexico	-4.459777e-05
-4.840432	Mexico).	0.02357693
-4.539402	Mexico,	0.003987254
-4.664341	Mexico.	0.0235515
-4.664341	Middle	-6.375873e-05
-4.840432	Midway,	0.001217769
-4.442492	Might	0.003231175
-4.840432	Mildred	0.00489698
-4.840432	Milita,	0.004503889
-4.363311	Military	0.001121228
-4.840432	Military-Industrial	-4.459777e-05
-4.664341	Militia	0.007729072
-4.238372	Militia,	0.01593173
-4.840432	Militia....	4.948208e-05
-4.840432	Militias	0.003178241
-4.840432	Militias,	0.01052471
-4.840432	Miller’s	-1.637596e-05
-4.840432	Millions	0.007562894
-4.840432	Milosavljevic	0.007562894
-4.840432	Milton	-4.459777e-05
-4.840432	Milwaukee	-3.832643e-05
-4.840432	Milwaukee,	-4.459777e-05
-4.664341	Mini	-6.375873e-05
-4.840432	Minnesota	0.0004071715
-4.840432	Minority	-4.459777e-05
-4.840432	Misdemeanors.	0.02357693
-4.840432	Misrepresentation	0.007562894
-4.840432	Missed	0.01503324
-4.840432	Mississippi.	0.02357693
-4.442492	Missouri	0.004421085
-4.840432	Missouri's	-6.96397e-07
-4.664341	Misterveritis	1.429495e-05
-4.840432	Mitch	0.006546136
-4.840432	Mix	0.005811346
-4.840432	Mode.	0.02357693
-4.840432	Moderate?	0.02357693
-4.840432	Moderator	4.948208e-05
-4.296364	Moderator's	-0.0001560658
-4.539402	Modern	-0.0001118423
-4.840432	Monday	-4.146211e-05
-4.840432	Mongol	-2.578344e-05
-4.840432	Moore	-4.459777e-05
-4.840432	Mope	-6.96397e-07
-4.062281	More	0.008325651
-4.664341	Moreover,	0.001251817
-4.840432	Morris	0.006546136
-4.840432	Mortal	-4.459777e-05
-4.840432	Moscow	-4.459777e-05
-4.840432	Moses	-6.96397e-07
-4.840432	Mossberg	-4.459777e-05
-4.840432	Mossberg.	0.02357693
-3.761251	Most	0.01058681
-4.840432	Mosty	0.007562894
-4.539402	Mother	-0.0001052191
-4.664341	Moving	0.003380167
-4.539402	Mr.	0.0235083
-4.840432	Mrs.	-4.459777e-05
-4.840432	Mubarak	0.001255508
-4.664341	Much	0.001919154
-4.840432	Mule	-3.832643e-05
-4.840432	Multiple	-3.832643e-05
-4.363311	Murder	0.001417272
-4.664341	Murders	0.01151929
-4.840432	Music	0.006546136
-4.840432	Musician	-4.459777e-05
-4.840432	Muslim	-2.264763e-05
-4.664341	Muslims	0.001642021
-4.840432	Muslims,	-4.459777e-05
-4.840432	Must	-6.96397e-07
-3.442492	My	0.0009443637
-4.840432	Mystery	2.439598e-06
-4.664341	NAACP,	0.0004351039
-4.664341	NATO	-8.292406e-05
-4.840432	NBC	-4.146211e-05
-4.840432	NCBI	9.966631e-05
-4.840432	NCIS	0.0011989
-4.840432	NDAA	-4.459777e-05
-4.840432	NE,	0.01503324
-4.840432	NEED	0.01052471
-4.840432	NEED.	0.02357693
-4.442492	NEVER	0.002665657
-4.840432	NFL	0.001359306
-4.539402	NG	0.01572435
-4.539402	NICS	0.00176119
-4.840432	NICS,	2.125599e-05
-4.141462	NO	0.002032708
-4.664341	NO-ONE	0.005071349
-4.840432	NOBODY	0.0007934303
-4.664341	NOLA	0.0004410613
-4.840432	NONE.	0.02357693
-3.726489	NOT	0.01374498
-4.840432	NOTE:	4.948208e-05
-4.539402	NOTHING	0.02085095
-4.840432	NOTHING.	0.02357693
-4.840432	NOW	-2.891922e-05
-4.840432	NOW,	0.000708612
-4.840432	NOW.	0.02357693
-4.664341	NPR	-8.605979e-05
-4.840432	NPR).	0.02357693
-4.840432	NPR.	0.02357693
-4.840432	NPR’s	-3.205498e-05
-3.249368	NRA	0.02842629
-4.442492	NRA's	0.0003518817
-4.840432	NRA).	0.02357693
-4.18722	NRA,	0.02293951
-4.840432	NRA-that	9.025633e-05
-4.442492	NRA.	0.02350064
-4.840432	NRA.".	0.02357693
-4.840432	NRA’s	-2.891922e-05
-4.840432	NSA	-4.459777e-05
-4.840432	NSA,	0.006546136
-4.840432	NULL	-4.459777e-05
-4.442492	NY	0.003812941
-4.840432	NY.	0.02357693
-4.363311	NYC	0.01247923
-4.840432	NYC.	0.02357693
-4.840432	NYP	0.0001247606
-4.840432	NYT,	-4.459777e-05
-4.664341	NZ	0.002606448
-4.840432	NZ.	0.02357693
-4.840432	Nah	0.005442829
-4.840432	Napster	8.711617e-06
-4.840432	Narcissistic	-4.459777e-05
-4.840432	Nation	-3.832643e-05
-3.965371	National	-0.0004117096
-4.840432	Nationality	0.001217769
-4.840432	Nationwide,	0.001752711
-4.840432	Native	-3.519071e-05
-4.840432	Nato	-4.459777e-05
-4.238372	Natural	-0.0002428331
-4.840432	Natural/fundimental	0.0002031896
-4.840432	Naturally,	0.001752711
-4.840432	Nature	0.005115872
-4.840432	Navy	-4.459777e-05
-4.840432	Navy's	-4.459777e-05
-4.840432	Navy,	-4.146211e-05
-4.664341	Nazi	0.01504731
-4.539402	Nazis	0.001603746
-4.840432	Nazis.	0.02357693
-4.840432	Nazism	0.006546136
-4.840432	Needless	0.01052471
-4.539402	Neither	0.007483494
-4.840432	Nepotism	-3.205498e-05
-4.840432	Net	-4.459777e-05
-4.664341	Neurology	0.006520704
-4.840432	Nevada,	0.0004605362
-4.363311	Never	-3.445274e-05
-4.027519	New	-0.0002639845
-4.840432	Newport	-3.519071e-05
-4.18722	News	0.006629564
-4.664341	News,	-6.689441e-05
-4.664341	News.	0.0235515
-4.840432	NewsMax,	-4.459777e-05
-4.840432	Newshub	-6.968298e-06
-4.840432	Newton,	0.006546136
-4.442492	Newtown	0.0006442713
-4.539402	Newtown,	-0.0001243858
-4.539402	Next	0.02591104
-4.840432	Next,	0.01503324
-4.539402	Nice	0.01735032
-4.840432	Nice....	0.02357693
-4.840432	Night	-4.459777e-05
-4.664341	Nikolas	-8.91955e-05
-4.840432	Nilly	-4.459777e-05
-3.4011	No	0.02200674
-3.694304	No,	0.05754605
-4.363311	No.	0.02347521
-4.840432	No;	0.0002188772
-3.937342	Nobody	0.007051227
-4.18722	None	0.007455205
-4.840432	Nonsense.	0.02357693
-4.539402	Nope,	0.007764415
-4.442492	Nor	0.008775014
-4.840432	Norad	-4.459777e-05
-4.840432	Norm	-4.459777e-05
-4.840432	Normally	0.001425374
-4.840432	Normandy,	0.0004699542
-4.664341	North	-8.605979e-05
-4.296364	Northern	-0.0001912616
-4.664341	Northfield	3.625063e-05
-4.664341	Norway	0.0002276258
-4.840432	Norway,	-4.459777e-05
-3.342122	Not	0.06222191
-4.539402	Note	0.01643721
-4.664341	Noted.	0.0235515
-4.141462	Nothing	0.02817168
-4.840432	Nothing.	0.02357693
-4.664341	November	0.001450022
-3.694304	Now	0.02510969
-4.141462	Now,	0.008613179
-4.840432	Now...if	0.004503889
-4.840432	Nowadays	0.0006175299
-4.664341	Nowhere	0.005509469
-4.664341	Nuclear	5.22777e-05
-4.664341	Nugent	0.001686099
-4.840432	Nugent:	5.26184e-05
-4.664341	Nut	-1.079591e-05
-4.840432	O	0.005442829
-4.840432	O'Keefe's	-3.832643e-05
-4.664341	O'Keefe,	0.001903402
-4.840432	O.K	8.711969e-05
-4.840432	OBTAINING	0.0002408406
-4.539402	OC	0.006495273
-4.296364	OF	0.01191527
-4.840432	OH	-4.459777e-05
-4.027519	OK	0.006502581
-4.442492	OK,	0.005763642
-4.840432	OK.	0.02357693
-4.840432	OK...	0.02357693
-4.664341	ON	-8.91955e-05
-4.840432	ONCE,	-3.205498e-05
-4.539402	ONE	0.000192447
-4.238372	ONLY	0.0007653648
-4.840432	OOOHHHH	-4.459777e-05
-4.141462	OP	0.01004954
-4.840432	OP!	0.02357693
-4.664341	OP's	5.820741e-05
-4.539402	OP,	0.01300093
-4.539402	OP.	0.02352607
-4.664341	OR	0.002423484
-4.840432	OTHER	0.0006646392
-4.840432	OUR	-4.459777e-05
-4.664341	OUT	-7.351672e-05
-4.840432	OWN	-1.951181e-05
-4.840432	OWNERS	-2.891922e-05
-4.840432	OWNING	0.008550055
-4.840432	OWS.	0.02357693
-3.609983	Obama	0.03267584
-4.840432	Obama"?.	0.02357693
-4.363311	Obama's	2.795132e-05
-4.840432	Obama's,	-3.832643e-05
-4.840432	Obama?	0.02357693
-4.840432	Obamas.	0.02357693
-4.840432	Obama’s	-4.146211e-05
-4.442492	Obviously	0.01777308
-4.664341	Obviously,	0.00603707
-4.840432	Obviously...	0.00171178
-4.840432	Occurred	-4.146211e-05
-4.840432	Ocean.	0.02357693
-4.840432	Ockham	-1.637596e-05
-4.840432	October	-4.459777e-05
-4.840432	Odd	0.0001592676
-3.911013	Of	0.01477963
-4.840432	Offences)	0.00489698
-4.840432	Offender	0.0001310344
-4.840432	Offhand	0.005442829
-4.664341	Office	0.001903402
-4.664341	Officer	0.003263232
-4.840432	Officers	0.007562894
-4.840432	Officers”	-4.459777e-05
-4.840432	Officials	-4.459777e-05
-3.937342	Oh	0.01066069
-3.995334	Oh,	0.01582959
-4.840432	Ohio,	-2.891922e-05
-4.840432	Ohio.	0.02357693
-4.840432	Oil,	-4.459777e-05
-4.539402	Ok	0.01046795
-4.296364	Ok,	0.002601796
-4.442492	Okay,	0.005169568
-4.840432	Okay;	0.0011989
-4.840432	Ol'	-4.459777e-05
-4.840432	Old	-4.459777e-05
-4.10007	On	0.01633216
-4.442492	Once	-0.0001219427
-3.761251	One	0.01335605
-4.10007	Only	0.03457912
-4.840432	Ontario,	0.0004605362
-4.840432	Ontologuy,	0.001359306
-4.840432	Open	0.005115872
-4.840432	Opinions	-3.519071e-05
-4.840432	Options	-4.459777e-05
-3.609983	Or	0.06273965
-4.442492	Or,	0.01058099
-4.664341	Order	0.01827698
-4.840432	Ordinance	-3.205498e-05
-4.840432	Oregon	0.006546136
-4.664341	Oregon.	0.0235515
-4.840432	Organization	0.002534281
-3.378034	Originally	-0.001290885
-4.840432	Origins,	-4.459777e-05
-4.840432	Orlando	0.0002816329
-4.664341	Orleans	0.005766833
-4.840432	Orwell	-4.459777e-05
-4.840432	Osama	-4.459777e-05
-4.840432	Oslo".[33][35][37].	0.02357693
-4.840432	Oswald	0.0001216237
-4.062281	Other	0.001619352
-4.840432	Others	0.003178241
-3.911013	Our	0.001242149
-4.539402	Out	0.007512031
-4.664341	Outlawing	0.0002558687
-4.840432	Outside	0.01503324
-4.664341	Over	-8.91955e-05
-4.840432	Over/Under	-4.146211e-05
-4.840432	Overall,	0.008550055
-4.840432	Overturning	-3.519071e-05
-4.664341	Own	0.008505584
-4.539402	Owned	0.00117005
-4.664341	Owner	-3.274921e-05
-4.664341	Owning	0.008566357
-4.664341	O’Keefe	0.0001931092
-4.664341	O’Keefe’s	-8.292406e-05
-4.840432	PAC-money	0.006546136
-4.840432	PART	-2.891922e-05
-4.840432	PC	0.001359306
-4.664341	PCA	0.0002746982
-4.539402	PEOPLE	0.008067882
-4.840432	PER	-4.459777e-05
-4.840432	PERIOD.	0.02357693
-4.840432	PETA	-4.146211e-05
-4.840432	PF	-1.010418e-05
-4.840432	PHOTO	-2.891922e-05
-4.840432	PITB.	0.02357693
-4.840432	PLEASE	0.0001529935
-4.840432	PLURAL	0.002786701
-4.840432	PMC	-4.459777e-05
-4.840432	PMID	-4.459777e-05
-4.840432	POINT	-3.832643e-05
-4.840432	POLICE	-3.519071e-05
-4.840432	POSSIBILITY)	-4.459777e-05
-4.664341	POV	0.00667677
-4.840432	POWER	-2.891922e-05
-4.840432	PRESCOTT	-4.459777e-05
-4.840432	PRISON	8.084653e-05
-4.840432	PROJECT	-1.951181e-05
-4.840432	PROVIDE	-4.459777e-05
-4.840432	PS-	0.000535886
-4.840432	PS201H-4A	9.966631e-05
-4.840432	PT	0.006546136
-4.442492	PTSD	0.005039579
-4.840432	PTSD?	0.02357693
-4.840432	PUBLIC	-4.459777e-05
-4.840432	Pac-money.	0.02357693
-4.840432	Pacific	-4.459777e-05
-4.840432	Paddock's	-1.951181e-05
-4.840432	Paid	-2.891922e-05
-4.840432	Palin,	-4.459777e-05
-4.840432	Paranoia	0.0008594111
-4.539402	Parents	0.004519406
-4.840432	Paris'	-1.951181e-05
-4.840432	Parish	-4.459777e-05
-4.664341	Parkland	0.005087215
-4.840432	Parkland.	0.02357693
-4.840432	Part	0.007562894
-4.840432	Parties	6.516403e-05
-4.840432	Partisan	-3.519071e-05
-4.539402	Party	0.001745443
-4.840432	Party,	-4.459777e-05
-4.840432	Passionate	0.001353015
-4.840432	Pathetic!	0.02357693
-4.539402	Paul	-0.0001337931
-4.840432	Paul's	0.0002031896
-4.840432	Peace	0.01052471
-3.636312	People	0.04892328
-4.840432	People's.	0.02357693
-4.840432	Pepper	0.005115872
-4.840432	Perfect	-4.459777e-05
-4.18722	Perhaps	0.01677552
-4.539402	Period.	0.02352607
-4.664341	Permit	0.00313369
-4.840432	Perry	-3.519071e-05
-4.840432	Person,	-4.459777e-05
-4.840432	Personal?	0.02357693
-4.840432	Personally	0.005442829
-4.442492	Personally,	0.005490375
-4.840432	Personally....I	0.001274379
-4.840432	Perspective	-3.832643e-05
-4.539402	Peter	-0.0001243858
-4.840432	Pew	-3.832643e-05
-4.840432	Pharisees	0.0005892668
-4.840432	Philosophy	0.001069989
-4.840432	Phoenix	0.006546136
-4.840432	Pillaging	0.001255508
-4.664341	Pinto	0.001210929
-4.840432	PirateMk1	-2.578344e-05
-4.664341	Pistol	-6.689441e-05
-4.840432	Plain	0.006546136
-4.840432	Play	-1.637596e-05
-4.840432	Playing	0.008550055
-3.937342	Please	0.001630676
-4.840432	Please,	0.0002816329
-4.664341	Plus	0.002215377
-4.664341	Point	0.001865603
-4.840432	Poli	-4.459777e-05
-3.819243	Police	0.03007532
-4.840432	Police,	-4.459777e-05
-4.840432	Police.	0.02357693
-4.840432	Policy:	-4.146211e-05
-4.539402	PolitiFact	0.002735465
-4.664341	Political	-5.783737e-05
-4.840432	Politico	-4.459777e-05
-4.840432	Politics...	0.001233493
-4.840432	Polls"?	0.02357693
-4.840432	Poor	-4.459777e-05
-4.840432	Port	-4.459777e-05
-4.539402	Posse	-8.918951e-05
-4.840432	Possibly	-1.637596e-05
-4.442492	Post	-1.843578e-05
-4.840432	Postal"	9.339297e-05
-3.378034	Posted	-0.0001789922
-4.840432	Posthumous	-2.578344e-05
-4.664341	Posttraumatic	-6.689441e-05
-4.840432	Potential	-2.891922e-05
-4.840432	Potus	0.001541802
-4.840432	Potus.	0.02357693
-4.840432	Pouts,	-4.459777e-05
-4.840432	Power	0.01052471
-4.664341	Prague	0.001922304
-4.840432	Pratt	-2.264763e-05
-4.840432	Preamble	0.01052471
-4.840432	Precisely.	0.02357693
-4.840432	Prepare	-4.459777e-05
-4.664341	Prescott	-6.689441e-05
-3.965371	President	0.01390875
-4.664341	President's	-7.97883e-05
-4.840432	President,	-4.146211e-05
-4.840432	President.	0.02357693
-4.840432	Press	-1.010418e-05
-4.840432	Pretend	0.0006206704
-4.664341	Pretty	0.0003440737
-4.664341	Prevention	-6.375873e-05
-4.664341	Principles	0.003152808
-4.840432	Privately	-2.578344e-05
-4.840432	Pro	0.0001498564
-4.664341	Pro-Gun	-3.553649e-05
-4.840432	Pro-Life	-1.010418e-05
-4.840432	Pro.	0.02357693
-4.296364	Probably	0.03140158
-4.840432	Probably.	0.02357693
-4.840432	Process	-4.146211e-05
-4.539402	Professional	-2.681779e-05
-4.664341	Program	0.001774267
-4.840432	Prohibit	0.0001278975
-4.840432	Prohibiting	-1.951181e-05
-4.840432	Prohibition.	0.02357693
-4.840432	Prohibitive	-4.459777e-05
-4.840432	Property.	0.02357693
-4.840432	Proponents	0.0008594111
-4.840432	Protection	-4.146211e-05
-4.840432	Protection?	0.02357693
-4.840432	Prove	0.01052471
-4.840432	Proving	0.01503324
-4.840432	Psych	3.066444e-05
-4.840432	Psycho	0.006546136
-4.840432	PubMed	0.0002502538
-4.664341	Public	-8.91955e-05
-4.840432	Puerto	-4.459777e-05
-4.840432	Pulling	0.008550055
-4.840432	Pump	0.006546136
-4.840432	PurchSed	2.439598e-06
-4.840432	Put	-1.32401e-05
-4.840432	Putin	0.0011989
-4.840432	Putin's	-4.459777e-05
-4.840432	Putting	-4.459777e-05
-4.840432	Q	0.0004919306
-4.840432	Queen	3.380068e-05
-4.840432	Queens,	0.001714928
-4.840432	Query,	0.0004260053
-4.840432	Question	3.380068e-05
-4.840432	Questions	-3.832643e-05
-4.840432	Quicken	-4.459777e-05
-4.840432	Quit	8.398308e-05
-4.539402	Quite	0.02386498
-4.840432	Quitman,	-4.146211e-05
-4.840432	Quote	0.001022836
-4.664341	R	0.000130359
-4.840432	RATHER	0.00171178
-4.840432	RC	-4.146211e-05
-4.840432	REAL/enforced	0.002499585
-4.664341	REALLY	8.016532e-05
-4.840432	REASON	0.0005296064
-4.664341	RIGHT	0.01048026
-4.840432	RKBA.	0.02357693
-4.840432	ROADS.	0.02357693
-4.840432	ROFL.	0.02357693
-4.840432	ROTC	0.001233493
-4.840432	ROTFLMAO!!	0.02357693
-4.840432	RPGs	0.003178241
-4.840432	RULE	-4.146211e-05
-4.840432	Race	-4.146211e-05
-4.840432	Rachel	-4.459777e-05
-4.840432	Rainier	0.0001373083
-4.664341	Rainman05	-5.748729e-05
-4.840432	Raise	0.01503324
-4.840432	Rallying	0.0002251522
-4.664341	Rambo	-6.724503e-05
-4.840432	Rambos	-3.832357e-06
-4.840432	Rand	-2.578344e-05
-4.664341	Rangers	0.01610384
-4.840432	Ranges	-4.459777e-05
-4.840432	Rarely	-4.459777e-05
-4.840432	Rate.	0.02357693
-4.840432	Rates	-4.459777e-05
-4.664341	Rather	0.0006231926
-4.840432	Rathergate?	0.02357693
-4.840432	Rauner	-3.519071e-05
-4.840432	Ray9	-3.205498e-05
-4.840432	Rayburn	-4.459777e-05
-4.840432	Rd,	-4.459777e-05
-4.840432	Re:	0.001491451
-4.238372	Read	0.01718659
-4.840432	Ready?	0.02357693
-4.238372	Reagan	0.02514975
-4.664341	Real	-6.097329e-05
-4.840432	Real.	0.02357693
-4.664341	Reality	0.006329751
-4.840432	Realizing	0.0009725448
