
\data\
ngram 1=7016
ngram 2=21859

\1-grams:
-4.292909	"A	-0.0001016936
-4.292909	"Ah..I	-7.956736e-05
-4.292909	"Ah..it's	-4.637586e-05
-4.292909	"Arms"..like	-0.0001016936
-4.116818	"Ban	-0.0002033862
-4.292909	"David	-0.0001016936
-4.292909	"Fox	-1.31818e-05
-4.292909	"Fun	0.004256743
-4.292909	"Gun	-0.0001016936
-4.292909	"Gunfight,"	0.001139117
-4.292909	"How	0.001294468
-4.292909	"I	2.001478e-05
-4.292909	"In	-9.063064e-05
-4.292909	"Keep	4.214733e-05
-4.292909	"Lets	0.000473956
-4.292909	"Military	-0.0001016936
-4.292909	"NO..NO...you	0.0003299721
-4.292909	"Officer,	-5.743997e-05
-4.292909	"Oh,	-7.956736e-05
-4.292909	"One	0.006620972
-4.292909	"Poway:	-2.11652e-06
-4.292909	"Right	0.009540741
-4.292909	"Sex..	0.009540741
-4.292909	"THIS	-9.063064e-05
-4.292909	"The	-0.0001016936
-4.292909	"There	0.004771071
-4.292909	"This	-6.850381e-05
-4.292909	"Tyranny"	4.214733e-05
-4.292909	"Well-Regulated"	0.004256743
-4.292909	"YOU	-0.0001016936
-4.292909	"Yes	0.001017095
-4.292909	"You	0.0003299721
-4.292909	"[3]	0.00128337
-4.292909	"admission".	0.02244437
-4.292909	"analysis"	0.006620972
-4.292909	"arm."	0.02244437
-4.292909	"assault	-0.0001016936
-4.292909	"banning	-0.0001016936
-4.292909	"big"	0.004771071
-4.292909	"can't	-0.0001016936
-4.292909	"developed"	-4.637586e-05
-4.116818	"eliminate	0.0007445132
-4.116818	"every	-5.953802e-05
-4.292909	"firearms"	-2.424678e-05
-4.292909	"freedumb"	0.009540741
-4.292909	"garbage"	-5.743997e-05
-4.292909	"getting	-0.0001016936
-4.292909	"good	4.214733e-05
-3.894969	"gun	-7.470472e-05
-4.292909	"gun-grabbing	-0.0001016936
-4.292909	"guns	0.0009283723
-4.292909	"hero	0.001972003
-4.292909	"how	0.0009727312
-4.116818	"if	0.00509499
-4.292909	"illegal"	0.0001638961
-4.292909	"inspired"	0.009540741
-4.292909	"issues",	0.002172134
-4.292909	"it	4.214733e-05
-4.292909	"jews"	-9.063064e-05
-4.292909	"kawnstitution"	-1.31818e-05
-4.292909	"legitimate	-0.0001016936
-4.292909	"lie"	0.0008064094
-4.292909	"literal"	-0.0001016936
-4.292909	"mortality"	0.006037123
-4.292909	"moving	0.001150211
-4.292909	"no-fault"	-7.956736e-05
-4.292909	"oh	-6.850381e-05
-4.292909	"or	-0.0001016936
-4.292909	"people	0.0005182684
-4.292909	"pets"	0.002784216
-4.292909	"pointe	-0.0001016936
-4.292909	"prosecuted	0.006037123
-4.292909	"prove	-0.0001016936
-4.292909	"racial	-9.063064e-05
-4.292909	"racism!"	0.02244437
-4.292909	"regulated".	0.02244437
-4.292909	"responsible	0.002450246
-4.292909	"rich"	4.214733e-05
-4.292909	"rifle"	0.0005404263
-4.292909	"shooting	-0.0001016936
-4.292909	"soft"	0.001972003
-4.292909	"soft",	0.006620972
-4.292909	"solutions"	0.005106831
-4.292909	"some",	0.006037123
-4.292909	"terrorizing	0.0146723
-4.292909	"this	5.321399e-05
-4.292909	"waa,	0.003910473
-4.292909	"well	9.748345e-05
-4.292909	"well-regulated"?.	0.02244437
-4.292909	"what	0.002839902
-4.292909	"you	0.0003299721
-4.292909	#	-0.0001016936
-3.36349	#000000;	-0.000863237
-3.36349	#000;	-0.000863237
-3.36349	#FFFFFF;	-0.000863237
-4.292909	$$$	-1.31818e-05
-4.292909	$$$,	0.002327854
-4.292909	$15	-0.0001016936
-4.292909	$17	2.001478e-05
-4.292909	$2,100	0.006037123
-4.116818	$20	-0.0001812588
-4.292909	$30	2.001478e-05
-4.292909	$45	2.001478e-05
-4.292909	$500	0.006037123
-3.593939	&	0.02740503
-4.292909	'68	0.0002192478
-4.292909	'American	-0.0001016936
-4.292909	'Happy	-0.0001016936
-4.292909	'Merican	7.534814e-05
-4.292909	'Neill	-4.637586e-05
-4.292909	'Olympic	-0.0001016936
-4.292909	'Some	2.001478e-05
-4.292909	'any	-0.0001016936
-4.292909	'assault	0.0001417574
-4.292909	'assualt	-0.0001016936
-4.292909	'be	-0.0001016936
-4.292909	'because	-0.0001016936
-4.292909	'blunt	-0.0001016936
-4.292909	'broken'	-0.0001016936
-4.292909	'can'	0.0002967519
-4.292909	'commission'	0.0003742698
-4.292909	'dealer'	3.108093e-05
-4.116818	'defenders'	0.006631999
-4.292909	'don't	0.0009616412
-4.292909	'for	0.0004185719
-4.292909	'freedom'	0.002784216
-3.748841	'gun'	0.0001762291
-4.292909	'guns	0.002839902
-4.292909	'how	0.000252462
-4.292909	'isn't	0.0146723
-4.292909	'largely	-0.0001016936
-4.292909	'logic'	0.006620972
-4.292909	'logical'	0.001017095
-3.36349	'lucida	-0.000863237
-4.292909	'massive	-0.0001016936
-4.292909	'muse',	0.006037123
-4.292909	'new'	-7.956736e-05
-4.292909	'no	-0.0001016936
-4.292909	'punishment'	0.002784216
-4.292909	'the	-0.0001016936
-4.292909	'thought	-0.0001016936
-4.292909	'walk	0.0003299721
-4.292909	'won'	0.0146723
-3.748841	(	0.002122011
-4.292909	(0.2%)	0.005106831
-4.292909	(12):	-0.0001016936
-4.292909	(1769);	-9.063064e-05
-4.292909	(1804);	-0.0001016936
-4.292909	(1815);	-7.956736e-05
-4.292909	(1822);	-2.424678e-05
-4.292909	(1824);	-0.0001016936
-4.292909	(1831);	-0.0001016936
-4.292909	(1840);	-0.0001016936
-4.292909	(1847);	-0.0001016936
-4.292909	(1849);	-0.0001016936
-4.292909	(1852).	0.02244437
-4.292909	(1871);	-3.531145e-05
-4.292909	(1874).	0.02244437
-4.292909	(1994).	0.02244437
-4.292909	(2009)	0.000285679
-4.292909	(258,460	6.428087e-05
-4.292909	(6	0.001372164
-4.116818	(=	0.0006604189
-4.292909	(AP)	-9.063064e-05
-4.292909	(ATF).	0.02244437
-4.292909	(Cleckley,	-0.0001016936
-4.292909	(G.	-0.0001016936
-3.991879	(I	0.003138372
-4.292909	(IF)	0.0146723
-4.292909	(Iran)	0.006037123
-4.292909	(Oh,	0.004771071
-4.292909	(Pinocet	0.004256743
-4.292909	(R)	0.001972003
-4.292909	(Reuters)	0.000285679
-4.292909	(S&W)	0.0008174955
-4.292909	(Williamson	-6.850381e-05
-4.292909	(Yes,	0.0005625854
-3.991879	(a	-0.0001546252
-4.292909	(although	0.0146723
-3.894969	(and	0.01511425
-4.292909	(are	0.003910473
-3.894969	(as	0.006890408
-4.292909	(both	8.949034e-06
-4.292909	(but	0.0003299721
-4.292909	(changing	-7.956736e-05
-4.292909	(deadly	-0.0001016936
-4.292909	(equiv.	0.02244437
-4.292909	(from	-0.0001016936
-4.292909	(hey,	4.214733e-05
-4.292909	(how	-0.0001016936
-4.116818	(i.e.	0.02238248
-4.292909	(if	0.002327854
-4.116818	(in	0.0002726014
-4.292909	(interesting	-6.850381e-05
-4.292909	(more	0.0008507556
-4.116818	(not	-0.0001480656
-4.292909	(of	-0.0001016936
-3.991879	(or	-0.0002386886
-4.292909	(scamming	0.002784216
-4.292909	(see:	-9.063064e-05
-4.292909	(small-L	-4.637586e-05
-4.292909	(stabbings)	0.0001085515
-4.292909	(the	-0.0001016936
-4.292909	(there	0.001061462
-4.292909	(trained	-0.0001016936
-4.292909	(unintended)	-7.956736e-05
-4.292909	(whether	0.001538703
-4.292909	(without	0.0146723
-4.292909	(works	0.0003299721
-4.116818	)	-0.0001259354
-4.292909	**	-0.0001016936
-4.292909	**)	-7.956736e-05
-3.748841	****	0.0009973487
-4.292909	****.	0.02244437
-4.292909	****ING	-0.0001016936
-4.292909	****in	0.000473956
-3.991879	****ing	-0.0001169491
-4.292909	*340,	-9.063064e-05
-4.292909	*cough*	-9.063064e-05
-4.292909	*cough*.	0.02244437
-4.292909	+10%	-7.956736e-05
-4.292909	,	0.0003742698
-3.025738	-	0.03511309
-4.116818	--	0.001137355
-4.292909	----conservatives	0.006037123
-4.292909	-Antonin	-7.956736e-05
-4.292909	-life	-2.424678e-05
-3.417848	.	0.02164041
-4.292909	..	-7.956736e-05
-3.991879	...	0.006969222
-4.292909	......is	-9.063064e-05
-4.292909	...Georgia	0.0005404263
-4.292909	...I've	-2.11652e-06
-4.292909	...but	0.004771071
-4.292909	...from	0.0146723
-4.292909	...meaning	0.001294468
-4.292909	...no	-5.743997e-05
-4.292909	...not	-3.531145e-05
-4.292909	...source...	-0.0001016936
-4.292909	...the	-7.956736e-05
-3.815788	.22	0.002517971
-4.292909	.22.	0.02244437
-4.292909	.223	-0.0001016936
-4.292909	.223-caliber	-2.11652e-06
-4.292909	.22lr	-1.31818e-05
-4.292909	.308-caliber	-2.11652e-06
-4.292909	.380s,	0.0008507556
-4.116818	.44	0.0007712872
-4.292909	.45.	0.02244437
-4.292909	.454	-0.0001016936
-3.36349	.code{font-family:	-0.000863237
-3.991879	/	-6.247281e-06
-3.36349	/*overflow:	-0.0006861276
-4.292909	0	0.000285679
-4.292909	0%	0.006037123
-4.292909	0.83%	0.006620972
-3.075425	0px	-0.001513735
-3.639697	1	0.004089396
-4.292909	1%	-5.743997e-05
-4.292909	1)	0.004771071
-4.116818	1,	-0.0001193362
-4.292909	1,000	-6.850381e-05
-4.292909	1.	0.02244437
-3.639697	10	0.01094105
-4.292909	10,000	-2.11652e-06
-3.991879	100	0.00721681
-4.292909	100-round	-9.063064e-05
-3.991879	11	-1.731879e-05
-4.292909	11,004	8.641566e-05
-4.292909	1100	-2.11652e-06
-4.292909	12	0.009540741
-4.116818	12-gauge	-0.0001923227
-4.292909	12.	0.02244437
-4.292909	120	-2.11652e-06
-4.292909	120%	-9.063064e-05
-4.292909	123;	-0.0001016936
-4.292909	130)	0.004256743
-4.292909	135.	0.02244437
-4.116818	14	0.002983479
-4.292909	148149	-0.0001016936
-4.292909	15	0.0008729301
-4.292909	152153;	-0.0001016936
-3.991879	16	0.002202608
-4.292909	1615397.	0.02244437
-4.292909	17	-9.063064e-05
-4.292909	1787?	0.02244437
-4.292909	1788).	0.02244437
-4.292909	179.	0.02244437
-4.116818	1791	-0.0001701947
-4.292909	1791',	0.006037123
-4.292909	1791,	0.002205498
-4.292909	1884).	0.02244437
-4.292909	18th	-0.0001016936
-4.292909	1940-41	-9.063064e-05
-4.292909	1941,	-0.0001016936
-4.116818	1967	0.005935745
-4.292909	1982–1984.	0.02244437
-3.991879	1987	0.01570848
-4.292909	1987–1990.	0.02244437
-4.292909	1990".	0.02244437
-4.116818	1990,	0.0004276869
-4.292909	1991).	0.02244437
-4.292909	1993,	0.0008285819
-4.116818	1994	0.009767712
-4.116818	19th-century	-0.0001812588
-3.36349	1px	-0.000863237
-4.292909	1st	-1.31818e-05
-3.815788	2	0.008463155
-4.292909	2)	0.004771071
-4.292909	2,628,532	-0.0001016936
-4.292909	2.As	2.001478e-05
-4.292909	20%	0.006620972
-4.292909	20-year-old	-7.956736e-05
-4.292909	20.52	-4.637586e-05
-4.292909	200	0.004256743
-4.292909	2004,	0.0005293473
-4.292909	2008	0.0005293473
-3.36349	200px;*/}	-0.000863237
-4.292909	2012.	0.02244437
-4.292909	2015,	-0.0001016936
-3.991879	2016	0.005834369
-4.292909	2016,	0.002172134
-4.292909	2016.	0.02244437
-4.292909	2016....	-9.063064e-05
-4.292909	2017	-7.956736e-05
-4.292909	2018	-0.0001016936
-4.292909	2019	0.002327854
-4.116818	2020	-0.0001701947
-4.116818	2020.	0.02238248
-4.292909	22	-7.956736e-05
-4.292909	223	-4.637586e-05
-4.292909	23	0.0009061946
-4.292909	25,	0.006037123
-4.292909	251;	0.0002635341
-4.292909	26	-0.0001016936
-4.292909	260	0.004771071
-4.292909	260.	0.02244437
-4.292909	271272	-0.0001016936
-4.292909	28%	0.006620972
-4.292909	288,	-0.0001016936
-4.292909	289	-0.0001016936
-4.292909	2;	0.00128337
-3.991879	2A	0.001413235
-4.292909	2A.	0.02244437
-4.292909	2a	0.002016468
-3.338667	2nd	0.005428282
-4.292909	2nd,	0.004771071
-4.116818	2nd.	0.02238248
-3.36349	2px;	-0.000863237
-4.116818	3	-8.167161e-05
-4.292909	3"	0.004256743
-4.292909	3%	0.006620972
-4.292909	3)	8.641566e-05
-4.292909	3.1.	0.02244437
-3.894969	30	-0.0001898964
-3.894969	300	0.0005790945
-4.292909	307	-0.0001016936
-4.292909	308	0.001338864
-4.292909	30rd	-9.063064e-05
-4.292909	33%	0.006620972
-4.292909	333.	0.02244437
-4.292909	34	-0.0001016936
-4.292909	346;	-0.0001016936
-4.116818	35	0.001437095
-4.292909	380	-1.31818e-05
-4.292909	381,	-0.0001016936
-4.292909	383384	-0.0001016936
-4.292909	3?	0.02244437
-3.748841	4	0.006406762
-4.292909	4)	3.108093e-05
-4.116818	40	0.001592596
-4.292909	4000	0.0007620673
-4.292909	422	0.004256743
-4.292909	43	-0.0001016936
-4.292909	454,000	2.001478e-05
-4.292909	46,319	0.002450246
-4.292909	47).	0.02244437
-4.292909	473,	-0.0001016936
-4.292909	476	-0.0001016936
-4.292909	48	-0.0001016936
-4.292909	482	-0.0001016936
-4.292909	489490;	-0.0001016936
-3.593939	5	0.00909883
-4.292909	5-4	-0.0001016936
-3.748841	50	0.00114176
-4.116818	5000	-0.000103804
-4.292909	52,	0.002205498
-4.292909	54	0.006620972
-4.292909	56405480_2289132364696180_2026081445281267712_n.jpg	4.214733e-05
-4.292909	57,000	0.0009061946
-4.292909	58	0.001538703
-4.292909	59.	0.02244437
-3.815788	6	0.001565664
-4.292909	6.	0.02244437
-4.292909	6.5mm.	0.02244437
-4.292909	60%	-0.0001016936
-4.292909	6000	0.006037123
-4.292909	64	-0.0001016936
-4.292909	64,615	6.428087e-05
-4.292909	65%)	0.006620972
-4.292909	65,	-0.0001016936
-4.292909	657,936	8.641566e-05
-4.292909	67	-0.0001016936
-4.292909	67242503	8.949034e-06
-4.292909	71	-9.063064e-05
-4.292909	71%	0.006620972
-4.292909	726	-0.0001016936
-4.292909	75	-6.850381e-05
-4.292909	76.	0.02244437
-4.292909	79	-0.0001016936
-4.292909	7998641.	0.02244437
-4.116818	8	0.004669628
-4.292909	80%	-0.0001016936
-4.292909	84	-0.0001016936
-4.292909	84,	-9.063064e-05
-4.292909	8?.	0.02244437
-4.292909	90%	0.006620972
-4.292909	90%.	0.02244437
-4.292909	90s,	-4.637586e-05
-4.292909	95%	0.006620972
-4.292909	99	6.428087e-05
-3.991879	9mm	0.001279961
-1.295523	</s>
-99	<s>	-0.08335584
-3.991879	=	0.0007537554
-4.292909	=======================================	-0.0001016936
-4.292909	=============================================	-0.0001016936
-4.292909	==============================================	0.0001306885
-4.292909	===============================================	-7.956736e-05
-4.292909	================================================	-0.0001016936
-3.639697	?	0.02201128
-4.116818	?.	0.02238248
-3.162575	A	0.009065145
-4.292909	ACKNOWLEDGE	2.001478e-05
-3.991879	AK	0.003327998
-4.292909	AK-47	-9.063064e-05
-4.292909	AK.	0.02244437
-4.292909	AK47,	0.001372164
-4.292909	AMerica"	0.005106831
-4.292909	AND	-0.0001016936
-4.292909	APD	-5.743997e-05
-3.748841	AR	0.007250806
-4.292909	AR's	-0.0001016936
-4.292909	AR,	0.000861843
-3.552547	AR-15	-0.0009394042
-4.292909	AR-15"	0.0001638961
-4.292909	AR-15.	0.02244437
-4.292909	AR-15s.	0.02244437
-4.116818	ARC	-0.0002033862
-4.292909	ARE	-9.063064e-05
-4.292909	ATF	0.006037123
-4.292909	ATF...	0.0001749658
-4.292909	AWB	0.001150211
-4.292909	AZ	-4.637586e-05
-4.292909	Abbott	-0.0001016936
-4.292909	Abiding	-9.063064e-05
-4.292909	Abolishing	0.0146723
-4.292909	About	-5.743997e-05
-4.292909	Abridgment	0.006620972
-4.116818	According	0.009478846
-4.292909	Acorn	-0.0001016936
-4.292909	Act	0.001061462
-4.292909	Act)	0.004256743
-4.292909	Act.	0.02244437
-4.292909	Act?	0.02244437
-4.116818	Actually	0.005531979
-4.292909	Actually,	0.0146723
-3.991879	Adam	-0.0002940135
-4.292909	Adjustable	-9.063064e-05
-4.292909	Admittedly,	-3.531145e-05
-4.292909	Adolph	-0.0001016936
-4.292909	Afghanistan	0.001372164
-4.292909	Afghanistan,	-9.063064e-05
-4.292909	Afghanistan.	0.02244437
-3.991879	After	8.233458e-05
-3.991879	Again,	0.001657676
-4.292909	Ah	0.006037123
-4.292909	Ah,	0.0005404263
-4.292909	Ah...the	-4.637586e-05
-4.292909	Ala.	-0.0001016936
-4.292909	Alaska	0.006037123
-4.292909	Alcohol,	-0.0001016936
-4.292909	Alex	-0.0001016936
-4.292909	Alexander	0.0146723
-3.593939	All	0.01633109
-4.292909	Allso,	-7.956736e-05
-4.116818	Also	0.01626874
-4.116818	Although	0.00189265
-4.292909	Alzheimer	-0.0001016936
-4.292909	Amelia...and	0.0003742698
-3.514758	Amendment	0.0124575
-4.116818	Amendment,	0.00433411
-4.116818	Amendment.	0.02238248
-3.639697	America	0.02075111
-4.292909	America's	-6.850381e-05
-3.894969	America,	0.01152213
-4.116818	America.	0.02238248
-4.292909	America?.	0.02244437
-3.338667	American	0.001200898
-3.514758	Americans	0.01621455
-4.116818	Americans,	0.005935745
-4.292909	Americans.	0.02244437
-4.292909	Americans?	0.02244437
-4.292909	An	-0.0001016936
-2.940727	And	0.04657417
-3.894969	And,	0.01195444
-3.991879	Anderson	0.004624134
-4.292909	Anderson's	-2.424678e-05
-4.292909	Ann.,	0.0007620673
-4.292909	Annually	-9.063064e-05
-4.292909	Another	-0.0001016936
-4.292909	Answer	-7.956736e-05
-4.116818	Antonin	-0.0001812588
-3.639697	Any	-0.0005146118
-3.991879	Anyone	0.002955028
-4.292909	Anyway,	-7.956736e-05
-4.292909	Anyways	0.0005293473
-4.292909	Apparently	0.001039278
-4.292909	Apparently,	0.001972003
-4.292909	Appointment	0.006620972
-4.292909	Apprentice.	0.02244437
-4.292909	April	0.006620972
-4.292909	Archie	-0.0001016936
-3.690849	Are	0.004785642
-4.292909	Area's	-0.0001016936
-4.116818	Aren't	0.003848577
-4.292909	Argus	-0.0001016936
-4.116818	Arms,	-0.0001082721
-4.292909	Army	-0.0001016936
-4.292909	Article	-9.063064e-05
-3.36349	As	0.01973355
-4.292909	Asia.	0.02244437
-4.292909	Ask	0.0005625854
-4.292909	Asking	0.002784216
-4.292909	Assault	-0.0001016936
-4.292909	Association	-0.0001016936
-3.639697	At	0.00154691
-4.292909	Attachment	-0.0001016936
-4.292909	Aurora:	-2.11652e-06
-4.292909	Australia	0.006037123
-4.292909	Australian	-4.637586e-05
-4.292909	Authority	0.006620972
-4.292909	Automobile	-0.0001016936
-4.292909	B	0.004256743
-4.292909	B.	-0.0001016936
-4.292909	BOISE,	-0.0001016936
-4.292909	BOSTON	-0.0001016936
-4.292909	BR	-9.063064e-05
-4.116818	BS	0.004747953
-4.292909	BS?	0.02244437
-4.292909	BTW	-7.956736e-05
-4.116818	BTW,	0.009597941
-4.292909	Back	-5.743997e-05
-4.292909	Background	-0.0001016936
-4.292909	Ban	0.0146723
-3.991879	Banning	0.001502107
-4.292909	Bans	0.006037123
-4.292909	Based	0.001972003
-4.292909	Basically	0.001538703
-4.292909	Basically,	0.0146723
-4.292909	Battlefield	-0.0001016936
-4.116818	Bay	0.0007712872
-4.292909	Bay.	0.02244437
-4.292909	Be	2.001478e-05
-3.593939	Because	0.03493286
-4.292909	Because...	-0.0001016936
-4.292909	Been	0.007385653
-4.292909	Being	0.0008951061
-4.292909	Below,	0.0007509826
-4.292909	Berlin	-7.956736e-05
-4.292909	Bernardino:	-2.11652e-06
-4.292909	Besides,	0.002784216
-4.292909	Best	0.001972003
-4.292909	Beto.	0.02244437
-4.292909	Between	-7.956736e-05
-4.292909	Big	-0.0001016936
-4.292909	Bigger,	-0.0001016936
-3.894969	Black	-0.0003050247
-3.991879	Blackstone	-0.0002165567
-4.292909	Blackwell	0.006037123
-4.292909	Bloomberg	0.006037123
-4.292909	Bloomberg's	-1.31818e-05
-4.292909	Blume	-0.0001016936
-4.116818	Bobs	0.001492624
-4.292909	Bond's	-0.0001016936
-3.991879	Booker	0.0001930873
-4.292909	Booker's	-9.063064e-05
-4.292909	Both	-3.531145e-05
-4.292909	Boulder	-9.063064e-05
-4.292909	Brian	-0.0001016936
-4.292909	Britain	0.004256743
-4.116818	British	-0.000103804
-4.292909	Brooklyn	0.002450246
-4.292909	Btw,	0.0005293473
-4.116818	Bubbas	0.005975226
-4.292909	Bucky	0.004771071
-4.292909	Bucky's	-4.637586e-05
-4.292909	Building	0.006037123
-4.292909	Bull****.	0.02244437
-4.292909	Bunker	7.534814e-05
-4.116818	Bureau	0.006559076
-4.292909	Burger	9.748345e-05
-4.292909	Business	-0.0001016936
-2.886369	But	0.04246267
-3.991879	But,	0.001402126
-4.116818	Butina	0.0009709224
-4.292909	Butler	-0.0001016936
-3.748841	By	0.01473367
-3.991879	C.	-0.0003050776
-4.292909	CA	0.0005293473
-4.292909	CA.	0.02244437
-4.292909	CC	0.009540741
-3.991879	CCW	0.0005920306
-4.292909	CCW,	0.0009616412
-4.292909	CCW-at	5.321399e-05
-4.292909	CCW???	0.02244437
-4.292909	CEO	-7.956736e-05
-4.292909	CEOs	0.006037123
-4.292909	CLAX1911	-1.31818e-05
-4.292909	CNC	-0.0001016936
-4.292909	CNN	0.006037123
-4.292909	COMBATANTS	0.00128337
-4.292909	CT,	-0.0001016936
-4.292909	California	0.004256743
-4.292909	California?.	0.02244437
-4.292909	Can	0.003910473
-4.116818	Can't	0.0007601996
-3.991879	Canada	0.01083416
-4.292909	Canada's	0.002450246
-4.292909	Canada...	0.02244437
-4.116818	Canadian	-0.0002033862
-4.292909	Canadian,	0.003910473
-4.292909	Canadians	4.214733e-05
-4.292909	Canuck	0.004256743
-4.292909	Capice?.	0.02244437
-4.116818	Capitol	-0.0002033862
-4.292909	Cars	0.0009283723
-4.292909	Cartels	0.004256743
-4.292909	Cartels,	0.003910473
-4.292909	Casull	0.004256743
-4.292909	Catholic	0.001538703
-4.292909	Center	0.004256743
-4.292909	Challenge	0.0003188984
-4.292909	Challenge's	-0.0001016936
-4.292909	Chances	2.001478e-05
-4.292909	Chandler,	-1.31818e-05
-4.292909	Chase	-0.0001016936
-4.292909	Chechnya	0.001372164
-4.292909	Check	0.006037123
-4.292909	Chicago's	5.321399e-05
-4.292909	Child	-0.0001016936
-4.292909	Chile),	-9.063064e-05
-4.292909	Christ	-0.0001016936
-4.292909	Christ,	0.003910473
-4.292909	Christian	-0.0001016936
-4.292909	Ciao!.	0.02244437
-4.292909	Citation	-9.063064e-05
-4.116818	Citizen	-0.0001812588
-4.292909	City	0.006037123
-4.292909	City,	-7.956736e-05
-3.991879	Civil	-0.0002054903
-4.116818	Clantons	0.005969409
-4.292909	Clause.	0.02244437
-4.292909	Clearly	0.002172134
-4.292909	Cleckley’s	-0.0001016936
-4.292909	Clit	-0.0001016936
-4.292909	Closing	-0.0001016936
-4.292909	Columbine	0.001372164
-4.116818	Come	-0.0001525268
-4.292909	Committee	0.002784216
-3.991879	Common	-0.0002497542
-4.292909	Compendium	0.006620972
-4.292909	Confiscation	0.006620972
-4.292909	Cong	0.002839902
-4.292909	Congress	-0.0001016936
-4.292909	Congress;	8.949034e-06
-4.292909	Congressional	-0.0001016936
-4.292909	Conservative	-6.850381e-05
-4.292909	Conservatives,	0.0002413903
-4.292909	Conspiracy	-0.0001016936
-4.116818	Constitution	0.01389657
-4.292909	Constitutional	-0.0001016936
-4.292909	Contact	-0.0001016936
-3.894969	Control	0.004003102
-4.292909	Conversely	0.004256743
-4.292909	Correct,	0.004771071
-4.116818	Could	0.004669628
-4.292909	Countries	0.002205498
-4.292909	Court.	0.02244437
-4.116818	Cow	-0.0001525268
-4.292909	Crazy	-9.063064e-05
-4.292909	Creating	-2.424678e-05
-4.292909	Creedmoor	0.004771071
-3.991879	Crime	-0.0003050776
-4.292909	Crimes	0.006037123
-3.991879	Criminal	-0.0001701595
-4.116818	Criminals	-1.526736e-05
-4.292909	Crossroads	0.006620972
-4.292909	Cruz	0.0001306885
-4.292909	Current	3.108093e-05
-4.116818	DC	7.328732e-05
-4.292909	DEMANDS	0.002172134
-4.292909	DGU	0.004771071
-4.292909	DON'T	0.002094295
-4.292909	DP,	0.003910473
-4.292909	Dakota	-0.0001016936
-4.292909	Daly	-0.0001016936
-4.292909	Daniel	-9.063064e-05
-4.292909	David,	-0.0001016936
-4.292909	Dayton	-0.0001016936
-3.991879	Debate	-0.0003050776
-4.292909	Decision	-1.31818e-05
-4.116818	Defense	0.006620761
-4.292909	Defensive	-0.0001016936
-3.991879	Dem	0.001768831
-4.292909	Democrat	0.004771071
-4.292909	Democrat.	0.02244437
-3.991879	Democratic	0.0006031177
-3.894969	Democrats	0.007273146
-4.292909	Democrats.	0.02244437
-4.116818	Department	0.008016592
-4.292909	Department,	0.007385653
-4.292909	Depending	0.001972003
-4.292909	Deripashka	-0.0001016936
-4.116818	Despite	0.01480036
-4.292909	Diatribes	0.006620972
-3.894969	Did	0.01516472
-4.116818	Didn't	0.003848577
-4.292909	Difference	0.0003521205
-4.292909	Disciplined	-0.0001016936
-4.292909	Disgusting.	0.02244437
-4.292909	Disproportionately	0.0008174955
-3.389819	Do	0.008037395
-4.292909	Dodge	-0.0001016936
-3.815788	Does	0.02211959
-3.991879	Dog	0.004769632
-3.815788	Don't	0.001888207
-4.292909	Donald	5.321399e-05
-4.292909	Doug	-0.0001016936
-4.292909	Dreams	-0.0001016936
-4.116818	Drug	-0.0002033862
-4.292909	Dude,	0.0009061946
-4.292909	Duh,	0.0005625854
-4.292909	Dunlap,	0.00128337
-4.292909	During	0.001039278
-4.292909	E.	-0.0001016936
-4.292909	EC:	-6.850381e-05
-4.292909	ELSE,	0.0001749658
-4.292909	EVER	-4.637586e-05
-4.292909	EXACTLY	-9.063064e-05
-4.292909	Earp	-2.424678e-05
-4.116818	East	0.001348261
-4.292909	Eastwood	0.002205498
-4.292909	Easy	0.009540741
-4.292909	Edit:	0.0005625854
-4.292909	Either	0.005106831
-3.991879	El	-0.000203351
-4.292909	Elementary,	0.001294468
-4.292909	Elizabeth	-0.0001016936
-4.292909	Empire	-0.0001016936
-4.292909	Enforce	0.002172134
-4.116818	England	-4.198989e-06
-4.292909	English	-4.637586e-05
-4.292909	Eric	-0.0001016936
-4.292909	Etc--	0.001017095
-4.292909	Europe	0.001372164
-4.292909	Europeans,	-9.063064e-05
-3.894969	Even	0.0009294626
-4.116818	Every	0.0002393762
-4.292909	Everyone	-7.956736e-05
-4.292909	Exact	-9.063064e-05
-4.116818	Exactly.	0.02238248
-4.292909	Except	0.002205498
-4.292909	Excuse	-0.0001016936
-4.292909	Execution	0.0146723
-4.292909	Explosives	-0.0001016936
-4.292909	F-Class,	0.004771071
-4.292909	F.	-0.0001016936
-4.292909	FAMILY".	0.02244437
-4.292909	FAR	-3.531145e-05
-4.292909	FAST!”	-0.0001016936
-4.292909	FBI	0.006037123
-4.292909	FDR	-0.0001016936
-4.116818	FED	-0.0002033862
-4.292909	FFL	0.001372164
-4.292909	FFL.	0.02244437
-4.292909	Face	6.428087e-05
-4.292909	Facebook	-0.0001016936
-4.292909	Fact:	-0.0001016936
-4.292909	Factory	0.006037123
-4.116818	Fair	0.0001175715
-4.292909	False.	0.02244437
-4.292909	Fascinating	0.004771071
-4.292909	Faux	-0.0001016936
-4.116818	Fear	0.006559076
-4.292909	Fed	-0.0001016936
-3.894969	Federal	-0.0001964907
-4.292909	Feds'	-7.956736e-05
-4.292909	Feds.	0.02244437
-4.292909	Fifty	0.0001306885
-4.292909	Finland	0.002172134
-4.116818	Finland.	0.02238248
-4.292909	Finn,	0.0005625854
-4.292909	Finnish.	0.02244437
-4.292909	Fire	0.0146723
-4.292909	Firearm	-0.0001016936
-4.292909	Firearms	0.006037123
-3.748841	First	0.01143373
-4.292909	First,	0.004256743
-4.292909	Florida	0.0001085515
-4.292909	Folding	-0.0001016936
-3.417848	For	0.01560848
-4.292909	Force	0.004256743
-4.292909	Forget	0.000861843
-4.292909	Forgotten	-9.063064e-05
-4.292909	Fortunately	0.001538703
-4.292909	Founders	-0.0001016936
-3.991879	Fox	-0.0002718844
-4.116818	Fox,	-0.0001370007
-4.292909	Francisco	-9.063064e-05
-4.292909	French	0.001538703
-4.292909	Friends."	0.02244437
-3.815788	From	0.01532768
-4.292909	Further	-4.637586e-05
-4.116818	Furthermore,	0.002771777
-4.292909	GIECO	-0.0001016936
-4.292909	GOD.	0.02244437
-4.292909	GOOD	-0.0001016936
-3.991879	GOP	0.01032365
-4.292909	GOP,	-9.063064e-05
-4.292909	GRAB	-0.0001016936
-4.292909	GREATNESS	-9.063064e-05
-4.292909	GTFO.	0.02244437
-4.116818	GUN	-0.0002033862
-4.116818	GUNS	2.900774e-05
-4.292909	GUNS!	0.02244437
-4.292909	Ga.,	0.0007620673
-4.116818	Gaetz	0.0001950795
-4.292909	Gaetz.	0.02244437
-4.292909	Gang	5.321399e-05
-4.292909	Georgia	0.0001306885
-4.292909	Gerard	-0.0001016936
-4.116818	Get	0.0002504509
-4.116818	Gilroy	-7.507799e-05
-3.991879	Gimmesometruth	0.0005985315
-4.292909	Given	0.0008064094
-4.292909	Giving	0.001538703
-4.116818	Go	-0.0002033862
-3.991879	God	-3.946079e-05
-4.292909	God-worshiping	0.001538703
-4.292909	Going	0.0001417574
-4.292909	Golden	-0.0001016936
-3.815788	Good	0.002417714
-4.292909	Google,	-0.0001016936
-4.116818	Got	0.009846962
-4.292909	Gotchya.	0.02244437
-4.292909	Gotta	-4.637586e-05
-4.292909	Gov.	0.02244437
-4.116818	Government	0.007171803
-4.292909	Government.	0.02244437
-4.292909	Government...	-0.0001016936
-4.292909	Govt.	0.02244437
-4.292909	Govt.?	0.02244437
-4.292909	Grade	-0.0001016936
-4.292909	Granted,	0.0005293473
-4.116818	Great	0.0004387665
-4.292909	Great,	0.0009616412
-4.292909	Great.	0.02244437
-4.292909	Guide	0.009540741
-3.315186	Gun	0.000620521
-4.292909	Gun-howitzer	-4.637586e-05
-4.292909	Gun?"	0.02244437
-4.292909	Gunfreaks	0.002839902
-3.552547	Guns	0.01051059
-4.292909	Guns,	0.0009061946
-4.292909	H.	-0.0001016936
-4.292909	HARRASS	-9.063064e-05
-4.292909	HEADS	0.0008064094
-4.292909	HIS	6.428087e-05
-4.292909	HOW	-0.0001016936
-4.292909	HQ	-0.0001016936
-4.292909	Had	-1.31818e-05
-4.292909	Half	0.006620972
-4.292909	Hannity	-0.0001016936
-4.292909	Harris	-2.424678e-05
-4.292909	Has	0.0006512326
-3.991879	Have	0.003786689
-3.991879	Having	0.007284359
-3.479996	He	0.0003053389
-4.292909	Health.	0.02244437
-4.116818	Hell,	0.001414884
-4.116818	Heller	0.0002061533
-4.292909	Heller.	0.02244437
-4.116818	Heller?.	0.02238248
-4.292909	Helsinki	0.004771071
-4.292909	Her	-0.0001016936
-3.991879	Here	0.01198217
-4.292909	Here's	0.0146723
-4.292909	Hey,	-0.0001016936
-4.292909	Hi-Point).	0.02244437
-4.116818	Hillary	0.004155273
-4.116818	His	0.002437722
-4.292909	Hitler	0.009540741
-4.116818	Hmm,	-4.847073e-05
-4.292909	Holy	-4.637586e-05
-4.292909	Homes'	-0.0001016936
-4.292909	Hondo,	0.0003410461
-4.292909	Honourable	-9.063064e-05
-4.292909	Hook	-0.0001016936
-4.292909	Hook:	-2.11652e-06
-4.292909	Hornady	0.000695563
-3.991879	House	0.01122028
-4.292909	House:	-2.11652e-06
-3.232211	How	0.008165861
-4.292909	However	0.004771071
-3.991879	However,	0.004680089
-4.292909	Howitzer	0.004771071
-4.292909	Howitzers	0.006037123
-4.292909	Humphreys,	0.0001749658
-4.292909	Hunting	0.004771071
-1.950487	I	-0.005361659
-4.292909	I"ve	-6.850381e-05
-3.479996	I'd	0.005377155
-3.748841	I'll	-5.65089e-05
-2.801548	I'm	0.013511
-3.479996	I've	0.0001295645
-4.116818	I,	0.002722319
-4.292909	I.	0.004771071
-4.292909	I.e.,	-9.063064e-05
-4.292909	I?	0.02244437
-4.292909	I?.	0.02244437
-4.292909	ICE.	0.02244437
-4.292909	ID	0.006037123
-4.292909	IE:	-0.0001016936
-4.292909	IEDs,	0.001017095
-4.292909	IF	0.0146723
-4.292909	II	-6.850381e-05
-4.292909	IIRC	0.0146723
-4.292909	IIRC.	0.02244437
-4.292909	IMDb	4.214733e-05
-4.292909	IMHO.	0.02244437
-4.292909	IQ	-9.063064e-05
-4.292909	IRRELEVANT	0.0005404263
-4.116818	IS	0.01457138
-4.116818	ISIS	0.001310268
-4.292909	ISP	0.005106831
-4.292909	Idaho	-0.0001016936
-2.774395	If	0.05056487
-4.292909	Ignore	0.0005625854
-4.292909	Illegal	0.001172402
-4.292909	Illegals	-5.743997e-05
-4.292909	Imagine	-9.063064e-05
-3.195999	In	0.0306135
-4.292909	In-laws	0.002839902
-4.292909	Inc,	2.001478e-05
-4.292909	Incidence	0.006620972
-4.292909	Increasing	0.0146723
-4.292909	Indianapolis	0.004771071
-4.292909	Indictable	-0.0001016936
-4.292909	Industries	-0.0001016936
-4.292909	Industry	-0.0001016936
-4.292909	Infighting	-9.063064e-05
-4.292909	Insider	-0.0001016936
-4.292909	Insincere	-9.063064e-05
-4.292909	Instead	0.006620972
-4.292909	Instead,	0.0001306885
-4.292909	Interchangeable	-0.0001016936
-4.292909	Interesting	0.005106831
-4.292909	Investigation.	0.02244437
-4.292909	Iraq...	0.003910473
-4.292909	Ireland	3.108093e-05
-4.292909	Irish	-0.0001016936
-4.292909	Ironic	0.005106831
-3.389819	Is	0.008517753
-3.991879	Isn't	0.005542707
-2.912698	It	0.008245705
-3.075425	It's	0.0345167
-3.593939	Its	0.02576948
-4.292909	It’s	0.002327854
-4.292909	Ive	-4.637586e-05
-4.292909	I’ll	0.0002192478
-4.292909	I’ve	0.000252462
-4.292909	J.	-0.0001016936
-4.292909	JUST	-0.0001016936
-4.116818	James	-0.0002033862
-4.116818	January	-0.0001812588
-4.292909	Japan	8.949034e-06
-4.292909	Japan,	-0.0001016936
-4.292909	Japan."	0.02244437
-4.116818	Jefferson	0.0001065
-4.116818	Jesus	-8.167161e-05
-3.991879	Jim	0.0009977907
-4.292909	Joey	0.0005404263
-4.292909	Jones	-0.0001016936
-4.292909	Journal	0.006620972
-3.479996	Just	0.01972511
-3.991879	Justice	-0.0002276228
-4.292909	KILL	0.0006623151
-4.292909	Kamala	-0.0001016936
-3.894969	Keep	0.001633895
-4.292909	Keeping	0.007385653
-4.292909	Kel-Tec	-0.0001016936
-4.292909	Kennedy	-9.063064e-05
-4.292909	Kent	-0.0001016936
-4.292909	Kentucky	-0.0001016936
-4.292909	Kentucky's	-7.956736e-05
-4.292909	Killer	-0.0001016936
-4.292909	Kingdom	0.006620972
-4.292909	Kitchen	0.002205498
-4.292909	Know,	-9.063064e-05
-4.292909	Koresh.".	0.02244437
-4.292909	Kristi	-0.0001016936
-4.292909	LAST	2.001478e-05
-4.292909	LEGALLY,	0.0008174955
-4.292909	LIKELY	0.009540741
-4.292909	LR	-0.0001016936
-4.116818	La'Pierre	-0.0001812588
-4.292909	La.	0.02244437
-4.292909	LaPierre?.	0.02244437
-4.292909	Langford,	-2.424678e-05
-4.292909	Lanier,	-0.0001016936
-4.116818	Lanza	0.0001286432
-3.815788	Las	-0.0004354427
-4.116818	Lastly,	0.004703194
-4.292909	Laughing,	0.0005404263
-3.748841	Law	0.01059278
-4.292909	Laws	0.0003410461
-4.292909	Lawsuits,	-0.0001016936
-4.292909	Leader	-0.0001016936
-4.292909	Learn	0.009540741
-4.292909	Lefties	0.002839902
-4.292909	Leftwingers	-9.063064e-05
-4.292909	Leonidas	-0.0001016936
-4.116818	Less	0.00111516
-3.894969	Let	0.0002309101
-4.116818	Let's	0.0002127102
-4.292909	Lets	0.002016468
-4.292909	Level	0.006620972
-4.292909	Lever	-1.31818e-05
-4.292909	Lewis,	-0.0001016936
-4.292909	Liberal	-0.0001016936
-4.292909	Liberals	0.002839902
-4.292909	Libertarians	-0.0001016936
-4.292909	Life	-0.0001016936
-3.815788	Like	0.002584822
-4.292909	Limiting	0.0146723
-4.116818	Living	0.004546574
-4.292909	Localized	-6.850381e-05
-4.292909	Locals	-0.0001016936
-4.292909	Looks	-0.0001016936
-4.292909	Loyalist	-9.063064e-05
-4.292909	Luftwaffe	0.001972003
-4.292909	Luther's	-9.063064e-05
-4.292909	Lutherf	-0.0001016936
-4.292909	MAD.	0.02244437
-4.292909	MD	0.0008174955
-4.292909	METH	-0.0001016936
-4.292909	MORE	-0.0001016936
-4.292909	MSNBC	0.0005182684
-4.292909	MUCH	-3.531145e-05
-4.292909	Mac10's,sten's	0.006037123
-4.292909	Machiavellian	0.006037123
-4.292909	Mad	-0.0001016936
-4.116818	Magnum	-0.0001812588
-4.292909	Make	0.002172134
-4.292909	Making	0.0001085515
-4.116818	Mandalay	-0.0001923227
-4.292909	Mansions,	-0.0001016936
-4.292909	Mansions..etc...	-0.0001016936
-4.292909	Manufacturing	0.001061462
-3.991879	Many	0.006699285
-4.292909	Many,	-6.850381e-05
-4.116818	Maria	-0.0001525268
-4.292909	Mark	-0.0001016936
-4.292909	Mass	7.534814e-05
-4.292909	Matches	0.006037123
-4.116818	Matt	-0.0001525268
-4.292909	Max	-0.0001016936
-3.690849	Maybe	0.01535098
-4.292909	McConnell	0.002784216
-4.292909	McDowall	-6.850381e-05
-4.292909	McDowall,	-0.0001016936
-4.292909	McMillon	-9.063064e-05
-4.292909	Me	0.004771071
-4.292909	Memphis	-0.0001016936
-4.292909	Mexican	-7.956736e-05
-4.292909	Mexico	-0.0001016936
-4.292909	Mexico)	-0.0001016936
-4.292909	Mexico?.	0.02244437
-4.292909	Middle	-9.063064e-05
-4.292909	Midland/Odessa:	-2.11652e-06
-4.292909	Militant	0.0006512326
-4.116818	Militia	0.006564571
-3.991879	Militia,	0.00633416
-4.292909	Miller	-4.637586e-05
-4.292909	Minding	0.0003853449
-4.292909	Minority	-0.0001016936
-4.292909	Misdemeanors	-0.0001016936
-4.116818	Mitch	-0.0001923227
-4.292909	Mitt	-0.0001016936
-4.292909	Mix	0.005106831
-4.292909	Mixon	-0.0001016936
-4.292909	Mk	-5.743997e-05
-4.292909	Mmmkaaayyy?.	0.02244437
-4.292909	Moderator	-1.31818e-05
-3.36349	Moderator's	-0.000863237
-4.116818	Money	-0.0001193362
-3.748841	More	0.005351231
-4.292909	Moscow	-9.063064e-05
-3.815788	Most	0.008124453
-4.292909	Mostly	0.0007509826
-4.292909	Mosty	0.006620972
-4.116818	Moving	0.009478846
-4.116818	Mr.	0.02234386
-3.991879	Muh	-0.0002940135
-4.116818	Mulford	-0.0002033862
-4.292909	Murders	0.004256743
-3.447811	My	0.002008158
-4.116818	N.	-0.0001414636
-3.894969	NATIONAL	0.0003195528
-4.292909	NEEDED	0.009540741
-4.292909	NM????	0.02244437
-4.292909	NO	-0.0001016936
-4.116818	NOT	0.007374402
-4.292909	NOW.	0.02244437
-2.830511	NRA	0.02792691
-4.116818	NRA,	0.005975226
-4.116818	NRA.	0.02238248
-4.292909	NRA.".	0.02244437
-4.292909	NRA....	0.02244437
-4.292909	NRA/ILA	-9.063064e-05
-4.292909	NRA:	-9.063064e-05
-4.292909	NRA?	0.02244437
-4.292909	NV	-0.0001016936
-3.991879	NZ	0.002046844
-4.292909	NZ.	0.02244437
-4.292909	NZ?.	0.02244437
-4.292909	Nah,	-0.0001016936
-4.292909	Nancy,	-0.0001016936
-4.292909	Nate	0.004771071
-3.991879	National	-0.0002829491
-4.116818	Need	0.005688955
-4.116818	Neither	0.0004498464
-4.116818	Never	2.384685e-06
-4.292909	New-York	-7.956736e-05
-4.292909	News.	0.02244437
-4.292909	Newtown	0.001372164
-4.292909	Next	0.001538703
-4.292909	Night	-0.0001016936
-3.593939	No	0.009354032
-3.552547	No,	0.01091971
-3.815788	Nobody	1.847552e-05
-4.292909	Noem	-0.0001016936
-4.292909	Noem,	0.0008064094
-4.292909	Noise	0.006037123
-4.292909	Non-Americans	-0.0001016936
-3.991879	None	0.006497188
-4.116818	Nope,	0.007126794
-4.292909	North	0.000252462
-4.292909	Norway	7.534814e-05
-3.593939	Not	0.0002928181
-4.116818	Note	0.005005405
-3.894969	Nothing	0.006002407
-4.292909	Nothing,	7.534814e-05
-4.292909	Nothing.	0.02244437
-4.292909	Notice	0.0005404263
-3.593939	Now	0.01506199
-3.991879	Now,	0.009411596
-4.292909	Nuclear	-1.31818e-05
-4.292909	Number	-7.956736e-05
-4.116818	Numbers	0.0008267322
-4.292909	Nunn	-4.637586e-05
-4.292909	O	0.004771071
-4.116818	OK	0.003808986
-4.292909	OK,	0.0008174955
-4.292909	OMG<	0.001039278
-4.292909	ON	-0.0001016936
-4.292909	ONLY	7.534814e-05
-3.748841	OP	0.01700475
-4.116818	OP's	2.900774e-05
-4.116818	OP,	0.004747953
-3.894969	OP.	0.02225871
-4.292909	OTOH	-1.31818e-05
-4.292909	OWNERS	-2.424678e-05
-4.292909	OWNERS"	-0.0001016936
-3.815788	Obama	0.003673094
-4.292909	Obviously	0.001039278
-4.116818	Obviously,	0.01552246
-4.116818	Of	0.01465151
-4.292909	Officer	-0.0001016936
-4.292909	Officers,	0.006037123
-3.991879	Oh	0.003774505
-3.815788	Oh,	0.01181421
-4.292909	Ok	0.0002303189
-3.991879	Ok,	0.0006696459
-4.116818	Okay,	0.002682671
-4.292909	Oklahoma)	0.0002746064
-4.292909	OlNate.	0.02244437
-4.292909	Oleg	-0.0001016936
-4.292909	Once	-5.743997e-05
-3.639697	One	0.008295072
-4.116818	Only	0.005061393
-4.292909	Op	0.005106831
-4.292909	Oprah	-0.0001016936
-3.593939	Or	0.02767966
-4.116818	Or,	0.004725573
-4.292909	Ordnance	-0.0001016936
-3.232211	Originally	-0.001167283
-4.292909	Orlando:	-2.11652e-06
-4.292909	Oswald	0.0008729301
-4.292909	Otherwise	0.0146723
-3.991879	Our	-0.0001324921
-4.292909	Owning	0.007385653
-4.292909	PCL	-0.0001016936
-4.292909	PITB.	0.02244437
-4.292909	PM	-0.0001016936
-4.292909	PMC	-0.0001016936
-4.292909	PMID	-0.0001016936
-4.292909	PMs	0.0007953232
-4.292909	PMs.	0.02244437
-4.292909	POINT	-7.956736e-05
-4.292909	POSSIBLE.	0.02244437
-4.292909	PPK	0.001061462
-4.292909	PPK,	0.0006512326
-4.116818	PPK/S	0.0006715044
-4.292909	PR	-9.063064e-05
-4.292909	PROBLEM.	0.02244437
-4.292909	PTSD	0.006037123
-4.292909	PTSD?	0.02244437
-4.116818	Paddock	0.001348261
-4.116818	Palace	-0.0001923227
-4.292909	Panther	-5.743997e-05
-4.116818	Parkland	0.001270547
-4.292909	Parkland:	-2.11652e-06
-4.292909	Part	0.006620972
-4.292909	Parties	-2.424678e-05
-4.292909	Party)	0.0005071899
-3.991879	Paso	-0.0002210176
-4.116818	Patriot	-0.0002033862
-4.292909	Paul	-9.063064e-05
-3.748841	People	0.005687399
-3.991879	Perhaps	0.009893014
-4.292909	Period,	-1.31818e-05
-4.292909	Period.	0.02244437
-4.292909	Personally,	0.004771071
-3.552547	Please	0.001588603
-4.292909	Pointing	0.0003299721
-4.116818	Police	0.005935745
-4.292909	Politics,	0.0002746064
-4.292909	Politifact	-0.0001016936
-4.292909	Pomeroy	-0.0001016936
-3.232211	Posted	-0.0001588538
-4.292909	Powers	-0.0001016936
-4.292909	Powers,	0.006037123
-3.894969	President	0.01066494
-4.116818	President.	0.02238248
-4.292909	Pretend	0.0005625854
-4.292909	Preventing	-2.424678e-05
-4.292909	Probably	0.002784216
-4.292909	Prove	0.009540741
-4.292909	Proving	0.0146723
-4.292909	Psychopaths	0.000861843
-4.292909	Public	-0.0001016936
-4.292909	Pulse	0.001372164
-4.292909	Pump	0.006037123
-4.292909	Put	-2.11652e-06
-4.292909	Putting	-0.0001016936
-4.292909	Query	-0.0001016936
-4.292909	RAPE	0.0006623151
-4.292909	RATHER	0.001538703
-4.292909	REAL	-0.0001016936
-4.292909	REASON	0.002784216
-4.292909	REGS	-0.0001016936
-4.292909	REGs	0.002839902
-4.292909	REPUBLICANS	4.214733e-05
-4.292909	RFK's	2.001478e-05
-4.292909	RabidAlpaca	0.004771071
-4.292909	Raise	0.0146723
-4.292909	Raj,	0.0146723
-4.292909	Range????	0.02244437
-4.292909	Ranging	0.001150211
-4.116818	Rather	0.0006160792
-4.292909	Raton,	-0.0001016936
-4.292909	Rawle	-0.0001016936
-4.292909	Read	0.0006623151
-3.991879	Reagan	0.002971123
-4.292909	Reagan,	0.0005182684
-4.292909	Really	-2.424678e-05
-4.116818	Really?	0.02238248
-4.292909	Recall,	0.004256743
-4.116818	Regarding	0.01560276
-4.116818	Registration	0.0004498464
-4.292909	Remember	-0.0001016936
-4.116818	Remember,	0.0006160794
-4.292909	Rep.	-0.0001016936
-4.292909	Reports,	-0.0001016936
-4.116818	Republican	-0.0001923227
-4.292909	Republican.	0.02244437
-3.748841	Republicans	0.01276177
-4.292909	Repubs	0.0007953232
-4.292909	Return	0.009540741
-4.292909	Revolutionary	-0.0001016936
-4.292909	Ridiculous	-9.063064e-05
-4.292909	Rifle	-0.0001016936
-4.292909	Rifles	0.002839902
-3.991879	Right,	0.00155766
-4.292909	Right-wingers	0.005106831
-4.292909	Right.	0.02244437
-4.292909	Rights	-0.0001016936
-4.292909	Rightwingers	-9.063064e-05
-4.292909	Rolling	-0.0001016936
-4.292909	Romney	0.004256743
-4.292909	Room	0.0001749658
-4.292909	Rotunda	0.006037123
-4.292909	Rucker?.	0.02244437
-4.292909	Rumour	-9.063064e-05
-4.292909	Russell,	0.0001749658
-4.292909	Russia	0.004256743
-3.894969	Russian	-0.0002009648
-4.292909	Russians	-0.0001016936
-4.292909	S&W.	0.02244437
-4.292909	S.,	0.0007620673
-4.292909	SCOTUS	0.0005404263
-4.292909	SCOTUS.	0.02244437
-4.292909	SD	-0.0001016936
-4.292909	SD.	0.02244437
-4.292909	SHOULD	0.002094295
-4.292909	Sacramento	-0.0001016936
-4.292909	Saddam),	-9.063064e-05
-4.292909	Sadly	0.0005293473
-4.292909	Same	-7.956736e-05
-4.116818	San	-0.0002033862
-4.116818	Sandy	-0.0002033862
-4.292909	Santa	-0.0001016936
-4.292909	Savage	-0.0001016936
-3.991879	Scalia	0.0001044829
-4.292909	Scalia,	-6.850381e-05
-4.292909	Scalia.	0.02244437
-4.292909	Scandals,	-0.0001016936
-4.116818	School	0.0003279827
-4.292909	Scout	-3.531145e-05
-4.292909	Screw	-7.956736e-05
-3.447811	Second	-0.0007619477
-3.991879	Second,	0.004059862
-4.292909	Secure"	-0.0001016936
-3.894969	See	0.00132274
-3.991879	See,	8.890019e-05
-4.292909	Seems	0.0008507556
-4.292909	Seinfeld	-0.0001016936
-4.292909	Selling	0.001172402
-4.116818	Senate	0.009439546
-4.292909	Sense	-2.424678e-05
-4.116818	Sent	0.001088315
-4.292909	Serbia.	0.02244437
-4.116818	Service	0.006665717
-4.292909	Sexually	-0.0001016936
-4.292909	SgtRock	0.004771071
-4.116818	She	0.001104063
-4.292909	Sheldon,	0.004256743
-4.292909	Shooting	-0.0001016936
-4.292909	Shot	-0.0001016936
-4.116818	Should	0.01458282
-4.292909	Show	0.004771071
-4.292909	Similarly,	-9.063064e-05
-4.116818	Since	0.00108187
-4.292909	Situation	-0.0001016936
-4.292909	Size	0.006620972
-4.292909	Skis	0.0005182684
-4.292909	Skull	-0.0001016936
-4.292909	Slavery,	-4.637586e-05
-4.292909	Slitting	0.001361063
-4.116818	Smith	-7.507799e-05
-4.292909	SmokethatGreen	-0.0001016936
-3.037637	So	0.03219489
-3.815788	So,	0.00127669
-4.116818	Social	-0.0001370007
-4.292909	Soldiers	-0.0001016936
-3.639697	Some	0.007921845
-3.894969	Something	0.002869601
-4.292909	Sometimes	0.005106831
-4.292909	Sorry	0.0006512326
-3.894969	Sorry,	0.006047325
-4.292909	Sorry.	0.02244437
-4.292909	Sorry..	0.02244437
-4.116818	Sounds	0.001759267
-4.292909	Source	-9.063064e-05
-4.116818	South	-0.0001923227
-4.292909	South.	0.02244437
-4.292909	Speaking	0.0009616412
-4.292909	Specials.	0.02244437
-4.292909	Splitter	-0.0001016936
-4.292909	Spoke	0.009540741
-4.292909	Springs	-3.531145e-05
-4.292909	Springs:	-2.11652e-06
-4.116818	Stamp	0.0004387665
-3.991879	Start	-0.000161222
-3.690849	State	0.005586472
-4.292909	State's	-0.0001016936
-3.748841	State,	0.01442431
-3.639697	States	0.01037402
-4.116818	States,	0.001270547
-3.991879	States.	0.02232059
-4.292909	Statistics	5.321399e-05
-4.116818	Stephen	-0.0001525268
-4.292909	Stephen,	-0.0001016936
-4.292909	Stick	0.009540741
-4.292909	Stone	-0.0001016936
-4.292909	Stormfront	-0.0001016936
-4.292909	Students'	-7.956736e-05
-4.292909	Sub-2000	2.001478e-05
-4.292909	Suck	0.002172134
-4.292909	Suffering	0.006037123
-4.292909	Suffice	0.002172134
-4.116818	Suicide	0.004680817
-4.292909	Summary	0.006620972
-4.292909	Summit.	0.02244437
-4.292909	Supreme	-0.0001016936
-4.292909	Supremes	0.0001417574
-4.292909	Sure	0.003910473
-4.116818	Sure,	0.00249338
-4.292909	Surely	0.003910473
-4.292909	Survey	-0.0001016936
-4.292909	Susie	0.0005404263
-4.116818	Sutherland	-0.0002033862
-4.292909	Swalwell	-9.063064e-05
-4.292909	Swalwell's	-0.0001016936
-4.292909	Synagogue:	-0.0001016936
-4.292909	T	8.949034e-06
-4.292909	T.V.	0.02244437
-4.292909	TEXAS	-0.0001016936
-4.292909	THANK	-0.0001016936
-4.292909	THAT'S	0.000861843
-4.116818	THE	-0.0002033862
-4.292909	THINK,"	2.001478e-05
-4.292909	THere	0.002839902
-4.292909	TO	-0.0001016936
-4.292909	TONIGHT!!!!!!	0.02244437
-4.292909	TOTAL	0.002450246
-4.292909	TRump	-1.31818e-05
-4.292909	TV	-6.850381e-05
-4.292909	TV.	0.02244437
-4.116818	Take	0.0009376437
-4.292909	Taking	-9.063064e-05
-4.292909	Talk	0.001294468
-4.116818	Tapatalk.	0.02238248
-4.292909	Teachers	0.002839902
-4.292909	Teenage	-0.0001016936
-4.292909	Tell	-0.0001016936
-4.292909	Tennessee,	-9.063064e-05
-4.292909	Terrible	-9.063064e-05
-4.292909	Tex.	0.02244437
-4.116818	Texas	0.005935745
-4.116818	Thank	-4.847073e-05
-3.815788	Thanks	0.002536684
-4.292909	Thanks,	-0.0001016936
-4.292909	Thanks.	0.02244437
-3.088789	That	0.02370884
-3.195999	That's	0.01733709
-4.292909	Thats	-0.0001016936
-4.292909	That’s.....	-0.0001016936
-2.490135	The	0.001258074
-4.292909	Their	-1.31818e-05
-3.639697	Then	0.02103411
-4.292909	Theoretically,	0.004771071
-3.178966	There	0.007459414
-3.514758	There's	0.008425658
-4.292909	Therefore	0.0146723
-4.116818	Therefore,	0.001281648
-3.894969	These	0.005514472
-3.049871	They	0.008156548
-3.894969	They're	0.002390486
-4.292909	Things	0.002094295
-4.292909	Think	0.005106831
-3.162575	This	0.006772219
-4.292909	Thorough	-5.743997e-05
-3.894969	Those	0.00514454
-4.116818	Though	0.004882257
-4.292909	Thread	-0.0001016936
-4.292909	Threads	-0.0001016936
-4.292909	Threatening	-5.743997e-05
-4.292909	Three	-9.063064e-05
-4.292909	Threegoofs	0.0007953232
-4.292909	Thursday	-9.063064e-05
-4.292909	Time	0.009540741
-3.514758	To	0.00219243
-4.292909	Tobacco,	-0.0001016936
-4.292909	Tombstone.	0.02244437
-4.116818	Too	-0.0001370007
-4.292909	Tory	0.001061462
-4.292909	Traffic	-9.063064e-05
-4.292909	Training	0.001538703
-4.116818	Treatise	0.001910107
-4.292909	Tree	0.006620972
-4.292909	Trekker	-0.0001016936
-4.292909	Trippy	-0.0001016936
-4.292909	True	0.001017095
-3.389819	Trump	0.01350004
-4.292909	Trump,	0.0009616412
-4.292909	Trump....	0.0001306885
-4.292909	Tuesday	-0.0001016936
-4.292909	Turtle	-0.0001016936
-4.292909	Turtle,	0.0008064094
-3.815788	TurtleDude	0.02135523
-4.292909	TurtleDude,	-9.063064e-05
-4.292909	Twitter:	-0.0001016936
-4.292909	U.	-0.0001016936
-3.991879	U.S.	0.002603403
-3.991879	UK	0.001846657
-3.417848	US	0.008502429
-4.116818	US's	0.002348684
-3.991879	US,	0.00589048
-4.116818	US.	0.02238248
-3.815788	USA	0.001721344
-4.292909	USA.	0.02244437
-4.292909	USSR	0.006037123
-3.991879	Uh,	-0.0002210176
-4.292909	Uh...yea...saying	0.005106831
-4.292909	Ultimately,	0.0146723
-4.292909	Umm	-1.31818e-05
-4.292909	Ummm,	-5.743997e-05
-4.292909	Uncle	-7.956736e-05
-4.292909	Unfortunately,	0.003910473
-4.292909	Uniform	-7.956736e-05
-4.292909	Union,	0.0005293473
-3.593939	United	-0.0006053689
-4.292909	Unrestricted	0.0006512326
-4.116818	Until	0.01692422
-4.292909	Up	-7.956736e-05
-4.292909	Us	-0.0001016936
-4.292909	Use	0.001139117
-4.292909	Using	0.0001306885
-4.116818	Usually	0.01476601
-4.292909	VERY	-4.637586e-05
-4.292909	VOLUNTEER	0.009540741
-4.292909	VanceMack	0.001017095
-3.894969	Vegas	0.001329141
-4.292909	Vegas,	0.004771071
-4.292909	Vegas.	0.02244437
-4.292909	Vegas:	-2.11652e-06
-4.292909	Very	-2.424678e-05
-4.292909	Victimization	-0.0001016936
-4.292909	Victims,	-7.956736e-05
-4.292909	Viet	-0.0001016936
-4.292909	Vietnam,	0.0146723
-4.292909	Views	4.214733e-05
-4.116818	Virginia	0.001337158
-4.292909	Vote	0.002784216
-4.292909	Vox	4.214733e-05
-4.292909	W.	-0.0001016936
-4.292909	WALMART,	0.006620972
-4.292909	WANT	-0.0001016936
-4.292909	WAY	-4.637586e-05
-4.292909	WHAT	0.004771071
-4.292909	WHEREVER	-0.0001016936
-4.292909	WIFE	0.006037123
-4.292909	WITH	-9.063064e-05
-4.292909	WORK!!!	0.02244437
-4.292909	WTF	5.321399e-05
-4.292909	Waffle	-0.0001016936
-4.292909	Wait,	0.004771071
-4.292909	Wait...no,	0.0002413903
-4.116818	Walmart	0.00561046
-4.292909	Walmart,	0.001017095
-4.292909	Walmart.	0.02244437
-4.292909	Walther	-0.0001016936
-4.292909	War,	-9.063064e-05
-3.36349	Warning:	0.0001424106
-4.292909	Warren	0.001372164
-4.116818	Wayne's	-0.0001525268
-3.049871	We	0.008364741
-4.116818	We'd	0.002159539
-4.116818	We'll	0.002281917
-4.292909	Weapon"	0.000252462
-4.116818	Weapons	-0.0001259354
-4.292909	Weird	0.005106831
-3.815788	Well	0.01127951
-3.815788	Well,	0.002645459
-4.292909	Wesson,	-5.743997e-05
-4.292909	Wesson.	0.02244437
-3.894969	West	0.002802716
-4.292909	Wharton,	0.0001749658
-3.27172	What	0.03227899
-4.116818	What's	0.007351886
-4.116818	What,	0.01555687
-4.292909	What’s	-2.11652e-06
-3.514758	When	0.01021029
-4.292909	When's	0.0146723
-3.894969	Where	0.003411185
-3.894969	Which	0.001400508
-4.292909	While	0.004771071
-4.116818	White	-0.0001414636
-4.292909	Whittington	-0.0001016936
-3.815788	Who	0.005581356
-3.292909	Why	0.01485554
-4.292909	Wiersema	-0.0001016936
-4.292909	Wikipedia	0.00128337
-4.292909	Wikipedia.	0.02244437
-4.292909	Wikipedia:	-0.0001016936
-3.991879	Wild	-0.0001988879
-4.292909	Wilson	-0.0001016936
-4.292909	Wilson,	-0.0001016936
-4.292909	Winfrey.	0.02244437
-4.292909	Winkler.	0.02244437
-3.991879	With	0.02225866
-4.292909	Without	-0.0001016936
-4.292909	Wonderful.	0.02244437
-4.292909	Works	0.006620972
-4.292909	Wounded	0.001538703
-4.292909	YOUR	-0.0001016936
-4.292909	Ya	9.748345e-05
-4.292909	Yea,	-0.0001016936
-3.991879	Yeah	0.006260995
-4.116818	Yeah,	0.0008045535
-3.894969	Yes	0.006098035
-3.815788	Yes,	0.006114462
-4.292909	Yes...except	0.007385653
-4.292909	Yes...there	0.004771071
-2.701845	You	0.0172748
-4.116818	You'd	0.0006382486
-4.292909	You'll	0.002094295
-3.815788	You're	0.0006660313
-4.292909	You've	-0.0001016936
-4.292909	You,	0.0008507556
-3.417848	Your	0.01428907
-4.292909	Yup,	0.001372164
-4.292909	ZERO	2.001478e-05
-4.292909	[/QUOTE	-0.0001016936
-4.292909	[/QUOTE]	8.949034e-06
-4.292909	[1][4][5][6][7]	0.000407496
-3.690849	[42]	1.461701e-05
-4.292909	[42]:	-0.0001016936
-4.292909	[43]:	-0.0001016936
-4.292909	[5]	0.0006069069
-4.292909	[QUOTE=DebateChallenge;1069406849]The	-5.743997e-05
-4.292909	[YouTube[/video].	0.02244437
-4.292909	[to	7.534814e-05
-1.765924	a	-0.03347959
-4.292909	abhorrent.	0.02244437
-4.116818	abiding	-0.0001812588
-3.991879	ability	0.009416958
-4.292909	ability.	0.02244437
-4.292909	ablaze	0.002205498
-3.514758	able	0.008922176
-4.292909	abolish	0.001372164
-4.292909	abominable	-3.531145e-05
-3.815788	abortion	0.0002844039
-4.292909	abound	-0.0001016936
-2.486729	about	0.05932999
-4.292909	about,	0.001017095
-3.991879	about.	0.02232059
-4.292909	about?.	0.02244437
-3.991879	above	0.00942886
-4.292909	above,	-7.956736e-05
-4.292909	absolute	0.0006512326
-4.116818	absolute.	0.02238248
-4.116818	absolutely	-0.0001480656
-4.292909	absolutes	-3.531145e-05
-4.292909	absolutes??.	0.02244437
-4.292909	absolve	-6.850381e-05
-4.292909	abstract	-9.063064e-05
-3.593939	absurd	0.02155076
-4.292909	absurd,	0.0007398981
-4.116818	absurd.	0.02238248
-4.292909	absurd.....but	0.0003299721
-4.292909	absurdity	0.006620972
-4.292909	abuse	0.001372164
-3.894969	accept	0.002045406
-4.292909	acceptable?.	0.02244437
-4.292909	accepted	0.0005182684
-3.748841	access	0.01547002
-4.116818	access,	-0.0001525268
-4.292909	access.	0.02244437
-4.292909	accessible	2.001478e-05
-4.292909	accessories	0.006037123
-3.991879	accident	-0.0001214252
-4.292909	accident.	0.02244437
-3.991879	accidental	0.002569989
-4.292909	accidentally.	0.02244437
-4.116818	accidents,	0.001359364
-4.292909	accidents.	0.02244437
-4.292909	accommodate	9.748345e-05
-4.292909	accomplish	-5.743997e-05
-3.815788	according	0.00929321
-3.894969	account	0.003433506
-4.292909	account.	0.02244437
-4.292909	accuracy	-0.0001016936
-4.292909	accurate	-0.0001016936
-4.116818	accurate.	0.02238248
-4.292909	accusations	0.0002192478
-4.116818	achieve	0.001337158
-4.292909	acknowledge	0.0005293473
-4.292909	acknowledged	0.0146723
-4.292909	acquaintances	0.001372164
-4.292909	acquire	0.0001196198
-4.292909	acquired	0.0005625854
-4.116818	acquiring	0.0007491115
-4.116818	across	0.01464006
-3.748841	act	0.007679049
-4.292909	act.	0.02244437
-4.292909	actin	0.001139117
-3.593939	action	0.03260728
-4.292909	action,	0.006037123
-4.116818	active	-0.0001148699
-4.292909	active-shooter	-0.0001016936
-4.292909	activity	-0.0001016936
-3.593939	actual	-0.0004546107
-3.251517	actually	0.0132023
-4.292909	ad....	0.0002303189
-4.292909	adapt	0.001338864
-4.116818	add	0.0005495784
-4.292909	addiction	0.009540741
-4.292909	additional	-0.0001016936
-4.292909	addressed	0.0146723
-4.292909	addressed.	0.02244437
-4.292909	addressing	0.0146723
-4.292909	adjacent	6.428087e-05
-4.292909	adjust	0.0146723
-4.292909	admiration	0.002784216
-3.815788	admit	0.02736908
-4.292909	admit.	0.02244437
-4.292909	admitting	0.005106831
-4.292909	adopted.	0.02244437
-4.292909	adult,	0.0008507556
-4.116818	adults	0.01244757
-4.292909	advantage	0.0005293473
-4.292909	advertising	0.001338864
-4.292909	advice	0.004256743
-4.292909	advocates	0.006620972
-4.292909	advocating	0.0002192478
-4.292909	affairs	0.005106831
-4.292909	affairs.	0.02244437
-4.292909	afflictions.	0.02244437
-4.292909	affluent	0.006037123
-4.292909	afford	0.009540741
-4.292909	afforded	0.0146723
-4.292909	afghanistan,	-0.0001016936
-3.991879	afraid	0.02146702
-4.292909	afraid?	0.02244437
-3.315186	after	0.03160735
-4.292909	aftermath	0.006620972
-4.292909	afternoon.	0.02244437
-3.894969	again	0.001067315
-3.815788	again,	0.0147658
-3.991879	again.	0.02232059
-4.292909	again...'.	0.02244437
-3.27172	against	0.02054574
-4.116818	against,	0.00707054
-4.116818	age	0.01181017
-4.292909	agenda	0.005106831
-4.292909	agent	-9.063064e-05
-4.292909	ages	-1.31818e-05
-4.292909	ago	0.005106831
-4.292909	ago,	-0.0001016936
-4.116818	ago.	0.02238248
-3.389819	agree	0.009310427
-4.116818	agree.	0.02238248
-4.292909	agrees	0.002205498
-4.292909	ahead	0.006037123
-4.292909	ahead.	0.02244437
-4.292909	ahhh	-7.956736e-05
-4.116818	aim	0.009439546
-4.116818	aim.	0.02238248
-4.116818	air	0.0006604188
-4.292909	airport,	0.0006512326
-4.292909	airports.	0.02244437
-3.991879	al.	0.02232059
-4.292909	al.,	-0.0001016936
-4.292909	alas..it	-9.063064e-05
-4.116818	alcohol	0.006160221
-4.292909	alien	-0.0001016936
-4.292909	alignment...	-7.956736e-05
-4.292909	alive	0.004256743
-2.66966	all	0.05987418
-3.991879	all,	0.01565108
-3.479996	all.	0.021764
-4.292909	all...	0.02244437
-4.292909	all?	0.02244437
-4.292909	allegiances	-9.063064e-05
-4.292909	alley	-7.956736e-05
-4.292909	allies.	0.02244437
-3.639697	allow	0.02347289
-3.815788	allowed	0.01222278
-4.292909	allowed.	0.02244437
-4.292909	allowed?.	0.02244437
-4.116818	allowing	-0.0001812588
-4.292909	almighty,	0.004771071
-3.514758	almost	0.00153489
-4.116818	alone	0.0006936764
-4.292909	alone,	-2.424678e-05
-4.292909	alone?	0.02244437
-4.116818	along	0.01461041
-4.292909	alongside	0.002450246
-3.552547	already	0.003354739
-3.146781	also	0.01378964
-4.292909	altercation,	0.003910473
-4.292909	altered	0.009540741
-3.593939	always	0.0001929457
-3.232211	am	0.01553
-4.292909	amazes	0.000252462
-4.292909	amazing	0.004771071
-4.292909	ambivalent	0.0007398981
-3.593939	amendment	0.0208443
-4.292909	amendment.	0.02244437
-4.292909	amendment:	0.0001749658
-4.292909	amendment?.	0.02244437
-4.116818	amendments	1.793852e-05
-4.292909	america	0.0007509826
-4.292909	america's	-0.0001016936
-4.292909	america.	0.02244437
-4.292909	america:	-0.0001016936
-4.292909	americans	-0.0001016936
-4.292909	ammendment,	0.0008174955
-4.292909	ammendment?	0.02244437
-3.991879	ammo	0.007825129
-3.991879	ammo,	0.004903981
-4.292909	ammo.	0.02244437
-4.116818	ammo?	0.02238248
-3.593939	ammunition	0.01952382
-4.292909	ammunition,	-1.31818e-05
-4.116818	ammunition.	0.02238248
-4.292909	ammunition.'	0.02244437
-4.292909	ammunition?.	0.02244437
-4.292909	amnesty	-5.743997e-05
-3.639697	among	0.01507559
-4.292909	amongst	-3.531145e-05
-3.991879	amount	0.006497188
-4.292909	amounts	0.006620972
-4.292909	amusing	0.009540741
-2.630152	an	-0.005558845
-4.292909	anal	-9.063064e-05
-4.292909	analogous.	0.02244437
-4.292909	analogues.	0.02244437
-4.292909	analogy	-0.0001016936
-4.116818	analogy.	0.02238248
-4.292909	analyses	-9.063064e-05
-4.292909	analysis	-9.063064e-05
-4.292909	ancient	-0.0001016936
-1.851214	and	0.1082218
-4.116818	and,	0.006609522
-4.116818	and/or	-0.0001701947
-4.292909	anecdotal,	0.001017095
-4.292909	anecdotes.	0.02244437
-4.292909	angels	0.001017095
-3.991879	announced	0.00200867
-4.292909	annoying	-0.0001016936
-4.292909	annually	-0.0001016936
-3.815788	anonymous	-0.0004066972
-3.552547	another	0.002026364
-3.894969	answer	0.01841785
-4.292909	answer.	0.02244437
-4.292909	answered	0.007385653
-4.116818	answering	0.01481181
-4.292909	answers	0.0004628786
-4.292909	anthrax...just	-9.063064e-05
-4.292909	anti-2nd	-1.31818e-05
-4.292909	anti-Trump.	0.02244437
-3.991879	anti-gun	0.0009025742
-4.292909	anti-gun-violence	-9.063064e-05
-4.292909	anti-gun.	0.02244437
-4.292909	antichrist	0.006037123
-4.116818	anxiety	0.0004276869
-2.767864	any	0.005962274
-4.292909	any.	0.02244437
-4.292909	anybody	0.001972003
-4.292909	anymore,	0.006037123
-4.292909	anymore.	0.02244437
-3.593939	anyone	0.01473603
-4.116818	anyone's	0.0001175715
-3.991879	anyone.	0.02232059
-3.338667	anything	0.04494716
-4.292909	anything,	0.0009283723
-4.116818	anything.	0.02238248
-3.991879	anyway.	0.02232059
-4.116818	anywhere	0.0006825902
-4.116818	anywhere.	0.02238248
-4.292909	apart	0.006037123
-4.292909	apathy	0.009540741
-4.292909	apdst	-9.063064e-05
-4.292909	ape****.	0.02244437
-4.292909	apocalyptic	-9.063064e-05
-4.292909	appalling	-0.0001016936
-4.292909	apparel,	-0.0001016936
-4.292909	apparently	0.0002635341
-4.292909	apparently.	0.02244437
-4.292909	appeared	0.006037123
-4.292909	appears	0.009540741
-4.292909	apple-to-apple	-0.0001016936
-4.292909	applicable	-9.063064e-05
-4.292909	application	-9.063064e-05
-3.894969	apply	0.008796175
-4.292909	appointed	6.428087e-05
-4.292909	appreciate	2.001478e-05
-4.292909	approach	0.005106831
-4.292909	approach.	0.02244437
-4.116818	appropriate	-8.167155e-05
-4.292909	appropriately	0.001372164
-4.292909	approves	0.006620972
-4.292909	ar15,	-0.0001016936
-4.292909	arch-conservative	-0.0001016936
-4.292909	ardent	-9.063064e-05
-2.167428	are	0.05261517
-3.991879	are,	-0.0002054903
-3.748841	are.	0.02213498
-4.292909	are...	-4.637586e-05
-4.292909	area	0.006037123
-4.292909	areas	0.0004628786
-4.292909	areas.	0.02244437
-3.417848	aren't	0.0002039629
-4.116818	arena	0.007171803
-4.292909	arena,	0.0146723
-4.292909	aren’t	-0.0001016936
-3.389819	argue	0.02462809
-4.292909	argues	0.005106831
-3.991879	arguing	0.007836402
-4.292909	arguing.	0.02244437
-3.315186	argument	0.02998471
-4.116818	argument,	0.001259446
-3.894969	argument.	0.02225871
-3.894969	arguments	-0.0002407682
-4.292909	arguments.	0.02244437
-3.36349	arial,	-0.000863237
-3.894969	arm	0.009950463
-4.292909	armament.	0.02244437
-4.292909	armchair	-0.0001016936
-3.292909	armed	0.03443224
-4.292909	armed.	0.02244437
-4.292909	arming	-2.11652e-06
-4.292909	arming,	0.006037123
-4.292909	armored	-9.063064e-05
-3.593939	arms	0.02863516
-4.116818	arms,	0.008400105
-3.690849	arms.	0.02207313
-4.292909	arms.26	0.0002635341
-4.292909	arms.”	-0.0001016936
-4.116818	army	0.006328655
-4.292909	army,	0.006037123
-4.116818	army.	0.02238248
-3.447811	around	0.02988462
-4.292909	around?	0.02244437
-4.116818	arrogant	0.001259446
-3.894969	article	0.005015373
-4.292909	article.	0.02244437
-4.292909	article...	-0.0001016936
-4.292909	articles	0.0002746064
-2.473365	as	0.05935482
-4.292909	asap.	0.02244437
-4.292909	ashamed	0.009540741
-4.292909	aside	0.0146723
-4.116818	aside,	0.005442305
-4.292909	asinine	-9.063064e-05
-3.748841	ask	0.02624368
-3.894969	asked	0.02402323
-3.991879	asking	0.003942064
-4.116818	asking,	0.001048583
-4.292909	aspect	0.006620972
-4.116818	aspects	0.006559076
-3.815788	ass	0.006238066
-4.116818	assailant.	0.02238248
-3.102577	assault	0.01104137
-4.292909	assault,	-0.0001016936
-4.292909	assault-style	2.001478e-05
-4.292909	assault.	0.02244437
-4.292909	assaulted	0.0006179878
-3.991879	assaults	0.00707049
-4.292909	assclowns	0.0008507556
-4.116818	assertion	0.01961401
-4.116818	assertion,	0.001570378
-4.292909	assertion.	0.02244437
-4.292909	assertions	0.001338864
-4.292909	assertions,	-6.850381e-05
-4.292909	asshole	0.004256743
-4.292909	assisted	4.214733e-05
-4.292909	associations	0.002205498
-4.292909	assualt	0.000307825
-4.292909	assualts	0.002205498
-4.292909	assume	-0.0001016936
-4.292909	assume,	0.001972003
-4.292909	assumed	0.005106831
-4.116818	assumes	0.005044935
-4.292909	assumptions	0.009540741
-4.292909	astroturf	-0.0001016936
-2.690849	at	0.0287844
-4.292909	at.	0.02244437
-4.292909	atomic	-0.0001016936
-3.894969	attack	0.005834003
-4.292909	attacked	-3.531145e-05
-4.292909	attackers	-9.063064e-05
-4.292909	attacking	0.0001196198
-4.292909	attacks	0.0003521205
-4.292909	attacks,	0.004771071
-4.292909	attain.	0.02244437
-3.894969	attempt	0.01164091
-4.292909	attempt.	0.02244437
-4.292909	attempting	0.009540741
-4.292909	attempts	0.009540741
-4.292909	attention	0.001972003
-4.292909	attenuated	-7.956736e-05
-4.116818	attitude	0.000184006
-4.292909	attributable	0.009540741
-4.292909	attributed	0.009540741
-4.292909	audience	-1.31818e-05
-4.292909	authoritarian	0.006037123
-4.116818	authority	0.0163147
-3.292909	auto	-0.0007848365
-4.292909	auto,	0.001338864
-3.075425	auto;	-0.001724152
-3.690849	automatic	0.001702537
-4.292909	automatically	0.0004628786
-4.292909	automobile	-7.956736e-05
-4.292909	automobiles.	0.02244437
-4.292909	autos.	0.02244437
-4.292909	availability	0.006620972
-3.748841	available	0.01396165
-3.991879	available,	0.008795696
-3.991879	available.	0.02232059
-4.292909	averaging	-0.0001016936
-4.292909	avoid	0.0146723
-4.292909	await	0.0001971062
-4.292909	awaits	0.0003299721
-4.292909	awake	0.0007620673
-4.292909	awakening	0.006620972
-3.815788	aware	0.01158535
-3.514758	away	0.02032533
-4.116818	away,	0.003898324
-4.116818	away.	0.02238248
-4.292909	awesome...	-0.0001016936
-4.292909	baby	-3.531145e-05
-3.213728	back	0.02486229
-3.593939	background	-0.0006496361
-3.36349	background-color:	-0.000863237
-4.292909	backing	0.000252462
-4.292909	backpack	0.001372164
-4.292909	backpack.	0.02244437
-4.292909	backtracked	0.009540741
-3.690849	bad	0.008531895
-4.116818	bad***	0.003351417
-4.292909	bad,	0.0146723
-4.116818	bad.	0.02238248
-4.292909	bad."	0.02244437
-4.292909	badass!	0.02244437
-4.292909	balcony	0.006620972
-4.292909	bald-faced,	-0.0001016936
-4.292909	balls	0.001538703
-3.102577	ban	0.03228713
-4.292909	ban'.	0.02244437
-4.292909	ban)	7.534814e-05
-4.116818	ban,	0.000427687
-4.292909	ban.	0.02244437
-4.292909	banana	-0.0001016936
-4.292909	bananas	0.001972003
-4.292909	bang	0.006037123
-4.116818	bang,	-0.0001923227
-4.292909	bangers.	0.02244437
-3.690849	banned	0.01961307
-4.292909	banned,	-9.063064e-05
-4.292909	banned;	0.0003299721
-4.292909	banners	-9.063064e-05
-4.292909	banners.	0.02244437
-3.639697	banning	0.01329564
-3.894969	bans	0.003746133
-4.292909	bans,	0.007385653
-4.292909	bans.	0.02244437
-4.292909	bans?	0.02244437
-4.292909	barber	-3.531145e-05
-4.292909	bare	-1.31818e-05
-4.292909	barely	-5.743997e-05
-4.292909	barest	-9.063064e-05
-4.292909	barrel	0.004771071
-4.292909	barrel,	-0.0001016936
-4.292909	barreled	-2.424678e-05
-4.116818	bars.	0.02238248
-3.894969	base	0.01779434
-4.292909	baseball	-0.0001016936
-3.514758	based	0.005681808
-4.292909	based,	0.004771071
-4.116818	basic	-0.0001923227
-4.116818	basically	0.007295602
-3.894969	basis	0.00836693
-4.116818	basis.	0.02238248
-4.292909	bastards	-3.531145e-05
-4.292909	bat	0.0009727312
-4.116818	battle	0.002315299
-4.292909	battlefield.	0.02244437
-2.308382	be	0.05612024
-4.292909	be,	0.0009616412
-3.894969	be.	0.02225871
-4.116818	be?	0.02238248
-3.639697	bear	0.005372882
-4.292909	bear?	0.02244437
-4.292909	bearing	0.001972003
-4.292909	bearpoker	-1.31818e-05
-4.292909	beats	0.007385653
-4.292909	beauty,	-0.0001016936
-4.292909	becan	0.009540741
-2.701845	because	0.0537019
-3.991879	become	0.01544453
-4.292909	become?.	0.02244437
-4.292909	bed?	0.02244437
-4.292909	bedsheet	-0.0001016936
-4.292909	beef	-0.0001016936
-3.06246	been	0.02080633
-3.27172	before	0.04530352
-4.292909	beforehand?"	0.02244437
-4.292909	beginning	-2.424678e-05
-4.292909	begrudgingly	-0.0001016936
-4.292909	behavior	0.0007398981
-3.991879	behind	0.01452769
-4.292909	beholden	0.009540741
-2.960471	being	0.02219021
-4.292909	beings	-2.11652e-06
-4.292909	belaboring	0.0146723
-4.292909	beleive	0.004256743
-3.991879	belief	0.01174829
-4.116818	belief.	0.02238248
-3.389819	believe	0.01158962
-4.292909	believe,	0.005106831
-4.292909	believe.	0.02244437
-4.292909	believed	0.005106831
-4.292909	believes	0.005106831
-4.292909	believing	6.428087e-05
-4.292909	bellow	0.001294468
-4.292909	belly-aching???	0.02244437
-4.292909	belong...	0.02244437
-4.292909	belongs	-2.424678e-05
-4.292909	below,	0.004771071
-4.292909	benefit	0.0008064094
-4.116818	bersa	-0.0001923227
-3.991879	besides	0.009338351
-3.593939	best	0.008742024
-4.292909	best!.	0.02244437
-4.292909	best.	0.02244437
-4.292909	bet	0.003910473
-3.447811	better	0.003330967
-4.116818	better.	0.02238248
-3.479996	between	0.02218988
-4.116818	beyond	0.01496072
-3.639697	big	0.005979007
-4.116818	bigger	0.0006271636
-4.292909	biggest	-5.743997e-05
-4.292909	bigotry	0.006037123
-4.292909	bilking	0.0146723
-4.116818	bill	-0.0002033862
-4.292909	billion	0.0005293473
-4.116818	bills	0.005005405
-4.292909	bin	-0.0001016936
-3.639697	bit	0.01567974
-4.292909	bitching	0.001294468
-4.292909	bitter	-9.063064e-05
-4.292909	bizarre	3.108093e-05
-4.292909	bizarre.	0.02244437
-4.292909	bizarro	-0.0001016936
-3.417848	black	0.001268282
-4.292909	blackout	0.0001749658
-3.894969	blacks	0.002648011
-4.116818	blacks.	0.02238248
-4.292909	blade	0.001372164
-4.116818	blades	0.001492624
-3.991879	blame	0.01468799
-4.292909	blanket	-4.637586e-05
-4.292909	blanket.	0.02244437
-4.292909	blanks	0.004256743
-4.292909	blast	0.0005625854
-4.292909	blather,	8.949034e-06
-4.292909	block	-0.0001016936
-4.116818	blogs	0.005991853
-3.991879	blood	0.01148168
-4.292909	bloodbath	0.006620972
-4.292909	bloody	-7.956736e-05
-4.116818	blow	0.002370941
-4.292909	blowing	-4.637586e-05
-4.292909	blue	0.001372164
-4.292909	blunder.	0.02244437
-4.292909	blunt	-0.0001016936
-4.292909	blustering.	0.02244437
-3.894969	board	0.01802517
-4.292909	board...?	0.02244437
-4.292909	bodies	0.0009283723
-4.292909	bodies'	-5.743997e-05
-4.292909	bodies....	0.0005293473
-3.690849	body	0.005923343
-4.292909	body.	0.02244437
-4.292909	bogus?.	0.02244437
-4.292909	bold	-0.0001016936
-4.292909	bold.	0.02244437
-3.991879	bolt	-5.501771e-05
-4.292909	bomb	0.004771071
-4.292909	bomb,	0.002784216
-4.292909	bombastic	-0.0001016936
-4.292909	bombing	0.0007620673
-4.292909	bonding,	-4.637586e-05
-4.292909	boogeyman	0.006620972
-4.292909	boogeyman,	0.004256743
-4.292909	book,	-0.0001016936
-4.292909	boost	5.321399e-05
-4.292909	boosted	0.001139117
-4.116818	border	0.005139789
-3.36349	border:	-0.000863237
-4.292909	borders	2.001478e-05
-4.292909	bored	0.002205498
-4.116818	boring	-9.273798e-05
-4.292909	born	0.004256743
-4.292909	boston	-0.0001016936
-3.639697	both	-8.702627e-05
-4.116818	both.	0.02238248
-4.116818	bother	0.005285418
-4.292909	bothered	0.001139117
-4.292909	bottom	-4.637586e-05
-3.894969	bought	0.00629446
-4.292909	bowels	0.006620972
-4.292909	box	0.004256743
-4.292909	boy.	0.02244437
-4.292909	boys	-0.0001016936
-4.292909	brain	-5.743997e-05
-4.292909	brains	-6.850381e-05
-4.292909	brakes	0.0005293473
-4.292909	brand	-0.0001016936
-4.292909	brandishing	0.007385653
-4.292909	brands,	-7.956736e-05
-4.292909	brass	-7.956736e-05
-4.292909	brave	0.0005182684
-4.292909	brave,	-0.0001016936
-3.991879	break	0.00524594
-4.292909	breaking	0.0146723
-4.292909	breath.	0.02244437
-4.292909	breathing,	0.0002192478
-4.292909	bribe	0.0002746064
-4.116818	bribery	0.0002615262
-4.292909	bribery,	0.0003410461
-4.292909	bribes	0.006037123
-4.292909	bricks	0.006037123
-4.292909	brilliant	2.001478e-05
-3.991879	bring	0.0007426661
-4.116818	broad	-0.0001923227
-4.292909	broad.	0.02244437
-4.292909	broaden	0.0002746064
-4.292909	broader	-9.063064e-05
-4.292909	brother	0.004256743
-4.292909	brutal	-9.063064e-05
-4.292909	bubble,	0.0005071899
-4.292909	buck	-9.063064e-05
-4.292909	bud,	0.005106831
-4.292909	buddy	0.0009727312
-4.292909	budget	0.006037123
-4.292909	build.How	0.0008729301
-4.116818	building	0.007678478
-4.116818	buildings,	0.001310268
-3.991879	built	0.01232873
-3.894969	bull****	0.005004169
-3.894969	bull****.	0.02225871
-4.292909	bull.	0.02244437
-4.292909	bullet	0.005106831
-3.991879	bullets	0.01198217
-4.116818	bullets....and	0.01461041
-4.292909	bullied	0.006037123
-4.292909	bullshit	0.0005404263
-4.292909	bummer.	0.02244437
-4.116818	bump	-0.0001701947
-4.292909	bumps	0.004256743
-4.292909	bumpstocks	0.006037123
-3.894969	bunch	0.00643531
-4.292909	burglarized	2.001478e-05
-4.292909	burst	-0.0001016936
-4.292909	bury	0.007385653
-4.292909	bus	0.004771071
-4.292909	bus.	0.02244437
-4.116818	business	0.006137769
-4.292909	business,	0.001017095
-4.292909	business.	0.02244437
-2.581102	but	0.08352873
-4.292909	but,	0.0007953232
-4.292909	butcher	0.002205498
-4.292909	buttercup.	0.02244437
-4.292909	button.	0.02244437
-3.593939	buy	0.009767455
-4.292909	buy.	0.02244437
-4.292909	buyback	-0.0001016936
-3.748841	buying	0.005867074
-2.537034	by	0.03071924
-4.292909	bypassed	0.001139117
-4.292909	cable	-0.0001016936
-4.292909	cal	0.001972003
-3.894969	caliber	0.01135786
-4.116818	caliber.	0.02238248
-4.292909	calibers	-5.743997e-05
-4.292909	calibers,	2.001478e-05
-3.593939	call	0.01808451
-4.292909	call.	0.02244437
-3.748841	called	0.007639651
-4.116818	calling	0.002081679
-4.292909	calling?	0.02244437
-4.292909	came	5.321399e-05
-4.292909	camp	0.002784216
-4.292909	campaign.	0.02244437
-2.598304	can	0.02269715
-2.981155	can't	0.01075829
-4.292909	candidate	0.005106831
-4.116818	candidates	0.005969409
-4.292909	candidates.	0.02244437
-4.292909	candy,	0.0009616412
-4.116818	cannon	0.004155273
-3.748841	cannot	0.0001495102
-4.292909	cant	0.0002192478
-4.116818	cap	0.001992714
-4.292909	capability	0.006620972
-3.991879	capable	0.006497188
-3.894969	capacity	-8.261618e-06
-4.292909	capital	-3.531145e-05
-4.292909	capitulate	0.009540741
-3.593939	car	0.01867442
-3.991879	carbon	-0.0002940135
-4.292909	card	0.001061462
-4.292909	cards	0.0003410461
-3.593939	care	0.01950461
-4.116818	care,	0.001437095
-4.116818	care.	0.02238248
-4.116818	careful	0.00827599
-4.292909	carefully	-0.0001016936
-4.292909	carefully.	0.02244437
-4.292909	careless	0.002205498
-4.292909	caring	-6.850381e-05
-3.894969	carried	0.004467551
-3.251517	carry	0.02531799
-3.447811	carrying	0.03059912
-3.815788	cars	0.005093265
-4.292909	cars!"	0.02244437
-3.991879	cars,	0.007008652
-4.292909	cars.	0.02244437
-4.292909	cartels	0.000285679
-4.292909	cartoons,	0.001017095
-4.292909	carve	0.0003299721
-4.292909	car.	0.02244437
-3.593939	case	0.02571927
-4.116818	case,	0.006272503
-4.292909	cases	-7.956736e-05
-4.292909	cases).	0.02244437
-4.292909	cases,	-0.0001016936
-4.292909	cashflow	-7.956736e-05
-4.116818	cast	-0.0001193362
-4.292909	casual	0.0002192478
-4.292909	casually	8.641566e-05
-4.292909	casualties	0.006620972
-4.292909	casualties.	0.02244437
-4.292909	catch,	0.004771071
-4.292909	categories)	0.004771071
-4.292909	category,	0.0007953232
-4.292909	caught.	0.02244437
-4.116818	causal	-0.0001591303
-4.292909	causation,	0.0003742698
-4.292909	cause	-0.0001016936
-4.292909	caused	-0.0001016936
-3.894969	causes	0.0230914
-4.292909	causes,	-4.637586e-05
-4.292909	causing	0.0146723
-4.292909	ccw	-0.0001016936
-4.292909	ccwers,	0.006037123
-4.292909	cede	-2.11652e-06
-4.292909	celebrating.	0.02244437
-4.292909	center	0.006620972
-4.292909	cents	0.004256743
-4.292909	cents,	-0.0001016936
-4.292909	century	0.0006512326
-4.292909	century.	0.02244437
-3.748841	certain	-0.0002780482
-3.748841	certainly	0.006271612
-4.292909	certificate	0.002205498
-4.292909	chain's	-7.956736e-05
-4.292909	challenging	2.001478e-05
-4.292909	chamber.	0.02244437
-4.292909	chambered.	0.02244437
-4.292909	chambers.	0.02244437
-4.116818	champion	0.006542097
-3.815788	chance	0.02025901
-4.116818	chances	0.009507422
-3.748841	change	0.01543797
-3.748841	changed	0.002722309
-4.292909	changed.	0.02244437
-4.292909	channel.	0.02244437
-4.292909	character	-9.063064e-05
-4.292909	charge	0.004771071
-4.292909	charge,	0.0003742698
-4.116818	charges	0.002722319
-4.292909	charm,”	0.009540741
-4.116818	chart	7.328732e-05
-4.292909	cheap	-0.0001016936
-3.894969	check	0.006974854
-4.116818	check.	0.02238248
-3.991879	checks	0.003261062
-4.292909	checks!!!	0.02244437
-4.116818	checks,	0.005969409
-4.292909	checks.	0.02244437
-4.292909	child	0.0003521205
-4.116818	child.	0.02238248
-3.514758	children	0.02058506
-4.292909	children,	0.0002303189
-4.116818	children.	0.02238248
-4.292909	children/teens	0.0008064094
-4.292909	china,	-0.0001016936
-4.292909	chip	0.001972003
-3.894969	choice	0.01071553
-4.292909	choice.	0.02244437
-4.292909	choices,	-7.956736e-05
-4.292909	choir.	0.02244437
-4.292909	choking	0.001972003
-3.748841	choose	0.01904175
-4.292909	choose.	0.02244437
-4.292909	choose?	0.02244437
-4.292909	christian	-7.956736e-05
-4.292909	christmas	8.949034e-06
-4.292909	church	0.004256743
-4.292909	cigarettes	0.0008729301
-4.292909	cigarettes.	0.02244437
-4.292909	circles	0.0007620673
-4.292909	circles.	0.02244437
-4.292909	circulation	0.004256743
-3.991879	circumvent	0.01455528
-4.116818	cite	0.01531602
-4.116818	cities	0.004300572
-4.116818	cities,	0.001437095
-4.116818	cities.	0.02238248
-4.292909	citing	0.009540741
-4.292909	citizen	0.002205498
-4.292909	citizen"	0.002205498
-4.292909	citizen.	0.02244437
-4.116818	citizens	0.009473483
-4.116818	citizens,	0.0009154593
-4.292909	citizens.	0.02244437
-3.894969	city	0.00239675
-4.292909	city.	0.02244437
-3.815788	civil	-0.0002451736
-3.815788	civilian	0.0002557074
-4.292909	civilian-available	0.0001417574
-4.292909	civilians.	0.02244437
-4.292909	civility	0.006037123
-3.417848	claim	0.02754505
-4.292909	claim,	0.006037123
-4.292909	claim.	0.02244437
-4.292909	claimed	0.005106831
-4.116818	claiming	0.009541364
-4.292909	claiming.	0.02244437
-3.991879	claims	0.009875664
-4.292909	claims,	0.002205498
-4.292909	claims.	0.02244437
-4.292909	clamp	5.321399e-05
-4.292909	clarification	0.001150211
-3.991879	class	0.01561665
-4.292909	classifies	-0.0001016936
-4.292909	classify	-7.956736e-05
-4.292909	classroom.	0.02244437
-4.116818	clause	6.869573e-06
-4.292909	clean	7.534814e-05
-3.748841	clear	0.02360005
-4.292909	clearing	-9.063064e-05
-4.116818	clearly	0.003373726
-4.292909	clearly,	0.003910473
-4.292909	clever	0.006037123
-4.292909	clientele.	0.02244437
-4.292909	clinical	-0.0001016936
-4.116818	clip	0.006485918
-4.292909	clip,	0.004771071
-4.292909	clips.	0.02244437
-3.894969	close	0.009327092
-4.292909	closely	-9.063064e-05
-4.116818	closet	-7.507799e-05
-4.292909	closing	0.0146723
-4.292909	clown	0.001338864
-4.292909	clowns	0.006620972
-4.292909	club	0.006037123
-4.292909	clue	0.0008064094
-4.292909	co-worker	-0.0001016936
-4.292909	coast,	0.006037123
-4.292909	cock.	0.02244437
-4.292909	coffee	0.009540741
-4.292909	coincidentally	0.0146723
-4.292909	cold	-0.0001016936
-4.292909	college	0.006037123
-4.292909	college,	0.006037123
-4.292909	color	0.004256743
-3.36349	color:	-0.000863237
-4.116818	combat	-0.0001259354
-4.292909	combined	0.002205498
-4.292909	combined,	0.004771071
-3.593939	come	0.02223885
-4.292909	come,	8.949034e-06
-4.292909	come......	-1.31818e-05
-4.292909	comeback!	0.02244437
-3.514758	comes	0.01456206
-4.292909	comes.	0.02244437
-3.991879	comfortable	0.002081714
-4.292909	comforting.	0.02244437
-4.292909	comfy	0.006037123
-3.593939	coming	0.004660637
-4.292909	commandeer	-0.0001016936
-4.292909	commend	-0.0001016936
-3.748841	comment	0.003231654
-4.116818	comment.	0.02238248
-4.292909	comment?.	0.02244437
-4.292909	commentator	9.748345e-05
-4.292909	commentators	0.006037123
-4.292909	commented.	0.02244437
-4.116818	comments	-0.0001480656
-4.116818	comments.	0.02238248
-4.292909	commerce	0.001061462
-4.292909	commerce?	0.02244437
-4.116818	commercial	-0.0001414636
-3.639697	commit	0.007093296
-4.292909	commits	4.214733e-05
-3.815788	committed	0.01802524
-4.292909	committing	-4.637586e-05
-4.292909	commodifying	0.006620972
-3.639697	common	-0.0002003103
-4.292909	common-sense	-9.063064e-05
-4.292909	common.	0.02244437
-4.292909	commonly	0.0002635341
-4.292909	community	0.002327854
-3.894969	companies	0.003025706
-4.292909	companies.	0.02244437
-4.116818	comparable	0.009880931
-4.116818	compare	0.009478846
-3.639697	compared	0.0120714
-4.292909	compared.”	0.00128337
-4.116818	comparison	0.0144226
-4.292909	comparison.	0.02244437
-4.292909	comparisons	0.006620972
-4.292909	comparisons.	0.02244437
-4.292909	comparisons.".	0.02244437
-4.292909	compelling	0.006037123
-4.292909	compete	0.004256743
-4.116818	competent	0.009439546
-4.292909	competitions,	-7.956736e-05
-4.292909	complain	0.001294468
-4.292909	complaining	0.0007398981
-4.292909	complains	0.001294468
-4.292909	complete	-4.637586e-05
-3.690849	completely	-0.0004063399
-4.116818	complicated	0.0006336669
-4.292909	compliment	0.009540741
-4.292909	component	0.006620972
-4.292909	comprehend	0.005106831
-4.292909	comps	0.006037123
-4.292909	con-game	0.009540741
-4.292909	conceal	0.0001196198
-3.690849	concealed	0.0001032914
-4.292909	conceded	0.009540741
-4.116818	concept	0.006559076
-4.292909	concept.	0.02244437
-3.991879	concern	0.004618929
-4.116818	concerned	0.001192847
-4.116818	concerned.	0.02238248
-4.292909	conclusion	0.005106831
-4.292909	concocted	0.007385653
-4.292909	concrete.	0.02244437
-4.292909	condemn)	0.0146723
-4.292909	condition,	-0.0001016936
-4.292909	conditioning)	0.004256743
-3.894969	conditions	0.01796014
-4.292909	conduct	0.0002967519
-4.292909	configured	0.002784216
-4.292909	confirms	-9.063064e-05
-4.292909	confiscate	0.002172134
-4.292909	confiscated	0.006037123
-4.292909	confiscating	6.428087e-05
-3.991879	confiscation.	0.02232059
-4.292909	confiscations	0.0005182684
-4.292909	conflate	0.0008064094
-4.292909	conflated	0.002205498
-4.292909	conflict	0.006620972
-4.292909	conforms	0.009540741
-4.292909	confronted	-5.743997e-05
-4.292909	confused	0.001338864
-4.292909	confusing	-9.063064e-05
-3.748841	congress	0.009169996
-4.292909	congress,	0.005106831
-4.292909	conjecture,	0.0146723
-4.292909	connections	-3.531145e-05
-4.292909	cons	0.009540741
-4.292909	cons.	0.02244437
-4.292909	conscience	0.0008064094
-4.292909	consequence	0.006620972
-4.292909	consequences,	-6.850381e-05
-4.292909	consequently	0.002172134
-4.292909	conservatards	0.0008064094
-3.690849	conservative	-0.0006232932
-3.639697	conservatives	0.01438758
-3.514758	consider	0.02190953
-4.292909	consideration	0.002784216
-4.292909	considered	0.005106831
-4.116818	considering	0.002070557
-4.116818	considers	0.001314953
-4.292909	consistently	-0.0001016936
-4.292909	consisting	0.006620972
-4.292909	conspiracy	-0.0001016936
-4.292909	constantly	7.534814e-05
-4.292909	constantly,	0.0007398981
-3.552547	constitution	0.0171365
-4.292909	constitution.	0.02244437
-3.991879	constitutional	0.0005476855
-4.292909	constitutionalist	0.004771071
-4.292909	contend	0.002205498
-4.292909	content,	0.006037123
-4.292909	content.	0.02244437
-4.292909	contention	0.0007398981
-4.292909	contests	0.006037123
-4.292909	context	0.001372164
-4.292909	continents.	0.02244437
-4.292909	continually	-0.0001016936
-3.991879	continue	0.009416958
-4.116818	continue.	0.02238248
-4.292909	continuing	0.002839902
-4.292909	contrary	0.009540741
-4.292909	contrast	0.009540741
-4.116818	contribution	0.01071967
-4.292909	contributions	0.001150211
-4.292909	contributions-	-7.956736e-05
-3.088789	control	0.03713419
-4.292909	control"	0.004771071
-3.991879	control,	0.006676798
-3.639697	control.	0.02201128
-4.292909	control..	0.009540741
-4.292909	controlled	0.002205498
-4.116818	controls	0.004826291
-4.292909	controls,	-6.850381e-05
-4.292909	controversial.	0.02244437
-4.292909	convenes	0.0146723
-4.292909	convenience	-3.531145e-05
-4.116818	conversation	0.009478846
-4.116818	conversation.	0.02238248
-4.292909	conversation.).	0.02244437
-4.116818	convicted	0.002722319
-3.389819	conviction	0.004906071
-4.292909	conviction,	0.004771071
-3.894969	convictions	0.007520916
-4.116818	convinced	-0.0001480656
-4.116818	convincing	0.002437722
-4.292909	copied	0.002205498
-4.292909	cops	0.009540741
-4.292909	copy	0.006037123
-4.292909	cord.	0.02244437
-3.748841	corporate	-0.0004330585
-4.292909	corporation,	-2.424678e-05
-4.292909	corporatist	-6.850381e-05
-4.292909	corral	0.001061462
-4.292909	correct	0.001972003
-4.292909	correct.	0.02244437
-4.292909	correctly	-9.063064e-05
-4.292909	correctly?	0.02244437
-4.292909	corrosive	-0.0001016936
-4.292909	corrupt	0.0002746064
-4.292909	corrupt,	-2.424678e-05
-4.292909	corruption,	-7.956736e-05
-3.894969	cost	0.008558908
-4.292909	cost?	0.02244437
-4.292909	costs	-0.0001016936
-3.06246	could	0.006064689
-3.894969	couldn't	0.002423896
-4.292909	couldn’t	-2.11652e-06
-3.690849	count	0.02092145
-4.292909	counter	-5.743997e-05
-4.292909	countersinks	0.0146723
-4.292909	counterweight.	0.02244437
-3.815788	countries	0.01049572
-4.292909	countries,	0.0002192478
-3.447811	country	0.01285116
-4.292909	country,	8.949034e-06
-3.991879	country.	0.02232059
-4.292909	country?	0.02244437
-4.292909	counts	0.0007953232
-4.292909	counts?.	0.02244437
-4.292909	couple	-9.063064e-05
-4.292909	courage	0.009540741
-3.991879	course	0.006811738
-3.639697	course,	0.01553732
-4.292909	course;	0.0006512326
-4.292909	courses,	-0.0001016936
-4.292909	court)	-9.063064e-05
-4.292909	court,	0.002172134
-4.292909	court.	0.02244437
-3.991879	courts	0.009349664
-4.292909	courts.	0.02244437
-4.292909	cousin	-0.0001016936
-3.991879	cover	0.01476817
-4.292909	covered	0.005106831
-3.690849	crack	0.003885498
-4.292909	craft.	0.02244437
-3.991879	crap	0.00500477
-4.292909	crap....	0.02244437
-4.292909	crash,	-9.063064e-05
-4.292909	crawl	0.0001417574
-3.991879	crazies	0.003752168
-4.116818	crazy.	0.02238248
-4.292909	created.	0.02244437
-4.116818	creating	0.008298553
-4.292909	creationists	0.004771071
-4.292909	creative	-0.0001016936
-4.292909	credibility	0.0005293473
-4.116818	credibility.	0.02238248
-4.116818	credit	0.003485289
-4.292909	credit,	0.0146723
-4.292909	credit.	0.02244437
-4.292909	credits,	-3.531145e-05
-3.552547	crime	0.02050732
-4.116818	crime),	0.0002791499
-3.894969	crime,	0.001695836
-4.292909	crime-	0.0009616412
-3.991879	crime.	0.02232059
-3.514758	crimes	0.01331782
-4.292909	crimes,	-0.0001016936
-4.292909	crimes.	0.02244437
-3.894969	criminal	0.002107347
-4.116818	criminal,	0.0009376435
-4.292909	criminal.	0.02244437
-4.292909	criminal?	0.02244437
-3.690849	criminals	0.002208384
-4.292909	criminals,	-0.0001016936
-4.292909	criminals?.	0.02244437
-4.292909	crims	0.0009727312
-4.292909	crippling	-0.0001016936
-4.292909	crisis?.	0.02244437
-4.292909	criteria	0.002784216
-4.292909	critical	0.006620972
-4.292909	criticisms	0.006620972
-4.116818	criticize	0.0001950796
-4.292909	criticize.	0.02244437
-4.292909	cross	0.0146723
-4.116818	crossed	0.01461041
-3.894969	crowd	0.01423218
-4.292909	crowd,	0.006620972
-4.292909	crowds	0.004256743
-4.292909	culturally	0.002205498
-3.991879	culture	0.005750444
-4.116818	culture,	0.005958187
-4.292909	culture.	0.02244437
-4.292909	cure,	0.001338864
-4.292909	curing	0.0002192478
-4.116818	curiosity	0.001237245
-4.116818	curious	0.01086718
-4.292909	currency....hehe.	0.02244437
-3.894969	current	0.002201215
-4.292909	currently	-0.0001016936
-3.991879	customers	0.009524737
-4.116818	cut	0.0003058295
-4.292909	cute...	0.02244437
-4.292909	cutlery	0.001372164
-3.894969	dad	0.007419576
-4.292909	daddy	0.004771071
-3.894969	daily	0.004036631
-4.292909	damage	0.002205498
-4.292909	damaged.	0.02244437
-4.116818	damn	0.001215045
-4.116818	damned	0.0001840061
-4.292909	danger	0.001150211
-4.292909	danger.	0.02244437
-3.593939	dangerous	0.01719833
-4.292909	dangerous.	0.02244437
-4.292909	dark.	0.02244437
-3.894969	data	0.007644949
-4.292909	data.	0.02244437
-4.292909	date?	0.02244437
-3.815788	day	0.01309591
-4.292909	day,	0.0002192478
-3.748841	day.	0.02213498
-4.292909	day?	0.02244437
-4.116818	days	0.01087853
-4.292909	days,	0.0005293473
-4.292909	de-escalate	0.0008951061
-4.116818	dead	0.003753159
-3.894969	deadly	0.007588594
-4.292909	deadly,	0.0003188984
-3.991879	deadly.	0.02232059
-4.292909	deaf	0.009540741
-3.894969	deal	0.002019836
-4.292909	deal.	0.02244437
-4.292909	dealer	0.002205498
-4.292909	dealing	0.002205498
-4.292909	dealings	0.002205498
-4.292909	deals	0.002205498
-4.292909	dear	0.006037123
-3.748841	death	0.01154118
-4.292909	death,	0.001372164
-3.748841	death.	0.02213498
-3.417848	deaths	0.02248332
-4.292909	deaths)	0.006037123
-3.991879	deaths,	0.001768831
-4.292909	deaths.	0.02244437
-3.639697	debate	0.01401164
-4.116818	debate.	0.02238248
-4.292909	debates	-7.956736e-05
-4.292909	debates.	0.02244437
-3.991879	debating	0.02225866
-4.292909	decade	-0.0001016936
-4.292909	decades	0.006037123
-4.292909	decades,	0.006037123
-4.292909	decades.	0.02244437
-4.292909	decent	-5.743997e-05
-3.894969	decide	0.00936103
-4.292909	decision	0.009540741
-4.292909	decision.	0.02244437
-4.292909	decisions	0.0003410461
-4.292909	deck	0.009540741
-4.116818	declared	0.0002836772
-4.116818	decrease	0.01908165
-4.292909	dedicated	0.001538703
-4.292909	dedication	0.006620972
-4.292909	deep	-6.850381e-05
-4.292909	deeper	0.000285679
-4.292909	deepest	-0.0001016936
-3.991879	deer	0.002158098
-4.292909	defeat	-5.743997e-05
-4.292909	defeating	0.001361063
-3.815788	defend	0.005519406
-4.292909	defended	0.006037123
-4.292909	defenders	0.0001085515
-3.748841	defense	0.01172455
-4.292909	defense".	0.02244437
-3.894969	defense.	0.02225871
-4.292909	defense:	0.007385653
-4.292909	defensive	0.001294468
-3.991879	define	0.01051644
-4.292909	defined.	0.02244437
-4.292909	definite	-9.063064e-05
-4.116818	definitely	0.004434738
-4.292909	definition	-1.31818e-05
-3.991879	definition,	0.0002041639
-4.292909	definitions	0.006620972
-4.292909	deflect	0.009540741
-3.991879	deflection	0.001702134
-4.292909	defunct?	0.02244437
-4.292909	defy	0.0146723
-4.292909	deliberate,	-3.531145e-05
-4.292909	deliverance	0.004771071
-4.292909	delude	-6.850381e-05
-4.292909	demanding	0.0009061946
-4.116818	demands	0.0001950796
-4.292909	democracy	0.002784216
-4.116818	democracy.	0.02238248
-4.116818	democrats	0.008919515
-4.292909	democrats'	0.002450246
-4.116818	democrats.	0.02238248
-4.292909	demography,	-6.850381e-05
-4.292909	demonize	0.0146723
-4.292909	demonstrate	-6.850381e-05
-4.292909	demonstrates	0.0005293473
-4.292909	demonstration	0.006620972
-3.894969	dems	0.001200562
-4.116818	denial	0.006980546
-4.292909	denied.	0.02244437
-4.116818	dent	0.004546574
-4.292909	depend	0.001972003
-3.991879	depends	0.001848219
-3.991879	depression	0.001341893
-4.292909	depression.	0.02244437
-4.292909	deprived	0.006620972
-4.292909	derailed.	0.02244437
-4.292909	derive	0.001150211
-4.292909	derived	0.006620972
-4.292909	descendants	0.002839902
-3.991879	describe	0.01751452
-4.292909	described	-7.956736e-05
-4.292909	described).	0.02244437
-4.292909	describes	0.001338864
-4.292909	describing,	0.0002413903
-4.292909	description	-4.637586e-05
-4.292909	descriptive.	0.02244437
-4.292909	desert	0.002205498
-3.991879	deserve	0.001013536
-3.639697	designed	0.01981799
-4.292909	designing	-3.531145e-05
-4.116818	desire	0.009478846
-4.292909	desk	0.006037123
-3.991879	despite	0.01452093
-4.292909	destiny.	0.02244437
-4.292909	destroy	-4.637586e-05
-4.292909	detectives	-0.0001016936
-4.116818	detectors	0.005958187
-4.292909	determine	0.007385653
-4.292909	determined	-3.531145e-05
-4.292909	devaluing	-9.063064e-05
-4.292909	developed	-0.0001016936
-4.292909	developing	-0.0001016936
-4.292909	devil	9.748345e-05
-4.292909	devolved	0.000285679
-4.292909	devote	-0.0001016936
-4.292909	devout	-0.0001016936
-4.292909	diagnosed	0.002205498
-4.292909	diagnosis	8.641566e-05
-4.292909	dickhead	0.001972003
-4.116818	dictators	0.0006493335
-4.292909	dictionary.	0.02244437
-3.116818	did	0.03253097
-3.894969	did,	0.01770205
-3.146781	didn't	0.009965254
-4.292909	didn't.	0.02244437
-4.116818	didn’t	0.0007934646
-3.552547	die	0.006001507
-4.292909	die.	0.02244437
-4.292909	died	0.0008174955
-4.292909	died.".	0.02244437
-3.690849	difference	0.02047581
-4.116818	differences	0.00827599
-3.292909	different	0.006684545
-4.292909	differential	-0.0001016936
-4.292909	differently	0.001294468
-4.292909	differently,	-1.31818e-05
-3.991879	difficult	0.00938897
-4.292909	difficult.	0.02244437
-4.292909	dildos	0.006037123
-4.292909	diminishes	0.0006179878
-4.292909	direction,	0.004771071
-4.292909	directives	-1.31818e-05
-4.292909	directly	0.0006512326
-4.292909	directors	0.002784216
-4.292909	disabling	-2.424678e-05
-4.116818	disagree	0.002143602
-3.991879	disagree.	0.02232059
-4.292909	disagreed	0.002205498
-4.292909	disagreement	0.002205498
-4.292909	disappear	8.641566e-05
-4.292909	disarm	0.0146723
-3.991879	disarmed	0.002837372
-4.292909	disavowed	0.0146723
-4.292909	discipline	-0.0001016936
-4.292909	discipline.	0.02244437
-4.292909	disciplining,	0.0146723
-3.991879	discontinue	0.01715014
-4.292909	discount-but	0.0003299721
-4.116818	discover	0.01461041
-4.292909	discrimination.	0.02244437
-4.292909	discrimination.".	0.02244437
-3.894969	discuss	0.01801362
-4.116818	discussing	0.01461041
-3.815788	discussion	0.00771836
-3.894969	discussion.	0.02225871
-4.292909	discussion...	0.02244437
-4.292909	discussions	0.009540741
-4.292909	disease	2.001478e-05
-4.292909	disease.	0.02244437
-4.292909	diseases	0.002839902
-4.292909	disgusting	7.534814e-05
-4.292909	dish	0.0003299721
-4.116818	dishonest	-0.0001591303
-4.292909	dishonestly	9.748345e-05
-4.292909	disingenuous	-9.063064e-05
-4.292909	dismiss	0.001039278
-4.292909	dismissed.	0.02244437
-4.292909	disorder	0.002784216
-4.292909	disorganised	-0.0001016936
-3.894969	disparity	0.004042682
-4.292909	dispatching	4.214733e-05
-4.116818	disproportionate	-0.0001414636
-4.292909	disproportionately	-0.0001016936
-4.292909	disprove	0.005106831
-4.116818	dispute	0.01996154
-4.292909	dispute.	0.02244437
-4.292909	disqualified	0.001150211
-4.292909	disregarding	0.0146723
-4.292909	disrespect	-2.11652e-06
-4.116818	distance	0.002437722
-4.116818	distinction	0.0002504511
-4.292909	distinction,	0.001017095
-4.292909	distinguishes	0.0001196198
-4.292909	distorting	0.002172134
-4.292909	distract	0.001150211
-4.292909	disturbing.	0.02244437
-4.292909	ditch	0.0003742698
-4.292909	diverse	-7.956736e-05
-4.116818	divided	-8.167161e-05
-4.292909	divisive	0.006037123
-2.644549	do	0.07206896
-4.116818	do,	0.0007269365
-3.991879	do.	0.02232059
-4.292909	do?	0.02244437
-4.292909	docs	0.005106831
-4.292909	doctor	-0.0001016936
-4.292909	doctor...	0.02244437
-4.116818	doctors	0.002805197
-4.292909	doctors!"	0.02244437
-4.292909	document.	0.02244437
-4.292909	documentation	0.009540741
-4.292909	documentation.	0.02244437
-3.162575	does	0.01937981
-4.116818	does.	0.02238248
-3.213728	doesn't	0.008686359
-4.116818	doesn't.	0.02238248
-4.292909	doesnt'	-9.063064e-05
-4.292909	doesn’t	0.0001085515
-4.292909	doi:10.2105/AJPH.84.12.1982.	0.02244437
-3.552547	doing	0.01674871
-4.116818	domestic	-0.0001304
-2.616216	don't	0.01958706
-4.292909	don't,	0.0002303189
-3.815788	don't.	0.02219684
-4.292909	don't?	0.02244437
-3.690849	done	0.01414691
-3.991879	done.	0.02232059
-4.292909	done..	0.02244437
-4.292909	donors	0.009540741
-4.292909	dont	-7.956736e-05
-4.292909	don’t	-2.424678e-05
-4.116818	door	0.009439546
-4.292909	door?	0.02244437
-4.292909	doors.	0.02244437
-3.36349	dotted	-0.000863237
-4.292909	doubled	0.004256743
-3.815788	doubt	0.005721841
-4.292909	douchebaggery	0.005106831
-3.389819	down	0.03677614
-3.991879	down.	0.02232059
-4.292909	down?	0.02244437
-4.292909	downhill	0.001372164
-4.292909	dozen?.	0.02244437
-4.116818	dozens	0.006559076
-4.292909	draconian,	-0.0001016936
-4.292909	dramatic.	0.02244437
-4.292909	dramatically	-3.531145e-05
-4.292909	dramatically.	0.02244437
-4.292909	drank	0.006037123
-4.292909	draw	0.0146723
-4.292909	drawer	0.006620972
-4.292909	drawn	-0.0001016936
-4.292909	drawn,	0.006037123
-4.292909	dream	0.0002192478
-4.292909	dried	-0.0001016936
-4.292909	drills	0.0007620673
-4.292909	drills,	-5.743997e-05
-3.894969	drink	0.005851461
-4.292909	drinks	0.006037123
-4.292909	drips	0.002205498
-3.748841	drive	0.02018539
-3.991879	drive,	0.006733018
-3.991879	drives	0.0003814316
-4.292909	drives,	0.0005293473
-4.292909	driving	-0.0001016936
-4.292909	drop	0.0008507556
-4.292909	drop,	0.001338864
-4.292909	dropped	0.0006179878
-4.116818	drove	0.007340629
-3.593939	drug	-0.0002067608
-4.116818	drugs	0.0003058295
-4.292909	drunk	0.0001085515
-4.292909	drunks	-7.956736e-05
-4.292909	dude,	0.0002081768
-4.292909	due	0.009540741
-4.116818	dues	0.009880931
-3.690849	dumb	0.01210193
-4.292909	dumb****s	0.004256743
-4.292909	dumb,	-9.063064e-05
-4.292909	dumb.	0.02244437
-4.292909	dumbasses	0.005106831
-4.292909	dumbest	7.534814e-05
-4.292909	dumped	0.0003299721
-4.292909	dupe.	0.02244437
-4.292909	duper	-0.0001016936
-3.552547	during	0.02333276
-4.292909	duty	0.002784216
-4.292909	dwell	0.001972003
-4.116818	dying	0.005975226
-4.292909	dying...so	0.001538703
-4.116818	dynamic	0.009478846
-4.116818	e.g.,	-0.0001370007
-3.479996	each	0.006570105
-4.292909	each.	0.02244437
-4.292909	eagerly	-0.0001016936
-3.894969	earlier	0.001073749
-4.292909	earlier.	0.02244437
-4.116818	easier	0.01025476
-4.292909	easier..but	-0.0001016936
-4.116818	easily	0.001992714
-3.639697	easy	0.01879482
-4.292909	eat	-0.0001016936
-4.292909	economic	-9.063064e-05
-4.292909	economics,	0.002327854
-4.292909	ed.	0.02244437
-4.292909	editorial	-0.0001016936
-4.292909	educate	-6.850381e-05
-4.292909	educate,	0.0002081768
-4.292909	educated	0.001538703
-4.292909	educated.	0.02244437
-4.116818	education	-0.0001923227
-3.991879	effect	0.002476024
-3.748841	effective	0.007944219
-4.292909	effective,	0.004256743
-4.116818	efficient	0.0007823757
-3.991879	effort	0.009791085
-4.292909	ego	-0.0001016936
-4.292909	egregious	-0.0001016936
-3.815788	either	0.008649754
-3.748841	either.	0.02213498
-4.292909	el	-0.0001016936
-4.292909	elect	0.007385653
-4.292909	electing	-0.0001016936
-4.292909	election	0.009540741
-4.292909	election,	-6.850381e-05
-4.292909	election.	0.02244437
-4.292909	electioneering:	0.00128337
-4.292909	elections	0.000861843
-4.292909	elections.	0.02244437
-4.292909	electoral	-0.0001016936
-4.116818	elementary	-0.0001082721
-4.292909	elevated	0.0146723
-3.748841	else	0.02101038
-3.991879	else,	0.005969048
-4.116818	else.	0.02238248
-4.292909	else?	0.02244437
-4.292909	elsewhere,	0.0146723
-4.292909	em	-0.0001016936
-4.292909	embarrassed	0.009540741
-4.292909	embarrassment	-3.531145e-05
-4.292909	embarrassment.	0.02244437
-4.292909	embedded	0.004256743
-4.292909	embraced.	0.02244437
-4.292909	embryos.	0.02244437
-3.894969	emotional	0.006092248
-4.292909	employed	0.004256743
-4.292909	empty	-9.063064e-05
-4.292909	en	-0.0001016936
-4.292909	enables	0.0146723
-4.292909	enact	0.0001860359
-4.116818	enacted	0.004194846
-4.292909	enacted,	0.0008729301
-4.292909	encircle	0.0005625854
-4.292909	enclosed	0.004256743
-4.292909	encounter	0.000252462
-4.292909	encourage	-6.850381e-05
-4.116818	encouraged	0.003853653
-4.292909	encouraging	0.001361063
-3.593939	end	0.02152695
-4.292909	end.	0.02244437
-4.292909	end?	0.02244437
-4.292909	ended	0.001139117
-4.292909	endorse	0.004771071
-4.292909	ends.	0.02244437
-4.292909	enemies,	0.003910473
-3.894969	enforce	0.009984458
-4.292909	enforced.	0.02244437
-4.116818	enforcement	0.0006936764
-4.292909	enforcement.	0.02244437
-4.292909	engaging	0.004256743
-4.292909	engineering	0.006037123
-4.292909	enlightened	2.001478e-05
-4.292909	enlightening	-0.0001016936
-3.116818	enough	0.03178366
-4.292909	enough).	0.02244437
-4.292909	enough,	2.001478e-05
-4.116818	enough.	0.02238248
-4.292909	enough?.	0.02244437
-4.292909	enshrined	-0.0001016936
-4.292909	ensuing	-0.0001016936
-4.292909	ensure	0.0006623151
-3.991879	enter	0.01454852
-4.116818	entered	0.007295602
-4.292909	entertainment,	-0.0001016936
-4.292909	enthusiastic	-7.956736e-05
-3.991879	entire	-8.374155e-05
-4.116818	entitled	0.009496109
-4.292909	entry	0.000285679
-4.116818	environment	0.005330237
-4.292909	envy?.	0.02244437
-4.292909	epidemic?	0.02244437
-4.116818	episode	0.007791154
-3.991879	equally	-0.0001944237
-4.292909	equate	0.009540741
-4.292909	equated	0.009540741
-4.292909	equiv	0.006620972
-4.116818	equivalent	0.006559076
-4.292909	equivocated	0.001294468
-4.292909	era	0.006620972
-4.292909	erections,	0.001538703
-4.292909	error.	0.02244437
-4.116818	escape	0.02455187
-3.815788	especially	0.01277149
-4.292909	establish	0.0008951061
-3.991879	established	0.02576532
-4.292909	estimate	0.004771071
-4.292909	estimated	0.005106831
-3.894969	et	-0.0003050247
-3.894969	etc	0.003606014
-3.894969	etc.	0.02225871
-4.292909	etc?.	0.02244437
-4.292909	europe,	0.003910473
-4.292909	evangelizing	0.0002192478
-2.940727	even	0.0319836
-4.292909	evenly	-9.063064e-05
-3.991879	event	0.003774505
-4.116818	events	0.01041345
-3.991879	events.	0.02232059
-4.116818	eventually	6.869617e-06
-3.447811	ever	0.004175941
-4.292909	ever-present	-0.0001016936
-3.162575	every	0.002383011
-4.292909	everybody	0.004771071
-4.292909	everybody,	0.001039278
-3.552547	everyone	0.01178607
-4.292909	everyone:	-2.424678e-05
-3.815788	everything	0.003035735
-3.639697	everything,	-0.0001761125
-4.292909	everywhere.	0.02244437
-3.36349	evidence	0.03038506
-3.991879	evidence,	-6.160169e-05
-4.292909	evident	0.004256743
-4.292909	evolved	-0.0001016936
-4.292909	ex	-0.0001016936
-3.991879	exactly	0.004915178
-4.292909	exaggerate,	0.001372164
-4.292909	exaggerate.	0.02244437
-4.116818	examine	0.01457138
-3.815788	example	0.007492844
-4.292909	example).	0.02244437
-4.116818	example,	0.01460572
-4.116818	example.	0.02238248
-4.292909	example:	-0.0001016936
-4.292909	examples	0.009540741
-4.292909	excellent	-0.0001016936
-3.991879	except	0.003071465
-4.116818	except,	0.01461041
-4.292909	exception,	0.002172134
-4.292909	excessive	-9.063064e-05
-4.292909	excessive.	0.02244437
-4.292909	exchange	0.002784216
-4.116818	excuse	0.009478846
-4.292909	excuses	0.004771071
-4.292909	executed.	0.02244437
-4.292909	exempt	0.001150211
-4.292909	exemption	0.006037123
-4.292909	exercise	0.001361063
-4.292909	exerting	0.0001638961
-4.292909	exhaustive	-5.743997e-05
-4.292909	exist	0.004256743
-4.116818	exist,	0.00386482
-4.116818	existence	3.558727e-05
-4.292909	existing	0.001338864
-4.116818	exists	-4.188141e-05
-4.292909	exorbitant	-0.0001016936
-4.292909	expand...	-7.956736e-05
-4.292909	expanding	0.0146723
-4.292909	expect	0.0001749658
-3.991879	expected	0.02870059
-4.292909	expects	0.0002746064
-4.292909	expense	0.006620972
-4.292909	expensive	0.006037123
-4.292909	expensive.	0.02244437
-3.991879	experience	0.007577194
-4.292909	experience,	0.001017095
-4.292909	experience.	0.02244437
-4.292909	expert.	0.02244437
-4.292909	expertise	0.0007953232
-4.116818	experts	0.002782917
-4.292909	experts,	0.0005293473
-4.292909	expired	0.0146723
-3.815788	explain	0.02652052
-4.292909	explained	0.005106831
-4.292909	explained,	0.005106831
-4.292909	explaining	0.001039278
-4.116818	explanation	0.009937552
-4.292909	exploded?	0.02244437
-4.292909	exporting	0.0001638961
-4.292909	exposed	0.009540741
-4.292909	exposition.	0.02244437
-3.815788	express	0.01102946
-4.116818	expressed	0.01481181
-4.292909	expresses	0.0001306885
-4.292909	expressing	0.0008951061
-4.292909	expression	0.006620972
-4.292909	expressions.	0.02244437
-4.292909	expressly	0.006037123
-4.292909	extension	0.006620972
-4.292909	extensively	-0.0001016936
-4.116818	extreme	0.004233505
-3.991879	extremely	-0.0002054904
-4.292909	extremism	0.004771071
-4.292909	extremist.	0.02244437
-4.292909	eyeball	-0.0001016936
-3.894969	face	0.007115507
-4.292909	face,	0.006037123
-4.292909	face.	0.02244437
-4.292909	face?	0.02244437
-4.292909	faces	-6.850381e-05
-4.292909	faces,	0.006037123
-4.292909	facilitating	0.0146723
-4.292909	facing	-6.850381e-05
-3.479996	fact	0.01289803
-3.815788	fact,	0.03068236
-4.292909	fact.	0.02244437
-3.991879	factor	0.007008651
-3.748841	facts	0.01106987
-4.292909	facts,	-9.063064e-05
-4.116818	facts.	0.02238248
-4.292909	factual	-6.850381e-05
-4.116818	fail	0.009439546
-4.292909	failing	0.009540741
-4.292909	fails	0.0146723
-4.292909	fails?.	0.02244437
-4.292909	failure.	0.02244437
-4.292909	fair	-0.0001016936
-4.116818	fairly	-0.0001923227
-4.116818	faith	-0.0001923227
-4.292909	faithfully	-0.0001016936
-4.292909	fall	0.0001417574
-4.292909	fall.	0.02244437
-4.292909	fallacy,	0.006037123
-4.292909	fallacy?	0.02244437
-4.292909	falling	5.321399e-05
-4.292909	falling.	0.02244437
-4.292909	fallout	-0.0001016936
-3.815788	false	-0.0004022452
-3.991879	falsely	-0.0002542099
-4.292909	familiar	-9.063064e-05
-3.894969	family	0.004036631
-4.292909	family.	0.02244437
-4.292909	famous	-0.0001016936
