
\data\
ngram 1=11964
ngram 2=43006

\1-grams:
-4.303461	!	0.02233325
-4.604491	!!!	0.02240585
-4.604491	!.	0.02240585
-4.604491	"	0.02240585
-4.604491	",	-6.180938e-05
-4.604491	"...thus	0.01459686
-4.604491	"1"	0.0001163782
-4.604491	"355	0.0002082004
-4.4284	"A	6.53754e-05
-4.604491	"Ah..I	-5.641084e-05
-4.604491	"Ah..it's	2.997507e-05
-4.604491	"Alright,	-5.641084e-05
-4.4284	"And	0.002475496
-4.604491	"Arms"..like	-6.180938e-05
-4.604491	"Assault-style"	-2.421645e-06
-4.604491	"Baby	0.002054157
-4.604491	"Brady	-6.180938e-05
-4.604491	"Christian"	0.0009056016
-4.604491	"Consistently	-6.180938e-05
-4.604491	"Coward	0.002054157
-4.604491	"Democrat	-1.86191e-05
-4.604491	"Fire!"	0.02240585
-4.604491	"Fun	0.004616824
-4.604491	"Gangs"	0.004824238
-4.604491	"George	-6.180938e-05
-4.604491	"Guns	0.001127491
-4.604491	"HAM"	-6.180938e-05
-4.604491	"Home	-6.180938e-05
-4.4284	"How	0.01573764
-4.060422	"I	0.002312022
-4.604491	"I'm	0.0010896
-4.604491	"If	0.003760919
-4.4284	"In	0.008854731
-4.604491	"Laboratory	-5.641084e-05
-4.604491	"Less	-6.180938e-05
-4.604491	"Liberal",	0.004917061
-4.604491	"Local	-5.101221e-05
-4.604491	"MAGA"	0.0004621628
-4.604491	"More	-6.180938e-05
-4.604491	"Mr.	0.006503577
-4.604491	"NO..NO...you	0.0003000419
-4.4284	"NRA"	0.0008043813
-4.604491	"Nobody	-6.180938e-05
-4.604491	"Officials	1.377641e-05
-4.604491	"Oh	-6.180938e-05
-4.4284	"Queen	0.007213301
-4.604491	"RUN"	0.006503577
-4.604491	"Red	-6.180938e-05
-4.604491	"Revolution"	0.001425326
-4.604491	"Right	0.01036268
-4.604491	"Shortly	0.0001055769
-4.4284	"That	0.0002760655
-4.604491	"That's	0.0003594792
-4.00243	"The	-4.994126e-07
-4.303461	"There	0.00789569
-4.604491	"They	-6.180938e-05
-4.4284	"This	0.00491545
-4.604491	"Those	0.001116665
-4.604491	"To	0.002624144
-4.604491	"Watch	0.0005270278
-4.206551	"We	0.005569871
-4.604491	"We're	4.077456e-05
-4.604491	"Well-Regulated"	0.004616824
-4.4284	"What	-0.0001128211
-4.4284	"When	0.004953683
-4.604491	"Work	-6.180938e-05
-4.604491	"Yes	0.001316999
-4.604491	"You	0.0003000419
-4.4284	"[The	-3.872023e-05
-4.4284	"a	-0.0001182198
-4.604491	"abnormal"	0.001593286
-4.4284	"accidents"	0.004293267
-4.604491	"aficionados".	0.02240585
-4.604491	"anti	-5.641084e-05
-4.604491	"any	6.777432e-05
-4.604491	"approach	-6.180938e-05
-4.604491	"arms"	0.005272156
-4.604491	"assault	-6.180938e-05
-4.4284	"assault"	-4.263118e-05
-4.604491	"bad	-6.180938e-05
-4.604491	"big	-6.180938e-05
-4.604491	"big"	0.004824238
-4.604491	"blah	-4.561353e-05
-4.604491	"brainless"	0.01036268
-4.604491	"buckle	-6.180938e-05
-4.604491	"can't	-6.180938e-05
-4.604491	"cease	0.01036268
-4.604491	"civilised"	-6.180938e-05
-4.604491	"compassion	-6.180938e-05
-4.604491	"constitutional	-5.101221e-05
-4.604491	"cooling	-6.180938e-05
-4.604491	"could"	-4.021478e-05
-4.604491	"crazy".	0.02240585
-4.604491	"created"	0.001246601
-4.604491	"crime	-6.180938e-05
-4.604491	"damned	0.001322414
-4.604491	"dems	0.006503577
-4.604491	"denial	-6.180938e-05
-4.604491	"dismissing"	0.01459686
-4.604491	"disorder"	0.01036268
-4.604491	"disreputable"	0.001246601
-4.604491	"do	0.01459686
-4.604491	"don't	8.376988e-06
-4.604491	"due	-6.180938e-05
-4.604491	"enumerated	-6.180938e-05
-4.604491	"even	2.45755e-05
-4.604491	"every	2.45755e-05
-4.604491	"evidence"	0.003760919
-4.604491	"executive	-6.180938e-05
-4.604491	"flies	0.004616824
-4.604491	"freedom"	0.004824238
-4.604491	"good	-6.180938e-05
-4.206551	"gun	-0.0002364379
-4.604491	"gun-grabbing	-6.180938e-05
-4.604491	"guns	0.001127491
-4.604491	"guns."	0.02240585
-4.604491	"handguns."	0.02240585
-4.604491	"hero	0.002054157
-4.604491	"high	-5.641084e-05
-4.604491	"high"	0.001593286
-4.604491	"home	-6.180938e-05
-4.4284	"honest	-0.0001182198
-4.604491	"how	0.004917061
-4.604491	"if	0.0002730277
-4.604491	"in	2.997507e-05
-4.604491	"is	0.002493795
-4.604491	"it's	0.0008731399
-4.604491	"just	0.0008298608
-4.604491	"laugh	4.077456e-05
-4.604491	"law	-1.86191e-05
-4.604491	"left":	-3.481594e-05
-4.604491	"lefty"	-5.101221e-05
-4.604491	"legally	-5.641084e-05
-4.604491	"liar"	0.004616824
-4.604491	"liberteh".	0.02240585
-4.604491	"loving	-5.101221e-05
-4.604491	"martial	-6.180938e-05
-4.604491	"mass	-6.180938e-05
-4.604491	"me"	0.001593286
-4.604491	"militia"	-6.180938e-05
-4.604491	"minor"	-5.641084e-05
-4.4284	"more	0.0005895886
-4.604491	"my"	0.001316999
-4.4284	"natural	-8.73108e-05
-4.604491	"nature"	-6.180938e-05
-4.604491	"nature".	0.02240585
-4.604491	"new	-6.180938e-05
-4.604491	"next	-6.180938e-05
-4.4284	"no	-0.0001236185
-4.4284	"normal"	0.005992732
-4.4284	"not	0.01484823
-4.604491	"nurture"	0.01036268
-4.604491	"oh,	0.001349494
-4.604491	"opinion"	0.0002244062
-4.604491	"or	0.000267625
-4.604491	"other"	7.857475e-05
-4.604491	"parenting"	0.004616824
-4.604491	"payback"	0.002651305
-4.604491	"personal"	0.0001595862
-4.604491	"plain	-6.180938e-05
-4.604491	"please	0.0001811919
-4.604491	"pre	-6.180938e-05
-4.604491	"pro-gun"	-7.820872e-06
-4.604491	"prove	-6.180938e-05
-4.604491	"put	0.0011708
-4.604491	"rant"	0.000629751
-4.604491	"real"	0.001181628
-4.604491	"reduce	-2.401813e-05
-4.604491	"reinterpretations"	0.007249599
-4.604491	"revolution"	8.937543e-05
-4.604491	"rifle"	0.0007000495
-4.206551	"right"	0.01963397
-4.4284	"rights"	0.00546196
-4.604491	"says	0.002493795
-4.604491	"screenings"..	0.0002352106
-4.604491	"scum"	0.0001271798
-4.604491	"serious"	0.01036268
-4.604491	"set	0.008811613
-4.604491	"shall-issue"	2.97767e-06
-4.604491	"shooting	-5.101221e-05
-4.604491	"smoking	-6.180938e-05
-4.604491	"some",	0.006503577
-4.604491	"style"	0.002624144
-4.604491	"taking	0.01459686
-4.604491	"tear	9.477579e-05
-4.604491	"that's	0.0008893706
-4.604491	"then	0.0003594792
-4.4284	"this	0.005090259
-4.604491	"thugs"	0.003048047
-4.604491	"true	-6.180938e-05
-4.604491	"truly	-6.180938e-05
-4.604491	"understand	0.01459686
-4.604491	"urge".	0.02240585
-4.604491	"use	0.0007216819
-4.604491	"very	-6.180938e-05
-4.604491	"violent	-3.481594e-05
-4.604491	"well	-2.421645e-06
-4.604491	"well-regulated".	0.02240585
-4.604491	"win"	0.002651305
-4.604491	"win".	0.02240585
-4.4284	"you	0.00253896
-4.604491	"you're	-2.421645e-06
-4.303461	#000000;	-0.0001236064
-4.303461	#000;	-0.0001236064
-4.604491	#1,	7.317452e-05
-4.604491	#10	0.0003540755
-4.604491	#138...	0.0006621951
-4.604491	#28.	0.02240585
-4.604491	#30.	0.02240585
-4.604491	#50:	-3.481594e-05
-4.303461	#FFFFFF;	-0.0001236064
-4.604491	$135.	0.02240585
-4.604491	$2,000	-6.180938e-05
-4.604491	$20	0.006503577
-4.604491	$5,	0.004917061
-4.604491	%.	0.02240585
-4.303461	&	0.009228779
-4.604491	''good,	-6.180938e-05
-4.604491	''semi-insane"	0.001593286
-4.604491	'60's,	0.000629751
-4.604491	'Dowlut	0.001316999
-4.604491	'Dowlut's	-6.180938e-05
-4.604491	'General	-6.180938e-05
-4.604491	'Good	1.917592e-05
-4.604491	'Happy	-6.180938e-05
-4.604491	'The	-5.641084e-05
-4.604491	'Yep,	0.0004621628
-4.604491	'a	-5.101221e-05
-4.604491	'assault	-5.641084e-05
-4.604491	'assaulting'	0.0011708
-4.604491	'assualt	-5.641084e-05
-4.604491	'bad-guys'	0.002227788
-4.604491	'commission'	0.0004621628
-4.604491	'common	-6.180938e-05
-4.604491	'common'	-3.481594e-05
-4.604491	'control',	0.004917061
-4.604491	'crippled'	0.0001271798
-4.604491	'doing	0.008811613
-4.303461	'em	0.01205165
-4.604491	'em"	0.006503577
-4.4284	'em.	0.02236955
-4.604491	'fighters'	-7.820872e-06
-4.604491	'good-guys'	-5.101221e-05
-4.604491	'gun	-6.180938e-05
-4.604491	'gun'	-2.941705e-05
-4.604491	'gun'?	0.02240585
-4.604491	'guns	0.003048047
-4.604491	'guns'.	0.02240585
-4.604491	'hate	0.002651305
-4.604491	'item	-6.180938e-05
-4.604491	'logic'	-6.180938e-05
-4.303461	'lucida	-0.0001236064
-4.604491	'new'	-5.101221e-05
-4.604491	'nitpicked'	0.001100426
-4.604491	'process'???	0.02240585
-4.604491	'red	-6.180938e-05
-4.4284	'responsible'	0.002511804
-4.604491	'rogue'	-6.180938e-05
-4.604491	's	-5.641084e-05
-4.604491	'show'	-4.561353e-05
-4.604491	'so	-6.180938e-05
-4.604491	'suspect'	-5.641084e-05
-4.604491	'thoughts	0.006503577
-4.604491	'tyranny'	0.001316999
-4.604491	'wrong'	-2.401813e-05
-4.604491	'”=	1.377641e-05
-4.206551	(	0.0144628
-4.604491	(*cough*	-4.021478e-05
-4.604491	(0.2%)	0.005272156
-4.604491	(1)	0.001246601
-4.604491	(12	-6.180938e-05
-4.604491	(12):	-6.180938e-05
-4.604491	(1994).	0.02240585
-4.604491	(258,460	3.537477e-05
-4.604491	(80	-6.180938e-05
-4.604491	(=	0.000624344
-4.604491	(And	0.004917061
-4.604491	(And,	0.000624344
-4.604491	(CDC).	0.02240585
-4.604491	(CSP)	0.004824238
-4.604491	(Cant	0.0007919948
-4.604491	(French/English...	0.02240585
-4.4284	(I	0.001109022
-4.604491	(IMHO)	0.002651305
-4.4284	(In	-0.0001236185
-4.604491	(Lautenberg)	-5.101221e-05
-4.604491	(MRI	-6.180938e-05
-4.604491	(Meals	-6.180938e-05
-4.604491	(My	0.0004027115
-4.604491	(Not	0.01459686
-4.604491	(Oh,	0.004917061
-4.604491	(Proposition	-6.180938e-05
-4.604491	(Schools	-6.180938e-05
-4.604491	(So	-3.481594e-05
-4.604491	(Which	0.0008352704
-4.4284	(a)	0.001759187
-4.604491	(aka	-4.561353e-05
-4.604491	(allowing	0.002651305
-3.951278	(and	0.01233621
-4.604491	(another	-5.101221e-05
-4.060422	(as	0.003555858
-4.4284	(at	4.767646e-05
-4.4284	(b)	0.001417729
-4.604491	(c)	0.0014795
-4.604491	(changing	-4.021478e-05
-4.604491	(collapsible)	-6.180938e-05
-4.604491	(compare	-3.481594e-05
-4.604491	(corrupt)	-4.021478e-05
-4.604491	(current	-6.180938e-05
-4.604491	(d)	0.0014795
-4.604491	(duh)	0.0004459478
-4.604491	(e)	-6.180938e-05
-4.604491	(e.g.	0.02240585
-4.604491	(especially	0.002227788
-4.604491	(ex:	4.077456e-05
-4.604491	(f)	-5.641084e-05
-4.604491	(former	-6.180938e-05
-4.604491	(funded	0.001246601
-4.604491	(genetics	0.004616824
-4.604491	(gun	-6.180938e-05
-4.604491	(hi-cap	-4.561353e-05
-4.604491	(high	2.97767e-06
-4.604491	(however	0.003760919
-4.604491	(i'm	-6.180938e-05
-4.604491	(i.e.	0.02240585
-4.303461	(if	0.004706325
-4.604491	(imo,	-4.021478e-05
-4.4284	(in	4.377195e-05
-4.604491	(insert	-6.180938e-05
-4.604491	(is	0.002493795
-4.604491	(it's	0.01459686
-4.604491	(last	-5.641084e-05
-4.4284	(like	0.009549726
-4.604491	(literally)	0.006503577
-4.604491	(many	-6.180938e-05
-4.604491	(mixed	-5.101221e-05
-4.604491	(much	0.0008298608
-4.604491	(namely	0.01459686
-4.604491	(nationalism)	0.0008677297
-4.604491	(neither	0.002651305
-4.4284	(not	0.00527607
-4.604491	(obviously	2.97767e-06
-4.604491	(often	-6.180938e-05
-4.604491	(on	-6.180938e-05
-4.604491	(one	0.001593286
-4.060422	(or	0.0006453832
-4.4284	(perhaps	0.0003301052
-4.604491	(pretty	-4.021478e-05
-4.604491	(protip:	-6.180938e-05
-4.604491	(qz.com	0.006503577
-4.604491	(reported	-6.180938e-05
-4.604491	(say	4.077456e-05
-4.604491	(see:	-4.021478e-05
-4.604491	(since	0.003760919
-4.4284	(so	0.01508299
-4.604491	(stricter	0.0001379817
-4.604491	(stroke)	0.005272156
-4.604491	(such	0.001425326
-4.604491	(telling	0.0001271798
-4.4284	(that	0.00510665
-4.4284	(the	-0.0001074223
-4.604491	(the)	-6.180938e-05
-4.604491	(traditionally	-2.941705e-05
-4.604491	(unrealistic,	0.001316999
-4.4284	(usually	-0.0001020234
-4.604491	(what	0.004824238
-4.604491	(where	0.004917061
-4.00243	(which	0.01531302
-4.604491	(which,	-5.101221e-05
-4.604491	(wording	0.005272156
-4.604491	(you	-6.180938e-05
-4.206551	)	0.01787178
-4.604491	*	0.000624344
-4.604491	**	-5.641084e-05
-4.604491	**)	-7.820872e-06
-4.604491	***	0.0001649875
-3.864128	****	0.02070085
-4.604491	****,	0.01459686
-4.604491	****.	0.02240585
-4.00243	****ing	0.002536294
-4.604491	***MAY***	0.002575258
-4.604491	*California	-6.180938e-05
-4.604491	*Edit:	1.917592e-05
-4.604491	*cough*).	0.02240585
-4.604491	*ex-Marxist	-6.180938e-05
-4.604491	*insert	-6.180938e-05
-4.604491	+	0.002227788
-4.127369	,	0.001655248
-4.604491	,are	-1.86191e-05
-4.604491	,cpgrad08,in	-6.180938e-05
-3.252308	-	0.04245773
-4.00243	--	0.01658578
-4.604491	-.	0.02240585
-4.604491	-Decant	0.0001595862
-3.428399	.	0.02139063
-4.060422	..	0.02508184
-3.675072	...	0.02893215
-4.604491	....	0.0006946415
-4.604491	......is	-5.101221e-05
-4.604491	...he	-1.86191e-05
-4.604491	...no	0.0008731399
-4.206551	.22	0.005612149
-4.604491	.223/	-6.180938e-05
-4.604491	.22lr	0.0001001764
-4.604491	.357	0.001316999
-4.604491	.357.	0.02240585
-4.4284	.44	-0.0001236185
-4.604491	.45.	0.02240585
-4.604491	.454	-6.180938e-05
-4.604491	.Or	0.01459686
-4.303461	.code{font-family:	-0.0001236064
-4.604491	/	-7.820872e-06
-4.303461	/*overflow:	-0.0001074101
-4.4284	0	0.000146398
-4.604491	0.83%	0.007249599
-4.604491	06	-5.101221e-05
-4.604491	08.05.2016	-6.180938e-05
-4.060422	0px	-0.0002093932
-3.701401	1	0.03246458
-4.4284	1%	0.007215426
-4.4284	1)	0.0001680065
-4.4284	1,	-7.651337e-05
-4.604491	1,000	1.917592e-05
-4.604491	1,731	0.002548103
-4.604491	1-	-3.481594e-05
-4.604491	1-6	-5.101221e-05
-4.060422	1.	0.02223356
-4.604491	1.b.	0.02240585
-3.826339	10	0.001111719
-4.604491	10's	0.007249599
-4.604491	10-12	0.006503577
-4.4284	100	-6.422926e-05
-4.00243	100%	0.002231964
-4.060422	100,000	0.001255737
-4.604491	100,000,	-6.180938e-05
-4.604491	1000	-3.481594e-05
-4.604491	1000's	0.007249599
-4.604491	102	-2.941705e-05
-4.604491	105mm,	-6.180938e-05
-4.4284	11	0.004609706
-4.4284	11,000	0.002991753
-4.604491	11.	0.02240585
-4.604491	116	-5.101221e-05
-4.604491	117,000	-4.561353e-05
-4.604491	12	-6.180938e-05
-4.604491	12-gauge	-6.180938e-05
-4.604491	13	0.002548103
-4.604491	1300	7.317452e-05
-4.604491	133%	0.006503577
-4.604491	14	0.006503577
-4.604491	140	-5.641084e-05
-4.604491	14th	-6.180938e-05
-4.060422	15	0.01183383
-4.604491	150	-6.180938e-05
-4.604491	1500	-6.180938e-05
-4.604491	15:	-5.641084e-05
-4.4284	16	5.457356e-05
-4.604491	16,	-6.180938e-05
-4.604491	16-year-old	-6.180938e-05
-4.604491	1611	-5.641084e-05
-4.604491	1615397.	0.02240585
-4.604491	16:	-5.641084e-05
-4.604491	17	-5.641084e-05
-4.604491	1707,	0.01459686
-4.604491	172	0.002548103
-4.604491	174,	0.0003540755
-4.604491	1776.	0.02240585
-4.604491	1790.	0.02240585
-4.604491	1792	0.01459686
-4.604491	17s.	0.02240585
-4.604491	17th	-5.641084e-05
-3.951278	18	0.004874818
-4.4284	18.	0.02234461
-4.604491	1800+	-5.641084e-05
-4.604491	1800s.	0.02240585
-4.604491	1876,	-5.641084e-05
-4.604491	1882	-5.641084e-05
-4.604491	1883	0.01459686
-4.604491	18th	-5.641084e-05
-4.604491	19	-6.180938e-05
-4.604491	1911	-6.180938e-05
-4.604491	1934	0.0005432456
-4.604491	1935,	0.002054157
-4.604491	1939	-4.561353e-05
-4.604491	1955	0.006503577
-4.604491	1962,	2.97767e-06
-4.604491	1964	-6.180938e-05
-4.604491	1968	0.0009651222
-4.604491	1975,	0.01459686
-4.604491	1981,	0.01459686
-4.4284	1982	0.02132813
-4.604491	1982–1984.	0.02240585
-4.604491	1983,	0.006503577
-4.604491	1984.	0.02240585
-4.604491	1986	-2.401813e-05
-4.303461	1987	0.01713457
-4.604491	1987–1990.	0.02240585
-4.604491	1990".	0.02240585
-4.604491	1990's,	-4.561353e-05
-4.4284	1990,	0.0006328512
-4.604491	1994	-4.561353e-05
-4.604491	1995	0.006503577
-4.604491	1996	8.376988e-06
-4.4284	1996,	0.02371694
-4.4284	1999	-0.0001074223
-4.604491	1999,)	-2.941705e-05
-4.604491	1999.	0.02240585
-4.604491	19th	-5.641084e-05
-4.4284	1:	0.0001085855
-4.303461	1px	-0.0001236064
-4.604491	1st	0.0001055769
-4.604491	1st.	0.02240585
-3.604491	2	0.01427656
-4.4284	2%	0.007213301
-4.4284	2)	0.007187973
-4.604491	2,000	2.997507e-05
-4.604491	2,000,	0.001593286
-4.604491	2,628,532	-6.180938e-05
-4.604491	2-	-6.180938e-05
-4.206551	2.	0.02377917
-4.604491	2.1	2.97767e-06
-4.00243	20	0.0001508584
-4.604491	20%	0.007249599
-4.604491	20's	0.006503577
-4.604491	20+	-6.180938e-05
-4.604491	20,000	0.0003000419
-4.604491	20-30	3.537477e-05
-4.604491	20.	0.02240585
-4.303461	200	-1.803278e-05
-4.604491	200,000	0.001360326
-4.604491	2001	-2.941705e-05
-4.604491	2005.	0.02240585
-4.604491	2006.	0.02240585
-4.604491	2007.	0.02240585
-4.604491	2008	0.002054157
-4.604491	2008,	-4.021478e-05
-4.604491	2009.	0.02240585
-4.303461	200px;*/}	-0.0001236064
-4.303461	2010	0.01999251
-4.604491	2010,	-4.021478e-05
-4.604491	2010.	0.02240585
-4.604491	2011	0.005272156
-4.604491	2011:	-6.180938e-05
-4.604491	2012,	-3.481594e-05
-4.604491	2012.	0.02240585
-4.4284	2013	-0.0001020234
-4.303461	2014	0.0002034592
-4.604491	2015.	0.02240585
-4.604491	2016,	0.005272156
-4.604491	2017,	0.001316999
-4.604491	2020	-5.641084e-05
-4.4284	2020.	0.02236955
-4.604491	2041.	0.02240585
-4.604491	20th	8.937543e-05
-4.4284	21	0.001363554
-4.604491	21,	0.006503577
-4.604491	21-years	6.777432e-05
-4.604491	22	1.377641e-05
-4.604491	22-28.	0.02240585
-4.604491	24	-5.641084e-05
-4.604491	25%.	0.02240585
-4.604491	25.	0.02240585
-4.604491	250	-5.101221e-05
-4.604491	250k,	0.002493795
-4.604491	252,	-6.180938e-05
-4.206551	26	0.004999689
-4.604491	264-265,	-6.180938e-05
-4.604491	28%	0.007249599
-4.604491	28-30.	0.02240585
-4.604491	29,999.	0.02240585
-4.4284	2:	0.001558616
-4.127369	2A	0.0004621653
-4.604491	2A).	0.02240585
-4.604491	2a.	0.02240585
-3.374042	2nd	0.01032836
-4.604491	2nd.	0.02240585
-4.303461	2px;	-0.0001236064
-3.583301	3	0.02616553
-4.604491	3)	-2.401813e-05
-4.604491	3-D	-6.180938e-05
-4.303461	3.	0.02234243
-4.604491	3.5	7.317452e-05
-4.604491	3/4ths	0.007249599
-3.951278	30	0.001446638
-4.604491	30%	0.007249599
-4.604491	30%,	0.006503577
-4.604491	30,	-5.101221e-05
-4.604491	30,000+	4.077456e-05
-4.604491	30-30	-6.180938e-05
-4.604491	30-32.	0.02240585
-4.4284	30-caliber	-3.723153e-05
-4.604491	30-round	-4.561353e-05
-4.303461	300	-8.432638e-05
-4.604491	300+	-5.641084e-05
-4.604491	300,000,000	0.006503577
-4.604491	307	-5.101221e-05
-4.604491	31	-6.180938e-05
-4.604491	31,706	0.002548103
-4.604491	314	2.97767e-06
-4.604491	319,000.	0.02240585
-4.604491	32	0.001593286
-4.604491	32-47.	0.02240585
-4.604491	34-2.	0.02240585
-4.604491	34-21][17]	-5.641084e-05
-4.604491	34-year	-6.180938e-05
-4.4284	35	0.001324028
-4.604491	35,	0.001593286
-4.604491	370,	-6.180938e-05
-4.604491	375,	0.01459686
-4.4284	3:	1.676911e-05
-4.303461	3D	0.001094383
-4.303461	3d	-0.0001746297
-4.604491	3rd	-6.180938e-05
-3.905521	4	0.01234408
-4.604491	4)	0.0004729728
-4.604491	4,400	5.697426e-05
-4.604491	4.	-2.941705e-05
-4.604491	4.5	-5.101221e-05
-4.303461	40	-5.043679e-05
-4.604491	40%	-6.180938e-05
-4.604491	400-yard	5.157429e-05
-4.604491	46	-5.101221e-05
-4.604491	46,319	0.002548103
-4.604491	47	0.0002244062
-4.604491	47-54.	0.02240585
-4.604491	478	-6.180938e-05
-4.604491	48	0.001360326
-4.303461	5	0.001529368
-4.604491	5%	0.007249599
-4.604491	5,	-5.641084e-05
-4.604491	5-10	-5.101221e-05
-4.604491	5-string	-5.101221e-05
-4.4284	5.2	-5.882986e-05
-4.604491	5.56	-6.180938e-05
-3.791577	50	0.001407894
-4.604491	50%	0.0001001764
-4.604491	50's	0.006503577
-4.604491	50+	-5.101221e-05
-4.604491	50/50.	0.02240585
-4.604491	500	-5.641084e-05
-4.604491	500%.	0.02240585
-4.604491	505	0.002651305
-4.604491	54	0.006503577
-4.604491	54-56.	0.02240585
-4.604491	542,	-6.180938e-05
-4.604491	55,	0.01459686
-4.604491	5525.5,	0.0005054052
-4.604491	553,	-1.86191e-05
-4.604491	56-64.	0.02240585
-4.604491	58	7.317452e-05
-4.604491	58,000	5.697426e-05
-4.604491	59	-3.481594e-05
-4.604491	5th	-5.101221e-05
-4.604491	6	0.001593286
-4.604491	6%	0.007249599
-4.604491	6,	-6.180938e-05
-4.604491	6,371	1.377641e-05
-4.604491	60	-4.021478e-05
-4.604491	60's.	0.02240585
-4.604491	6000	0.006503577
-4.604491	62	-2.941705e-05
-4.604491	62.	0.02240585
-4.604491	64,615	3.537477e-05
-4.604491	65	0.0001163782
-4.604491	67	-5.641084e-05
-4.604491	67242503	2.97767e-06
-4.604491	68	-6.180938e-05
-4.303461	7	0.001930644
-4.4284	70	0.006469337
-4.604491	700	-6.180938e-05
-4.604491	7000	0.004616824
-4.604491	71%	0.007249599
-4.604491	747	-6.180938e-05
-4.604491	75	-3.481594e-05
-4.604491	75,000	0.001360326
-4.604491	7500	0.0002190042
-4.604491	78-16	0.004824238
-4.604491	7998641.	0.02240585
-4.206551	8	0.00476286
-4.604491	8,	0.007249599
-4.604491	80%	-6.180938e-05
-4.604491	800	-5.101221e-05
-4.4284	8000	-9.270943e-05
-4.604491	83	-3.481594e-05
-4.604491	84	-6.180938e-05
-4.604491	853	-6.180938e-05
-4.4284	870	0.004959146
-4.604491	88-8	0.002054157
-4.604491	8?.	0.02240585
-4.604491	9	8.937543e-05
-4.604491	9-11	0.0005054052
-4.604491	90	0.001181628
-4.604491	90%	0.007249599
-4.604491	90's,	0.0009001915
-4.604491	92	-5.101221e-05
-4.604491	930	-7.820872e-06
-4.604491	95%	0.007249599
-4.604491	970's	-3.481594e-05
-4.604491	99.9	-6.180938e-05
-4.604491	99.9%	0.004824238
-4.206551	9mm	0.001142507
-3.905521	:	0.02375134
-4.604491	:-)	-6.180938e-05
-4.604491	:P.	-2.401813e-05
-1.297209	</s>
-4.604491	<from	-6.180938e-05
-99	<s>	-0.01146286
-4.903587	<unk>
-4.604491	=	9.477579e-05
-4.604491	===========	-2.941705e-05
-4.604491	===========================================	0.0014795
-4.604491	=============================================	-6.180938e-05
-4.604491	==================================================	-6.180938e-05
-4.127369	>	-0.0001176182
-4.604491	>>Calling	0.0008731399
-4.604491	>>Citation	-6.180938e-05
-4.604491	>>I	-6.180938e-05
-4.604491	>>It's	0.0002352106
-4.604491	>>Perhaps	5.157429e-05
-4.604491	>>See	0.0009056016
-4.4284	>>The	-6.422931e-05
-4.604491	>>Was	0.0004621628
-4.604491	>>What	0.0008406799
-4.303461	>>You	0.00567381
-4.604491	>>its	0.0009272448
-4.604491	>>people	0.0008298608
-4.604491	>>so	0.0011708
-4.206551	?	0.02229696
-4.303461	?.	0.02233325
-4.604491	?You	0.0001001764
-3.189517	A	0.00352317
-4.604491	A-okay	0.004616824
-4.604491	A.	0.02240585
-4.604491	ABOUT	-6.180938e-05
-4.604491	ACA.	0.02240585
-4.4284	ADL,	-6.571564e-05
-4.604491	AK	0.002227788
-4.604491	AK's	0.004616824
-4.00243	AK-47	0.007682275
-4.303461	AK-47?	0.02233325
-4.4284	AK.	0.02236955
-4.604491	AK47's.	0.02240585
-4.604491	AK?	0.02240585
-4.604491	AKs...	-3.481594e-05
-4.604491	ALASKA	-5.101221e-05
-3.951278	ALL	0.003416094
-4.604491	ALOT	0.007249599
-4.604491	AM	-6.180938e-05
-4.4284	AN	-0.0001236185
-4.303461	AND	-0.0001800286
-4.604491	ANSWER	-5.101221e-05
-4.4284	ANY	-0.0001236185
-4.604491	ANYONE	0.0001433828
-4.060422	AR	0.008283314
-4.4284	AR's	0.000449016
-4.604491	AR,	0.0009056016
-3.864128	AR-15	0.01031791
-4.4284	AR-15's	0.008766557
-4.604491	AR-15's.	0.02240585
-4.604491	AR-15,	0.002624144
-4.206551	AR-15.	0.02229696
-4.206551	AR-15s	0.01508317
-4.4284	AR-15s,	0.004880762
-4.206551	ARE	0.008709518
-4.604491	ARTICLE	-6.180938e-05
-4.604491	ASAP!	0.02240585
-4.604491	ASPD	-5.641084e-05
-4.127369	ATF	-4.050599e-05
-4.604491	ATF's	-5.641084e-05
-4.206551	AWB	0.0005579491
-4.604491	AWB,	0.003760919
-4.206551	AWB.	0.02229696
-4.604491	AZ	0.002575258
-4.604491	Abbott	0.004616824
-4.604491	Aboriginal,	-4.021478e-05
-4.604491	About	-3.481594e-05
-4.4284	Absolutely.	0.02236955
-4.604491	Academy	0.0003810947
-4.604491	Accidental	-6.180938e-05
-4.4284	According	0.01032638
-4.303461	Act	0.007170273
-4.604491	Act.	0.02240585
-4.604491	Active	-6.180938e-05
-4.303461	Actually	0.004051625
-3.951278	Actually,	0.0314056
-4.604491	Actualy,	-2.941705e-05
-4.4284	Adam	-6.031672e-05
-4.604491	Added	0.01036268
-4.604491	Additionally,	0.000629751
-4.604491	Aerosmith.	0.02240585
-4.604491	Africa	8.937543e-05
-4.4284	African	2.216953e-05
-4.604491	Africans	-4.021478e-05
-4.206551	After	0.008738054
-4.206551	Again	0.003526762
-3.905521	Again,	0.0215362
-4.4284	Against	-9.12254e-05
-4.604491	Agreed.	0.02240585
-4.604491	Agreement	0.002054157
-4.604491	Ah	0.001349494
-4.604491	Ah,	-5.641084e-05
-4.604491	Ahahaha.	0.02240585
-4.604491	Air	-6.180938e-05
-4.604491	Ak-47	0.001593286
-4.604491	Ak-47's	0.006503577
-4.4284	Al	-9.270943e-05
-4.604491	Alabama	0.004824238
-4.206551	Alaska	0.00363025
-4.4284	Alaska,	0.006441932
-4.4284	Alex	-9.662441e-05
-4.604491	Alexander	0.01459686
-4.604491	Alito,	-5.101221e-05
-3.675072	All	0.04243099
-4.604491	Allow	5.157429e-05
-4.604491	Allso,	-4.561353e-05
-4.604491	Almost	0.001425326
-4.303461	Already	-9.903823e-05
-4.303461	Also	0.002435477
-4.060422	Also,	0.01262308
-4.303461	Although	0.004830002
-4.604491	Always	9.477579e-05
-4.604491	Always.	0.02240585
-4.604491	Am	0.004917061
-4.604491	Amazing.	0.02240585
-3.604491	Amendment	0.02623998
-4.4284	Amendment's	-0.0001182198
-4.060422	Amendment.	0.02222438
-4.604491	Amendment;	0.001116665
-4.604491	AmeriKa.	0.02240585
-3.604491	America	0.01711083
-4.604491	America"	-5.101221e-05
-4.303461	America's	0.002554986
-4.127369	America,	0.01160113
-4.303461	America.	0.02233325
-4.604491	America?	0.02240585
-4.604491	America?.	0.02240585
-3.525309	American	0.001889889
-4.604491	American-style	0.002548103
-4.604491	Americana/Country	-5.101221e-05
-3.543793	Americans	0.01295522
-4.206551	Americans,	0.001191256
-4.604491	Americans-	0.0009272448
-4.604491	Americans.	0.02240585
-4.604491	Americans?	0.02240585
-4.604491	America…	-6.180938e-05
-4.604491	Amerndment	6.777432e-05
-4.604491	Among	7.857475e-05
-4.4284	An	-9.662443e-05
-2.848616	And	0.06433137
-4.060422	And,	0.01056404
-4.604491	Andreas	-6.180938e-05
-4.206551	Angeles	0.00634605
-4.604491	Angeles.	0.02240585
-4.00243	Another	-4.9139e-05
-4.604491	Answer	-5.101221e-05
-4.604491	Anthony	-6.180938e-05
-4.604491	Antifederalists	-6.180938e-05
-4.604491	Antonin	-5.641084e-05
-4.206551	Any	-0.0001338438
-4.604491	Anybody	0.001116665
-4.00243	Anyone	0.006374251
-4.604491	Anything	0.0001703889
-4.4284	Anytime	0.004926374
-4.604491	Anyway,	0.000624344
-4.604491	Anyways	0.0006946415
-4.604491	Apart	0.0009001915
-4.604491	Apparently	0.01459686
-4.604491	Appearing	-6.180938e-05
-4.604491	Applying	0.0011708
-4.4284	Appointment	0.007213301
-4.604491	Approximately	-6.180938e-05
-4.303461	April	0.007126348
-4.604491	Ar15s,	6.777432e-05
-4.604491	Arab	-6.180938e-05
-4.604491	Arabs	0.001246601
-3.701401	Are	0.009468653
-4.604491	Area's	-6.180938e-05
-4.303461	Aren't	0.004851847
-4.604491	Arena	0.003048047
-4.604491	Arguing	0.005272156
-4.127369	Arizona	0.002087662
-4.303461	Arizona,	0.01451865
-4.604491	Armed	0.002227788
-4.604491	Arming	-1.86191e-05
-4.604491	Arms	-3.481594e-05
-4.4284	Army	0.01030113
-4.604491	Army,	-6.180938e-05
-4.604491	Army/Navy	-5.641084e-05
-4.604491	Arnold,	-6.180938e-05
-4.4284	Art	0.01215758
-4.604491	Art,	-6.180938e-05
-4.303461	Article	0.004799153
-4.604491	Artillery	-4.561353e-05
-3.262068	As	0.05166068
-4.604491	Asia	0.001647481
-4.604491	Asian,	-5.641084e-05
-4.604491	Asians,	-6.180938e-05
-4.127369	Ask	0.02373509
-4.604491	Asking	0.002651305
-4.303461	Assault	-0.0001692308
-4.604491	Assembled".	0.02240585
-4.604491	Associated	0.002227788
-4.127369	Association	0.0006855198
-4.604491	Assuming	0.0004621628
-4.604491	Astonishing.	0.02240585
-3.791577	At	0.01739072
-4.4284	Atlanta	0.005210481
-4.604491	Attachment	-6.180938e-05
-4.604491	Attack	0.0009272448
-4.604491	Attacks	0.01459686
-4.604491	Attila	0.01459686
-4.303461	Attorney	-0.0001692308
-4.604491	Attorney's	-3.481594e-05
-4.604491	Attorneys	-3.481594e-05
-4.604491	August	-6.180938e-05
-4.604491	Aurora	0.006503577
-4.604491	Aurora.	0.02240585
-3.905521	Australia	0.007549209
-4.4284	Australia's	0.00252981
-4.206551	Australia,	0.00530581
-4.4284	Australia.	0.02236955
-4.604491	Australia.”	0.0014795
-4.604491	Australia?	0.02240585
-4.4284	Australian	0.0002598549
-4.303461	Australians	0.0001479181
-4.4284	Authority	0.007213301
-4.604491	Ave	0.0005054052
-4.604491	Average	-4.561353e-05
-4.604491	B,	-6.180938e-05
-4.604491	BAN	-2.401813e-05
-4.604491	BBC	-2.941705e-05
-4.604491	BECOMES	-6.180938e-05
-4.303461	BS	0.004733624
-4.604491	BS,	0.003760919
-4.604491	BS.	0.02240585
-4.604491	BS?	0.02240585
-4.604491	BTW...	0.01459686
-4.604491	BUT,	0.004616824
-4.604491	Bachmann"	8.937543e-05
-4.4284	Back	0.004593333
-4.206551	Background	-9.212972e-05
-4.604491	Bahamas,	0.006503577
-4.604491	Baker	-5.101221e-05
-4.604491	Baker,	4.077456e-05
-4.4284	Baltimore	-8.582633e-05
-4.303461	Ban	0.00141556
-4.604491	Ban?"	0.02240585
-4.4284	Banning	0.001363554
-4.4284	Barack	-2.79216e-05
-4.604491	Barak	8.376988e-06
-4.604491	Barker.	0.02240585
-4.604491	Based	0.002054157
-4.604491	Bases?	0.02240585
-4.303461	Basically	0.001827579
-4.604491	Batman	0.004616824
-4.604491	Battlefield.	0.02240585
-4.4284	Bay	-0.0001236185
-4.604491	Bay.	0.02240585
-4.604491	Bazookas	0.001598706
-4.4284	Bears	0.006467278
-3.583301	Because	0.05170371
-4.4284	Because,	0.01047259
-4.604491	Become	0.008811613
-4.4284	Before	0.008722476
-4.206551	Being	0.01090862
-4.604491	Believe	0.002493795
-4.604491	Bend	-6.180938e-05
-4.604491	Bend.	0.02240585
-4.604491	Benjamin	-6.180938e-05
-4.604491	Berklee	-4.561353e-05
-4.604491	Berklee's	0.008811613
-4.604491	Bernardino.	0.02240585
-4.4284	Beshear	0.0004111771
-4.604491	Besides	0.005272156
-4.604491	Better	0.0001379817
-4.4284	Between	-0.0001128211
-4.604491	Bias/Fact	-4.561353e-05
-4.604491	Bible	0.004824238
-4.604491	Bible.	0.02240585
-4.604491	Biden	0.0001055769
-4.604491	Biden,	-6.180938e-05
-4.604491	Big	-6.180938e-05
-4.604491	Bigger,	-6.180938e-05
-4.206551	Bill	0.007140712
-4.604491	Bill)	0.001425326
-4.604491	Bingo.	0.02240585
-4.604491	Black	-6.180938e-05
-4.604491	Blacks,	-6.180938e-05
-4.604491	Blaylock	0.004917061
-4.4284	Bloomberg	-8.042714e-05
-4.604491	Board"	-6.180938e-05
-4.604491	Board.".	0.02240585
-4.127369	Bob	0.008565269
-4.4284	Bob.	0.02236955
-4.604491	Bodies	2.997507e-05
-4.604491	Booker	0.001316999
-4.604491	Boston	5.157429e-05
-4.604491	Both	-1.322e-05
-4.604491	Bottom	-5.641084e-05
-4.4284	Box	0.001683284
-4.604491	Boy,	0.0005540582
-4.604491	Boyleston	-5.641084e-05
-4.604491	Brady	-6.180938e-05
-4.604491	Bravo).	0.02240585
-4.604491	Breitbart	0.000121779
-4.604491	Breitbart,	-3.481594e-05
-4.4284	BretJ	0.000103184
-4.4284	Breyer,	-9.662442e-05
-4.604491	Brian	-6.180938e-05
-4.604491	Brinkley,	-5.101221e-05
-4.206551	Britain	0.01695784
-4.604491	Britain.	0.02240585
-4.604491	British	-2.941705e-05
-4.604491	British.	0.02240585
-4.604491	Brits	0.006503577
-4.303461	Bronson	0.001941495
-4.604491	Brought	0.0003810947
-4.303461	Brown	0.0001872486
-4.604491	Bruce	-6.180938e-05
-4.604491	Bubba	0.001593286
-4.604491	Buck.	0.02240585
-4.604491	Buddhism	-1.86191e-05
-4.604491	Building,	0.002054157
-4.604491	Bull****,	0.01459686
-4.604491	Bull****.	0.02240585
-4.604491	Bumper	-6.180938e-05
-4.604491	Bureau	0.007249599
-4.604491	Burger	2.997507e-05
-4.604491	Burke	0.004616824
-4.604491	Bush	0.004824238
-4.604491	BushII	-5.641084e-05
-2.923249	But	0.08468226
-3.759392	But,	0.03355873
-4.604491	Buthod	-7.820872e-06
-4.604491	Buthod,	-5.641084e-05
-4.604491	Butler,	0.004616824
-4.604491	Butterbean	-6.180938e-05
-3.864128	By	0.01689308
-4.4284	C-SPAN,	-9.270943e-05
-4.303461	C.	-0.000142235
-4.060422	CA	0.01310759
-4.604491	CAB	-6.180938e-05
-4.604491	CAN	0.0002460152
-4.604491	CANNOT	-6.180938e-05
-4.4284	CC	2.216953e-05
-4.604491	CC.	0.02240585
-4.303461	CCW	0.0002397699
-4.604491	CDC	0.0008406799
-4.604491	CDC,	0.006503577
-4.604491	CLEAR	-5.101221e-05
-4.604491	CNC	-5.641084e-05
-4.4284	CNN,	-9.270943e-05
-4.604491	CON...	0.0006946415
-4.604491	CONSTITUTION?	0.02240585
-4.303461	CONs	0.004684485
-4.604491	CRIMINALS	-6.180938e-05
-4.604491	CRUE	-6.180938e-05
-4.303461	CT	0.001502268
-4.604491	CT,	-5.641084e-05
-3.759392	California	0.01939568
-4.4284	California's	0.00302438
-4.4284	California,	0.001867643
-4.604491	Call	0.007249599
-4.604491	Cambridge.	0.02240585
-4.00243	Can	0.004248187
-4.4284	Can't	0.004888142
-4.00243	Canada	0.0103174
-4.604491	Canada"	1.917592e-05
-4.060422	Canada,	0.01549201
-4.604491	Canada.	0.02240585
-4.303461	Canadian	0.0002196704
-4.604491	Canadians	0.002575258
-4.604491	Canadians,	-4.021478e-05
-4.604491	Canadians.	0.02240585
-4.604491	Canuck	0.01036268
-4.604491	Capital	-6.180938e-05
-4.604491	Capster	-2.941705e-05
-4.604491	Captain	-6.180938e-05
-4.604491	Carry	-6.180938e-05
-4.604491	Carter's	-2.421645e-06
-4.604491	Carver	-5.641084e-05
-4.604491	Carver,	-6.180938e-05
-4.604491	Casull	0.004616824
-4.604491	Catawba	7.317452e-05
-4.604491	Cats	-6.180938e-05
-4.604491	Catsimatidis	0.002054157
-4.604491	Cause.	0.02240585
-4.127369	Center	0.003455995
-4.604491	Cessna	0.0002622225
-4.604491	Challenge	0.0007974043
-4.604491	Challenge:	-1.86191e-05
-4.4284	Charles	-0.0001128211
-4.604491	Charleston	0.006503577
-4.604491	Charter	0.0001595862
-4.206551	Check	0.0004119321
-4.604491	Checkpoints	0.000310848
-4.604491	Chesapeake	-6.180938e-05
-4.127369	Chicago	0.01777666
-4.604491	Chicago,	-2.941705e-05
-4.604491	Chicks,	-6.180938e-05
-4.206551	Chief	-0.0002364379
-4.604491	Chiefs	-4.021478e-05
-4.604491	Child	-6.180938e-05
-4.604491	China's	0.0001001764
-4.604491	China,	0.006503577
-4.604491	Chipolte.	0.02240585
-4.604491	Chipotle	0.001647481
-4.303461	Chris	-0.0001800286
-4.604491	Christ,	0.004917061
-4.206551	Christian	-0.0001176425
-4.604491	Christian.	0.02240585
-4.127369	Christians	0.02559156
-4.4284	Christmas	3.297061e-05
-4.604491	Chump	0.01459686
-4.604491	Cite	0.0007216819
-4.604491	Citizens	0.008811613
-4.206551	City	0.0002821808
-4.604491	City's	-6.180938e-05
-4.206551	City,	0.001413403
-4.604491	Civility	0.004824238
-4.604491	Civilization"	0.0006621951
-4.604491	Claiming	-6.180938e-05
-4.206551	Clause	-0.0002310388
-4.206551	Clearly	0.005431601
-4.604491	Clearly,	0.000624344
-4.604491	Clint	0.004616824
-4.4284	Clinton	0.006441932
-4.604491	Close	0.004616824
-4.604491	Closing	0.002548103
-4.604491	Club	0.0004621628
-4.604491	Coast	-2.941705e-05
-4.604491	Cobb	-6.180938e-05
-4.4284	Cohen's	-9.270943e-05
-4.604491	Colleges	0.006503577
-4.604491	Colorado	-5.641084e-05
-4.4284	Columbine	0.004566045
-4.604491	Combatant	-2.941705e-05
-4.303461	Comitatus	-0.0001692308
-4.00243	Command	0.01253117
-4.604491	Command.	0.02240585
-4.604491	Command....	0.02240585
-4.604491	Commander	-3.481594e-05
-4.604491	Commanding	8.376988e-06
-4.604491	Commission,	-2.421645e-06
-4.4284	Common	-5.343041e-05
-4.604491	Commonwealth	-6.180938e-05
-4.604491	Commonwealth,	0.0004891886
-4.604491	Communism	0.004824238
-4.604491	Community	-5.641084e-05
-4.604491	Compare	0.01459686
-4.604491	Con.	0.02240585
-4.604491	Confiscation	0.004824238
-4.604491	Congratulations,	0.001349494
-3.791577	Congress	0.04150566
-4.604491	Congress's	0.0004081156
-4.604491	Congress."	0.02240585
-4.604491	Congress;	2.97767e-06
-4.604491	Congress?	0.02240585
-4.4284	Congressional	-0.0001128211
-4.604491	Congressmen	0.003048047
-4.604491	Conn.	-3.481594e-05
-4.604491	Conn.,	0.0003810947
-4.206551	Connecticut	0.003379744
-4.604491	Connecticut's	-5.101221e-05
-4.604491	Connecticut,	0.0005054052
-4.604491	Cons,	0.006503577
-4.604491	Consequently,	0.0006946415
-4.303461	Conservative	-0.0001530335
-4.303461	Conservatives	0.0107431
-4.604491	Considering	0.01459686
-4.604491	Conspiracy	-6.180938e-05
-3.626767	Constitution	0.0222902
-4.4284	Constitution,	0.002883017
-4.604491	Constitution.	0.02240585
-4.604491	Constitution?	0.02240585
-4.303461	Constitutional	0.001312617
-4.604491	Constitutional.	0.02240585
-4.604491	Constitutionally	-6.180938e-05
-4.604491	Contemporary	-6.180938e-05
-4.4284	Control	0.004555131
-4.4284	Control.	0.02236955
-4.604491	Convicted	0.001593286
-4.604491	Cooling	0.0001379817
-4.604491	Cops,	0.0008352704
-4.604491	Corps	0.0009001915
-4.604491	Corpus	0.0007000495
-4.604491	Corral,	-5.101221e-05
-4.604491	Corral.	0.02240585
-4.604491	Correct.	0.02240585
-4.604491	Could	-5.641084e-05
-4.604491	Council	-2.941705e-05
-4.604491	Councilman	-4.561353e-05
-4.604491	Councilwoman	-6.180938e-05
-4.604491	Countries	0.0008298608
-4.206551	County	-0.0002001242
-4.4284	County,	9.778263e-05
-4.604491	Couple	0.005272156
-4.604491	Courant's	-6.180938e-05
-3.729429	Court	0.02052954
-4.00243	Court's	-0.0003261405
-4.4284	Court,	0.01119234
-4.4284	Court.	0.02236955
-4.4284	Cow	-9.270943e-05
-4.604491	Craig	-6.180938e-05
-4.4284	Creek	-0.0001236185
-4.604491	Crenshaw	-5.101221e-05
-4.060422	Crime	0.001344071
-4.4284	Crimefree	0.001770032
-4.4284	Crimes	-6.962864e-05
-4.604491	Criminals	-4.561353e-05
-4.604491	Cronkite,	-6.180938e-05
-4.604491	Crossroads	0.007249599
-4.4284	Crown	0.001585715
-4.604491	Cruikshank,	-6.180938e-05
-4.604491	Cudahy	-2.401813e-05
-4.604491	Cuomo	0.004824238
-4.604491	Curiosity	0.004824238
-4.604491	Cylinder	-5.641084e-05
-4.604491	D	0.001316999
-4.604491	D.	-5.101221e-05
-4.604491	D.C.-based	-7.820872e-06
-4.4284	DC	0.004762551
-4.4284	DC,	0.006447413
-4.4284	DEATHS	0.006441932
-4.604491	DEMOCRACY	1.377641e-05
-4.604491	DESPITE	0.0003864989
-4.604491	DHS	-6.180938e-05
-4.604491	DIDN'T	-5.641084e-05
-4.604491	DISHONEST.	0.02240585
-4.604491	DNA,	0.006503577
-4.303461	DO	0.0009714523
-4.604491	DOES	1.917592e-05
-4.604491	DON'T	-5.101221e-05
-4.604491	DP	0.004917061
-4.604491	DP.	0.02240585
-4.4284	DQ	0.001406893
-4.604491	DQ'ed,	0.002624144
-4.604491	DVD	-6.180938e-05
-4.604491	Dad's	-7.820872e-06
-4.604491	Daily?	0.02240585
-4.604491	Dakota	-4.021478e-05
-4.604491	Dala	-6.180938e-05
-4.604491	Daleiden	0.006503577
-4.604491	Dallas	0.000121779
-4.604491	Daly	-4.561353e-05
-4.604491	Damn	-5.641084e-05
-4.604491	Damon,	-6.180938e-05
-4.4284	Damron	0.000243645
-4.604491	Damron,	0.008811613
-4.604491	Daniel	-6.180938e-05
-4.604491	Dashboard	-2.941705e-05
-4.4284	Data	-6.962864e-05
-4.604491	Dave	-6.180938e-05
-4.4284	David	-0.0001128211
-4.604491	David,	-6.180938e-05
-4.604491	Davis	-4.021478e-05
-4.604491	Davis,[24]	0.01459686
-4.604491	Davis.	0.02240585
-4.604491	Dawn"	0.004824238
-4.604491	Day	-6.180938e-05
-4.604491	Day,	-6.180938e-05
-4.604491	De	-6.180938e-05
-4.4284	Deal	0.002171463
-4.604491	Deaths	-5.101221e-05
-4.604491	Debate	-6.180938e-05
-4.604491	Debate,	-5.641084e-05
-4.604491	December	-6.180938e-05
-4.604491	Declare	-5.641084e-05
-4.604491	Defending	0.0008731399
-4.604491	Defense	-6.180938e-05
-4.604491	Defensive	-5.641084e-05
-4.604491	Definition	0.007249599
-4.604491	Demand	-4.561353e-05
-4.4284	Dementia	0.0001139871
-4.4284	Democracy	0.004773471
-4.303461	Democrat	0.005706644
-4.4284	Democratic	-8.58263e-05
-4.4284	Democrats	0.007951798
-4.4284	Democrats.	0.02236955
-4.604491	Dems	0.0005108109
-4.127369	Department	0.01940316
-4.604491	Dept	0.004824238
-4.604491	Despite	4.077456e-05
-4.604491	Detective	-6.180938e-05
-4.604491	Deuce,	0.0001271798
-4.604491	Diana	-6.180938e-05
-4.4284	Dianne	-0.0001182198
-4.604491	Dick	0.006503577
-3.905521	Did	0.03078286
-4.4284	Didn't	0.0004760454
-4.604491	Difference	0.0003864989
-4.604491	Different	-5.641084e-05
-4.604491	Directive	-6.180938e-05
-4.604491	Director	-3.481594e-05
-4.604491	Disarmed	-6.180938e-05
-4.604491	Discussion,'	0.001316999
-4.604491	Discussions	0.0008298608
-4.604491	Dispatch	0.0005054052
-4.604491	Distribution	-5.101221e-05
-4.303461	District	0.0139717
-4.604491	District's	-1.86191e-05
-4.604491	Dixie	-6.180938e-05
-3.474157	Do	0.02465049
-4.604491	Documents	1.917592e-05
-4.4284	Dodge	-9.12254e-05
-4.060422	Does	0.02268787
-4.060422	Doesn't	-1.435962e-05
-4.604491	Dog	-5.641084e-05
-4.604491	Dole[25]	0.01459686
-4.604491	Domestic	-4.561353e-05
-3.791577	Don't	0.005540515
-4.4284	Donald	-3.872023e-05
-4.604491	Dont	0.0005054052
-4.604491	Double	-5.641084e-05
-4.127369	Dowlut	0.007596501
-4.604491	Dowlut's	-3.481594e-05
-4.604491	Dowlut,	0.002624144
-4.604491	Down	-4.021478e-05
-4.4284	Downard	0.000243645
-4.4284	Dr	0.0008314311
-4.4284	Dr.	-9.662441e-05
-4.604491	Draw	-6.180938e-05
-4.604491	Drinking	0.0001001764
-4.604491	Driving	-7.820872e-06
-4.303461	Due	0.01029489
-4.127369	During	0.02139854
-4.604491	Duty	-6.180938e-05
-4.604491	EDIT:	0.004917061
-4.604491	EDIT:Reading	0.0001001764
-4.604491	EMNofSeattle	-6.180938e-05
-4.604491	END	0.002054157
-4.604491	ENTIRE	-6.180938e-05
-4.4284	ERA.	0.02236955
-4.604491	EU	0.0001433828
-4.604491	EVEN	0.001322414
-4.604491	EVERYONE.	0.02240585
-4.604491	EVIL.	0.02240585
-4.604491	EXTENT	0.001316999
-4.206551	Each	0.0001740841
-4.604491	Earlier	0.001349494
-4.4284	Earth	0.002768872
-4.604491	Easier	0.00065138
-4.127369	East	0.01175098
-4.604491	East.	0.02240585
-4.604491	Eastern	-6.180938e-05
-4.604491	Economics	-4.021478e-05
-4.604491	Ect	-5.641084e-05
-4.604491	Either	-6.180938e-05
-4.4284	Elementary	-0.0001236185
-4.604491	Elliot	-6.180938e-05
-4.604491	Emphasis	-1.86191e-05
-4.604491	Empire,	0.0006946415
-4.604491	England".	0.02240585
-4.127369	English	0.01250954
-4.604491	English,"	0.0003864989
-4.604491	English-language	-6.180938e-05
-4.604491	Englishmen	0.01036268
-4.604491	Enjoy	0.002493795
-4.4284	Enjoy.	0.02236955
-4.604491	Epilepsy	-6.180938e-05
-4.604491	Eric	-6.180938e-05
-4.206551	Especially	0.006521494
-4.604491	Etc...	-4.021478e-05
-4.604491	Europe	-6.180938e-05
-4.604491	Europe.	0.02240585
-4.4284	European	-6.962864e-05
-4.604491	European,	-6.180938e-05
-4.4284	Europeans	0.003448745
-3.729429	Even	0.02407231
-4.604491	Eventually	-3.481594e-05
-4.303461	Ever	-8.972594e-05
-4.206551	Every	3.359876e-05
-4.4284	Everybody	0.00478985
-4.206551	Everyone	0.002496963
-4.604491	Everyone).	0.02240585
-4.4284	Everything	0.0005355167
-4.604491	Evidence	-6.180938e-05
-4.604491	Exactly.	0.02240585
-4.604491	Exactly....Sad	4.077456e-05
-4.604491	Examine	0.01459686
-4.4284	Except	0.009947366
-4.604491	Execution	0.01459686
-4.604491	Exempt	0.0009001915
-4.604491	Explain	0.01036268
-4.604491	Extension	0.0014795
-4.604491	F**k	-5.641084e-05
-4.604491	F-35s.	0.02240585
-4.604491	F.	-5.101221e-05
-4.604491	F.E.A.R.	0.02240585
-4.604491	FAMOUS	-6.180938e-05
-3.864128	FBI	0.007806757
-4.604491	FBI,	-2.421645e-06
-4.604491	FDR	-6.180938e-05
-4.604491	FEMA	-6.180938e-05
-4.604491	FIREARM	0.000154185
-4.604491	FIREARMS	-5.641084e-05
-4.604491	FISA	-6.180938e-05
-4.604491	FISA.	0.02240585
-4.604491	FL	-6.180938e-05
-4.604491	FOID	-5.101221e-05
-4.604491	Facebook	-6.180938e-05
-4.604491	Facebook,	0.008811613
-4.4284	Fact:	7.61775e-05
-4.604491	Facts	0.006503577
-4.604491	Factually,	-6.180938e-05
-4.4284	Fair	8.157871e-05
-4.604491	Fake	-2.941705e-05
-4.604491	False	-6.180938e-05
-4.604491	False.	0.02240585
-4.604491	Family	-6.180938e-05
-4.604491	Fast	0.006503577
-4.604491	Fatalities	-4.561353e-05
-4.604491	Favorite	-3.481594e-05
-4.4284	Fear	0.007213301
-4.4284	Fed	-0.0001128211
-4.127369	Federal	-1.199467e-05
-4.4284	Feinstein	0.0003409137
-4.604491	Feinstein,	0.001116665
-4.604491	Fewer	0.002548103
-4.604491	Fiction	1.917592e-05
-4.604491	Finally	0.004917061
-4.4284	Finally,	0.003040693
-4.604491	Find	0.0004405431
-4.604491	Finds	2.997507e-05
-4.604491	Fire	-4.561353e-05
-4.604491	Fire.	0.02240585
-4.4284	Firearm	0.004768011
-4.4284	Firearms	-2.103202e-05
-4.604491	Firehouse	0.0002244062
-4.303461	First	0.007615273
-4.604491	First,	0.004616824
-4.604491	Fischer,	0.0002514175
-4.604491	Fixed	0.000305445
-4.604491	Flamethrowers	6.777432e-05
-4.4284	Flood	0.0002814691
-4.060422	Florida	0.002525637
-4.604491	Florida!	0.02240585
-4.604491	Folding	0.001593286
-3.626767	For	0.02322829
-4.604491	Force	-6.180938e-05
-4.604491	Force,	0.001593286
-4.604491	Forcelli	-6.180938e-05
-4.604491	Forcelli,	0.001116665
-4.604491	Ford	0.001316999
-4.604491	Fort	-6.180938e-05
-4.604491	Forty-five	0.0001433828
-4.604491	Foundation	-2.941705e-05
-4.604491	Founder	0.006503577
-4.604491	Founders	-7.820872e-06
-4.00243	Fox	-0.0003075023
-4.604491	Fox,	-1.322e-05
-4.4284	France	0.005325268
-4.604491	France,	-5.641084e-05
-4.604491	France.	0.02240585
-4.604491	Francisco	-5.641084e-05
-4.604491	Franklin	2.97767e-06
-4.4284	Frankly,	0.0009574561
-4.604491	Fraternal	-6.180938e-05
-4.303461	Free	-0.0001638317
-4.060422	French	0.007650373
-4.604491	French,	-6.180938e-05
-4.604491	Friday	0.001246601
-4.00243	From	0.01777727
-4.604491	Frontline	0.0002082004
-4.604491	Fugitive:	-6.180938e-05
-4.604491	Full	-6.180938e-05
-4.604491	Fun	-1.86191e-05
-4.604491	Fund	0.007249599
-4.4284	Funny	0.0001734088
-4.604491	Funny,	0.0005216222
-4.604491	Furious	-6.180938e-05
-4.4284	Further	-3.183174e-05
-4.604491	Further,	0.01459686
-4.604491	Fwanthithco?	0.02240585
-4.604491	G's	0.0001703889
-4.604491	GAWD....	-4.561353e-05
-4.604491	GET	4.617438e-05
-4.604491	GFZ	0.003048047
-4.604491	GM.	0.02240585
-4.604491	GO	-6.180938e-05
-4.060422	GOP	0.01275106
-4.4284	GOP.	0.02236955
-4.604491	GRADE	-6.180938e-05
-4.4284	GUN	0.0012807
-4.303461	GUNS	0.002951773
-4.604491	GUNS,	0.0004675677
-4.604491	GW	-6.180938e-05
-4.604491	GWB	0.0004621628
-4.4284	Gaetz	0.0001085855
-4.604491	Gaetz.	0.02240585
-4.604491	Gallup	-6.180938e-05
-4.604491	Gandhi,	0.002651305
-4.4284	Gangs	0.00911936
-4.604491	Garen	-5.641084e-05
-4.303461	Gen.	-0.0001182077
-4.206551	General	-0.0002040424
-4.604491	Generally	-6.180938e-05
-4.604491	Genral	-6.180938e-05
-4.4284	George	-9.122539e-05
-4.206551	Georgia	7.921192e-05
-4.604491	Georgia,	0.008811613
-4.4284	German	-0.0001236185
-4.604491	Germany	8.937543e-05
-4.604491	Germany,	-4.561353e-05
-4.4284	Get	0.008772068
-4.604491	Getting	0.0003810947
-4.4284	Ginsburg,	0.006452894
-4.303461	Give	0.003463239
-4.604491	Given	0.01459686
-4.604491	Glock	-4.561353e-05
-4.604491	Glock.	0.02240585
-4.206551	Go	0.01093632
-4.4284	God	0.006458375
-4.604491	God,	-2.941705e-05
-4.604491	God-worshiping	0.001360326
-4.604491	Going	0.0001379817
-4.4284	Golden	-0.0001182198
-4.127369	Good	-0.0002109009
-4.604491	Goodbye.	0.02240585
-4.604491	Google	0.002054157
-4.604491	Google!.	0.02240585
-4.604491	Googled	0.01459686
-4.4284	Goshin	0.009599411
-4.604491	Gottsfield	-4.021478e-05
-4.303461	Gov	0.005121478
-4.604491	Gov.	0.02240585
-4.604491	Govenment	0.004824238
-4.303461	Government	0.008864804
-4.604491	Government's	-2.401813e-05
-4.604491	Gowdy	-5.101221e-05
-4.4284	Grammar	0.00252981
-4.604491	Granted,	0.000624344
-4.303461	Great	-0.0001530335
-4.604491	Great.	0.02240585
-4.604491	Greece	0.0004621628
-4.4284	Greg	-0.0001236185
-4.604491	Grossman	0.0007000495
-4.604491	Gualtieri	0.007249599
-4.00243	Guard	0.02149174
-4.604491	Guard,	0.001349494
-4.303461	Guard.	0.02233325
-4.4284	Guess	0.0008438166
-3.458363	Gun	0.001222564
-4.604491	Gun-control	0.0001325807
-4.604491	Gun-howitzer	-4.561353e-05
-4.604491	Gun-worshipping	-5.641084e-05
-4.604491	Gun?"	0.02240585
-4.604491	Gunrunners	0.0001703889
-3.626767	Guns	0.01346044
-4.4284	Guns,	0.001536938
-4.604491	Guy,	0.001181628
-4.604491	H.	-6.180938e-05
-4.303461	HAS	0.0009660389
-4.604491	HELVERING?	0.02240585
-4.604491	HER	0.0001433828
-4.604491	HOPE	-5.641084e-05
-4.604491	HOW	-6.180938e-05
-4.604491	HOWEVER,	0.0004891886
-4.4284	HS	0.0005355169
-4.604491	HUMAN	-6.180938e-05
-4.604491	Habeas	-6.180938e-05
-4.604491	Had	0.01459686
-4.604491	Haha...would	-7.820872e-06
-4.604491	Hahahahahaha	-6.180938e-05
-4.604491	Hall,"	-5.641084e-05
-4.604491	Hamilton	-6.180938e-05
-4.604491	Hamiltonian	-1.322e-05
-4.604491	Hammer	0.0001163782
-4.604491	Handing	0.008811613
-4.4284	Harbor	0.00139064
-4.4284	Hard	0.01032638
-4.303461	Hardin	-0.0001437178
-4.604491	Harlow	0.006503577
-4.604491	Harris	-4.561353e-05
-4.604491	Harris,	0.01459686
-4.604491	Harrods	-5.641084e-05
-4.604491	Harry	0.0008406799
-4.604491	Harshaw	-6.180938e-05
-4.604491	Hartford	-6.180938e-05
-4.127369	Harvard	0.0009291022
-4.604491	Has	0.001349494
-4.206551	Have	0.01257953
-4.604491	Haven't	0.001116665
-4.604491	Having	0.0004621628
-4.4284	Hawaii	0.0009682806
-4.604491	Hawaii,	-6.180938e-05
-4.604491	Hawaii.	0.02240585
-4.604491	Hawk.	0.02240585
-3.650248	He	0.00750448
-4.604491	He's	1.917592e-05
-4.604491	Head	0.007249599
-4.604491	Headache.	0.02240585
-4.604491	Headquarters	2.97767e-06
-4.604491	Health	0.0005432456
-4.604491	Health.	0.02240585
-4.604491	Heard	0.001100426
-4.604491	Heck	0.001322414
-4.604491	Heck,	-2.421645e-06
-4.604491	Held:	-3.481594e-05
-4.303461	Hell	0.01576583
-4.303461	Hell,	0.005356543
-4.127369	Heller	0.01016387
-4.604491	Heller.	0.02240585
-4.604491	Helvering	-4.021478e-05
-4.604491	Henry	-5.641084e-05
-4.604491	Her	-6.180938e-05
-3.826339	Here	0.03010457
-4.303461	Here's	0.009590721
-4.604491	Hey	-6.180938e-05
-4.4284	Hey,	-5.882988e-05
-4.303461	High	-0.0001437178
-4.4284	Hillary	0.004768011
-4.604491	Him,	-4.561353e-05
-4.4284	Hint:	0.006277536
-4.4284	His	-0.0001128211
-4.604491	History	4.617438e-05
-4.604491	Hitler"	0.001181628
-4.604491	Hitler,	-6.180938e-05
-4.604491	Hmm...now	0.005272156
-4.604491	Hmmm	-4.021478e-05
-4.604491	Hmmm...	0.02240585
-4.604491	Hoenstly,	0.0002622225
-4.604491	Hogg	0.0007000495
-4.604491	Holder's	-1.86191e-05
-4.4284	Homeland	-8.73108e-05
-4.604491	Homeowners	-4.021478e-05
-4.604491	Homicide	0.01036268
-4.604491	Honestly,	0.0009056016
-4.4284	Hook	-9.270943e-05
-4.4284	Hook,	0.01501032
-4.604491	Hook,line	0.006503577
-4.4284	Hook.	0.02236955
-4.604491	Hope	0.005272156
-4.604491	Hopefully	0.008811613
-4.604491	Hopkins	-5.641084e-05
-4.604491	Hospital	0.0001001764
-4.206551	House	-0.0002310388
-3.458363	How	0.01274094
-4.604491	How's	-6.180938e-05
-4.604491	Howard,	2.997507e-05
-4.4284	However	0.000811354
-3.759392	However,	0.009128314
-4.604491	Huh,	-2.401813e-05
-4.604491	Human	-4.561353e-05
-4.604491	Hun.	0.02240585
-4.604491	Hunt	-7.820872e-06
-4.604491	Hunter	-2.941705e-05
-4.303461	Hunting	0.006467992
-1.942205	I	0.01541111
-3.337319	I'd	0.007144724
-4.00243	I'll	0.0006647875
-2.794931	I'm	0.03830822
-3.282271	I've	0.003331174
-4.303461	I,	0.002571286
-4.604491	I.	0.02240585
-4.604491	I...	-5.101221e-05
-4.604491	I...I	0.001127491
-4.604491	I...really	0.001127491
-4.604491	ICE.	0.02240585
-4.604491	ID	0.006503577
-4.604491	IDs	0.0009651222
-4.604491	IF	0.01459686
-4.604491	IIRC	0.001181628
-4.303461	IMO,	0.01736499
-4.4284	IN	-0.0001182198
-4.604491	INB4	0.001116665
-4.604491	IQ	-1.86191e-05
-4.604491	IRS.	0.02240585
-4.303461	IS	0.01447398
-4.604491	ISIS	-4.021478e-05
-4.604491	ISIS.	0.02240585
-4.604491	ISN'T	-5.101221e-05
-4.604491	IT	-6.180938e-05
-4.303461	Iceland	0.008567232
-4.604491	Idc	0.001322414
-4.604491	Ideally,	7.857475e-05
-4.604491	Identify	0.01459686
-2.798311	If	0.05050491
-4.604491	Ignorant?	0.02240585
-4.604491	Ikari	0.0014795
-4.127369	Iknadosian	0.006246038
-4.604491	Iknadosian's	-6.180938e-05
-4.604491	Illegal	0.002651305
-4.604491	Illegals	-5.641084e-05
-4.4284	Illinois	8.157871e-05
-4.303461	Illinois,	0.006188494
-4.206551	Im	0.004235326
-4.303461	Imagine	0.001952345
-4.604491	Impaler	-6.180938e-05
-3.092607	In	0.03581433
-4.604491	Inaccurate	-6.180938e-05
-4.604491	Incidence	0.007249599
-4.604491	Including	-5.641084e-05
-4.604491	Incr	0.0001703889
-4.604491	Indian	-6.180938e-05
-4.206551	Indiana	0.00508713
-4.604491	Indians	-6.180938e-05
-4.4284	Injury	0.001184824
-4.604491	Injury.	0.02240585
-4.604491	Innocents	-5.641084e-05
-4.604491	Inspector	-4.561353e-05
-4.206551	Instead	0.01621147
-4.604491	Instead,	0.001598706
-4.604491	Insurance,	0.002651305
-4.604491	Insurrections	0.006503577
-4.604491	Intelligence	0.0007000495
-4.604491	Interesting	0.005272156
-4.604491	Interesting.	0.02240585
-4.604491	Interpretation	0.007249599
-4.604491	Invasion"	0.001425326
-4.604491	Invasions."	0.02240585
-4.604491	Investigation.	0.02240585
-4.604491	Iran	0.001598706
-4.604491	Irrelevant.	0.02240585
-3.626767	Is	0.009746235
-4.604491	Islam	0.00065138
-4.604491	Islam.	0.02240585
-4.127369	Islamic	-0.0003036452
-4.4284	Island	0.005554935
-4.604491	Isn't	0.005272156
-4.604491	Israel;	0.001598706
-2.901199	It	0.01514553
-4.604491	It'll	0.002624144
-3.206551	It's	0.03455524
-4.604491	It?	0.02240585
-3.791577	Its	0.02177083
-4.4284	I’m	0.002587845
-4.604491	I’ve	-3.481594e-05
-4.4284	J.	-0.0001236185
-4.206551	J.,	0.006349476
-4.604491	J.T.	0.02240585
-4.604491	JINO-	-1.322e-05
-4.303461	JJ.,	-0.0001236064
-4.206551	Jack	0.005404253
-4.604491	Jackie	-6.180938e-05
-4.4284	James	-0.0001236185
-4.303461	January	-0.0001800286
-4.604491	Japan	0.0007000495
-4.604491	Japan,	0.006503577
-4.4284	Japan.	0.02236955
-4.604491	Japanese	0.001116665
-4.604491	Jared	-6.180938e-05
-4.604491	Jarrett	-1.86191e-05
-4.4284	Jazeera,	0.01456056
-4.604491	Jeet	-6.180938e-05
-4.604491	Jeez,	-3.481594e-05
-4.4284	Jefferson	0.0002058241
-4.604491	Jenny	-6.180938e-05
-4.604491	Jerry	4.617438e-05
-4.127369	Jesus	0.002252246
-4.604491	Jesus!	0.02240585
-4.604491	Jesus,	0.01459686
-4.604491	Jet	0.0003810947
-4.4284	Jewish	-8.042717e-05
-3.864128	Jews	0.01195792
-4.604491	Jews.	0.02240585
-4.604491	Jim	-4.021478e-05
-4.4284	Joe	0.001314802
-4.604491	Joey.	0.02240585
-4.060422	John	-0.0003600538
-4.604491	Johnsease	0.004616824
-4.604491	Johnson	0.006503577
-4.604491	Joint	-6.180938e-05
-4.060422	Jones	0.004849011
-4.604491	Jones!	0.02240585
-4.604491	Jones,	0.01036268
-4.604491	Jones.	0.02240585
-4.303461	Journal	0.007151678
-4.604491	Journal-Constitution.	0.02240585
-4.604491	Judge	-6.180938e-05
-4.604491	Judge,	-4.021478e-05
-4.604491	Judiciary	0.001425326
-4.206551	June	-0.0002364379
-4.604491	Jus	-5.641084e-05
-3.474157	Just	0.02935556
-4.4284	Justice	-0.0001236185
-4.604491	Justice,	-4.561353e-05
-4.604491	Justices	0.002054157
-4.303461	KKK	0.008132263
-4.604491	KNOW	-6.180938e-05
-4.604491	Kaiser	-6.180938e-05
-4.604491	Kamala	-6.180938e-05
-4.604491	Kansas	1.917592e-05
-4.127369	Keep	0.01036542
-4.206551	Kelly	0.001169589
-4.604491	Kennedy,	-6.180938e-05
-4.604491	Kennesaw's	0.0001001764
-4.604491	Kennesaw,	-4.561353e-05
-4.604491	Kennesaw],[20][21]	0.0004891886
-4.604491	Kentuckians	0.002575258
-4.303461	Kentucky	0.0003601925
-4.604491	Kerr	2.45755e-05
-4.604491	Kevin	-4.561353e-05
-4.604491	Killed	-5.101221e-05
-4.604491	Killer	-6.180938e-05
-4.604491	Killing”.	0.02240585
-4.604491	Kimble.	0.02240585
-4.604491	Kingdom	0.007249599
-4.604491	Kings	-1.322e-05
-4.604491	Kitchen	0.002227788
-4.604491	Klebold	0.006503577
-4.604491	Klein's	-4.021478e-05
-4.604491	Knew	0.008811613
-4.604491	Koon	7.317452e-05
-4.604491	Kopel	0.0007000495
-4.604491	Koran	-6.180938e-05
-4.604491	Krall,	0.006503577
-4.206551	Ky.	0.003657487
-4.604491	Ky.,	0.001116665
-4.604491	LAST	0.0001703889
-4.604491	LEA	0.01036268
-4.604491	LIAR!!!	0.02240585
-4.604491	LITTLE	-1.86191e-05
-4.604491	LOL	-2.941705e-05
-4.604491	LOL...	-5.641084e-05
-4.303461	LOT	0.0177556
-4.604491	LOUISVILLE,	-4.561353e-05
-4.604491	LaGrange	-5.641084e-05
-4.604491	LaMidRighter	0.0014795
-4.303461	LaPierre	8.972349e-06
-4.4284	LaPierre,	0.0004976707
-4.604491	Lamborghini	0.004824238
-4.604491	Lame,	0.004917061
-3.951278	Lanza	0.002581566
-4.604491	Lanza.	0.02240585
-4.303461	Las	-0.0001491166
-4.4284	Last	0.0003247008
-4.4284	Later	-9.662441e-05
-4.4284	Latin	-0.0001020234
-4.604491	Laugh	-2.941705e-05
-4.127369	Law	0.007101941
-4.604491	Law-biding	0.0001055769
-4.206551	Laws	0.007680104
-4.303461	Lead	-0.0001182077
-4.303461	Lee	0.001545629
-4.604491	Lee,	0.0001325807
-4.604491	Left	8.376988e-06
-4.604491	Leftwingers	-5.101221e-05
-4.4284	Legal	4.37719e-05
-4.604491	Legislations	0.003048047
-4.604491	Legislative	-6.180938e-05
-4.604491	Less,	0.0003432683
-3.864128	Let	0.0001154922
-4.060422	Let's	0.0006453831
-4.4284	Lets	0.0006328511
-4.604491	Lever	2.997507e-05
-4.4284	Liberal	0.00126064
-4.604491	Liberal.	0.02240585
-4.303461	Liberals	0.0004196579
-4.127369	Libertarian	0.0005989453
-4.604491	Libertarians	0.003048047
-4.604491	Liberty	-1.86191e-05
-4.604491	Liberty,	0.01036268
-4.604491	Libraries.	0.02240585
-4.604491	Library	0.002227788
-4.4284	License	0.01032638
-4.604491	Licenses.	0.02240585
-4.604491	Life	0.004824238
-4.604491	Lightning	-6.180938e-05
-4.127369	Like	0.02135428
-4.4284	Like,	0.0008113539
-4.604491	Likely	0.01459686
-4.4284	Limiting	0.01495442
-4.604491	List	-4.561353e-05
-4.604491	Listen	0.01036268
-4.604491	Literally	-6.180938e-05
-4.604491	Little	0.0007000495
-4.604491	Live	0.004616824
-4.604491	Lives:	-6.180938e-05
-4.604491	Loans	-6.180938e-05
-4.4284	Local	0.0003069697
-4.4284	Lol	0.002220311
-4.604491	Long	0.0002352106
-4.206551	Look	0.0008307506
-4.604491	Look,	0.004917061
-4.604491	Lori	-5.641084e-05
-4.206551	Los	-0.0001800103
-4.604491	Lots	0.007249599
-4.604491	Lott	0.01036268
-4.604491	Loughner?.	0.02240585
-4.604491	Louisiana	0.006503577
-4.4284	Louisiana,	-4.803085e-05
-4.303461	Louisville	-0.0001746297
-4.604491	Louisville,	0.01459686
-4.604491	Love	0.0005054052
-4.604491	Lower	-5.641084e-05
-4.303461	Lt.	-0.0001236064
-4.604491	Lubitz,	2.45755e-05
-4.604491	Luckily,	0.000397307
-4.604491	Luther's	-5.641084e-05
-4.604491	Lutherf	-2.401813e-05
-4.303461	M-16	3.571199e-06
-4.604491	M-16's	0.0005108109
-4.4284	M-16,	0.001444819
-4.604491	M-16?	0.02240585
-4.604491	M-16s	0.001647481
-4.604491	M-60	-6.180938e-05
-4.604491	M.	-6.180938e-05
-4.4284	M1	-9.12254e-05
-4.4284	M16	0.0002382418
-4.604491	MANPADS,	-6.180938e-05
-4.604491	MANY	-6.180938e-05
-4.604491	MEANS	0.01036268
-4.604491	MILITARY	-6.180938e-05
-4.4284	MILITIA	0.002155182
-4.604491	MJ	0.004616824
-4.604491	MORE	-6.180938e-05
-4.604491	MRE	-6.180938e-05
-4.604491	MRI	0.000191995
-4.4284	MSNBC,	0.01456056
-4.4284	MUCH	-6.962864e-05
-4.604491	MUSKETS	0.0005054052
-4.604491	MUST	1.917592e-05
-4.604491	Ma	-6.180938e-05
-4.604491	Mac10's,sten's	0.006503577
-4.604491	Macy's	-6.180938e-05
-4.604491	Maddow	-4.021478e-05
-4.604491	Madonna	-5.641084e-05
-4.604491	Maenad,	0.001116665
-4.4284	MaggieD	0.0009033382
-4.604491	Magnesia,	0.005272156
-4.604491	Magnum	-5.101221e-05
-4.604491	Majesty's	-6.180938e-05
-4.604491	Majority	-6.180938e-05
-4.303461	Make	0.00298984
-4.604491	Malia.	0.02240585
-4.604491	Mansions,	-5.641084e-05
-4.604491	Mansions..etc...	-6.180938e-05
-3.905521	Many	0.01125271
-4.4284	Many,	0.0004003666
-4.604491	Marathon	-6.180938e-05
-4.303461	March	-0.0001854274
-4.604491	Marine	-6.180938e-05
-4.604491	Marine.	0.02240585
-4.604491	Mark	-6.180938e-05
-4.604491	Marlboro	-6.180938e-05
-4.604491	Marshall	-6.180938e-05
-4.604491	Marx's	-6.180938e-05
-4.604491	Marxist	-6.180938e-05
-4.4284	Maryland.	0.02236955
-4.604491	Maserati	0.001593286
-4.604491	Mason	0.006503577
-4.060422	Mass	-0.0001524131
-4.604491	Massachusetts	0.006503577
-4.604491	Massachusetts,	0.006503577
-4.604491	Massacre	0.007249599
-4.604491	Mateen	0.0004621628
-4.206551	Matt	0.0006862243
-4.4284	May	-0.0001236185
-3.604491	Maybe	0.02092384
-4.604491	Maybe.	0.02240585
-4.604491	Mayer,	-1.86191e-05
-4.604491	Mayor	-5.641084e-05
-4.604491	McClellan,	0.0005108109
-4.604491	McDowall	-5.641084e-05
-4.604491	McDowall,	-6.180938e-05
-4.4284	Me	-5.343037e-05
-4.604491	Means,	0.01459686
-4.604491	Meanwhile	0.0007974043
-4.604491	Media	-6.180938e-05
-4.604491	Medicade	-5.101221e-05
-4.604491	Memorial	-6.180938e-05
-4.604491	Mentally	2.97767e-06
-4.604491	Merely	-4.561353e-05
-4.604491	Merritt.	0.02240585
-4.604491	Methodology	0.007249599
-4.604491	Metro	-6.180938e-05
-4.604491	Mexicans,	-6.180938e-05
-4.604491	Mexico	0.004824238
-4.303461	Mexico,	0.004624433
-4.127369	Mexico.	0.02226067
-4.604491	Michele	-6.180938e-05
-4.604491	MidNightRider???	0.02240585
-4.127369	Middle	-0.0002364137
-4.604491	Might	0.0004567578
-4.604491	Mike	-6.180938e-05
-4.604491	Mildred	0.004616824
-4.604491	Milita,	0.003760919
-4.604491	Militants	-6.180938e-05
-4.303461	Military	0.000192652
-4.604491	Military.	0.02240585
-4.060422	Militia	0.02450981
-4.4284	Militia,	0.006467278
-4.604491	Militia.	0.02240585
-4.604491	Militia....	3.537477e-05
-4.604491	Militia?	0.02240585
-4.604491	Milk	0.007249599
-4.4284	Miller	-2.643194e-05
-4.604491	Miller's	-2.941705e-05
-4.604491	Miller,	-6.180938e-05
-4.604491	Milosavljevic	0.007249599
-4.604491	Milwaukee	-5.101221e-05
-4.604491	Milwaukee,	-6.180938e-05
-4.604491	Minimize	0.01459686
-4.604491	Minors	0.003048047
-4.604491	Misrepresentation	0.006503577
-4.604491	Missed	0.01459686
-4.604491	Mississippi,	0.0009272448
-4.604491	Mississippi.	0.02240585
-4.303461	Missouri	0.003648385
-4.604491	Missouri,	0.0005054052
-4.604491	Missouriâs	-4.561353e-05
-4.604491	Mix	0.005272156
-4.604491	Moderator	2.997507e-05
-4.303461	Moderator's	-0.0001236064
-4.604491	Modern	-6.180938e-05
-4.604491	Monday	0.01459686
-4.604491	Monitoring	-6.180938e-05
-4.604491	Montana	0.001176214
-4.604491	Moore	-6.180938e-05
-4.303461	More	0.0005587006
-4.604491	Moreover,	0.001116665
-4.604491	Mormon,	0.01459686
-4.604491	Mortars.	0.02240585
-4.604491	Mossberg	-6.180938e-05
-4.604491	Mossberg.	0.02240585
-4.00243	Most	0.01260906
-4.604491	Mosty	0.007249599
-4.127369	Mother	-0.0002055019
-4.604491	Moved	0.01036268
-4.604491	Mr.	0.02240585
-4.604491	Mrs.	-6.180938e-05
-4.303461	Murder	-0.0001152375
-4.604491	Murders	0.0001703889
-4.604491	Music	0.006503577
-4.604491	Musician	-6.180938e-05
-4.604491	Muslim	2.45755e-05
-4.4284	Muslims	0.003013503
-4.604491	Muslims,	-6.180938e-05
-4.604491	Muslims.	0.02240585
-4.604491	Must	-6.180938e-05
-3.583301	My	0.0008629222
-4.604491	Mystery	-2.941705e-05
-4.604491	N	-6.180938e-05
-4.4284	NAACP,	0.0003502003
-4.604491	NATO	-3.481594e-05
-4.604491	NDAA	-6.180938e-05
-4.303461	NG	0.01524527
-4.4284	NO	-0.0001236185
-4.604491	NO,	0.001322414
-4.4284	NO-ONE	0.004762551
-4.604491	NOBODY	0.0008406799
-4.604491	NONE.	0.02240585
-3.675072	NOT	0.02777511
-4.604491	NOW	-3.481594e-05
-4.604491	NOW,	0.0006946415
-4.604491	NPR	-6.180938e-05
-4.604491	NPR).	0.02240585
-3.224279	NRA	0.03159287
-4.4284	NRA's	-0.0001128211
-4.604491	NRA).	0.02240585
-4.127369	NRA,	0.01373168
-4.303461	NRA.	0.02233325
-4.604491	NRA.".	0.02240585
-4.604491	NWS	-6.180938e-05
-4.060422	NY	0.009005444
-4.604491	NYC	0.002227788
-4.604491	NYP	0.0001055769
-4.4284	NZ	0.00243205
-4.604491	Nanny	-2.941705e-05
-4.604491	Nate	-6.180938e-05
-3.759392	National	-0.0005545776
-4.604491	Nationality	0.001322414
-4.604491	Nationally,	-5.641084e-05
-4.604491	Nationwide,	0.001425326
-4.604491	Native	-4.561353e-05
-4.604491	Navy,	-6.180938e-05
-4.604491	Nazi	-6.180938e-05
-4.604491	Nazis	0.0001109775
-4.604491	Needless	0.01036268
-4.4284	Neither	0.004888143
-4.604491	Nelson,	-6.180938e-05
-4.604491	Nerf	-5.641084e-05
-4.604491	Net	-6.180938e-05
-4.604491	Neurology	0.006503577
-4.303461	Never	-0.000142235
-4.00243	New	-0.0002250134
-4.00243	News	0.006411292
-4.604491	News).	0.02240585
-4.4284	News,	-9.270943e-05
-4.4284	Newtown,	-0.0001236185
-4.303461	Next	0.01451587
-4.604491	Nice	0.01036268
-4.604491	Nicholasville,	-6.180938e-05
-4.604491	Night	-6.180938e-05
-4.604491	Nine	5.157429e-05
-4.604491	Ninth	0.0001055769
-3.626767	No	0.008587256
-3.583301	No,	0.02919386
-4.303461	No.	0.02233325
-4.206551	Nobody	0.00666958
-4.4284	None	0.007213301
-4.604491	Nope	8.376988e-06
-4.4284	Nope,	0.007572465
-4.4284	Nor	0.002491789
-4.604491	Norad	-6.180938e-05
-4.604491	Norm	-6.180938e-05
-4.604491	Normally	0.001349494
-4.4284	North	0.007748346
-4.060422	Northern	-0.0002619019
-3.282271	Not	0.02603436
-4.4284	Note	0.01030113
-4.604491	Nothing	8.376988e-06
-4.604491	Nothing.	0.02240585
-3.729429	Now	0.01020296
-4.060422	Now,	0.007076638
-4.604491	Nowhere	0.000629751
-4.604491	Nuclear	2.997507e-05
-4.4284	Nugent	0.004762551
-4.604491	Nugent.	0.02240585
-4.604491	Number	0.007249599
-4.604491	Nutjobs	0.003048047
-4.604491	O	0.004917061
-4.604491	O'Connell,	-3.481594e-05
-4.604491	O'Keefe,	-6.180938e-05
-4.604491	O.K	8.397504e-05
-4.4284	OC	0.006467278
-4.303461	OF	0.001058072
-3.951278	OK	0.004592609
-4.4284	OK,	0.0005841813
-4.604491	ON	-6.180938e-05
-4.604491	ONCE,	-5.641084e-05
-4.604491	ONE	-5.101221e-05
-4.303461	ONLY	0.0002073494
-4.303461	OP	0.0152704
-4.604491	OP!	0.02240585
-4.604491	OP's	0.0001109775
-4.4284	OP,	0.004980995
-4.4284	OP.	0.02236955
-4.4284	OR	0.002323453
-4.604491	OR,	-6.180938e-05
-4.604491	OTHER	-4.021478e-05
-4.604491	OUT	-5.641084e-05
-4.604491	OWN	-5.641084e-05
-4.604491	OWS.	0.02240585
-3.729429	Obama	0.01702355
-4.604491	Obama?	0.02240585
-4.604491	Obamacare	0.004824238
-4.604491	Obvious.	0.02240585
-4.4284	Obviously	0.01458009
-4.604491	Obviously,	-3.481594e-05
-4.604491	Ocean.	0.02240585
-3.729429	Of	0.0142369
-4.604491	Offender	7.857475e-05
-4.604491	Offhand	0.004917061
-4.604491	Office	0.007249599
-4.604491	Officer	-5.641084e-05
-4.4284	Officers,	0.006467278
-4.604491	Officers”	-6.180938e-05
-4.604491	Often	0.004616824
-4.604491	Ogres	1.917592e-05
-4.303461	Oh	0.002558701
-4.604491	Oh,	0.0001595862
-4.604491	Ohio.	0.02240585
-4.604491	Ok	-2.401813e-05
-4.303461	Ok,	0.000711697
-4.604491	Okay,	-5.101221e-05
-4.604491	Ol'	-6.180938e-05
-4.604491	Old	-6.180938e-05
-4.604491	Oldham.	0.02240585
-4.604491	Omar	-6.180938e-05
-4.00243	On	0.02364903
-4.604491	Once	0.003760919
-3.864128	One	0.01468387
-4.604491	One,	0.003760919
-3.905521	Only	0.02173059
-4.604491	Ontologuy,	0.001316999
-4.604491	Oops,	4.617438e-05
-4.604491	Open	-6.180938e-05
-4.604491	Options	-6.180938e-05
-3.675072	Or	0.02597492
-4.604491	Or,	0.004824238
-4.604491	Order	0.007249599
-4.604491	Ordinance	-5.101221e-05
-4.604491	Ordinance’,	0.0005054052
-4.604491	Oregon	0.006503577
-4.4284	Oregon.	0.02236955
-3.361453	Originally	-0.001079876
-4.604491	Orwell	-6.180938e-05
-4.060422	Other	0.00127903
-4.604491	Others	0.002575258
-4.604491	Otherwise	0.001360326
-4.604491	Ottoman	-6.180938e-05
-3.759392	Our	0.001461755
-4.604491	Out	0.007249599
-4.4284	Over	0.006441932
-4.303461	Owned	0.001109034
-4.604491	Ownership-	0.008811613
-4.604491	Owning	-2.941705e-05
-4.604491	PART	-5.101221e-05
-4.604491	PC	0.001316999
-4.4284	PCA	0.0003084885
-4.604491	PEOPLE,	-6.180938e-05
-4.604491	PER	-3.481594e-05
-4.604491	PERIOD.	0.02240585
-4.604491	PITB.	0.02240585
-4.604491	PMC	-6.180938e-05
-4.604491	PMID	-6.180938e-05
-4.604491	POTUS	-1.86191e-05
-4.604491	POV	0.001647481
-4.303461	POW!	0.02233325
-4.604491	PRETTY	-6.180938e-05
-4.604491	PRISON	0.0001001764
-4.4284	PTSD	0.004787939
-4.604491	PUBLIC	-6.180938e-05
-4.604491	Pacific	-6.180938e-05
-4.4284	Palace	-0.0001182198
-4.604491	Pandora's	0.0004729728
-4.604491	Parade	0.0001703889
-4.604491	Paris	0.01036268
-4.604491	Paris'	-4.021478e-05
-4.4284	Parkland,	0.001271472
-4.604491	Parkland-like	-3.481594e-05
-4.604491	Parkland.	0.02240585
-4.303461	Part	0.007151678
-4.604491	Parts	0.007249599
-4.604491	Party	-6.180938e-05
-4.604491	Party,	-6.180938e-05
-4.604491	Pathetic.	0.02240585
-4.604491	Patience	0.004824238
-4.4284	Paul	-0.0001182198
-4.604491	Peace	0.01036268
-4.4284	Pearl	-9.270943e-05
-3.563098	People	0.03087602
-3.951278	Perhaps	0.01445171
-4.604491	Perhaps.	0.02240585
-4.4284	Period.	0.02236955
-4.604491	Perry	-5.641084e-05
-4.604491	Personal	-6.180938e-05
-4.4284	Personally,	0.00504655
-4.604491	Pete	-6.180938e-05
-4.604491	Peter	-5.641084e-05
-4.4284	Pew	-4.263118e-05
-4.604491	Phelps,	0.001116665
-4.4284	Phoenix	0.004866298
-4.604491	Pinson.	0.02240585
-4.604491	PirateMk1	-1.322e-05
-4.604491	Plasma	-4.561353e-05
-4.604491	Playing	-5.101221e-05
-4.060422	Please	0.0006113549
-4.4284	Plodowski	0.0003247009
-4.604491	Plodowski,	-6.180938e-05
-4.604491	Plus	0.001322414
-3.951278	Police	0.01091802
-4.604491	Policy	-6.180938e-05
-4.604491	Political	-6.180938e-05
-4.604491	Politicians	0.001176214
-4.604491	Polls	0.002575258
-4.604491	Pollution.	0.02240585
-4.604491	Population	-2.941705e-05
-4.303461	Posse	-0.0001236064
-4.604491	Post	-6.180938e-05
-3.361453	Posted	5.034629e-05
-4.604491	Posthumous	-4.561353e-05
-4.604491	Posts	0.0008406799
-4.604491	Posttraumatic	-5.101221e-05
-4.604491	Potus	0.001647481
-4.604491	Potus.	0.02240585
-4.604491	Power	0.01036268
-4.4284	Power]	-3.332092e-05
-4.604491	Powers	-5.101221e-05
-4.604491	Powers,	0.006503577
-4.604491	Poynter	-4.561353e-05
-4.4284	Poynter,	0.009952892
-4.604491	Precisely.	0.02240585
-4.604491	Preservation	0.007249599
-3.864128	President	0.006945527
-4.4284	President.	0.02236955
-4.604491	Press	-1.322e-05
-4.604491	Presser	-4.021478e-05
-4.604491	Pretend	0.000624344
-4.4284	Pretty	0.0002814692
-4.4284	Prevention	-8.191212e-05
-4.604491	Private	-5.641084e-05
-4.4284	Pro-Gun	-3.872023e-05
-4.604491	Pro-Life	-2.421645e-06
-4.604491	Pro-lifer	0.004824238
-4.604491	Pro.	0.02240585
-4.303461	Probably	0.02007735
-4.604491	Process	-4.561353e-05
-4.604491	Professional	-4.021478e-05
-4.604491	Professionals	0.0003000419
-4.604491	Program	0.0009651222
-4.604491	Prohibiting	-3.481594e-05
-4.604491	Prosecutors	0.004616824
-4.604491	Protect	-4.561353e-05
-4.604491	Protection	-6.180938e-05
-4.4284	Prove	0.01032325
-4.604491	Psych	3.537477e-05
-4.604491	Psychiatrists.	0.02240585
-4.604491	Psychiatrists....	0.02240585
-4.206551	Public	-0.0002472359
-4.604491	Pubs,	0.0004621628
-4.604491	Puerto	-6.180938e-05
-4.604491	Pump	0.006503577
-4.4284	Purchase	-9.270943e-05
-4.604491	Putin	0.001176214
-4.604491	Putting	-6.180938e-05
-4.604491	QUOTE	-5.641084e-05
-4.604491	Query,	0.0003810947
-4.604491	Question	-1.86191e-05
-4.604491	Quicken	-6.180938e-05
-4.604491	Quincy	-6.180938e-05
-4.4284	Quite	-7.502794e-05
-4.604491	Quote	0.0001271798
-4.604491	Quran,	5.157429e-05
-4.604491	Québecois	4.077456e-05
-4.604491	RATHER	0.001598706
-4.604491	REAL/enforced	0.002548103
-4.604491	REALLY	0.0001055769
-4.604491	REALLY?.	0.02240585
-4.604491	REASON	0.0004513529
-4.604491	RIGHT	0.01036268
-4.604491	ROADS.	0.02240585
-4.604491	ROFL.	0.02240585
-4.604491	RPGS,	-6.180938e-05
-4.4284	RPGs	0.009599411
-4.604491	RT	-2.941705e-05
-4.604491	Rachel	-6.180938e-05
-4.604491	Rainman05	-6.180938e-05
-4.604491	Raise	0.01459686
-4.4284	Rambo	-7.502793e-05
-4.604491	Rambos	-2.941705e-05
-4.4284	Rangers	0.0154018
-4.604491	Ranges	-5.641084e-05
-4.604491	Rates	-6.180938e-05
-4.4284	Rather	0.0006004038
-4.604491	Rather,	0.002493795
-4.604491	Rauner	-5.641084e-05
-4.604491	Rayburn	-6.180938e-05
-4.060422	Read	0.01598754
-4.604491	Ready?	0.02240585
-4.127369	Reagan	0.008989787
-4.604491	Real.	0.02240585
-4.604491	Really	0.0003594792
-4.604491	Really,	0.0005540582
-4.303461	Really?	0.02233325
-4.604491	Really?!	0.02240585
-4.604491	Really?.	0.02240585
-4.4284	Reason	0.0004922642
-4.604491	Rebellion	0.0008406799
-4.604491	Rebellions	0.002575258
-4.604491	Regarding	0.01459686
-4.604491	Regardless	0.007249599
-4.4284	Regardless,	0.01968636
-4.604491	Region.	0.02240585
-4.604491	Rejected	0.001246601
-4.604491	Releases	-6.180938e-05
-4.604491	Religion	0.004824238
-4.604491	Religious,	-5.101221e-05
-4.604491	Remember	-6.180938e-05
-4.604491	Remington	-1.86191e-05
-4.604491	Remove	0.0005540582
-4.604491	Removing	0.01459686
-4.604491	Renae	-6.180938e-05
-4.604491	Renaissance	-6.180938e-05
-4.4284	Rep.	-0.0001020234
-4.4284	Repeal	0.02210021
-4.604491	Reply	0.01036268
-4.604491	Reports,	-6.180938e-05
-4.604491	Republic	0.008811613
-4.4284	Republican	-1.023207e-05
-4.604491	Republicanism	0.01036268
-4.303461	Republicans	0.003359809
-4.604491	Republicans.	0.02240585
-4.604491	Repubs	-6.180938e-05
-4.206551	Research	-0.0001353307
-4.604491	Researcher's	0.002575258
-4.604491	Restricted	-5.101221e-05
-4.604491	Reuters.	0.02240585
-4.604491	Review	8.937543e-05
-4.604491	Revolution	0.004824238
-4.604491	Rhode	-5.641084e-05
-4.604491	Richard	-6.180938e-05
-4.604491	Rick	-6.180938e-05
-4.604491	Rico,	-3.481594e-05
-4.604491	Ridiculous	-5.641084e-05
-4.604491	Ridiculous,	0.004616824
-4.604491	Rifle	-4.021478e-05
-4.127369	Right	0.0101718
-4.604491	Right,	0.001316999
-4.604491	Right-wing	-2.941705e-05
-4.4284	Right.	0.02236955
-4.604491	Right......................	0.02240585
-4.206551	Rights	0.003434189
-4.604491	Rights.	0.02240585
-4.604491	Rights."	0.02240585
-4.604491	Rightwingers	-5.101221e-05
-4.604491	Roads.	0.02240585
-4.604491	Robbing	7.857475e-05
-4.604491	Robert	-6.180938e-05
-4.604491	Roberts,	-5.101221e-05
-4.604491	Roberts>	-1.86191e-05
-4.604491	Robinson,	-6.180938e-05
-4.604491	Rodger	0.001647481
-4.604491	Rodger,	-5.641084e-05
-4.4284	Ronnie	0.001163165
-4.604491	Roundtable."	0.02240585
-4.604491	Routine	-4.021478e-05
-4.604491	Rowan	-6.180938e-05
-4.604491	Roy	-6.180938e-05
-4.604491	Rubens,	-6.180938e-05
-4.604491	Rugby....	-6.180938e-05
-4.604491	Ruger,	-6.180938e-05
-4.604491	Run!	0.02240585
-4.303461	Russian	-0.0001476343
-4.604491	S&W,	-5.101221e-05
-4.303461	S.	-0.0001854274
-4.604491	S.A	0.006503577
-4.604491	S230	8.937543e-05
-4.604491	SAD	0.001425326
-4.604491	SALE	-6.180938e-05
-4.604491	SAME	-6.180938e-05
-4.604491	SAW	-5.641084e-05
-4.604491	SCHOOLS	-6.180938e-05
-4.060422	SCOTUS	0.0004328299
-4.604491	SCOTUS.	0.02240585
-4.604491	SHOULD	-5.641084e-05
-4.604491	SHooting	0.008811613
-4.604491	SKS	0.002651305
-4.4284	SO	0.004964609
-4.604491	SOME	-6.180938e-05
-4.604491	STILL	0.000121779
-4.604491	STOP	0.002227788
-4.604491	SUCH	0.008811613
-4.604491	SUGGEST?	0.02240585
-4.604491	SUICIDAL,	0.002651305
-4.604491	SUPPORT	-4.561353e-05
-4.604491	SUV?	0.02240585
-4.604491	Sadly	0.0006946415
-4.604491	Sadly,	0.001116665
-4.604491	Safety	0.0001163782
-4.604491	Safety"	-6.180938e-05
-4.604491	Safety,	-5.101221e-05
-4.604491	Safeway	0.004616824
-4.604491	Salon	-1.86191e-05
-4.604491	Salon.	0.02240585
-4.604491	Sam	-6.180938e-05
-4.303461	Same	3.838334e-05
-4.4284	San	-0.0001236185
-4.604491	Sandra	-6.180938e-05
-4.060422	Sandy	-0.0002780991
-4.604491	Santa	-6.180938e-05
-4.604491	Sasha	0.006503577
-4.604491	Sates	-6.180938e-05
-4.604491	Save	-6.180938e-05
-4.604491	Say	0.0009056016
-4.4284	Saying	0.005235858
-4.604491	Says	0.0001055769
-4.604491	Scalia	0.0001433828
-4.4284	Scalia,	-0.0001074223
-4.604491	Scholorship	-4.561353e-05
-4.303461	School	0.007274615
-4.604491	School,	0.002575258
-4.604491	School.	0.02240585
-4.604491	Schools	0.004616824
-4.604491	Schools.	0.02240585
-4.604491	Science	4.077456e-05
-4.604491	Scotland	0.004824238
-4.604491	Scroll	9.477579e-05
-4.604491	Seattle	0.0001271798
-3.563098	Second	-0.0005273766
-4.604491	Secondly	0.01459686
-4.604491	Secondly,	0.004917061
-4.4284	Section	-0.0001236185
-4.303461	Security	0.01102001
-3.864128	See	0.02102986
-4.604491	See,	0.004917061
-4.604491	Seeing	0.001425326
-4.303461	Seems	0.006051551
-4.604491	Seize	0.0009272448
-4.604491	Semi-auto	-7.820872e-06
-4.604491	Semi-automatic	7.857475e-05
-4.303461	Senate	0.00665991
-4.604491	Senators	-6.180938e-05
-4.604491	Sent	0.0009001915
-4.604491	Sentenced	2.997507e-05
-4.604491	Sentencing	-6.180938e-05
-4.604491	Sentinel	0.0009651222
-4.604491	September	0.000121779
-4.604491	Serial	5.157429e-05
-4.604491	Seriously,	0.0005054052
-4.604491	Seriously?	0.02240585
-4.4284	Service	0.007213301
-4.604491	Sesame	-5.641084e-05
-4.604491	Set	0.0014795
-4.4284	Several	-9.662441e-05
-4.604491	Shame	0.002054157
-4.060422	She	0.002407801
-4.4284	Sheriffs	-7.651337e-05
-4.604491	Sheriff’s	-4.021478e-05
-4.604491	Sherman	0.001593286
-4.303461	Shooting	0.0008724545
-4.604491	Shootings	0.000191995
-4.604491	Shot	-6.180938e-05
-4.604491	Shotguns	0.003048047
-4.4284	Should	0.00252981
-4.604491	Shows	-5.641084e-05
-4.604491	Signs	0.005272156
-4.604491	Silver	-2.941705e-05
-4.4284	Similarly,	0.01937569
-4.604491	Simple	-6.180938e-05
-4.00243	Since	0.02368482
-4.604491	Singapore,	0.0004675677
-4.604491	Single	4.617438e-05
-4.604491	Six	7.317452e-05
-4.604491	Sixty-one	-3.481594e-05
-4.604491	Slave	-6.180938e-05
-4.604491	Slavery,	-3.481594e-05
-4.604491	Slitting	0.0011708
-4.604491	Small	-4.561353e-05
-4.604491	Smart	0.0002190042
-4.4284	Smokers	0.0008043813
-4.604491	Sniper	0.001316999
-4.604491	Snipers	-4.021478e-05
-3.157333	So	0.03260541
-3.864128	So,	0.01445183
-4.604491	So.................	-5.641084e-05
-4.604491	So....handguns,	-4.561353e-05
-4.604491	Social	-7.820872e-06
-4.604491	Socialism	0.003048047
-4.604491	Soldiers	0.002054157
-4.604491	Somalia.	0.02240585
-3.729429	Some	0.008834849
-3.951278	Someone	0.002949829
-4.4284	Something	0.001667022
-4.4284	Sorry	0.01031219
-4.060422	Sorry,	0.007983784
-4.303461	Sorry.	0.02233325
-4.604491	Sorry..	0.02240585
-4.303461	Sounds	-0.0001152375
-4.604491	Source	-5.641084e-05
-4.604491	Source:	8.376988e-06
-4.4284	Souter,	0.006447413
-4.00243	South	0.004099338
-4.604491	Southern	-2.941705e-05
-4.604491	Southwest	-6.180938e-05
-4.604491	Sovereign	-6.180938e-05
-4.604491	Soviet	9.477579e-05
-4.604491	Space	-6.180938e-05
-4.604491	Speaking	0.007249599
-4.604491	Specials.	0.02240585
-4.604491	Speeding	0.004824238
-4.604491	Spring	-5.641084e-05
-4.604491	Stallone	0.006503577
-4.4284	Stamp	0.0006382593
-4.604491	Stamper,	0.008811613
-4.604491	Stanford	-6.180938e-05
-4.604491	Starbucks	0.004824238
-4.00243	State	0.003085713
-4.604491	State,	0.006503577
-4.4284	State.	0.02236955
-4.604491	Statement	0.0009001915
-3.729429	States	0.006466253
-4.060422	States,	0.001628161
-4.060422	States.	0.02222438
-4.604491	Stateâs	-6.180938e-05
-4.604491	Stats	0.003048047
-4.604491	Stephanie	-6.180938e-05
-4.604491	Steve	-5.641084e-05
-4.4284	Stevens,	-0.0001020234
-4.604491	Stick	0.01036268
-4.604491	Still	0.001349494
-4.604491	Stone	-6.180938e-05
-4.4284	Stop	0.01476442
-4.604491	Store	-7.820872e-06
-4.4284	Street	0.005943458
-4.604491	Streets	-2.401813e-05
-4.604491	Stricter	0.002548103
-4.604491	Stubbornness	0.0002622225
-4.604491	Student	-5.641084e-05
-4.604491	Study	-6.180938e-05
-4.604491	Study:	-4.561353e-05
-4.604491	Stuff	0.0008298608
-4.604491	Succeed?	0.02240585
-4.206551	Such	0.01223456
-4.604491	Sudafed.	0.02240585
-4.604491	Suffering	0.006503577
-4.303461	Suicide	0.004737175
-4.604491	Suicides	0.006503577
-4.604491	Sullivan	-5.101221e-05
-4.604491	Sun	-6.180938e-05
-4.4284	Sunday	-3.183178e-05
-4.604491	Support	-2.941705e-05
-4.604491	Supporters	-3.481594e-05
-4.4284	Suppose	0.01734205
-3.759392	Supreme	-0.0004672269
-4.604491	Sure	0.000629751
-4.604491	Sure!!	0.02240585
-4.060422	Sure,	0.01209531
-4.604491	Surely	0.01459686
-4.4284	Surely,	0.008761047
-4.604491	Surprise!	0.02240585
-4.604491	Survey	-6.180938e-05
-4.604491	Sweet	-6.180938e-05
-4.604491	Switzerland	-5.101221e-05
-4.4284	System:	-6.422932e-05
-4.604491	T	-6.180938e-05
-4.604491	T.D.	0.02240585
-4.4284	TD	0.006447413
-4.604491	TD.	0.02240585
-4.604491	THAN	-2.941705e-05
-4.303461	THAT	-0.0001476343
-4.604491	THAT'S	0.0009056016
-4.4284	THE	-0.0001236185
-4.604491	THEM.	0.02240585
-4.604491	THREE	-5.641084e-05
-4.604491	THROUGH....	0.02240585
-4.604491	THUGS	0.004616824
-4.604491	TLDR;	-2.421645e-06
-4.4284	TO	-0.0001182198
-4.604491	TOTAL	0.002548103
-4.604491	TOTALLY	-2.401813e-05
-4.604491	TRAINED	-2.941705e-05
-4.604491	TRULY	-1.322e-05
-4.4284	TV	0.002432049
-4.4284	TV,	0.006469337
-4.604491	TV.	0.02240585
-4.604491	TWICE	0.0001973968
-4.604491	TX	0.0001973968
-4.604491	TYPE	-5.101221e-05
-4.604491	Taipan	0.0004621628
-4.206551	Take	0.02492178
-4.604491	Taking	-5.101221e-05
-4.604491	Tampa	-5.641084e-05
-4.604491	Tapatalk	-6.180938e-05
-4.604491	Tarantino	-4.021478e-05
-4.604491	Target,	0.003048047
-4.604491	Taught	0.001246601
-4.604491	Tea	-6.180938e-05
-4.4284	Teacher	-8.73108e-05
-4.4284	Teachers	0.003011748
-4.604491	Teaching	0.008811613
-4.604491	Tech.	0.02240585
-4.303461	Ted	-0.0001545154
-4.206551	Tell	0.005646469
-4.604491	Terrorist	0.0004621628
-4.604491	Terrorists	0.003048047
-4.604491	Terrorists.	0.02240585
-4.604491	Tex	-5.101221e-05
-3.701401	Texas	0.01601024
-4.303461	Texas,	0.004990333
-4.4284	Texas.	0.02236955
-4.604491	Than	-6.180938e-05
-4.303461	Thank	0.003648385
-4.4284	Thanks	0.002615007
-4.303461	Thanks.	0.02233325
-3.134669	That	0.03535448
-4.604491	That'	0.004824238
-3.262068	That's	0.03498308
-4.303461	Thats	0.004122504
-4.604491	That’s	0.000305445
-2.447639	The	0.003020905
-4.604491	Their	-6.180938e-05
-4.604491	Them	0.0003864989
-3.604491	Then	0.02855078
-4.303461	Then,	0.001887245
-3.079446	There	0.01801988
-4.206551	There's	0.008682949
-4.604491	There,	0.0001109775
-4.604491	Therefor	0.01459686
-4.303461	Therefore,	0.02085867
-4.604491	Therein	-5.641084e-05
-4.604491	There’s	0.008811613
-3.864128	These	0.004139722
-3.099341	They	0.01583748
-4.604491	They'll	9.477579e-05
-4.00243	They're	0.01855236
-4.604491	Thing	-1.322e-05
-4.4284	Things	0.006113204
-4.4284	Think	-0.0001128211
-4.604491	ThinkProgress	0.0009001915
-4.604491	Thinkers.	0.02240585
-3.085977	This	0.008056907
-4.4284	Thomas	-0.0001182198
-4.604491	Thomas,	0.006503577
-3.650248	Those	0.005353188
-4.303461	Though	0.02230043
-4.604491	Though,	6.777432e-05
-4.604491	Thought	0.002493795
-4.604491	Threats	0.006503577
-4.604491	Throw	0.004616824
-4.604491	Thursday,	0.000624344
-4.604491	Thursday.	0.02240585
-4.604491	Times	0.0001055769
-4.4284	Title	-6.962867e-05
-3.759392	To	0.003770857
-4.604491	Today,	0.001116665
-4.604491	Toddlers	6.777432e-05
-4.604491	Tom,	-6.180938e-05
-4.604491	Tombstone,	-4.021478e-05
-4.4284	Tommy	0.001130678
-4.604491	Tons	0.007249599
-4.206551	Too	0.0004714146
-4.604491	Traceability	-5.101221e-05
-4.604491	Tracks	-6.180938e-05
-4.604491	Traditionally,	-5.101221e-05
-4.604491	Travel	-6.180938e-05
-4.604491	Trekker	-6.180938e-05
-4.4284	Trey	-1.563207e-05
-4.4284	Tribune	0.0005517378
-4.604491	Tribune,	0.0004621628
-4.604491	Trippy	-6.180938e-05
-4.604491	Trolling	0.003048047
-4.604491	True	-6.180938e-05
-3.791577	Trump	0.02357922
-4.4284	Trump's	3.297061e-05
-4.604491	Trump.	0.02240585
-4.206551	Try	0.01988597
-4.604491	Turks	0.001127491
-4.4284	Turtle	0.003595737
-4.604491	Turtle.	0.02240585
-4.604491	Turtle?	0.02240585
-3.864128	TurtleDude	0.02215623
-4.604491	Two	-6.180938e-05
-4.604491	Two,	0.000624344
-4.206551	Tyler	0.0002374194
-4.604491	Tzu,	0.005272156
-4.303461	U.	-0.0001236064
-4.303461	U.K	0.004946629
-4.127369	U.S	0.01128494
-3.604491	U.S.	0.04638742
-4.127369	U.S.,	0.01003354
-4.604491	U.S.-Iraq	-6.180938e-05
-4.604491	U.S...	0.02240585
-4.604491	UC	-5.641084e-05
-4.060422	UK	0.00935721
-4.4284	UK,	-0.0001074223
-4.604491	UK.	0.02240585
-3.563098	US	0.01188497
-4.604491	US,	0.001316999
-4.604491	US.	0.02240585
-4.00243	USA	0.008089552
-4.4284	USA,	0.007572465
-4.303461	USA.	0.02233325
-4.604491	USAF	-6.180938e-05
-4.604491	USC,	-5.641084e-05
-4.604491	Uh	-4.021478e-05
-4.604491	Umm..	0.0003540755
-4.604491	Unbelievably	-6.180938e-05
-4.604491	Uncle	-6.180938e-05
-4.127369	Under	0.02065679
-4.604491	Understand?.	0.02240585
-4.604491	Unfettered	1.377641e-05
-4.604491	Unified	-6.180938e-05
-4.604491	Uniform	-3.481594e-05
-4.4284	Union	0.0006220352
-4.604491	Union,	-5.101221e-05
-3.507581	United	-0.0008482572
-4.4284	University	0.007213301
-4.604491	Unless	0.002493795
-4.604491	Unless,	0.007249599
-4.604491	Unlikely.	0.02240585
-4.303461	Until	0.002419183
-4.604491	Us	0.002548103
-4.4284	Use	0.001184824
-4.604491	Using	-3.481594e-05
-4.604491	Usually	-1.322e-05
-4.4284	Utah	0.0004544218
-4.604491	Utopian	-7.820872e-06
-4.604491	Uzeta,	0.01036268
-4.604491	Uzi?	0.02240585
-4.4284	VIOLENT	-3.723149e-05
-4.604491	VP	-4.561353e-05
-4.604491	VS	0.0008677297
-4.604491	Valentines	-6.180938e-05
-4.303461	Vance	0.005053963
-4.604491	Vancouver	0.01036268
-4.303461	Vegas	-7.230901e-06
-4.604491	Vegas.	0.02240585
-4.604491	Vermont	0.001593286
-4.303461	Very	-1.829868e-06
-4.604491	Vice	-1.322e-05
-4.604491	Victimization	-6.180938e-05
-4.604491	Victims"	8.937543e-05
-4.604491	Victims,	-5.101221e-05
-4.604491	Video	0.001316999
-4.604491	Vietnam	-4.561353e-05
-4.604491	View	-4.561353e-05
-4.604491	Vigilance	0.007249599
-4.206551	Violence	0.006148761
-4.604491	Violent	7.317452e-05
-4.604491	Virginia	-6.180938e-05
-4.604491	Virtually	8.376988e-06
-4.604491	Voth's	-6.180938e-05
-4.604491	WANTED.	0.02240585
-4.4284	WASP	-0.0001236185
-4.604491	WASPS	0.01036268
-4.604491	WAY	-1.86191e-05
-4.4284	WE	0.00252981
-4.604491	WEAPONS	0.002651305
-4.604491	WHAT	-5.641084e-05
-4.604491	WHICH	-5.101221e-05
-4.604491	WHOLE	4.077456e-05
-4.4284	WHY	-0.0001236185
-4.604491	WINNING.	0.02240585
-4.604491	WITHOUT	-6.180938e-05
-4.303461	WMD	0.00464081
-4.604491	WMDs?.	0.02240585
-4.604491	WOULD	8.376988e-06
-4.604491	WTF	0.003048047
-4.604491	WWI	0.001316999
-4.604491	Wait	0.008811613
-4.4284	Wait,	0.0003679368
-4.604491	Waiting	-6.180938e-05
-4.604491	Wake	0.01459686
-4.4284	Walczak	0.0002151189
-4.604491	Wallace	0.0004621628
-4.604491	Wallace,	0.0005432456
-4.604491	Walmart	0.001316999
-4.604491	Wanna	0.0005054052
-4.206551	War	0.001240011
-4.604491	War,	0.0002568199
-4.303461	Warning:	0.0001926521
-4.206551	Was	0.003412411
-4.00243	Washington	0.0116865
-4.604491	Washington,	-6.180938e-05
-4.604491	Washington.I	0.0001811919
-4.604491	Washington.and	-4.021478e-05
-4.4284	Water	-0.0001182198
-4.206551	Wayne	-0.0002055232
-3.165158	We	0.02522962
-4.604491	We'd	0.002575258
-4.604491	We'll	0.0008893706
-4.4284	We're	0.001033232
-4.604491	Weapon	-6.180938e-05
-4.604491	Weapons	-5.101221e-05
-4.604491	Weapons.	0.02240585
-4.4284	Welcome	0.01032638
-4.604491	Welfare	-4.561353e-05
-3.826339	Well	0.01871831
-3.759392	Well,	0.01572629
-4.604491	Well-armed?	0.02240585
-4.604491	Well...that	0.001316999
-4.604491	Welling	0.008811613
-4.604491	Were	0.0003540755
-4.604491	West	0.002548103
-4.604491	West,	0.0003810947
-4.604491	West?	0.02240585
-4.4284	Western	-5.882986e-05
-3.173127	What	0.05499018
-4.206551	What's	0.01454938
-4.604491	What,	-6.180938e-05
-4.4284	Whatever	0.0001139871
-4.604491	Whats	0.002624144
-3.675072	When	0.02999818
-4.604491	Whenever	0.008811613
-4.00243	Where	0.001492633
-4.4284	Where's	0.01456056
-4.206551	Whether	0.02568709
-4.060422	Which	0.006264566
-4.206551	While	0.008764636
-4.206551	White	-0.0002001242
-4.060422	Who	0.009621437
-3.325737	Why	0.02147941
-4.604491	Wiersema	-6.180938e-05
-4.604491	Wiki:	-6.180938e-05
-4.303461	Wikipedia,	0.01452426
-4.604491	Wikipedia.	0.02240585
-4.604491	Wild	-6.180938e-05
-4.604491	Will	0.002493795
-4.604491	William	-6.180938e-05
-4.604491	Willis	-4.561353e-05
-4.604491	Winchester	-5.101221e-05
-4.604491	Windsor	-2.401813e-05
-4.4284	Wintemute,	0.001054885
-4.604491	Wis.,	0.0001271798
-3.826339	With	0.03099028
-4.604491	Within	-5.641084e-05
-4.303461	Without	0.01471975
-4.604491	Witnesses	0.0009651222
-4.604491	Women	0.003048047
-4.604491	Woohoo!.	0.02240585
-4.4284	World	-0.0001074223
-4.604491	Worth,	1.377641e-05
-4.206551	Would	0.004846707
-4.604491	Wow!!!	0.02240585
-4.604491	Wowwwwwwwww	-4.561353e-05
-4.604491	Wrestlers	0.003048047
-4.604491	Wrestling	-4.561353e-05
-4.604491	Wrong.	0.02240585
-4.604491	Wyoming	-5.101221e-05
-4.604491	X	0.0001325807
-4.604491	YES,	2.997507e-05
-4.4284	YOU	-0.0001236185
-4.604491	YOU'RE	0.0002082004
-4.4284	YOUR	-0.0001020234
-4.4284	YOu	0.003018941
-4.604491	Ya	0.0008298608
-4.604491	Ya,	0.001116665
-4.604491	Yea	0.006503577
-4.4284	Yea,	0.005068404
-4.4284	Yeah	0.00243205
-4.303461	Yeah,	0.002451772
-4.604491	Yep,	0.004917061
-4.604491	Yer	-6.180938e-05
-4.127369	Yes	0.003939125
-3.701401	Yes,	0.0134578
-4.604491	Yes..	0.003760919
-4.060422	Yet	0.01598778
-4.4284	Yo	0.002513515
-4.303461	York	0.0003872213
-4.604491	York,	0.01459686
-4.604491	Yorkers.	0.02240585
-2.771982	You	0.03100642
-3.791577	You're	0.006116159
-4.4284	You've	0.0002151189
-4.604491	You,	0.002054157
-4.4284	YouTube	0.006595424
-4.604491	Young	-6.180938e-05
-3.507581	Your	0.002906859
-4.604491	Youre	0.002624144
-4.604491	Zones	-5.641084e-05
-4.604491	Zoo	-6.180938e-05
-4.604491	Zoo's	-1.86191e-05
-4.604491	[/QUOTE	-6.180938e-05
-4.604491	[/QUOTE]no	0.0008731399
-4.604491	[17]	0.0014795
-4.604491	[18]	-2.941705e-05
-4.604491	[19]	-5.641084e-05
-4.604491	[22]	0.0014795
-4.00243	[42]	0.0004630047
-4.604491	[42]:	-6.180938e-05
-4.604491	[43]:	-6.180938e-05
-4.604491	[Dallas]	-5.101221e-05
-4.604491	[QUOTE=DebateChallenge;1069406849]The	-2.941705e-05
-4.604491	[QUOTE=MMC;1061707655]	0.000624344
-4.604491	[QUOTE=Unitedwestand13;1061688465]	0.004917061
-4.604491	[QUOTE=jaeger19;1065186486]	0.0006946415
-4.604491	[Sec	-6.180938e-05
-4.604491	[fighting	0.01036268
-4.604491	[for]	0.008811613
-4.604491	[in	-6.180938e-05
-4.604491	[of]	-6.180938e-05
-4.604491	[the	-5.641084e-05
-4.604491	[to	0.0001055769
-4.604491	^	-6.180938e-05
-1.6936	a	-0.02768959
-4.604491	a)	-2.401813e-05
-4.604491	a.m	0.005272156
-4.604491	abandoned	0.01459686
-4.604491	abe	0.01036268
-4.604491	abiders.	0.02240585
-3.905521	abiding	0.001307332
-3.791577	ability	0.02249731
-4.604491	ability,	-6.180938e-05
-4.604491	abject	-6.180938e-05
-4.604491	ablaze.	0.02240585
-3.458363	able	0.009419898
-4.604491	abominable	-2.421645e-06
-4.604491	abound	-6.180938e-05
-2.569061	about	0.08029694
-4.060422	about.	0.02222438
-4.4284	about?	0.02236955
-4.604491	about?.	0.02240585
-4.303461	above	0.02000947
-4.604491	above,	0.008811613
-4.4284	above.	0.02236955
-4.604491	abridge	0.01459686
-4.604491	abridged	0.001322414
-4.206551	absence	0.007140712
-4.604491	absence.	0.02240585
-4.4284	absent	-0.0001128211
-4.00243	absolute	0.0009935104
-4.604491	absolute,	0.006503577
-4.060422	absolutely	0.001040627
-4.604491	abstract	5.697426e-05
-4.303461	absurd	0.01028936
-4.303461	absurd.	0.02233325
-4.303461	abuse	0.02206392
-4.604491	abused	0.002493795
-4.604491	abused,	0.001316999
-4.604491	abusers	-5.101221e-05
-4.604491	abusive	0.007249599
-4.060422	accept	0.02100597
-4.604491	acceptable	-2.941705e-05
-4.303461	acceptable.	0.02233325
-4.604491	accepting	0.008811613
-3.701401	access	0.02574491
-4.604491	access,	-6.180938e-05
-4.604491	accessible	0.01036268
-4.604491	accessories	-1.86191e-05
-4.604491	accessories'	-5.641084e-05
-4.604491	accident	0.001593286
-4.604491	accident.	0.02240585
-4.060422	accidental	0.002500451
-4.604491	accidental,	0.000121779
-4.4284	accidentally	0.0001193887
-4.604491	accidentally.	0.02240585
-4.206551	accidents	0.005338622
-4.604491	acclaim	0.001246601
-4.604491	accommodate	-2.401813e-05
-4.303461	accompany	0.0001386206
-4.604491	accomplice	0.01036268
-4.4284	accomplish	-0.0001128211
-3.759392	according	0.009927293
-4.4284	account	0.002615007
-4.604491	accountable	0.001322414
-4.604491	accounted	0.002651305
-4.4284	accounts	0.002615007
-4.604491	accuracy	0.001593286
-4.4284	accurate	0.004555131
-4.604491	accurate.	0.02240585
-4.604491	accurately	4.617438e-05
-4.4284	accusation	0.001509842
-4.604491	accusations	0.002227788
-4.4284	accused	0.007528506
-4.604491	accusing	0.0004405431
-4.604491	aced	-6.180938e-05
-4.604491	acess	0.001181628
-4.604491	acheivement.	0.02240585
-4.604491	achieve	0.0009056016
-4.604491	achieved	0.0003000419
-4.604491	achieved?.	0.02240585
-4.604491	achievements.	0.02240585
-4.127369	acknowledge	0.02148483
-4.604491	acknowledged	0.005272156
-4.604491	acquaintances	0.001593286
-4.4284	acquiring	0.009036646
-4.604491	acquisition,	-6.180938e-05
-4.604491	acronym	-6.180938e-05
-3.905521	across	0.01483182
-4.604491	across:	0.0004027115
-3.650248	act	0.02504337
-4.4284	acting	0.005456492
-4.604491	acting.	0.02240585
-3.626767	action	0.05821544
-4.604491	action,	0.004917061
-4.060422	actions	0.02027501
-4.604491	actions.	0.02240585
-4.604491	actions...we	0.003048047
-4.604491	actions?	0.02240585
-4.604491	activated	0.01036268
-4.604491	active	-5.641084e-05
-4.604491	activist	-5.641084e-05
-4.4284	activities	0.004707957
-4.604491	activities.	0.02240585
-4.604491	activities...	0.0001649875
-4.127369	activity	0.01833989
-4.4284	activity.	0.02236955
-4.206551	acts	0.001406363
-4.604491	acts,	0.0003540755
-4.604491	acts.	0.02240585
-4.00243	actual	-0.000340862
-3.224279	actually	0.02340279
-4.604491	actually,	0.001598706
-4.604491	acute--would	-2.941705e-05
-4.127369	ad	-0.0002472116
-4.604491	adage	-6.180938e-05
-4.604491	adamant	0.005272156
-4.4284	adapt	0.0007788934
-4.00243	add	0.02138503
-4.4284	added	0.01040068
-4.604491	added,	0.000629751
-4.604491	addiction	0.01036268
-4.604491	addicts	0.001116665
-4.4284	addicts,	0.006469337
-4.4284	adding	0.005210481
-4.604491	addition	0.01036268
-4.303461	additional	-0.0001368356
-4.060422	address	0.03137072
-4.4284	addressed	0.0103509
-4.604491	addressed.	0.02240585
-4.4284	addressing	0.01582164
-4.4284	adds	0.001585715
-4.604491	adequate	0.002651305
-4.604491	adequately	8.397504e-05
-4.604491	adhere	0.01036268
-4.604491	adhering	0.01036268
-4.604491	adjustable	-6.180938e-05
-4.4284	adjusted	0.003906219
-4.604491	adjusting	0.01036268
-4.604491	administration	0.002651305
-4.4284	administration.	0.02236955
-4.604491	administrative	-6.180938e-05
-4.604491	admissible	6.237422e-05
-4.127369	admit	0.02060246
-4.604491	admit.	0.02240585
-4.303461	admitted	0.02491231
-4.604491	adolescents.	0.02240585
-4.604491	adopted	0.0005432456
-4.604491	adopting	-7.820872e-06
-4.604491	ads.	0.02240585
-4.604491	adult	0.006503577
-4.604491	adults,	0.002624144
-4.4284	advance	0.006189884
-4.4284	advanced	0.0006653007
-4.604491	advanced.	0.02240585
-4.4284	advantage	0.007803324
-4.604491	advantages	0.006503577
-4.604491	advantages:	6.237422e-05
-4.604491	advent	0.007249599
-4.604491	adversely	-5.641084e-05
-4.4284	advertisement	0.005221412
-4.4284	advertises	-9.270943e-05
-4.4284	advice	0.004669745
-4.604491	advisory	-6.180938e-05
-4.604491	advocacy	-1.86191e-05
-4.127369	advocate	0.01329425
-4.206551	advocates	0.00344508
-4.604491	advocates,	0.0001595862
-4.4284	advocating	0.01723527
-4.604491	affairs	-5.641084e-05
-4.604491	affairs.	0.02240585
-4.4284	affect	0.0009612924
-4.4284	affiliation	0.002191489
-4.604491	affiliation.	0.02240585
-4.604491	affirmed.	0.02240585
-4.604491	affliction	-4.021478e-05
-4.00243	afford	0.03736425
-3.905521	afraid	0.02307316
-4.604491	afraid?.	0.02240585
-3.387007	after	0.02546663
-4.604491	afterall.	0.02240585
-4.604491	aftermath	0.007249599
-3.701401	again	0.04369969
-4.060422	again,	0.01461369
-4.00243	again.	0.0221881
-4.604491	again...'.	0.02240585
-4.604491	again......left	-5.641084e-05
-4.604491	agains	1.377641e-05
-3.215325	against	0.03875292
-4.206551	age	0.01118874
-4.604491	age,	-5.101221e-05
-4.604491	agenda	-5.641084e-05
-4.604491	agenda).	0.02240585
-4.604491	agenda.	0.02240585
-4.060422	agents	0.00117446
-4.604491	ages	0.003048047
-4.604491	aggravated	0.0001055769
-4.604491	aggression...	-5.101221e-05
-4.4284	aggressive	0.01119234
-4.604491	aggressive..	0.0006946415
-4.604491	agitated.	0.02240585
-4.303461	ago	0.007219695
-4.4284	ago,	0.002014101
-4.206551	ago.	0.02229696
-4.604491	agrarian	0.0001433828
-3.314456	agree	0.02028562
-4.604491	agree"	0.002227788
-4.604491	agree,	0.001349494
-4.303461	agree.	0.02233325
-4.4284	agreed	0.01264656
-4.303461	agreement	0.004788231
-4.604491	agrees	0.002227788
-4.4284	ahead	0.00724288
-4.604491	ahead.	0.02240585
-4.604491	ahold	0.007249599
-4.604491	aid,	0.0003864989
-4.604491	aiding	7.317452e-05
-4.127369	aim	0.02286651
-4.604491	aiming	0.006503577
-4.303461	ain't	0.0002250743
-4.4284	air	0.006441932
-4.604491	air,	-5.101221e-05
-4.4284	aircraft,	-0.0001128211
-4.604491	aircraft;	-6.180938e-05
-4.604491	airplane	-6.180938e-05
-4.604491	airplanes,	-6.180938e-05
-4.604491	airport	-6.180938e-05
-4.604491	airports.	0.02240585
-4.604491	ak47.	0.02240585
-4.604491	akin	0.01036268
-4.604491	al)	0.002575258
-4.604491	al.	0.02240585
-4.604491	alarm,	7.317452e-05
-4.604491	alarming	-6.180938e-05
-4.604491	alas..it	-3.481594e-05
-4.4284	albeit	0.00217689
-4.206551	alcohol	0.003488642
-4.4284	alcohol,	0.006869652
-4.4284	alcohol.	0.02236955
-4.604491	alcoholics,	0.006503577
-4.604491	algebra.	0.02240585
-4.604491	alien	-5.641084e-05
-4.604491	aliens?.	0.02240585
-4.604491	alive	0.000629751
-2.638349	all	0.1036903
-4.604491	all)	0.004824238
-3.791577	all,	0.01849896
-4.604491	all,"	2.997507e-05
-4.604491	all-in,	0.0001487838
-3.791577	all.	0.02200673
-4.604491	all.".	0.02240585
-4.604491	all..	0.000629751
-4.604491	all...	-2.421645e-06
-4.604491	all..so	0.001598706
-4.303461	all?	0.02233325
-4.604491	alleged	-6.180938e-05
-4.604491	allergen	0.01036268
-4.604491	allies.	0.02240585
-3.474157	allow	0.04216579
-3.490547	allowed	0.0188516
-4.206551	allowing	0.01609106
-4.00243	allows	0.009806186
-4.604491	alluded	0.01036268
-4.4284	allure	0.007213301
-3.563098	almost	0.01068726
-4.303461	alone	0.02931606
-4.604491	alone,	-5.101221e-05
-4.4284	alone.	0.02234461
-4.060422	along	0.01676733
-4.604491	alongside	0.002548103
-3.303461	already	0.02255335
-4.604491	already,	0.0006946415
-4.4284	already.	0.02236955
-3.007894	also	0.04320927
-4.4284	alter	0.01563126
-4.604491	altercation	0.004616824
-4.604491	altered	0.001246601
-4.604491	alternative	-5.101221e-05
-4.604491	alternatively,	-1.86191e-05
-4.00243	although	0.0167992
-4.604491	altruistic	-6.180938e-05
-3.443123	always	0.01249485
-3.173127	am	0.03757493
-4.604491	am.	0.02240585
-4.604491	amazing	0.01036268
-4.4284	amended	0.01509418
-4.604491	amended.	0.02240585
-4.604491	amending	0.000629751
-3.387007	amendment	0.03895869
-4.604491	amendment's	2.97767e-06
-4.206551	amendment,	0.002350304
-4.00243	amendment.	0.0221881
-4.604491	amendment?	0.02240585
-4.4284	amendment?.	0.02236955
-4.604491	amendments,	0.0003864989
-4.604491	amendments.	0.02240585
-4.604491	america	0.001073361
-4.4284	american	0.003835388
-4.604491	american's	0.003048047
-4.303461	ammendment	0.005887276
-4.604491	ammendment.	0.02240585
-4.604491	ammendment?	0.02240585
-4.060422	ammo	0.009019697
-4.4284	ammo.	0.02236955
-4.060422	ammunition	0.003294423
-4.604491	ammunition,	0.006503577
-4.303461	ammunition.	0.02233325
-4.604491	amnesty	0.006503577
-4.604491	amo	0.002054157
-4.060422	among	0.01510853
-3.905521	amount	0.01753789
-4.604491	amount,	0.01459686
-4.604491	amount.	0.02240585
-4.604491	amounted	0.01036268
-4.303461	amounts	0.0177556
-4.4284	ample	3.297057e-05
-4.604491	amusement.	0.02240585
-4.4284	amusing	0.01421725
-4.604491	amusing.	0.02240585
-2.573082	an	-0.007671176
-4.604491	analogous	-6.180938e-05
-4.604491	analogous.	0.02240585
-4.604491	analogues.	0.02240585
-4.4284	analogy	0.004768011
-4.604491	analogy)	4.617438e-05
-4.604491	analyse	0.01459686
-4.604491	analysis,	-5.641084e-05
-4.604491	anarchy,where	0.0006946415
-4.604491	anarchy-driven	9.477579e-05
-4.604491	anarchy?.	0.02240585
-4.4284	ancient	0.0006004039
-1.823094	and	0.1537279
-4.303461	and,	0.007126348
-4.127369	and/or	-9.302841e-05
-4.604491	anecdotes	0.007249599
-4.604491	angels	0.001316999
-4.303461	anger	0.001486009
-4.604491	anger.	0.02240585
-4.604491	angle	-6.180938e-05
-4.303461	angry	0.001491429
-4.604491	angry.	0.02240585
-4.4284	announced	0.002457496
-4.604491	announcements,	0.007249599
-4.604491	announces	0.008811613
-4.604491	annoyed	0.001246601
-4.604491	annoying	0.004824238
-4.604491	annual	-3.481594e-05
-4.604491	annually	-6.180938e-05
-4.604491	anomaly	0.004616824
-4.604491	anomaly.	0.02240585
-4.4284	anonymous	-0.0001236185
-4.604491	anonymously	0.0002352106
-4.604491	anorexia	0.006503577
-4.604491	anorexia??)	0.02240585
-4.604491	anorexic	0.0001703889
-3.414159	another	0.02686257
-4.4284	another,	0.007638412
-4.206551	another.	0.02229696
-4.604491	another......if	-7.820872e-06
-3.759392	answer	0.03481717
-4.206551	answer.	0.02229696
-4.604491	answer:	-5.101221e-05
-4.4284	answered	0.0001896162
-4.604491	answered,	0.001316999
-4.604491	answered.	0.02240585
-4.604491	answering	8.937543e-05
-4.604491	answers,	0.001316999
-4.604491	anti	0.002548103
-4.4284	anti-Democratic.	0.02236955
-4.604491	anti-Gay?	0.02240585
-4.604491	anti-Obama	-5.641084e-05
-4.604491	anti-abortionists,	-5.641084e-05
-4.604491	anti-aircraft	0.0001163782
-4.303461	anti-gun	-7.743827e-05
-4.604491	anti-gun,	0.001349494
-4.604491	anti-gun.	0.02240585
-4.604491	anti-smoking	-6.180938e-05
-4.604491	anticipate	0.008811613
-4.604491	anticipating	-6.180938e-05
-4.604491	anxiety	0.0006946415
-4.604491	anxious	-6.180938e-05
-2.738203	any	0.01956276
-4.4284	any,	0.0007788934
-4.00243	anybody	0.01619851
-4.4284	anymore,	0.007034271
-4.4284	anymore.	0.02236955
-3.387007	anyone	0.0465238
-4.303461	anyone's	-0.0001530335
-4.4284	anyone,	0.01032325
-4.4284	anyone.	0.02236955
-4.604491	anyone?.	0.02240585
-4.604491	anyones	4.077456e-05
-3.443123	anything	0.02811728
-4.604491	anything)	-2.941705e-05
-4.604491	anything,	0.006503577
-3.791577	anything.	0.02200673
-4.604491	anything?.	0.02240585
-4.303461	anyway	0.008352446
-4.604491	anyway,	0.0005054052
-4.060422	anyway.	0.02222438
-4.604491	anyway?	0.02240585
-4.604491	anyways,	-5.641084e-05
-4.604491	anyways?	0.02240585
-4.060422	anywhere	0.007239293
-4.604491	anywhere,	0.0001487838
-4.604491	apache	-6.180938e-05
-4.303461	apart	0.026184
-4.4284	apartment	0.0005895886
-4.604491	ape****.	0.02240585
-4.060422	apparently	0.0005101082
-4.604491	apparently.	0.02240585
-4.00243	appeal	0.03069022
-4.604491	appealed	0.006503577
-4.604491	appealing	0.01036268
-4.604491	appeals	0.01036268
-4.303461	appear	0.0309196
-4.604491	appearing	0.0008298608
-4.206551	appears	0.01212643
-4.604491	appetite	0.002227788
-4.604491	apples	0.01036268
-4.604491	apples"	0.0008352704
-4.604491	applicants	0.01036268
-4.604491	application	0.01036268
-4.060422	applied	0.01293236
-4.127369	applies	0.0102175
-3.951278	apply	0.02319851
-4.303461	appointed	0.01086492
-4.604491	appreciate	0.0011708
-4.604491	apprehension	0.001100426
-4.060422	approach	0.03063372
-4.303461	approach.	0.02233325
-4.604491	approached	0.01459686
-4.604491	approaches	0.01036268
-4.4284	appropriate	-8.582632e-05
-4.4284	appropriate.	0.02236955
-4.604491	appropriately	0.01036268
-4.604491	appropriately,	0.001598706
-4.604491	approve,	0.01459686
-4.604491	approved	0.01036268
