
\data\
ngram 1=12752
ngram 2=45977

\1-grams:
-4.341909	!	0.0230315
-4.466848	!!	0.02306555
-4.466848	!!!	0.02306555
-4.642939	!.	0.02309961
-4.244999	"	0.0291155
-4.642939	"'Smart'	-4.835481e-05
-4.642939	","	0.001471258
-4.642939	"....their	1.060276e-06
-4.642939	"...Ok,	0.0008568328
-4.642939	"...There	5.048099e-05
-4.642939	"...don't	0.0005252064
-4.642939	"...thus	0.01448207
-4.642939	"1:	0.001471258
-4.642939	"355	0.0002877789
-4.642939	"AR-15	-5.823717e-05
-4.642939	"Ah..I	-4.835481e-05
-4.642939	"Ah..it's	3.565418e-05
-4.466848	"All	-5.223335e-05
-4.642939	"Anything	0.005171175
-4.642939	"Are"	-5.823717e-05
-4.642939	"Arms"..like	-4.835481e-05
-4.642939	"As	9.990737e-05
-4.642939	"BAD	-5.823717e-05
-4.642939	"Baby	0.001892939
-4.642939	"Coward	0.001892939
-4.642939	"Democrat	-3.881475e-06
-4.642939	"ERMAGERD	-5.823717e-05
-4.642939	"Educated".	0.02309961
-4.642939	"Education"	0.006633921
-4.642939	"Fox	-8.823187e-06
-4.642939	"Fun	0.004601438
-4.642939	"GUN	-5.823717e-05
-4.642939	"Going	-5.823717e-05
-4.642939	"Gun"	0.0001345091
-4.642939	"Hell	-5.823717e-05
-4.642939	"Hey	-5.823717e-05
-4.642939	"Hey,	0.004077341
-4.466848	"How	0.01552921
-4.642939	"Hurting"	0.00158036
-4.244999	"I	0.0003851741
-4.642939	"I'm	0.002757425
-4.642939	"In	-4.835481e-05
-4.642939	"My	-5.823717e-05
-4.642939	"NO..NO...you	0.0001443959
-4.642939	"One	0.007377197
-4.642939	"Oooh,	0.001203579
-4.642939	"Or	0.00494619
-4.466848	"POS	-8.735164e-05
-4.642939	"People"	0.00494619
-4.642939	"Please	-5.823717e-05
-4.642939	"RUN"	0.006633921
-4.642939	"Reasonable	0.002672888
-4.642939	"Revolution"	0.001669645
-4.642939	"Right	0.009928052
-4.642939	"Rule	-5.823717e-05
-4.642939	"Since	-5.823717e-05
-4.642939	"Smart"	5.048099e-05
-4.165818	"The	8.398996e-05
-4.642939	"There	0.00494619
-4.642939	"They're	1.588588e-05
-4.642939	"This	1.094398e-05
-4.642939	"Those	0.0009162551
-4.642939	"Watch	0.0004757315
-4.466848	"We	0.003246667
-4.642939	"We're	0.0001147363
-4.642939	"Well-Regulated"	0.004601438
-4.466848	"What	0.001487442
-4.642939	"Why	5.542338e-05
-4.642939	"Yeah,	0.001109435
-4.642939	"Yer	0.0007231619
-4.642939	"Yes	0.001203579
-4.642939	"Yet"?	0.02309961
-4.642939	"You	0.0001443959
-4.642939	"[3]	0.001471258
-4.642939	"[7]	0.001471258
-4.642939	"a	-4.835481e-05
-4.466848	"accidents"	0.002589852
-4.642939	"accused"	0.001263049
-4.642939	"across	0.001471258
-4.642939	"ambush"	0.001669645
-4.642939	"an	0.0001048503
-4.642939	"analysis"	0.007377197
-4.642939	"anti-colonial"	0.006633921
-4.642939	"any	-5.823717e-05
-4.642939	"article."	0.02309961
-4.165818	"assault	4.991834e-05
-4.466848	"assault"	-7.753446e-06
-4.642939	"awarded	-5.823717e-05
-4.642939	"ban"	0.005406285
-4.642939	"banning	0.000183945
-4.642939	"bearable	-5.823717e-05
-4.642939	"big"	0.00494619
-4.642939	"bill	0.007377197
-4.642939	"can't	-5.823717e-05
-4.642939	"causational	-5.823717e-05
-4.642939	"cause"	0.00494619
-4.642939	"combat."	0.02309961
-4.642939	"comparable	0.009928052
-4.642939	"conditions	0.006633921
-4.642939	"cooling	0.0001443959
-4.642939	"criticize	0.0001295658
-4.642939	"crowd,"	0.001203579
-4.642939	"deadly"	0.0006489179
-4.642939	"death	0.001263049
-4.642939	"democrat	-5.823717e-05
-4.642939	"dislike"	0.007377197
-4.642939	"diss"	0.0001542828
-4.466848	"don't	0.000387824
-4.642939	"double	-4.835481e-05
-4.642939	"easily	-4.835481e-05
-4.642939	"elevating	-5.329603e-05
-4.642939	"emotion",	0.006633921
-4.642939	"every	1.588588e-05
-4.466848	"everyone	0.005023048
-4.642939	"evidence"	0.001109435
-4.642939	"excellent	0.0001048503
-4.642939	"faux	-5.823717e-05
-4.642939	"fire"	0.004601438
-4.466848	"freedom"	0.009870046
-4.642939	"freedom",	-5.823717e-05
-4.642939	"freedom"?	0.02309961
-4.642939	"freedumb"	0.009928052
-4.642939	"freedumb"?.	0.02309961
-4.642939	"friends	-5.823717e-05
-4.642939	"global	-5.823717e-05
-4.165818	"gun	-0.0002620535
-4.244999	"guns	0.003937837
-4.642939	"guns."	0.02309961
-4.642939	"handguns."	0.02309961
-4.642939	"harassment?"	0.02309961
-4.642939	"hate	-5.823717e-05
-4.466848	"hazardous	-0.0001164741
-4.642939	"hero	0.001892939
-4.642939	"hero"	0.00494619
-4.642939	"hero,	0.0002581095
-4.642939	"hey,	-1.376485e-05
-4.642939	"highly	-3.847224e-05
-4.642939	"ho-hum,	8.013612e-05
-4.642939	"honest	-5.823717e-05
-4.642939	"hopes,	-5.823717e-05
-4.642939	"hysterical"	5.048099e-05
-4.642939	"if	-4.341356e-05
-4.642939	"illegal"	0.001144117
-4.642939	"jews"	-3.847224e-05
-4.642939	"join	0.01448207
-4.642939	"joke"	-4.835481e-05
-4.642939	"just	0.004601438
-4.642939	"kawnstitution"	-3.847224e-05
-4.466848	"keep	0.006599865
-4.642939	"keeps	0.004601438
-4.642939	"killing"	-3.35309e-05
-4.642939	"knowledge	-4.341356e-05
-4.341909	"law	0.006586948
-4.642939	"legal	0.002672888
-4.642939	"legally	-4.835481e-05
-4.642939	"libertarian"	0.001892939
-4.642939	"load	-5.823717e-05
-4.642939	"lying"	-3.847224e-05
-4.642939	"mass	-5.823717e-05
-4.642939	"mental	-5.823717e-05
-4.642939	"more	0.0006489179
-4.642939	"moronic"	-5.329603e-05
-4.642939	"mortality"	0.006633921
-4.642939	"necessary?"	0.02309961
-4.642939	"negative/positive	-5.329603e-05
-4.642939	"negligence".	0.02309961
-4.642939	"negligent"	4.553867e-05
-4.642939	"never	0.0007281117
-4.466848	"no	6.638983e-05
-4.341909	"not	0.02314582
-4.642939	"nothing,	0.0008370269
-4.642939	"objectionally."	0.02309961
-4.642939	"oh,	0.001431591
-4.642939	"operational	-5.823717e-05
-4.642939	"opinion"	0.000203721
-4.642939	"or	0.0003471235
-4.642939	"pets"	0.002692777
-4.642939	"populist"	0.001545642
-4.642939	"postal"	-5.823717e-05
-4.642939	"pre	-5.823717e-05
-4.642939	"pro	-5.823717e-05
-4.642939	"progress"?	0.02309961
-4.642939	"propose"	0.000203721
-4.642939	"putting	0.00040153
-4.642939	"reasonable."	0.02309961
-4.642939	"regular"	0.001144117
-4.642939	"regulated"	5.048099e-05
-4.642939	"regulating"	0.0009954982
-4.642939	"republican	-5.823717e-05
-4.642939	"respects"	0.005171175
-4.642939	"retard"	0.00158036
-4.642939	"ridiculous	0.0001740575
-4.642939	"rifle"	0.0007281117
-4.341909	"right	0.009837321
-4.341909	"right"	0.008988645
-4.642939	"rights"	-4.341356e-05
-4.642939	"rule"	1.588588e-05
-4.642939	"seems	0.0008518813
-4.642939	"sitting	-5.823717e-05
-4.642939	"soldiers"	0.0002927239
-4.642939	"solution",	0.001669645
-4.642939	"some",	0.006633921
-4.642939	"studies"	0.005171175
-4.466848	"supervised"	0.006545731
-4.642939	"surgical	-5.823717e-05
-4.642939	"taking	0.01448207
-4.341909	"the	0.0007701123
-4.642939	"their	-5.329603e-05
-4.642939	"these	0.0003471235
-4.642939	"to	-1.870643e-05
-4.642939	"totally	-5.823717e-05
-4.642939	"understands"	0.000357015
-4.642939	"unloaded	0.006633921
-4.642939	"unloaded,	-5.823717e-05
-4.642939	"unusual	0.006633921
-4.642939	"violence"	-5.823717e-05
-4.642939	"violent	-1.376485e-05
-4.642939	"want	0.009928052
-4.642939	"we	0.0007033622
-4.642939	"well	-5.823717e-05
-4.642939	"well,	1.094398e-05
-4.642939	"well-regulated"?.	0.02309961
-4.642939	"were"	0.008428995
-4.466848	"why	0.001487442
-4.642939	"working	0.0009311121
-4.642939	"would	5.542338e-05
-4.642939	"yes.".	0.02309961
-4.642939	"you")	7.519344e-05
-4.642939	#	6.002101e-06
-3.864788	#000000;	-0.0003492594
-3.864788	#000;	-0.0003492594
-4.642939	#1	0.001352269
-4.642939	#28.	0.02309961
-4.642939	#30.	0.02309961
-4.642939	#4	-3.881475e-06
-4.642939	#49???	0.02309961
-4.642939	#50:	-1.376485e-05
-3.864788	#FFFFFF;	-0.0003492594
-4.642939	$$$	7.519344e-05
-4.642939	$100	0.002692777
-4.642939	$100/yr	0.002692777
-4.642939	$174	-5.823717e-05
-4.642939	$200,	0.01448207
-4.642939	$240,000	0.002692777
-4.642939	$300,000	0.004601438
-4.642939	$300/yr.	0.02309961
-4.642939	$4000	-5.329603e-05
-4.466848	$6	4.60805e-05
-3.864788	&	0.023141
-4.642939	&lsquo;Obamacare&rsquo;?	0.02309961
-4.642939	''good,	-5.823717e-05
-4.642939	''semi-insane"	0.00158036
-4.642939	'American	-5.329603e-05
-4.642939	'Good	7.025084e-05
-4.642939	'Neill	2.576994e-05
-4.642939	'Olympic	-5.823717e-05
-4.642939	'Right-wingers	0.002822081
-4.642939	'Your	-5.823717e-05
-4.642939	'amidst	-5.823717e-05
-4.642939	'assault	-5.329603e-05
-4.642939	'assualt	-5.329603e-05
-4.642939	'bad'	2.082789e-05
-4.642939	'bad-guys'	0.002295158
-4.642939	'banners'	-5.823717e-05
-4.642939	'because	-5.823717e-05
-4.642939	'broken'	-5.823717e-05
-4.642939	'buying'	0.0001542828
-4.642939	'common	-5.823717e-05
-4.642939	'disciplined',	-5.823717e-05
-4.341909	'em	0.01157012
-4.642939	'em.	0.02309961
-4.642939	'for	0.01448207
-4.642939	'good-guys'	-4.835481e-05
-4.642939	'gun'	0.0002828338
-4.642939	'gun'?	0.02309961
-4.642939	'hate	0.002692777
-4.642939	'honest	-5.823717e-05
-4.642939	'know'.	0.02309961
-4.642939	'logic'	0.009928052
-4.642939	'looked	-5.823717e-05
-3.864788	'lucida	-0.0003492594
-4.642939	'massive	-5.329603e-05
-4.642939	'militia'	-3.847224e-05
-4.642939	'new'	-4.835481e-05
-4.642939	'open-carry'	-5.823717e-05
-4.642939	'ordinary'	0.0001740575
-4.642939	'organized',	-5.823717e-05
-4.642939	'people	0.0008518813
-4.642939	'private	-5.823717e-05
-4.642939	'splain	0.001431591
-4.642939	'splained	0.005171175
-4.642939	'supporting'	-4.341356e-05
-4.642939	'thank	-5.823717e-05
-4.642939	'well	-5.823717e-05
-4.642939	'well,	-5.329603e-05
-4.642939	'why'.	0.02309961
-4.642939	'you	0.002802186
-4.642939	'”=	3.565418e-05
-4.165818	(	0.003031567
-4.642939	(*cough*	-5.823717e-05
-4.466848	(1)	-8.735164e-05
-4.642939	(12	-5.823717e-05
-4.642939	(1769);	6.002101e-06
-4.642939	(1804);	-4.835481e-05
-4.642939	(1815);	-4.835481e-05
-4.642939	(1822);	-8.823187e-06
-4.642939	(1824);	-5.823717e-05
-4.642939	(1831);	-5.823717e-05
-4.642939	(1840);	-5.823717e-05
-4.642939	(1847);	-5.823717e-05
-4.642939	(1849);	-5.823717e-05
-4.642939	(1852).	0.02309961
-4.642939	(1871);	1.588588e-05
-4.642939	(1874).	0.02309961
-4.466848	(2)	-7.746917e-05
-4.642939	(2008).	0.02309961
-4.642939	(2nd	-5.823717e-05
-4.466848	(3)	-8.241043e-05
-4.466848	(4th	0.0002344949
-4.642939	(6	0.00158036
-4.642939	(?).	0.02309961
-4.642939	(And,	0.0005548938
-4.642939	(CCDL)	0.004601438
-4.466848	(CDC),	0.002788026
-4.642939	(Cleckley,	-5.823717e-05
-4.341909	(D)	0.001001692
-4.642939	(D3)	0.001025217
-4.642939	(G.	-5.823717e-05
-4.466848	(HHS);	0.01444801
-4.165818	(I	0.001322762
-4.642939	(I'm	0.0009954982
-4.642939	(INP).	0.02309961
-4.642939	(In	-5.823717e-05
-4.642939	(Meals	-5.823717e-05
-4.642939	(My	0.0004361557
-4.642939	(Oh,	0.005406285
-4.642939	(Possession	0.006633921
-4.341909	(R)	0.00239175
-4.642939	(RSO)	0.0007281117
-4.642939	(Ret)	-4.835481e-05
-4.642939	(Schools	-5.823717e-05
-4.642939	(So	-2.858947e-05
-4.642939	(USA	-5.823717e-05
-4.642939	(Unlike	0.0005054157
-4.642939	(Where's	0.01448207
-4.642939	(Williamson	-5.329603e-05
-4.642939	(a	-5.823717e-05
-4.341909	(aka	-0.0001450617
-4.642939	(although	0.01448207
-3.902576	(and	0.02669963
-4.244999	(as	0.006715674
-4.642939	(assuming	1.094398e-05
-4.642939	(at	7.025084e-05
-4.642939	(because	0.005406285
-4.642939	(changing	-5.329603e-05
-4.642939	(compare	1.094398e-05
-4.642939	(controlled	0.001263049
-4.642939	(corrupt)	-4.341356e-05
-4.642939	(crazy	-5.823717e-05
-4.642939	(crushes)	0.0008617843
-4.642939	(current	-5.823717e-05
-4.642939	(depending	0.001892939
-4.642939	(duh)	0.0003174502
-4.642939	(e.g.	0.02309961
-4.642939	(especially	0.002295158
-4.642939	(far	-2.364797e-05
-4.642939	(feel	3.565418e-05
-4.466848	(for	0.01445993
-4.642939	(former	-5.823717e-05
-4.642939	(from	-5.329603e-05
-4.642939	(funded	0.001263049
-4.642939	(game	-5.823717e-05
-4.642939	(he	-1.376485e-05
-4.642939	(hi-cap	-5.329603e-05
-4.642939	(however	0.004077341
-4.642939	(humans	0.0004213157
-4.642939	(i'm	-5.823717e-05
-4.098871	(i.e.	0.02292936
-4.642939	(ie:	-5.823717e-05
-4.466848	(if	0.006861956
-4.642939	(imo).	0.02309961
-4.341909	(in	0.001419323
-4.466848	(insert	-8.241043e-05
-4.642939	(last	-5.823717e-05
-4.642939	(like	0.008428995
-4.642939	(literally)	0.006633921
-4.642939	(mass	0.006633921
-4.642939	(mixed	-5.823717e-05
-4.341909	(more	0.001523486
-4.642939	(not	0.005171175
-4.642939	(on	-5.823717e-05
-4.040879	(or	0.01505881
-4.466848	(other	0.000674843
-4.642939	(personal)	1.094398e-05
-4.642939	(pop	-5.823717e-05
-4.466848	(pretty	-9.670873e-05
-4.642939	(qz.com	0.006633921
-4.642939	(rightfully	0.0008568328
-4.642939	(say	6.002101e-06
-4.642939	(see:	-5.329603e-05
-4.642939	(since	0.001605159
-4.642939	(small-L	3.565418e-05
-4.642939	(smart	-5.823717e-05
-4.466848	(so	0.01492518
-4.642939	(source)	-5.329603e-05
-4.642939	(split	-5.823717e-05
-4.642939	(state)	-3.847224e-05
-4.642939	(stealing	0.01448207
-4.642939	(such	0.001669645
-4.642939	(suspect	-3.881475e-06
-4.642939	(telling	8.507886e-05
-4.642939	(that	0.00016417
-4.642939	(that's	0.001109435
-4.244999	(the	-0.0002280058
-4.642939	(the)	-5.823717e-05
-4.642939	(there	0.002802186
-4.642939	(they	8.013612e-05
-4.642939	(thorough)	0.006633921
-4.642939	(though	0.005171175
-4.642939	(to	0.00040153
-4.642939	(typical	0.007377197
-4.642939	(under	0.01448207
-4.466848	(unless	0.006575837
-4.642939	(unrealistic,	0.001203579
-4.642939	(up	0.009928052
-4.642939	(usually	-5.329603e-05
-4.642939	(what	0.004077341
-4.341909	(when	0.01700893
-4.040879	(which	0.01310715
-4.642939	(which,	-4.835481e-05
-4.642939	(who	0.0007924674
-4.642939	(with	0.01448207
-4.642939	(without	0.01448207
-4.642939	(written	0.001263049
-4.642939	(you	-5.823717e-05
-4.341909	)	-0.0001598865
-4.341909	).	0.0230315
-4.341909	*	0.001851015
-4.642939	***	0.0001740575
-3.864788	****	0.01545071
-4.642939	****!	0.02309961
-4.341909	****.	0.0230315
-4.244999	****ed	0.0003945014
-3.797841	****ing	0.002218585
-4.642939	*340,	-5.329603e-05
-4.642939	*California	-5.823717e-05
-4.642939	*Drops	-5.823717e-05
-4.642939	*Edit:	0.005406285
-4.642939	*cough*).	0.02309961
-4.642939	*sigh*	6.530829e-05
-4.466848	+	-0.0001065915
-3.864788	,	0.03105528
-4.642939	,are	-3.35309e-05
-4.642939	,if	0.004077341
-3.173117	-	0.06299572
-4.040879	--	0.009118812
-4.642939	---	0.0006142751
-4.642939	--Thomas	-5.823717e-05
-4.642939	-21	0.002822081
-4.642939	-and	0.004601438
-4.642939	-effect.	0.02309961
-3.352905	.	0.02184132
-4.098871	..	0.02574509
-3.665215	...	0.03105618
-4.642939	.....	-5.329603e-05
-4.642939	.....and	7.025084e-05
-4.642939	....given	0.0004658372
-4.642939	...D.C.'s	1.094398e-05
-4.642939	...He’s	0.000599429
-4.642939	...I'll	-3.847224e-05
-4.642939	...and	0.005406285
-4.642939	...by	-5.823717e-05
-4.642939	...only	0.001129253
-4.642939	...so,	0.001025217
-4.642939	...that	0.001545642
-4.466848	...the	0.0004372963
-4.642939	...yes,	0.005406285
-4.642939	...you're	0.0006142751
-4.642939	...your	-3.35309e-05
-4.341909	.22	0.003981011
-4.642939	.223	0.001203579
-4.642939	.225	-5.823717e-05
-4.642939	.22lr	7.519344e-05
-4.466848	.357	0.001145371
-4.642939	.357.	0.02309961
-4.642939	.38	-2.858947e-05
-4.642939	.380	-3.35309e-05
-4.642939	.44	-5.823717e-05
-4.642939	.45.	0.02309961
-4.642939	.454	-5.823717e-05
-4.642939	.50-cal.	0.02309961
-4.642939	.It	0.0002432756
-3.864788	.code{font-family:	-0.0003492594
-3.864788	/*overflow:	-0.0002948976
-4.466848	0	-0.0001115328
-4.642939	0.6/100,000.	0.02309961
-4.642939	0.67	0.009928052
-4.642939	0.7	1.094398e-05
-4.642939	05,	-5.823717e-05
-4.642939	06,	-5.823717e-05
-4.642939	08.05.2016	-5.823717e-05
-3.582241	0px	-0.0006042757
-3.864788	1	0.004154157
-4.341909	1%	0.007309088
-4.098871	1,	0.0006784718
-4.642939	1,000	-3.35309e-05
-4.642939	1,440	-5.823717e-05
-4.642939	1,731	0.002672888
-4.466848	1-	0.005373193
-4.642939	1-6	-4.835481e-05
-4.642939	1-on-1	0.0009954982
-4.341909	1.	0.0230315
-4.642939	1...	-8.823187e-06
-4.642939	1.1	1.094398e-05
-4.642939	1.14	-3.881475e-06
-4.642939	1.2	8.013612e-05
-4.642939	1.94	8.013612e-05
-4.642939	1/5th	-5.823717e-05
-3.902576	10	-6.972413e-05
-4.642939	10's	0.006633921
-4.642939	10,000	0.001144117
-4.466848	100	-7.200077e-05
-3.943969	100%	0.007007089
-4.642939	100,000	4.059638e-05
-4.642939	100,000...and	0.0006390196
-4.642939	100-pound	-1.376485e-05
-4.642939	100-round	-4.835481e-05
-4.642939	101	-5.823717e-05
-4.466848	105	-9.670873e-05
-4.642939	105MM	-5.823717e-05
-4.466848	11	0.0009670052
-4.642939	11".	0.02309961
-4.642939	110.	0.02309961
-4.642939	1100	2.576994e-05
-4.466848	12	0.009875102
-4.642939	12-gauge	-5.823717e-05
-4.642939	120	-5.823717e-05
-4.642939	123;	-5.823717e-05
-4.642939	13,	6.530829e-05
-4.642939	13,440	7.519344e-05
-4.642939	135.	0.02309961
-4.244999	14	-6.490536e-05
-4.642939	148149	-5.823717e-05
-3.989727	15	0.006242396
-4.642939	152153;	-5.329603e-05
-4.341909	16	0.00849939
-4.642939	16-18	0.0001443959
-4.642939	16-30	0.0009162551
-4.466848	16-49	-4.72914e-05
-4.642939	1611	-4.341356e-05
-4.466848	17	-2.258061e-05
-4.642939	17,000	-5.823717e-05
-4.642939	171c.	0.02309961
-4.642939	174	0.0002234978
-4.642939	1787?	0.02309961
-4.642939	179.	0.02309961
-4.642939	1790.	0.02309961
-4.642939	17s.	0.02309961
-4.642939	17th	-5.329603e-05
-4.040879	18	0.006408782
-4.642939	18,	0.0001295658
-4.642939	18.	0.02309961
-4.642939	1800+	-4.835481e-05
-4.642939	1800s	0.006633921
-4.642939	1812.	0.02309961
-4.642939	1858,	-5.823717e-05
-4.642939	1884).	0.02309961
-4.642939	19	-3.35309e-05
-4.642939	19-year	1.094398e-05
-4.642939	19-year-old	-5.823717e-05
-4.642939	1929,	0.0005301542
-4.466848	1934	0.0006253434
-4.642939	1934.	0.02309961
-4.466848	1939	3.178805e-05
-4.642939	1940-41	-8.823187e-06
-4.642939	1941,	-5.823717e-05
-4.642939	1953,	0.004601438
-4.642939	1960s	0.005171175
-4.642939	1967	1.588588e-05
-4.642939	1970's.	0.02309961
-4.642939	1973.	0.02309961
-4.642939	1976.	0.02309961
-4.642939	1981–2010	0.006633921
-4.642939	1987.	0.02309961
-4.642939	1989-91)	-4.835481e-05
-4.466848	1990,	0.004043286
-4.642939	1991).	0.02309961
-4.466848	1994	0.00989027
-4.642939	1995,	0.01448207
-4.341909	1996	0.02085254
-4.642939	1996.	0.02309961
-4.642939	1997.	0.02309961
-4.642939	1999	-4.835481e-05
-4.642939	19th	1.094398e-05
-4.466848	19th-century	-7.694247e-05
-4.341909	1:	-3.138827e-05
-3.864788	1px	-0.0003492594
-4.642939	1st.	0.02309961
-3.902576	2	0.004177304
-4.642939	2)	0.006633921
-4.642939	2,	-5.823717e-05
-4.642939	2,249	-4.341356e-05
-4.466848	2-	0.0003779301
-4.642939	2-year-old	2.082789e-05
-4.466848	2.	0.02306555
-4.642939	2.1	8.013612e-05
-4.165818	20	0.001648898
-4.642939	20.52	-2.858947e-05
-4.642939	2002	-3.35309e-05
-4.642939	2004,	0.0007380121
-4.642939	2005,	0.006633921
-4.642939	2006,	-1.376485e-05
-4.642939	2007	0.001352269
-4.642939	2008.	0.02309961
-4.642939	2009	-5.823717e-05
-4.642939	2009.	0.02309961
-3.864788	200px;*/}	-0.0003443178
-4.466848	2010	0.002415863
-4.642939	2010.	0.02309961
-4.466848	2011.	0.02304191
-4.642939	2013,	0.0007380121
-4.642939	2013.	0.02309961
-4.466848	2014	-8.68257e-05
-4.341909	2015	0.01370763
-4.466848	2015,	0.001110683
-4.642939	2015.	0.02309961
-4.642939	2015."	0.02309961
-4.642939	2016	4.553867e-05
-4.642939	2016.	0.02309961
-4.341909	2017	0.001502988
-4.466848	2018	0.0002344949
-4.642939	2018.	0.02309961
-4.642939	2019	0.002757425
-4.642939	2020.	0.001491093
-4.642939	20:20)	0.006633921
-4.466848	20th	-2.258062e-05
-4.642939	21	2.576994e-05
-4.642939	21,	6.530829e-05
-4.642939	21-years	1.094398e-05
-4.642939	21.	0.02309961
-4.466848	22	0.001497362
-4.642939	220-pound	-5.329603e-05
-4.642939	223	0.00494619
-4.642939	23	0.0008419784
-4.341909	24	0.001408756
-4.642939	24/7?	0.02309961
-4.466848	240	4.60805e-05
-4.642939	240k	-3.35309e-05
-4.466848	241]	0.006599865
-4.466848	243]	0.007343141
-4.642939	25	1.094398e-05
-4.642939	25.	0.02309961
-4.642939	250	8.013612e-05
-4.642939	251;	0.0003223954
-4.642939	252	0.0001345091
-4.642939	25850	0.006633921
-4.642939	271272	-5.823717e-05
-4.642939	275	0.0002927239
-4.642939	28,	-5.823717e-05
-4.642939	28.	0.02309961
-4.642939	288,	-5.823717e-05
-4.642939	289	-5.823717e-05
-4.341909	29	0.01459115
-4.341909	2:	-3.138827e-05
-4.642939	2;	0.001471258
-4.466848	2A	0.001299021
-4.642939	2a	0.0001443959
-4.642939	2a.	0.02309961
-3.341909	2nd	0.01276369
-3.864788	2px;	-0.0003492594
-3.767878	3	0.009052613
-4.642939	3,	-5.823717e-05
-4.642939	3,670	-4.341356e-05
-4.642939	3-	0.0003075595
-4.466848	3-5	0.0001103403
-4.642939	3.	0.02309961
-4.165818	30	0.001744564
-4.642939	30,000	0.0001345091
-4.642939	30-round	-5.823717e-05
-4.341909	300	3.233691e-05
-4.466848	301	-7.746917e-05
-4.466848	307	5.156015e-05
-4.642939	31,	-5.823717e-05
-4.642939	31,706	0.002672888
-4.466848	311	-7.746917e-05
-4.642939	32	0.00158036
-4.642939	33%	0.007377197
-4.642939	333.	0.02309961
-4.642939	34	-5.823717e-05
-4.642939	34-year	-5.823717e-05
-4.642939	345	0.0002877789
-4.642939	346;	-5.823717e-05
-4.341909	35	-0.0001154106
-4.642939	375,	0.01448207
-4.642939	381,	-5.823717e-05
-4.642939	383384	-5.823717e-05
-4.466848	3:	2.684516e-05
-4.466848	3D-printed	0.0003037336
-4.642939	3rd	3.565418e-05
-4.341909	4	-6.104507e-05
-4.642939	4-6	-5.329603e-05
-4.642939	4.	0.02309961
-4.466848	4.5	3.178806e-05
-4.466848	40	-6.705901e-05
-4.642939	40%.	0.02309961
-4.642939	42:38)	0.006633921
-4.642939	44	-5.823717e-05
-4.642939	4473	0.0004955208
-4.642939	45	0.0006390196
-4.642939	45,	-5.823717e-05
-4.642939	47).	0.02309961
-4.642939	473,	-5.823717e-05
-4.642939	476	-5.823717e-05
-4.642939	48	-5.823717e-05
-4.642939	482	-5.823717e-05
-4.642939	489490;	-5.823717e-05
-3.767878	5	0.001346628
-4.642939	5%	0.007377197
-4.642939	5,805	-5.823717e-05
-4.642939	5-10	-2.858947e-05
-4.466848	5-4	-3.246508e-05
-4.642939	5-string	-4.835481e-05
-3.864788	50	0.008385715
-4.642939	500%.	0.02309961
-4.642939	50s	0.01448207
-4.642939	51	0.0001443959
-4.642939	52	4.553867e-05
-4.642939	54	0.007377197
-4.466848	55	0.006861955
-4.642939	55,	-5.823717e-05
-4.642939	5525.5,	0.0004064764
-4.642939	553	-5.329603e-05
-4.642939	59	0.001491093
-4.642939	59,	-4.341356e-05
-4.466848	5th	0.006887062
-4.466848	6	-2.752287e-05
-4.642939	6.8	2.576994e-05
-4.341909	60	1.202756e-05
-4.466848	60%	0.00733421
-4.642939	600	-1.870643e-05
-4.642939	61	-8.823187e-06
-4.642939	64	-5.823717e-05
-4.642939	640	-3.881475e-06
-4.642939	65%)	0.007377197
-4.642939	65,	-5.823717e-05
-4.642939	657,936	6.530829e-05
-4.642939	67	-5.823717e-05
-4.642939	67242503	4.553867e-05
-4.642939	68	-5.823717e-05
-4.642939	6th	-5.823717e-05
-4.642939	6th:	0.0002927239
-4.642939	7	6.002101e-06
-4.642939	7,	-5.329603e-05
-4.466848	70	-4.729138e-05
-4.642939	70's....the	-5.823717e-05
-4.642939	71	-5.329603e-05
-4.642939	726	-5.823717e-05
-4.642939	74	0.004601438
-4.642939	747	-5.823717e-05
-4.466848	75	-2.810962e-06
-4.642939	75-year	1.094398e-05
-4.642939	76,	-5.823717e-05
-4.642939	76230"	0.001352269
-4.642939	79	-5.823717e-05
-4.642939	7th:	0.0002927239
-4.466848	8	0.004888068
-4.642939	8,	0.001669645
-4.341909	80	0.001627007
-4.341909	80%	0.007582891
-4.642939	80's	0.001010358
-4.466848	8000	-8.241043e-05
-4.642939	81	0.0001443959
-4.642939	84,	-5.329603e-05
-4.642939	87	-1.376485e-05
-4.642939	8?.	0.02309961
-4.642939	8th:	-5.823717e-05
-4.642939	9	0.009928052
-4.642939	9.6	8.013612e-05
-4.642939	90%	0.007377197
-4.642939	9000	-4.835481e-05
-4.642939	90lb	0.000183945
-4.642939	90s,	0.0007924674
-4.466848	911	0.01017858
-4.642939	92	1.094398e-05
-4.642939	930	2.576994e-05
-4.642939	95%	0.007377197
-4.642939	97	1.094398e-05
-4.341909	99	-5.716458e-05
-4.244999	99%	0.007275038
-4.642939	9mm	-8.823187e-06
-4.244999	:	-0.0001242217
-4.642939	:-)	-5.823717e-05
-1.284433	</s>
-99	<s>	-0.02883999
-4.165818	=	0.0004556345
-4.642939	=====================================	0.001471258
-4.642939	==============================================	0.005406285
-4.165818	>	-0.0001439707
-4.642939	>223	-5.823717e-05
-4.642939	>>As	0.002692777
-4.642939	>>Do	0.004077341
-4.642939	>>He	0.001352269
-4.642939	>>Hillary	-4.341356e-05
-4.341909	>>I	0.001131766
-4.642939	>>None	0.007377197
-4.642939	>>Probably	1.094398e-05
-4.642939	>>So	6.036582e-05
-4.642939	>>THE	-2.364797e-05
-4.642939	>>That	-2.364797e-05
-4.466848	>>The	0.002614714
-4.642939	>>What	0.002802186
-4.642939	>>You	-5.823717e-05
-4.642939	>>all	0.002474042
-4.642939	>>at	7.025084e-05
-4.642939	>>being	-3.847224e-05
-4.642939	>>can	0.004077341
-4.642939	>>current	3.565418e-05
-4.642939	>>he	0.001545642
-4.642939	>>if	0.0005301542
-4.642939	>>in	0.01448207
-4.466848	>>not	0.002107824
-4.642939	>>one	0.005171175
-4.642939	>>people	-5.823717e-05
-4.642939	>>pretty	0.0002877789
-4.642939	>>seems	0.0008518813
-4.642939	>>simply	0.0004114227
-4.642939	>>so	0.004077341
-4.642939	>>still	0.0001443959
-4.642939	>>strawman	-3.35309e-05
-4.642939	>>the	-1.376485e-05
-4.642939	>>we	0.002802186
-4.466848	>>what	0.002445685
-4.642939	>>yet	0.004077341
-4.098871	>>you	0.004860585
-4.466848	>>your	-7.694246e-05
-4.098871	?	0.02292936
-4.341909	?.	0.0230315
-3.236399	A	0.005336558
-4.642939	A&M	-5.823717e-05
-4.642939	A.	0.02309961
-4.642939	AB-1591	0.001352269
-4.642939	ABC	-8.823187e-06
-4.642939	ACA.	0.02309961
-4.642939	ACCORDING	-5.329603e-05
-4.642939	ACLU	0.006633921
-4.642939	ADULT	-1.870643e-05
-4.642939	AFTER	0.0005301542
-4.642939	AK	0.002295158
-4.642939	AK's	-5.823717e-05
-4.642939	AK-47	7.025084e-05
-4.642939	AK-47's	0.006633921
-4.642939	AK-47.	0.02309961
-4.642939	AK.	0.02309961
-4.642939	AK47	0.009928052
-4.642939	AK47's.	0.02309961
-4.341909	ALL	0.01570192
-4.642939	ALWAYS	-5.823717e-05
-4.642939	AMERICA..	0.001109435
-4.642939	AN	-5.823717e-05
-4.165818	AND	0.01483338
-4.642939	ANSWER	-4.835481e-05
-4.642939	ANTI	-4.835481e-05
-4.466848	ANY	0.0004867747
-4.642939	APD	6.002101e-06
-4.642939	APPOINTMENT	-3.847224e-05
-3.989727	AR	0.00154879
-4.466848	AR's	0.0005560535
-4.642939	AR,	0.001109435
-3.902576	AR-15	0.01866338
-4.466848	AR-15's	0.008239967
-4.642939	AR-15,	0.002757425
-4.642939	AR-15-type	1.588588e-05
-4.466848	AR-15.	0.02306555
-4.642939	AR-15?	0.02309961
-4.642939	AR-15s	-5.823717e-05
-4.642939	AR-15s,	0.005406285
-4.642939	AR.	0.02309961
-4.642939	AR15	0.0001295658
-4.642939	AR15,	0.001605159
-4.642939	AR15.	0.02309961
-4.466848	ARE	0.008431423
-4.642939	ARGUMENT	-4.835481e-05
-4.642939	ASAP!	0.02309961
-4.642939	ASSAULT	-5.823717e-05
-4.642939	ASWs.	0.02309961
-4.466848	ATF	0.01067472
-4.642939	ATF;	0.001605159
-4.642939	AUTHORITY	-3.847224e-05
-4.165818	AWB	0.001630389
-4.642939	AWB,	0.004077341
-4.244999	AWB.	0.02299745
-4.466848	Abbott	0.004543308
-4.642939	Abolitionist	-4.835481e-05
-4.341909	About	0.01444121
-4.642939	Abraham	-5.823717e-05
-4.642939	Abridgment	0.007377197
-4.642939	Absolutely!	0.02309961
-4.642939	Absolutely,	0.006633921
-4.642939	Absurd.	0.02309961
-4.466848	Access	0.009893997
-4.642939	Accidents	-5.823717e-05
-4.642939	Accidents,	-5.823717e-05
-4.165818	According	0.009791846
-4.642939	Ackerman	-5.823717e-05
-4.466848	Acquisition	-0.0001164741
-4.341909	Act	0.00125569
-4.466848	Act,	0.001635589
-4.466848	Act.	0.02306555
-4.642939	Action	-5.823717e-05
-4.642939	Active	-5.823717e-05
-4.466848	Actually,	0.01565217
-4.642939	Adam's	-5.823717e-05
-4.642939	Address	0.005171175
-4.642939	Advisory	-5.823717e-05
-4.466848	Afghanistan,	0.0003531966
-4.642939	Africa	0.00494619
-4.165818	After	0.0003802471
-4.466848	Again	0.006530678
-4.040879	Again,	0.01503833
-4.642939	Against	-5.823717e-05
-4.642939	Agree	0.005171175
-4.642939	Agreed.	0.02309961
-4.466848	Ah	0.006590892
-4.642939	Ahh,	0.0001740575
-4.642939	Ain't	-3.35309e-05
-4.642939	Air	-5.329603e-05
-4.642939	Akron,	-5.823717e-05
-4.642939	Ala.	-5.823717e-05
-4.642939	Alan	-5.823717e-05
-4.642939	Alaska,	-5.823717e-05
-4.642939	Alcohol	-4.835481e-05
-4.341909	Alex	-0.0001455858
-3.563758	All	0.04571066
-4.642939	Allow	1.588588e-05
-4.642939	Allso,	-3.847224e-05
-4.466848	Already	-8.188414e-05
-4.341909	Also	0.01122504
-4.098871	Also,	0.007985266
-4.642939	Also.....it	0.00494619
-4.642939	Alternate	-5.329603e-05
-4.341909	Although	0.009432982
-4.642939	Altogether,	0.001605159
-4.642939	Always	6.530829e-05
-4.642939	Always.	0.02309961
-4.341909	Am	0.005338177
-4.642939	Amazing,	-4.835481e-05
-4.642939	Amazon.	0.02309961
-3.582241	Amendment	0.02126442
-4.466848	Amendment,	0.006826808
-4.098871	Amendment.	0.02292936
-4.642939	Amendment...	0.0007380121
-4.642939	Amendment;	0.001025217
-4.642939	Amendment’s	0.0006142751
-3.943969	America	0.02376547
-4.642939	America!	0.02309961
-4.244999	America's	0.002543121
-4.098871	America,	0.02216528
-4.466848	America.	0.02306555
-4.466848	America?	0.02306555
-3.563758	American	0.008765718
-4.341909	American's	0.001449081
-4.642939	American,	0.006633921
-4.642939	American-like	6.002101e-06
-4.098871	AmericanSpartan	0.005320951
-4.642939	Americana/Country	-4.341356e-05
-3.943969	Americans	0.00577797
-4.244999	Americans,	-0.0001093934
-4.642939	Americans?	0.02309961
-4.642939	America…	-5.823717e-05
-4.642939	Among	0.000515311
-4.098871	An	-0.0002555176
-2.939648	And	0.06891798
-4.165818	And,	0.00842747
-4.642939	Andreas	-5.823717e-05
-4.642939	Angeles	-5.823717e-05
-4.642939	Angeles,	0.006633921
-4.642939	Angeles.	0.02309961
-4.642939	Ann	-5.823717e-05
-4.642939	Ann.,	0.0008766393
-4.466848	Annals	0.007343141
-4.642939	Anorexic	0.001491093
-4.244999	Another	4.880693e-05
-4.642939	Anti-choice	-5.823717e-05
-4.642939	Anti-gun	1.094398e-05
-4.642939	Anticipating	3.565418e-05
-4.466848	Antonin	-0.0001065915
-4.341909	Any	-0.0001252946
-4.098871	Anyone	0.006105634
-4.642939	Anytime	4.553867e-05
-4.466848	Anyway,	-7.694247e-05
-4.642939	Anyways	0.0007380121
-4.466848	Apparently	0.01455703
-4.642939	Apparently,	0.004077341
-4.642939	Appearing	-5.823717e-05
-4.466848	Appointment	0.007343141
-4.642939	Approximately	-5.823717e-05
-4.642939	April	-4.835481e-05
-4.642939	April,	1.060276e-06
-4.466848	Arab	0.002236975
-3.62175	Are	0.007717873
-4.466848	Aren't	0.004043286
-4.642939	Arena	0.002822081
-4.642939	Arguments	0.005171175
-4.642939	Arizona	0.002295158
-4.642939	Armament	-5.329603e-05
-4.642939	Armatrix	-4.341356e-05
-4.642939	Armed	0.006633921
-4.642939	Arms	-4.341356e-05
-4.642939	Arms,	6.002101e-06
-4.244999	Army	0.009779315
-4.466848	Army,	0.0008580404
-4.642939	Army.	0.02309961
-4.642939	Arnold,	-5.823717e-05
-4.642939	Art	0.00494619
-4.642939	Art,	-5.823717e-05
-4.642939	Arthur	0.006633921
-4.244999	Article	-0.000154929
-3.253773	As	0.05040063
-4.642939	Asia	0.001669645
-4.642939	Asia.	0.02309961
-4.642939	Asians,	-5.823717e-05
-4.642939	Ask	0.01448207
-4.642939	Asked	-5.823717e-05
-4.642939	Asking	8.507886e-05
-4.341909	Assault	0.006623147
-4.642939	Assembled".	0.02309961
-4.642939	Assembly	-5.823717e-05
-4.642939	Assistance	0.007377197
-4.466848	Assistant	-8.735164e-05
-4.642939	Assn.	0.02309961
-4.040879	Association	0.0007056732
-4.642939	Association,	-2.858947e-05
-4.466848	Assuming	0.007676163
-3.797841	At	0.0165258
-4.642939	Athens;	0.001471258
-4.642939	Atlantic	-4.835481e-05
-4.642939	Atlantic,	-5.823717e-05
-4.642939	Attachment	-5.823717e-05
-4.642939	Attack	0.0009954982
-4.642939	Aug	-5.823717e-05
-4.642939	Aurora	0.006633921
-4.642939	Aurora,	0.006633921
-4.642939	Aus,	0.001203579
-4.165818	Australia	0.01365303
-4.642939	Australia's	0.002672888
-4.466848	Australia,	0.005348173
-4.244999	Australia.	0.02299745
-4.642939	Australia?	0.02309961
-4.466848	Australian	-3.740723e-05
-4.341909	Australians	0.0001954969
-4.466848	Authority	0.007343141
-4.642939	Auto-5	-5.823717e-05
-4.642939	Auto-5.	0.02309961
-4.642939	Avalon	-5.823717e-05
-4.642939	Avila	-2.858947e-05
-4.642939	Awesome.	0.02309961
-4.642939	Axe,	-4.341356e-05
-4.642939	B	-5.823717e-05
-4.466848	B.	-0.0001115328
-4.642939	BACKGROUND	-5.823717e-05
-4.642939	BAM!!!	0.02309961
-4.642939	BANNING	-5.823717e-05
-4.642939	BBC	-8.823187e-06
-4.642939	BEST	-5.823717e-05
-4.642939	BFG	-5.823717e-05
-4.466848	BI	2.684519e-05
-4.642939	BN-JR113_0801ST_P_20150801182912.jpg	0.0001246226
-4.341909	BS	0.004849941
-4.466848	BS.	0.02306555
-4.642939	BS?	0.02309961
-4.098871	BTW,	0.02055854
-4.642939	BUT,	0.004601438
-4.642939	BY	-5.823717e-05
-4.244999	Back	0.001242108
-4.642939	Backfilling	0.01448207
-4.244999	Background	-3.137225e-05
-4.642939	Bad	7.025084e-05
-4.642939	Bahamas	0.006633921
-4.642939	Bahamas,	0.006633921
-4.642939	Bakersfield,[5]	0.002474042
-4.642939	Balconies	0.002822081
-4.642939	Baltimore	-5.823717e-05
-4.466848	Ban	0.01476663
-4.642939	Ban,	0.005406285
-4.642939	Bang,	-5.329603e-05
-4.642939	Banks	-4.835481e-05
-4.642939	Banning	0.0005697383
-4.466848	Barack	-1.816973e-05
-4.642939	Barnacle	-5.329603e-05
-4.642939	Barney	-5.823717e-05
-4.642939	Based	0.001892939
-4.466848	Basically	0.002122724
-4.642939	Battle	0.007377197
-4.642939	Baylor	0.001352269
-4.642939	Bazookas	0.001605159
-4.466848	Be	-7.694247e-05
-4.642939	Beach,	-5.823717e-05
-4.642939	Bear	0.004601438
-4.642939	Beast.	0.02309961
-3.71352	Because	0.03608282
-4.642939	Because,	0.009928052
-4.642939	Become	-5.823717e-05
-4.466848	Been	0.0006946445
-4.642939	Before	-5.329603e-05
-4.341909	Being	0.01311622
-4.466848	Believe	0.002439986
-4.466848	Benjamin	-8.735164e-05
-4.642939	Berandino,	-2.858947e-05
-4.642939	Berkeley,	0.006633921
-4.642939	Bernadino,	0.01448207
-4.642939	Bernardino.	0.02309961
-4.642939	Besides	-5.823717e-05
-4.642939	Besides,	0.005406285
-4.466848	Beto	0.0007342498
-4.642939	Bible.	0.02309961
-4.165818	Big	-0.000242287
-4.642939	Bigger,	-5.823717e-05
-3.864788	Bill	0.006989856
-4.642939	Bill)	0.001669645
-4.642939	Bingo.	0.02309961
-4.642939	Birch	3.565418e-05
-4.341909	Black	0.001776555
-4.642939	BlackBook,	-5.823717e-05
-4.642939	Blacks,	-5.823717e-05
-4.341909	Blackstone	-4.127411e-05
-4.642939	Blah	-5.329603e-05
-4.642939	Blaming	-1.376485e-05
-4.642939	Blume	-5.823717e-05
-4.642939	Board"	-5.823717e-05
-4.642939	Board.".	0.02309961
-4.642939	Bob	-5.823717e-05
-4.642939	Booker	0.001352269
-4.642939	Boston	-5.823717e-05
-4.165818	Both	0.007315882
-4.642939	Bottom	-5.329603e-05
-4.642939	Brady	-5.823717e-05
-4.642939	Bravo).	0.02309961
-4.642939	Break	0.0003174502
-4.642939	Bringing	0.0004955208
-4.341909	Britain	0.01074199
-4.466848	Britain.	0.02306555
-4.165818	British	0.008297622
-4.642939	Brits	0.00158036
-4.642939	Broader	-1.376485e-05
-4.642939	Bronze	0.004601438
-4.642939	Brooks	-3.847224e-05
-4.642939	Broward	-5.823717e-05
-4.165818	Brown	0.008423648
-4.642939	Browning,	0.005171175
-4.642939	Bruce	-5.823717e-05
-4.642939	Bubba's	-8.823187e-06
-4.642939	Bubbas	-5.823717e-05
-4.642939	Bubble?	0.02309961
-4.642939	Buck.	0.02309961
-4.642939	Bud!!!	0.02309961
-4.642939	Budapest	0.006633921
-4.642939	Bull****.	0.02309961
-4.642939	Bullet	-4.341356e-05
-4.642939	Bump	-5.329603e-05
-4.642939	Bumper	-5.823717e-05
-4.642939	Bureau	0.007377197
-4.642939	Burger	8.013612e-05
-4.341909	Bush	0.006256892
-4.642939	Business	-5.823717e-05
-3.051874	But	0.06060864
-3.642939	But,	0.03534411
-4.466848	Butina	0.001299021
-4.642939	Butina.	0.02309961
-3.797841	By	0.02439819
-4.642939	C'mon.	0.02309961
-4.341909	C.	-0.0001747108
-4.341909	CA	0.003098881
-4.642939	CA.	0.02309961
-4.642939	CAUSES	-3.847224e-05
-4.165818	CC	0.00559439
-4.642939	CC.	0.02309961
-4.642939	CCDL,	-3.847224e-05
-4.642939	CCW-at	7.025084e-05
-4.642939	CCW.	0.02309961
-4.642939	CCer	-5.823717e-05
-4.040879	CDC	0.01955953
-4.642939	CDC's	-5.823717e-05
-4.642939	CDC,	0.006633921
-4.466848	CEO	-6.264509e-05
-4.642939	CEO,	5.542338e-05
-4.642939	CHECKS	0.006633921
-4.642939	CIA	0.006633921
-4.642939	CIA-led	-5.823717e-05
-4.466848	CIVILIAN	-0.0001164741
-4.642939	CNN	-4.341356e-05
-4.642939	CNNPolitics	0.0001246226
-4.642939	COLA	0.004601438
-4.642939	CONGRESS.	0.02309961
-4.642939	CONTINENTS	-3.881475e-06
-4.642939	CONVICTED	-4.341356e-05
-4.642939	CPS	0.00494619
-4.642939	CT,	-4.835481e-05
-4.466848	Cal	-4.234936e-05
-3.71352	California	0.02004259
-4.341909	California,	0.01484683
-4.642939	California.	0.02309961
-4.642939	California?.	0.02309961
-4.642939	Californians	0.0006142751
-4.642939	Call,	-5.823717e-05
-4.642939	Callender	-3.847224e-05
-4.466848	Cam	-6.211718e-05
-4.642939	Cambodia	0.0006142751
-4.642939	Cambodian	-5.823717e-05
-3.902576	Can	0.006501385
-4.244999	Can't	0.001867299
-4.466848	Canada	0.006599865
-4.642939	Canada's	0.002672888
-4.341909	Canada,	0.01919087
-4.341909	Canada.	0.0230315
-4.642939	Canadian,	0.004077341
-4.642939	Canuck	0.004601438
-4.642939	Canucks	-5.823717e-05
-4.642939	Capital	-5.823717e-05
-4.642939	Capitol	0.009928052
-4.466848	Capster	-2.258058e-05
-4.642939	Capster.	0.02309961
-4.642939	Captain	-5.823717e-05
-4.642939	Car	0.002822081
-4.642939	Caribbean.	0.02309961
-4.642939	Carry	-2.364797e-05
-4.466848	Carter	0.001978711
-4.642939	Cases	-1.376485e-05
-4.642939	Castile	0.0003718529
-4.642939	Casull	0.004601438
-4.642939	Catalytic	-5.823717e-05
-4.642939	Caudill	-5.823717e-05
-4.642939	Causeless.	0.02309961
-4.466848	Center	0.004567382
-4.341909	Centers	0.002624669
-4.642939	Century,	0.0006390196
-4.642939	Certainly	0.002474042
-4.642939	Challenging	-4.341356e-05
-4.642939	Chandler,	6.002101e-06
-4.642939	Charleston	0.006633921
-4.642939	Chase	-5.823717e-05
-4.466848	Check	0.0004416759
-4.642939	Cheney	0.001892939
-3.864788	Chicago	0.01767998
-4.341909	Chicago,	0.0003295988
-4.466848	Chicago.	0.02306555
-4.642939	Chicken	0.007377197
-4.466848	Chief	-7.694247e-05
-4.642939	Chiefs	-2.858947e-05
-4.642939	Child	1.588588e-05
-4.642939	Childproof	-5.823717e-05
-4.642939	Children's	-5.823717e-05
-4.642939	China's	-5.329603e-05
-4.466848	China.	0.02306555
-4.466848	Chinese	0.002629631
-4.642939	Christian	-8.823187e-06
-4.642939	Christians	-5.329603e-05
-4.642939	Christmas	-5.823717e-05
-4.642939	Church's,	-5.823717e-05
-4.642939	Cities	-3.35309e-05
-4.341909	Citizens	0.008328028
-4.642939	City	0.007377197
-4.244999	Civil	-0.0001884719
-4.642939	Civilians	0.002822081
-4.642939	Civilization"	1.060276e-06
-4.642939	Clause	-5.823717e-05
-4.341909	Clearly	0.00700478
-4.642939	Clearly,	0.001605159
-4.642939	Cleckley’s	-5.823717e-05
-4.642939	Clingling	0.009928052
-4.098871	Clinton	0.009046795
-4.642939	Clinton.	0.02309961
-4.642939	Clinton....	-5.823717e-05
-4.466848	Closed	0.002658722
-4.642939	Closed.	0.02309961
-4.466848	Closing	0.002614714
-4.642939	Coast	-2.858947e-05
-4.642939	Code)	0.0001345091
-4.642939	Cohen	-5.823717e-05
-4.466848	Cohen's	-8.735164e-05
-4.642939	Col	-5.823717e-05
-4.642939	Collectivism	0.006633921
-4.642939	Colo.,	0.000267999
-4.642939	Columbia	2.576994e-05
-4.341909	Columbine	0.004529234
-4.642939	Columbine.	0.02309961
-4.642939	Combatant	-2.858947e-05
-4.466848	Come	0.00990544
-4.466848	Comey,	0.0154319
-4.341909	Comitatus	-0.0001598865
-4.040879	Command	0.01270972
-4.642939	Command.	0.02309961
-4.642939	Command....	0.02309961
-4.642939	Commander	-3.35309e-05
-4.642939	Commanding	-1.870643e-05
-4.466848	Committee	0.004598252
-4.466848	Common	-5.717529e-05
-4.642939	Company,	-4.341356e-05
-4.642939	Compassion	0.0008766393
-4.642939	Compendium	0.007377197
-4.642939	Completely	-5.823717e-05
-4.642939	Concealed	0.0002927239
-4.642939	Concert	-5.823717e-05
-4.642939	Concordia	0.006633921
-4.642939	Conference.	0.02309961
-4.642939	Congrats	0.001892939
-4.642939	Congrats.	0.02309961
-4.642939	Congratulations,	0.001431591
-4.040879	Congress	0.02382332
-4.642939	Congress,	0.01448207
-4.642939	Congress;	4.553867e-05
-4.642939	Congress;.	0.02309961
-4.642939	Congress?	0.02309961
-4.642939	Congressmen	2.576994e-05
-4.244999	Connecticut	0.0007465642
-4.642939	Connecticut,	-5.823717e-05
-4.642939	Cons,	0.006633921
-4.466848	Consequently	0.008970978
-4.244999	Conservative	4.880698e-05
-4.466848	Conservatives	0.001274235
-4.642939	Conservatives,	0.000183945
-4.642939	Considering	0.005171175
-4.642939	Conspiracy	-5.329603e-05
-3.943969	Constitution	0.02208349
-4.165818	Constitution,	0.01696715
-4.165818	Constitution.	0.0229634
-4.466848	Constitutional	0.001611447
-4.466848	Constitutional.	0.02306555
-4.642939	Constitutionally	-5.329603e-05
-4.642939	Contemporary	-5.823717e-05
-4.341909	Control	0.006565812
-4.642939	Control.	0.02309961
-4.642939	Conveniently	-5.329603e-05
-4.642939	Convicted	0.00158036
-4.642939	Cops	0.004601438
-4.642939	Corn	-4.835481e-05
-4.642939	Corps	0.001069801
-4.642939	Correct,	0.006633921
-4.642939	Could	0.001025217
-4.642939	Couldn't	0.004077341
-4.642939	Coulter	-5.823717e-05
-4.642939	Counsel	0.002692777
-4.642939	Counting	-5.823717e-05
-4.642939	Country-level	1.094398e-05
-4.642939	County	-5.823717e-05
-4.642939	County,	0.004077341
-4.642939	Couple	-2.858947e-05
-3.739849	Court	0.01378225
-4.642939	Court's	-5.823717e-05
-4.642939	Covenant	-4.835481e-05
-4.642939	Crazy.	0.02309961
-4.642939	Crenshaw	-4.835481e-05
-4.466848	Crime	-9.670873e-05
-4.642939	Crimefree	0.0003965837
-4.642939	Crimes	0.006633921
-4.341909	Criminal	-0.0001065808
-4.642939	Criminals	-1.870643e-05
-4.642939	Crisis	0.0009954982
-4.466848	Cruz	0.0002097695
-4.642939	Cruz.	0.02309961
-4.466848	Cuban	-0.0001164741
-4.642939	Cudahy	-2.364797e-05
-4.642939	Cue	0.0004955208
-4.642939	Cupp's	2.576994e-05
-4.642939	Currently	-2.364797e-05
-4.642939	Cylinder	-5.329603e-05
-4.466848	D.C.	0.0005164642
-4.642939	DA	-5.823717e-05
-4.642939	DA's	0.002802186
-4.642939	DANGER.	0.02309961
-4.642939	DC	-5.823717e-05
-4.466848	DC,	0.006590892
-4.466848	DC.	0.02306555
-4.642939	DEATH:	0.0002284421
-4.642939	DEFENSE.	0.02309961
-4.642939	DEPENDENT	-2.858947e-05
-4.642939	DGU	0.00494619
-4.642939	DHS	-5.823717e-05
-4.642939	DISCIPLINE	-5.823717e-05
-4.642939	DNA,	0.006633921
-4.466848	DO	-4.234933e-05
-4.642939	DONT	0.0002581095
-4.642939	DP	0.006633921
-4.642939	DP.	0.02309961
-4.466848	DQ	0.001675945
-4.642939	DQ'ed,	0.002757425
-4.642939	DUH!!!.	0.02309961
-4.642939	DVD	-5.823717e-05
-4.642939	Dad's	2.576994e-05
-4.244999	Daily	-0.0001835299
-4.642939	Dala	-5.823717e-05
-4.642939	Daleiden	0.006633921
-4.642939	Dallas	0.0001394525
-4.642939	Dam	0.0001394525
-4.642939	Damn,	0.000183945
-4.642939	Damned	0.001129253
-4.642939	Damon,	-5.823717e-05
-4.466848	Dan	-0.0001115328
-4.466848	Dana	-0.0001164741
-4.642939	Dangerous.	0.02309961
-4.642939	Daniel	-5.823717e-05
-4.642939	Darwin?.	0.02309961
-4.642939	Dashboard	-8.823187e-06
-4.466848	Dave	-0.0001115328
-4.341909	David	-0.0001450617
-4.466848	Day	-9.670872e-05
-4.642939	Dead	5.048099e-05
-4.642939	Deal.	0.02309961
-4.642939	Debts	0.006633921
-4.642939	Dec.	-5.823717e-05
-4.642939	Decision	-3.847224e-05
-4.642939	Declaration	0.007377197
-4.642939	Decreased	-5.823717e-05
-4.466848	Deerfield	0.004898065
-4.642939	Defence	0.006633921
-4.642939	Defending	1.094398e-05
-4.244999	Defense	0.007208026
-4.642939	Dem	-3.35309e-05
-4.642939	Demand	-1.870643e-05
-4.466848	Democrat	0.01165855
-4.642939	Democrat.	0.02309961
-4.642939	Democratic	-5.823717e-05
-4.040879	Democrats	0.01567371
-4.341909	Democrats,	0.01736891
-4.341909	Democrats.	0.0230315
-4.341909	Dems	0.001429242
-3.864788	Department	0.02068326
-4.642939	Depends	0.001892939
-4.642939	Deripashka	-5.823717e-05
-4.642939	Des	-5.823717e-05
-4.642939	Despite	0.0002927239
-4.642939	Detective	-5.823717e-05
-4.642939	Deuce,	0.0001740575
-4.642939	Devil's	8.013612e-05
-4.642939	Dick	-5.823717e-05
-3.688697	Did	0.03099687
-4.466848	Didn't	0.004044142
-4.466848	Different	-1.269591e-05
-4.642939	Diplomatic	-4.835481e-05
-4.642939	Directive	-5.823717e-05
-4.642939	Director	0.002692777
-4.466848	Director,	-8.241043e-05
-4.642939	Disagree	0.002295158
-4.642939	Disciplined	-5.823717e-05
-4.341909	Disease	-0.0001164634
-4.642939	Disinformation	0.001545642
-4.642939	Disingenuous.	0.02309961
-4.642939	DisneyDude	0.009928052
-4.642939	Distribution	-4.835481e-05
-4.341909	District	0.01409387
-4.642939	Ditch	0.005171175
-4.642939	Division,	-5.329603e-05
-3.512605	Do	0.01433571
-3.864788	Does	0.02586113
-4.165818	Doesn't	0.000114214
-4.642939	Doesn’t	-2.858947e-05
-4.642939	Doing	0.0008568328
-4.466848	Don	-0.0001065915
-4.040879	Don't	-7.731825e-06
-4.341909	Donald	-1.21506e-05
-4.642939	Dorr	-4.835481e-05
-4.642939	Double	-5.329603e-05
-4.642939	Down	-4.341356e-05
-4.642939	Dr.	-4.835481e-05
-4.642939	Dred	-5.329603e-05
-4.642939	Drug	-5.823717e-05
-4.642939	Duck	-3.847224e-05
-4.244999	Due	0.009823497
-4.642939	Dumb	-5.823717e-05
-4.642939	Dunblane	-4.835481e-05
-4.642939	Dunlap,	0.001471258
-4.341909	During	0.02316946
-4.466848	Duties,	-8.735164e-05
-4.642939	Duty	-5.823717e-05
-4.642939	Dying	0.001069801
-4.642939	Dylan	6.036582e-05
-4.642939	Dynamic	-5.823717e-05
-4.642939	E.	-5.823717e-05
-4.466848	EDIT:	0.005348173
-4.642939	EDIT:Reading	7.519344e-05
-4.642939	ELSE,	0.000361961
-4.642939	ENRON	-3.35309e-05
-4.466848	ERA.	0.02306555
-4.642939	ETSing.	0.02309961
-4.642939	EU	0.001352269
-4.642939	EVER	-5.823717e-05
-4.642939	EVERTHING	0.008428995
-4.642939	EVERY	-5.823717e-05
-4.642939	EVERYONE	0.0001246226
-4.642939	EVERYTHING	-4.835481e-05
-4.642939	EVIL.	0.02309961
-4.642939	Each	-3.35309e-05
-4.642939	Ear?.	0.02309961
-4.642939	Earlier	0.001431591
-4.642939	East	0.00158036
-4.642939	Echoing	-8.823187e-06
-4.642939	Economist	-5.329603e-05
-4.642939	Educate	1.588588e-05
-4.466848	Edwards	-9.176727e-05
-4.642939	Edwin	-5.823717e-05
-4.466848	Eisenhower	0.001646175
-4.642939	Either	0.001605159
-4.642939	Ellicott	-5.823717e-05
-4.642939	Emission	-3.35309e-05
-4.642939	Empire	-5.823717e-05
-4.642939	End	0.007377197
-4.642939	Enforcement	0.00494619
-4.642939	Engage	-5.823717e-05
-4.341909	England	0.01011046
-4.642939	English	2.576994e-05
-4.642939	Enjoy	0.01448207
-4.642939	Equating	9.496449e-05
-4.642939	Ergo,	0.01448207
-4.165818	Eric	0.00646471
-4.098871	Especially	0.007351111
-4.642939	Etc...	-3.881475e-06
-4.642939	Europe	-5.329603e-05
-4.642939	Europe,	0.006633921
-4.642939	Europe.	0.02309961
-4.642939	Europeans,	-4.835481e-05
-3.71352	Even	0.01585017
-4.341909	Ever	0.0003543349
-4.165818	Every	0.0003071577
-4.642939	Everybody	-1.376485e-05
-4.642939	Everyone).	0.02309961
-4.466848	Everything	0.004513342
-4.642939	EverytownResearch.org	0.0001246226
-4.642939	Evidence	-5.823717e-05
-4.642939	Examine	0.01448207
-4.466848	Excellent	6.144655e-05
-4.642939	Except,	0.005171175
-4.642939	Except...no,	0.0005548938
-4.642939	Exceptions	0.009928052
-4.642939	Excessive	-5.823717e-05
-4.642939	Excises	6.002101e-06
-4.642939	Excises,	0.009928052
-4.642939	Execution	0.01448207
-4.642939	Expenses	0.0002234978
-4.642939	F**k	-5.329603e-05
-4.642939	F.	-5.823717e-05
-4.642939	F.B.I.	0.02309961
-4.642939	F.E.A.R.	0.02309961
-4.642939	FAR	0.0008419784
-3.902576	FBI	0.01263271
-4.341909	FBI,	0.007799253
-4.642939	FBI’s	-5.823717e-05
-4.341909	FDR	0.006723544
-4.642939	FDR...	0.006633921
-4.642939	FEELINGS	4.553867e-05
-4.642939	FEMA	-5.823717e-05
-4.642939	FERNDERS"	0.0002333866
-4.642939	FF.	0.02309961
-4.642939	FIREARM	-5.823717e-05
-4.642939	FL,	0.0001147363
-4.642939	FOID	-4.835481e-05
-4.642939	FORCED	0.009928052
-4.642939	FOUR	0.0002877789
-4.642939	FSU	-5.823717e-05
-4.642939	FYI,	0.0009954982
-4.466848	Facebook	0.007857306
-4.466848	Fair	-6.211717e-05
-4.642939	Fair.	0.02309961
-4.642939	Fake	-8.823187e-06
-4.466848	False	-0.0001016501
-4.642939	Farago	0.002295158
-4.642939	Fear	0.007377197
-4.466848	Fed	-0.0001065915
-4.642939	Fed's	-5.823717e-05
-3.989727	Federal	9.290337e-05
-4.466848	Federalist	7.133318e-05
-4.642939	Feds'	-3.881475e-06
-4.642939	Feds.	0.02309961
-4.466848	Feinstein	0.001318213
-4.642939	Feinstein's	-5.823717e-05
-4.642939	Feinsteins.	0.02309961
-4.642939	Fifty	0.0002284421
-4.642939	Filter	-5.823717e-05
-4.466848	Finally,	0.01704298
-4.642939	Finn,	0.004077341
-4.642939	Firearm-related	0.0001394525
-4.642939	Firearms	-5.823717e-05
-4.040879	First	0.007217622
-4.244999	First,	0.0100474
-4.642939	First...	0.005171175
-4.642939	Firstly,	0.001292786
-4.642939	Fla.,	0.006633921
-3.902576	Florida	0.0004456385
-4.642939	Florida,	0.0008617843
-3.563758	For	0.03046693
-4.341909	Force	0.005280053
-4.466848	Force,	0.004064098
-4.642939	Forces;.	0.02309961
-4.642939	Ford	0.001352269
-4.466848	Fortunately,	0.004508348
-4.642939	Forty-five	9.990737e-05
-4.466848	Founders	0.006646094
-4.642939	Founding	-5.823717e-05
-4.466848	Four	-0.0001164741
-4.165818	Fox	-0.0002121114
-4.642939	Fox,	-3.881475e-06
-4.244999	France	0.01115692
-4.642939	France)	0.009928052
-4.466848	France.	0.02306555
-4.466848	Franklin	2.190233e-05
-4.466848	Frankly,	0.001204842
-4.642939	Fraternal	-5.823717e-05
-4.642939	Free	-5.823717e-05
-4.642939	Freedom	0.00494619
-4.642939	French	-4.835481e-05
-4.642939	Frequently	-5.823717e-05
-4.642939	Friend	0.005171175
-4.642939	Friends."	0.02309961
-4.642939	Fries	-4.835481e-05
-3.943969	From	0.02169899
-4.642939	From:	0.001471258
-4.642939	Fund	0.007377197
-4.466848	Funny	-7.753476e-06
-4.466848	Further	0.004593256
-4.642939	Further,	0.01448207
-4.466848	Furthermore,	0.003181938
-4.642939	Fwiw,	0.005406285
-4.642939	Fyffe	0.002295158
-4.642939	G's	0.0002234978
-4.642939	GENDER	-5.329603e-05
-4.642939	GFZ	0.002822081
-4.642939	GIECO	-5.823717e-05
-3.943969	GOP	0.003467542
-4.642939	GOP.	0.02309961
-4.642939	GOPers	0.0007033622
-4.341909	GUN	0.007974262
-4.642939	GUNS	-5.329603e-05
-4.642939	GUNS,	0.0004262625
-4.642939	GW	-4.835481e-05
-4.642939	GWB	0.0003718529
-4.642939	Ga.,	0.0008766393
-4.466848	Gaetz	0.0001702117
-4.642939	Gaetz.	0.02309961
-4.642939	Games	-5.823717e-05
-4.642939	Garland	0.001352269
-4.642939	Gee,	0.001109435
-4.642939	Geeze.	0.02309961
-4.341909	Gen.	-0.0001164634
-4.642939	General	-5.823717e-05
-4.642939	Genocide	-3.35309e-05
-4.642939	Genuinely	-5.823717e-05
-4.642939	George	-5.823717e-05
-4.341909	German	-0.0001747108
-4.642939	Germans	0.0004757315
-4.642939	Germany:	-2.364797e-05
-4.244999	Get	0.01306338
-4.642939	Gilroy	-4.835481e-05
-4.466848	Give	0.002878331
-4.466848	Given	0.01983286
-4.642939	Glad	0.009928052
-4.466848	Glock	0.005388206
-4.466848	Glock.	0.02306555
-4.642939	Glocks	0.001198623
-4.165818	Go	0.001838905
-4.165818	God	0.01174368
-4.642939	God's	-5.823717e-05
-4.642939	God-worshiping	0.001491093
-4.642939	God.	0.02309961
-4.244999	Going	0.01004976
-4.642939	Gold	-5.823717e-05
-4.466848	Golden	-0.0001164741
-4.040879	Good	0.007641385
-4.642939	Goodnight	0.009928052
-4.466848	Google	0.004024188
-4.642939	Googled	0.01448207
-4.642939	Googling:	-5.823717e-05
-4.642939	Goran	-5.823717e-05
-4.642939	Gorsuch	0.0007924674
-4.642939	Gorsuch.	0.02309961
-4.642939	Goshin	7.519344e-05
-4.341909	Goshin,	0.005545336
-4.466848	Got	0.003321369
-4.642939	Gotta	6.530829e-05
-4.341909	Gov	0.005595408
-4.642939	Gov.	0.02309961
-4.244999	Government	0.01402232
-4.466848	Governor	-8.735164e-05
-4.642939	Grab	0.0005054157
-4.466848	Grammar	0.00276391
-4.466848	Great	-0.0001115328
-4.642939	Great,	0.0008568328
-4.642939	Green	-5.823717e-05
-4.642939	Greene	0.004601438
-4.642939	Greg	-5.329603e-05
-4.642939	Grip	-5.823717e-05
-4.642939	Grossman	0.0007281117
-4.642939	Gualtieri	0.007377197
-4.040879	Guard	0.01782244
-4.642939	Guard.	0.02309961
-4.466848	Guess	0.001056179
-4.642939	Guidelines	0.00494619
-3.481571	Gun	0.008397286
-4.642939	Gun-control	0.0001443959
-4.642939	Gun-howitzer	-3.847224e-05
-4.642939	Gun?"	0.02309961
-3.563758	Guns	0.02134079
-4.642939	Guns!!!!".	0.02309961
-4.341909	Guns,	0.0007453526
-4.642939	Gunshot	-5.823717e-05
-4.642939	H.	-5.823717e-05
-4.642939	HAVE	-5.823717e-05
-4.642939	HE	-5.823717e-05
-4.642939	HER	0.0001345091
-4.466848	HS	0.0004372965
-4.466848	HUMAN	-0.0001164741
-4.341909	Had	0.01441396
-4.642939	Hair	0.006633921
-4.642939	Half-assed	-2.858947e-05
-4.642939	Hall	-5.823717e-05
-4.642939	Hamilton	-5.823717e-05
-4.642939	Hampshire.	0.02309961
-4.642939	Handgun	-5.329603e-05
-4.466848	Handguns	0.002818629
-4.642939	Hannity,	0.006633921
-4.642939	Happened	0.0006142751
-4.642939	Hard	0.009928052
-4.642939	Harper	6.002101e-06
-4.341909	Harris	0.001235859
-4.466848	Harris's	0.0001158258
-4.642939	Harris,	0.01448207
-4.642939	Harvard	-4.835481e-05
-4.341909	Harvey	-0.0001406445
-4.466848	Has	0.000862993
-4.466848	Hatfield	-0.0001065915
-4.466848	Hatred.	0.02306555
-4.466848	Have	0.004043286
-4.244999	Having	0.0006623781
-4.642939	Hawai'i,	-5.823717e-05
-4.642939	Hawaii	0.0007924674
-3.41249	He	0.008749775
-4.165818	He's	0.01307679
-4.642939	Headline	-8.823187e-06
-4.642939	Headquarters	1.094398e-05
-4.040879	Health	0.006689947
-4.466848	Health;	0.006599865
-4.642939	Heck	0.005406285
-4.466848	Hell	0.0005758494
-4.165818	Hell,	0.005930122
-4.244999	Heller	0.002990935
-4.642939	Heller,	0.004601438
-4.642939	Henrin	0.0003075595
-4.642939	Henry,	0.0007231619
-4.466848	Her	1.201683e-05
-4.098871	Here	0.01445833
-4.466848	Here,	5.156016e-05
-4.642939	Hey	-5.823717e-05
-4.244999	Hey,	0.00726723
-4.165818	High	-0.0001983344
-4.642939	Highland	-5.823717e-05
-4.466848	Hilarious.	0.02306555
-4.341909	Hillary	-0.0001450618
-4.642939	Hillary,	-5.329603e-05
-4.642939	Hint:	0.000203721
-3.943969	His	0.002874418
-4.642939	Hispanic	-5.823717e-05
-4.466848	Hmm,	0.00539321
-4.642939	Hmmm	-3.847224e-05
-4.642939	Hobbes	0.0009162551
-4.642939	Hodgkinson	0.0003718529
-4.341909	Hogg	0.00581078
-4.642939	Holy	-5.823717e-05
-4.341909	Home	-0.0001747108
-4.642939	Homes'	-5.823717e-05
-4.642939	Homicide	-4.835481e-05
-4.642939	Honestly	1.588588e-05
-4.642939	Honourable	-4.341356e-05
-4.466848	Hook	0.00659591
-4.341909	Hook,	0.01483149
-4.466848	Hook.	0.02306555
-4.642939	Hope	0.004077341
-4.466848	Hopefully	3.178803e-05
-4.642939	Hopefully.....	0.02309961
-4.642939	Hoplophobes	0.006633921
-4.642939	Hospital	0.006633921
-4.165818	House	0.01399505
-3.165818	How	0.01402361
-4.642939	How's	0.005171175
-4.642939	Howard	-4.341356e-05
-4.642939	However	0.002474042
-3.902576	However,	0.03368575
-4.642939	Howitzer	0.001129253
-4.642939	Huh	-3.35309e-05
-4.341909	Human	-0.0001455858
-4.341909	Humans	0.002874896
-4.642939	Humbucking	-5.823717e-05
-4.642939	Humphreys,	0.000183945
-4.642939	Hungary,	0.01448207
-4.466848	Hunting	0.007671133
-1.902182	I	0.01467642
-4.642939	I'M	0.008428995
-3.481571	I'd	0.007837649
-3.563758	I'll	0.004835425
-2.843599	I'm	0.04320787
-4.642939	I'm,	0.0001691136
-3.203606	I've	0.003138995
-4.244999	I,	0.003907904
-4.642939	I...	-3.847224e-05
-4.642939	I...I	0.001198623
-4.642939	I?	0.02309961
-4.341909	ID	0.006994733
-4.642939	IDs	0.0008766393
-4.642939	IE:	0.01448207
-4.466848	IF	0.01444801
-4.642939	II?	0.02309961
-4.642939	IL,	7.519344e-05
-4.642939	IMHO.	0.02309961
-4.642939	IMO	0.001352269
-4.341909	IMO,	0.01737085
-4.642939	IMPOSSIBLE	-4.341356e-05
-4.642939	IMR4350	0.006633921
-4.466848	IN	0.001373388
-4.642939	INB4	0.001025217
-4.642939	IPV.	0.02309961
-4.341909	IQ	0.01240352
-4.642939	IRS	-5.823717e-05
-4.341909	IS	0.0144378
-4.341909	ISIS	0.006663303
-4.642939	IT	-4.835481e-05
-4.642939	IamYoda	0.00494619
-4.642939	Iceland	0.004077341
-4.642939	Idc	0.001129253
-4.642939	Idea":	0.001471258
-4.642939	Identify	0.01448207
-2.823395	If	0.05517487
-3.989727	Illinois	0.009788767
-4.466848	Illinois,	0.00662602
-4.466848	Im	0.001338682
-4.642939	Imagine	0.001129253
-4.642939	Imo,	0.0004509963
-4.466848	Imposts	0.006599865
-3.080646	In	0.03589987
-4.642939	Inc.,	0.001352269
-4.642939	Incognito	-5.823717e-05
-4.642939	Indeed,	0.01448207
-4.642939	Independence	-5.329603e-05
-4.642939	Independence,	0.006633921
-4.165818	Indiana	0.01335717
-4.642939	Indictable	-5.823717e-05
-4.642939	Individualism	0.000238331
-4.642939	Indonesia	0.00494619
-4.642939	Indonesia's	-5.329603e-05
-4.642939	Indonesia...is	-8.823187e-06
-4.642939	Indonesian	1.094398e-05
-4.642939	Indonesians	0.009928052
-4.642939	Indonesia’s	0.0001394525
-4.642939	Ingraham's	-2.858947e-05
-4.642939	Inherently	-5.823717e-05
-4.642939	Innocents	-5.823717e-05
-4.642939	Insider	-5.823717e-05
-4.642939	Insincere	-4.341356e-05
-4.466848	Instead	0.007343141
-4.466848	Instead,	0.001790078
-4.466848	Institute	0.01748013
-4.642939	Insufficient	0.0001592263
-4.642939	Intelligence	-5.823717e-05
-4.244999	Interesting	0.004442033
-4.642939	Interesting.	0.02309961
-4.466848	Internal	-8.735164e-05
-4.642939	Interpretation	0.006633921
-4.466848	Intimate	-0.0001065915
-4.642939	Iran	0.004601438
-4.642939	Iraq	-1.376485e-05
-3.546029	Is	0.009003022
-4.642939	Islamic	-5.823717e-05
-4.642939	Isn't	-5.823717e-05
-4.642939	Israel	0.00494619
-2.939648	It	0.02864284
-3.165818	It's	0.04059734
-4.642939	Italy,	-5.823717e-05
-3.943969	Its	0.0195018
-4.466848	It’s	0.003759875
-4.642939	Ivanisevic).	0.02309961
-4.642939	Ive	3.565418e-05
-4.466848	I’m	0.00272337
-4.642939	I’ve	-3.35309e-05
-4.341909	J.	-0.0001747108
-4.642939	JFC,	0.0004262625
-4.466848	JFK	0.0003235181
-4.466848	JFK,	0.01503262
-4.642939	JPS	-3.35309e-05
-4.642939	JUST	0.002692777
-4.642939	Jakarta	0.0007281117
-4.642939	Jakarta,	-5.823717e-05
-4.642939	Jakarta’s	2.576994e-05
-4.244999	James	-0.0002230642
-4.642939	Jan	-5.823717e-05
-4.642939	Jan.	-3.35309e-05
-4.642939	Japan	-5.823717e-05
-4.642939	Japan,	0.006633921
-4.642939	Japan.	0.02309961
-4.642939	Jebediah	-3.847224e-05
-4.642939	Jedi	-5.329603e-05
-4.642939	Jedidiah.	0.02309961
-4.642939	Jefferies.	0.02309961
-4.244999	Jefferson	0.004795895
-4.642939	Jefferson:	-5.823717e-05
-4.341909	Jersey	0.0003889677
-4.642939	Jersey's	0.0003421777
-4.642939	Jersey,	0.006633921
-4.642939	Jersey,"	-5.329603e-05
-4.642939	Jersey.	0.02309961
-4.642939	Jesus	-5.823717e-05
-4.466848	Jesus.	0.02306555
-4.642939	Jet	0.0003174502
-4.642939	Jim	-5.823717e-05
-4.642939	Joe	-5.823717e-05
-4.642939	Joey	0.0007281117
-4.642939	Joey.	0.02309961
-4.165818	John	-0.0002911837
-4.642939	Joint	-4.835481e-05
-4.466848	Jones	0.004888068
-4.642939	Jones'	-4.835481e-05
-4.642939	Jones.	0.02309961
-4.642939	Journal	-5.823717e-05
-4.642939	Journal.	0.02309961
-4.642939	Juan	-5.823717e-05
-4.466848	July	-0.0001164741
-4.466848	June	-0.0001164741
-4.642939	Jus	-5.329603e-05
-3.546029	Just	0.02001366
-4.244999	Justice	-6.049557e-05
-4.642939	Justice,	-5.823717e-05
-4.642939	K-12	-5.823717e-05
-4.341909	KKK	0.008247413
-4.642939	Kal	-5.823717e-05
-4.642939	Kal'Stang	1.588588e-05
-4.642939	Karabian	-4.835481e-05
-4.341909	Keep	0.001701435
-4.341909	Kelly	0.00125569
-4.642939	Kent	-5.823717e-05
-4.466848	Kentucky	-7.200077e-05
-4.642939	Ketchum	-4.835481e-05
-4.642939	Khmer	-5.823717e-05
-4.642939	Killed	-4.341356e-05
-4.642939	Killing”.	0.02309961
-4.642939	Kind	0.007377197
-4.642939	Kinda	0.0008518813
-4.642939	Kingdom	0.007377197
-4.642939	Kitchen	0.002295158
-4.466848	Klebold	0.006731422
-4.642939	Knee,	0.0009954982
-4.642939	Knox	-4.835481e-05
-4.466848	Kopel	0.007344264
-4.642939	Korea	-5.329603e-05
-4.642939	Korean	6.002101e-06
-4.466848	Kulinski	0.004912135
-4.642939	L.	-5.823717e-05
-4.642939	LA	-2.364797e-05
-4.642939	LAST	0.000183945
-4.642939	LATimes	-5.823717e-05
-4.642939	LBJ	0.002692777
-4.642939	LC9	9.002161e-05
-4.642939	LC9.	0.02309961
-4.642939	LCP.	0.02309961
-4.642939	LE,	0.0005054157
-4.642939	LEA	0.009928052
-4.466848	LEGAL	0.0007045454
-4.642939	LIST	-3.847224e-05
-4.642939	LOL!!!!!!!!!!!!!!!!!!!!!!!!!	0.02309961
-4.642939	LOT	-2.364797e-05
-4.642939	LOVE	-2.858947e-05
-4.642939	LWOP	-5.823717e-05
-4.642939	La.	0.02309961
-4.642939	LaP	0.001892939
-4.165818	LaPierre	0.005619437
-4.466848	LaPierre's	-0.0001016501
-4.341909	LaPierre,	0.0003444402
-4.642939	LaPierre’s	-5.823717e-05
-4.642939	Lack	0.007377197
-4.341909	LagerHead	-0.0001450618
-4.642939	Lame,	0.005406285
-4.642939	Lampton	0.0002234978
-4.642939	Langford,	-1.376485e-05
-4.642939	Lanier,	-5.823717e-05
-4.642939	Larry	-5.823717e-05
-4.098871	Las	-0.0002279631
-4.642939	Last	0.0002482201
-4.642939	Lastly	0.01448207
-4.244999	Lastly,	0.00679602
-4.642939	Laughing,	0.0004658372
-4.165818	Law	0.01193377
-4.466848	Law,	0.00153704
-4.341909	Laws	0.001166462
-4.642939	Lbs	4.553867e-05
-4.642939	League	-5.823717e-05
-4.642939	Leave	0.0005697383
-4.642939	Lebron	-5.823717e-05
-4.466848	Legal	0.002813655
-4.642939	Legislations	0.002822081
-4.642939	Les	-4.835481e-05
-4.642939	Less	0.0002877789
-3.830026	Let	0.01471794
-3.830026	Let's	0.004099252
-4.642939	Lethal	-5.329603e-05
-4.642939	Lets	0.002578425
-4.642939	Lever	-1.376485e-05
-4.642939	Lewis,	-3.35309e-05
-4.642939	Leyonhjelms,	0.006633921
-4.466848	Liberal	-0.0001164741
-4.341909	Liberals	0.003143692
-4.466848	Liberty	0.0002592217
-4.642939	Liberty,	0.009928052
-4.642939	License	0.00158036
-4.642939	License)	0.004077341
-4.642939	Licenses.	0.02309961
-4.642939	Lies,	-4.341356e-05
-3.989727	Like	0.007103133
-4.642939	Like,	0.0008370269
-4.642939	Likely	0.01448207
-4.642939	Limitations.	0.02309961
-4.642939	Limiting	0.01448207
-4.642939	Lincoln,	-3.847224e-05
-4.642939	Lincoln:	-5.823717e-05
-4.642939	List	-3.847224e-05
-4.642939	Listen,	5.048099e-05
-4.642939	Literally	-5.823717e-05
-4.642939	Little	-5.823717e-05
-4.642939	Loans	-5.823717e-05
-4.466848	Local	0.000308122
-4.642939	Locals	-5.823717e-05
-4.642939	Locke	0.006633921
-4.642939	Loesch,	0.001168892
-4.642939	London	0.006633921
-4.642939	Long	0.0002482201
-4.341909	Look	0.005505282
-4.642939	Look,	0.005406285
-4.642939	Looking	-5.329603e-05
-4.466848	Looks	0.0008178257
-4.642939	Lori	-4.835481e-05
-4.341909	Los	-0.0001747108
-4.642939	Loss	0.007377197
-4.642939	Lots	0.0008419784
-4.642939	Lott	0.006633921
-4.642939	Louisiana.	0.02309961
-4.642939	Lovox.	0.02309961
-4.466848	Lower	-9.670873e-05
-4.642939	Loyalist	-5.329603e-05
-4.642939	Lt	-5.823717e-05
-4.642939	Lubbock,	-5.823717e-05
-4.642939	Lubitz,	3.071204e-05
-4.642939	Luther's	-4.835481e-05
-4.642939	Lutherf	-5.329603e-05
-4.642939	M-16	3.071204e-05
-4.642939	M-60	-5.823717e-05
-4.642939	M.	-5.823717e-05
-4.341909	M1	-0.0001351782
-4.466848	M16	0.000199331
-4.642939	M4	-5.823717e-05
-4.642939	MADD?	0.02309961
-4.642939	MAIN	-2.858947e-05
-4.642939	MANY	-4.835481e-05
-4.642939	MEANS	0.009928052
-4.642939	MILITIA	-5.823717e-05
-4.642939	MJ	0.004601438
-4.642939	MODEL	0.001892939
-4.642939	MP	0.006633921
-4.642939	MRE	-5.823717e-05
-4.642939	MS?.	0.02309961
-4.642939	MSM	0.0007281117
-4.642939	MSNBC.	0.02309961
-4.341909	MUCH	7.242656e-05
-4.466848	MUST	0.002579908
-4.642939	Ma	-5.823717e-05
-4.642939	Mac	-5.823717e-05
-4.642939	Mac10's,sten's	0.006633921
-4.642939	Madness	-5.823717e-05
-4.642939	Mail	-5.823717e-05
-4.642939	Maj.	-5.823717e-05
-4.642939	Majesty's	-5.823717e-05
-4.642939	Majorities	0.001198623
-4.341909	Make	0.002989363
-4.466848	Makes	0.0008184236
-4.642939	Makeup	0.002692777
-4.642939	Making	0.008428995
-4.466848	Man	0.0002443855
-4.642939	Man,	0.001129253
-4.642939	Mandatory	-8.823187e-06
-4.642939	Mansions,	-5.329603e-05
-4.642939	Mansions..etc...	-5.823717e-05
-4.165818	Many	0.01000458
-4.466848	Many,	0.0003630896
-4.642939	Marcos	0.006633921
-4.341909	Maria	-0.0001455858
-4.642939	Marine	-5.823717e-05
-4.642939	Marine),	0.005171175
-4.642939	Marshall	-5.823717e-05
-4.642939	Marxism/USSR/North	-5.823717e-05
-4.642939	Maryland,	-5.823717e-05
-4.341909	Mass	4.716706e-05
-4.642939	Massachusetts,	-8.823187e-06
-4.642939	Massacre	0.007377197
-4.642939	MateoMtnClimber	0.005406285
-4.244999	Matt	0.000557823
-4.642939	Matter	0.007377197
-4.642939	Matthay,	0.008428995
-4.642939	Mattoon	-3.847224e-05
-4.642939	Mature	-5.329603e-05
-4.341909	May	-0.0001747108
-3.767878	Maybe	0.02805094
-4.642939	Maybe,	1.060276e-06
-4.642939	McCarthy	-5.823717e-05
-4.642939	McConnell	0.002692777
-4.642939	McDonald	2.576994e-05
-4.642939	McQueen	-5.823717e-05
-4.466848	Me	-5.223336e-05
-4.642939	Meanwhile	0.0008617843
-4.466848	Meanwhile,	0.005713604
-4.642939	Medalist	0.004601438
-4.341909	Medical	-0.0001159371
-4.642939	Medicare.	0.02309961
-4.466848	Medicine,	0.004673185
-4.642939	Meet	5.048099e-05
-4.642939	Memphis	-5.823717e-05
-4.642939	Men	5.542338e-05
-4.466848	Mental	8.61635e-05
-4.466848	Mentally	-6.211717e-05
-4.642939	Merely	-4.835481e-05
-4.642939	Merritt.	0.02309961
-4.642939	Methodology	0.007377197
-4.642939	Mexicans,	-5.823717e-05
-4.466848	Mexico	0.004888068
-4.466848	Mexico,	0.004238749
-4.165818	Mexico.	0.0229634
-4.642939	Middle	-5.823717e-05
-4.466848	Might	0.0008382318
-4.642939	Mileage	-5.823717e-05
-4.341909	Military	-8.575754e-05
-4.466848	Militia	-3.299534e-05
-4.466848	Militia,	0.006599865
-4.642939	Militia.	0.02309961
-4.642939	Miller	3.565418e-05
-4.642939	Miller,	-5.329603e-05
-4.642939	Miller;	0.01448207
-4.642939	Milosavljevic	0.007377197
-4.642939	Milwaukee	-5.823717e-05
-4.642939	Milwaukee,	-5.823717e-05
-4.642939	Mind	0.004077341
-4.642939	Minister	0.002692777
-4.642939	Minority	-2.858947e-05
-4.642939	Misdemeanors	-5.823717e-05
-4.642939	Missed	0.01448207
-4.642939	Missile	-5.823717e-05
-4.642939	Mississippi.	0.02309961
-4.642939	Missouri	0.0003866912
-4.466848	Mitch	-0.0001115328
-4.642939	Mix	0.005171175
-4.642939	Mode.	0.02309961
-4.642939	Moderate?	0.02309961
-4.642939	Moderator	-1.376485e-05
-3.830026	Moderator's	-0.0003783467
-4.642939	Modern	-5.823717e-05
-4.642939	Moines.	0.02309961
-4.642939	Molding	0.0001048503
-4.642939	Monday	0.004601438
-4.642939	Monitoring	-5.823717e-05
-4.642939	Monterey	-5.823717e-05
-4.642939	Moore	-5.823717e-05
-4.642939	Moral:	2.576994e-05
-4.341909	More	0.01104246
-4.642939	Moreover,	0.001263049
-4.642939	Moscone	0.006633921
-4.642939	Moscow	-5.329603e-05
-4.642939	Mossberg	-5.823717e-05
-4.642939	Mossberg.	0.02309961
-3.797841	Most	0.01151712
-4.642939	Mosty	0.007377197
-4.642939	Mother	-5.823717e-05
-4.642939	Mothers	0.0009162551
-4.642939	Motorcycles	0.002822081
-4.642939	Moved	0.009928052
-4.165818	Mr.	0.0229029
-4.341909	Mulford	-0.0001307616
-4.642939	Mulford,	0.01448207
-4.466848	Murder	0.001487442
-4.642939	Music	0.006633921
-4.642939	Musician	-5.823717e-05
-4.642939	Muskets	0.006633921
-4.642939	Muslim	-5.329603e-05
-4.642939	Muslim,	-2.858947e-05
-4.341909	Muslims	0.007224764
-4.642939	Muslims,	-5.823717e-05
-4.466848	Must	0.002520248
-3.481571	My	0.0008316499
-4.466848	N.	-8.241043e-05
-4.466848	N.R.A.	0.02306555
-4.244999	NATIONAL	0.0001718889
-4.642939	NEPA.	0.02309961
-4.341909	NG	0.0149338
-4.642939	NH	0.00494619
-4.642939	NICS	0.006633921
-4.642939	NJIT	-2.364797e-05
-4.642939	NM????	0.02309961
-4.642939	NO	-4.835481e-05
-4.466848	NO-ONE	0.004888068
-4.642939	NONSENSE!	0.02309961
-3.797841	NOT	0.0131134
-4.642939	NOW	-3.35309e-05
-4.642939	NOW,	0.0007380121
-4.642939	NPR	0.0001246226
-4.642939	NPR's	-4.835481e-05
-4.642939	NPR).	0.02309961
-3.117894	NRA	0.03710702
-4.341909	NRA's	-0.0001500034
-4.642939	NRA).	0.02309961
-3.989727	NRA,	0.01315629
-4.642939	NRA-ILA	-8.823187e-06
-4.466848	NRA-funded	-0.0001164741
-4.341909	NRA.	0.0230315
-4.642939	NRA.".	0.02309961
-4.642939	NRA....	0.02309961
-4.642939	NV	0.001545642
-4.466848	NY	-8.68257e-05
-4.341909	NYC	0.007839517
-4.341909	NZ	0.0001762663
-4.642939	Nah,	0.0002086652
-4.642939	Name	0.0007231619
-4.642939	Named	0.0001790012
-4.642939	Nate	0.00494619
-3.739849	National	-0.0005667448
-4.642939	Nationalist	-5.823717e-05
-4.642939	Nationality	0.001129253
-4.642939	Nationmaster's	-5.823717e-05
-4.642939	Native	-4.341356e-05
-4.642939	Navy,	-5.823717e-05
-4.642939	Nazis	0.0001147363
-4.341909	Nearly	0.0002306684
-4.642939	Necessary.	0.02309961
-4.642939	Needs	0.009928052
-4.642939	Negro	-5.823717e-05
-4.642939	Nev.	0.02309961
-4.165818	Nevada	0.009652938
-4.642939	Nevada,	0.0003669069
-4.466848	Never	-8.682573e-05
-3.864788	New	-0.0005575969
-4.642939	New-York	-4.341356e-05
-3.864788	News	0.01491437
-4.642939	News).	0.02309961
-4.642939	News.	0.02309961
-4.642939	Newtown	1.094398e-05
-4.642939	Next	0.009928052
-4.642939	Next!.	0.02309961
-4.466848	Nice	-0.0001164741
-4.642939	Night	-5.823717e-05
-4.466848	Nikolas	-0.0001115328
-4.466848	Nixon	0.006932259
-4.642939	Nixon,	0.002474042
-3.341909	No	0.001297615
-3.797841	No,	0.02142886
-4.466848	No.	0.02306555
-4.341909	Nobody	1.750725e-05
-4.040879	None	0.0119165
-4.466848	Nope,	0.008199671
-4.642939	Nope....that	-4.835481e-05
-4.466848	Nor	0.002251879
-4.642939	Norad	-5.823717e-05
-4.642939	Norm	-5.823717e-05
-4.642939	North	-5.823717e-05
-4.098871	Northern	-0.0002472046
-4.642939	Norway's	-2.858947e-05
-3.528996	Not	0.01609104
-4.642939	Note	0.005171175
-4.098871	Nothing	0.005029717
-4.642939	Nothing,	6.530829e-05
-4.642939	Notice	0.005171175
-3.563758	Now	0.03164241
-4.040879	Now,	0.01953366
-4.642939	Nowadays	0.0004262625
-4.642939	Nugent	0.0007281117
-4.642939	Number	-4.835481e-05
-4.642939	Nunn	2.576994e-05
-4.642939	Nuthouse	-5.329603e-05
-4.642939	O	0.005406285
-4.466848	O'Keefe,	0.001834747
-4.642939	O'Rourke	0.0009954982
-4.341909	OC	0.006565812
-4.642939	OCD	-2.858947e-05
-4.165818	OF	-0.0002324034
-4.642939	OFFICERS,	-3.847224e-05
-4.165818	OK	0.01633516
-4.341909	OK,	0.005830821
-4.642939	OK.	0.02309961
-4.642939	OMG<	0.001491093
-4.642939	ONCE	0.006633921
-4.642939	ONCE,	-4.835481e-05
-4.341909	ONE	0.0001911025
-4.165818	ONLY	0.01459635
-3.864788	OP	0.0142507
-4.466848	OP's	-0.0001065915
-4.341909	OP,	0.008610307
-4.244999	OP.	0.02299745
-4.642939	OP:	-5.823717e-05
-4.466848	OR	0.001155282
-4.466848	OT	-5.223337e-05
-4.642939	OWNER	-5.329603e-05
-4.642939	Oakland	-5.823717e-05
-4.642939	Oakland,	-3.847224e-05
-3.71352	Obama	0.0198878
-4.642939	Obama's	-5.823717e-05
-4.642939	Obvious.	0.02309961
-4.098871	Obviously	0.006293324
-4.642939	Odd	0.0001888889
-4.642939	Odds	0.002822081
-3.902576	Of	0.0007794924
-4.642939	Office	-5.823717e-05
-4.642939	Office,	0.001263049
-4.642939	Officer	-5.823717e-05
-4.466848	Officers,	0.006599865
-4.642939	Official	-5.823717e-05
-4.642939	Officially,	0.0008370269
-3.864788	Oh	0.03081925
-4.341909	Oh,	0.006572957
-4.642939	Ohio	-4.835481e-05
-4.466848	Ok	0.01410239
-4.098871	Ok,	0.0008326401
-4.642939	Okay,	1.060276e-06
-4.642939	Oklahoma)	0.0003075595
-4.642939	OldFatGuy	0.0001295658
-4.642939	Oleg	-5.823717e-05
-4.341909	On	0.01518457
-4.466848	Once	0.004044142
-4.642939	Once,	0.002474042
-3.864788	One	0.01123913
-4.642939	Online	0.0003075595
-3.902576	Only	0.01913791
-4.642939	Ontologuy,	0.001203579
-4.466848	Open	0.005243106
-4.642939	Opinion	-5.823717e-05
-4.642939	Opinion,	-5.823717e-05
-3.739849	Or	0.03748009
-4.466848	Or,	0.004923059
-4.642939	Order	0.007377197
-4.642939	Oregon	0.006633921
-4.642939	Oregon.	0.02309961
-4.642939	Organization.	0.02309961
-3.387667	Originally	-0.001046603
-4.642939	Orlando	-5.823717e-05
-4.642939	Oswald	-2.858947e-05
-4.165818	Other	0.001778636
-4.642939	Other.	0.02309961
-4.642939	Others	0.002802186
-4.642939	Otherwise	5.542338e-05
-4.642939	Otherwise,	0.0004114227
-4.098871	Our	0.001557306
-4.642939	Outlawing	4.553867e-05
-4.642939	Over	-5.329603e-05
-4.642939	Over/Under	-5.329603e-05
-4.642939	Overall,	0.008428995
-4.642939	Overturning	-4.835481e-05
-4.642939	Owner	-8.823187e-06
-4.642939	Owning	0.008428995
-4.642939	O’Rourke	0.00494619
-4.642939	PA,	0.001025217
-4.642939	PAC-money	0.006633921
-4.642939	PAL	-5.823717e-05
-4.466848	PCA	0.0003433035
-4.642939	PCL	-5.823717e-05
-4.642939	PEOPLE"	0.0001345091
-4.642939	PERSON	-5.823717e-05
-4.642939	PITB.	0.02309961
-4.642939	POTUS	0.006633921
-4.642939	POV	0.001545642
-4.642939	PRESCRIBED	-5.823717e-05
-4.642939	PRISON	9.990737e-05
-4.642939	PRO-GUN	-5.823717e-05
-4.642939	PS:	0.0006489179
-4.642939	PTSD	0.006633921
-4.642939	Pac-money.	0.02309961
-4.642939	Pace	-5.823717e-05
-4.466848	Paddock	0.0003136257
-4.642939	Paddock's	-5.823717e-05
-4.642939	Page	0.0002234978
-4.642939	Palin,	-5.823717e-05
-4.642939	Palm	-5.823717e-05
-4.642939	Panther	-4.835481e-05
-4.642939	Panthers	-5.823717e-05
-4.642939	Paper	6.530829e-05
-4.642939	Paranoids	-5.823717e-05
-4.642939	Paris	0.001545642
-4.642939	Paris'	-2.364797e-05
-4.642939	Paris,	0.001203579
-4.642939	Park	0.002802186
-4.642939	Park,	-5.823717e-05
-4.341909	Parkland	0.00274056
-4.341909	Part	0.007309088
-4.642939	Partner	-5.329603e-05
-4.341909	Party	0.001587979
-4.642939	Party)	0.0003965837
-4.642939	Party,	-5.823717e-05
-4.642939	Passing	0.008428995
-4.642939	Pastor	0.000267999
-4.466848	Patrick	-0.0001164741
-4.642939	Patriot	-5.329603e-05
-4.341909	Paul	-0.0001697694
-4.642939	Peace	0.009928052
-4.642939	Pence	0.001263049
-3.665215	People	0.01722423
-4.642939	People's	0.0006142751
-4.642939	People,	0.008428995
-4.642939	Perform	0.001168892
-4.165818	Perhaps	0.008408523
-4.642939	Period.	0.02309961
-4.642939	Perry	-4.835481e-05
-4.642939	Personal	-5.329603e-05
-4.642939	Personally	-5.823717e-05
-4.341909	Personally,	0.005449244
-4.642939	Peter	-4.835481e-05
-4.466848	Philly	0.01499169
-4.642939	PirateMk1	-3.35309e-05
-4.642939	Places	1.094398e-05
-4.642939	Played	0.008428995
-3.902576	Please	0.001288476
-4.642939	Pol	-5.823717e-05
-3.989727	Police	0.005294872
-4.642939	Political	-5.823717e-05
-4.642939	Politifact	-5.823717e-05
-4.642939	Poll:	-5.823717e-05
-4.642939	Poly,	0.006633921
-4.642939	Pomeroy	-5.823717e-05
-4.642939	Port	-5.823717e-05
-4.341909	Posse	-0.0001164634
-4.642939	Possession	0.006633921
-4.244999	Post	0.0003802256
-4.642939	Postal"	5.048099e-05
-3.387667	Posted	0.0001066526
-4.642939	Posts	0.0007033622
-4.642939	Pot	0.006633921
-4.642939	Potus	0.001545642
-4.642939	Potus.	0.02309961
-4.642939	Poverty	0.00494619
-4.642939	Power	4.553867e-05
-4.642939	Powers	-5.329603e-05
-4.642939	Powers"	-3.35309e-05
-4.642939	Powers,	0.006633921
-4.642939	Pratt	-3.847224e-05
-4.642939	Precisely	0.0004114227
-4.466848	Precisely.	0.02306555
-4.642939	Prescribe?	0.02309961
-4.040879	President	0.01512538
-4.642939	President.	0.02309961
-4.642939	Pretend	0.0005548938
-4.466848	Pretty	6.144661e-05
-4.466848	Prevention	-8.735164e-05
-4.642939	Prevention,	0.002692777
-4.466848	Prior	-8.188414e-05
-4.466848	Pro-Gun	-6.264509e-05
-4.642939	Pro-Life	-2.858947e-05
-4.642939	Pro-tip.	0.02309961
-4.642939	Pro.	0.02309961
-4.642939	Probably	0.002692777
-4.466848	Problem	0.005173076
-4.642939	Problems	-2.364797e-05
-4.642939	Process	-5.823717e-05
-4.642939	Progress	0.007377197
-4.642939	Prohibiting	-3.35309e-05
-4.642939	Project	-4.341356e-05
-4.642939	Proof	0.0003075595
-4.642939	Psychiatric	9.496449e-05
-4.642939	Psychopaths	0.001292786
-4.244999	Public	-6.118892e-06
-4.642939	Puerto	-5.823717e-05
-4.642939	Pulled	0.009928052
-4.642939	Pump	0.006633921
-4.466848	Purpose:	0.001437202
-4.642939	Putin	0.001069801
-4.642939	Putin's	-5.823717e-05
-4.642939	Puts	0.01448207
-4.642939	Putting	-5.823717e-05
-4.642939	Pwnt!.	0.02309961
-4.642939	Quasi-experimental.	0.02309961
-4.642939	Query	-5.823717e-05
-4.642939	Query,	0.0003866912
-4.642939	Question	1.588588e-05
-4.642939	Questioned	0.001892939
-4.642939	Questions	-4.835481e-05
-4.642939	Quicken	-5.823717e-05
-4.642939	Quit	7.025084e-05
-4.642939	Quite	0.01448207
-4.466848	Quote	5.156014e-05
-4.642939	RADICAL	0.0003026143
-4.642939	RATHER	0.001605159
-4.642939	RCMP,	0.01448207
-4.642939	READ.	0.02309961
-4.642939	REAL/enforced	0.002672888
-4.466848	REALLY	7.13332e-05
-4.642939	REPUBLICANS	2.576994e-05
-4.642939	RESERVING	-5.329603e-05
-4.642939	RESPECTIVELY	-2.364797e-05
-4.642939	RFID	-4.341356e-05
-4.642939	RFK.	0.02309961
-4.642939	RFK’s	-5.823717e-05
-4.642939	RIFLE	0.006633921
-4.466848	RIGHT	0.009870046
-4.642939	RPAL	0.006633921
-4.642939	RPGS	-8.823187e-06
-4.642939	RPGs	0.006633921
-4.642939	Raise	0.01448207
-4.642939	Rambo.	0.02309961
-4.642939	Range????	0.02309961
-4.466848	Rangers	0.01546263
-4.642939	Ranges	-5.329603e-05
-4.642939	Ranging	0.001069801
-4.642939	Rate	0.007377197
-4.341909	Rather	0.0005714922
-4.642939	Ratings	-4.341356e-05
-4.642939	Raton,	-5.823717e-05
-4.642939	Rauner	-2.858947e-05
-4.642939	Rawle	-5.823717e-05
-4.642939	Ray9	-8.823187e-06
-4.466848	Raymond	0.0006401927
-4.642939	Raymond,	0.0003273411
-4.244999	Read	0.01682774
-4.341909	Reagan	0.008519555
-4.642939	Reagan,	0.0009162551
-4.642939	Real.	0.02309961
-4.466848	Reality	0.007671133
-4.642939	Realizing	0.0009954982
-4.642939	Really	-3.847224e-05
-4.642939	Really,	0.005406285
-4.098871	Really?	0.02292936
-4.642939	Really?.	0.02309961
-4.642939	Reason	0.00158036
-4.642939	Rebellion	0.006633921
-4.341909	Rebellion;	-0.000154945
-4.642939	Recent	-3.35309e-05
-4.642939	Recognition	-4.341356e-05
-4.642939	Reducing	0.01448207
-4.642939	Reefer	-5.823717e-05
-4.642939	Regardless	0.007377197
-4.642939	Region.	0.02309961
-4.642939	Regional	-4.835481e-05
-4.642939	Registration	0.0003026143
-4.466848	Regulation	0.007339237
-4.642939	Rejected	0.001263049
-4.642939	Related:	0.0002927239
-4.642939	Religion	0.006633921
-4.642939	Religious,	-4.341356e-05
-4.466848	Remember	-1.76383e-05
-4.466848	Remember,	0.02320351
-4.642939	Reminds	0.00040153
-4.642939	Remington	-5.823717e-05
-4.642939	Removing	0.01448207
-4.642939	Renae	-5.823717e-05
-4.642939	Renaissance	-5.823717e-05
-4.642939	Reno,	-5.823717e-05
-4.642939	Rep.	-5.823717e-05
-4.642939	Reply	0.009928052
-4.642939	Reports	-5.329603e-05
-4.642939	Representatives."	0.02309961
-4.642939	Republic	5.048099e-05
-4.642939	Republic.	0.02309961
-4.165818	Republican	0.00502374
-4.040879	Republicans	0.02090468
-4.642939	Repubs	-5.823717e-05
-4.642939	Requiring	0.008428995
-4.466848	Research	3.178807e-05
-4.642939	Resources	-8.823187e-06
-4.642939	Responsible	0.002672888
-4.642939	Restricted	-5.823717e-05
-4.466848	Results	0.007369399
-4.642939	Reuters	0.0001246226
-4.642939	Reuters.	0.02309961
-4.642939	Revolt;	-5.329603e-05
-4.466848	Revolutionary	-0.0001164741
-4.642939	Richmond,	-5.329603e-05
-4.642939	Rick	-5.823717e-05
-4.642939	Rico,	-4.835481e-05
-4.642939	Ridiculous	-3.847224e-05
-4.642939	Ridiculous,	0.01448207
-4.244999	Rifle	-0.0001791121
-4.165818	Right	0.0003615933
-4.466848	Right,	0.0008035683
-4.466848	Right.	0.02306555
-4.642939	Right?	0.02309961
-4.466848	Rights	-0.0001115328
-4.642939	Rights,	0.002692777
-4.642939	Rights.	0.02309961
-4.642939	Rights."	0.02309961
-4.642939	Rights...	0.004601438
-4.642939	Robbery	6.530829e-05
-4.642939	Robert	-5.823717e-05
-4.642939	Robinson,	-5.823717e-05
-4.642939	Rock	-3.847224e-05
-3.989727	Roe	-0.0002125634
-4.642939	Rohrabacher,	-5.823717e-05
-4.466848	Ronald	-0.0001065915
-4.642939	Room	0.0002333866
-4.642939	Rouge	0.004601438
-4.642939	Rousey	-5.823717e-05
-4.642939	Roy	-5.823717e-05
-4.642939	Rubens,	-5.823717e-05
-4.165818	Ruger	0.004923704
-4.642939	Ruger,	-5.823717e-05
-4.642939	Rules	0.002692777
-4.642939	Rumour	-3.847224e-05
-4.642939	Run!	0.02309961
-4.642939	Russell,	0.000183945
-4.642939	Russia	0.00494619
-4.244999	Russian	-0.0001093933
-4.341909	Russians	0.009316806
-4.642939	Russians,	0.002692777
-4.642939	Ryan	0.001352269
-4.642939	S&W,	-3.847224e-05
-4.642939	S.	-5.823717e-05
-4.642939	S.,	0.0008766393
-4.642939	S.E.	0.02309961
-4.642939	S/N	0.001892939
-4.642939	SAD	0.001669645
-4.642939	SAW	-5.823717e-05
-4.244999	SCOTUS	0.009779315
-4.642939	SCOTUS.	0.02309961
-4.642939	SCOTUSblog	0.0001246226
-4.642939	SD.	0.02309961
-4.642939	SHE	8.013612e-05
-4.642939	SHOULD,	0.002802186
-4.642939	SIGNIFICANTLY	-5.823717e-05
-4.642939	SM-G920K	2.082789e-05
-4.642939	SO	0.0002877789
-4.642939	SO,	0.004601438
-4.642939	SOOO	-5.823717e-05
-4.642939	SSA	0.0007033622
-4.642939	STATES	-5.823717e-05
-4.466848	STOP	0.002410892
-4.642939	Sac,	0.006633921
-4.642939	Sacramento	-5.823717e-05
-4.466848	Sacramento,	-0.0001164741
-4.642939	Sadly,	0.001025217
-4.642939	Safety	0.006633921
-4.642939	Safety"	-5.823717e-05
-4.642939	Safety,	-2.364797e-05
-4.642939	Salon	-3.35309e-05
-4.165818	Same	0.005057812
-4.165818	San	-0.0002911837
-4.466848	Sanders	0.0002740585
-4.642939	Sandra	-5.823717e-05
-4.040879	Sandy	-0.0002911301
-4.642939	Santa	-5.823717e-05
-4.642939	Sarah	-5.823717e-05
-4.642939	Saudis	0.002802186
-4.341909	Scalia	0.005099955
-4.244999	Scalia's	-8.467835e-05
-4.642939	Scalia,	-1.376485e-05
-4.642939	Scalia.	0.02309961
-4.341909	School	3.287511e-05
-4.466848	School,	-0.0001065915
-4.466848	Scott	-7.694246e-05
-4.642939	Scroll	8.013612e-05
-4.642939	Scum-	0.00494619
-4.642939	Sea.	0.02309961
-4.642939	Sean	-5.823717e-05
-4.466848	Search	7.133317e-05
-4.642939	Seasons	-4.341356e-05
-4.642939	Seattle	0.0001740575
-4.642939	Sebastian	-5.823717e-05
-3.642939	Second	-0.0006099418
-4.466848	Second,	0.01563168
-4.642939	Secondly	0.01448207
-4.466848	Secondly,	0.009536467
-4.466848	Secretary	0.002658722
-4.466848	Secretary,	-4.28788e-05
-3.864788	Section	-0.0004746073
-4.341909	Security	0.004485178
-4.098871	See	0.001373045
-4.098871	See,	0.009943893
-4.642939	Seeing	0.001669645
-4.642939	Seem	0.009928052
-4.341909	Seems	0.0007837727
-4.642939	Select	5.048099e-05
-4.642939	Semi-Auto-Guns	-3.881475e-06
-4.642939	Semi-auto	-1.376485e-05
-4.244999	Senate	0.01662737
-4.642939	Senate,	0.002692777
-4.642939	Senators	0.002802186
-4.466848	Sent	0.001035745
-4.642939	Sentinel	0.0008766393
-4.642939	September	-4.341356e-05
-4.642939	Seriously,	0.006633921
-4.165818	Service	0.007384022
-4.466848	Services	-8.735164e-05
-4.642939	Settle	8.013612e-05
-4.642939	Shah.	0.02309961
-4.642939	Shall	0.001025217
-4.642939	Shame	0.001892939
-3.830026	She	0.009059885
-4.642939	Sheesh.	0.02309961
-4.642939	Sheldon,	0.004601438
-4.642939	Shepherd	-5.823717e-05
-4.642939	Sheriff	-4.835481e-05
-4.642939	Sheriff's	-5.823717e-05
-4.466848	Sheriffs	-6.264509e-05
-4.642939	Sheriff’s	-8.823187e-06
-4.642939	Shockingly	-3.847224e-05
-4.466848	Shootings	0.005073052
-4.642939	Shot	-5.823717e-05
-4.642939	Shotguns	0.002822081
-4.642939	Shots	0.0002234978
-4.341909	Should	0.005234068
-4.642939	Shouldn't	0.004077341
-4.165818	Show	0.005935136
-4.466848	Shows	-2.258059e-05
-4.642939	Shred	0.002474042
-4.642939	Sieroty	-4.835481e-05
-4.642939	Sign	0.0002927239
-4.642939	Similar	0.009928052
-4.642939	Similarly,	0.004601438
-4.642939	Simple	-3.847224e-05
-3.989727	Since	0.005494244
-4.642939	Situation	-5.823717e-05
-4.642939	Sixty-one	1.094398e-05
-4.642939	Skeet	-5.823717e-05
-4.642939	Slavery,	-4.835481e-05
-4.642939	Slitting	0.001282874
-4.341909	Smart	0.0005077302
-4.642939	Smithsonian	0.006633921
-3.063155	So	0.04884504
-3.739849	So,	0.02902396
-4.642939	Social	-4.835481e-05
-4.642939	Sold	0.000357015
-4.642939	Solving	-4.835481e-05
-4.642939	Somalia,	0.0008568328
-3.797841	Some	0.0117046
-4.642939	Somebody	-3.35309e-05
-4.341909	Somehow	0.006979662
-4.642939	Someone	0.0001740575
-4.341909	Something	0.01190532
-4.341909	Sometimes	0.02053628
-4.466848	Sometimes,	0.0004719305
-3.989727	Sorry	0.01991073
-3.902576	Sorry,	0.01194603
-4.642939	Sorry..	0.02309961
-4.642939	Sorry...I'm	0.0009954982
-4.165818	Sounds	0.00157446
-4.341909	South	-8.081513e-05
-4.642939	Southern	-2.858947e-05
-4.642939	Sovereign	-4.835481e-05
-4.642939	SoylentGreen.	0.02309961
-4.642939	Speaking	0.007377197
-4.642939	Special	-3.847224e-05
-4.642939	Specials.	0.02309961
-4.642939	Spent	-5.823717e-05
-4.642939	Spewing	-3.35309e-05
-4.642939	Spot	-2.364797e-05
-4.642939	Spring	0.0007033622
-4.642939	Springfield	-5.823717e-05
-4.642939	Springs	4.059638e-05
-4.642939	Stallone	0.006633921
-4.642939	Stamper,	0.008428995
-4.642939	Stanford	-5.823717e-05
-4.642939	Stang	-4.341356e-05
-4.642939	Start	-8.823187e-06
-3.71352	State	0.006646538
-4.341909	State,	-0.0001055265
-4.642939	State.	0.02309961
-4.642939	Statement	0.001069801
-3.62175	States	0.01425339
-3.989727	States,	0.005278876
-4.642939	States;	0.001203579
-4.642939	States;".	0.02309961
-4.642939	Stats	0.002822081
-4.642939	Statute	0.007377197
-4.466848	Stephen	-8.735164e-05
-4.642939	Stephen,	-5.823717e-05
-4.642939	Stevens	2.576994e-05
-4.642939	Stick	0.009928052
-4.642939	Still	-5.823717e-05
-4.341909	Still,	0.02004204
-4.642939	Stone	-5.823717e-05
-4.466848	Stop	0.01460303
-4.642939	Stores	0.001292786
-4.642939	Stormfront	-5.823717e-05
-4.642939	Story	0.006633921
-4.642939	Strict	0.002672888
-4.642939	Stricter	0.002672888
-4.642939	Students'	-4.835481e-05
-4.642939	Stupid	-3.35309e-05
-4.642939	Stupid,	-1.376485e-05
-4.341909	Such	0.008750274
-4.642939	Sudan.	0.02309961
-4.642939	Suffering	0.006633921
-4.341909	Suicide	0.006462558
-4.642939	Suits	0.0008766393
-4.642939	Summary	0.007377197
-4.642939	Sunday	-5.329603e-05
-4.642939	Sunday.	0.02309961
-4.642939	Super.	0.02309961
-4.466848	Superposed	0.001294064
-4.642939	Supporter	-5.329603e-05
-4.642939	Supporters	-3.35309e-05
-3.902576	Supreme	-0.0002954607
-4.466848	Sure	0.00569858
-4.098871	Sure,	0.003501529
-4.642939	Sure...	-3.847224e-05
-4.642939	Sure:	-5.823717e-05
-4.642939	Surely	0.01448207
-4.642939	Surely,	-8.823187e-06
-4.466848	Susan	0.001418014
-4.642939	Susie	0.0007281117
-4.642939	Sutherland	-5.823717e-05
-4.642939	Sweden	4.059638e-05
-4.642939	Swimming	-5.823717e-05
-4.642939	Swiss	0.006633921
-4.642939	Switzerland	0.0006489179
-4.642939	T.	-5.823717e-05
-4.642939	T.V.	0.02309961
-4.466848	TD	0.01139462
-4.341909	THAT	0.0103824
-4.642939	THAT'S	0.001109435
-3.989727	THE	-0.000465891
-4.642939	THEM.	0.02309961
-4.642939	THEN	0.004077341
-4.642939	THEY	0.004077341
-4.642939	THREE	-5.823717e-05
-4.642939	THUGS	0.004601438
-4.642939	THere	0.002822081
-4.466848	TO	-5.770359e-05
-4.642939	TRAINED	-4.341356e-05
-4.642939	TRAINING	-2.364797e-05
-4.642939	TRAPPER	-5.823717e-05
-4.642939	TRUE	-5.823717e-05
-4.642939	TRump	0.0001295658
-4.466848	TV	0.0008530883
-4.466848	TV,	0.0003729833
-4.642939	TWICE	0.000198777
-4.466848	TX	0.000160323
-4.642939	Tacoma	-5.823717e-05
-4.642939	Taipan	0.0005301542
-4.098871	Take	0.03279196
-4.642939	Taking	-5.329603e-05
-4.642939	Taliban	-3.881475e-06
-4.642939	Tapatalk	-5.823717e-05
-4.642939	Tapatalk.	0.02309961
-4.642939	Target,	0.002822081
-4.642939	Tax	-3.881475e-06
-4.642939	Taxes,	-5.329603e-05
-4.642939	Tbh,	0.001669645
-4.642939	Tea	-5.823717e-05
-4.466848	Teachers	0.002788026
-4.642939	Teachers,	-5.823717e-05
-4.642939	Tech.	0.02309961
-4.642939	Technology,	0.01448207
-4.341909	Tell	0.0003092506
-4.642939	Tennessee	1.588588e-05
-4.642939	Tennessee,	-2.858947e-05
-4.642939	Tens	0.007377197
-4.642939	Tenth	4.553867e-05
-4.642939	Terrorists,	-5.823717e-05
-4.642939	Tex.	0.02309961
-4.642939	Tex.,	0.0003866912
-4.642939	Texan	0.009928052
-3.739849	Texas	0.00191671
-4.466848	Texas,	0.01077604
-4.466848	Texas.	0.02306555
-3.830026	Thank	0.003920052
-4.165818	Thanks	0.01255929
-4.642939	Thanks!	0.02309961
-4.466848	Thanks,	0.005348173
-4.642939	Thanks,it	0.0002432756
-4.341909	Thanks.	0.0230315
-3.063155	That	0.0253879
-4.466848	That'll	-8.241043e-05
-3.262728	That's	0.03271034
-4.341909	That,	0.01407001
-4.642939	Thats	-4.835481e-05
-4.642939	That’s	1.094398e-05
-2.451209	The	0.002235767
-4.341909	Their	-0.0001055265
-4.642939	Them	0.0004114227
-3.62175	Then	0.02812688
-4.466848	Then,	0.001894313
-3.203606	There	0.01437688
-3.943969	There's	0.008506902
-4.642939	There,	0.0001147363
-4.642939	Therefore,	0.005406285
-4.642939	Therein	-3.847224e-05
-4.642939	There’s	0.008428995
-4.098871	These	0.003142735
-3.046342	They	0.01723008
-4.642939	They'd	9.002161e-05
-4.040879	They're	0.01787913
-4.466848	Think	0.005113058
-4.642939	ThinkProgress	0.0003174502
-4.642939	Thinkers.	0.02309961
-3.195781	This	0.009162368
-4.642939	Thomas	-5.823717e-05
-4.642939	Thorgasm	-2.858947e-05
-4.642939	Thornton,	-5.823717e-05
-4.642939	Thorsgasms	-3.847224e-05
-3.902576	Those	0.01330753
-4.341909	Though	0.01475477
-4.642939	Though,	2.576994e-05
-4.642939	Thought	7.519344e-05
-4.642939	Thousands	0.001892939
-4.642939	Thread	-5.823717e-05
-4.642939	Threat	-5.823717e-05
-4.642939	Threats	0.006633921
-4.642939	Through	2.082789e-05
-4.466848	Thursday	0.0004422439
-4.642939	Thursday.	0.02309961
-4.642939	Thus,	0.001025217
-4.466848	Times	-0.0001115328
-4.466848	Title	-7.200077e-05
-4.642939	Titusville	0.009928052
-3.582241	To	0.02048965
-4.642939	Toews,	0.0009162551
-4.642939	Tommy	0.001144117
-4.098871	Too	0.000218684
-4.642939	Tory	0.001352269
-4.642939	Totally	-5.823717e-05
-4.642939	Toy	-5.823717e-05
-4.642939	Traceability	-4.341356e-05
-4.642939	Tracks	-5.823717e-05
-4.642939	Travel	-5.823717e-05
-4.466848	Treatise	0.001858884
-4.642939	Trekker	-5.823717e-05
-4.642939	Trent	-5.823717e-05
-4.466848	Tribune	0.0006550426
-4.642939	Trippy	-5.823717e-05
-4.642939	True	0.001203579
-4.642939	True,	-3.847224e-05
-4.642939	True.	0.02309961
-3.466848	Trump	0.03511153
-4.466848	Trump's	8.122e-05
-4.642939	Trump,	-4.341356e-05
-4.642939	Trump.	0.02309961
-4.642939	Trump....	0.006633921
-4.642939	Trump?	0.02309961
-4.642939	Truth	0.00494619
-4.642939	Tuesday	-4.835481e-05
-4.466848	Turtle.	0.02306555
-4.642939	Turtle...	0.0002086652
-4.466848	Turtle?	0.02306555
-4.098871	TurtleDude	0.01678079
-4.642939	TurtleDude,	-5.329603e-05
-4.642939	Twenty	0.0001443959
-4.466848	Twitter	-0.0001065915
-4.466848	Two	-9.670873e-05
-4.642939	Tyranny.	0.02309961
-4.466848	U.	-0.0001164741
-3.797841	U.S.	0.008304986
-4.466848	U.S.,	0.007857306
-4.244999	U.S.C.	0.02299745
-4.642939	UC	-5.823717e-05
-3.739849	UK	0.009291499
-4.642939	UK).	0.02309961
-4.642939	UK,	-5.329603e-05
-4.341909	UK.	0.0230315
-4.642939	UN,	0.0004064764
-4.642939	UN.	0.02309961
-4.642939	UN...but	0.008428995
-4.642939	UNLESS	0.004077341
-3.399901	US	0.02750996
-4.642939	US's,	0.001203579
-4.466848	US,	0.007505154
-4.642939	US-approved	-5.823717e-05
-4.244999	US.	0.02299745
-4.642939	US.10	0.0002927239
-4.642939	US?.	0.02309961
-3.830026	USA	0.01524776
-4.642939	USA)	0.0007281117
-4.642939	USA,	0.005406285
-4.642939	USA.	0.02309961
-4.642939	USA?	0.02309961
-4.642939	USAF	-5.823717e-05
-4.642939	USC,	-8.823187e-06
-4.642939	USE).	0.02309961
-4.642939	USMC	-5.823717e-05
-4.642939	Uh,	0.0005301542
-4.642939	Uhm,	0.001109435
-4.642939	UnArmed	-5.329603e-05
-4.244999	Under	0.005176909
-4.244999	Unfortunately,	0.002244835
-4.642939	Unhinged	-5.823717e-05
-4.642939	Unified	-5.823717e-05
-4.642939	Uniform	-5.329603e-05
-4.642939	Union	0.001352269
-4.642939	Uniquely	-5.823717e-05
-3.528996	United	-0.0008430765
-4.642939	United,	0.002692777
-4.341909	University	0.007306307
-4.642939	University,	0.00158036
-4.642939	University?	0.02309961
-4.466848	Unless	0.005113058
-4.642939	Unless,	0.007377197
-4.466848	Unlike	0.0002493309
-4.642939	Unlikely.	0.02309961
-4.165818	Until	0.001054381
-4.642939	Update	0.001282874
-4.642939	Using	-1.376485e-05
-4.642939	Utah	-5.329603e-05
-4.642939	VA	0.005406285
-4.341909	VERY	-0.0001104686
-4.642939	VINS	-5.823717e-05
-4.642939	VIOLENCE	0.006633921
-4.642939	VIOLENCE"...its	-5.329603e-05
-4.466848	VIOLENT	-3.246508e-05
-4.642939	VOLUNTEER	0.009928052
-4.642939	VS	0.0008370269
-4.642939	VX	-5.823717e-05
-4.466848	VanceMack	0.002679359
-4.642939	Vancouver	0.009928052
-4.098871	Vegas	0.005611432
-4.642939	Vegas,	0.0009954982
-4.642939	Vegas...	0.02309961
-4.642939	Vermont	0.009928052
-4.244999	Very	-7.479195e-05
-4.642939	Vic	-5.823717e-05
-4.642939	Victims	0.0002927239
-4.642939	Video	0.001352269
-4.642939	Vietnam	0.006633921
-4.466848	View	-0.0001016501
-4.642939	Vindman,	0.007377197
-4.466848	Violence	-0.0001115328
-4.466848	Violent	8.616359e-05
-4.642939	Virginia	-5.823717e-05
-4.642939	W	-4.835481e-05
-4.642939	W.	-5.823717e-05
-4.642939	WAY	-4.341356e-05
-4.642939	WH.	0.02309961
-4.642939	WHO	-5.823717e-05
-4.642939	WHO's	-5.329603e-05
-4.642939	WHich	0.00494619
-4.642939	WHy	-3.35309e-05
-4.642939	WING	-5.329603e-05
-4.642939	WITHOUT	0.00016417
-4.642939	WMD	0.001352269
-4.642939	WRITTEN	-5.823717e-05
-4.642939	WSJ	1.094398e-05
-4.341909	WTF	0.002849252
-4.642939	WWII	-5.823717e-05
-4.642939	WaPo	-5.823717e-05
-4.244999	Wade	0.003174376
-4.466848	Wade)	0.006599865
-4.466848	Wade,	0.0148638
-4.466848	Wait	0.008658256
-4.642939	Wait,	0.004077341
-4.642939	Waiting	-5.329603e-05
-4.642939	Walker	0.0002234978
-4.244999	Walmart	0.001470248
-4.642939	Walsh,	-5.823717e-05
-4.466848	Walter	-0.0001065915
-4.642939	Wanna	0.0005252064
-4.642939	Want	0.008428995
-4.642939	War	0.006633921
-4.642939	War,	-2.858947e-05
-4.642939	War.	0.02309961
-4.642939	War?	0.02309961
-3.830026	Warning:	4.202774e-05
-4.165818	Was	0.01138312
-3.943969	Washington	0.006273611
-4.341909	Wasn't	0.002586375
-4.466848	Water.	0.02306555
-4.642939	Watson	0.001352269
-4.642939	Way,	0.0001740575
-4.040879	Wayne	-0.0003054324
-3.131056	We	0.02994994
-4.642939	We'd	0.002802186
-4.642939	We'll	0.002578425
-4.466848	We're	0.008394939
-4.642939	We,	0.001669645
-4.642939	Weapons	-5.823717e-05
-4.642939	Wednesday	-3.35309e-05
-4.466848	Welfare	0.00733421
-3.665215	Well	0.03657313
-3.601547	Well,	0.0295404
-4.642939	Well....you	0.002822081
-4.642939	West	0.0007281117
-4.642939	West,	0.0003866912
-4.642939	Western	2.576994e-05
-4.642939	Wharton,	0.000183945
-3.165818	What	0.06019141
-4.098871	What's	0.01563234
-4.642939	What,	0.006633921
-4.642939	Whatever	0.00494619
-3.452607	When	0.03529651
-3.943969	Where	0.01465639
-4.642939	Where's	0.01448207
-4.341909	Whether	0.004030046
-3.864788	Which	0.006700575
-3.830026	While	0.03904167
-4.642939	Whiskey	-5.823717e-05
-4.341909	White	-0.0001307617
-4.642939	White.	0.02309961
-4.642939	Whittington	-5.329603e-05
-3.989727	Who	0.006094798
-4.642939	Whomever	0.005171175
-3.271871	Why	0.03311514
-4.642939	Why,	-1.870643e-05
-4.642939	Wife	0.006633921
-4.642939	Wife,	-5.329603e-05
-4.642939	Wiki	-5.823717e-05
-4.642939	Wiki:	-5.823717e-05
-4.642939	Wikipedia.	0.02309961
-4.642939	Wikipedia:	-5.329603e-05
-4.466848	Wild	-0.0001164741
-4.642939	Will	0.004077341
-4.466848	William	-0.0001115328
-4.642939	Williams	3.565418e-05
-4.642939	Williams,	-5.823717e-05
-4.642939	Willis	-4.835481e-05
-4.642939	Wilson	-5.823717e-05
-4.642939	Wilson,	-5.329603e-05
-4.642939	Winchester	0.001471258
-4.642939	Winchester)	0.006633921
-4.642939	Windsor	-1.870643e-05
-4.642939	Wing,	0.00494619
-4.642939	Wis.,	0.0001740575
-3.989727	With	0.03005693
-4.098871	Without	0.01699482
-4.642939	Women	6.530829e-05
-4.642939	Women:	-4.341356e-05
-4.466848	Won't	0.0001751562
-4.642939	Wonderful	-3.847224e-05
-4.642939	Work	-8.823187e-06
-4.642939	Worked	0.004601438
-4.466848	Works	0.007459897
-4.642939	World	-2.858947e-05
-4.642939	Worth	7.519344e-05
-4.040879	Would	0.01970228
-4.642939	Wouldn't	0.004077341
-4.466848	Wounded	0.001432891
-4.642939	Wow	0.002822081
-4.642939	Wow,	0.002474042
-4.642939	Wowwwwwwwww	-5.329603e-05
-4.642939	Writing	0.00494619
-4.642939	XD45	-3.847224e-05
-4.642939	YET..	0.0001246226
-4.341909	YOU	0.009230954
-4.642939	YOUR	-4.835481e-05
-4.466848	Ya	0.0008178257
-4.642939	Yea,	0.000183945
-4.244999	Yeah	0.01862703
-4.642939	Yeah!	0.02309961
-3.902576	Yeah,	0.01269894
-4.642939	Yeah....I	0.001198623
-4.040879	Yer	0.0007254918
-4.098871	Yes	0.0102503
-3.767878	Yes,	0.02061769
-4.642939	Yes..	0.004077341
-4.341909	Yet	0.01533305
-4.642939	Yet...	-1.376485e-05
-4.642939	Yikes.	0.02309961
-4.642939	Yo	-5.823717e-05
-4.642939	York.	0.02309961
-2.782601	You	0.02947525
-4.642939	You'd	0.002802186
-4.642939	You'll	0.002578425
-3.739849	You're	0.01553589
-4.341909	You've	-6.672685e-06
-4.642939	YouTube	-3.847224e-05
-3.767878	Your	0.0008337052
-4.642939	Yugoslavia	-5.823717e-05
-4.642939	Zones	-5.329603e-05
-4.466848	[/QUOTE	-0.0001065915
-4.642939	[17]	0.001471258
-4.642939	[1:]	-4.835481e-05
-4.466848	[1]	0.00179504
-4.642939	[1][4][5][6][7]	0.0004312091
-4.642939	[2]	0.001471258
-4.642939	[2][3][4]	-5.823717e-05
-4.244999	[42	-0.0001455725
-4.642939	[5]	0.0005845834
-4.642939	[6]	-3.847224e-05
-4.642939	[B]The	0.0006142751
-4.642939	[Dallas]	-3.847224e-05
-4.642939	[QUOTE=Crimefree;1064983274]Mental	0.0001147363
-4.642939	[QUOTE=DebateChallenge;1069406849]The	-3.881475e-06
-4.642939	[QUOTE=Nickyjo;1068118592]As	0.005406285
-4.642939	[QUOTE=RetiredUSN;1066928642]	-5.823717e-05
-4.642939	[YouTube[/video].	0.02309961
-4.642939	[and	1.060276e-06
-4.642939	[constitutional]	1.060276e-06
-4.642939	[my	-5.823717e-05
-4.642939	[the	-5.823717e-05
-4.642939	[to	6.036582e-05
-4.642939	^	-5.823717e-05
-4.642939	___	-5.823717e-05
-1.712754	a	-0.040733
-4.642939	a...	0.0002234978
-4.642939	a.m	0.005171175
-4.642939	aaaaaaaaaaaaah,	2.082789e-05
-4.642939	abated.	0.02309961
-4.642939	abdication	0.007377197
-4.642939	abe	0.009928052
-4.642939	abiders.	0.02309961
-3.902576	abiding	0.003901734
-4.642939	abiding.	0.02309961
-3.739849	ability	0.01703766
-4.642939	ability.	0.02309961
-4.642939	ablaze.	0.02309961
-3.438819	able	0.01056842
-4.642939	abolish	0.00158036
-4.642939	abominable	1.060276e-06
-4.165818	abortion	0.004403884
-4.642939	abortion)	0.002822081
-4.642939	abortion,	-2.364797e-05
-4.642939	abortion.	0.02309961
-4.642939	abortions	0.001198623
-4.642939	abound	-5.823717e-05
-2.605513	about	0.07223022
-4.098871	about,	0.008673274
-3.943969	about.	0.02282724
-4.642939	about.	0.005406285
-4.165818	about?	0.0229634
-4.466848	about?.	0.02306555
-4.341909	above	0.01954234
-4.642939	above)	0.004601438
-4.642939	above,	0.01448207
-4.642939	above.	0.02309961
-4.642939	abridged	0.00158036
-4.642939	abrogate	1.060276e-06
-4.466848	absence	0.007343141
-4.642939	absence.	0.02309961
-3.902576	absolute	-7.302396e-05
-4.466848	absolute.	0.02306555
-3.797841	absolutely	0.00154385
-4.466848	absolutes,	0.001790078
-4.642939	absolutes.	0.02309961
-4.642939	absolve	5.542338e-05
-4.466848	abstract	1.695955e-05
-4.244999	absurd	-1.052484e-05
-4.642939	absurd.	0.02309961
-4.642939	absurd.....but	0.0002927239
-4.466848	absurdity	0.007343141
-4.642939	absurdly	-5.823717e-05
-4.341909	abuse	0.01958371
-4.642939	abuse...no	-4.341356e-05
-4.642939	abused,	0.001203579
-4.642939	abuser	-5.823717e-05
-4.642939	abusers	-5.329603e-05
-4.642939	abusers,	2.082789e-05
-4.642939	abusers’	9.496449e-05
-4.341909	abusive	0.01408022
-4.642939	abusive.	0.02309961
-3.902576	accept	0.02151418
-4.466848	acceptable.	0.02306555
-4.341909	accepted	0.01117431
-4.642939	accepting	0.01448207
-3.425455	access	0.03730129
-4.642939	accessibility	0.007377197
-4.642939	accessible	0.001263049
-4.642939	accident	0.002757425
-4.341909	accidental	0.002620442
-4.642939	accidental,	8.013612e-05
-4.466848	accidentally	0.0001356017
-3.989727	accidents	0.008312656
-4.642939	accomplice	0.009928052
-4.341909	accomplish	0.008352016
-4.341909	accomplished	0.01601468
-4.642939	accord.	0.02309961
-3.797841	according	0.009519561
-4.642939	account	0.002692777
-4.642939	accountability	0.001431591
-4.642939	accountable	0.001129253
-4.642939	accountable.	0.02309961
-4.642939	accountant	0.002295158
-4.642939	accounts	0.002692777
-4.642939	accumulated	0.004601438
-4.642939	accumulated.	0.02309961
-4.642939	accumulating	0.0008419784
-4.341909	accuracy,	0.01112359
-4.244999	accurate	0.006986901
-4.642939	accurate,	0.001203579
-4.642939	accurate.	0.02309961
-4.642939	accurately	-5.823717e-05
-4.642939	accusation;	0.009928052
-4.165818	accused	0.007358878
-4.466848	accusing	0.01489961
-4.642939	acess	0.001144117
-4.642939	achieve	1.588588e-05
-4.642939	achieve?	0.02309961
-4.642939	achieved	0.0002927239
-4.642939	achievements.	0.02309961
-4.642939	achieves	-4.835481e-05
-4.244999	acknowledge	0.006775931
-4.642939	acknowledged	0.01448207
-4.642939	acknowledgement	0.001069801
-4.642939	acknowledging	0.0008617843
-4.642939	acquire	0.001144117
-4.642939	acquiring	0.0002729439
-4.642939	acquisition,	-5.823717e-05
-4.642939	acronym	-5.823717e-05
-4.040879	across	0.01784936
-4.642939	across.	0.02309961
-3.943969	act	0.01814306
-4.642939	act.	0.02309961
-4.642939	acted	-5.329603e-05
-4.341909	acting	0.001294714
-4.642939	acting.	0.02309961
-3.902576	action	0.02002098
-4.466848	action,	0.007103042
-4.341909	action.	0.0230315
-3.830026	actions	0.01819165
-4.642939	actions.	0.02309961
-4.642939	actions.”	0.0004312091
-4.642939	activated	0.009928052
-4.642939	activation,	-5.329603e-05
-4.341909	active	-9.069988e-05
-4.642939	activists	0.006633921
-4.466848	activities	0.008204707
-4.642939	activities.	0.02309961
-4.466848	activity	0.001299021
-4.642939	activity,	0.0003026143
-4.642939	activity..	0.02309961
-4.642939	activity...	0.004077341
-4.642939	activity...Good	-5.823717e-05
-4.642939	actors.	0.02309961
-4.642939	acts	0.001669645
-3.989727	actual	-0.0003868133
-3.271871	actually	0.01087438
-3.830026	ad	0.002179272
-4.642939	ad....	0.0003075595
-4.642939	adage	-5.329603e-05
-3.902576	add	0.026747
-4.642939	add)	0.006633921
-4.165818	added	0.01511312
-4.642939	addiction	0.009928052
-4.466848	adding	-5.717531e-05
-4.642939	addition	0.009928052
-3.830026	additional	0.0006915795
-4.466848	address	0.01724865
-4.642939	address.	0.02309961
-4.244999	addressed	0.01991915
-4.642939	addressed.	0.02309961
-4.341909	addressing	0.01596852
-4.642939	adds	0.009928052
-4.642939	adept	0.0008766393
-4.466848	adequate	-0.0001164741
-4.466848	adequately	6.638983e-05
-4.642939	adhere	0.009928052
-4.642939	adjustable	-5.823717e-05
-4.642939	administering	-5.329603e-05
-4.244999	administration	0.01196932
-4.642939	admissible	1.094398e-05
-3.902576	admit	0.03839182
-4.642939	admit.	0.02309961
-4.642939	admitted	0.002692777
-4.642939	admitting	0.009928052
-4.642939	adopt	0.0001542828
-4.642939	ads	-4.835481e-05
-4.642939	adult,	7.025084e-05
-4.466848	adults	0.0009917738
