
\data\
ngram 1=19041
ngram 2=76291

\1-grams:
-4.706675	!	0.0222383
-4.581737	!!!	0.02221435
-4.882766	!!!!	0.02225997
-4.882766	!!).	0.02225997
-3.861577	"	0.03886624
-4.882766	"(2)	9.662325e-05
-4.882766	",	0.001433129
-4.882766	".	0.02225997
-4.882766	"...a	-1.717441e-05
-4.882766	"...homelessness,	-3.708592e-05
-4.882766	"...there	0.001658661
-4.882766	"...when	-3.993035e-05
-4.882766	"10-14,	-3.993035e-05
-4.882766	"12-17",	-3.993035e-05
-4.882766	"15-34"......etc.	0.02225997
-4.882766	"18	0.0001080046
-4.882766	"18-24"	0.007294841
-4.882766	"25-35"	-3.708592e-05
-4.484827	"A	8.786895e-05
-4.882766	"After	0.01522675
-4.882766	"American	-3.993035e-05
-4.882766	"An	-3.993035e-05
-4.706675	"And	0.007978836
-4.706675	"As	0.01380744
-4.882766	"Assault	-3.139702e-05
-4.882766	"Bang!"	0.02225997
-4.882766	"Banning"	1.980657e-05
-4.882766	"Believe	0.002576266
-4.882766	"Big	-3.993035e-05
-4.882766	"Black	-3.993035e-05
-4.882766	"Bombs	0.003103122
-4.882766	"Bu$hleaguer"	-3.424148e-05
-4.706675	"But	0.006211923
-4.706675	"CONTINUED	-1.727811e-05
-4.882766	"CONTINUED.	0.02225997
-4.882766	"Can	0.003624879
-4.882766	"Careful	-3.708592e-05
-4.882766	"Clear	-3.993035e-05
-4.882766	"Club	-2.855252e-05
-4.706675	"Conservative	-5.420481e-05
-4.882766	"Constitution	-3.993035e-05
-4.882766	"Constitutional	0.0006318718
-4.882766	"Cops"	0.007294841
-4.882766	"DEBATE	-2.855252e-05
-4.882766	"Dallas	-3.993035e-05
-4.882766	"Democrat	-2.570803e-05
-4.882766	"Developed"	-3.993035e-05
-4.882766	"Dictator	0.007555277
-4.882766	"Dixon	-3.993035e-05
-4.882766	"Don't	-3.993035e-05
-4.882766	"Drop	-3.993035e-05
-4.882766	"Eurosocialist"	0.0001506875
-4.882766	"Every	8.808739e-05
-4.882766	"Evil	-3.139702e-05
-4.882766	"Extreme"	0.005081661
-4.882766	"FACT"	0.005369572
-4.882766	"Face	0.005058636
-4.882766	"For	-1.432982e-05
-4.882766	"Full-assed"	-3.993035e-05
-4.882766	"GENERAL"	0.002318798
-4.882766	"GSLM"	-1.148524e-05
-4.882766	"González	4.825559e-05
-4.706675	"Good	-4.572584e-05
-4.882766	"Guilty,	0.008746591
-4.104615	"Gun	-0.0002823447
-4.882766	"Guns"	0.002576266
-4.706675	"Happy	-5.989372e-05
-4.706675	"He	0.001478851
-4.706675	"Highly"	-4.282675e-05
-4.882766	"How	0.00112785
-4.007705	"I	0.003516439
-4.882766	"I'M	-3.993035e-05
-4.581737	"I'm	0.002945992
-4.484827	"In	0.0009025874
-4.882766	"Infantry	-3.993035e-05
-4.706675	"Intentional	-5.989372e-05
-4.882766	"Isn't	-3.993035e-05
-4.706675	"It	0.005116637
-4.706675	"It's	0.01800686
-4.882766	"Joe	-3.993035e-05
-4.882766	"Jus'saying"	-3.993035e-05
-4.882766	"Just	0.001202011
-4.882766	"Knock	-3.993035e-05
-4.882766	"Less	-3.424148e-05
-4.706675	"Liberal	-5.420481e-05
-4.882766	"Liberal"	0.001978602
-4.882766	"Long	9.377791e-05
-4.882766	"Machine	9.377791e-05
-4.882766	"Mentally	-3.993035e-05
-4.882766	"Minority	-3.993035e-05
-4.706675	"NEED"	0.004964094
-4.484827	"No	-0.0001483427
-4.882766	"No"	0.01067234
-4.706675	"Nobody	0.01051595
-4.882766	"None	0.007555277
-4.882766	"Nut	-3.993035e-05
-4.882766	"Obummer	-2.855252e-05
-4.882766	"Oh	0.003624879
-4.882766	"Oreo"	0.008746591
-4.882766	"Pfft,	0.0006432672
-4.882766	"Political	-2.855252e-05
-4.882766	"Pursuance"	0.01067234
-4.882766	"Quote	0.0001734535
-4.882766	"Repeal	0.01522675
-4.882766	"Rocket	-3.993035e-05
-4.882766	"SUPERPREDATORS"	0.003103122
-4.882766	"So	0.0006774556
-4.882766	"Sorry,	-3.424148e-05
-4.882766	"Stand	3.97207e-05
-4.882766	"Straw	-3.993035e-05
-4.882766	"Texas	-3.993035e-05
-4.882766	"That	0.0001250773
-4.183796	"The	0.0007429374
-4.882766	"These	5.58275e-06
-4.706675	"This	9.937707e-05
-4.882766	"Those	5.679068e-05
-4.882766	"Toxic	-3.993035e-05
-4.882766	"Tricky	-3.993035e-05
-4.882766	"Uncle	-3.993035e-05
-4.338698	"We	0.004416119
-4.882766	"We're	0.0001364595
-4.706675	"Well	0.0009966772
-4.581737	"Well,	0.001022352
-4.706675	"What	0.004918054
-4.882766	"Wheeler	0.000270222
-4.706675	"When	0.001738705
-4.882766	"Whether	0.002207276
-4.882766	"White	-3.993035e-05
-4.882766	"Whooops!	0.02225997
-4.882766	"Why	0.0007543887
-4.882766	"With	0.0006318718
-4.882766	"Yes	-2.855252e-05
-4.338698	"You	0.007245804
-4.484827	"a	0.0002614739
-4.882766	"about	0.01067234
-4.882766	"absolute	0.0006318718
-4.882766	"accidental"	-3.139702e-05
-4.882766	"across	0.01522675
-4.882766	"activists."	0.02225997
-4.882766	"addicts"	0.000281608
-4.882766	"admire"	0.001239095
-4.882766	"advances	0.005058636
-4.882766	"advocates"	-3.993035e-05
-4.882766	"agency	-3.993035e-05
-4.706675	"all	-7.986066e-05
-4.882766	"allowing	0.001313274
-4.882766	"an	-3.993035e-05
-4.882766	"any	-8.640599e-06
-4.882766	"are	0.002318798
-4.882766	"arms"	0.0007543887
-4.882766	"arsenal,"	0.001036593
-4.183796	"assault	-6.043175e-05
-4.706675	"assault"	-7.986066e-05
-4.882766	"asshat"	0.001978602
-4.882766	"assume"	0.005369572
-4.882766	"attempted	0.01067234
-4.882766	"authorities"	-3.993035e-05
-4.882766	"automatic"	0.007294841
-4.706675	"back	0.005018773
-4.484827	"bad	-0.0001369072
-4.882766	"bashing."	0.02225997
-4.882766	"basically	-3.708592e-05
-4.882766	"being	-3.993035e-05
-4.882766	"between	-1.717441e-05
-4.882766	"big	-3.708592e-05
-4.882766	"boom"	-3.993035e-05
-4.882766	"boom-sticks".	0.02225997
-4.882766	"buy	0.008746591
-4.882766	"buy"	0.005369572
-4.882766	"can	0.001002377
-4.882766	"catch"	0.008746591
-4.882766	"cherry	-3.993035e-05
-4.882766	"chill	-2.570803e-05
-4.882766	"civilized".	0.02225997
-4.882766	"clip".	0.02225997
-4.882766	"collective-right"	-1.066682e-07
-4.882766	"come	0.0005264785
-4.882766	"coming	0.002759447
-4.882766	"common	-3.993035e-05
-4.882766	"concealed	-3.993035e-05
-4.882766	"conservative",	0.002759447
-4.882766	"control"	0.01522675
-4.882766	"controlled"	0.005058636
-4.882766	"could"	0.001433129
-4.882766	"cracking	-3.993035e-05
-4.882766	"crazies"	0.007294841
-4.882766	"create	-3.993035e-05
-4.706675	"crime	-5.989372e-05
-4.882766	"crime".	0.02225997
-4.882766	"criminals	0.003103122
-4.882766	"criminals"	0.0003869422
-4.882766	"cultural	-3.993035e-05
-4.882766	"curiosity"	-3.139702e-05
-4.581737	"cut	0.01061266
-4.882766	"damaged"	0.001430276
-4.882766	"dangerous"	0.0001563789
-4.882766	"deaths"	-2.286351e-05
-4.882766	"debunked"?.	0.02225997
-4.882766	"defeated"	0.005058636
-4.882766	"defect."	0.02225997
-4.882766	"definition"	0.001433129
-4.882766	"deflated"	2.549624e-05
-4.882766	"democratic"	0.007294841
-4.581737	"developed"	-6.858696e-05
-4.882766	"developed,	-3.708592e-05
-4.882766	"different"	0.007294841
-4.882766	"discharge"	0.00216725
-4.882766	"disingenuous	0.007294841
-4.882766	"disturbed,	0.007294841
-4.882766	"doing	1.696176e-05
-4.706675	"drug	0.00726658
-4.882766	"druggies"	0.001065109
-4.882766	"dumb"	-1.148524e-05
-4.882766	"effort"	0.0006432672
-4.882766	"eligible	0.01067234
-4.882766	"elite"	0.00112785
-4.882766	"encourage"	0.001313274
-4.882766	"enemies	0.007555277
-4.882766	"entertain";	-3.993035e-05
-4.882766	"entertainment";	0.004957918
-4.882766	"equivalent	-3.993035e-05
-4.882766	"establish	0.008746591
-4.882766	"evidence"	-2.855252e-05
-4.882766	"evil",	0.000412568
-4.882766	"exception"	0.005369572
-4.882766	"extreme"	0.007294841
-4.706675	"facts"	0.002613641
-4.882766	"find	0.01522675
-4.882766	"fireworks",	-3.993035e-05
-4.882766	"fixed"	0.001150667
-4.882766	"fleeing"	0.005369572
-4.882766	"for	0.001013782
-4.882766	"freedom".	0.02225997
-4.882766	"front"	-3.993035e-05
-4.882766	"fundamental"	-1.066682e-07
-4.882766	"garbage"	0.005081661
-4.882766	"get	0.0005264785
-4.882766	"give	0.0003727064
-4.882766	"go	-3.993035e-05
-4.882766	"goes	-3.993035e-05
-4.706675	"good	6.523088e-05
-4.882766	"good"	-3.993035e-05
-4.882766	"goofy"-	0.004957918
-4.882766	"graboids"	0.003103122
-4.882766	"guilty"	0.007294841
-3.979676	"gun	-0.0003910461
-4.882766	"gun"	0.0001563789
-4.882766	"guns	0.003103122
-4.882766	"guns=bad"	0.001978602
-4.882766	"harassed"	0.001430276
-4.882766	"hidin'	-3.424148e-05
-4.882766	"how	0.001202011
-4.882766	"i	0.0004410429
-4.706675	"if	0.003584997
-4.882766	"ill"	0.002207276
-4.882766	"in	0.001381759
-4.706675	"independent	-5.989372e-05
-4.882766	"independent,	-3.993035e-05
-4.882766	"infrastructure"	0.0003727064
-4.882766	"infringe"	1.12722e-05
-4.882766	"instructions"	0.01067234
-4.882766	"insufficient	3.403085e-05
-4.280706	"intentional	-0.0001996271
-4.882766	"it"	-3.993035e-05
-4.484827	"it's	0.003694604
-4.882766	"item".	0.02225997
-4.882766	"journalists"	0.0007543887
-4.882766	"judgement"	0.007294841
-4.882766	"just	9.662325e-05
-4.882766	"justifies"	-2.286351e-05
-4.882766	"kick".	0.02225997
-4.882766	"kids	0.002207276
-4.882766	"kill	0.001978602
-4.882766	"leaders"	-3.993035e-05
-4.882766	"left	-3.424148e-05
-4.882766	"legally	-2.951339e-06
-4.882766	"lengthwise".	0.02225997
-4.882766	"liberal	-2.855252e-05
-4.706675	"liberal"	-3.434699e-05
-4.882766	"like	0.008746591
-4.882766	"line	0.005058636
-4.882766	"lobbied	0.01067234
-4.882766	"lobbied"	0.01067234
-4.882766	"lobbying"	-3.708592e-05
-4.882766	"loves"	0.01522675
-4.882766	"man	0.007294841
-4.882766	"many	0.002207276
-4.882766	"marriage"	0.005081661
-4.882766	"marriage",	5.58275e-06
-4.882766	"marriage".	0.02225997
-4.882766	"married".	0.02225997
-4.882766	"mass	3.403085e-05
-4.882766	"maturity"	0.0006290233
-4.882766	"me"	-3.708592e-05
-4.882766	"militia"	-3.708592e-05
-4.882766	"millions	0.007555277
-4.882766	"misleading	0.007294841
-4.882766	"mitigate"	0.01522675
-4.882766	"moonbat"	-3.993035e-05
-4.882766	"moose	-3.993035e-05
-4.882766	"moral"	-3.993035e-05
-4.882766	"morality	0.005081661
-4.882766	"morals"	0.002753722
-4.882766	"more	-3.993035e-05
-4.882766	"most	0.002318798
-4.882766	"much"	0.005081661
-4.882766	"murder	-3.993035e-05
-4.882766	"nasty	-3.993035e-05
-4.882766	"nation".	0.02225997
-4.882766	"natural"	-3.993035e-05
-4.882766	"need"	-3.708592e-05
-4.882766	"needing	0.01067234
-4.882766	"news"	0.0006062335
-4.882766	"next	0.0001080046
-4.405645	"no	-0.0001369546
-4.882766	"no"	0.0002417584
-4.882766	"no-limit-nigga".	0.02225997
-4.882766	"norm".	0.02225997
-4.882766	"normal"	-3.993035e-05
-4.882766	"normalcy"	0.001778611
-4.706675	"not	0.002213125
-4.882766	"nothing	0.0005150859
-4.882766	"now	-3.424148e-05
-4.882766	"nuclear	0.000281608
-4.706675	"officer	0.01074044
-4.882766	"often	-3.993035e-05
-4.882766	"oh	-3.993035e-05
-4.882766	"ordinary	9.093265e-05
-4.882766	"organisations".	0.02225997
-4.706675	"our	0.0003498648
-4.882766	"out	0.007555277
-4.882766	"outside	4.825559e-05
-4.882766	"overcompensation"	0.007294841
-4.882766	"page	0.002682159
-4.882766	"pandering"	-2.855252e-05
-4.882766	"perceived	-3.993035e-05
-4.882766	"perfect"	-2.286351e-05
-4.882766	"personal	-3.993035e-05
-4.882766	"personal"	-3.139702e-05
-4.882766	"plinking"	0.007294841
-4.882766	"political	-3.708592e-05
-4.882766	"preserving	0.01522675
-4.706675	"presidents"	0.005332594
-4.882766	"primate	1.696176e-05
-4.882766	"prior	-3.993035e-05
-4.882766	"private"	-2.001895e-05
-4.882766	"progress"	0.007294841
-4.882766	"progressive	-3.424148e-05
-4.581737	"progressive"	0.01346236
-4.706675	"progressives"	0.0009025871
-4.882766	"propagate	0.01522675
-4.882766	"propagating	0.01522675
-4.882766	"propellant"	0.01067234
-4.882766	"protect"	2.83411e-05
-4.882766	"protection"	0.007294841
-4.706675	"prove	-7.70162e-05
-4.882766	"prove"	4.256562e-05
-4.882766	"purchase	-3.993035e-05
-4.882766	"quotes"	-3.993035e-05
-4.882766	"rage	0.0003328486
-4.882766	"rant"	5.679068e-05
-4.882766	"rationality"	0.001150667
-4.882766	"rave"	0.001778611
-4.882766	"real"	-1.432982e-05
-4.882766	"reasonable	0.007294841
-4.882766	"red	-3.993035e-05
-4.882766	"registration"	-1.148524e-05
-4.882766	"restrictions".	0.02225997
-4.882766	"rich	-3.708592e-05
-4.581737	"right	0.007481407
-4.882766	"rights".	0.02225997
-4.882766	"running	-2.001895e-05
-4.882766	"rural")?	0.02225997
-4.882766	"safe"	0.001150667
-4.882766	"safer"	0.005058636
-4.882766	"safer".	0.02225997
-4.882766	"safety.".	0.02225997
-4.882766	"save	0.001313274
-4.882766	"saying."	0.02225997
-4.882766	"schit"	0.005058636
-4.581737	"scumbag"	-9.128924e-05
-4.882766	"secured"	-3.708592e-05
-4.882766	"self	-3.708592e-05
-4.882766	"self".	0.02225997
-4.882766	"several	-3.993035e-05
-4.882766	"severe	-3.708592e-05
-4.882766	"severely	-3.993035e-05
-4.882766	"shall	0.002682159
-4.882766	"shocking"	-3.993035e-05
-4.882766	"should	3.687576e-05
-4.706675	"should"	0.002625005
-4.882766	"significant"?	0.02225997
-4.882766	"smoke	-3.993035e-05
-4.882766	"so	0.0001563789
-4.706675	"social	-7.70162e-05
-4.882766	"societal	-3.993035e-05
-4.706675	"society	-7.986066e-05
-4.882766	"solution"	0.0006261742
-4.882766	"something",	0.001433129
-4.882766	"special	-3.993035e-05
-4.882766	"specious"	0.005081661
-4.882766	"spineless	-3.993035e-05
-4.882766	"stab"	0.001176338
-4.882766	"stacking	0.01522675
-4.882766	"standards"	0.007294841
-4.882766	"start	0.001119294
-4.882766	"stop	5.394563e-05
-4.882766	"strawman	-3.993035e-05
-4.882766	"street	-3.993035e-05
-4.882766	"success".	0.02225997
-4.882766	"suspicious"	0.000412568
-4.882766	"teachings"	-3.139702e-05
-4.882766	"technology"-there	0.0004923021
-4.882766	"terrorism"	0.007294841
-4.882766	"terrorist"	0.0002047587
-4.882766	"that	-3.708592e-05
-4.338698	"the	0.0007942402
-4.882766	"there	0.005081661
-4.882766	"they	0.003103122
-4.882766	"they're	3.403085e-05
-4.882766	"thing"	0.005081661
-4.706675	"this	-7.986066e-05
-4.882766	"those	0.001313274
-4.882766	"thousands	0.007555277
-4.882766	"thug"	-2.570803e-05
-4.581737	"to	0.0003270244
-4.882766	"tracks"	0.005369572
-4.882766	"truncated"	-2.570803e-05
-4.882766	"turf",	0.001778611
-4.882766	"turn	0.0005919903
-4.882766	"un-natural"	-3.708592e-05
-4.882766	"unbiased"	-3.993035e-05
-4.405645	"under	-0.0001796807
-4.882766	"understood"	0.001430276
-4.882766	"undeveloped"	0.0001421507
-4.882766	"unfettered"	5.110059e-05
-4.882766	"unhealthy".	0.02225997
-4.882766	"unless	0.01522675
-4.882766	"unwanted	-2.286351e-05
-4.882766	"verifying	0.0001250773
-4.405645	"violent	-0.0001540223
-4.882766	"violent"	2.83411e-05
-4.882766	"violent/potentially	0.0001848369
-4.581737	"we	0.003381636
-4.338698	"well	-0.0001398444
-4.882766	"what	-3.993035e-05
-4.882766	"what"	0.004957918
-4.882766	"which	0.004957918
-4.882766	"whisk"	0.0001620704
-4.882766	"why	5.679068e-05
-4.882766	"willful	-2.001895e-05
-4.882766	"wins,"	0.007294841
-4.882766	"wishful	-3.993035e-05
-4.882766	"wow,	0.002318798
-4.882766	"year	0.002207276
-4.882766	"yes."	0.02225997
-4.706675	"you	0.001087935
-4.882766	#	0.007294841
-4.581737	#000000;	-7.985585e-05
-4.581737	#000;	-7.985585e-05
-4.882766	#1.	0.02225997
-4.882766	#3	0.005058636
-4.882766	#3.	0.02225997
-4.882766	#302:	0.0001734535
-4.882766	#31	0.001501633
-4.882766	#4	-3.708592e-05
-4.882766	#BLM,	-3.993035e-05
-4.581737	#FFFFFF;	-7.985585e-05
-4.882766	$0.02.	0.02225997
-4.882766	$1	-2.951339e-06
-4.882766	$1,000	0.007294841
-4.882766	$1,200,	0.002207276
-4.882766	$1.5	-3.993035e-05
-4.706675	$10,000	0.01063255
-4.882766	$100	-3.708592e-05
-4.882766	$1000.	0.02225997
-4.882766	$15k	0.007294841
-4.882766	$17.	0.02225997
-4.882766	$2,400	-2.855252e-05
-4.882766	$2.5	6.532593e-05
-4.882766	$20	-3.424148e-05
-4.882766	$200	-1.148524e-05
-4.882766	$200,000	7.101618e-05
-4.882766	$20k	0.007294841
-4.882766	$25	-2.951339e-06
-4.882766	$250	2.549624e-05
-4.882766	$250,000.	0.02225997
-4.882766	$265	-3.139702e-05
-4.706675	$265.	0.02223716
-4.882766	$280.	0.02225997
-4.706675	$3	-1.158832e-05
-4.882766	$3,526	0.005058636
-4.882766	$3.75	0.002759447
-4.706675	$30	-7.132722e-05
-4.882766	$300	0.0002076046
-4.882766	$300,000	0.002207276
-4.882766	$300,000s)	0.001150667
-4.882766	$300.	0.02225997
-4.882766	$350k	3.403085e-05
-4.882766	$5	-3.708592e-05
-4.882766	$50	-3.993035e-05
-4.882766	$500+	-2.286351e-05
-4.882766	$500k,	-3.993035e-05
-4.882766	$50k	-3.993035e-05
-4.706675	$52.6	-5.704928e-05
-4.706675	$54.4	2.688441e-06
-4.882766	$600,000,000.00,	-3.708592e-05
-4.882766	$75K	-3.993035e-05
-4.882766	$8.95	0.002207276
-4.882766	$9,000	0.01067234
-4.882766	%	0.003624879
-4.882766	%)	0.002753722
-3.581736	&	0.05367036
-4.581737	&mdash;	0.001421813
-4.581737	'	0.005042233
-4.882766	'0.5%'	1.12722e-05
-4.882766	'B-Z'	0.0009425046
-4.882766	'Cold	-3.993035e-05
-4.882766	'DO	-3.993035e-05
-4.882766	'It's	0.0002588365
-4.882766	'More	5.110059e-05
-4.882766	'Security	-3.993035e-05
-4.882766	'Stand	3.97207e-05
-4.706675	'Thoughts	0.007272033
-4.882766	'You	0.0009111463
-4.882766	'academics'	2.83411e-05
-4.706675	'adult'	0.001438887
-4.882766	'alcohol'	-3.424148e-05
-4.882766	'all	-3.993035e-05
-4.882766	'almost	-1.066682e-07
-4.882766	'are	0.003624879
-4.882766	'assult-style'	6.532593e-05
-4.882766	'bad	-3.424148e-05
-4.882766	'bad'.	0.02225997
-4.882766	'black	-3.993035e-05
-4.882766	'bout	-5.795971e-06
-4.882766	'cause	-3.708592e-05
-4.882766	'caused'	0.001430276
-4.882766	'chocolate	2.549624e-05
-4.882766	'cold	-2.951339e-06
-4.882766	'correlational'	-3.993035e-05
-4.882766	'crowd'	-3.424148e-05
-4.882766	'dead	0.005081661
-4.882766	'death	0.007294841
-4.882766	'disenfranchisement'	0.0003926367
-4.882766	'drama	-3.993035e-05
-4.882766	'em	-3.993035e-05
-4.882766	'experts'	0.001433129
-4.882766	'fair'	0.007294841
-4.882766	'feelings'	0.001082219
-4.882766	'good	-3.993035e-05
-4.706675	'gun	-7.986066e-05
-4.882766	'have	0.0008541372
-4.882766	'herbs'.	0.02225997
-4.882766	'homicide'	0.002327378
-4.882766	'how	0.0002588365
-4.882766	'in	-3.993035e-05
-4.882766	'introduce	0.002318798
-4.882766	'legal'	-3.993035e-05
-4.882766	'liberal'	-3.993035e-05
-4.882766	'liberalness'	0.007555277
-4.581737	'lucida	-7.985585e-05
-4.882766	'mass	-3.993035e-05
-4.882766	'nanny	-3.993035e-05
-4.882766	'need'	0.001210568
-4.882766	'no	4.541062e-05
-4.882766	'no,	2.83411e-05
-4.706675	'not	0.002053022
-4.882766	'permanent'	-5.795971e-06
-4.882766	'play	-3.993035e-05
-4.882766	'profiling'	0.0005919903
-4.882766	'retarded'.	0.02225997
-4.882766	'routine'	0.0002218351
-4.882766	'safeguard'	0.0002559901
-4.882766	'self	-3.993035e-05
-4.882766	'self-defense'.	0.02225997
-4.882766	'sheltered	0.005058636
-4.882766	'significantly	-2.286351e-05
-4.882766	'tactical?'.	0.02225997
-4.882766	'the	-3.993035e-05
-4.882766	'there	0.005081661
-4.882766	'thing'	-2.951339e-06
-4.882766	'thought	-3.993035e-05
-4.882766	'trouble'.	0.02225997
-4.882766	'unburden'	0.001239095
-4.882766	'was	-1.148524e-05
-4.882766	'while	-2.855252e-05
-4.882766	'who	-3.424148e-05
-4.882766	'yeah	0.0003613181
-4.882766	'you	-2.951339e-06
-4.104615	(	0.007095523
-4.882766	("Now	0.001036593
-4.882766	("e"	-3.993035e-05
-4.882766	(0.013%	0.007555277
-4.484827	(1)	-0.0001142061
-4.882766	(1,500	-5.795971e-06
-4.882766	(1,527	0.01067234
-4.882766	(10	5.679068e-05
-4.882766	(2	-3.708592e-05
-4.706675	(2)	0.007255008
-4.882766	(2)(F),	-1.432982e-05
-4.882766	(2008)	-1.066682e-07
-4.706675	(2010)	0.0002046782
-4.882766	(28	0.0002844546
-4.882766	(2nd	-3.993035e-05
-4.706675	(3)	-7.417172e-05
-4.882766	(30	9.662325e-05
-4.882766	(4)	-3.424148e-05
-4.882766	(9,967	-1.066682e-07
-4.882766	(?)	0.02225997
-4.882766	(A)	4.256562e-05
-4.882766	(A)(i),	0.01522675
-4.882766	(A),	0.01522675
-4.882766	(AR-15	3.403085e-05
-4.882766	(America's	-2.286351e-05
-4.706675	(And	0.01521354
-4.882766	(Armed	-8.640599e-06
-4.882766	(As	0.004957918
-4.882766	(B)	0.0007828856
-4.882766	(BCT)	0.0002303736
-4.882766	(BTW	8.23969e-05
-4.882766	(Because	0.0006432672
-4.882766	(Belcher's	-3.993035e-05
-4.882766	(Bigfoot	0.0009111463
-4.882766	(Brent's	-3.993035e-05
-4.882766	(C)	0.01522675
-4.882766	(CQB)	2.83411e-05
-4.882766	(Chicago,	-3.139702e-05
-4.882766	(Dick	-3.993035e-05
-4.882766	(Dick)	0.01067234
-4.882766	(Dylan	-3.993035e-05
-4.882766	(EU	-3.993035e-05
-4.882766	(Everyone,	0.001065109
-4.581737	(Ex:	2.530257e-05
-4.882766	(FYI,	7.670647e-05
-4.882766	(Federal	-3.708592e-05
-4.882766	(Geez,	0.0002929943
-4.882766	(Hell,	-1.432982e-05
-4.183796	(I	0.005629538
-4.882766	(I)	0.0002531436
-4.882766	(It	0.0002531436
-4.882766	(James	-3.993035e-05
-4.882766	(Like	0.008746591
-4.882766	(MOS)	0.001778611
-4.882766	(Many	0.0003869422
-4.882766	(Mississippi,	-3.993035e-05
-4.882766	(Model	-3.993035e-05
-4.882766	(My	-2.570803e-05
-4.882766	(NFA),	0.01522675
-4.882766	(NH	0.0007743365
-4.882766	(NRA)	-1.432982e-05
-4.882766	(New	-2.951339e-06
-4.706675	(No	-7.132722e-05
-4.882766	(Note:	0.001381759
-4.882766	(Perhaps	0.001778611
-4.882766	(Possession	0.007294841
-4.882766	(Republican)	0.007294841
-4.882766	(SAW),	0.01522675
-4.882766	(Sarcasm/Humor??)	0.02225997
-4.882766	(Scalia)	0.001481652
-4.882766	(See	0.004957918
-4.882766	(Sheriff	0.002207276
-4.882766	(Snipers)	0.001978602
-4.882766	(Sole	-3.993035e-05
-4.882766	(Soviet)	-3.139702e-05
-4.882766	(St.	-3.993035e-05
-4.882766	(Tariffs)	0.003624879
-4.882766	(Two	0.007555277
-4.882766	(UCR)	-3.993035e-05
-4.882766	(Used	-3.993035e-05
-4.882766	(Washington	-3.708592e-05
-4.882766	(When	4.541062e-05
-4.882766	(Which	0.00011085
-4.882766	([A1*100)/[B1]	0.002759447
-4.882766	([A2]*100)/[B2]	0.002759447
-4.706675	(a	3.677772e-05
-4.882766	(a.k.a.	0.02225997
-4.882766	(actual	0.002207276
-4.882766	(after	-3.139702e-05
-4.882766	(again,	-2.855252e-05
-4.882766	(age-appropriate,	5.110059e-05
-4.706675	(all	0.002364706
-4.882766	(also	-3.993035e-05
-4.706675	(an	-2.296783e-05
-4.037668	(and	0.01512661
-4.882766	(apparently	0.003624879
-4.882766	(approximate	-3.993035e-05
-4.882766	(armed	0.002207276
-4.405645	(as	0.01190909
-4.882766	(aside	0.001150667
-4.706675	(assault	0.0002445284
-4.581737	(assuming	0.01091943
-4.581737	(at	0.00107939
-4.882766	(because	0.0008541372
-4.882766	(before	-3.708592e-05
-4.882766	(big	-3.993035e-05
-4.882766	(both	-3.424148e-05
-4.706675	(but	-5.989372e-05
-4.706675	(by	0.0003982712
-4.882766	(caused	0.001430276
-4.882766	(civilians)	0.0005150859
-4.882766	(clean	-3.993035e-05
-4.882766	(collectively	-2.855252e-05
-4.882766	(concert	-3.993035e-05
-4.882766	(constitutionally)	0.0003300017
-4.882766	(cue	-2.855252e-05
-4.882766	(despite	-1.717441e-05
-4.882766	(does	0.0002104507
-4.882766	(e.g.	0.02225997
-4.882766	(equivalent	0.01067234
-4.882766	(essentially	0.008746591
-4.706675	(even	0.0009966772
-4.882766	(ex.,	-3.424148e-05
-4.882766	(except,	0.007555277
-4.882766	(fee)	0.001176338
-4.882766	(followed	0.002207276
-4.706675	(for	-4.857052e-05
-4.706675	(from	0.009168535
-4.706675	(g)	0.002184468
-4.882766	(generally	-3.993035e-05
-4.882766	(gun	-3.993035e-05
-4.882766	(guns,	-1.432982e-05
-4.882766	(hah!)	0.02225997
-4.882766	(here	0.005058636
-4.706675	(hire	0.008723783
-4.882766	(homicide	1.12722e-05
-4.882766	(homicides	6.532593e-05
-4.882766	(honest	0.002207276
-4.882766	(hypothetical	-3.993035e-05
-4.882766	(hypothetically),	0.004957918
-4.882766	(i)	-3.993035e-05
-4.484827	(i.e.	0.02219155
-4.581737	(i.e.,	1.96117e-05
-4.338698	(if	0.007966985
-4.229554	(in	0.02457934
-4.405645	(including	0.01561031
-4.882766	(increase	0.01522675
-4.882766	(is	0.005369572
-4.484827	(it	0.002376383
-4.882766	(it's	0.000147842
-4.882766	(italics	-2.286351e-05
-4.882766	(j/k...).	0.02225997
-4.882766	(jams)	0.001082219
-4.882766	(knee-jerk)	5.58275e-06
-4.882766	(lack	0.007555277
-4.882766	(laundry,	-3.993035e-05
-4.581737	(like	0.0003355668
-4.882766	(literally)	0.007294841
-4.882766	(lol),	0.0006062335
-4.882766	(mandatory	-3.993035e-05
-4.882766	(many	0.007555277
-4.882766	(me)	0.000281608
-4.882766	(most)	-3.993035e-05
-4.581737	(mostly	0.0001448277
-4.882766	(my	-3.993035e-05
-4.706675	(n)	0.007532469
-4.706675	(no	-5.994902e-05
-4.882766	(non-expert)	-2.286351e-05
-4.706675	(not	0.0009025871
-4.882766	(of	0.0001393051
-4.581737	(one	0.008698893
-4.882766	(oops!)	0.02225997
-3.979676	(or	0.02296902
-4.706675	(out	0.007532469
-4.882766	(page	-3.993035e-05
-4.882766	(para)	-3.993035e-05
-4.882766	(party)	5.58275e-06
-4.882766	(pay	0.0008541372
-4.706675	(per	0.01518997
-4.706675	(perhaps	1.117148e-05
-4.882766	(periodic)	0.01522675
-4.882766	(race	-3.424148e-05
-4.882766	(rare,	0.001433129
-4.882766	(read	0.001978602
-4.882766	(really	0.001082219
-4.882766	(regardless	0.007555277
-4.882766	(retail	1.12722e-05
-4.882766	(right	0.0006461163
-4.882766	(roughly	-3.708592e-05
-4.882766	(run	0.0001506875
-4.882766	(sadly)	0.0009111463
-4.882766	(same	0.001978602
-4.882766	(selective	7.101618e-05
-4.882766	(she	0.001501633
-4.882766	(sic)	-3.708592e-05
-4.706675	(so	0.005344114
-4.882766	(sob,	-3.993035e-05
-4.882766	(sober	5.963574e-05
-4.882766	(some	0.007555277
-4.882766	(subdivision),	0.004957918
-4.484827	(such	0.001910182
-4.882766	(suit	6.817105e-05
-4.882766	(teens	-2.570803e-05
-4.706675	(that	0.0001136054
-4.183796	(the	0.0001188051
-4.706675	(this	0.005058852
-4.706675	(though	0.003794452
-4.882766	(thousands)	0.0005919903
-4.405645	(to	0.01810434
-4.882766	(too	0.0004381952
-4.882766	(true)	0.007294841
-4.882766	(ugly)	0.0001279228
-4.882766	(underfunded,	-3.993035e-05
-4.882766	(unfortunately;	0.004957918
-4.882766	(unless	0.001778611
-4.882766	(unspecified)	1.12722e-05
-4.882766	(untrue,	-3.993035e-05
-4.882766	(via	-3.993035e-05
-4.882766	(voting	-1.066682e-07
-4.882766	(watching	0.007294841
-4.882766	(went	0.0003072275
-4.882766	(when	0.01522675
-4.882766	(where	0.01522675
-3.953347	(which	0.04729972
-4.484827	(who	0.007867314
-4.882766	(wife	0.007294841
-4.882766	(wildly	-3.993035e-05
-4.484827	(with	0.01581447
-4.882766	(without	-2.855252e-05
-4.882766	(written	0.005058636
-4.882766	(yes	0.001381759
-4.882766	(yet	0.0001962207
-4.882766	(yet)	0.002647812
-4.882766	(yet).	0.02225997
-4.882766	(“military	-3.708592e-05
-4.280706	)	0.03578453
-4.882766	),	-3.993035e-05
-4.882766	).	0.02225997
-4.882766	)of	-3.139702e-05
-4.882766	*	-3.708592e-05
-4.882766	*"Millions	0.007555277
-4.142404	****	0.04320706
-4.882766	*************	0.0006461163
-4.882766	******?"	0.02225997
-4.706675	****,	0.001062267
-4.882766	****.	0.02225997
-4.882766	****ed	0.0005264785
-4.882766	****ed.	0.02225997
-4.183796	****ing	0.001082447
-4.882766	****s	0.005369572
-4.882766	**Note**	-3.993035e-05
-4.882766	**Privacy	0.007555277
-4.882766	*All	-3.993035e-05
-4.882766	*Forests	0.007294841
-4.882766	*From	-3.993035e-05
-4.882766	*Hunting	0.001042296
-4.882766	*I	9.94686e-05
-4.882766	*I*	0.001658661
-4.882766	*Kalachnikovs	0.003103122
-4.882766	*NO	-3.708592e-05
-4.882766	*News	-3.993035e-05
-4.882766	*Select	-3.993035e-05
-4.882766	*Sidebar	-3.993035e-05
-4.882766	*all*	0.01522675
-4.882766	*and*	0.0001848369
-4.882766	*away	0.001150667
-4.882766	*looks	0.001176338
-4.882766	*shrug*	0.0006546632
-4.706675	*the*	0.001033748
-4.882766	+	-3.993035e-05
-4.069853	,	0.02338711
-4.882766	,and	0.003624879
-4.882766	,brothers,any	0.0008655384
-4.882766	,but	9.94686e-05
-4.882766	,fathers	-3.993035e-05
-4.706675	,it	0.008750318
-4.882766	,mothers,daughters	-3.993035e-05
-4.882766	,perhaps	0.002576266
-4.882766	,this	0.005081661
-4.882766	,you	-3.708592e-05
-2.999105	-	0.09811743
-3.768823	--	0.03754355
-4.882766	--,	0.001433129
-4.882766	---	-2.951339e-06
-4.882766	----------------------	3.118595e-05
-4.882766	--------------------------------------	-2.570803e-05
-4.882766	-----------------------------.	0.02225997
-4.882766	--Samuel	-3.993035e-05
-4.581737	--Thomas	-7.701138e-05
-4.882766	--for	0.01522675
-4.706675	-A	-7.986066e-05
-4.882766	-According	0.01067234
-4.882766	-Admiral	-3.993035e-05
-4.882766	-Another	-2.001895e-05
-4.882766	-Armed	0.0001592246
-4.882766	-In	-3.993035e-05
-4.882766	-expanded	0.01067234
-3.420368	.	0.02098457
-4.142404	..	0.04926881
-3.467793	...	0.08303405
-4.338698	....	0.02260482
-4.706675	.....	0.02223716
-4.581737	......	0.0222125
-4.882766	.......	0.02225997
-4.581737	.........	0.001635962
-4.706675	..........	0.02227424
-4.882766	.....media	-2.855252e-05
-4.882766	....but	0.001778611
-4.882766	...As	0.01522675
-4.882766	...In	0.005369572
-4.882766	...Kavanaugh	0.007294841
-4.882766	...Okay...That	0.001501633
-4.882766	...The	0.0002218351
-4.882766	...We	0.001013782
-4.882766	...With	-3.708592e-05
-4.882766	...YOU	-3.993035e-05
-4.882766	...Yes,	0.004957918
-4.882766	...and?	0.02225997
-4.882766	...but	2.83411e-05
-4.882766	...common	6.817105e-05
-4.882766	...gun	7.955168e-05
-4.882766	...how	-3.993035e-05
-4.706675	...if	0.003966683
-4.882766	...it's	0.002759447
-4.882766	...no,	0.0006062335
-4.882766	...or	0.001002377
-4.882766	...the	2.265139e-05
-4.882766	...well....	0.0006261742
-4.882766	...you	0.0009111463
-4.882766	.006%	0.0006290233
-4.882766	.007.	0.02225997
-4.882766	.01"	0.0001506875
-4.882766	.06%	0.007555277
-4.882766	.14	5.679068e-05
-4.142404	.22	0.01789701
-4.882766	.22,	0.0006318718
-4.484827	.223	0.004475916
-4.882766	.22LR	0.007294841
-4.882766	.243	0.007294841
-4.882766	.300	-3.993035e-05
-4.882766	.3006	0.005081661
-4.706675	.357	0.002287479
-4.882766	.357.	0.02225997
-4.882766	.357?	0.02225997
-4.882766	.380,	0.001433129
-4.882766	.380.	0.02225997
-4.706675	.40	-5.9949e-05
-4.882766	.40.	0.02225997
-4.882766	.44	-3.993035e-05
-4.882766	.44mag	0.007294841
-4.882766	.45.	0.02225997
-4.882766	.45......	0.02225997
-4.882766	.48	5.679068e-05
-4.882766	.5	-3.424148e-05
-4.882766	.50	-3.424148e-05
-4.882766	.7	-3.424148e-05
-4.882766	.8	-3.424148e-05
-4.882766	.Maybe	0.003624879
-4.581737	.code{font-family:	-7.985585e-05
-4.280706	/	0.0006602487
-4.581737	/*overflow:	-7.132239e-05
-4.882766	//.	0.02225997
-4.882766	/QUOTE]	0.001481652
-4.882766	/her	-3.993035e-05
-4.882766	/thread.	0.02225997
-4.706675	0	0.002207406
-4.882766	0-60	0.005058636
-4.882766	0.005%	0.007555277
-4.882766	0.2	-8.640599e-06
-4.882766	0.476%.	0.02225997
-4.882766	0.7	0.0002076046
-4.484827	0.8	-0.0001568764
-4.581737	0.9	-0.0001169464
-4.882766	08-1521	-3.708592e-05
-4.882766	09/11/2001	-1.717441e-05
-4.338698	0px	-0.0001113422
-3.882766	1	0.0283353
-4.581737	1%	0.007518693
-4.882766	1%.	0.02225997
-4.405645	1)	0.0007999419
-4.882766	1,000	-3.993035e-05
-4.882766	1,000+	8.427452e-06
-4.882766	1,100	-3.993035e-05
-4.882766	1,300	-1.148524e-05
-4.882766	1,500	0.0001649161
-4.882766	1-3,000	1.980657e-05
-4.405645	1.	0.02216874
-4.706675	1.2	-7.417172e-05
-4.882766	1.5	2.549624e-05
-4.882766	1.5%.	0.02225997
-4.882766	1.6/100,000	0.007294841
-4.882766	1/1000	2.549624e-05
-4.581737	1/2	0.01081441
-4.882766	1/3	0.007555277
-4.882766	1/40th	0.000990972
-4.882766	1/4th	-3.993035e-05
-3.803585	10	0.01985117
-4.706675	10%	0.007532469
-4.882766	10,	-1.432982e-05
-4.581737	10,000	0.001279106
-4.882766	10-11%	0.0001222318
-4.882766	10-20	-1.066682e-07
-4.484827	10/22	0.01042471
-3.928524	100	0.00927057
-4.069853	100%	0.01034689
-4.484827	100,000	0.001230603
-4.882766	100,000."	0.02225997
-4.882766	100.	0.02225997
-4.882766	100.00	0.008746591
-4.581737	1000	0.00103376
-4.706675	100K	0.007532469
-4.882766	101.	0.02225997
-4.882766	10X	-3.708592e-05
-4.882766	10s	0.007555277
-4.229554	11	0.0004636341
-4.706675	11,	0.000628987
-4.706675	11,000	0.002968694
-4.882766	110,000	-3.139702e-05
-4.882766	112.6.	0.02225997
-4.484827	12	2.815517e-05
-4.706675	12"	0.0007372664
-4.882766	12,	-3.708592e-05
-4.882766	12,000	2.265139e-05
-4.882766	12,590	0.002318798
-4.882766	12-17	0.007294841
-4.882766	12-gauge	-3.424148e-05
-4.882766	12-month	-8.640599e-06
-4.882766	12.5	-3.993035e-05
-4.882766	120	-3.993035e-05
-4.882766	120MM	-3.993035e-05
-4.882766	122,000	5.110059e-05
-4.882766	122,300	-3.708592e-05
-4.882766	128	-3.993035e-05
-4.882766	12BVSS	-3.139702e-05
-4.405645	13	0.01809748
-4.882766	13%	0.007555277
-4.882766	13-14	9.662325e-05
-4.882766	13-year-old	-3.139702e-05
-4.882766	135,000	-3.708592e-05
-4.882766	136,371	-3.993035e-05
-4.405645	14	0.003536936
-4.882766	14,	-3.993035e-05
-4.882766	14.	0.02225997
-4.882766	147	-1.148524e-05
-4.338698	15	0.01809248
-4.882766	15"	0.007294841
-4.882766	15+1,	0.0007743365
-4.882766	15,	-3.993035e-05
-4.882766	15,000	5.58275e-06
-4.882766	15,700	-3.993035e-05
-4.882766	15-24	0.007294841
-4.882766	15-year-old	-3.708592e-05
-4.882766	150	0.001050851
-4.882766	150,000	1.411698e-05
-4.882766	157,000	-3.139702e-05
-4.484827	16	0.008563295
-4.882766	16"	0.002207276
-4.706675	16,	-3.713762e-05
-4.882766	16,000	-1.066682e-07
-4.882766	16.3	-3.993035e-05
-4.882766	16yr	6.248083e-05
-4.581737	17	0.001921607
-4.882766	17%	0.0001222318
-4.706675	17,	-3.713762e-05
-4.882766	17-4	-3.993035e-05
-4.882766	170	0.001313274
-4.882766	1700's	0.005081661
-4.882766	174	0.001481652
-4.882766	1774.	0.02225997
-4.882766	1775	0.001433129
-4.882766	1775.	0.02225997
-4.882766	1780,	0.007294841
-4.882766	1787	-2.951339e-06
-4.882766	1788	-3.424148e-05
-4.882766	1789	0.0002076046
-4.882766	1791	-1.066682e-07
-4.183796	18	0.01608619
-4.882766	18"	-2.286351e-05
-4.882766	18+	0.001433129
-4.882766	18,	-1.432982e-05
-4.882766	18,000	0.008746591
-4.882766	18,000,	0.005369572
-4.706675	18-20	6.807625e-05
-4.882766	18-20-year-olds	0.002327378
-4.581737	18-21	0.0001647517
-4.882766	18-21-year-olds	3.97207e-05
-4.882766	18-24	-5.795971e-06
-4.706675	18-year-old	0.007503869
-4.882766	18-year-olds	0.007294841
-4.882766	18.	0.02225997
-4.882766	1810.	0.02225997
-4.882766	1812.	0.02225997
-4.882766	1830	0.0001193863
-4.882766	1865.	0.02225997
-4.280706	18th	-0.0001968956
-4.581737	19	0.003355828
-4.882766	19)	-2.001895e-05
-4.882766	19-20%	-2.855252e-05
-4.882766	19.	0.02225997
-4.882766	19.29.	0.02225997
-4.882766	190+	-3.424148e-05
-4.706675	1911.	0.02223716
-4.706675	1917	-7.132722e-05
-4.882766	1920's	0.007294841
-4.882766	1920,	0.001150667
-4.882766	1920.	0.02225997
-4.882766	1920`s	0.007294841
-4.882766	1920s	0.002207276
-4.706675	1924-1938	0.001458844
-4.882766	1926,	0.001050851
-4.882766	1929,	0.007294841
-4.882766	1930's	0.001433129
-4.706675	1930's.	0.02223716
-4.882766	1930`s	0.002576266
-4.882766	1933.	0.02225997
-4.280706	1934	0.006887439
-4.882766	1938.	0.02225997
-4.882766	1939	0.0007144957
-4.882766	1939.	0.02225997
-4.882766	1940s	0.0007743365
-4.882766	1942	-3.993035e-05
-4.882766	1945,	0.002682159
-4.882766	1945.	0.02225997
-4.882766	1951,	0.008746591
-4.882766	1952	0.0003784007
-4.882766	1964	0.007294841
-4.882766	1966,	-3.708592e-05
-4.882766	1968	0.0003897895
-4.882766	1969	-3.993035e-05
-4.706675	1970	0.000968163
-4.882766	1970s	0.007294841
-4.882766	1975	0.001430276
-4.882766	1976	9.093265e-05
-4.882766	1977.	0.02225997
-4.882766	1979	-2.001895e-05
-4.882766	1981.	0.02225997
-4.882766	1982,	0.01522675
-4.882766	1984,	0.007294841
-4.882766	1985.	0.02225997
-4.581737	1986	0.007843396
-4.882766	1986.	0.02225997
-4.882766	1989	0.005058636
-4.882766	1990's	-2.001895e-05
-4.706675	1991	0.001307604
-4.882766	1992	0.007294841
-4.882766	1994	0.000147842
-4.882766	1996	-3.708592e-05
-4.706675	1996,	0.0006232892
-4.882766	1998	0.0006290233
-4.882766	1999	-2.951339e-06
-4.882766	1999.	0.02225997
-4.882766	19th	-2.001895e-05
-4.706675	1:	0.0002758419
-4.882766	1A	0.003624879
-4.581737	1px	-7.985585e-05
-4.338698	1st	0.005694803
-3.928524	2	0.006724071
-4.882766	2"	-2.286351e-05
-4.882766	2%	0.003624879
-4.405645	2)	0.004858685
-4.882766	2).	0.02225997
-4.882766	2,	0.007294841
-4.882766	2-3	3.118595e-05
-4.882766	2-8-16.	0.02225997
-4.882766	2-blocks	1.411698e-05
-4.229554	2.	0.0221494
-4.882766	2.2	1.12722e-05
-4.581737	2.5	6.803374e-05
-4.882766	2.50	-2.001895e-05
-4.882766	2.8	6.532593e-05
-4.882766	2.9	-3.993035e-05
-4.882766	2/3rds.	0.02225997
-4.882766	2/3s	0.007555277
-4.142404	20	0.01252128
-4.706675	20",	0.007272033
-4.882766	20%	0.007555277
-4.706675	20,000	0.002278899
-4.882766	20-30	-3.708592e-05
-4.882766	20.	0.02225997
-4.229554	200	0.008868668
-4.882766	200.	0.02225997
-4.882766	2000	0.01067234
-4.882766	2000.	0.02225997
-4.882766	2001	0.0004068733
-4.882766	2001.	0.02225997
-4.882766	2002,	0.007294841
-4.882766	2003	0.0002076046
-4.882766	2003)	-1.717441e-05
-4.882766	2004	-1.148524e-05
-4.882766	2005	5.394563e-05
-4.882766	2005-2018.	0.02225997
-4.882766	2006-2010	0.007555277
-4.882766	2008	0.0005264785
-4.882766	2009.	0.02225997
-4.581737	200px;*/}	-7.985585e-05
-4.706675	2010	0.0003925761
-4.882766	2010,	0.0006461163
-4.882766	2010--all	0.001778611
-4.882766	2010--or	0.0006290233
-4.882766	2010.	0.02225997
-4.142404	2011	0.001305177
-4.706675	2011.	0.02223716
-4.882766	2012	0.005058636
-4.882766	2012)	0.005369572
-4.882766	2012:	-3.993035e-05
-4.882766	2013	0.0001791452
-4.706675	2013,	-7.132722e-05
-4.882766	2013-02-01	0.001176338
-4.882766	2013.	0.02225997
-4.581737	2014	0.006469435
-4.882766	2014).	0.02225997
-4.706675	2014,	0.003209378
-4.581737	2015	0.01811547
-4.882766	2015)	0.0001364595
-4.882766	2015).	0.02225997
-4.581737	2016	-7.422173e-05
-4.882766	2016,	8.427452e-06
-4.882766	2016.	0.02225997
-4.882766	2017	-3.993035e-05
-4.882766	2017!.	0.02225997
-4.882766	2017,	-3.993035e-05
-4.882766	2017-18),	0.000412568
-4.882766	2018.	0.02225997
-4.882766	2019	0.0003897895
-4.706675	2019.	0.02223716
-4.882766	208,	0.0001734535
-4.882766	20k	2.265139e-05
-4.581737	20th	0.007235094
-4.229554	21	0.01946741
-4.882766	21".	0.02225997
-4.882766	21,	-1.432982e-05
-4.882766	21.	0.02225997
-4.882766	21..	-3.708592e-05
-4.882766	210,000	-3.993035e-05
-4.882766	2100.	0.02225997
-4.405645	21st	-2.31525e-05
-4.229554	22	0.01047548
-4.882766	22)	0.005081661
-4.882766	22,000	-3.993035e-05
-4.882766	22-year-old	-3.993035e-05
-4.706675	22.	0.02223716
-4.882766	22.25.55.jpg	0.0001193863
-4.706675	22cal	0.01010226
-4.882766	22lr	0.001176338
-4.882766	23.	0.02225997
-4.882766	230	9.662325e-05
-4.706675	231	0.005041798
-4.882766	24"	0.0001563789
-4.882766	24,	0.001501633
-4.882766	24.	0.02225997
-4.882766	248	0.0001791452
-4.338698	25	0.004683787
-4.882766	25,	0.008746591
-4.882766	25-35"........others	0.002327378
-4.882766	25-minute	0.0001791452
-4.706675	25.	0.02223716
-4.882766	254	2.549624e-05
-4.882766	26"	-1.432982e-05
-4.882766	26.	0.02225997
-4.882766	26.81.	0.02225997
-4.882766	265	-3.139702e-05
-4.882766	267,254	0.000275915
-4.484827	27	5.651725e-05
-4.882766	27,	-3.424148e-05
-4.882766	27.	0.02225997
-4.882766	2783	-3.993035e-05
-4.882766	28	-2.855252e-05
-4.882766	28,774,	-3.993035e-05
-4.882766	29,128	0.007294841
-4.706675	29.	0.02223716
-4.581737	2:	0.0005833681
-4.882766	2;	-2.286351e-05
-4.069853	2A	0.01548277
-4.706675	2A.	0.02223716
-4.882766	2a	3.97207e-05
-4.882766	2a,	-2.001895e-05
-4.882766	2ed	8.524214e-05
-3.398467	2nd	0.0004127691
-4.882766	2nd!!!	0.02225997
-4.706675	2nd.	0.02223716
-4.581737	2px;	-7.985585e-05
-3.822068	3	0.01788604
-4.882766	3%	0.007555277
-4.581737	3)	-3.056984e-07
-4.882766	3,	7.386132e-05
-4.581737	3-D	-0.0001084127
-4.484827	3.	0.02224061
-4.706675	3.0	-7.986066e-05
-4.882766	3.1	2.549624e-05
-4.882766	3.3	2.549624e-05
-4.882766	3.3M	-2.001895e-05
-4.882766	3.4	-3.993035e-05
-4.882766	3.7	-3.993035e-05
-4.882766	3.730.	0.02225997
-4.882766	3.85	5.679068e-05
-3.928524	30	0.001040033
-4.882766	30+	0.001042296
-4.882766	30,000+	0.002318798
-4.882766	30,220	-1.066682e-07
-4.882766	30.8.	0.02225997
-4.405645	300	1.089801e-05
-4.882766	307	0.0002218351
-4.882766	30K+	0.002318798
-4.882766	30rnd	-3.708592e-05
-4.882766	30s	0.0001535332
-4.882766	31.	0.02225997
-4.882766	310	2.549624e-05
-4.882766	31st	-2.570803e-05
-4.882766	32	-8.640599e-06
-4.882766	32,000	-2.951339e-06
-4.882766	32,675	-3.993035e-05
-4.882766	33,883	-3.708592e-05
-4.882766	338	-2.001895e-05
-4.882766	35	0.0001080046
-4.882766	35".	0.02225997
-4.882766	35%	0.003103122
-4.882766	350	-3.993035e-05
-4.581737	357	0.005013448
-4.882766	357,	-2.855252e-05
-4.581737	36	0.007631605
-4.882766	37,000	0.001313274
-4.882766	371	2.549624e-05
-4.882766	37th	0.00216725
-4.581737	38	0.009654981
-4.882766	39	0.002759447
-4.882766	3:	-3.708592e-05
-4.484827	3D	0.004976464
-4.882766	3M,	-3.993035e-05
-4.882766	3X	0.003624879
-4.882766	3rd	7.101618e-05
-3.979676	4	0.003052067
-4.882766	4)	-3.139702e-05
-4.882766	4,000	-3.708592e-05
-4.882766	4-5	0.0001563789
-4.484827	4.	0.02224061
-4.882766	4.2/100,000	0.007294841
-4.882766	4.76	6.532593e-05
-4.706675	40	9.653143e-05
-4.882766	40%	0.000247451
-4.882766	40calibre	5.58275e-06
-4.882766	40s.	0.02225997
-4.882766	437,000	-2.286351e-05
-4.882766	44	3.97207e-05
-4.882766	44-year-old	-3.993035e-05
-4.882766	44.	0.02225997
-4.581737	4473	0.0006546015
-4.706675	45,	0.007272033
-4.882766	45/70cal	0.001433129
-4.706675	47	0.001150686
-4.882766	47.	0.02225997
-4.882766	47s	-2.286351e-05
-4.581737	48	2.530256e-05
-4.882766	480,000	-3.708592e-05
-4.882766	49	1.980657e-05
-4.882766	49,	0.002576266
-4.280706	4th	0.01964501
-3.768823	5	0.01090911
-4.882766	5-shot	-5.795971e-06
-4.581737	5.	0.02226341
-4.882766	5.195.	0.02225997
-4.037668	50	0.01181332
-4.581737	50%	0.01268177
-4.882766	50,000,	0.0006774556
-4.882766	50-100	5.58275e-06
-4.882766	500	-2.855252e-05
-4.706675	500%	0.006532382
-4.882766	500+	-3.993035e-05
-4.882766	500k	-2.855252e-05
-4.882766	511	-3.993035e-05
-4.882766	53	9.662325e-05
-4.882766	54,	0.0002389122
-4.882766	555	-2.001895e-05
-4.882766	561	1.696176e-05
-4.882766	57	-8.640599e-06
-4.882766	58	-8.640599e-06
-4.882766	5th	8.524214e-05
-4.142404	6	0.01085825
-4.706675	6,	0.004920931
-4.706675	6.	0.02223716
-4.882766	6.2	-3.993035e-05
-4.882766	6.8	6.532593e-05
-4.706675	60	7.092171e-05
-4.581737	60%	0.009826659
-4.882766	60%:	-2.001895e-05
-4.882766	60's	1.696176e-05
-4.882766	606).	0.02225997
-4.882766	60981-Third-Party-Facepalm-meme-extr-McI2.jpg	0.0001193863
-4.882766	62	-3.139702e-05
-4.882766	65	-3.424148e-05
-4.882766	65%	0.007555277
-4.882766	65,000	-3.993035e-05
-4.882766	69	9.662325e-05
-4.882766	6:50	-3.708592e-05
-4.706675	6th	5.954007e-05
-4.405645	7	0.005069029
-4.706675	7.	0.02223716
-4.882766	7.5	-3.708592e-05
-4.882766	7.62	0.01067234
-4.882766	7.62x39mm	-3.993035e-05
-4.581737	70	-9.418967e-05
-4.706675	70%	0.007260793
-4.882766	70%?	0.02225997
-4.882766	70,000	0.002318798
-4.882766	700NE	0.01067234
-4.581737	72	-7.996611e-05
-4.882766	742	-3.708592e-05
-4.706675	75%	0.007680473
-4.882766	75,000	3.687576e-05
-4.882766	750	0.008746591
-4.280706	8	0.005052218
-4.882766	8%	0.007555277
-4.706675	8,	0.01521354
-4.882766	8,583	2.265139e-05
-4.882766	8.	0.02225997
-4.882766	8.5	-3.139702e-05
-4.706675	80	2.824215e-05
-4.882766	80%	0.007555277
-4.882766	80%,	-3.708592e-05
-4.882766	89	-3.708592e-05
-4.142404	9	0.01129395
-4.882766	9.	0.02225997
-4.882766	9.0	2.738032e-06
-4.882766	90	5.58275e-06
-4.581737	90%	0.009774275
-4.882766	90%,	-3.993035e-05
-4.882766	90's.	0.02225997
-4.882766	90,000	6.817105e-05
-4.882766	9000	0.000275915
-4.882766	90s	0.003624879
-4.882766	911,	-3.708592e-05
-4.882766	915	0.01067234
-4.882766	915,	0.007294841
-4.882766	92	3.403085e-05
-4.706675	922	0.002184468
-4.882766	95%	0.007555277
-4.882766	96%	0.0001364595
-4.706675	97%	0.007532815
-4.882766	98%.	0.02225997
-4.882766	99	-3.993035e-05
-4.484827	99%	0.007591779
-4.882766	99.524%."	0.02225997
-4.882766	9:	-3.993035e-05
-4.882766	9FP	-3.993035e-05
-4.229554	9mm	0.01127235
-4.581737	9mm,	0.008687282
-4.706675	9mm.	0.02223716
-4.484827	9th	-8.934657e-06
-4.142404	:	0.01045218
-4.882766	:P.	0.0001734535
-4.882766	;	0.007294841
-4.882766	;-)	-2.855252e-05
-1.300476	</s>
-4.882766	<<	-2.855252e-05
-4.882766	<I	-3.424148e-05
-4.882766	<entertain	-3.993035e-05
-4.882766	<refused	0.01067234
-99	<s>	-0.01566719
-3.882766	=	0.001749037
-4.882766	>	9.662325e-05
-4.405645	?	0.02216874
-4.338698	?.	0.02214594
-4.882766	??	0.02225997
-4.882766	???	0.02225997
-4.581737	@	0.01516422
-4.882766	@sshole	0.007294841
-3.183796	A	0.004702279
-4.882766	A**hole	-3.993035e-05
-4.882766	A-10	0.005058636
-4.882766	A.R.	0.02225997
-4.706675	ABC	-8.743416e-06
-4.882766	ABSOLUTELY	-3.993035e-05
-4.882766	ACA	5.58275e-06
-4.484827	ACLU	0.004225513
-4.882766	ACOG	-3.993035e-05
-4.882766	ACTUALLY	-3.993035e-05
-4.882766	ADDRESS	-3.424148e-05
-4.882766	AFAIK,	-3.708592e-05
-4.882766	AFFIRMING	0.01522675
-4.882766	AFT	-3.993035e-05
-4.581737	AFTER	0.01516422
-4.882766	AG	0.005081661
-4.882766	AGGRESSIVELY	-3.993035e-05
-4.882766	AGREE	-3.993035e-05
-4.882766	AI	0.0001250773
-4.706675	AK	-7.986066e-05
-4.706675	AK-47	0.0052318
-4.882766	AK-47's	-3.708592e-05
-4.882766	AK-47s....U.S.	1.696176e-05
-4.882766	AK47)	0.007294841
-4.882766	AKs	0.007294841
-4.183796	ALL	0.02940179
-4.882766	ALLOWED	6.248083e-05
-4.706675	ALWAYS	0.003737057
-4.882766	AM	0.005058636
-4.882766	AMERICA	0.007294841
-4.882766	AMERICAN	-2.570803e-05
-4.706675	AN	-7.986066e-05
-4.007705	AND	0.01636785
-4.280706	ANY	0.008771105
-4.882766	ANYONE	-3.993035e-05
-4.706675	ANYTHING	0.006561264
-4.882766	ANYTIME	0.008746591
-4.882766	APPEAL	-3.139702e-05
-4.229554	AR	0.008979091
-4.104615	AR-15	0.01389348
-4.882766	AR-15's	0.007294841
-4.706675	AR-15,	0.0003925759
-4.882766	AR-15.	0.02225997
-4.882766	AR-15....	0.001036593
-4.882766	AR-15s	0.001978602
-4.882766	AR-15s,	0.0009624613
-4.581737	AR.	0.02221435
-4.706675	AR15	-5.420481e-05
-4.882766	AR15's	0.003103122
-4.882766	AR15.	0.02225997
-4.882766	AR15s,	-1.717441e-05
-4.405645	ARE	-1.756061e-05
-4.882766	ARM?	0.02225997
-4.882766	ARMED	-3.993035e-05
-4.706675	ARTICLE	5.533299e-06
-4.882766	ARTICLE5	0.007555277
-4.581737	ARs	0.01328044
-4.882766	ARs.	0.02225997
-4.882766	ASBOS..	-3.993035e-05
-4.882766	ASK!!!!	0.02225997
-4.882766	ASSHOLES?.	0.02225997
-4.882766	ASSISTING	-3.993035e-05
-4.882766	ASSumptions	0.0001620704
-4.882766	AT4	-3.993035e-05
-4.280706	ATF	0.007177369
-4.882766	ATF?.	0.02225997
-4.581737	ATV	0.01188042
-4.882766	AUTHORITY	-3.993035e-05
-4.882766	AUTOMATIC	-3.708592e-05
-4.882766	AVERAGES	0.0003897895
-4.280706	AWB	0.01016254
-4.706675	AZ	0.01208983
-4.882766	Aaaand	0.000990972
-4.882766	Abbey	0.0006347208
-4.882766	Abd	-3.993035e-05
-4.882766	Abortion	0.0002531436
-4.882766	Absolutely	-3.708592e-05
-4.882766	Absolutely,	0.001036593
-4.882766	Accommodation	0.0003926367
-4.405645	According	0.01058112
-4.882766	Acquisition	-3.993035e-05
-4.007705	Act	0.01584143
-4.882766	Act,	0.01067234
-4.882766	Act.	0.02225997
-4.706675	Action	-7.986066e-05
-4.882766	Acts	0.007555277
-4.882766	Acts'	4.541062e-05
-4.882766	Actual	1.980657e-05
-4.229554	Actually	0.009368251
-4.183796	Actually,	0.008380838
-4.882766	Actually...IT	-1.432982e-05
-4.338698	Adam	0.001350593
-4.882766	Adams.	0.02225997
-4.882766	Adapt	0.007294841
-4.882766	Adderall	0.007294841
-4.882766	Addictions,	-3.993035e-05
-4.882766	Addicts	0.003103122
-4.882766	Additionally	0.002576266
-4.484827	Administration	0.01919263
-4.882766	Advanced	-3.993035e-05
-4.882766	Advancing	0.005058636
-4.882766	Advocates'	-3.993035e-05
-4.882766	Afghanistan	0.0003897895
-4.882766	Afghanistan,	-3.993035e-05
-4.882766	Afghanistan...Did	0.001002377
-4.882766	Afghans....they	0.0001051592
-4.484827	Africa	0.003075151
-4.484827	African	5.381205e-05
-4.882766	African-American	-2.855252e-05
-4.142404	After	0.01500478
-4.706675	Again	0.008625512
-4.104615	Again,	0.03842781
-4.882766	Again--our	-3.708592e-05
-4.882766	Again...	0.000446738
-4.882766	Again....where's	0.01522675
-4.706675	Against	-5.989372e-05
-4.882766	Agree.	0.02225997
-4.882766	Agreed	0.00216725
-4.882766	Agreed,	0.001433129
-4.882766	Agreed.	0.02225997
-4.706675	Ah	0.001761557
-4.581737	Ah,	0.006368368
-4.882766	Ahh,	0.0001080046
-4.882766	Aimpoint	0.002207276
-4.882766	Air	-3.993035e-05
-4.882766	Airport	0.001978602
-4.581737	Al	-9.982276e-05
-4.882766	Alas,	0.002576266
-4.882766	Alaska	0.000412568
-4.882766	Alaska,	0.004957918
-4.882766	Alaska.	0.02225997
-4.882766	Alaskans	0.0001421507
-4.882766	Albany	0.007294841
-4.882766	Albury.	0.02225997
-4.706675	Alcohol	0.007463347
-4.882766	Alcohol,	-3.993035e-05
-4.882766	Alex	-3.993035e-05
-4.882766	Alexander	-3.993035e-05
-4.706675	Alexandria	-7.986066e-05
-4.882766	Alinsky.	0.02225997
-3.678646	All	0.05316911
-4.882766	Allegiance.	0.02225997
-4.882766	Allied	-8.640599e-06
-4.882766	Allowing	0.002207276
-4.882766	Almost	-8.640599e-06
-4.882766	Along	0.01522675
-4.706675	Already	-7.70162e-05
-4.882766	Alright,	3.118595e-05
-4.142404	Also	0.006825779
-3.882766	Also,	0.03072221
-4.280706	Although	0.02278647
-4.706675	Always	0.002619366
-4.882766	Am	0.004957918
-4.706675	Amazing	0.005802308
-4.882766	Amazing.	0.02225997
-4.882766	Amazingly	0.0001165409
-4.882766	Amd.	0.02225997
-4.882766	Amend	0.01522675
-3.550328	Amendment	0.04125813
-4.882766	Amendment)	0.002759447
-4.229554	Amendment,	0.02621347
-4.037668	Amendment.	0.02198635
-4.882766	Amendment?	0.02225997
-4.706675	Amendments	-8.743436e-06
-4.882766	Amendments)	0.007555277
-4.882766	Amendments.)	0.02225997
-3.521039	America	0.04710995
-4.882766	America!	0.02225997
-4.069853	America's	0.002644289
-4.581737	America,	0.01241881
-4.882766	America,	0.000324308
-4.069853	America.	0.02200915
-4.882766	America?	0.02225997
-3.412944	American	0.006640669
-4.882766	American,	0.0006774556
-4.484827	American.	0.02219155
-4.882766	American...........")	0.0005150859
-4.882766	AmericanSpartan	0.001481652
-3.678646	Americans	0.05445879
-4.706675	Americans,	0.00242192
-4.706675	Americans.	0.02223716
-4.882766	Americans.....ever!	0.02225997
-4.882766	Americans...and	0.005369572
-4.882766	Americans:	-3.993035e-05
-4.882766	Americas	-3.993035e-05
-4.484827	Ammendment	0.02812456
-4.882766	Ammo	-3.993035e-05
-4.882766	Amoco	-3.424148e-05
-4.706675	Among	0.0207914
-4.882766	Ample	0.0003186144
-4.882766	Amtrak	-3.993035e-05
-4.007705	An	0.0001472118
-4.882766	Analogous	0.01067234
-4.882766	Anchor:	0.001481652
-2.935823	And	0.09190894
-4.338698	And,	0.006872966
-4.882766	And...you	-3.993035e-05
-4.882766	Andy	-3.993035e-05
-4.581737	Angeles	0.007218068
-4.882766	Angeles,	-3.708592e-05
-4.706675	Ann	-7.417172e-05
-4.882766	Annihilation,	0.002753722
-4.229554	Another	0.001148031
-4.882766	Answer	-2.286351e-05
-4.882766	Answering	0.01522675
-4.882766	Antebellum	-3.993035e-05
-4.882766	Anti-Armor	-3.993035e-05
-4.882766	Anti-Depressants	7.101618e-05
-4.882766	Anti-Federalists)	-3.708592e-05
-4.882766	Anti-aircraft?.	0.02225997
-4.882766	Anti-gun	-1.432982e-05
-4.882766	Anti-war	-3.993035e-05
-4.882766	Antonio	0.003103122
-4.882766	Anwar	-3.993035e-05
-4.007705	Any	0.01039617
-4.706675	Anybody	0.00388917
-4.484827	Anyone	0.00215042
-4.882766	Anything	5.679068e-05
-4.882766	Anyway,	0.0004495856
-4.405645	Apparently	0.01985544
-4.882766	Appeal	0.01067234
-4.882766	Appeals	0.005058636
-4.882766	Apples	0.007294841
-4.882766	Appomattox	3.403085e-05
-4.882766	Appropriations	0.007555277
-4.882766	Ar	-2.570803e-05
-4.706675	Arab	-7.986066e-05
-4.882766	Arabs	-3.424148e-05
-4.882766	Arbitrary	2.738032e-06
-4.882766	Archive	-3.993035e-05
-3.678646	Are	0.006542097
-4.882766	Area	0.003103122
-4.882766	Aren't	0.0006774556
-4.882766	Arguing	0.002327378
-4.882766	Arizona	6.817105e-05
-4.581737	Arm	0.01637468
-4.581737	Armed	-9.982276e-05
-4.706675	Armies	0.007764458
-4.882766	Armory	-3.708592e-05
-4.581737	Arms	0.000329872
-4.484827	Arms,	-3.438894e-05
-4.280706	Army	0.002540042
-4.882766	Army,	-3.993035e-05
-4.882766	Army.	0.02225997
-4.882766	Army:	-3.708592e-05
-4.882766	Articles	-2.855252e-05
-4.706675	Arts	0.0106413
-3.234406	As	0.06998425
-4.882766	Asia	-3.993035e-05
-4.882766	Asian's,	0.001778611
-4.882766	Asians	0.007294841
-4.882766	Aside	0.001150667
-4.484827	Ask	0.009486738
-4.882766	Asperger's	0.007294841
-4.882766	Assange	-1.432982e-05
-4.280706	Assault	-4.039867e-05
-4.484827	Assent	0.01140113
-4.706675	Association	9.653145e-05
-4.706675	Assuming	0.01612494
-3.979676	At	0.02118451
-4.882766	Atiyah	-3.993035e-05
-4.882766	Atlantic	-3.139702e-05
-4.882766	Attack	0.001978602
-4.706675	Attackers	0.00335844
-4.706675	Attey	3.108732e-05
-4.069853	Attorney	-0.0002765826
-4.405645	Aurora	0.0002244702
-4.882766	Aurora,	-2.286351e-05
-4.882766	Austin	0.007294841
-4.405645	Australia	0.01607962
-4.882766	Australia's	0.0002588365
-4.484827	Australia,	0.03246171
-4.882766	Australian	-3.424148e-05
-4.882766	Australia	0.001036593
-4.882766	Average	-3.993035e-05
-4.882766	B-52	-3.993035e-05
-4.882766	B.S.	0.02225997
-4.882766	BAD	-3.993035e-05
-4.882766	BANG!!!	0.02225997
-4.706675	BATFE	0.0007344169
-4.706675	BBC	-8.743416e-06
-4.882766	BCRA	0.002327378
-4.882766	BCT,	3.403085e-05
-4.484827	BE	-0.000159721
-4.882766	BECAUSE	-2.570803e-05
-4.706675	BEFORE	0.02278664
-4.882766	BELIEVE	2.83411e-05
-4.882766	BGC	0.00112785
-4.882766	BGC,	0.001381759
-4.882766	BGCs	0.002207276
-4.882766	BIGGER	-3.993035e-05
-4.882766	BINGO.	0.02225997
-4.882766	BLM	0.01067234
-4.882766	BOTH	-1.066682e-07
-4.882766	BR	0.005058636
-4.882766	BROUGHT	-3.424148e-05
-4.581737	BS	0.01626833
-4.581737	BS.	0.02221435
-4.882766	BTW	0.0003897895
-4.581737	BTW,	0.003915322
-4.882766	BTW.	0.02225997
-4.405645	BUT	0.01898346
-4.882766	BUT,	0.000324308
-4.882766	BY	0.01522675
-4.882766	Ba'athism,	-3.708592e-05
-4.280706	Background	0.007289906
-4.882766	Backup?	0.02225997
-4.882766	Bade	0.0003897895
-4.882766	Ballistic	-1.066682e-07
-4.706675	Baltimore,	-6.84827e-05
-4.882766	Baltimore.	0.02225997
-4.229554	Ban	0.001476416
-4.882766	Banana	-3.708592e-05
-4.882766	Bang,	0.01522675
-4.405645	Banning	0.0153854
-4.882766	Banquets	0.007294841
-4.882766	Barium	-3.993035e-05
-4.882766	Barrett	-3.993035e-05
-4.581737	Based	0.002296134
-4.882766	Basic	-3.708592e-05
-4.706675	Baton	-5.989372e-05
-4.484827	Be	0.01131406
-4.882766	Beach)	0.002207276
-3.678646	Because	0.04104434
-4.706675	Bedford-Stuyvesant	-1.72781e-05
-4.882766	Bee:	-3.708592e-05
-4.484827	Before	0.005938907
-4.882766	Behavioral	-3.424148e-05
-4.882766	Being	0.005369572
-4.882766	Belgrade,	-3.993035e-05
-4.882766	Bellario	0.001501633
-4.882766	Below	0.000147842
-4.706675	Benelli	-7.986066e-05
-4.882766	Benghazi	-3.993035e-05
-4.706675	Beretta	1.686163e-05
-4.882766	Beretta's	0.001002377
-4.882766	Beretta,	0.000412568
-4.882766	Bermuda.	0.02225997
-4.882766	Bernadino	8.427452e-06
-4.882766	Bernadino,	-3.139702e-05
-4.882766	Bernardino	-3.993035e-05
-4.706675	Bernie	0.002167375
-4.706675	Besides	0.01518703
-4.484827	Besides,	0.03065322
-4.706675	Best	-7.417172e-05
-4.882766	Bet	0.0006432672
-4.882766	Bethesda	0.007294841
-4.581737	Beto	0.005045111
-4.280706	Better	0.0118237
-4.706675	Between	2.636388e-06
-4.706675	Bible	0.0002986169
-4.581737	Biden	0.001801642
-4.882766	Biden.	0.02225997
-4.581737	Big	-8.275558e-05
-4.882766	Big,	-3.993035e-05
-4.882766	Big-Time	0.004957918
-4.338698	Bill	0.02407754
-4.882766	Bill?	0.02225997
-4.706675	Billion	0.01350211
-4.484827	Black	-0.000159721
-4.882766	Blackout	0.002327378
-4.882766	Blacks?	0.02225997
-4.882766	Blair	0.001501633
-4.882766	Blame	0.01522675
-4.706675	Bloomberg	0.0008199192
-4.882766	Bloomberg's	-1.717441e-05
-4.882766	Blue	-3.139702e-05
-4.280706	BoR	0.01308264
-4.706675	BoR.	0.02223716
-4.882766	Board	0.007555277
-4.882766	Bob	0.001065109
-4.882766	Boldin	0.0002559901
-4.882766	Bolt	0.005081661
-4.882766	Bonner	-2.855252e-05
-4.706675	Booker	0.001164949
-4.882766	Boone	0.007294841
-4.484827	Boston	-0.000159721
-4.882766	Boston,	-3.993035e-05
-4.706675	Boston.	0.02223716
-4.882766	Botched	-3.708592e-05
-4.405645	Both	0.02441934
-4.706675	Bottom	-5.704928e-05
-4.882766	Boundaries	0.0006318718
-4.882766	Bowl,	0.001036593
-4.882766	Boy	0.003624879
-4.581737	Brady	-4.298273e-05
-4.882766	Branch	-3.993035e-05
-4.882766	Brb,	-2.855252e-05
-4.882766	Breathe"	-2.286351e-05
-4.581737	Brent	0.003278417
-4.882766	Brent,	-3.993035e-05
-4.581737	BretJ	0.0003014335
-4.882766	BretJ:	-3.424148e-05
-4.882766	Brethren,	0.002207276
-4.882766	Brian	-3.993035e-05
-4.882766	Brilliant	-3.424148e-05
-4.882766	Bring	0.005058636
-4.882766	Britain	0.000324308
-4.882766	Britain.	0.02225997
-4.882766	Britannica]	0.0003157676
-4.484827	British	-0.0001085164
-4.882766	British-style	-3.424148e-05
-4.882766	Bronx),	-3.993035e-05
-4.882766	Bronx,	-1.066682e-07
-4.706675	Brooklyn),	1.401655e-05
-4.706675	Brooklyn,	-7.986066e-05
-4.882766	Brooklyn.	0.02225997
-4.706675	Brother	0.005128152
-4.882766	Brother"	6.248083e-05
-4.706675	Brown	-7.986066e-05
-4.882766	Brown,	-3.993035e-05
-4.882766	Brown.	0.02225997
-4.882766	Browning	-3.993035e-05
-4.882766	Brownsville	-2.001895e-05
-4.882766	Bryan	0.00216725
-4.882766	Bubba	-3.993035e-05
-4.882766	Buckmark	-1.432982e-05
-4.706675	Bucky	6.238543e-05
-4.706675	Build	0.008709679
-4.882766	Bulkammo.com	-3.708592e-05
-4.882766	Bullet	-5.795971e-06
-4.882766	Bullet-Fragments.jpg	0.0002929943
-4.882766	Bump	-3.993035e-05
-4.882766	Bumper	-3.993035e-05
-4.706675	Bureau	0.007532469
-4.706675	Burglary	0.005041798
-4.484827	Bush	0.01101335
-4.882766	Bush's	-3.993035e-05
-4.882766	Bushmaster	-1.148524e-05
-4.882766	Business	-3.993035e-05
-4.882766	Businesses	0.003103122
-3.047076	But	0.09594803
-4.142404	But,	0.01214684
-4.882766	But...But....But	0.0006432672
-4.882766	Butler.	0.02225997
-4.882766	Buy	0.008746591
-4.882766	Buy"	8.524214e-05
-4.882766	Buy.	0.02225997
-4.882766	Buybacks.	0.02225997
-4.706675	Buying	0.003625158
-3.785856	By	0.01687882
-4.882766	C	-3.993035e-05
-4.882766	C&C	-3.993035e-05
-4.882766	C&W	-2.001895e-05
-4.706675	C4	0.005021651
-4.706675	CA	0.0005378255
-4.882766	CA.	-2.286351e-05
-4.882766	CAN	3.97207e-05
-4.882766	CANNOT	3.97207e-05
-4.882766	CARRIED	-3.139702e-05
-4.882766	CBD's,	0.001433129
-4.882766	CC	-3.708592e-05
-4.882766	CCL	-1.148524e-05
-4.882766	CCP)	-2.286351e-05
-4.142404	CCW	0.01213401
-4.706675	CCW,	0.01525185
-4.581737	CCW.	0.02221435
-4.882766	CCW...I'll	0.0003300017
-4.706675	CDC	0.0007515287
-4.882766	CEO	0.0007543887
-4.882766	CHECK...	0.02225997
-4.882766	CHOICE	0.01067234
-4.882766	CHRISTIANS	0.003103122
-4.882766	CIA	3.687576e-05
-4.882766	CITY,they	0.0009111463
-4.882766	CLAIM	0.001119294
-4.882766	CLOSED	-3.993035e-05
-4.882766	CMP	-3.139702e-05
-4.882766	CMee.	0.02225997
-4.882766	CNN	-3.993035e-05
-4.882766	CNN...that	0.0009111463
-4.882766	CNN.com	0.0001193863
-4.882766	COG	0.00216725
-4.882766	COMBINED.	0.02225997
-4.882766	COMMENT:-	0.004957918
-4.706675	CONSTITUTION	0.01498084
-4.882766	CONSTITUTION,if	0.003624879
-4.706675	CONSTITUTION,you	0.0004865819
-4.882766	CONSTITUTION.	0.02225997
-4.882766	CONTROL	0.01522675
-4.882766	COULD	0.0003300017
-4.882766	COUNTRY	-1.432982e-05
-4.882766	CP	0.007294841
-4.882766	CPR	-3.993035e-05
-4.882766	CRA).	0.02225997
-4.882766	CRIMINAL.	0.02225997
-4.882766	CRIMNAL	-3.139702e-05
-4.882766	CRUE	-1.066682e-07
-4.882766	CT	-3.993035e-05
-4.882766	CT,	0.007294841
-4.882766	CV	0.0001336139
-4.581737	CW's	0.02145667
-4.882766	CWP	0.005081661
-4.882766	Cabelas	0.002207276
-4.882766	CalGun	0.005081661
-4.882766	CalGun,	5.679068e-05
-4.882766	Calculator	0.001430276
-4.882766	Cali,	0.001313274
-4.882766	Calif.	0.00216725
-4.484827	California	0.005881215
-4.484827	California,	0.01527555
-4.484827	California.	0.02219155
-4.882766	California:	-3.993035e-05
-4.706675	Call	0.01789716
-4.882766	Caller	-1.066682e-07
-4.706675	Calls	0.01077252
-4.882766	Camden,	-3.708592e-05
-4.882766	Cameron.	0.02225997
-4.882766	Campaign	-3.993035e-05
-4.338698	Can	0.02411841
-4.882766	Can't	0.0002417584
-4.069853	Canada	0.008237787
-4.882766	Canada's	0.002318798
-4.882766	Canada)	0.00112785
-4.581737	Canada,	0.0003412619
-4.484827	Canada.	0.02219155
-4.405645	Canadian	0.002310811
-4.706675	Canadians	0.0005748577
-4.882766	Candidates	0.005369572
-4.882766	Cannot	-3.139702e-05
-4.882766	Cant	0.01522675
-4.882766	Capisce?.	0.02225997
-4.882766	Capone	0.007294841
-4.581737	Capster78	0.0005320871
-4.882766	Captive	0.00216725
-4.882766	Car	-8.640599e-06
-4.882766	Carbine	-3.993035e-05
-4.706675	Carry	-2.581263e-05
-4.581737	Cars	0.006547418
-4.882766	Carson	-3.708592e-05
-4.882766	Case	0.005058636
-4.484827	Cases	0.00776555
-4.882766	Casey	0.007294841
-4.706675	Catch	-4.282675e-05
-4.882766	Catholic	0.007294841
-4.882766	Catholic.	0.02225997
-4.882766	Catholics,	0.007294841
-4.882766	Caucasian!	0.02225997
-4.882766	Caucasian's	0.007294841
-4.882766	Cause"	0.002759447
-4.882766	Causes	0.007555277
-4.882766	Cavalry	-3.993035e-05
-4.882766	Celebrate	0.01522675
-4.882766	Cell	-3.993035e-05
-4.706675	Center	0.002728142
-4.706675	Centers	0.002736639
-4.706675	Central	4.531346e-05
-4.706675	Century	0.00733891
-4.882766	Century.	0.02225997
-4.882766	Certain	-3.424148e-05
-4.706675	Certainly	0.002768226
-4.882766	Certainly,	0.001002377
-4.882766	Certificate)	0.003624879
-4.882766	Certified,	-3.993035e-05
-4.882766	Challenging	0.008746591
-4.882766	Chamber	0.007555277
-4.706675	Chances	0.003100481
-4.882766	Changing	0.01522675
-4.882766	Channel	-3.708592e-05
-4.882766	Channel:	-2.951339e-06
-4.706675	Charles	-7.986066e-05
-4.882766	Charleston	6.817105e-05
-4.882766	Charleston,	-3.993035e-05
-4.882766	Charlie	-3.993035e-05
-4.882766	Charlotte	-3.708592e-05
-4.882766	Charlotte,	-3.708592e-05
-4.882766	Charters,	-3.424148e-05
-4.882766	Cheap	-3.993035e-05
-4.706675	Check	0.001199182
-4.581737	Checks	0.005978756
-4.484827	Cheers.	0.02219155
-4.882766	Cheney),	0.0006176282
-3.979676	Chicago	0.0247888
-4.484827	Chicago,	0.0001191326
-4.581737	Chicago.	0.02221435
-4.882766	Chicago?.	0.02225997
-4.882766	Chicagoans	0.00112785
-4.882766	Chicagoan	-3.993035e-05
-4.581737	Chief	0.007510355
-4.484827	Children	0.006619943
-4.882766	Chile.	0.02225997
-4.581737	China	0.002983233
-4.882766	China,	0.0006774556
-4.882766	Chinese	-3.993035e-05
-4.280706	Chipotle	0.004845154
-4.706675	Chipotle's	-1.438034e-05
-4.882766	Choke	-1.148524e-05
-4.882766	Chopping	0.0001506875
-4.882766	Chris	-3.993035e-05
-4.706675	Christ	0.0003299343
-4.706675	Christian	0.004946828
-4.882766	Christmas	-3.993035e-05
-4.882766	Christmas,	0.004957918
-4.882766	Christmas.".	0.02225997
-4.706675	Church	0.005018773
-4.882766	Church,	-8.640599e-06
-4.882766	Church.	0.02225997
-4.706675	Cincinnati,	0.001147834
-4.882766	Cindy	-3.708592e-05
-4.706675	Circuit	-5.898492e-06
-4.882766	Cisero	0.0003157676
-4.706675	Cities	0.007272033
-4.882766	Cities,	-3.708592e-05
-4.706675	Citizen	0.005203007
-4.706675	Citizens	-2.581262e-05
-4.882766	Citizens'	5.394563e-05
-4.183796	City	0.009296905
-4.882766	City's	7.101618e-05
-4.484827	City,	-6.299614e-05
-4.706675	City.	0.02223716
-4.882766	City?	0.02225997
-4.405645	Civil	-0.0001740492
-4.882766	Civilian	-3.993035e-05
-4.706675	Civilians	0.001247683
-4.484827	Clackamas	-0.0001341194
-4.882766	Claims,	1.696176e-05
-4.882766	Class	1.980657e-05
-4.706675	Clause	0.005053311
-4.882766	Clause,	0.01522675
-4.882766	Clause.	0.02225997
-4.882766	Clean	-2.286351e-05
-4.706675	Clearly	0.00263654
-4.706675	Clearly,	0.005571711
-4.882766	Cleaveland,	0.007294841
-4.882766	Clerk	-3.993035e-05
-4.882766	Cleveland,	-3.708592e-05
-4.706675	Clint	-5.989372e-05
-4.405645	Clinton	0.0003981195
-4.882766	Clinton,	0.007294841
-4.882766	Clinton.	0.02225997
-4.882766	Clubs	0.007294841
-4.882766	Coalition	0.01067234
-4.882766	Coasts,	-3.993035e-05
-4.882766	Cocaine	0.001501633
-4.882766	Code	0.007555277
-4.882766	Code,	-3.993035e-05
-4.882766	Cold	-3.708592e-05
-4.882766	Collectively	0.001381759
-4.882766	College	6.817105e-05
-4.882766	Colonies:	9.662325e-05
-4.280706	Colorado	0.003356901
-4.706675	Colorado,	0.01521354
-4.405645	Colt	0.007138401
-4.882766	Colts	0.0006318718
-4.405645	Columbia	0.007198495
-4.706675	Columbine	-2.296783e-05
-4.882766	Columbine.	0.02225997
-4.882766	Columbus	-3.993035e-05
-4.484827	Come	0.002768619
-4.581737	Commerce	0.005004813
-4.882766	Commercials	0.007294841
-4.706675	Commission	0.007298403
-4.882766	Commission.	0.02225997
-4.882766	Committee	0.00216725
-4.581737	Common	8.280766e-06
-4.882766	Commonly	-2.951339e-06
-4.882766	Communism	4.541062e-05
-4.882766	Communist	-3.993035e-05
-4.484827	Community	0.0002016848
-4.882766	Companies/corporations	0.005369572
-4.706675	Compare	0.005969569
-4.706675	Compared	0.01064953
-4.882766	Comparing	0.0002218351
-4.882766	Comparisons	0.007555277
-4.882766	Competition	1.980657e-05
-4.882766	Completely	-3.993035e-05
-4.882766	Complicated	1.12722e-05
-4.882766	Compton,	-3.993035e-05
-4.882766	Condoleezza	-3.993035e-05
-4.882766	Condolences	0.01067234
-4.882766	Confederate	-3.139702e-05
-4.882766	Conflict	-3.993035e-05
-4.882766	Congrats,	0.002647812
-4.882766	Congratulations,	8.427452e-06
-4.037668	Congress	0.01040437
-4.882766	Congress)	0.01522675
-4.706675	Congress,	0.001510253
-4.882766	Congress.	0.02225997
-4.882766	Congressman	0.007294841
-4.882766	Congressman,	0.007294841
-4.882766	Congresswoman	-3.993035e-05
-4.706675	Connecticut,	0.0008484237
-4.882766	Conneticut,	0.004957918
-4.882766	Conneticut.	0.02225997
-4.882766	Consent	0.007555277
-4.882766	Consent:	9.662325e-05
-4.581737	Conservative	0.007255345
-4.882766	Conservatives	0.003103122
-4.706675	Considering	0.01556431
-3.639728	Constitution	0.05465634
-4.338698	Constitution,	0.02667984
-4.338698	Constitution.	0.02214594
-4.882766	Constitution."	0.02225997
-4.882766	Constitution...aka	7.101618e-05
-4.882766	Constitution?	0.02225997
-4.882766	Constitution?????.	0.02225997
-4.882766	Constitution]	0.01067234
-4.037668	Constitutional	0.01096082
-4.882766	Constitutional,	0.0006318718
-4.706675	Constitutionally	-2.865745e-05
-4.882766	Construction	0.001481652
-4.882766	Consulting	-3.993035e-05
-4.882766	Context	0.005081661
-4.882766	Contrarian	3.118595e-05
-4.280706	Control	0.007715608
-4.405645	Control"	0.0006147074
-4.882766	Control,	0.01522675
-4.882766	Controlled	-3.424148e-05
-4.882766	Convention.	0.02225997
-4.882766	Conventions	0.007555277
-4.882766	Conversely,	0.0006774556
-4.882766	Cook	-3.139702e-05
-4.882766	Cool	0.001239095
-4.882766	Cooley,	-1.148524e-05
-4.706675	Cops	0.000179062
-4.882766	Corner	0.007555277
-4.882766	Corners,	-3.993035e-05
-4.882766	Corporation	-1.432982e-05
-4.882766	Correct,	0.0001990667
-4.706675	Correct.	0.02223716
-4.882766	Correct?	0.02225997
-4.882766	Cory	9.377791e-05
-4.882766	Costas	0.01067234
-4.581737	Could	0.006293304
-4.581737	Coulter	0.00211032
-4.882766	Coulter,	-3.993035e-05
-4.882766	Council	-3.424148e-05
-4.882766	Council,	0.002327378
-4.882766	Counseling,	5.394563e-05
-4.882766	Count	-3.993035e-05
-4.581737	Countries	0.003069188
-4.882766	Countries"	-3.993035e-05
-4.882766	Country	9.662325e-05
-4.882766	Country,	0.01067234
-4.405645	County	0.002445221
-4.882766	County,	0.0006432672
-4.882766	Course	0.001778611
-3.736638	Court	0.03533002
-4.706675	Court's	6.238547e-05
-4.484827	Court.	0.02219155
-4.882766	Court?	0.02225997
-4.882766	Courts	0.00112785
-4.882766	Cowboys	-3.139702e-05
-4.882766	Cracking	0.00011085
-4.882766	Craig	-3.424148e-05
-4.882766	Crane	-3.993035e-05
-4.882766	Crap,	-2.855252e-05
-4.882766	Create	0.008746591
-4.882766	Creates	0.008746591
-4.706675	Creating	0.009819895
-4.484827	Crime	0.005520817
-4.882766	Crime'	0.001430276
-4.882766	Crime,	-3.708592e-05
-4.484827	Crimefree	0.0008398591
-4.581737	Criminal	-8.275558e-05
-4.405645	Criminals	0.004056536
-4.882766	Cripes	0.01522675
-4.882766	Crocket,	0.002576266
-4.882766	Crooks	-1.717441e-05
-4.882766	Cross	0.0001421507
-4.882766	Cruelty	6.817105e-05
-4.882766	Cruise,	-1.432982e-05
-4.581737	Cruz	0.0004238476
-4.882766	Cruz?	0.02225997
-4.882766	Ct.,	0.003103122
-4.882766	Cub	-3.993035e-05
-4.882766	Cults	0.0002844546
-4.882766	Curley	-3.993035e-05
-4.706675	Current	0.0004011187
-4.882766	Currently	0.0004381952
-4.706675	Customers	0.01045183
-4.706675	Czech	-7.70162e-05
-4.882766	D's	0.005369572
-4.882766	D.	-3.993035e-05
-4.581737	D.C.	0.02380369
-4.882766	D?	0.02225997
-4.882766	DANGEROUS.	0.02225997
-4.882766	DARE	-3.993035e-05
-4.882766	DAY.	0.02225997
-4.183796	DC	0.004880794
-4.882766	DC,	0.002207276
-4.882766	DC.	0.02225997
-4.882766	DEA	0.007294841
-4.882766	DEA,	-3.993035e-05
-4.882766	DEMOCRATS	0.001381759
-4.882766	DENIED	0.01522675
-4.882766	DESCRIPTION,	0.0009425046
-4.882766	DEVELOPED	7.101618e-05
-4.882766	DG	0.007555277
-4.882766	DGU),	-3.139702e-05
-4.882766	DGUs	6.532593e-05
-4.882766	DGUs,	6.532593e-05
-4.581737	DID	0.0004124556
-4.882766	DIFFERENCE.	0.02225997
-4.405645	DO	8.205249e-05
-4.706675	DOES	6.523086e-05
-4.882766	DOESN'T	-3.993035e-05
-4.882766	DON'T	6.817105e-05
-4.706675	DP	0.002605055
-4.882766	DWI	0.001658661
-4.882766	Dachau,	0.000324308
-4.882766	Dad	0.005081661
-4.882766	Dad's	-3.993035e-05
-4.706675	Daily	-7.986066e-05
-4.882766	Dakota,	-3.993035e-05
-4.882766	Dan	-3.993035e-05
-4.882766	Dana	-3.993035e-05
-4.882766	Dangerous	-3.993035e-05
-4.706675	Daniels	0.001995856
-4.882766	Dark	-3.993035e-05
-4.882766	Darryl.	0.02225997
-4.882766	Darwinism	6.248083e-05
-4.882766	Daryl	-3.424148e-05
-4.882766	Davidians,	-3.993035e-05
-4.882766	Davig	-3.993035e-05
-4.882766	Dawn	-2.286351e-05
-4.405645	Day	0.00495366
-4.882766	Days,	-3.993035e-05
-4.882766	Dayton,	-3.993035e-05
-4.882766	Dayum!	0.02225997
-4.882766	Dc,	0.007294841
-4.882766	Dead	-3.993035e-05
-4.706675	Deal	0.002645126
-4.882766	Dealing	0.002327378
-4.882766	Deaths	0.001150667
-4.882766	Death.	0.02225997
-4.882766	Debate	-3.993035e-05
-4.882766	Debaters	4.256562e-05
-4.882766	Debating	0.002318798
-4.882766	December	-3.993035e-05
-4.882766	December,	-3.424148e-05
-4.706675	Declaration	0.007532469
-4.882766	Dede	0.001501633
-4.882766	Dee	-3.139702e-05
-4.882766	Defaulting	0.01067234
-4.882766	Defendants	0.00112785
-4.882766	Defendent.	0.02225997
-4.706675	Defense	0.00101949
-4.882766	Defensive	9.377791e-05
-4.706675	Definitely	0.008706777
-4.882766	Definition	0.007555277
-4.882766	Deflection.	0.02225997
-4.882766	Delegates	0.005058636
-4.882766	Dem's.	0.02225997
-4.882766	Demanded	9.662325e-05
-4.882766	Democide,	0.01522675
-4.706675	Democrat	-7.417172e-05
-4.229554	Democratic	-0.000168539
-4.037668	Democrats	0.01638306
-4.706675	Democrats,	0.01072294
-4.706675	Democrats.	0.02223716
-4.882766	Democrats:	-2.951339e-06
-4.882766	Democrats?	0.02225997
-4.484827	Dems	0.01066379
-4.882766	Dems.	0.02225997
-4.882766	Denmark	1.12722e-05
-4.882766	Denmark,	0.000412568
-4.882766	Denny	-3.993035e-05
-4.882766	Denny-Crane.jpg	0.0001193863
-4.484827	Department	0.007519395
-4.882766	Depending	0.00216725
-4.882766	Depends	0.000990972
-4.882766	Depends,	3.403085e-05
-4.882766	Depends.	0.02225997
-4.581737	Depression	0.007229638
-4.882766	Depression,	0.0003784007
-4.882766	Depriving	-2.286351e-05
-4.882766	Derp.	0.02225997
-4.882766	Desert	-3.993035e-05
-4.882766	Design	0.01067234
-4.581737	Despite	-4.582772e-05
-4.882766	Detectors	0.005369572
-4.882766	Deter	-3.993035e-05
-4.882766	Deterring	0.0001279228
-4.706675	Detroit	6.243434e-05
-4.484827	Detroit,	-0.0001170509
-4.882766	Di	-3.993035e-05
-4.882766	Dianne	-3.993035e-05
-4.484827	Dick	0.01184358
-4.882766	Dick"	4.256562e-05
-4.706675	Dick's	0.008991324
-4.882766	Dick,	0.004957918
-4.882766	Dick....	0.0002929943
-4.882766	Dickens	0.00216725
-4.882766	Dickey	7.670647e-05
-4.037668	Did	0.009215107
-4.882766	Didn't	0.01522675
-4.882766	Direction	0.007294841
-4.706675	Directly	0.001110753
-4.882766	Directors.	0.02225997
-4.882766	Dirty	-3.993035e-05
-4.882766	Disagree,	-1.148524e-05
-4.706675	Disarming	0.02049305
-4.882766	Disclaimer:	0.004957918
-4.882766	Discuss	0.01522675
-4.581737	Disease	-8.560016e-05
-4.882766	Disgusting.	0.02225997
-4.882766	Dismisses	-3.708592e-05
-4.405645	District	0.007455715
-4.882766	District,	0.01522675
-4.882766	Disturbing	0.01522675
-4.882766	Diving	-3.708592e-05
-4.882766	Divorce	0.007294841
-3.427922	Do	0.03997198
-4.882766	Doctor	-2.001895e-05
-4.882766	Doctors	0.007294841
-4.882766	Document	-1.066682e-07
-4.007705	Does	0.02639571
-4.280706	Doesn't	0.00592034
-4.882766	Doesn’t	6.532593e-05
-4.581737	Doing	0.0005862574
-4.882766	Dollar	-3.993035e-05
-4.882766	Don	-3.993035e-05
-3.882766	Don't	0.005794129
-4.581737	Donald	-7.996614e-05
-4.882766	Donald's	4.256562e-05
-4.882766	Done	-3.424148e-05
-4.882766	Done	0.0001023139
-4.581737	Dont	0.004999057
-4.882766	Dorner	0.002753722
-4.882766	Double	-3.993035e-05
-4.882766	Doubly	0.0006318718
-4.706675	Douglas	3.677772e-05
-4.882766	Down,	0.002207276
-4.882766	Downtown	-3.708592e-05
-4.882766	Dr	-3.993035e-05
-4.882766	Dr.	-3.993035e-05
-4.882766	Dr.Ben	-3.993035e-05
-4.882766	Dragnet	-3.993035e-05
-4.882766	Drama??	0.02225997
-4.882766	Draw	0.008746591
-4.882766	Dred-Scott	0.007294841
-4.882766	Drive	0.002576266
-4.882766	Drivers	0.00112785
-4.706675	Drug	0.002713828
-4.882766	Drugs?	0.02225997
-4.581737	Dude	0.003840681
-4.706675	Dude,	0.007744183
-4.882766	Due	0.01067234
-4.484827	During	0.01514142
-4.882766	Duty	0.01067234
-4.882766	Dysfunction	-3.993035e-05
-4.882766	EAA	0.005081661
-4.882766	EDIT:	4.256562e-05
-4.882766	EFFORT	6.817105e-05
-4.882766	EMBARRASSMENT	0.0001193863
-4.882766	ENEMY	0.007294841
-4.882766	ENTERTAIN	-3.993035e-05
-4.882766	ENTIRE	9.093265e-05
-4.882766	EO	-3.708592e-05
-4.882766	ESP.	0.02225997
-4.882766	ESSENTIAL	0.0001250773
-4.706675	EU	8.326456e-06
-4.882766	EU,	0.0009425046
-4.706675	EU.	0.02223716
-4.581737	EVERY	-5.72075e-05
-4.882766	EVERY.	0.02225997
-4.882766	EVERYTHING	0.005081661
-4.882766	EXACTLY	0.01522675
-4.581737	EXCERPT	-6.574211e-05
-4.882766	EXCERPTS	-3.139702e-05
-4.882766	EXCLUDE	-3.993035e-05
-4.882766	EXCUSES	6.817105e-05
-4.882766	EXPECTING	0.0002389122
-4.338698	Each	0.0001873196
-4.882766	Eagle	-3.993035e-05
-4.882766	Earl	0.002759447
-4.882766	EarlzP	-3.708592e-05
-4.706675	Earth	0.007935373
-4.882766	Earth!.	0.02225997
-4.882766	Easier	0.01067234
-4.581737	East	0.005439647
-4.882766	East.	0.02225997
-4.882766	Easterners.	0.02225997
-4.706675	Eastwood	0.005476623
-4.706675	Easy	0.01063255
-4.882766	Easy,	3.118595e-05
-4.882766	Economics	0.005081661
-4.882766	Economists	0.007294841
-4.706675	Eddie	0.004429174
-4.882766	Edit	0.0003897895
-4.882766	Edit:	-2.001895e-05
-4.882766	Edited	0.01067234
-4.882766	Edition	-3.993035e-05
-4.882766	Education	-3.424148e-05
-4.882766	Edward	-3.993035e-05
-4.882766	Effective	8.427452e-06
-4.882766	Egyptian	5.58275e-06
-4.706675	Eh,	0.00493511
-4.882766	Eighty-seven	0.001313274
-4.338698	Either	0.02725383
-4.882766	El	-3.993035e-05
-4.882766	Election	-3.993035e-05
-4.706675	Elementary	-4.288115e-05
-4.706675	Eleven	6.807625e-05
-4.882766	Elite	-3.993035e-05
-4.882766	Ellis	-3.993035e-05
-4.882766	Emergency	-3.993035e-05
-4.882766	Emmer	0.002759447
-4.882766	Emotion	-3.993035e-05
-4.706675	Emotionally	-7.132722e-05
-4.706675	Emotions	0.003074693
-4.706675	Empathy	0.0009367992
-4.882766	Empire	0.0001136954
-4.706675	End	0.007532469
-4.882766	Enforce	0.0006062335
-4.706675	Enforcement	-7.70162e-05
-4.882766	Enforcement,	0.001778611
-4.882766	Engagement	-3.993035e-05
-4.706675	England	0.007503869
-4.882766	England,	0.0006261742
-4.484827	England.	0.02219155
-4.280706	English	0.0002613077
-4.882766	English,	-1.066682e-07
-4.882766	Enjoy	0.0003214612
-4.706675	Enough	0.005047554
-4.882766	Enough.	0.02225997
-4.882766	Enter	0.01522675
-4.882766	Entities	0.005369572
-4.882766	Equivalently,	0.001036593
-4.706675	Ergo	0.004874894
-4.882766	Ergo,	0.001036593
-4.581737	Especially	0.01626537
-4.882766	Essentially	-2.855252e-05
-4.882766	Ethos...	0.02225997
-4.280706	Europe	0.006356275
-4.706675	Europe.	0.02223716
-4.405645	European	-5.16058e-05
-4.882766	Eurosat	-3.993035e-05
-4.706675	Eurostat	0.0003726437
-4.882766	Eurostats	0.005081661
-4.882766	Eurostats.	0.02225997
-3.785856	Even	0.02226809
-4.882766	Eventually	0.001036593
-4.069853	Every	0.003002136
-4.581737	Everyone	-4.013773e-05
-4.882766	Everyone?	0.02225997
-4.581737	Everything	0.006706314
-4.882766	Everytime	0.003624879
-4.882766	Everywhere	0.005058636
-4.882766	Evey	3.118595e-05
-4.882766	Evidently	0.002682159
-4.405645	Evilroddy.	0.02216874
-4.706675	Ex-Temple	-3.429303e-05
-4.706675	Exactly	0.0009681643
-4.882766	Exactly!	0.02225997
-4.882766	Exactly!!	0.02225997
-4.882766	Exactly,	-2.951339e-06
-4.882766	Example.	0.02225997
-4.882766	Example:	-3.993035e-05
-4.882766	Examples	0.007555277
-4.882766	Excel	0.007294841
-4.405645	Except	0.02233392
-4.882766	Exceptionalism"	0.0001250773
-4.882766	Exceptions	0.001658661
-4.706675	Excerpt:	6.238542e-05
-4.882766	Excuse	0.00100808
-4.581737	Executive	-9.982276e-05
-4.882766	Exemplar'	0.00011085
-4.882766	Exemplar,	0.001430276
-4.882766	Exemplar;	0.002207276
-4.882766	Expectant	-3.708592e-05
-4.882766	Experiments,	0.005058636
-4.882766	Explains:	-3.993035e-05
-4.882766	Explosives.	0.02225997
-4.882766	Extremely	9.662325e-05
-4.882766	F-16,	0.0001620704
-4.882766	F-16.	0.02225997
-4.706675	FACT	0.005058852
-4.484827	FACTS	0.00233633
-4.882766	FACTS,	-3.993035e-05
-4.882766	FALLACY.	0.02225997
-4.338698	FAR	0.001179319
-4.882766	FAR.	0.02225997
-4.882766	FARCE	0.0008512867
-4.882766	FB	-3.424148e-05
-3.905043	FBI	0.01372946
-4.706675	FBI,	0.0006033459
-4.882766	FBI.	0.02225997
-4.882766	FBI/BATF.	0.02225997
-4.882766	FBI’s	-3.424148e-05
-4.882766	FDR	0.007294841
-4.882766	FDR's	-3.139702e-05
-4.706675	FEAR	6.238547e-05
-4.882766	FED	-3.993035e-05
-4.882766	FEEL	-3.993035e-05
-4.882766	FEEL?.	0.02225997
-4.882766	FEELINGS	0.003103122
-4.405645	FFL	0.002184943
-4.882766	FFLs.	0.02225997
-4.882766	FFS	0.002682159
-4.882766	FIGHT	-3.708592e-05
-4.706675	FL	0.01246443
-4.882766	FOID	0.0002559901
-4.882766	FOOLISHNESS.	0.02225997
-4.581737	FOR	0.01515319
-4.882766	FORCES	0.01067234
-4.882766	FORCING	0.0005919903
-4.882766	FOX.	0.02225997
-4.882766	FREAKING.	0.02225997
-4.581737	FREE	-7.985585e-05
-4.706675	FROM	-5.9949e-05
-4.882766	FUBAR'ed	1.696176e-05
-4.882766	FULLY	-3.708592e-05
-4.706675	Facebook	-7.986066e-05
-4.882766	Fact	1.12722e-05
-4.706675	Facts	0.00258216
-4.882766	Fail	-8.640599e-06
-4.706675	Fair	-5.994902e-05
-4.882766	Fallacy.	0.02225997
-4.882766	Fallen	0.007294841
-4.706675	Family	0.0002815356
-4.882766	Famous	-3.993035e-05
-4.882766	Fascinating!	0.02225997
-4.882766	Fascist	-3.993035e-05
-4.581737	Fast	-0.0001084127
-4.882766	Fast1	0.002318798
-4.882766	Fathers	0.002753722
-4.882766	Fault	-3.993035e-05
-4.882766	Fearing	0.002759447
-4.882766	Feb.	-3.993035e-05
-4.142404	February	-0.0003536596
-4.882766	February.	0.02225997
-4.037668	Federal	0.00104264
-4.882766	Federalist	-2.855252e-05
-4.882766	Feds.	0.02225997
-4.706675	Feel	0.005485267
-4.706675	Feinstein	0.002184468
-4.882766	Feinstein,	-2.570803e-05
-4.882766	Felons	-3.993035e-05
-4.882766	Felons,	0.0006062335
-4.882766	Ferguson:	-3.993035e-05
-4.882766	Few	2.738032e-06
-4.882766	Fewest	-3.424148e-05
-4.882766	Fiction	4.256562e-05
-4.882766	FieldTheorist	-2.286351e-05
-4.882766	Figuratively	-3.993035e-05
-4.706675	Find	0.00932547
-4.882766	Finds	0.0001193863
-4.882766	Finger	0.005081661
-4.882766	Finland,	-3.708592e-05
-4.882766	Firearm	-3.993035e-05
-4.104615	Firearms	0.0134895
-4.882766	Firearms?	0.02225997
-4.882766	Firebombing"(1).	0.02225997
-4.338698	First	0.01275588
-4.581737	First,	0.01005325
-4.882766	First:	0.004957918
-4.882766	Firstcoastnews.com	1.12722e-05
-4.882766	Firstly,	0.01522675
-4.882766	Fisher	-3.993035e-05
-4.882766	Five	-2.855252e-05
-4.882766	Fla)	0.003103122
-4.882766	Flag	0.0003926367
-4.882766	Flawed	-3.993035e-05
-4.142404	Florida	0.008672428
-4.706675	Florida,	0.0009710143
-4.581737	Florida.	0.02221435
-4.882766	Fly	0.0008541372
-4.882766	Fly"	4.256562e-05
-4.882766	Focus	0.00216725
-4.882766	Focusing	0.00216725
-4.882766	Fodder	5.58275e-06
-4.882766	Food	-3.708592e-05
-3.484826	For	0.03312912
-4.882766	Force	0.007294841
-4.882766	Forces,	0.0001023139
-4.882766	Ford	-3.993035e-05
-4.882766	Foreigners;	-2.855252e-05
-4.882766	Forensic	-3.993035e-05
-4.882766	Forgive	0.0003727064
-4.706675	Form	1.117146e-05
-4.882766	Forms	0.007555277
-4.882766	Forsyth,	-3.708592e-05
-4.882766	Fortunately	0.0002047587
-4.706675	Fortune	-7.132722e-05
-4.484827	Foster	0.01042763
-4.882766	Foster's	-2.855252e-05
-4.706675	Founders	0.001618753
-4.706675	Founding	-7.986066e-05
-4.706675	Four	0.0001050684
-4.882766	Fourth	7.670647e-05
-4.882766	Fox	0.002207276
-4.882766	Fragmentary	-3.993035e-05
-4.581737	France	0.003169491
-4.882766	France)	0.0001023139
-4.882766	France,	0.002682159
-4.882766	Francis	-3.993035e-05
-4.882766	Franklin	-3.993035e-05
-4.882766	Fraser	-3.708592e-05
-4.706675	Fred	-7.986066e-05
-4.882766	Free	-3.993035e-05
-4.882766	Free"	-3.708592e-05
-4.882766	Freedom	0.007555277
-4.882766	Freisler	0.004957918
-4.882766	Friday"	0.005058636
-4.882766	Friday's	-3.139702e-05
-4.581737	Friday,	-7.706636e-05
-4.706675	Friends	2.255186e-05
-4.706675	Friends,	0.001438887
-4.037668	From	0.01848391
-4.882766	Fueled	0.005058636
-4.581737	Full	-9.134499e-05
-4.882766	Fun-Stuff	0.007555277
-4.882766	Fundamentally,	0.001658661
-4.706675	Funny	0.0005919503
-4.882766	Funny...."babies"	0.002753722
-4.706675	Further,	0.001787266
-4.882766	Furthermore,	0.0006290233
-4.706675	Fustercluck	-7.986066e-05
-4.882766	G'head,	-8.640599e-06
-4.882766	G/I	-3.139702e-05
-4.882766	GC	-1.432982e-05
-4.882766	GDP	6.532593e-05
-4.882766	GDP,	0.001433129
-4.882766	GET	-3.993035e-05
-4.882766	GI	-3.424148e-05
-4.706675	GOA	2.688441e-06
-4.882766	GOOD.".	0.02225997
-4.405645	GOP	0.008262354
-4.882766	GOVERNMENT	0.01067234
-4.882766	GP-13,m	0.0001023139
-4.882766	GP100	-3.708592e-05
-4.882766	GPS	-3.993035e-05
-4.706675	GREAT	0.0004381392
-4.882766	GREEN	0.0003100742
-4.882766	GUARANTEED	0.001430276
-4.338698	GUN	-0.0001939499
-4.882766	GUNS,	-2.951339e-06
-4.882766	GW	0.007294841
-4.882766	GZ	0.001501633
-4.882766	Gabby	-3.993035e-05
-4.706675	Gaddafi	0.006601702
-4.882766	Galleria	0.007294841
-4.706675	Games	0.0001136054
-4.882766	Gander	-3.993035e-05
-4.706675	Gangster,	-5.989372e-05
-4.706675	Garand	0.005695641
-4.882766	Gardening	-3.993035e-05
-4.706675	Gary	-7.986066e-05
-4.882766	Gay	2.83411e-05
-4.882766	Gee,	0.001381759
-4.882766	Geepers.	0.02225997
-4.882766	Geez.............	0.02225997
-4.882766	Geez....seriously?	0.02225997
-4.882766	Gender	-2.570803e-05
-4.104615	General	5.335251e-05
-4.706675	General,	0.0207914
-4.882766	Geneva	-3.993035e-05
-4.405645	George	-0.0001939619
-4.882766	Georgia,	8.427452e-06
-4.882766	Gerald	-3.993035e-05
-4.484827	German	-0.0001341194
-4.882766	Germans	-3.139702e-05
-4.882766	Germany	1.12722e-05
-4.706675	Germany,	0.01593011
-4.405645	Gestapo	0.004950569
-4.338698	Get	0.009081522
-4.581737	Getting	0.0001562127
-4.882766	Ghettos	0.007294841
-4.882766	Ghost	5.110059e-05
-4.882766	Gifford),	-3.993035e-05
-4.882766	Gilroy,	-3.993035e-05
-4.706675	Giron	0.001464578
-4.484827	Give	0.01626325
-4.581737	Given	0.006602005
-4.882766	Giving	0.01522675
-4.581737	Glad	0.01168398
-4.882766	Glen	-3.993035e-05
-4.581737	Glock	0.002087447
-4.882766	Glock?	0.02225997
-4.484827	Go	0.01074836
-4.338698	God	0.01539068
-4.882766	God's	-3.993035e-05
-4.882766	God.	0.02225997
-4.882766	Going	0.001430276
-3.953347	Good	0.002607766
-4.405645	Google	0.003786762
-4.882766	Gorsuch.	0.02225997
-4.581737	Goshin	-4.867271e-05
-4.882766	Goshin,	8.427452e-06
-4.882766	Goshin?	0.02225997
-4.882766	Goshins	1.696176e-05
-4.706675	Got	0.0002815356
-4.882766	Gotta	0.0005150859
-4.007705	Government	0.01725902
-4.706675	Government,	0.002693789
-4.882766	Government-intervention	0.0009111463
-4.882766	Government.	0.02225997
-4.581737	Government:	-0.0001169464
-4.706675	Governments	0.003074693
-4.882766	Governments:	9.662325e-05
-4.882766	Governor	-3.993035e-05
-4.882766	Governors	0.01067234
-4.882766	Govt	0.005081661
-4.882766	Grandpa's	6.248083e-05
-4.882766	Granger,	0.002207276
-4.706675	Granted,	0.002699514
-4.581737	Great	-0.0001141018
-4.706675	Great.	0.02223716
-4.882766	Greater	-3.993035e-05
-4.882766	Green	-3.993035e-05
-4.882766	Greenwing	0.007294841
-4.882766	Greenwing..	0.00100808
-4.882766	Grenade	0.007294841
-4.882766	Grenade,	0.01522675
-4.882766	Ground"	-3.993035e-05
-4.882766	Ground'	-5.795971e-06
-4.882766	Group,	-3.993035e-05
-4.882766	Guam,	-3.993035e-05
-4.581737	Guard	0.005030718
-4.882766	Guard.....	0.002207276
-4.706675	Guess	0.001404635
-4.882766	Guide	-3.993035e-05
-3.4936	Gun	0.0002401967
-4.882766	Gun's	3.97207e-05
-4.882766	Gun-Control	-3.993035e-05
-3.652318	Guns	0.01923957
-4.882766	Guns,	0.001978602
-4.882766	Guns.	0.02225997
-4.882766	Guy	0.000275915
-4.706675	H&K	0.002167375
-4.882766	H&R	-1.432982e-05
-4.882766	HALF	0.007555277
-4.882766	HAPPY	-3.993035e-05
-4.882766	HAS	0.01067234
-4.706675	HAVE	0.001450305
-4.882766	HAVING	0.01067234
-4.882766	HBO,	0.000412568
-4.882766	HDI	1.696176e-05
-4.882766	HE	5.58275e-06
-4.882766	HER	-3.424148e-05
-4.484827	HIGHER	0.0006460442
-4.882766	HIM	-3.424148e-05
-4.882766	HINT:	0.0001506875
-4.706675	HIPPA	-7.986066e-05
-4.882766	HJLPP	0.005081661
-4.882766	HLW	-3.424148e-05
-4.882766	HMG	0.005369572
-4.882766	HOA	0.007294841
-4.882766	HONOR	0.007294841
-4.882766	HP,	-3.139702e-05
-4.882766	HRC	0.005081661
-4.882766	HS	-1.148524e-05
-4.882766	HUMAN	0.0004552809
-4.882766	Hackery	0.003624879
-4.706675	Had	0.01520395
-4.882766	Haddad.	0.02225997
-4.882766	Haha,	0.004957918
-4.882766	Hahahahahaha	0.0002929943
-4.882766	Half	0.01522675
-4.882766	Half-assed	-2.001895e-05
-4.882766	Hammers?	0.02225997
-4.706675	Hampshire,	0.0009710143
-4.882766	Handguns	0.003103122
-4.882766	Handler	0.0003897895
-4.882766	Hands'	2.738032e-06
-4.882766	Hands.	0.02225997
-4.882766	Hanky	-3.993035e-05
-4.882766	Hannah	-3.993035e-05
-4.882766	Harbor."	0.02225997
-4.882766	Hard	0.01067234
-4.882766	Hardly	0.0001762993
-4.882766	Harlem)	0.0006318718
-4.882766	Harlem,	3.97207e-05
-4.882766	Harris	5.394563e-05
-4.882766	Harry,	0.007294841
-4.882766	Harsh	0.0003328486
-4.882766	Harsher	-3.993035e-05
-4.405645	Harvard	0.001048054
-4.484827	Has	0.004182759
-4.882766	Hate	0.005369572
-4.882766	Hats	0.0001506875
-4.069853	Have	0.01574447
-4.280706	Having	0.01380191
-4.581737	Hawaii	0.001196358
-4.882766	Hawaii's	0.002318798
-4.882766	Hawaii's!	0.02225997
-4.706675	Hawaii,	1.401655e-05
-4.706675	Haymarket	0.006004182
-4.706675	Haymarket,	0.00407867
-4.882766	Haymarket.	0.02225997
-4.882766	Haze	-3.993035e-05
-4.882766	Hazleton,	-3.993035e-05
-3.384456	He	0.01078936
-4.405645	He's	0.00864249
-4.882766	Head	0.007555277
-4.484827	Health	-0.0001141504
-4.882766	Heaven	-3.993035e-05
-4.882766	Heavy	-2.286351e-05
-4.882766	Hebdo	-1.432982e-05
-4.882766	Heck	0.0003869422
-4.882766	Heck,	0.001778611
-4.706675	Heights,	-7.132722e-05
-4.882766	Helicopter.	0.02225997
-4.882766	Helicopters,	8.427452e-06
-4.882766	Hell	0.003103122
-4.405645	Hell,	0.005737284
-4.069853	Heller	0.002182912
-4.882766	Heller,	-2.570803e-05
-4.882766	Hello!	0.02225997
-4.706675	Hence	0.007564659
-4.706675	Hence,	0.01898358
-4.882766	Henrin	-3.993035e-05
-4.581737	Her	-0.0001055682
-4.882766	Herald:	0.0002389122
-4.280706	Here	0.01198636
-4.037668	Here's	0.02814543
-4.882766	Here,	0.001002377
-4.882766	Hereâs	-3.993035e-05
-4.882766	Here’s	0.0008655384
-4.882766	Herp	-3.993035e-05
-4.882766	Herring	-3.993035e-05
-4.581737	Hey	0.005289854
-4.581737	Hi	-8.565561e-05
-4.484827	High	-7.432305e-05
-4.882766	High-five	0.002759447
-4.882766	High-school,	0.002318798
-4.882766	Higher	-3.993035e-05
-4.581737	Hillary	-0.0001027236
-4.882766	Hillary's	0.0004837583
-4.882766	Hire	-3.993035e-05
-4.280706	His	-8.03404e-05
-4.882766	Hispanics	0.005058636
-4.706675	History	0.007613876
-4.882766	Hit	0.005369572
-4.706675	Hitler	-5.704928e-05
-4.882766	Hmmm,	0.000990972
-4.882766	Hmmmm.....	0.02225997
-4.882766	Hmmmmmmmmm.	0.02225997
-4.882766	Hogg?	0.02225997
-4.882766	Holbritter:	0.004957918
-4.882766	Holder.	0.02225997
-4.882766	Holding	0.007294841
-4.882766	Holds	-3.993035e-05
-4.882766	Holland	1.12722e-05
-4.882766	Hollerin'	-3.993035e-05
-4.882766	Hollywood	-2.001895e-05
-4.882766	Hollywood,	0.002682159
-4.882766	Hollywood.	0.02225997
-4.882766	Holmes)	0.001501633
-4.706675	Holy	-7.70162e-05
-4.706675	Home	1.117145e-05
-4.882766	Home*|*The	-3.424148e-05
-4.882766	Homicidal	-2.855252e-05
-4.706675	Homicide	-5.989372e-05
-4.882766	Homicides,	0.002682159
-4.882766	Honestly....I'm	7.386132e-05
-4.229554	Hook	0.002182467
-4.882766	Hook,	0.0004325002
-4.484827	Hook.	0.02219155
-4.882766	Hook?.	0.02225997
-4.882766	Hope	0.001778611
-4.706675	Hopefully	0.002673751
-4.882766	Hopefully,	0.001778611
-4.882766	Hopeless	-2.286351e-05
-4.882766	Hoping	0.005369572
-4.882766	Hopkinson,	-3.993035e-05
-4.882766	Hotel	-3.139702e-05
-4.280706	House	0.02015061
-4.882766	House,	0.01522675
-4.706675	House.	0.02223716
-4.882766	House?.	0.02225997
-4.706675	Houses	0.007515447
-4.882766	Housing,	-2.855252e-05
-4.882766	Houston,	0.0006774556
-3.391405	How	0.04564008
-4.882766	How'd	-3.993035e-05
-4.581737	How,	-9.413378e-05
-4.142404	However	0.01005433
-3.665282	However,	0.04204038
-4.882766	However....I	0.001202011
-4.882766	Howeverrrrr.....	0.02225997
-4.882766	Hudak	-3.993035e-05
-4.882766	Hughes	-2.951339e-06
-4.882766	Hundreds	0.007555277
-4.882766	Hunter	7.955168e-05
-4.882766	Hunting	-3.993035e-05
-4.882766	Hunting,	-3.993035e-05
-4.882766	Hunts	-1.148524e-05
-4.882766	Hurricane	-3.708592e-05
-4.882766	Hypothesis:	5.58275e-06
-4.882766	Hypotheticals	0.0007543887
-1.941007	I	0.04496472
-4.882766	I!	0.02225997
-3.627494	I'd	0.00909044
-3.768823	I'll	0.006580065
-2.943247	I'm	0.04125844
-4.882766	I'mYoda.	0.02225997
-3.530584	I've	0.004211803
-4.581737	I,	0.004953008
-4.882766	I,m	0.008746591
-4.882766	I.	0.004957918
-4.882766	I.e.,	0.001036593
-4.882766	I/Q's.	0.02225997
-4.882766	I?)	0.02225997
-4.882766	IBM,	-3.993035e-05
-4.484827	ID	0.01092289
-4.882766	ID)	0.003103122
-4.882766	IDEA.	0.02225997
-4.581737	IF	0.009012513
-4.706675	IGNORING	0.01520395
-4.882766	II	-3.708592e-05
-4.882766	II.	0.02225997
-4.882766	III,	0.0009624613
-4.706675	IL	-6.27936e-05
-4.581737	IMHO	0.02384577
-4.882766	IMHO.	0.02225997
-4.581737	IMO	0.01680627
-4.882766	IMO),	0.007294841
-4.706675	IMO,	0.001698717
-4.706675	IMO.	0.02223716
-4.484827	IN	0.01512525
-4.882766	INCORRECT.	0.02225997
-4.882766	INDIVIDUALS	0.01067234
-4.882766	INFRINGED.	0.02225997
-4.882766	INS.	0.02225997
-4.882766	INSIST	-2.570803e-05
-4.882766	IOW	0.001036593
-4.706675	IOW,	0.004874894
-4.882766	IOWA's	0.0003926367
-4.882766	IPhone.	0.02225997
-4.706675	IRS	0.002178812
-4.882766	IRS,	-3.993035e-05
-4.142404	IS	9.312121e-05
-4.706675	ISIS	5.100406e-05
-4.882766	ISIS....	0.02225997
-4.706675	ISLAM	0.005274995
-4.882766	ISSUES	7.101618e-05
-4.581737	IT	-8.85003e-05
-4.882766	IT!!!	0.02225997
-4.882766	ITEMS.	0.02225997
-4.882766	IYO,	0.001239095
-4.882766	Id	0.002647812
-4.882766	Ideally,	0.000446738
-4.882766	Ideas.	0.02225997
-2.805398	If	0.07288206
-4.882766	Ignorance	0.005081661
-4.706675	Ignore	0.005059067
-4.882766	Ignore.	0.02225997
-4.882766	Ill	-1.148524e-05
-4.706675	Illegal	1.117147e-05
-4.581737	Illinois	0.005586611
-4.882766	Illinois,	0.000324308
-4.882766	Illinois:	-3.993035e-05
-4.882766	Illness,	-3.993035e-05
-4.882766	Ilyas	-3.993035e-05
-4.280706	Im	0.002814776
-4.706675	Imagine	0.001013786
-4.882766	Immunity	0.002759447
-3.079993	In	0.04230786
-4.882766	Inaugural	-3.993035e-05
-4.706675	Inc.	0.01547585
-4.882766	Incidentally,	0.002753722
-4.882766	Including	-3.993035e-05
-4.882766	Incorrect.	0.02225997
-4.882766	Increased	2.83411e-05
-4.706675	Indeed	0.006757713
-4.706675	Indeed,	-4.003646e-05
-4.882766	Independance.	0.02225997
-4.882766	Independence,	0.0002929943
-4.405645	Independent	0.009758705
-4.882766	Independent,	0.002759447
-4.706675	Independent.	0.02223716
-4.882766	Independents	-3.993035e-05
-4.882766	Independents,	0.0006774556
-4.882766	India	0.002759447
-4.484827	Indian	-0.000159721
-4.882766	Indiana	9.093265e-05
-4.882766	Indiana,	0.001658661
-4.882766	Indiana.	0.02225997
-4.882766	Indiana:	-3.424148e-05
-4.882766	Indianapolis	-3.993035e-05
-4.882766	Indianapolis,	-3.993035e-05
-4.882766	Infantry	0.007294841
-4.882766	Inhabitants	0.007555277
-4.882766	Inhofe	0.0007743365
-4.882766	Initially	0.0002332198
-4.882766	Innocent	0.001042296
-4.229554	Instead	0.01394817
-4.882766	Institute.	0.02225997
-4.882766	Insufficient	3.403085e-05
-4.706675	Insurance	0.0001847544
-4.882766	Insurance)	0.0003869422
-4.882766	Intel,	-3.993035e-05
-4.706675	Intellectual	-5.420481e-05
-4.882766	Intelligencer	1.12722e-05
-4.882766	Intelligent	-3.993035e-05
-4.882766	Intent	0.007294841
-4.581737	Interesting	0.0005064491
-4.706675	Interesting,	0.004236649
-4.882766	Interestingly	0.0001165409
-4.882766	Intermission*	0.0001165409
-4.706675	International	-7.986066e-05
-4.706675	Internet	-7.417172e-05
-4.882766	Interpreting	0.01522675
-4.882766	Intersection	0.007555277
-4.882766	Intrastate	-3.993035e-05
-4.882766	Investigation)	-5.795971e-06
-4.882766	Inwood,	-3.139702e-05
-4.882766	Iowa	0.0007743365
-4.882766	Iowa's	0.007294841
-4.706675	Iowa.	0.02223716
-4.882766	Iran?	0.02225997
-4.882766	Iraq	0.007294841
-4.882766	Iraq/Afghanistan-like	-3.993035e-05
-4.882766	Irish	-3.993035e-05
-4.882766	Ironic	0.000426805
-4.706675	Irrelevant.	0.02223716
-4.882766	Irresponsibility	-1.066682e-07
-4.882766	Irresponsible	0.002318798
-4.882766	Irving,	-3.993035e-05
-3.736638	Is	0.03570827
-4.882766	Islam,	-3.708592e-05
-4.882766	Islamic	-3.993035e-05
-4.338698	Isn't	0.01085738
-4.882766	Israel	0.007294841
-4.706675	Israeli	0.007428616
-2.902763	It	0.0141434
-4.882766	It'd	0.002647812
-3.134578	It's	0.04023609
-4.882766	Italian,	-3.993035e-05
-4.581737	Italy	0.005338821
-4.104615	Its	0.01356813
-4.882766	It’s	0.008746591
-4.581737	Ive	0.0007515092
-4.882766	I’	-3.993035e-05
-4.882766	I’ll	6.248083e-05
-4.338698	I’m	0.008744538
-4.706675	I’ve	2.636388e-06
-4.882766	J.	-3.993035e-05
-4.706675	JMR	0.0004552265
-4.882766	JS	0.005369572
-4.882766	JUST	-2.855252e-05
-4.882766	Jacketed	-3.993035e-05
-4.882766	Jackson,	-3.993035e-05
-4.882766	Jacksonville,	-3.708592e-05
-4.882766	Jacob	-3.993035e-05
-4.706675	Jaeger.	0.02223716
-4.882766	Jail	0.0001051592
-4.882766	Jam	4.825559e-05
-4.706675	James	-5.989372e-05
-4.882766	James?	0.02225997
-4.706675	Janet	-7.986066e-05
-4.882766	Japan	0.0006062335
-4.882766	Japan."CONTINUED.	0.02225997
-4.484827	Japanese	0.002742845
-4.882766	Jaren	-3.993035e-05
-4.882766	Javelin	-3.993035e-05
-4.882766	Javert?.	0.02225997
-4.882766	Jay-Z	0.002759447
-4.882766	Jeb	-3.993035e-05
-4.484827	Jefferson	0.01216709
-4.882766	Jenna	-3.993035e-05
-4.142404	Jerry	0.007100955
-4.706675	Jersey	0.002175953
-4.882766	Jersey.	0.02225997
-4.706675	Jesus	-5.425981e-05
-4.882766	Jesus,	0.0009624613
-4.882766	Jet	5.58275e-06
-4.882766	Jet,	0.01522675
-4.882766	Jew.	0.02225997
-4.882766	Jewish	8.427452e-06
-4.706675	Jews	0.00954062
-4.882766	Jews,	0.007294841
-4.882766	Jews.	0.02225997
-4.882766	Jews?"	0.02225997
-4.882766	Jews?".	0.02225997
-4.882766	Jimbo.	0.02225997
-4.882766	Jimbo:	-3.993035e-05
-4.484827	Joe	0.002184801
-4.882766	Joe,	0.01522675
-4.484827	John	0.001008106
-4.882766	John's	-3.993035e-05
-4.882766	Joliet/Naperville.	0.02225997
-4.882766	Jones	-3.993035e-05
-4.882766	Jones,	-3.993035e-05
-4.882766	Joseph	-1.717441e-05
-4.882766	Josh	-3.424148e-05
-4.706675	Journal	0.007532469
-4.706675	Jr.	0.02223716
-4.706675	Judge	0.002127348
-4.581737	Judges	-2.022216e-05
-4.882766	Judging	0.001430276
-4.706675	Judicial	-8.74341e-06
-4.882766	Judiciary	-3.993035e-05
-4.882766	Judiciary,	5.394563e-05
-4.882766	Julian	-3.993035e-05
-4.882766	July	-2.570803e-05
-4.882766	Jurors	0.001065109
-4.882766	Jury:	9.662325e-05
-3.435608	Just	0.037756
-4.229554	Justice	0.01900226
-4.882766	Justice,	0.001430276
-4.882766	Justice.	0.02225997
-4.882766	Justices	-3.424148e-05
-4.882766	Justin	-3.993035e-05
-4.882766	K-12.	0.02225997
-4.882766	K2P	0.002759447
-4.706675	KEEPING	-5.141518e-05
-4.882766	KGW	-3.424148e-05
-4.882766	KIND	-3.993035e-05
-4.484827	KNOW	0.006296764
-4.882766	KNOW.	0.02225997
-4.882766	KRIS	-1.432982e-05
-4.706675	Kaarma	0.007269472
-4.882766	Kalashnikovs	0.0006318718
-4.882766	Kalasnikovs?	0.02225997
-4.706675	Kansas	-5.420481e-05
-4.882766	Kansas.	0.02225997
-4.882766	Kasandra	-3.993035e-05
-4.882766	Kashmiri	0.007294841
-4.882766	Kates	0.005081661
-4.882766	Kates,	0.001065109
-4.706675	Katrina.	0.02223716
-4.882766	Katrina...	4.256562e-05
-4.882766	Keanu	-3.993035e-05
-4.405645	Keep	0.008882668
-4.882766	Keeping	-3.993035e-05
-4.882766	KelTec	-3.993035e-05
-4.882766	Kelly,	0.000412568
-4.882766	Kendrick	-2.951339e-06
-4.882766	Kennesaw,	-3.993035e-05
-4.882766	Kentucky's.	0.02225997
-4.882766	Kerry	0.01067234
-4.882766	Kevin	-3.993035e-05
-4.706675	Kids	0.003080314
-4.882766	Kids:	0.01522675
-4.882766	Killed	0.005058636
-4.882766	Killer	0.0007543887
-4.882766	Killing	5.58275e-06
-4.405645	Kind	0.007464053
-4.706675	Kinda	0.0008712285
-4.484827	King	0.01289108
-4.882766	Klan,	0.007294841
-4.882766	Klan.	0.02225997
-4.882766	Kleck's	-3.139702e-05
-4.882766	Klux	-3.993035e-05
-4.882766	Knight	-3.993035e-05
-4.882766	Knights	0.0004780629
-4.706675	Knives	0.01045183
-4.706675	Know	0.009037798
-4.882766	Koontz.	0.02225997
-4.882766	Korea	-3.993035e-05
-4.882766	Korea-both	9.94686e-05
-4.882766	Korean	-2.286351e-05
-4.882766	Koresh	0.0004923021
-4.882766	Korps,	-3.708592e-05
-4.882766	Kristina	-3.993035e-05
-4.882766	Ku	-3.993035e-05
-4.882766	LAST	0.0001563789
-4.882766	LAW	-2.570803e-05
-4.882766	LAWS?	0.02225997
-4.882766	LDS	0.007294841
-4.706675	LEO	-7.986066e-05
-4.882766	LEO's	0.001150667
-4.706675	LESS	3.393251e-05
-4.706675	LGBT	-2.575913e-05
-4.882766	LGBT?	0.02225997
-4.882766	LITERALLY	-3.993035e-05
-4.882766	LIberalism	-3.708592e-05
-4.882766	LLC	8.427452e-06
-4.882766	LMR.	0.02225997
-4.706675	LMT	0.0001392177
-4.882766	LOCKED	-3.139702e-05
-4.706675	LOL	0.0009510553
-4.706675	LOL,	0.008625512
-4.882766	LOOK	-3.993035e-05
-4.882766	LOOKED	0.0008512867
-4.706675	LOOSER	-3.429303e-05
-4.882766	LOT	0.001150667
-4.581737	LOWER	-6.853239e-05
-4.882766	La-Z-Boy	0.005058636
-4.706675	LaMidRighter	0.0006061951
-4.882766	LaPierre,	-3.993035e-05
-4.882766	Lacking	0.01522675
-4.882766	Lacks	0.01522675
-4.882766	Laden	-3.993035e-05
-4.882766	Ladies	0.007294841
-4.706675	Land	-7.986066e-05
-4.882766	Lands.	0.02225997
-4.882766	Lansa	0.0002531436
-4.882766	Lantern	0.007294841
-4.338698	Lanza	0.009209853
-4.484827	Lanza's	-9.998168e-05
-4.882766	Lapiere	0.005081661
-4.882766	Large	2.738032e-06
-4.882766	Larry	-3.139702e-05
-4.882766	Larry,”	0.0006432672
-4.484827	Las	-0.0001169392
-4.581737	Last	0.005526091
-4.882766	Lastly,	0.01522675
-4.882766	Launchers"	0.003103122
-4.104615	Law	0.0200655
-4.882766	Law,	-3.993035e-05
-4.037668	Laws	0.01883074
-4.581737	Laws,	0.02278899
-4.405645	Lawyer:	0.001079442
-4.882766	Lay	0.0005919903
-4.882766	Lead	0.001430276
-4.882766	Leave	0.01522675
-4.882766	Leaving	0.0001649161
-4.882766	Led	-3.993035e-05
-4.706675	Left	0.005321073
-4.706675	Legally	0.007515447
-4.706675	Legislation	0.002925729
-4.882766	Legislation:	9.662325e-05
-4.882766	Legislative	-3.424148e-05
-4.882766	Legislature,	0.008746591
-4.882766	Legislatures,	0.007294841
-4.882766	Lego	-3.993035e-05
-4.882766	Lerner	0.0001393051
-4.581737	Less	0.0004893579
-4.338698	Let	0.0004352124
-3.905043	Let's	0.005786127
-4.706675	Lets	0.0009111399
-4.882766	Level--to	0.0004780629
-4.882766	Liability	-1.432982e-05
-4.882766	Liability.	0.02225997
-4.280706	Liberal	0.003270853
-4.882766	Liberal/progressives	0.002207276
-4.484827	Liberals	0.0002586266
-4.882766	Libertarian	-1.717441e-05
-4.581737	Libertarians	0.008356102
-4.882766	Library	0.007555277
-4.882766	License	-3.993035e-05
-4.882766	License?	0.02225997
-4.706675	Licensing	0.002118771
-4.706675	Life	0.005067702
-4.882766	Light	-3.993035e-05
-3.979676	Like	0.02819547
-4.882766	Limited	-3.708592e-05
-4.882766	Limits	0.01067234
-4.882766	Link	0.005369572
-4.882766	List	0.007555277
-4.882766	List"	3.97207e-05
-4.882766	Listing	0.000990972
-4.882766	Literally	0.001013782
-4.882766	Little	-3.993035e-05
-4.882766	Lives	-3.993035e-05
-4.882766	Living	0.005058636
-4.882766	Lizzie	0.001036593
-4.882766	Lloyd	-3.993035e-05
-4.882766	Local	0.0004068733
-4.882766	Local/National	0.0001592246
-4.706675	Lock	0.0006318364
-4.882766	Locking	-3.424148e-05
-4.882766	Loesch	-3.993035e-05
-4.882766	Logic	0.007294841
-4.882766	Lois	-3.993035e-05
-4.882766	London	0.0007743365
-4.882766	London,	-3.993035e-05
-4.706675	Long	-6.84827e-05
-4.882766	Longer	2.265139e-05
-4.037668	Look	0.001233779
-4.706675	Look,	0.02036483
-4.706675	Looks	0.0008284789
-4.882766	Loophole.	0.02225997
-4.882766	Lopez	0.001501633
-4.882766	Lord	-5.795971e-06
-4.484827	Los	-0.0001197837
-4.882766	Lot's	0.007555277
-4.882766	Lots	0.007555277
-4.882766	Lott,	0.004957918
-4.882766	Lott.	0.02225997
-4.882766	Loud	-3.708592e-05
-4.882766	Loughner	0.001501633
-4.581737	Louis,	-0.0001084127
-4.882766	Louisiana,	-3.993035e-05
-4.882766	LowDown	-3.993035e-05
-4.706675	Luck	0.009662781
-4.882766	Luckily	-5.795971e-06
-4.882766	Luftwaffe	-3.993035e-05
-4.882766	Lursa	-3.993035e-05
-4.882766	Lutheran	-3.708592e-05
-4.706675	M-16	0.001664445
-4.882766	M.	-3.993035e-05
