
\data\
ngram 1=24131
ngram 2=100713

\1-grams:
-4.32371	!	0.02291923
-5.02268	!!	0.02306318
-5.02268	!!!!	0.02306318
-5.02268	!!!!!!.	0.02306318
-5.02268	!!!!!.	0.02306318
-5.02268	!!.	0.02306318
-4.72165	!.	0.02302719
-5.02268	!"	-3.187424e-05
-4.044956	"	0.03901035
-4.72165	",	0.0004901081
-5.02268	"..........	0.001231295
-5.02268	"1)	-9.202609e-06
-5.02268	"11	-3.187424e-05
-5.02268	"30	0.000186647
-5.02268	"35,	-1.950805e-05
-5.02268	"84	-3.187424e-05
-4.62474	"A	0.000100225
-4.846589	"AR"	0.005095903
-5.02268	"AR-15's	0.0004651116
-5.02268	"Adverting	1.103038e-06
-4.72165	"Am	0.00437772
-5.02268	"Americans	-3.187424e-05
-5.02268	"Among	0.01628911
-5.02268	"Anchorman:	0.001704897
-4.72165	"Assault	-9.562266e-05
-4.846589	"Aurora,	-2.719961e-05
-4.846589	"Bad	-4.781023e-05
-4.72165	"Ban	0.001910274
-5.02268	"Black	-3.187424e-05
-5.02268	"Blood"	0.005209846
-5.02268	"British	4.23282e-05
-5.02268	"Bubba"	0.007187727
-5.02268	"Burglars	0.001260234
-5.02268	"But	0.000386711
-5.02268	"But,	0.004413713
-5.02268	"Can	0.004413713
-5.02268	"Caught	0.001982267
-5.02268	"Climate	-3.187424e-05
-5.02268	"Come	0.007187727
-5.02268	"Commit	0.008821132
-5.02268	"Common	-3.187424e-05
-5.02268	"Conflict	0.007716126
-5.02268	"Constitutional	-3.187424e-05
-5.02268	"Contemporaneous	-3.187424e-05
-5.02268	"Cops"	-1.744698e-05
-5.02268	"Damn.	0.02306318
-5.02268	"Dark"	-2.981323e-05
-5.02268	"Dead,	-2.981323e-05
-5.02268	"Democracy"	0.005209846
-5.02268	"Democrats	-1.332482e-05
-4.846589	"Do	0.003946192
-5.02268	"Don't	-3.187424e-05
-5.02268	"Double	-3.187424e-05
-5.02268	"Draw	-3.187424e-05
-5.02268	"Due	-3.187424e-05
-5.02268	"EXACTLY"	0.005416411
-5.02268	"Educator"	0.008821132
-5.02268	"Eh	0.0004589217
-5.02268	"Ethnic	-3.187424e-05
-5.02268	"Every	0.000135099
-5.02268	"Everyone	0.0008986343
-5.02268	"Exaggerating	-3.187424e-05
-5.02268	"Excuse	-3.187424e-05
-5.02268	"Expert"	0.0051139
-5.02268	"Fact	0.005209846
-5.02268	"Fast	0.007187727
-5.02268	"Fat	-3.187424e-05
-5.02268	"Final	-3.187424e-05
-5.02268	"GUN	-3.187424e-05
-5.02268	"Genocide".	0.02306318
-5.02268	"Give	2.996025e-05
-5.02268	"Good	-5.080389e-06
-5.02268	"Good"	-1.744698e-05
-5.02268	"Guam	-3.187424e-05
-4.32371	"Gun	-0.0002364302
-5.02268	"Gun?"	0.02306318
-5.02268	"Guns	0.0008655885
-5.02268	"He	0.000991588
-5.02268	"He"	0.000229952
-5.02268	"Head	0.007187727
-4.62474	"Hey	-9.451852e-05
-5.02268	"Hey,	-1.538591e-05
-5.02268	"His	-3.187424e-05
-5.02268	"How	0.0004341624
-4.369467	"I	0.007545987
-5.02268	"I,	0.0002485127
-4.545558	"If	0.02468337
-4.72165	"In	0.0264829
-5.02268	"Infringe"	4.438956e-05
-5.02268	"Irish,	-3.187424e-05
-5.02268	"Is	0.002603886
-4.846589	"It	0.00606968
-4.62474	"It's	0.01188619
-5.02268	"Jim	-3.187424e-05
-5.02268	"Kids,	1.140898e-05
-5.02268	"Lets	0.001260234
-5.02268	"Liberal	0.0001082965
-5.02268	"Life	0.005209846
-5.02268	"Light"	-2.981323e-05
-5.02268	"Little	-3.187424e-05
-5.02268	"Live	-2.981323e-05
-5.02268	"Massacre	-3.187424e-05
-5.02268	"Mexico	0.0008986343
-5.02268	"Military	0.007187727
-5.02268	"Militia"	0.002247382
-4.72165	"More	0.0009871795
-4.846589	"My	0.0003321483
-5.02268	"NGRAC"--No	-3.187424e-05
-4.32371	"No	0.0008877987
-4.846589	"No,	0.002993176
-5.02268	"Nope,	8.561881e-05
-5.02268	"Not	0.0007850505
-5.02268	"Nothing"	0.01628911
-5.02268	"Now	-9.202609e-06
-5.02268	"Now,	-1.744698e-05
-5.02268	"Obama's	-1.538591e-05
-5.02268	"Odd	-3.187424e-05
-5.02268	"Of	0.01628911
-5.02268	"One	0.0003248257
-5.02268	"Open	-3.187424e-05
-5.02268	"Out	0.007716126
-5.02268	"Peace	-3.187424e-05
-5.02268	"Peace"	4.85123e-05
-5.02268	"People	4.026684e-05
-5.02268	"Planing	0.002661949
-5.02268	"PolitiFact	-3.187424e-05
-5.02268	"Power	0.01087897
-5.02268	"Progress"	0.005209846
-5.02268	"Public	-3.187424e-05
-5.02268	"Publius"	0.0007024631
-5.02268	"R",	0.0005621005
-5.02268	"R".	0.02306318
-5.02268	"Racehorse"	-2.981323e-05
-5.02268	"Red	-2.981323e-05
-4.846589	"Right	0.007698129
-5.02268	"Right"	-2.775222e-05
-5.02268	"Rights".	0.02306318
-4.846589	"Roman	-4.781023e-05
-5.02268	"Rudely	2.377639e-05
-5.02268	"Rule	0.007716126
-5.02268	"SHALL	2.789896e-05
-5.02268	"Saturday	-1.126373e-05
-5.02268	"Security	-3.187424e-05
-5.02268	"See,	1.103038e-06
-5.02268	"Self	-3.187424e-05
-5.02268	"Selfies"	0.0002237653
-5.02268	"Sen.	-2.981323e-05
-5.02268	"Should	6.088078e-05
-5.02268	"Sir/Ma'am,	0.0002196409
-4.846589	"So	0.003946913
-5.02268	"Some	0.0003207003
-5.02268	"Something	8.561881e-05
-5.02268	"Starsky	2.171513e-05
-5.02268	"State	-2.156911e-05
-5.02268	"Stop	0.01628911
-5.02268	"Sugarmann"	0.0002402634
-5.02268	"Surely	0.001148622
-5.02268	"TILT"	-2.981323e-05
-5.02268	"TRUMP:	0.0002959489
-4.846589	"Thank	0.003932353
-4.72165	"That	0.01633055
-4.846589	"That's	1.045472e-05
-3.861312	"The	0.00150871
-4.846589	"There	0.005956816
-5.02268	"There,	0.004413713
-4.72165	"They	0.004218887
-5.02268	"Those	0.00104737
-5.02268	"Thread:	2.171513e-05
-5.02268	"Uh	4.23282e-05
-5.02268	"Under	0.01628911
-5.02268	"United	0.0001103583
-5.02268	"Used	0.01087897
-5.02268	"VERIFIABLE	-3.187424e-05
-5.02268	"Very	-2.569118e-05
-5.02268	"WANT"	0.01087897
-5.02268	"WASHINGTON	-3.187424e-05
-5.02268	"WTF	0.000737561
-4.42062	"We	0.004197736
-5.02268	"We're	5.225401e-06
-5.02268	"We've	0.0006013149
-5.02268	"Wedding	-3.187424e-05
-5.02268	"Well	0.0004589217
-4.62474	"What	0.01087666
-5.02268	"What's	0.0001062349
-5.02268	"What?	0.02306318
-4.72165	"When	0.02181038
-5.02268	"Where	0.003128811
-5.02268	"Who	0.01628911
-4.72165	"Why	0.002386769
-5.02268	"Witch	-3.187424e-05
-5.02268	"Workers	-3.187424e-05
-5.02268	"X"	-2.981323e-05
-5.02268	"X").	0.02306318
-5.02268	"XYZ	-3.187424e-05
-5.02268	"Yeah,	0.003964189
-5.02268	"Yes"	-1.744698e-05
-4.62474	"You	0.001511459
-5.02268	"You",	3.164226e-06
-5.02268	"You're	0.01628911
-4.846589	"Your	0.001563382
-5.02268	"Zimmerman	1.140898e-05
-5.02268	"[QUOTE]	0.000359893
-5.02268	"[a]	-2.981323e-05
-4.846589	"a	9.910286e-05
-5.02268	"abandoned"	0.00010005
-5.02268	"accidents"	-3.187424e-05
-5.02268	"adapt"	0.004413713
-5.02268	"adults"	0.000991588
-5.02268	"afford"	0.0001536556
-5.02268	"against	-3.187424e-05
-4.846589	"all	0.000934934
-4.846589	"an	0.0002001427
-5.02268	"and	0.0001515938
-5.02268	"angry"	0.007187727
-5.02268	"any	-3.187424e-05
-5.02268	"apples	0.01087897
-5.02268	"arguments"	0.001210625
-5.02268	"arm"	0.0051139
-5.02268	"arm",	0.001713174
-5.02268	"arming	0.0002650116
-5.02268	"armory".	0.02306318
-4.72165	"arms"	0.01108815
-5.02268	"arms,"	-2.569118e-05
-5.02268	"asking")	0.01087897
-4.209766	"assault	0.001975245
-5.02268	"assault"	0.002247382
-5.02268	"attack"	0.001982267
-5.02268	"attackers"	0.003128811
-5.02268	"automatic".	0.02306318
-5.02268	"average	-9.580831e-07
-5.02268	"aww...shucks....forget	-3.187424e-05
-4.846589	"background	-6.374842e-05
-5.02268	"balance".	0.02306318
-4.846589	"ban	-5.962636e-05
-5.02268	"bans"	-2.569118e-05
-5.02268	"based	0.001982267
-5.02268	"bashing"land.	0.02306318
-5.02268	"be	0.0001557175
-4.478612	"bear	-0.0001434237
-4.846589	"bear"	0.003387715
-5.02268	"bearing	0.0001619033
-5.02268	"because	0.0007995049
-5.02268	"being	3.202153e-05
-5.02268	"belong"	0.0051139
-5.02268	"belonging",	0.001231295
-4.846589	"black	-6.374842e-05
-5.02268	"blew	-2.981323e-05
-4.846589	"blinked	0.0003583992
-5.02268	"blinking	0.0003763962
-5.02268	"blow	0.003964189
-5.02268	"bolt	-3.187424e-05
-4.846589	"boosting"	0.001275919
-5.02268	"bravery"	0.0051139
-5.02268	"bucky"`s	2.377639e-05
-5.02268	"burden	0.007716126
-5.02268	"burst"	0.001872539
-5.02268	"but	0.001016379
-4.72165	"buy	-6.168441e-05
-5.02268	"can	1.103038e-06
-5.02268	"can't".	0.02306318
-5.02268	"care"	0.008821132
-4.846589	"carry"	0.01073308
-5.02268	"case	0.007187727
-5.02268	"causal	-3.187424e-05
-5.02268	"cesspool".	0.02306318
-5.02268	"chamber	5.057368e-05
-5.02268	"children"	0.003128811
-4.846589	"citizen	-6.374842e-05
-5.02268	"claim"	0.0002650116
-5.02268	"climbing."	0.02306318
-5.02268	"clip".	0.02306318
-5.02268	"coexist"	-3.187424e-05
-4.72165	"combat".	0.02302719
-5.02268	"comfort".	0.02306318
-4.846589	"common	-6.374842e-05
-5.02268	"commonsense",	0.001231295
-5.02268	"community"	0.001872539
-5.02268	"compassionate	-3.187424e-05
-5.02268	"conservative"	-2.569118e-05
-5.02268	"constructive	-3.187424e-05
-5.02268	"control	-2.981323e-05
-5.02268	"controlled",	-2.363015e-05
-4.846589	"cop	-5.344319e-05
-5.02268	"could	0.002958609
-5.02268	"could,"	0.002603886
-5.02268	"crap"	0.005209846
-4.846589	"critical	-4.781023e-05
-5.02268	"damn....there's	0.008821132
-5.02268	"dangerous	0.007187727
-4.846589	"deadly	6.199216e-05
-5.02268	"democracy"	0.0007024631
-5.02268	"disadvantaged	-2.569118e-05
-5.02268	"discussion"	0.000950273
-4.545558	"do	0.002673529
-4.846589	"don't	0.000412609
-5.02268	"drop"	0.01628911
-5.02268	"due	-3.187424e-05
-5.02268	"edit	-2.981323e-05
-5.02268	"edit"	0.0006302122
-5.02268	"editing	0.002603886
-5.02268	"editing"	0.000595123
-5.02268	"educated"	1.347019e-05
-5.02268	"encroachments	0.001601446
-5.02268	"end"	0.002661949
-5.02268	"enforce	0.01628911
-5.02268	"enlighten"	6.294222e-05
-5.02268	"enlightened	-3.187424e-05
-5.02268	"enlightened"	0.0002196409
-5.02268	"entertainment."	0.02306318
-5.02268	"equality	0.007716126
-5.02268	"equalizer"	0.001982267
-4.846589	"every	-6.374842e-05
-5.02268	"everyone"	-2.156911e-05
-5.02268	"exception	0.007716126
-5.02268	"excessive	0.007187727
-5.02268	"expert."	0.02306318
-4.846589	"extremely	-6.374842e-05
-5.02268	"facts"	0.001185823
-5.02268	"facts,"	0.0005352717
-5.02268	"failure	0.01087897
-5.02268	"fair"	7.286576e-06
-5.02268	"false	-3.187424e-05
-5.02268	"feed	0.0003763962
-5.02268	"final	-3.187424e-05
-4.846589	"firearm-related	6.556022e-05
-4.846589	"first	0.0002743909
-5.02268	"fix"	0.0001948953
-5.02268	"following"	0.001371873
-4.72165	"for	0.0008142492
-5.02268	"force,"	0.007187727
-5.02268	"forces	8.561881e-05
-5.02268	"forever"	0.0005290805
-4.846589	"free	-6.374842e-05
-5.02268	"free"	0.01628911
-5.02268	"freedom"	0.01087897
-5.02268	"from	0.008821132
-5.02268	"full	-3.187424e-05
-5.02268	"fully"	2.789896e-05
-5.02268	"gang	-3.187424e-05
-5.02268	"gave	7.324965e-05
-5.02268	"gender	-3.187424e-05
-5.02268	"gendered	-3.187424e-05
-5.02268	"get	-3.187424e-05
-5.02268	"girly"	0.007187727
-5.02268	"give	0.001154822
-4.846589	"going	-4.781023e-05
-5.02268	"gov't	-3.187424e-05
-4.001491	"gun	1.832988e-05
-5.02268	"gun"	0.0001557175
-5.02268	"gun-grabber"	0.001982267
-5.02268	"gunfire	-3.187424e-05
-4.545558	"guns	0.009125413
-5.02268	"ha	0.01087897
-5.02268	"had	0.01087897
-5.02268	"hamburger	-2.981323e-05
-5.02268	"heavy	0.0001392227
-5.02268	"hey,	0.001210625
-4.478612	"high	-0.0001125065
-5.02268	"historian"	0.005209846
-4.846589	"historical	-6.374842e-05
-5.02268	"home	-3.187424e-05
-5.02268	"home-grown"	-2.981323e-05
-5.02268	"home-grown."	0.02306318
-4.72165	"homophobia"	0.009062667
-5.02268	"how	0.001260234
-5.02268	"humans	0.002958609
-5.02268	"hunt"	0.0051139
-5.02268	"hustling"	0.001154822
-4.72165	"if	0.01838169
-5.02268	"if"s	3.164226e-06
-5.02268	"illegitimate	0.007187727
-5.02268	"immature"	-1.126373e-05
-4.846589	"in	-6.374842e-05
-5.02268	"independent	0.007716126
-5.02268	"individual	-2.981323e-05
-5.02268	"influenced"	0.008821132
-5.02268	"info"	0.001185823
-5.02268	"informed"	-1.950805e-05
-5.02268	"infringe"	0.007187727
-5.02268	"infringe",	0.001016379
-5.02268	"infringed"	0.0006797542
-5.02268	"infringed".	0.02306318
-5.02268	"intelligence	-3.187424e-05
-5.02268	"interpret"	0.01628911
-4.846589	"interpreting"	0.01627111
-5.02268	"investigate".	0.02306318
-5.02268	"investigating"	0.001063899
-4.846589	"it	-1.634234e-05
-5.02268	"it's	0.008821132
-4.846589	"just	0.0001238451
-5.02268	"justice"	0.002661949
-4.846589	"justice",	0.002585889
-5.02268	"justice".	0.02306318
-4.846589	"keep	0.006402171
-5.02268	"kids	0.003128811
-5.02268	"killing	0.001272637
-5.02268	"knives"	0.0051139
-5.02268	"know"	0.005416411
-5.02268	"latinos"	-2.981323e-05
-5.02268	"law	8.355722e-05
-5.02268	"law".	0.02306318
-4.846589	"lawmakers"	0.01435061
-5.02268	"lawmaking"	4.026684e-05
-5.02268	"laxity	0.007716126
-5.02268	"leans"	0.01087897
-5.02268	"learning"	-1.950805e-05
-5.02268	"legal	0.0001330372
-4.846589	"legal"	0.007118204
-5.02268	"legally	-3.187424e-05
-5.02268	"legitimate	0.01087897
-4.846589	"let	0.0003192051
-5.02268	"liberal"	0.0006797542
-5.02268	"liberalism"	-3.187424e-05
-5.02268	"liberals	0.0004403521
-5.02268	"liberals"	0.0051139
-4.846589	"liberty"	5.374573e-05
-5.02268	"life,	-2.156911e-05
-5.02268	"like	0.0003557673
-5.02268	"limit	4.026684e-05
-4.846589	"little	0.01084931
-5.02268	"live	0.002247382
-5.02268	"logic"	1.965388e-05
-5.02268	"loopholes"	-3.187424e-05
-5.02268	"loopholes".	0.02306318
-5.02268	"loose	0.001980196
-5.02268	"machine	-3.187424e-05
-5.02268	"maintain	0.01628911
-5.02268	"maintaining	0.01628911
-5.02268	"making	-3.187424e-05
-4.846589	"man	0.005178022
-5.02268	"many	5.469648e-05
-4.72165	"mass	-9.150055e-05
-4.846589	"massive	-6.035949e-06
-5.02268	"mature"	-1.126373e-05
-5.02268	"mature";	0.000168089
-4.846589	"me"	0.00264047
-5.02268	"me",	-2.775222e-05
-5.02268	"meaning"	0.005209846
-4.846589	"meaningful	-3.974649e-06
-5.02268	"members	0.007716126
-5.02268	"men	0.001030841
-5.02268	"mental	-3.187424e-05
-4.846589	"mentally	-6.374842e-05
-4.846589	"military	-5.550425e-05
-4.846589	"military"	-1.22198e-05
-5.02268	"militia"	0.0009688642
-5.02268	"militia."	0.02306318
-5.02268	"militias"	0.001030841
-5.02268	"mind	-2.981323e-05
-5.02268	"minority	-2.981323e-05
-4.72165	"moderate"	0.005099535
-5.02268	"moderates"	0.01087897
-5.02268	"modern	-3.187424e-05
-5.02268	"moral	-3.187424e-05
-5.02268	"morally	0.0001062349
-5.02268	"more	0.0009667986
-4.846589	"most"	0.007761964
-5.02268	"most")	0.003128811
-5.02268	"mostly	-1.950805e-05
-5.02268	"mugging".	0.02306318
-5.02268	"must	0.001260234
-5.02268	"my	-3.187424e-05
-5.02268	"native	-3.187424e-05
-5.02268	"natural	-1.538591e-05
-4.846589	"need"	0.001129159
-5.02268	"need"??	0.02306318
-5.02268	"needed"	0.000347516
-5.02268	"needed".	0.02306318
-5.02268	"never	0.00020933
-5.02268	"news".	0.02306318
-4.32371	"no	0.0005569666
-5.02268	"no-go	-2.981323e-05
-5.02268	"noble	-3.187424e-05
-5.02268	"not	5.263511e-05
-5.02268	"nothing"	0.0051139
-5.02268	"nuts"	1.347019e-05
-5.02268	"obvious"	-2.569118e-05
-5.02268	"obvious".	0.02306318
-5.02268	"of	-3.187424e-05
-5.02268	"off	-3.187424e-05
-5.02268	"off".	0.02306318
-5.02268	"official	-3.187424e-05
-5.02268	"oh,	0.004413713
-5.02268	"on	0.01628911
-4.72165	"open	-7.968367e-05
-5.02268	"original	-3.187424e-05
-5.02268	"our	5.225401e-06
-5.02268	"out	0.007716126
-5.02268	"outlaws"	0.0007024631
-5.02268	"pack	-2.981323e-05
-5.02268	"passage"	0.0001103583
-5.02268	"peace	0.007716126
-5.02268	"pedophobia"	0.005209846
-5.02268	"people	0.007716126
-5.02268	"people"	0.002247382
-5.02268	"perennial	-3.187424e-05
-5.02268	"persons	-2.775222e-05
-5.02268	"persons"?	0.02306318
-5.02268	"petty,	7.324965e-05
-5.02268	"physically	-3.187424e-05
-5.02268	"playing"	0.002247382
-5.02268	"policies"	-2.363015e-05
-5.02268	"poof"	-3.187424e-05
-5.02268	"posse"	0.001260234
-5.02268	"possibility	0.007716126
-5.02268	"potential	-2.981323e-05
-5.02268	"practical	-3.187424e-05
-5.02268	"prepared	0.0051139
-5.02268	"pretty	-3.187424e-05
-5.02268	"prevalent	0.000172213
-5.02268	"prevent"	0.01628911
-5.02268	"pro-gun"	2.996025e-05
-4.846589	"probable	-4.781023e-05
-5.02268	"problem"	0.005209846
-5.02268	"professional	0.0002134543
-5.02268	"progressive"	0.001872539
-5.02268	"prohibited	-3.187424e-05
-5.02268	"proof"	0.001713174
-5.02268	"proof")	0.002050602
-5.02268	"properness",	0.01628911
-5.02268	"protects	0.001177556
-5.02268	"provide	-3.187424e-05
-5.02268	"provocation	-3.187424e-05
-5.02268	"purchase"	0.001231295
-5.02268	"pure	-3.187424e-05
-5.02268	"quite	-3.187424e-05
-4.846589	"racism"	0.003109423
-5.02268	"racist"	-3.187424e-05
-4.846589	"racists"	0.007009257
-5.02268	"rangeland"	0.0001907711
-5.02268	"rappers"	0.007187727
-5.02268	"rational"..	1.140898e-05
-5.02268	"reasonable	0.0001330372
-4.846589	"reasonable"	0.007212506
-4.846589	"red	-6.168739e-05
-5.02268	"redness"	0.007716126
-5.02268	"reg	-2.981323e-05
-4.846589	"regulating"	0.005265645
-5.02268	"regulations.".	0.02306318
-5.02268	"relevance,"	0.001231295
-5.02268	"relic"	0.007187727
-5.02268	"resorting	0.01087897
-5.02268	"respect	0.01628911
-5.02268	"respected	0.007187727
-5.02268	"restrict"	0.0001598413
-5.02268	"rifles"	0.002247382
-5.02268	"rifles?"	0.02306318
-4.545558	"right	0.01078789
-4.846589	"right"	0.007304733
-4.846589	"rights	0.01090215
-4.846589	"rights"	0.004708914
-5.02268	"rights",	0.001231295
-5.02268	"rise	0.0051139
-5.02268	"rule"?!?.	0.02306318
-4.846589	"savage"	0.01280019
-4.846589	"savages"	0.00513839
-5.02268	"save	0.0004341624
-5.02268	"saving"	0.003964189
-4.846589	"school	-4.781023e-05
-5.02268	"schools"	-2.569118e-05
-5.02268	"scumbag	-3.187424e-05
-5.02268	"security,	-2.981323e-05
-5.02268	"see	0.0005352717
-5.02268	"segue."	0.02306318
-5.02268	"self-preservation"?)	0.02306318
-5.02268	"sensible	0.001980196
-4.846589	"sex	-6.374842e-05
-4.62474	"shall	0.002733079
-5.02268	"sheared".	0.02306318
-5.02268	"shock	-3.187424e-05
-5.02268	"shoot	0.0002918238
-5.02268	"significant	-2.981323e-05
-5.02268	"signs"	0.001231295
-5.02268	"simple	-9.580831e-07
-5.02268	"simple"	0.005209846
-5.02268	"slave-holding,	-2.981323e-05
-5.02268	"smart"	-2.569118e-05
-5.02268	"smarty-pants".	0.02306318
-5.02268	"smiley	-3.187424e-05
-5.02268	"solution"	0.003964189
-5.02268	"some	0.007716126
-5.02268	"souls",	1.553142e-05
-5.02268	"speaking	0.002661949
-5.02268	"special"	0.0051139
-4.846589	"standing	0.005082075
-4.42062	"state	-0.0001552338
-4.72165	"state's	-6.374544e-05
-5.02268	"statistic"	0.000950273
-5.02268	"statistics"	0.0051139
-5.02268	"stigmatize"	0.01628911
-5.02268	"stop	0.0004217832
-5.02268	"stopping	-2.775222e-05
-5.02268	"stronger"	0.0004589217
-5.02268	"study"	0.000310387
-5.02268	"study,"	0.001231295
-5.02268	"style"	-2.981323e-05
-5.02268	"subsequent	-3.187424e-05
-5.02268	"successful",	0.000176337
-5.02268	"suffer"	0.0001783989
-5.02268	"suffering"	-3.187424e-05
-5.02268	"survival	-3.187424e-05
-5.02268	"suspected	-2.981323e-05
-5.02268	"take	-2.981323e-05
-5.02268	"talk".	0.02306318
-5.02268	"talking	-3.187424e-05
-4.846589	"team	-6.374842e-05
-4.846589	"terrible	-6.374842e-05
-5.02268	"testing	-3.187424e-05
-5.02268	"thank	3.408287e-05
-4.093261	"the	0.001751901
-5.02268	"then	0.003964189
-5.02268	"they	0.0008655885
-5.02268	"they"	0.0005621005
-5.02268	"they",	0.007187727
-5.02268	"this	8.974192e-05
-5.02268	"thought"	0.0003248257
-5.02268	"threat",	-1.744698e-05
-5.02268	"threatens	0.001272637
-5.02268	"to	0.0001227285
-4.846589	"tolerance"	0.007894189
-5.02268	"tough	-2.981323e-05
-4.846589	"toys"	0.001546831
-5.02268	"trained"	0.0051139
-5.02268	"tries	0.0002959489
-5.02268	"turn	0.0051139
-5.02268	"unalienable	-3.187424e-05
-5.02268	"unconnected	0.002247382
-5.02268	"undesirables"(	-2.981323e-05
-5.02268	"unhinged"	0.0009688642
-5.02268	"unloaded"	0.0001536556
-5.02268	"unorganized	-2.156911e-05
-5.02268	"unreasonable".	0.02306318
-5.02268	"upper	-2.981323e-05
-5.02268	"use	0.0004217832
-5.02268	"vacuous	0.0001103583
-5.02268	"violence	0.007187727
-5.02268	"violent"?	0.02306318
-4.846589	"waiting	5.525265e-05
-5.02268	"walked"	0.0003763962
-5.02268	"want"	-2.775222e-05
-5.02268	"warrior	-3.187424e-05
-5.02268	"was	0.002798843
-5.02268	"water	0.005209846
-5.02268	"watercooler"	-3.187424e-05
-4.846589	"we	0.01673058
-5.02268	"we'll,	0.0003660816
-5.02268	"we're	0.0009688642
-4.846589	"weapon	0.007698129
-5.02268	"weapon"	7.943414e-05
-4.846589	"weapon".	0.02304519
-4.62474	"well	0.005018425
-5.02268	"well,	0.001148622
-5.02268	"well-regulated"	-3.187424e-05
-4.62474	"what	0.0008030382
-5.02268	"when	0.01628911
-5.02268	"whenever	0.0007974401
-5.02268	"whining	0.007187727
-5.02268	"whole	0.0001247902
-4.846589	"why	0.003223626
-5.02268	"why"	-2.775222e-05
-5.02268	"wind	0.0006198913
-5.02268	"won't",	1.965388e-05
-5.02268	"worse"	0.0006219557
-4.846589	"would	0.004067579
-5.02268	"wrong".	0.02306318
-5.02268	"yeah".	0.02306318
-5.02268	"yes,	0.01628911
-4.369467	"you	0.004825709
-5.02268	"you've	0.0001247902
-5.02268	"youths"	0.005416411
-5.02268	"zero	8.355722e-05
-5.02268	"…	0.0008325455
-5.02268	#	0.007187727
-4.846589	#1	-8.097254e-06
-4.846589	#1,	-6.168739e-05
-5.02268	#1.	0.02306318
-5.02268	#10	0.003128811
-5.02268	#11,	-3.187424e-05
-4.846589	#12	0.00841929
-5.02268	#12.	0.02306318
-5.02268	#13,	0.007187727
-5.02268	#14	0.003128811
-5.02268	#14,	0.007187727
-5.02268	#154.	0.02306318
-5.02268	#161.	0.02306318
-5.02268	#185,	0.005209846
-4.846589	#2	0.004427693
-5.02268	#24,	-3.187424e-05
-5.02268	#249,	-3.187424e-05
-5.02268	#254,	-3.187424e-05
-5.02268	#3	0.005209846
-5.02268	#394	6.294222e-05
-5.02268	#4	0.007187727
-4.846589	#4,	0.007155922
-5.02268	#421,	-3.187424e-05
-5.02268	#453,	-3.187424e-05
-5.02268	#46	-1.538591e-05
-5.02268	#47,	-3.187424e-05
-5.02268	#472,	-3.187424e-05
-5.02268	#474	-2.775222e-05
-5.02268	#474,	-3.019236e-06
-5.02268	#5	0.003128811
-5.02268	#506,	-3.187424e-05
-5.02268	#6	0.005209846
-5.02268	#63,	-3.187424e-05
-5.02268	#681,	-3.187424e-05
-5.02268	#7	0.005209846
-4.846589	#74	0.001167826
-5.02268	#754,	-3.187424e-05
-5.02268	#756,	-3.187424e-05
-5.02268	#757	2.171513e-05
-5.02268	#78,	-3.187424e-05
-5.02268	#793.	0.02306318
-5.02268	#8,	-3.187424e-05
-5.02268	#84	-2.775222e-05
-5.02268	#84,	-3.187424e-05
-5.02268	#9,	-3.187424e-05
-5.02268	#GodBlessAmerica.	0.02306318
-5.02268	#ShallNotBeInfringed.	0.02306318
-5.02268	$	0.001030841
-5.02268	$$$$.	0.02306318
-5.02268	$.02.	0.02306318
-5.02268	$0.94/bushel)	0.001667652
-5.02268	$1,000	0.002661949
-5.02268	$1,200	-3.187424e-05
-5.02268	$1.25	1.140898e-05
-5.02268	$10,000	0.0051139
-5.02268	$10.	0.02306318
-5.02268	$100	-2.775222e-05
-5.02268	$100,000	0.01087897
-5.02268	$100.00	-3.187424e-05
-4.846589	$1000	-2.664845e-05
-5.02268	$12.	0.02306318
-5.02268	$15	-2.363015e-05
-5.02268	$15.00	6.912665e-05
-5.02268	$16	0.007187727
-5.02268	$16.7	-2.363015e-05
-5.02268	$169.95	-2.981323e-05
-5.02268	$174,000?	0.02306318
-5.02268	$18	-2.363015e-05
-5.02268	$189.00	-3.187424e-05
-5.02268	$199.	0.02306318
-5.02268	$20.	0.02306318
-4.846589	$200	0.007313118
-5.02268	$224.66.	0.02306318
-5.02268	$233	9.386515e-05
-5.02268	$240	9.386515e-05
-5.02268	$25.00"	0.000168089
-5.02268	$25K]?".	0.02306318
-5.02268	$25k	0.001982267
-5.02268	$277	9.386515e-05
-5.02268	$3,800	0.00154973
-5.02268	$3.30	0.001177556
-5.02268	$30	9.386515e-05
-5.02268	$300	0.001872539
-5.02268	$30$35	0.001177556
-5.02268	$331	9.386515e-05
-5.02268	$400	-2.156911e-05
-5.02268	$5.4	9.386515e-05
-4.846589	$5.4M,	0.005198883
-5.02268	$500	0.007716126
-5.02268	$550	-2.156911e-05
-5.02268	$60	4.23282e-05
-5.02268	$60.99(24%)	-3.187424e-05
-5.02268	$600	-3.187424e-05
-5.02268	$63,300	0.0051139
-5.02268	$725	-3.187424e-05
-5.02268	$890.00.	0.02306318
-5.02268	$900.00	0.01087897
-5.02268	$90K	0.000135099
-5.02268	$98.5	-3.187424e-05
-4.62474	%	0.0134112
-3.876552	&	0.02512846
-5.02268	'58-'59.	0.02306318
-5.02268	'75	0.002050602
-5.02268	'85%	0.007716126
-5.02268	'90s	-1.538591e-05
-5.02268	'94.	0.02306318
-5.02268	'A'	-2.981323e-05
-5.02268	'Beat'	-2.775222e-05
-4.846589	'Children's	-6.374842e-05
-5.02268	'GOT	-3.187424e-05
-5.02268	'Holy	-3.187424e-05
-5.02268	'Keep	0.001272637
-5.02268	'Lies,	-1.126373e-05
-5.02268	'N'	-2.981323e-05
-4.846589	'Sea-sweeper'	0.0004409246
-5.02268	'Slave-Holding,	-3.187424e-05
-5.02268	'Stop	0.001210625
-5.02268	'Tactical'	-3.187424e-05
-5.02268	'The	-3.187424e-05
-5.02268	'US'	-1.332482e-05
-5.02268	'Verily,	0.004413713
-5.02268	'arms	0.003128811
-5.02268	'arms'	1.347019e-05
-4.846589	'assault	0.00024964
-5.02268	'attacking	-3.187424e-05
-5.02268	'back	-3.187424e-05
-5.02268	'base'	0.002247382
-5.02268	'bear	3.614417e-05
-5.02268	'carry	-2.981323e-05
-5.02268	'caucasian'	-2.156911e-05
-5.02268	'cause	4.23282e-05
-5.02268	'civilians'	0.002247382
-5.02268	'clipdraw'.	0.02306318
-5.02268	'constitutional'.	0.02306318
-5.02268	'could	-3.187424e-05
-5.02268	'countless	-2.981323e-05
-5.02268	'defense'.	0.02306318
-5.02268	'democracy'.	0.02306318
-5.02268	'designed'	0.002661949
-5.02268	'directed'	0.001601446
-5.02268	'education'	-2.363015e-05
-4.62474	'em	0.0139038
-5.02268	'em!	0.02306318
-5.02268	'fights'	-2.156911e-05
-5.02268	'founder'	1.140898e-05
-4.846589	'gun	-6.374842e-05
-5.02268	'guns'?	0.02306318
-5.02268	'had'	0.008821132
-5.02268	'health'	-1.950805e-05
-5.02268	'industrialized'	-3.187424e-05
-5.02268	'keep	0.0006198913
-5.02268	'kill'	0.01628911
-5.02268	'licensed	0.0002340765
-5.02268	'light	-3.187424e-05
-5.02268	'limitations'	0.001982267
-5.02268	'little	-2.981323e-05
-5.02268	'm	-1.538591e-05
-5.02268	'machine	-3.187424e-05
-5.02268	'meme'	0.0004444786
-4.846589	'modern	-6.374842e-05
-5.02268	'modern'	0.001872539
-5.02268	'moronic'	0.007187727
-5.02268	'n	-3.187424e-05
-5.02268	'necessary'?	0.02306318
-5.02268	'need'	0.005209846
-5.02268	'negroid'	0.007187727
-4.846589	'no	0.0002063295
-5.02268	'nother	0.000991588
-5.02268	'off	0.01628911
-5.02268	'over-reaching	-3.187424e-05
-5.02268	'power	0.007716126
-5.02268	'proposals'	0.00154973
-4.846589	'race'	0.003813804
-5.02268	'race'.	0.02306318
-5.02268	'races'	0.000737561
-5.02268	'reaffirmed'.	0.02306318
-5.02268	'reality'?.	0.02306318
-5.02268	'right	0.007716126
-5.02268	'safety	-3.187424e-05
-5.02268	'same	-3.187424e-05
-5.02268	'shall	0.002798843
-5.02268	'side'is	-1.950805e-05
-5.02268	'silent'	-3.187424e-05
-5.02268	'small	-2.981323e-05
-5.02268	'sorry	0.002661949
-5.02268	'stupid'?.	0.02306318
-5.02268	'sufficiently	-3.187424e-05
-4.846589	'the	6.199216e-05
-5.02268	'their'.	0.02306318
-5.02268	'this'	-3.187424e-05
-5.02268	'truther'?	0.02306318
-5.02268	'well	1.140898e-05
-5.02268	'yes',	0.001231295
-5.02268	'you'	0.00010005
-5.02268	'	5.225401e-06
-3.861312	(	0.04662487
-5.02268	("state	-3.187424e-05
-5.02268	("the	-1.126373e-05
-5.02268	("tricks").	0.02306318
-5.02268	($50	-3.187424e-05
-5.02268	('70-'13)	-3.187424e-05
-5.02268	('cause	9.798833e-05
-5.02268	(),	7.943414e-05
-5.02268	(.38	-3.187424e-05
-5.02268	(.56)	0.007187727
-5.02268	(.72).	0.02306318
-4.846589	(1	-4.781023e-05
-4.282317	(1)	0.01931418
-5.02268	(1)).	0.02306318
-5.02268	(1),	3.614417e-05
-5.02268	(10)	0.000359893
-5.02268	(11)	-2.569118e-05
-5.02268	(11.3	0.000135099
-5.02268	(11th	0.0051139
-5.02268	(12)	-2.569118e-05
-5.02268	(13)	-3.187424e-05
-5.02268	(16	1.103038e-06
-5.02268	(1822)	0.0006260836
-4.846589	(1846)	0.0002970804
-4.846589	(1859)	0.001745471
-4.846589	(1875)	0.01630233
-5.02268	(1899)	-3.187424e-05
-5.02268	(19%)	1.103038e-06
-5.02268	(1970)	-3.187424e-05
-4.846589	(2	-1.634231e-05
-4.42062	(2)	0.0178787
-5.02268	(2.9%	0.007716126
-5.02268	(2007	0.0004589217
-5.02268	(2007).	0.02306318
-5.02268	(2008)	-3.187424e-05
-5.02268	(2010).	0.02306318
-4.72165	(2017):	-9.562266e-05
-5.02268	(2017):59,495	-2.569118e-05
-5.02268	(21.5	0.000135099
-5.02268	(239	-3.187424e-05
-5.02268	(26.5	0.000135099
-5.02268	(28	-3.187424e-05
-5.02268	(28%)	0.007716126
-5.02268	(3	-1.126373e-05
-4.62474	(3)	-0.0001048245
-5.02268	(30.8	0.000135099
-5.02268	(310	9.386515e-05
-5.02268	(313-2222)	0.001872539
-5.02268	(3532)	-3.187424e-05
-5.02268	(39	0.000186647
-5.02268	(39.9	0.000135099
-4.62474	(4)	0.0001920854
-5.02268	(4.7	0.000135099
-5.02268	(41.2	0.000135099
-5.02268	(42%)	0.007716126
-5.02268	(44.7	0.000135099
-4.62474	(5)	0.0001997733
-5.02268	(52.6	0.000135099
-5.02268	(53.7	0.000135099
-5.02268	(57	0.007716126
-5.02268	(6	-3.187424e-05
-5.02268	(6)	-2.569118e-05
-5.02268	(7)	-2.775222e-05
-5.02268	(7-shot)	-2.363015e-05
-5.02268	(72%)	0.0003041992
-5.02268	(8)	-2.569118e-05
-5.02268	(88th	-2.363015e-05
-5.02268	(9)	-2.981323e-05
-5.02268	(9-shot)	0.0002732614
-5.02268	(90.4	0.000135099
-5.02268	(911).	0.02306318
-5.02268	(?)	0.02306318
-5.02268	(A	-5.080389e-06
-4.72165	(A)	0.004464588
-5.02268	(AP)	-2.775222e-05
-5.02268	(Also	-9.202609e-06
-4.846589	(And	0.00511336
-5.02268	(Ask	-1.538591e-05
-5.02268	(Austria	0.005209846
-4.72165	(B)	0.004466671
-5.02268	(BLM).	0.02306318
-5.02268	(Bureau	0.007716126
-5.02268	(C)	-3.187424e-05
-5.02268	(CNN)Actor	-2.981323e-05
-5.02268	(CRS)	3.164226e-06
-5.02268	(Child	-2.981323e-05
-5.02268	(Cliven	-2.775222e-05
-5.02268	(Coercive	-3.187424e-05
-5.02268	(Columbine),	0.001371873
-5.02268	(Constitution)	0.007187727
-5.02268	(Cossacks)	0.007716126
-5.02268	(D-Calif.),	0.01628911
-5.02268	(D-Conn.),	0.01628911
-5.02268	(D-Mobile)	-7.141499e-06
-5.02268	(Different	-3.187424e-05
-5.02268	(Europe,	-2.363015e-05
-5.02268	(FCIC)	-3.187424e-05
-5.02268	(FFL).	0.02306318
-5.02268	(Gun	-3.187424e-05
-5.02268	(Guns	-2.775222e-05
-5.02268	(He	0.0006013149
-4.846589	(Highest	0.005095903
-5.02268	(Hitler?,	-3.187424e-05
-4.32371	(I	0.002181157
-4.72165	(I'm	0.01669673
-5.02268	(IF	0.0007995049
-5.02268	(IM	0.0001536556
-4.846589	(If	-6.168739e-05
-5.02268	(Including	-2.981323e-05
-5.02268	(It	2.996025e-05
-5.02268	(It's	0.0003660816
-4.846589	(Just	0.001877946
-5.02268	(LOL)	2.789896e-05
-5.02268	(Limited	2.377639e-05
-5.02268	(Locke,	-3.187424e-05
-5.02268	(Moot	6.500372e-05
-5.02268	(Most	0.007716126
-5.02268	(NB:	6.706516e-05
-4.72165	(NRA	-4.519584e-05
-4.846589	(Not	0.001159559
-5.02268	(OD,	-3.187424e-05
-5.02268	(OPIC)	-3.187424e-05
-5.02268	(Obama)	0.0008986343
-4.846589	(Object)	0.0004409246
-5.02268	(PBGC)	0.007187727
-4.846589	(PPP)	0.000117102
-5.02268	(Part	-3.187424e-05
-5.02268	(Pushes	0.01628911
-5.02268	(Quran	-3.187424e-05
-5.02268	(R-Okla.)	0.007187727
-5.02268	(RPGs),	0.007187727
-5.02268	(Racism!)	0.02306318
-5.02268	(Really...there	0.005209846
-5.02268	(Remember)	0.0006797542
-5.02268	(SALW)	-3.187424e-05
-5.02268	(SDP)	0.005209846
-5.02268	(Scalia,	-3.187424e-05
-5.02268	(Secret	-3.187424e-05
-5.02268	(Small	-1.744698e-05
-5.02268	(Sorry	0.0004589217
-5.02268	(State	-2.981323e-05
-5.02268	(Stevens,	-3.187424e-05
-5.02268	(Such	0.001713174
-5.02268	(THE	-3.187424e-05
-4.72165	(Tenn.)	-9.562266e-05
-4.846589	(The	0.0001011646
-5.02268	(Thomas	-1.126373e-05
-5.02268	(Unless	5.225401e-06
-4.846589	(Unless,	0.007698129
-5.02268	(VA	-2.775222e-05
-5.02268	(WA)	0.0006219557
-5.02268	(WTVD)	-5.080389e-06
-5.02268	(WXYZ)	0.0004589217
-5.02268	(Which	9.347767e-06
-5.02268	(Yes	0.0004589217
-4.42062	(a	0.001983755
-4.545558	(a)	0.01377725
-4.846589	(a.k.a.	0.02304519
-5.02268	(accidental	-3.187424e-05
-4.846589	(according	0.01086097
-4.846589	(after	0.004080064
-4.846589	(again,	-1.840356e-05
-5.02268	(albeit	0.004413713
-5.02268	(all	-3.187424e-05
-5.02268	(already	-3.187424e-05
-5.02268	(although	0.01628911
-5.02268	(among	0.0004692384
-5.02268	(an	-2.156911e-05
-3.961982	(and	0.02416366
-5.02268	(anyone	0.0001474701
-5.02268	(apparently	0.01628911
-5.02268	(arguably	-3.187424e-05
-4.62474	(article	-0.0001274968
-4.32371	(as	0.02253682
-4.846589	(at	0.0001341548
-5.02268	(atrocities	0.0051139
-4.545558	(b)	0.002654191
-5.02268	(b):	0.003964189
-5.02268	(balance	0.007716126
-5.02268	(ballpark	4.438956e-05
-5.02268	(be	0.002603886
-5.02268	(because	0.01628911
-5.02268	(believe	0.002603886
-5.02268	(biological	0.007187727
-5.02268	(blue,	0.002798843
-4.846589	(born	0.005095903
-5.02268	(boxe	-3.187424e-05
-5.02268	(breaking	0.0003392648
-4.62474	(but	0.0007941884
-4.72165	(by	-9.562266e-05
-5.02268	(c)	-3.187424e-05
-5.02268	(choking),	-3.187424e-05
-4.846589	(closer	0.01086097
-5.02268	(commonly	5.263511e-05
-5.02268	(communist,	-3.187424e-05
-5.02268	(considered	0.01087897
-5.02268	(corporate	-3.187424e-05
-5.02268	(d)	-1.332482e-05
-5.02268	(defence	-3.187424e-05
-4.62474	(depending	0.001928278
-5.02268	(diapers)	0.0008903726
-5.02268	(drugs	0.005416411
-5.02268	(either	0.0003557673
-5.02268	(er,	-3.187424e-05
-5.02268	(especially	0.0007520138
-5.02268	(especially)	0.0001309755
-4.72165	(even	0.006315971
-5.02268	(evil	-5.080389e-06
-5.02268	(except	0.001713174
-5.02268	(false)	-3.187424e-05
-5.02268	(federal	-2.981323e-05
-5.02268	(fill	0.0051139
-4.846589	(for	0.01629163
-5.02268	(four	0.005209846
-5.02268	(freedom	0.007716126
-5.02268	(freedoms	0.007716126
-5.02268	(from	0.01628911
-5.02268	(government	0.005416411
-5.02268	(granted)	0.01087897
-5.02268	(guns)	0.001185823
-5.02268	(hidden	-9.580831e-07
-5.02268	(high	-1.744698e-05
-5.02268	(higher	0.0006219557
-5.02268	(hopefully).	0.02306318
-5.02268	(however	-3.187424e-05
-4.545558	(i.e.	0.0229912
-5.02268	(if	0.003964189
-4.093261	(in	0.02788604
-5.02268	(includes	0.0001433464
-4.62474	(including	0.01625817
-5.02268	(intentional	0.001872539
-5.02268	(internet)	0.007187727
-5.02268	(internet,	-2.775222e-05
-5.02268	(irony	-3.187424e-05
-4.72165	(it	0.006952312
-5.02268	(just	5.881934e-05
-5.02268	(lack	-2.981323e-05
-4.846589	(laugh	0.0006122152
-5.02268	(laws	-1.332482e-05
-4.846589	(left	0.001844824
-5.02268	(legal	-7.141499e-06
-5.02268	(legally	-3.187424e-05
-5.02268	(legally).	0.02306318
-5.02268	(like	0.001154822
-5.02268	(mama	0.000991588
-5.02268	(many	0.007716126
-5.02268	(me)	0.00104737
-5.02268	(middle	-3.187424e-05
-4.545558	(militia)	0.01871636
-4.846589	(militia).	0.02304519
-5.02268	(most	0.000737561
-5.02268	(most)	0.0009667986
-5.02268	(most?)	0.02306318
-5.02268	(mostly	-2.569118e-05
-5.02268	(my	-3.187424e-05
-5.02268	(necessaily)	-1.744698e-05
-5.02268	(newspaper	-3.187424e-05
-4.62474	(no	4.979071e-05
-4.846589	(no)	6.199212e-05
-4.846589	(nominal)	0.000117102
-5.02268	(nor	0.0006838831
-4.244529	(not	0.01855205
-4.846589	(numerous	-4.368818e-05
-5.02268	(objectively	-2.981323e-05
-5.02268	(occupy	-3.187424e-05
-4.846589	(of	0.001261448
-5.02268	(on	-9.202609e-06
-4.62474	(one	0.007634531
-3.961982	(or	0.03547699
-5.02268	(other	0.0006219557
-4.846589	(otherwise	0.0003610299
-5.02268	(paragraph	-2.569118e-05
-5.02268	(particularly	0.0006797542
-5.02268	(pathetic	-3.187424e-05
-4.72165	(people	0.0003807393
-4.846589	(perhaps	0.003955234
-5.02268	(plural)	-2.569118e-05
-5.02268	(political)	0.000176337
-5.02268	(pre-ban	-2.775222e-05
-5.02268	(primarily	2.789896e-05
-5.02268	(prior	0.01087897
-5.02268	(ratification	0.007716126
-5.02268	(real	0.001872539
-4.545558	(red,	0.00272686
-5.02268	(regulation).	0.02306318
-5.02268	(right	-3.187424e-05
-5.02268	(say	-3.187424e-05
-4.72165	(see	-9.150055e-05
-4.846589	(shot	0.007946671
-5.02268	(shudder)	0.01628911
-5.02268	(similar	0.01087897
-4.72165	(since	0.001190308
-5.02268	(smile)	-2.569118e-05
-5.02268	(so	0.01628911
-5.02268	(some	-5.080389e-06
-5.02268	(something	0.005416411
-5.02268	(sometimes	-2.569118e-05
-5.02268	(sources	4.85123e-05
-4.846589	(still	0.002930913
-5.02268	(stores).	0.02306318
-5.02268	(such	0.001713174
-5.02268	(symptom	1.140898e-05
-5.02268	(terrible)	-3.187424e-05
-4.42062	(that	0.007657861
-4.846589	(that's	0.001954552
-4.545558	(the	-0.0001325759
-5.02268	(there's	0.002798843
-4.846589	(they	0.00334409
-5.02268	(they're	0.001177556
-5.02268	(things	0.0008655885
-4.72165	(tho	0.0003197741
-5.02268	(those	0.007716126
-4.846589	(though	0.005255213
-5.02268	(too	-3.187424e-05
-5.02268	(typically	-2.156911e-05
-5.02268	(unbeknownst	0.01087897
-5.02268	(unconstitutional)	4.026684e-05
-5.02268	(undefined	0.001601446
-5.02268	(unintentional):78205	-3.187424e-05
-4.846589	(unless	0.001507529
-5.02268	(unlicensed)	-2.981323e-05
-5.02268	(upon	0.0004630484
-4.72165	(used	0.002415791
-4.846589	(usually	0.008804067
-5.02268	(very	-2.981323e-05
-5.02268	(welfare/	-3.187424e-05
-5.02268	(what	0.01628911
-5.02268	(when	3.202153e-05
-4.62474	(where	0.001694174
-5.02268	(whether	0.005416411
-4.42062	(which	0.009270546
-5.02268	(which,	0.000397026
-4.846589	(who	0.004742255
-4.846589	(with	0.001886228
-5.02268	(without	-1.744698e-05
-5.02268	(would	0.002494002
-5.02268	(yes!).	0.02306318
-5.02268	(yes)	0.0001907711
-4.72165	(yes,	0.008993207
-5.02268	(you	-3.187424e-05
-5.02268	(you)	0.00104737
-4.044956	)	0.04929882
-4.72165	),	0.008894303
-5.02268	).	0.02306318
-5.02268	)......	0.0001371609
-5.02268	):	4.026684e-05
-4.62474	*	0.0005573151
-4.209766	****	0.01706397
-5.02268	****,	0.003964189
-5.02268	****.	0.02306318
-5.02268	****hole,	-2.363015e-05
-4.42062	****ing	-4.58528e-06
-5.02268	****load	0.007716126
-5.02268	****t.	-2.156911e-05
-5.02268	****ty	0.00020933
-5.02268	****ty.	0.02306318
-5.02268	*2*	-3.187424e-05
-5.02268	*A	0.000168089
-5.02268	*The	0.0002052058
-5.02268	*This	0.005209846
-5.02268	*WAAAYYYY*	0.0008883069
-5.02268	*braces	-3.187424e-05
-5.02268	*competition*	0.0008903726
-5.02268	*flex	-3.187424e-05
-5.02268	*have*	-1.332482e-05
-4.846589	*image*	0.001935918
-5.02268	*shrug*	0.0006260836
-5.02268	*snort*	6.294222e-05
-5.02268	*taking	0.0001577794
-5.02268	*then*	0.001016379
-5.02268	*they*	5.225401e-06
-5.02268	*yawn*	-2.981323e-05
-5.02268	+	0.0004857457
-5.02268	+++)	0.001231295
-5.02268	+P	2.996025e-05
-5.02268	+P.	0.02306318
-4.093261	,	0.03074523
-5.02268	,,	0.0003619559
-5.02268	,,,gloves	0.0006838831
-5.02268	,but	9.386515e-05
-5.02268	,they	0.001260234
-2.943499	-	0.1185289
-4.147619	--	0.01118208
-4.478612	---	0.01531167
-5.02268	----	3.164226e-06
-5.02268	--------------------	0.0003557673
-5.02268	----------------------------------------------------------------------------------------------	-3.187424e-05
-5.02268	---------------------------------------------------------------------------------------------------------------------	-1.950805e-05
-5.02268	--all	0.007716126
-5.02268	--gun	0.0002175788
-5.02268	--violent	0.0002175788
-4.846589	-.	0.02304519
-5.02268	-Benjamin	-3.187424e-05
-5.02268	-Everyone	0.005416411
-4.32371	-VySky.	0.02291923
-4.369467	-You	0.003780067
-5.02268	-_-	-9.580831e-07
-5.02268	-are	-2.363015e-05
-5.02268	-can-	-3.187424e-05
-5.02268	-chuckles-	0.0002959489
-5.02268	-long-	0.0001660271
-3.328075	.	0.02132094
-4.545558	..	0.02443028
-3.743926	...	0.07351276
-4.545558	....	0.00772533
-5.02268	.....	0.007187727
-5.02268	....."	-3.187424e-05
-5.02268	.......	0.02306318
-5.02268	..........	0.02306318
-5.02268	.............Bet	-1.950805e-05
-5.02268	..........but	0.000595123
-5.02268	..........from	0.001272637
-5.02268	..........will	0.0003124496
-5.02268	.......and	0.001148622
-5.02268	.....and	2.789896e-05
-5.02268	....But...Anyone	0.00104737
-5.02268	....To	0.0001371609
-5.02268	....oh	-1.744698e-05
-5.02268	....throw	0.008821132
-5.02268	....wear	0.008821132
-5.02268	...Like	0.0003557673
-5.02268	...WHAT	-1.744698e-05
-4.72165	...and	0.003705031
-5.02268	...he	0.00154973
-5.02268	...or	0.0005352717
-5.02268	...well,	0.003964189
-4.846589	...which	0.005209314
-5.02268	..Federal	-3.187424e-05
-5.02268	..and	-3.187424e-05
-5.02268	..deceitful.."you	0.000991588
-5.02268	.00001%	0.007716126
-5.02268	.0257	0.007187727
-5.02268	.078	2.789896e-05
-5.02268	.094977	0.001704897
-4.545558	.22	0.00106044
-4.846589	.223	0.0124861
-4.846589	.223,	0.00716973
-5.02268	.223..	0.0001969573
-5.02268	.223/5.56x45	5.881934e-05
-5.02268	.22LR,	-3.187424e-05
-5.02268	.22s.	0.02306318
-5.02268	.300.	0.02306318
-4.846589	.308	0.005084161
-4.846589	.32	-3.132182e-05
-4.72165	.357	-7.913401e-05
-4.846589	.38	-3.695431e-05
-5.02268	.38,	0.00154973
-4.846589	.380	0.001519939
-4.846589	.40	0.001871736
-4.72165	.44	0.007142977
-4.282317	.45	0.01831358
-5.02268	.45's	0.007187727
-5.02268	.45's.	0.02306318
-5.02268	.45.	0.02306318
-5.02268	.45ACP,	-3.187424e-05
-5.02268	.46	-1.332482e-05
-4.846589	.60-caliber	-4.781023e-05
-4.846589	.67-caliber	4.082234e-05
-3.876552	/	0.001259687
-4.846589	0	0.01101842
-5.02268	0.	0.02306318
-5.02268	0.0025%	0.007716126
-5.02268	0.039	0.000135099
-5.02268	0.0602	-2.569118e-05
-5.02268	0.35	6.912665e-05
-4.846589	0.50	0.002383383
-5.02268	0.6),	0.001231295
-5.02268	0.72	-2.156911e-05
-5.02268	0.85).	0.02306318
-5.02268	0.x	-1.744698e-05
-5.02268	00	-3.187424e-05
-5.02268	0079234323252_180X180.jpg	-3.187424e-05
-5.02268	0200	-3.187424e-05
-3.92577	1	0.02062755
-5.02268	1"	-2.569118e-05
-5.02268	1")	0.001872539
-5.02268	1",	0.003964189
-4.478612	1%	0.008605643
-4.32371	1)	0.006996163
-4.42062	1,	9.423107e-05
-4.62474	1,000	7.45342e-05
-5.02268	1,070	-1.744698e-05
-5.02268	1,173	-3.187424e-05
-5.02268	1,300	8.561881e-05
-5.02268	1,361	-2.981323e-05
-5.02268	1,430,000	0.0051139
-5.02268	1,600+	0.0051139
-4.846589	1-	0.0005364235
-5.02268	1-2	0.000186647
-4.846589	1-3	0.0001692096
-5.02268	1-800-***-****	0.001148622
-5.02268	1-Y.	0.02306318
-4.32371	1.	0.03442043
-5.02268	1.)	0.02306318
-5.02268	1......	1.553142e-05
-5.02268	1.2	9.386515e-05
-5.02268	1.5	9.386515e-05
-4.846589	1.6	0.005209315
-5.02268	1.7B	-2.569118e-05
-4.72165	1/2	0.007883383
-5.02268	1/2"	0.01087897
-5.02268	1/4"	0.01087897
-4.846589	1/x	-4.368818e-05
-3.805196	10	0.03072592
-4.72165	10%	0.008192084
-5.02268	10+	0.000186647
-4.72165	10,000	0.009095402
-5.02268	10,000:	-2.569118e-05
-5.02268	10,129	0.007187727
-5.02268	10,6%	0.0001515938
-5.02268	10-15	5.225401e-06
-5.02268	10-year-old.	0.02306318
-4.62474	10.	0.0230092
-5.02268	10.2	0.000135099
-5.02268	10.3,	0.0051139
-5.02268	10.35	0.0004589217
-5.02268	10.54	0.001980196
-5.02268	10.6	3.614417e-05
-5.02268	10.7	-3.187424e-05
-4.209766	100	0.0004012371
-4.02268	100%	0.03300955
-5.02268	100,	0.0005352717
-5.02268	100,00)	-2.363015e-05
-3.981287	100,000	0.01642345
-4.282317	100,000)	0.002005792
-5.02268	100,000.	0.02306318
-5.02268	100...	0.001210625
-5.02268	1000	-2.569118e-05
-5.02268	1000,	-3.187424e-05
-5.02268	1000.	-2.981323e-05
-5.02268	100K+	6.706516e-05
-5.02268	100k	7.118812e-05
-4.72165	101	0.007159743
-5.02268	101.5	6.500372e-05
-5.02268	10:10:36	-2.569118e-05
-5.02268	10=	0.0001227285
-5.02268	10mm	-3.187424e-05
-5.02268	10mm.	0.02306318
-5.02268	10s	0.007716126
-5.02268	10th	-3.187424e-05
-4.846589	11	9.085572e-05
-4.846589	11%	0.003111501
-4.846589	11,	0.0001692096
-5.02268	11,000	0.003128811
-5.02268	11,004.	0.02306318
-5.02268	11-30	2.996025e-05
-4.846589	11.	0.02304519
-5.02268	11.08%	1.140898e-05
-5.02268	11/27/2012	-1.538591e-05
-5.02268	110	0.0008883069
-5.02268	110-11	-3.187424e-05
-5.02268	111	0.001982267
-5.02268	111.	0.02306318
-4.044956	12	0.02855056
-4.846589	12"	-4.932102e-05
-5.02268	12")?	0.02306318
-4.846589	12,	0.0001692096
-5.02268	12,500	-2.569118e-05
-4.72165	12.	0.02302719
-5.02268	120mph	0.001872539
-5.02268	123	0.000737561
-5.02268	1257	0.001980196
-5.02268	1280	-2.569118e-05
-4.478612	13	0.007415695
-4.72165	13%	0.02033238
-4.846589	13,	0.0001830846
-5.02268	13,000	8.768035e-05
-5.02268	13-15	2.996025e-05
-5.02268	13-Year-Old	-2.569118e-05
-5.02268	13.	0.02306318
-5.02268	13.This	0.005209846
-4.846589	1300's:	-3.956611e-05
-5.02268	13SF,	0.0004630484
-5.02268	13th	0.0001969573
-5.02268	13th,	-2.981323e-05
-4.545558	14	0.008843352
-5.02268	14,	-2.569118e-05
-5.02268	14,612	0.0051139
-4.846589	14.	0.02304519
-4.32371	14th	0.009208135
-5.02268	14th,	-2.156911e-05
-4.068438	15	0.01318755
-5.02268	15%	0.007716126
-5.02268	15's	0.001872539
-5.02268	15)	0.001872539
-5.02268	15).	0.02306318
-4.62474	15,	0.004571579
-5.02268	15-round,	-3.187424e-05
-4.72165	150	0.007667214
-5.02268	150,000	7.324965e-05
-5.02268	150-round	-1.950805e-05
-5.02268	154,	-3.187424e-05
-5.02268	154.	0.02306318
-5.02268	158.	0.02306318
-5.02268	15th	-3.187424e-05
-4.846589	15th,	0.007160113
-4.177582	16	0.00957422
-5.02268	16,333	0.0051139
-5.02268	16-	-3.187424e-05
-5.02268	16-year-old	0.0051139
-4.72165	16.	0.02302719
-5.02268	16.036	9.386515e-05
-5.02268	16.3	9.386515e-05
-4.846589	1600	-4.162715e-05
-5.02268	166	0.001371873
-5.02268	168	0.002958609
-4.62474	1680:	0.009072982
-5.02268	1688,	-3.187424e-05
-4.369467	17	0.0147176
-4.846589	17,	-6.168739e-05
-5.02268	17.	0.02306318
-5.02268	170,	-3.019236e-06
-5.02268	1718,	0.0004630484
-5.02268	1721:	0.0001165433
-4.846589	175	0.0001547749
-4.846589	1754:	-4.781023e-05
-5.02268	1774,	5.225401e-06
-5.02268	1774-75	0.01087897
-5.02268	1774.	0.02306318
-4.72165	1776	0.004283423
-5.02268	1776.	0.02306318
-4.72165	1780:	-5.701173e-05
-5.02268	1786	0.01087897
-5.02268	1786,	-2.363015e-05
-5.02268	1787,	-2.981323e-05
-4.846589	1788,	0.006105216
-5.02268	1789	0.005416411
-4.72165	1791	-9.562266e-05
-5.02268	1791,	0.0007974401
-4.846589	1791.	0.02304519
-4.846589	1792	0.007155922
-5.02268	1799,	0.001272637
-5.02268	1799-1806	7.286576e-06
-4.369467	18	0.009082911
-4.72165	18,	0.0001650884
-5.02268	18-year-old	0.005209846
-5.02268	18-year-olds?	0.02306318
-5.02268	18.	0.02306318
-4.72165	180	-5.495057e-05
-5.02268	180,000	0.0001474701
-5.02268	1804	0.001667652
-5.02268	1804,	0.007187727
-5.02268	1804.	0.02306318
-5.02268	1812.	0.02306318
-5.02268	1822,	0.001177556
-5.02268	1823	-2.363015e-05
-5.02268	1825.	0.02306318
-5.02268	18255	6.706516e-05
-5.02268	1829	-3.187424e-05
-5.02268	1836-1845.	0.02306318
-5.02268	1844,	0.002603886
-5.02268	1846	0.0051139
-5.02268	185	9.592671e-05
-4.846589	1860	0.0002578901
-5.02268	1860's...	0.001016379
-5.02268	187	3.164226e-06
-5.02268	1873	0.007187727
-5.02268	1880-90	-2.981323e-05
-5.02268	1893	0.01087897
-5.02268	18th.	0.02306318
-4.282317	19	0.003534813
-4.62474	19,	0.007946064
-5.02268	19,000	-2.981323e-05
-5.02268	19.2	0.000135099
-4.846589	1900s.	0.02304519
-5.02268	1903	0.007187727
-5.02268	1903).	0.02306318
-5.02268	1907	0.002247382
-4.545558	1911	0.005063002
-5.02268	1911's	0.001185823
-5.02268	1911's.	0.02306318
-5.02268	1911:	-2.981323e-05
-5.02268	1915-1917,	-3.187424e-05
-5.02268	192	9.386515e-05
-5.02268	1920"	-2.569118e-05
-5.02268	1927	0.0051139
-5.02268	1929	9.798833e-05
-5.02268	1929-1953,	3.164226e-06
-5.02268	1929:	0.001704897
-5.02268	1930's	0.000188709
-5.02268	1930.	0.02306318
-4.846589	1934	0.008102054
-5.02268	1935:	-1.950805e-05
-4.846589	1938.	0.02304519
-5.02268	1938:	-1.950805e-05
-5.02268	1939,	0.002603886
-5.02268	1939-1945,	-2.156911e-05
-5.02268	1939.	0.02306318
-5.02268	1940.	0.02306318
-5.02268	1940?	0.02306318
-5.02268	1941	-1.126373e-05
-5.02268	1948-1952,	3.164226e-06
-5.02268	1949	-3.187424e-05
-5.02268	1953)	0.007187727
-5.02268	1955,	-3.187424e-05
-5.02268	1955-75:	-3.187424e-05
-5.02268	1956	0.0007850505
-5.02268	1956:	-3.187424e-05
-5.02268	1959,	0.0003578301
-5.02268	1960	0.0004589217
-5.02268	1960's.	0.02306318
-5.02268	1960,	0.00154973
-5.02268	1960.	0.02306318
-5.02268	1960s	0.007187727
-5.02268	1963,	0.01628911
-5.02268	1964	-2.363015e-05
-5.02268	1964:	-2.775222e-05
-5.02268	1966,	-3.187424e-05
-5.02268	1967	-3.187424e-05
-5.02268	1967,	-1.538591e-05
-5.02268	1968.	0.02306318
-5.02268	1970:	-3.187424e-05
-5.02268	1970s,	-1.744698e-05
-5.02268	1971-1979,	-3.187424e-05
-5.02268	1974,	-1.744698e-05
-5.02268	1975-1977,	1.553142e-05
-4.846589	1977	0.01280019
-5.02268	1977,	0.008821132
-5.02268	1980).	0.02306318
-5.02268	1980s.	0.02306318
-5.02268	1981-1984,	9.347767e-06
-5.02268	1981.	0.02306318
-5.02268	1985	0.0006797542
-4.72165	1986	0.0008287069
-5.02268	1986.	0.02306318
-5.02268	1990,	0.0004444786
-5.02268	1990s	0.007187727
-5.02268	1991	0.001872539
-5.02268	1992.	0.02306318
-4.846589	1993	-5.550425e-05
-5.02268	1993,	0.01628911
-4.846589	1993.	0.02304519
-4.32371	1994	0.02052052
-5.02268	1996	0.0006797542
-5.02268	1996,	0.008821132
-4.846589	1997	0.01092329
-5.02268	1997...to	3.202153e-05
-4.72165	1998	0.005390336
-4.62474	1999	0.009793554
-4.846589	1999,	0.001263515
-5.02268	1999?	0.02306318
-5.02268	19th	-1.744698e-05
-5.02268	19yr	6.294222e-05
-5.02268	1:	0.0003330766
-5.02268	1:00	-3.187424e-05
-5.02268	1:10	-3.187424e-05
-5.02268	1A	0.0003557673
-5.02268	1k,	0.004413713
-4.369467	1st	0.0003956681
-4.846589	1st,	-4.725993e-05
-5.02268	1st?	0.02306318
-3.805196	2	0.007833213
-5.02268	2"	1.347019e-05
-5.02268	2%	0.007716126
-4.32371	2)	0.001748941
-4.62474	2,	0.0001470928
-4.846589	2,000	0.007719996
-5.02268	2,800	-3.187424e-05
-4.846589	2-	0.0005364235
-4.72165	2-3	6.516834e-05
-5.02268	2-3x/month.	0.02306318
-4.42062	2.	0.03445641
-5.02268	2.....	0.02306318
-5.02268	2.3	-3.187424e-05
-5.02268	2.5M	-2.775222e-05
-5.02268	2.Nonsense.The	0.000737561
-5.02268	2/3rds	0.007716126
-5.02268	2/3s	0.007716126
-4.044956	20	0.002000487
-4.846589	20,	0.0001774582
-4.846589	20,000	0.0003795976
-5.02268	20-	0.007187727
-4.72165	20-30	-2.815481e-05
-4.846589	20-inch	-4.781023e-05
-5.02268	20-year	-2.775222e-05
-5.02268	20-year-old	-3.187424e-05
-4.846589	20/20.	0.02304519
-4.32371	200	0.00122124
-4.62474	2000	0.004139179
-5.02268	2000,	-3.187424e-05
-5.02268	2000.	0.02306318
-4.846589	2001	0.007168495
-5.02268	2001,	0.008821132
-5.02268	2001.	0.02306318
-5.02268	2001...	0.01628911
-4.846589	2002	0.0001692096
-5.02268	2002.	0.02306318
-5.02268	2003,	0.0006797542
-5.02268	2004	0.01087897
-4.846589	2004,	0.01650998
-5.02268	2004.	0.02306318
-5.02268	2005	0.007187727
-5.02268	2005,	0.01628911
-4.846589	2005.	0.02304519
-4.846589	2006	0.01825212
-4.846589	2006,	0.0005322959
-5.02268	2006.	0.02306318
-4.62474	2007	0.002620328
-4.846589	2007,	0.002066381
-4.62474	2008	0.01101409
-4.846589	2008,	0.02375595
-4.72165	2009	0.008852222
-4.846589	2009,	0.0008977514
-5.02268	2009-2013).	0.02306318
-4.846589	2009-2015	1.656881e-06
-4.846589	2010	0.003441732
-5.02268	2010's	-2.569118e-05
-4.846589	2010,	0.01615896
-4.72165	2011	0.01149862
-4.72165	2011,	0.008793314
-4.545558	2011.	0.02297755
-4.545558	2012	0.007307862
-4.846589	2012).	0.02304519
-4.72165	2012,	0.008981744
-4.846589	2013	0.001712358
-5.02268	2013,	0.005416411
-4.846589	2013.	0.02304519
-4.545558	2014	0.0112965
-4.72165	2014,	0.01839029
-4.846589	2014.	0.02303153
-4.846589	2015	0.0002434526
-5.02268	2015,	0.0051139
-5.02268	2015-16,	1.103038e-06
-5.02268	2015.	0.02306318
-4.42062	2016	0.03760817
-5.02268	2016's	0.0004589217
-5.02268	2016),	0.000595123
-4.62474	2016,	0.001673478
-5.02268	2016.	0.02306318
-5.02268	2016:	0.001704897
-4.42062	2017	0.01022051
-5.02268	2017,	3.202153e-05
-4.846589	2017.	0.02304519
-5.02268	2017...guess	0.001063899
-4.478612	2018	0.01230393
-5.02268	2018,	0.002603886
-4.846589	2020	0.002708914
-5.02268	2020.	0.02306318
-5.02268	207	-2.775222e-05
-4.846589	209	-2.046479e-05
-4.72165	20th	-7.556159e-05
-4.478612	21	0.01334559
-4.846589	21,	-4.162715e-05
-5.02268	21-years	6.294222e-05
-4.846589	21.	0.02304519
-5.02268	214	9.592671e-05
-5.02268	217	0.000186647
-4.846589	21st	0.000437369
-4.369467	22	0.01260332
-5.02268	22%.	0.02306318
-4.846589	22,	2.900751e-05
-5.02268	22,000	0.001371873
-5.02268	22-250.	0.02306318
-5.02268	22.	0.02306318
-4.846589	22.2	0.001991826
-5.02268	222	5.881934e-05
-5.02268	229:	-3.187424e-05
-5.02268	22?	0.02306318
-5.02268	22nd	-2.569118e-05
-5.02268	22s	0.005209846
-4.62474	23	-0.0001007021
-4.846589	23,	-1.015854e-05
-5.02268	23,326	0.0051139
-5.02268	230	-7.141499e-06
-5.02268	232	-1.332482e-05
-5.02268	235.7k	0.001371873
-5.02268	236.9839	0.000135099
-5.02268	23rd,	-7.141499e-06
-5.02268	23rd?	0.02306318
-4.478612	24	9.628599e-05
-4.478612	24,	0.0001560967
-4.72165	24/7	0.007174414
-5.02268	24/7.	0.02306318
-5.02268	240	-2.363015e-05
-4.846589	243	-4.781023e-05
-5.02268	248	-2.569118e-05
-4.369467	25	0.005402423
-5.02268	25,	-5.080389e-06
-5.02268	25,000-50,000	5.469648e-05
-5.02268	25,2	0.000135099
-5.02268	25-year-old	-3.187424e-05
-4.846589	250	0.0001630233
-5.02268	251	-3.187424e-05
-4.62474	26	0.005193653
-4.846589	26,	3.463811e-05
-5.02268	260,000	8.768035e-05
-4.846589	27	0.001340013
-5.02268	27%.	0.02306318
-4.62474	27,	-2.704572e-05
-5.02268	270	9.386515e-05
-4.545558	28	0.005356433
-4.846589	28,	0.0002537651
-4.846589	29	0.0001630233
-4.72165	29,	0.0002239564
-5.02268	29.6	9.386515e-05
-5.02268	298	0.0008883069
-5.02268	2:	0.0003330766
-4.244529	2A	0.0171914
-5.02268	2A,	0.001063899
-5.02268	2A.	0.02306318
-4.72165	2A?	0.02302719
-4.846589	2a.	0.02304519
-3.255524	2nd	0.01219559
-4.62474	2nd,	0.007826395
-4.846589	2nd.	0.02304519
-5.02268	2ndA	0.005209846
-5.02268	2ndA,	-1.538591e-05
-3.832348	3	0.004471729
-5.02268	3"	-2.775222e-05
-5.02268	3",	0.001231295
-4.62474	3%	0.01897413
-4.478612	3)	0.007024511
-4.72165	3,	0.0001512133
-5.02268	3-	-2.981323e-05
-4.72165	3-D	-6.470592e-05
-5.02268	3-day	-3.187424e-05
-4.62474	3.	0.0230092
-5.02268	3.1	0.001371873
-5.02268	3.2	0.000135099
-4.846589	3.5%	0.009294469
-5.02268	3.6	0.000135099
-5.02268	3.9	0.0051139
-5.02268	3.Nonsense.	0.02306318
-5.02268	3/4	0.007716126
-3.876552	30	0.008639565
-5.02268	30%	0.007716126
-5.02268	30)	0.002247382
-4.545558	30,	0.0009565123
-5.02268	30,000	0.001980196
-5.02268	30-.06.	0.02306318
-5.02268	30-30.	0.02306318
-5.02268	30-round,	0.0004217832
-4.282317	300	0.002367112
-4.846589	300+	7.586815e-05
-5.02268	300,000	-2.775222e-05
-5.02268	3025	-3.187424e-05
-4.62474	31	-9.561815e-05
-4.846589	31,	3.463811e-05
-5.02268	31.5"	-2.981323e-05
-4.846589	310	7.586815e-05
-5.02268	310-320	9.386515e-05
-5.02268	312	-3.187424e-05
-5.02268	313	0.007716126
-4.846589	313-2222.	0.02304519
-5.02268	315+	9.386515e-05
-4.846589	32	0.002234177
-5.02268	32"	-2.981323e-05
-5.02268	32);	-2.775222e-05
-4.62474	32,	0.0004933263
-5.02268	32,000	3.614417e-05
-5.02268	32.509	-3.187424e-05
-5.02268	320	9.386515e-05
-5.02268	320+	9.386515e-05
-5.02268	33%	-2.981323e-05
-4.846589	33,	0.0002537651
-5.02268	33,000	7.324965e-05
-5.02268	3316),	0.00104737
-5.02268	33:	-3.187424e-05
-5.02268	34,	-3.187424e-05
-5.02268	35	-2.569118e-05
-4.72165	35%	0.015014
-4.846589	35,	0.0002537651
-5.02268	35,000	0.001371873
-5.02268	350	9.386515e-05
-5.02268	356	-3.187424e-05
-4.846589	356,000,000	0.0009886472
-4.545558	36	0.0006348714
-5.02268	36,	-1.744698e-05
-5.02268	365	1.140898e-05
-5.02268	37	1.103038e-06
-5.02268	37,	-2.775222e-05
-5.02268	37,000	0.001371873
-5.02268	374;	-2.775222e-05
-4.72165	38,	0.0002198313
-4.846589	39	0.0001547749
-5.02268	39%	0.007716126
-4.846589	394,	0.001012844
-5.02268	3:	0.0003330766
-5.02268	3:00	-2.775222e-05
-5.02268	3:37	-2.775222e-05
-4.62474	3D	-0.0001033128
-4.846589	3d	-5.550426e-05
-5.02268	3million	0.0002340765
-4.846589	3rd	0.000309457
-3.961982	4	0.008196424
-5.02268	4"	-3.187424e-05
-4.846589	4)	0.003078283
-4.846589	4,	0.0001830846
-5.02268	4,378	6.912665e-05
-5.02268	4,618	-2.775222e-05
-5.02268	4-6	-3.019236e-06
-4.478612	4.	0.02297321
-5.02268	4.1	0.0004589217
-5.02268	4.43%	0.01087897
-4.846589	4.7	0.005209315
-5.02268	4.You	0.001371873
-4.42062	40	0.002257295
-4.72165	40%	0.003108723
-5.02268	40+	-3.187424e-05
-4.72165	40,	0.0001435241
-5.02268	40,000	0.001371873
-4.72165	40.	0.02302719
-4.846589	400	-4.519882e-05
-5.02268	400-600	9.386515e-05
-4.846589	401-402	-4.781023e-05
-5.02268	40mm	-2.775222e-05
-5.02268	40sw	-1.950805e-05
-5.02268	41	-2.775222e-05
-4.846589	41,	0.0002537651
-5.02268	42	0.000186647
-5.02268	42,	0.0002010816
-5.02268	420	-3.187424e-05
-5.02268	43	-9.580831e-07
-4.846589	43,	0.0001830846
-4.846589	43-year	-4.932102e-05
-4.846589	44	7.642372e-05
-4.846589	44-barreled	-4.781023e-05
-5.02268	442..	-1.538591e-05
-5.02268	444,844	-2.981323e-05
-4.846589	446	0.0001954573
-5.02268	4473	3.82055e-05
-4.62474	45	0.0001879602
-5.02268	45'ers,	-2.981323e-05
-5.02268	45.	-2.363015e-05
-5.02268	450	-2.363015e-05
-5.02268	455,	-1.744698e-05
-5.02268	466	8.768035e-05
-4.846589	47	0.00237302
-5.02268	47,	5.057368e-05
-5.02268	47,173	-1.538591e-05
-4.846589	47.	0.02304519
-5.02268	472;	-3.187424e-05
-5.02268	476,	-2.363015e-05
-5.02268	48,	5.263511e-05
-4.846589	49	0.007724192
-4.72165	49%	-1.317316e-05
-5.02268	49,	0.0002010816
-5.02268	49,882	-2.569118e-05
-5.02268	490,119	0.0009667986
-5.02268	4k	0.0003763962
-5.02268	4rf	-2.775222e-05
-4.478612	4th	0.01646022
-5.02268	4th,	-3.187424e-05
-4.11959	5	0.02050357
-5.02268	5#	-1.332482e-05
-4.72165	5%	0.01197728
-5.02268	5%.	0.02306318
-5.02268	5)	0.001704897
-5.02268	5,	0.0007850505
-5.02268	5,000	0.001371873
-5.02268	5,300	1.103038e-06
-5.02268	5-10	0.0001948953
-5.02268	5-6	-7.141499e-06
-5.02268	5-year	-9.580831e-07
-4.545558	5.	0.02325368
-5.02268	5.1	9.386515e-05
-4.478612	5.56	0.009858795
-5.02268	5.There	0.0006838831
-4.093261	50	0.001424083
-5.02268	50's	0.0007024631
-5.02268	50,000	0.001980196
-5.02268	50,000)	-3.187424e-05
-5.02268	50-60	0.000186647
-4.72165	500	0.004441678
-5.02268	500%	0.007716126
-5.02268	500.	0.02306318
-5.02268	5000,	0.007187727
-5.02268	504	0.007187727
-5.02268	505	0.007716126
-5.02268	51,	5.263511e-05
-5.02268	52	7.286576e-06
-5.02268	52%	-2.981323e-05
-5.02268	53	-2.775222e-05
-5.02268	5400	-2.156911e-05
-4.846589	542	-4.781023e-05
-5.02268	549	-2.363015e-05
-5.02268	55	-2.981323e-05
-5.02268	55,	5.263511e-05
-5.02268	55-year-old	0.001980196
-5.02268	55.	0.02306318
-4.846589	554	7.840672e-06
-5.02268	556;	-3.187424e-05
-5.02268	56	9.386515e-05
-5.02268	56,135	-2.569118e-05
-5.02268	561	0.000172213
-5.02268	568-8000.	0.02306318
-5.02268	56906	-3.187424e-05
-5.02268	57	0.000186647
-5.02268	57.	0.02306318
-5.02268	570	-3.187424e-05
-4.846589	58	0.001353876
-5.02268	59,495	-2.569118e-05
-5.02268	5:45	-2.775222e-05
-5.02268	5th	-2.569118e-05
-4.478612	6	0.001025911
-4.72165	6"	0.002656324
-5.02268	6)	0.0002773863
-4.72165	6,	0.0006201485
-5.02268	6,500	0.001980196
-5.02268	6-7	-3.187424e-05
-5.02268	6-8	-2.363015e-05
-4.478612	6.	0.02297321
-5.02268	6.30	0.005209846
-5.02268	6.5	-3.187424e-05
-5.02268	6.6	0.000135099
-5.02268	6.76%.	0.02306318
-5.02268	6.They	-3.187424e-05
-4.846589	60	0.0001857069
-5.02268	60%	0.007716126
-5.02268	60,	0.007187727
-4.72165	60.	0.02302719
-5.02268	600	0.007187727
-5.02268	600fps	4.23282e-05
-5.02268	60Hz	-3.187424e-05
-5.02268	61,	0.0002010816
-5.02268	62	0.0002134543
-5.02268	63	-7.141499e-06
-5.02268	63%	0.007716126
-5.02268	630,000	0.001371873
-5.02268	636.	0.02306318
-5.02268	64	0.007187727
-4.846589	642	0.002246609
-5.02268	65	-2.981323e-05
-5.02268	65%	0.007716126
-5.02268	65mph.	0.02306318
-5.02268	67	0.000186647
-5.02268	67).	0.02306318
-4.846589	68	0.003358632
-5.02268	68)	-3.187424e-05
-5.02268	6th	0.0001660271
-4.244529	7	0.01641391
-5.02268	7%	0.007716126
-5.02268	7)	-2.981323e-05
-4.72165	7-shot	0.007137925
-4.846589	7.	0.02304519
-5.02268	7.2	0.000135099
-5.02268	7.5	1.103038e-06
-4.846589	7.5"	-5.138211e-05
-5.02268	7.If	0.01628911
-4.846589	70	0.0001547749
-5.02268	70%	0.007716126
-5.02268	70's,	8.561881e-05
-4.846589	70-year-old	9.085573e-05
-5.02268	700%	3.82055e-05
-5.02268	70s.	0.02306318
-5.02268	72%	0.0001082965
-5.02268	720p	-3.187424e-05
-5.02268	73%	0.0001515938
-5.02268	74%	0.007716126
-5.02268	741	-2.363015e-05
-4.62474	75	0.01092426
-4.72165	75%	0.007696589
-5.02268	75,	-3.187424e-05
-5.02268	7500	-2.156911e-05
-5.02268	755	-2.775222e-05
-5.02268	75mph	0.0007024631
-5.02268	76,	-1.744698e-05
-5.02268	77	0.001371873
-5.02268	78	1.347019e-05
-5.02268	780,000	0.000135099
-5.02268	7:14.	0.02306318
-4.11959	8	0.02495126
-5.02268	8)	4.026684e-05
-4.478612	8,	6.384873e-05
-5.02268	8,000	0.001371873
-5.02268	8-year-old-girl	-3.187424e-05
-4.72165	8.	0.02302719
-4.846589	80	-8.097262e-06
-5.02268	80%	0.0001330372
-5.02268	80's	0.001872539
-5.02268	80+	9.386515e-05
-5.02268	80,000	0.001371873
-4.846589	802	0.0004409246
-5.02268	80s	0.007187727
-5.02268	8100	0.0004589217
-5.02268	8108	0.002661949
-4.846589	8124	1.479645e-07
-4.846589	815	0.007690621
-5.02268	830	-2.569118e-05
-5.02268	832	0.007716126
-5.02268	835-YD9yW_St_4.jpg	0.000168089
-5.02268	84.5	-3.187424e-05
-5.02268	85%	0.0004589217
-5.02268	870	-3.187424e-05
-5.02268	88--Proceedings	0.007716126
-5.02268	89--	0.001704897
-5.02268	89:	2.377639e-05
-5.02268	8:00??	0.02306318
-5.02268	8:12-13	-2.775222e-05
-5.02268	8;	-2.775222e-05
-5.02268	8th	2.996025e-05
-4.42062	9	0.0001020995
-5.02268	9%,	-2.981323e-05
-5.02268	9,248.	0.02306318
-5.02268	9,903	0.0051139
-5.02268	9-0	-3.187424e-05
-5.02268	9-1-1	-3.187424e-05
-4.846589	9-and-11	-3.750505e-05
-4.846589	9-shot	-4.574922e-05
-4.72165	9.	0.02302719
-5.02268	9.0	0.000135099
-5.02268	9.9-11.24	0.0009667986
-5.02268	9/11).	0.02306318
-5.02268	9/11,	0.001016379
-4.846589	90	6.405374e-05
-4.478612	90%	0.007616211
-5.02268	90%.	0.02306318
-5.02268	90's	0.001231295
-5.02268	90's.	0.02306318
-5.02268	90's.It	0.000168089
-5.02268	90,	0.001030841
-5.02268	90s.	0.02306318
-5.02268	91.5	0.001371873
-4.846589	911	0.007155922
-5.02268	911,	-2.775222e-05
-5.02268	911....	2.789896e-05
-4.846589	92	7.840672e-06
-5.02268	92,	0.007187727
-5.02268	922(d),	0.002603886
-5.02268	922-23;	-2.981323e-05
-5.02268	93	0.000737561
-5.02268	93,	-2.156911e-05
-5.02268	95	0.0004444786
-4.62474	95%	0.00763961
-5.02268	95-98%	0.007716126
-5.02268	96%	0.007716126
-5.02268	97%	0.007716126
-4.72165	99%	0.00960512
-5.02268	99+%	0.007716126
-5.02268	99.x	-2.569118e-05
-5.02268	9:29)	-1.744698e-05
-5.02268	9MM,	-2.981323e-05
-3.943499	9mm	0.01375816
-4.62474	9th	0.0001693975
-4.093261	:	0.0004726189
-4.846589	:-).	0.02304519
-5.02268	:.	0.02306318
-5.02268	:P	0.000168089
-5.02268	:P.	-1.538591e-05
-5.02268	:You	0.0001247902
-4.42062	;	0.02064732
-1.285686	</s>
-5.02268	<75%	0.00154973
-99	<s>	0.004055755
-5.02268	<sigh>The	0.00020933
-3.961982	=	0.01309935
-5.02268	=>	2.377639e-05
-5.02268	>	-3.187424e-05
-5.02268	>90%	3.164226e-06
-3.876552	?	0.0225955
-4.42062	?.	0.02295521
-4.72165	??	0.02302719
-4.72165	??.	0.02302719
-4.72165	???	0.02302719
-5.02268	?To	-2.569118e-05
-5.02268	@	0.01628911
-5.02268	@Checkerboard	0.0006219557
-5.02268	@MailOnline	0.001982267
-5.02268	@everyone	3.614417e-05
-5.02268	@thread	0.000359893
-3.147619	A	0.006909208
-4.846589	A)	0.01625739
-4.846589	A,	-6.374842e-05
-5.02268	A----	2.996025e-05
-5.02268	A----As	0.008821132
-5.02268	A-10	0.004413713
-4.846589	A-10,	0.01736087
-5.02268	A-okay	0.001601446
-4.846589	A.	0.02303153
-5.02268	AA-12	0.0008986343
-5.02268	ABOVE	0.01628911
-5.02268	ABSOLUTELY!	0.02306318
-5.02268	ACA.	0.02306318
-5.02268	ACCIDENTAL	-3.187424e-05
-4.846589	ACP	-3.544398e-05
-5.02268	ACP.	0.02306318
-5.02268	ACTIVE	5.225401e-06
-4.72165	ACTUAL	-5.027737e-05
-5.02268	ADD/ADHD	0.001872539
-5.02268	ADHD	0.007187727
-5.02268	ADMINISTRATION	-1.126373e-05
-5.02268	AF	0.002958609
-5.02268	AFTER	0.001016379
-5.02268	AGAIN.	0.02306318
-5.02268	AHC	0.0003908369
-5.02268	AID.	0.02306318
-4.72165	AIDS	0.000929925
-5.02268	AIDS.	0.02306318
-5.02268	AIT	0.0051139
-5.02268	AJ	-7.141499e-06
-5.02268	AK	-2.981323e-05
-5.02268	AK's	0.0007995049
-4.846589	AK-47	0.006157483
-5.02268	AK-47,	-2.363015e-05
-5.02268	AK-47?	0.02306318
-5.02268	AK47	0.007187727
-5.02268	AK47's	0.0004630484
-5.02268	AK74.	0.02306318
-5.02268	AKs.	0.02306318
-4.177582	ALL	0.0177409
-5.02268	ALL!!!!.	0.02306318
-4.846589	ALONE.	0.02304519
-5.02268	ALSO	-2.569118e-05
-4.72165	ALWAYS	-9.356161e-05
-5.02268	ALWAYS.	0.02306318
-4.62474	AM	0.01147744
-5.02268	AMA	2.996025e-05
-5.02268	AMENDMENT	6.088078e-05
-5.02268	AMONG	-1.950805e-05
-4.244529	AND	0.02744567
-4.62474	AND,	0.00407258
-5.02268	ANPVS2.	0.02306318
-5.02268	ANSWER-ones	0.005416411
-4.42062	ANY	0.001911255
-5.02268	ANY,	-3.187424e-05
-4.72165	ANYONE	-3.997095e-05
-4.846589	AP	-4.043501e-07
-5.02268	AP,	0.0003248257
-5.02268	APPLIED	-1.950805e-05
-4.244529	AR	0.02001705
-5.02268	AR's	0.002661949
-5.02268	AR's...	0.0001577794
-4.846589	AR,	0.001249044
-5.02268	AR-14,	0.001177556
-4.044956	AR-15	0.0216057
-5.02268	AR-15'S	0.0004651116
-4.72165	AR-15's	0.005338158
-5.02268	AR-15's,	-2.775222e-05
-4.545558	AR-15,	0.008981313
-4.846589	AR-15.	0.02304519
-5.02268	AR-15?	0.02306318
-4.62474	AR-15s	0.01139277
-5.02268	AR-15s,	-3.187424e-05
-5.02268	AR-15s?.	0.02306318
-5.02268	AR-16,	0.007187727
-5.02268	AR-17!	0.02306318
-4.846589	AR.	0.02304519
-4.282317	AR15	0.04052849
-4.846589	AR15's	0.00716973
-4.62474	AR15.	0.0230092
-5.02268	AR15s	0.0051139
-4.545558	ARE	-3.362666e-05
-4.846589	AREN'T	0.02545314
-5.02268	ARGUE	2.583767e-05
-5.02268	ARGUMENT.	0.02306318
-5.02268	ARMED	-3.187424e-05
-5.02268	ARMS"	-2.775222e-05
-5.02268	ARV	0.005209846
-5.02268	AS	0.0002732614
-5.02268	ASAP."	0.02306318
-5.02268	ASIANS	0.003128811
-5.02268	AT	2.583767e-05
-5.02268	AT&T	-3.187424e-05
-4.32371	ATF	0.03850868
-5.02268	ATF.	0.02306318
-4.72165	ATF4473	0.002142242
-5.02268	ATF4473,	-9.580831e-07
-5.02268	ATF4473.	0.02306318
-5.02268	AUTHORS	7.324965e-05
-5.02268	AWAY.	0.02306318
-5.02268	AWB	0.007187727
-5.02268	AWB,	0.002603886
-5.02268	Aaaaaaah	-1.538591e-05
-5.02268	Abbott	-2.363015e-05
-5.02268	Abedowalo	-3.187424e-05
-5.02268	Abiding	-3.187424e-05
-5.02268	Abigail	-2.156911e-05
-5.02268	Abolishing	0.001210625
-4.846589	Abortion	0.0008998173
-5.02268	Abortion:627698	-2.981323e-05
-4.62474	About	0.01633094
-5.02268	Absolute	-2.775222e-05
-4.846589	Absolutely	7.436204e-05
-5.02268	Absolutely.	0.02306318
-5.02268	Abuse:14373	-3.187424e-05
-5.02268	Accident	-3.187424e-05
-5.02268	Accidental/unintendeddeaths,	0.0001742749
-4.846589	Accidentally	-4.781023e-05
-5.02268	Accidents	0.0051139
-4.244529	According	0.01069903
-5.02268	Accordingly,	-2.569118e-05
-5.02268	Accursed,	-3.187424e-05
-4.282317	Act	0.02017619
-5.02268	Act"	-3.187424e-05
-5.02268	Act".	0.02306318
-5.02268	Act's	2.377639e-05
-5.02268	Act,	0.007187727
-5.02268	Act.	0.02306318
-4.846589	Action	-5.550425e-05
-5.02268	Action.	0.02306318
-5.02268	Actor	-2.981323e-05
-5.02268	Acts)	1.347019e-05
-4.044956	Actually	0.03809677
-4.282317	Actually,	0.02595908
-5.02268	Actually...you're	0.01628911
-4.72165	Adam	-9.150056e-05
-5.02268	Adams	-2.569118e-05
-5.02268	Adams,	0.0002010816
-4.72165	Add	0.0164226
-5.02268	Addition	0.0051139
-5.02268	Additional	-2.156911e-05
-4.846589	Additionally,	0.01627879
-4.846589	Administration	0.001637863
-5.02268	Administration,	-2.775222e-05
-5.02268	Administration?	0.02306318
-5.02268	Admittedly,	8.355722e-05
-4.72165	Adolf	-5.137914e-05
-5.02268	Adolph	-1.538591e-05
-5.02268	Advanced	-3.187424e-05
-5.02268	Advantages	-3.187424e-05
-5.02268	Advertiser	7.286576e-06
-5.02268	Advisory	-7.141499e-06
-5.02268	Advocate	0.01087897
-5.02268	Advocate,	0.003964189
-4.545558	Affirmative	-4.187329e-05
-5.02268	Affordable	-3.187424e-05
-4.846589	Afghanistan	0.008108355
-5.02268	Afghanistan.	0.02306318
-4.478612	Africa	0.006871556
-5.02268	African	7.324965e-05
-4.846589	African-Americans	-4.932101e-05
-5.02268	African???	0.02306318
-4.044956	After	0.0234858
-4.478612	Again	0.02283383
-4.147619	Again,	0.03578511
-5.02268	Again...	-2.775222e-05
-5.02268	Again.....	-2.981323e-05
-5.02268	Again...we're	8.974192e-05
-5.02268	Agent	-1.332482e-05
-5.02268	Agonistes	-3.187424e-05
-5.02268	Agreed	5.225401e-06
-4.62474	Agreed,	0.01754293
-4.72165	Agreed.	0.02302719
-5.02268	Agreed....all	0.007716126
-5.02268	Agriculture	2.171513e-05
-4.846589	Ah,	0.02375595
-5.02268	Ahh...	-3.187424e-05
-5.02268	Ahhh....the	-3.187424e-05
-5.02268	Ahhhh,	0.005416411
-5.02268	Aikido	-2.363015e-05
-4.282317	Air	-0.0002028874
-5.02268	Airmen	2.171513e-05
-5.02268	Airplane,	-3.187424e-05
-5.02268	Airports	0.0005373353
-5.02268	Aisha	-3.187424e-05
-4.545558	Al	0.00010659
-5.02268	Al-Madinah,	-2.981323e-05
-4.545558	Alabama	-5.836608e-05
-5.02268	Alabama,	-2.981323e-05
-5.02268	Aladdin	0.0002134543
-5.02268	Alarm	-9.580831e-07
-4.62474	Alaska	0.01611781
-5.02268	Alaska,	0.001601446
-4.72165	Alaska.	0.02302719
-4.846589	Albania	-4.725993e-05
-5.02268	Alcohol:57481	-3.187424e-05
-5.02268	Alert	0.005416411
-5.02268	Alex	-2.569118e-05
-5.02268	Alexander	-2.775222e-05
-5.02268	Alexis	0.005209846
-5.02268	Algore	-2.569118e-05
-5.02268	Algore's	-2.981323e-05
-5.02268	Alinsky	-2.363015e-05
-4.846589	Alito	0.0002847041
-5.02268	Alito).	0.02306318
-3.62474	All	0.05230297
-4.478612	Allah	0.0133582
-5.02268	Allies	0.00154973
-5.02268	Allow	-1.538591e-05
-4.846589	Allowed"	-2.046478e-05
-5.02268	Allowed",	0.001872539
-5.02268	Allowing	-2.775222e-05
-4.62474	Almost	0.002051743
-4.846589	Along	0.002229385
-5.02268	Alright	6.294222e-05
-4.093261	Also	0.02639026
-4.068438	Also,	0.02837684
-5.02268	Also,there	0.0006838831
-4.32371	Although	0.01358628
-5.02268	Although,	0.0003557673
-4.72165	Always	0.007564414
-5.02268	Always.	0.02306318
-5.02268	Alzheimer's	-3.187424e-05
-4.846589	Am	0.004381882
-4.545558	Am.	0.0229912
-4.545558	Amazing	0.01769291
-5.02268	Ameircan	0.0003392648
-5.02268	Ameircans	0.002958609
-4.846589	Amend	0.01627111
-5.02268	Amendemnt	-2.569118e-05
-3.270632	Amendment	0.0896403
-5.02268	Amendment!	0.02306318
-4.846589	Amendment's	-5.138211e-05
-5.02268	Amendment).	0.02306318
-4.478612	Amendment,	0.01158118
-4.02268	Amendment.	0.02273935
-5.02268	Amendment.jpg	0.000168089
-4.72165	Amendment:	0.001819178
-4.846589	Amendment?	0.02304519
-4.72165	Amendments	0.01407063
-5.02268	Amendments."	0.02306318
-3.651612	America	0.04685727
-4.545558	America's	0.001991532
-5.02268	America)	0.0008883069
-4.42062	America,	0.01387032
-5.02268	America-	1.140898e-05
-4.02268	America.	0.02273935
-5.02268	America.	-3.187424e-05
-4.846589	America?	0.02304519
-5.02268	America?.	0.02306318
-3.263012	American	0.03070114
-5.02268	American"	0.00154973
-4.62474	American,	0.005248432
-4.72165	American.	0.02302719
-3.599434	Americans	0.06687692
-5.02268	Americans"	-1.126373e-05
-5.02268	Americans".	0.02306318
-4.42062	Americans,	0.00647748
-4.545558	Americans.	0.0229912
-5.02268	Americans..	0.0006219557
-5.02268	Ammendment.	0.02306318
-4.72165	Ammo	0.00119651
-5.02268	Ammunition	0.005209846
-5.02268	Amnesty	0.003128811
-5.02268	Amy	-2.981323e-05
-4.001491	An	0.0002099994
-5.02268	Anbar	-3.187424e-05
-2.885959	And	0.1219555
-4.147619	And,	0.0333991
-5.02268	And.........even	0.002050602
-5.02268	And...so	-1.950805e-05
-5.02268	Andalublue:	0.0008325455
-4.72165	Andrade,	-6.676711e-05
-5.02268	Andrea	-3.187424e-05
-4.72165	Andrew	-9.356161e-05
-5.02268	Andrews	5.225401e-06
-5.02268	Angeles	0.007187727
-5.02268	Angeles,	-3.019236e-06
-5.02268	Angeles.	0.02306318
-5.02268	Anger	1.140898e-05
-5.02268	Anglo:	-2.569118e-05
-5.02268	Anita	-2.156911e-05
-4.846589	Annual	3.931491e-05
-4.02268	Another	0.002398583
-4.846589	Anschutz	-5.75653e-05
-5.02268	Answer:	0.0006260836
-5.02268	Answered	0.001272637
-4.72165	Anti	5.073594e-05
-5.02268	Anticonstitutional	0.0003392648
-5.02268	Antifa	-9.202609e-06
-5.02268	Anxiety,	0.001872539
-3.943499	Any	0.01055552
-4.846589	Anybody	0.0001609611
-4.846589	Anymore	0.0006039587
-4.02268	Anyone	0.01540631
-4.72165	Anything	0.009413377
-4.72165	Anyway	0.01755449
-4.72165	Anyway,	0.005254687
-5.02268	Anyway,,	0.01628911
-5.02268	Anyways	0.005416411
-5.02268	Aorta	-3.187424e-05
-5.02268	Apart	0.001185823
-5.02268	Apocalypse	-2.981323e-05
-5.02268	Apostle.	0.02306318
-5.02268	Appalachian	-3.187424e-05
-4.62474	Apparently	0.01852423
-4.846589	Apple:	-6.374842e-05
-5.02268	Application	0.002247382
-5.02268	Applies	5.225401e-06
-5.02268	Apply	0.001210625
-5.02268	Apply"	-1.126373e-05
-5.02268	Appropriate	-1.538591e-05
-4.72165	April	0.008782796
-4.846589	Arabia.	0.02304519
-5.02268	Arceneaux	-3.187424e-05
-5.02268	Archduke	-3.187424e-05
-5.02268	Archive[GVA]),	0.007187727
-5.02268	Ardern.	0.02306318
-3.651612	Are	0.02539171
-5.02268	Areas	0.002247382
-5.02268	Aren't	0.002050602
-5.02268	Arent	-2.775222e-05
-4.846589	Argentina,	-4.313772e-05
-5.02268	Arguing	0.002661949
-4.478612	Arizona	0.01308726
-5.02268	Ark.	0.02306318
-4.846589	Arkansas	-2.664843e-05
-5.02268	Arkansas.	0.02306318
-5.02268	Arm	0.0005930589
-5.02268	Armament	0.002661949
-4.209766	Armed	-0.0001238071
-4.72165	Armenians	0.001690848
-4.72165	Arming	0.01633571
-5.02268	Armored	-3.187424e-05
-5.02268	Armory	-3.187424e-05
-5.02268	Armour	2.171513e-05
-4.369467	Arms	0.009124824
-5.02268	Arms"	0.003128811
-4.369467	Arms,	0.001998411
-5.02268	Arms.	0.02306318
-5.02268	Arms:	2.377639e-05
-5.02268	Armscor	2.996025e-05
-4.478612	Army	0.008478295
-5.02268	Army,	0.001872539
-5.02268	Arron	-3.187424e-05
-4.846589	Arsenal	0.005095903
-4.62474	Art.	0.0230092
-5.02268	Arthur	-3.187424e-05
-4.32371	Article	-0.0001106771
-5.02268	Articles	0.007716126
-5.02268	Articles:	3.164226e-06
-4.62474	Artillery	0.0005540956
-5.02268	Arts	0.0002815112
-3.270632	As	0.08463286
-5.02268	Asbergers	-3.187424e-05
-5.02268	Asians	0.007187727
-4.545558	Aside	0.001147513
-4.62474	Ask	0.01726397
-5.02268	Asking	-3.187424e-05
-5.02268	Aspergers	0.007187727
-5.02268	Ass	-3.187424e-05
-4.42062	Assault	0.0002901922
-5.02268	Assembly	-2.775222e-05
-5.02268	Associated	-3.187424e-05
-5.02268	Association	0.007187727
-5.02268	Association,	-2.981323e-05
-5.02268	Association.	0.02306318
-4.846589	Assuming	0.006642809
-5.02268	Astor	-3.187424e-05
-3.981287	At	0.02520242
-5.02268	Atchison	2.171513e-05
-5.02268	Atheist	0.00104737
-5.02268	Atmospheric	-3.187424e-05
-5.02268	Attacking	0.001272637
-5.02268	Attacks	7.286576e-06
-5.02268	Attend	-2.569118e-05
-5.02268	Attention!!	0.02306318
-5.02268	Auction	7.286576e-06
-5.02268	Audrey	-2.156911e-05
-5.02268	August	-2.981323e-05
-5.02268	Aulinskites	0.0008986343
-5.02268	Aulinsky	4.645092e-05
-5.02268	Aulinsky/Lennon	0.007187727
-4.62474	Aurora	0.008240127
-4.846589	Aurora,	0.005082075
-4.72165	Aussies	0.004520828
-4.044956	Australia	0.01861546
-5.02268	Australia).	0.02306318
-4.545558	Australia,	0.008750774
-4.72165	Australia.	0.02302719
-5.02268	Australia....	3.164226e-06
-4.846589	Australian	0.0005302319
-4.846589	Australian,	-3.956611e-05
-4.72165	Australians	0.003081731
-5.02268	Austria	-2.569118e-05
-5.02268	Austria,	8.149569e-05
-4.846589	Authorities	0.001340013
-5.02268	Authority	0.01087897
-5.02268	Authors	0.007716126
-4.72165	Auto	-8.943948e-05
-4.846589	Auto:	-5.550425e-05
-4.72165	Automatic	0.0002316437
-4.846589	Avoid	0.0009390654
-5.02268	Awakening	0.0051139
-5.02268	Away	1.347019e-05
-5.02268	Ayers	0.005209846
-5.02268	Ayers'	-2.775222e-05
-4.846589	Ayers,	0.01627665
-4.72165	Aymette	-2.609352e-05
-5.02268	B&E's	0.005209846
-4.846589	B)	0.00112296
-4.846589	B.S.	0.02304519
-5.02268	BA	0.001185823
-5.02268	BAD	-3.187424e-05
-5.02268	BARACK	-3.187424e-05
-4.846589	BARB	0.003955234
-5.02268	BARBARIAN	0.0008986343
-5.02268	BASIC	5.057368e-05
-5.02268	BATF?.	0.02306318
-5.02268	BATHTUB	-3.187424e-05
-4.72165	BB	4.455079e-05
-4.846589	BBC	0.005392937
-5.02268	BBs	0.002661949
-4.72165	BE	-3.790965e-05
-5.02268	BECAUSE	-2.981323e-05
-4.846589	BEFORE	7.999133e-05
-5.02268	BEG	-1.538591e-05
-5.02268	BG	5.057368e-05
-5.02268	BIG	-1.332482e-05
-5.02268	BILLION	-3.187424e-05
-5.02268	BLAME	2.583767e-05
-4.62474	BLM	0.001669338
-5.02268	BLM.	0.02306318
-5.02268	BLUE	-9.202609e-06
-5.02268	BM	2.789896e-05
-5.02268	BOGUS	-1.538591e-05
-5.02268	BOMBS.	0.02306318
-5.02268	BOTH	0.007716126
-5.02268	BOWES	-2.981323e-05
-5.02268	BREATH!.	0.02306318
-4.846589	BS	-4.725993e-05
-4.846589	BS,	0.01628521
-5.02268	BS-the	0.000595123
-4.72165	BS.	0.02302719
-5.02268	BS..............No	-9.202609e-06
-4.846589	BTW	0.001211835
-4.369467	BTW,	0.02636209
-5.02268	BTW.	0.02306318
-5.02268	BTW:	0.0006260836
-4.846589	BUT	0.004850636
-5.02268	BUT,	0.0004217832
-4.478612	BY	-0.0001314688
-4.545558	Back	0.01863104
-5.02268	Background	2.583767e-05
-4.72165	Bad	0.0001249648
-5.02268	Baghdad	4.23282e-05
-4.846589	Baker	0.0008667689
-5.02268	Bakers	0.002958609
-5.02268	Bakersfield	0.001872539
-5.02268	Balcombe	-2.363015e-05
-5.02268	Ballista	0.000168089
-4.846589	Baltimore,	0.0006767895
-4.62474	Ban	0.01742835
-5.02268	Bania	-1.744698e-05
-4.846589	Banned	0.0003218338
-5.02268	Banners	0.0007520138
-4.62474	Banning	0.01726528
-4.62474	Barack	3.686398e-05
-5.02268	Barking	-3.187424e-05
-5.02268	Barney	-3.187424e-05
-4.545558	Based	0.002683968
-5.02268	Basic	0.0003248257
-5.02268	Basically,	-1.950805e-05
-5.02268	Basically...we	0.0008655885
-5.02268	Bass	-2.981323e-05
-4.846589	Bath	0.0002083917
-5.02268	Baton	-3.187424e-05
-5.02268	Battle	0.0003041992
-5.02268	Baty,	-2.156911e-05
-5.02268	Bayer	0.0002134543
-5.02268	Bayer:	-3.187424e-05
-4.478612	Be	0.005378371
-5.02268	Beacon	-2.775222e-05
-5.02268	Bear	-3.187424e-05
-5.02268	Bear,	-1.538591e-05
-5.02268	Becauise	0.004413713
-3.670497	Because	0.05341646
-5.02268	Bed:344	-2.775222e-05
-5.02268	Bed:448	-2.981323e-05
-5.02268	Been	0.0001907711
-4.545558	Before	0.02609818
-5.02268	Begin	0.01087897
-5.02268	Behaving	0.0008986343
-4.32371	Being	0.01193083
-4.846589	Belgium	-5.344319e-05
-5.02268	Belief	0.0001536556
-4.846589	Believe	-1.634231e-05
-5.02268	Belize	-3.187424e-05
-5.02268	Ben	-3.187424e-05
-5.02268	Bend	0.0003021366
-5.02268	Bengazi	-1.538591e-05
-5.02268	Benghazi	-3.187424e-05
-4.72165	Benjamin	-7.968367e-05
-5.02268	Bennett,	-2.981323e-05
-5.02268	Bensonhurst,	-2.775222e-05
-5.02268	Benta,	-2.981323e-05
-4.846589	Beretta	3.519192e-05
-4.846589	Berger	4.96226e-05
-5.02268	Bernadette	-3.187424e-05
-5.02268	Bernardino	0.0001907711
-4.72165	Bernie	-8.943948e-05
-5.02268	Bernie?	0.02306318
-4.545558	Besides	0.01712418
-4.62474	Besides,	0.0114732
-5.02268	Best	-3.187424e-05
-5.02268	Bet	0.002050602
-4.42062	Beto	0.006857753
-5.02268	Beto's	3.614417e-05
-5.02268	Beto,	0.001231295
-5.02268	Beto.	0.02306318
-5.02268	Beto...got	0.0003372021
-4.282317	Better	0.0005023844
-5.02268	Beverly	-3.187424e-05
-5.02268	Beyond	0.01628911
-5.02268	Bias."	0.02306318
-4.846589	Bible	0.007187356
-5.02268	Bible,	0.00104737
-4.42062	Biden	0.007721716
-5.02268	Biden's	-2.775222e-05
-5.02268	Biden:.	0.02306318
-4.42062	Big	-0.0002071771
-5.02268	Bike	0.000359893
-3.792231	Bill	0.01428442
-4.846589	Bill,	-1.840356e-05
-4.846589	Billy	-5.962636e-05
-5.02268	Bingo.	0.02306318
-5.02268	Birds	-3.187424e-05
-5.02268	Bishop,	-3.187424e-05
-4.369467	Black	0.001150916
-4.478612	Blacks	0.0206199
-5.02268	Blacks,	-2.775222e-05
-5.02268	Blacks.	0.02306318
-4.72165	Blame	0.01625312
-5.02268	Blasting	-3.187424e-05
-5.02268	Blaze.	0.02306318
-5.02268	Blessings	0.007716126
-5.02268	Blind	-3.187424e-05
-5.02268	Bliss	-1.950805e-05
-5.02268	Blog	-3.187424e-05
-5.02268	Blood	-3.187424e-05
-5.02268	Bloomberg	-2.569118e-05
-5.02268	Bloomfield	4.23282e-05
-5.02268	Bloomfield,	0.008821132
-5.02268	Blow	0.002603886
-5.02268	Blunt	-2.156911e-05
-5.02268	BoR	-2.775222e-05
-5.02268	BoR.	0.02306318
-5.02268	Boarding	0.001177556
-5.02268	Bob	-3.187424e-05
-5.02268	Bob".	0.02306318
-5.02268	Bob,	0.001063899
-5.02268	Bobbie	-3.187424e-05
-5.02268	Body	-3.187424e-05
-5.02268	Boehner	0.0008903726
-5.02268	Boise	0.01628911
-4.846589	Bomb	0.0005110835
-4.846589	Bombs	6.405375e-05
-5.02268	Bond	0.005209846
-5.02268	Booker,	-2.775222e-05
-5.02268	Borst,	-3.187424e-05
-4.72165	Boston	-9.356161e-05
-4.093261	Both	0.00759575
-5.02268	Bothers	-2.775222e-05
-4.62474	Bottom	-3.378246e-05
-5.02268	Boulder	0.005209846
-5.02268	Bowman,	0.003964189
-5.02268	Boxer	-3.187424e-05
-4.62474	Boy	-0.000107435
-5.02268	Boy".	0.02306318
-5.02268	Boy's	0.000849067
-5.02268	Boy.	0.02306318
-5.02268	Boycotts	-1.126373e-05
-5.02268	Boys	0.001063899
-4.62474	Brady	0.0006398959
-5.02268	Brain	-2.981323e-05
-5.02268	Brainwashed	0.001601446
-5.02268	Brazil	0.0006013149
-5.02268	Brazil's	-2.981323e-05
-4.72165	Brazil,	0.002564409
-5.02268	Brazil.	0.02306318
-5.02268	Brazilian	0.0005373353
-5.02268	Breaking	-3.187424e-05
-5.02268	Breathalyzer	-3.187424e-05
-5.02268	Breitbart,	0.0004630484
-4.846589	Breivik	0.0002908922
-5.02268	Brennan,	0.001872539
-5.02268	Brentwood,	1.347019e-05
-5.02268	BretJ	-3.019236e-06
-5.02268	Bretagne,	0.002798843
-5.02268	Breton,	0.001185823
-5.02268	BrewerBob	-1.332482e-05
-5.02268	Breyer)	0.000737561
-5.02268	Briefing	-3.187424e-05
-5.02268	Bring	0.0003372021
-4.72165	Britain	0.007142116
-4.478612	Britain,	0.0236648
-5.02268	Britain.	0.02306318
-3.690241	British	0.01303959
-5.02268	British,	0.0004630484
-5.02268	Britisn	0.0008903726
-5.02268	Briton	0.00104737
-5.02268	Brits	8.561881e-05
-4.846589	Broderick	-6.374842e-05
-5.02268	Brooks	3.164226e-06
-5.02268	Brooks,	0.01628911
-5.02268	Brother!	0.02306318
-5.02268	Brothers	0.007187727
-4.32371	Broward	0.0002397658
-5.02268	Brown	0.0002113923
-5.02268	Brown.	0.02306318
-5.02268	Browning	-3.187424e-05
-5.02268	Bryan,	0.003964189
-5.02268	BryanVa.	0.02306318
-5.02268	Bucky,	0.001016379
-5.02268	Bull	-2.775222e-05
-5.02268	Bump	-2.363015e-05
-4.72165	Bundy	0.0002652095
-4.846589	Bureau	0.007766161
-5.02268	Burgundy"	0.007187727
-4.846589	Bush	0.00365787
-5.02268	Bushinoki.	0.02306318
-5.02268	Bushmaster	-2.775222e-05
-4.72165	Business	0.0001682709
-3.075737	But	0.1110381
-4.044956	But,	0.03713129
-5.02268	But....	0.02306318
-5.02268	Butchering	0.001371873
-5.02268	Buy	0.008821132
-3.908736	By	0.02078989
-4.846589	Byrd	0.007636073
-5.02268	C)	-3.187424e-05
-5.02268	C,	-3.187424e-05
-5.02268	C.F.R.	0.02306318
-5.02268	CAB	0.001704897
-5.02268	CAD	-2.981323e-05
-4.72165	CAN	0.001450848
-5.02268	CARE	-3.187424e-05
-5.02268	CBC	-2.363015e-05
-5.02268	CBS	1.347019e-05
-4.62474	CC	0.006323077
-5.02268	CCTV	-3.187424e-05
-4.32371	CCW	0.01348006
-4.846589	CCW,	0.004134167
-5.02268	CDC	4.645092e-05
-5.02268	CDC.	0.02306318
-5.02268	CEOs	0.002958609
-4.846589	CERN	-3.956611e-05
-5.02268	CERN)	0.002958609
-5.02268	CERTAINLY	-3.187424e-05
-5.02268	CFO	0.001030841
-5.02268	CHILDREN	-3.187424e-05
-5.02268	CHicago.	0.02306318
-5.02268	CIA,	4.026684e-05
-5.02268	CIC.	0.02306318
-5.02268	CIRCA	-3.187424e-05
-5.02268	CITED	0.001667652
-4.846589	CITIZENS	0.01085354
-5.02268	CIVIL	-3.187424e-05
-5.02268	CLASSIC...you	1.553142e-05
-5.02268	CLEAR	0.004413713
-5.02268	CNBC	0.000950273
-5.02268	CNC.	0.02306318
-4.42062	CNN	0.0005236481
-5.02268	CNNPolitics	0.0002897613
-5.02268	CO's,	-3.187424e-05
-5.02268	CO,	0.007187727
-5.02268	CO.,	-3.187424e-05
-5.02268	CO2	-2.775222e-05
-4.846589	COMMIT	7.840672e-06
-5.02268	COMPLETELY	-3.187424e-05
-5.02268	CONCEPT	0.007716126
-5.02268	CONGRESS.	0.02306318
-5.02268	CONSENT	0.007716126
-4.846589	CONTROL	0.007688522
-5.02268	CONTROL"	1.347019e-05
-5.02268	CONTROL.	0.02306318
-4.62474	COPS	0.001610771
-5.02268	COPS....	0.0006219557
-5.02268	COUNTRY	0.002247382
-4.846589	COURT	0.002928838
-5.02268	CPR?	0.02306318
-5.02268	CPRC:	-2.981323e-05
-4.846589	CPS	0.001635794
-5.02268	CPUSA	0.000737561
-5.02268	CQC	-2.981323e-05
-5.02268	CRIME.	0.02306318
-5.02268	CRIMES	-2.981323e-05
-5.02268	CRKT	-2.775222e-05
-5.02268	CRS	3.164226e-06
-5.02268	CRUE	-3.187424e-05
-5.02268	CRUX	0.007716126
-5.02268	CRW's	0.000172213
-4.846589	CSSO	-3.69543e-05
-4.62474	CT	0.001044767
-5.02268	CT.	0.02306318
-5.02268	CW-9	-3.187424e-05
-5.02268	CWPs	0.005209846
-4.846589	Ca.	0.02304519
-5.02268	Cabreenie	-2.775222e-05
-5.02268	Cadets,	-2.981323e-05
-5.02268	Cal	-2.981323e-05
-5.02268	Cal.	0.02306318
-5.02268	Cali	0.004413713
-5.02268	Caliber	9.347767e-06
-3.943499	California	0.02787276
-5.02268	California's	-3.187424e-05
-4.62474	California,	0.009041406
-4.32371	California.	0.02291923
-5.02268	California?	0.02306318
-5.02268	California.	0.02306318
-4.72165	Call	0.007652526
-5.02268	Cambodia	1.347019e-05
-5.02268	Camera"	-2.363015e-05
-5.02268	Cameras	0.007187727
-4.62474	Campus	0.0002849113
-5.02268	Campus"	0.0051139
-5.02268	Campus,	0.01628911
-5.02268	Campuses	1.140898e-05
-4.068438	Can	0.009288711
-4.209766	Can't	0.004336884
-4.11959	Canada	0.04216804
-5.02268	Canada!	0.02306318
-5.02268	Canada"	0.0051139
-4.545558	Canada,	0.01690975
-4.72165	Canada.	0.02302719
-5.02268	CanadaJohn	0.000359893
-4.369467	Canadian	-0.0002086804
-4.846589	Canadians	0.003234009
-5.02268	Cancer:340114	-3.187424e-05
-5.02268	Canda	0.005209846
-5.02268	Candian).	0.02306318
-5.02268	Candle	-2.981323e-05
-5.02268	Cape	-2.981323e-05
-5.02268	Capistrano	0.002603886
-5.02268	Capitalists	0.002958609
-5.02268	Capitol	0.0001536556
-5.02268	Captain	-3.187424e-05
-4.846589	Car	-5.75653e-05
-5.02268	Carannate's	2.377639e-05
-5.02268	Carbines,	0.004413713
-5.02268	Care	-3.187424e-05
-5.02268	Careful	0.003964189
-5.02268	Carnegie	-3.187424e-05
-5.02268	Carolina	-2.156911e-05
-4.846589	Carolina,	-4.725993e-05
-5.02268	Carolina.	0.02306318
-5.02268	Carr	0.0002650116
-5.02268	Carriers	0.003128811
-5.02268	Carrs	0.0001124199
-4.42062	Carry	0.0006345712
-5.02268	Carry....but	0.001177556
-5.02268	Carry.	-3.187424e-05
-4.72165	Carry:	-9.356161e-05
-4.846589	Carrying	0.01002373
-4.545558	Cars	0.01044986
-5.02268	Cars,trucks,trains,planes.....	0.0006219557
-5.02268	Cars/Trucks	-3.187424e-05
-5.02268	Cartel.	0.02306318
-5.02268	Cartels	0.001713174
-5.02268	Carter's	-2.775222e-05
-5.02268	Carter,	-2.363015e-05
-5.02268	Carter.	0.02306318
-5.02268	Case	0.0051139
-5.02268	Casper	0.003964189
-5.02268	Castille	0.0001907711
-5.02268	Castle	-3.187424e-05
-4.846589	Catawba	0.0005962802
-5.02268	Catawba,	0.01628911
-5.02268	Catawba_	0.0003330766
-5.02268	Catch-22	0.005416411
-5.02268	Catholics	0.000737561
-4.846589	Cause	0.006485856
-5.02268	Cell	-1.950805e-05
-5.02268	Cell,,,,,,now	-9.202609e-06
-5.02268	Census	0.0051139
-4.62474	Center	0.0004685589
-4.846589	Center,	0.009431374
-4.846589	Century	0.001788935
-5.02268	Century.	0.02306318
-4.72165	Certain	0.0009877747
-4.545558	Certainly	0.01325728
-4.846589	Certainly,	0.002068452
-4.72165	Chairman	0.007676821
-5.02268	Chanel	-2.775222e-05
-5.02268	Channel	3.202153e-05
-5.02268	Chapter	4.438956e-05
-4.72165	Charles	-8.943948e-05
-5.02268	Charley	-3.187424e-05
-5.02268	Charta!	0.02306318
-5.02268	Charts	0.007187727
-4.72165	Chatter	0.004403449
-4.846589	Chavez	-5.550425e-05
-5.02268	Chavez.	0.02306318
-4.846589	Cheap	-6.374842e-05
-5.02268	Check	0.0006302122
-5.02268	Checkpoints"	0.0004651116
-5.02268	Cheech	0.0005290805
-5.02268	Cheetos	4.23282e-05
-5.02268	Cheytac	-3.187424e-05
-5.02268	Chica	-2.363015e-05
-3.876552	Chicago	0.03051853
-5.02268	Chicago!"	0.02306318
-4.846589	Chicago's	-3.077082e-05
-4.11959	Chicago,	0.008217416
-5.02268	Chicago-style	0.001980196
-4.545558	Chicago.	0.0229912
-5.02268	Chicago...	-2.363015e-05
-5.02268	Chicago:	-2.981323e-05
-5.02268	Chicago?	0.02306318
-4.846589	Chief	0.007692719
-5.02268	Chihuahua.	0.02306318
-5.02268	Child	-2.156911e-05
-4.846589	Children	1.045473e-05
-5.02268	Children,	0.001713174
-4.42062	China	0.01738772
-5.02268	China,	-1.744698e-05
-5.02268	China.	0.02306318
-4.846589	Chinese	0.002926763
-4.846589	Chipotle	0.002242465
-5.02268	Choice	-2.156911e-05
-5.02268	Chong	-3.187424e-05
-4.478612	Chris	-0.0001340799
-5.02268	Chris'	0.000737561
-5.02268	Christ	1.103038e-06
-4.369467	Christian	0.01134404
-5.02268	Christian,	-3.187424e-05
-5.02268	Christian.	0.02306318
-4.72165	Christianity	0.000854969
-5.02268	Christianity.	0.02306318
-4.72165	Christians	0.001405345
-4.846589	Christians.	0.02304519
-5.02268	Christie	0.005209846
-5.02268	Christie's	1.553142e-05
-4.545558	Christmas	-0.0001130631
-4.846589	Christmas,	-4.781023e-05
-5.02268	Chris’	0.000737561
-5.02268	Chronicles	-3.187424e-05
-4.72165	Chuck	-9.562266e-05
-5.02268	Churchgoers	-2.981323e-05
-5.02268	Churchill....	0.000168089
-5.02268	Cincinnati	-2.569118e-05
-5.02268	Circle	0.0001557175
-5.02268	Cities,	0.007187727
-4.72165	Citizen	0.001850231
-5.02268	Citizen's	-2.775222e-05
-4.62474	Citizens	0.008747973
-5.02268	Citizens--meaning	0.008821132
-5.02268	Citizens.	0.02306318
-4.32371	City	0.01689954
-4.72165	City,	0.01287248
-4.846589	City.	0.02304519
-4.545558	Civil	3.485136e-06
-4.62474	Civilians	0.004804982
-5.02268	Civilians,	-3.187424e-05
-5.02268	Civilization	0.001667652
-5.02268	Clapper,	0.001872539
-5.02268	Clark	0.002661949
-4.846589	Class	0.0004270521
-4.62474	Clause	0.001650713
-5.02268	Cleansing",	0.0008325455
-4.42062	Clearly	0.03944243
-5.02268	Clearly,	0.0007024631
-4.72165	Cleveland	0.001022901
-5.02268	Cleveland’s	-3.187424e-05
-5.02268	Clifford	-3.187424e-05
-4.846589	Clifton	0.0004414958
-4.545558	Clinton	0.001823155
-5.02268	Clinton!	0.02306318
-5.02268	Clinton's	-2.569118e-05
-4.846589	Clinton,	2.076173e-05
-5.02268	Clintons	0.007187727
-5.02268	Clip	-3.187424e-05
-5.02268	Clipdraw	0.000991588
-5.02268	Cliven	-2.775222e-05
-5.02268	Close	0.001272637
-5.02268	Clown	0.007187727
-5.02268	Club"	0.004413713
-5.02268	Co	0.005209846
-5.02268	Co-Op	0.001872539
-5.02268	Co.	5.225401e-06
-5.02268	Coach	-2.981323e-05
-5.02268	Coal	-2.569118e-05
-5.02268	Coalition	0.01087897
-5.02268	Coast	0.001185823
-5.02268	Cocain,	-3.187424e-05
-5.02268	Cocaine	0.005209846
-4.846589	Cockrum	-8.097244e-06
-4.62474	Code	0.007649218
-5.02268	Code,	-2.981323e-05
-5.02268	Cody	-2.981323e-05
-5.02268	Cohen,	-2.775222e-05
-5.02268	Col-	-3.187424e-05
-5.02268	Cold	-2.569118e-05
-5.02268	Cole	-3.187424e-05
-5.02268	Collateral	-2.569118e-05
-4.62474	College	9.309279e-05
-5.02268	Colo.	0.001667652
-5.02268	Colombia	-3.187424e-05
-5.02268	Colonial	-1.538591e-05
-5.02268	Colonials	-2.569118e-05
-5.02268	Colonies	0.001185823
-4.42062	Colorado	0.00701995
-5.02268	Colorado,	0.001872539
-4.72165	Colt	0.01271324
-5.02268	Colt.	0.02306318
-4.62474	Columbia	0.001682574
-4.244529	Columbine	0.01189169
-5.02268	Columbine.	0.02306318
-5.02268	Columbine...people	0.003128811
-5.02268	Combat	0.005209846
-4.72165	Come	0.002144313
-5.02268	Comes	5.225401e-06
-4.846589	Comey,	-4.781023e-05
-4.846589	Coming	0.01209593
-5.02268	Commander	-2.775222e-05
-5.02268	Commander-in-Chief	0.007716126
-4.846589	Commandments	0.009724288
-5.02268	Commas	-3.187424e-05
-5.02268	Commerce	-2.569118e-05
-5.02268	Commercial	-9.202609e-06
-5.02268	Commission	-3.187424e-05
-5.02268	Commit	0.008821132
-5.02268	Committing	0.008821132
-4.478612	Common	0.001695442
-4.72165	Commonwealth	0.007676821
-5.02268	Commonwealth,	3.164226e-06
-4.72165	Communist	0.001829529
-4.846589	Community	-4.368818e-05
-5.02268	Compact	-7.141499e-06
-5.02268	Compare	0.001210625
-4.846589	Compared	0.003857476
-5.02268	Comparing	-3.187424e-05
-5.02268	Comparisons	0.005416411
-5.02268	Compression	-2.363015e-05
-5.02268	Compromise	0.002247382
-5.02268	Compton,	-1.538591e-05
-5.02268	Conceal	-1.950805e-05
-4.42062	Concealed	6.591892e-05
-5.02268	Concept	0.007716126
-5.02268	Concord	0.007187727
-5.02268	Confederation,	0.002603886
-4.846589	Confiscation	0.006778882
-5.02268	Congratulations	0.001982267
-3.81856	Congress	0.03838627
-5.02268	Congress's	-3.187424e-05
-4.545558	Congress,	0.003791085
-4.846589	Congress.	0.02304519
-5.02268	Congress......I	2.996025e-05
-4.846589	Congressional	-5.75653e-05
-4.72165	Connecticut	0.001192376
-4.846589	Connecticut,	0.007239752
-5.02268	Connecticut:	-3.187424e-05
-5.02268	Connersville	2.996025e-05
-5.02268	Connersville,	-2.981323e-05
-4.846589	Conquer	0.008803135
-4.846589	Conquest	0.00716973
-5.02268	Conservative,	-2.569118e-05
-4.62474	Conservatives	0.003816681
-4.846589	Consider	0.0173952
-4.62474	Considering	0.02125012
-5.02268	Conspicuously,	-2.569118e-05
-5.02268	Conspiracy	0.002958609
-5.02268	Constituent's	-3.187424e-05
-3.310873	Constitution	0.07208176
-5.02268	Constitution!	0.02306318
-5.02268	Constitution"	4.23282e-05
-5.02268	Constitution".	0.02306318
-5.02268	Constitution's	0.000849067
-5.02268	Constitution).	0.02306318
-3.876552	Constitution,	0.0499776
-5.02268	Constitution--the	8.149569e-05
-3.792231	Constitution.	0.02248765
-5.02268	Constitution...	0.001148622
-5.02268	Constitution......	0.0001227285
-5.02268	Constitution:	-3.187424e-05
-5.02268	Constitution;	-1.332482e-05
-4.846589	Constitution?.	0.02304519
-3.892346	Constitutional	0.00169611
-4.846589	Constitutional.	0.02304519
-5.02268	Constitutionalist	-3.187424e-05
-5.02268	Constitutionality	0.007716126
-5.02268	Constitutionally	-3.187424e-05
-5.02268	Constitutionally-protected	7.53111e-05
-5.02268	Constitutions	0.0051139
-5.02268	Construction",	0.007187727
-5.02268	Construction,	-3.187424e-05
-5.02268	Consumer	-3.187424e-05
-5.02268	Continental	-2.775222e-05
-5.02268	Continue	-3.187424e-05
-5.02268	Contract	0.002247382
-4.72165	Contrary	0.01084297
-5.02268	Contributions	0.002661949
-4.177582	Control	0.02086987
-5.02268	Control"	0.0002382011
-5.02268	Control".	0.02306318
-5.02268	Control.	0.02306318
-5.02268	Control...	-1.332482e-05
-5.02268	Controlling	-3.187424e-05
-5.02268	Convention	-3.187424e-05
-4.72165	Convention,	0.0098654
-4.846589	Conventions	0.007698129
-5.02268	Conversely,	0.001148622
-4.846589	Cook	0.01625739
-5.02268	Cook".	0.02306318
-5.02268	Cook,	0.003964189
-4.846589	Cookson	-4.781023e-05
-5.02268	Cool	-3.187424e-05
-4.72165	Cop	0.0009995757
-4.72165	Cops	0.001045632
-5.02268	Cops.	0.02306318
-4.62474	Cordelier	0.0003777571
-5.02268	Core	-1.744698e-05
-5.02268	Corn	-2.981323e-05
-5.02268	Corp	-3.187424e-05
-5.02268	Corporation's	-2.775222e-05
-5.02268	Corps	-3.187424e-05
-5.02268	Corral.....	1.103038e-06
-4.72165	Correct	2.393422e-05
-5.02268	Correct,	0.007187727
-4.846589	Correct.	0.02304519
-5.02268	Correct?	0.02306318
-5.02268	Correction,	0.0003557673
-5.02268	Correctional	-3.187424e-05
-5.02268	Correlation	0.0003248257
-5.02268	Corruption	-1.744698e-05
-5.02268	Cortez	0.007187727
-5.02268	Corvette.	0.02306318
-5.02268	Cosby's	-1.126373e-05
-5.02268	Cossack	-3.187424e-05
-5.02268	Cossacks	0.000737561
-5.02268	Costa	-2.981323e-05
-5.02268	Costas...	9.386515e-05
-5.02268	Cosway	0.007187727
-5.02268	Cosway.1	0.001704897
-4.62474	Cougarbear:	0.006177493
-4.62474	Could	0.006674643
-5.02268	Could've	3.82055e-05
-5.02268	Couldn't	0.008821132
-5.02268	Council	0.001667652
-5.02268	Count,	-9.202609e-06
-5.02268	Counter	-2.981323e-05
-4.846589	Countries	0.005386676
-4.72165	Country	0.005563613
-5.02268	Country!	0.02306318
-5.02268	Country!.	0.02306318
-5.02268	Country,	-2.981323e-05
-4.369467	County	0.005690686
-4.62474	County,	-7.802847e-05
-5.02268	Courage	-2.775222e-05
-5.02268	Cours-la-Reine	0.0051139
-3.81856	Court	0.03748697
-4.846589	Court's	1.251611e-05
-5.02268	Court,	0.002603886
-4.846589	Court.	0.02304519
-5.02268	Court."	0.02306318
-4.846589	Courts	0.000658209
-5.02268	Covenant	-2.981323e-05
-5.02268	Cowards	0.00104737
-5.02268	Coxe	0.001667652
-5.02268	Craigslist!.	0.02306318
-5.02268	Crashers,"	-3.187424e-05
-5.02268	Crawford	7.943414e-05
-5.02268	Crawford.	0.02306318
-4.846589	Crazy	0.007172687
-5.02268	Creator	0.002247382
-4.177582	Crime	0.01123923
-4.846589	Crime.	0.02304519
-4.478612	Crimefree	0.0002830673
-5.02268	Crimefree!	0.02306318
-5.02268	Crimes	1.553142e-05
-4.72165	Criminal	0.0004323248
-5.02268	Criminal,	-2.981323e-05
-4.209766	Criminals	0.01063228
-5.02268	Croatia,	-3.187424e-05
-5.02268	Crow	0.0051139
-4.846589	Crown	0.01119817
-5.02268	Cruikshank	-3.187424e-05
-4.846589	Cruikshank,	-4.781023e-05
-5.02268	Crusade'	4.23282e-05
-5.02268	Crusade'.	0.02306318
-5.02268	Crusades	-3.187424e-05
-4.209766	Cruz	0.01340825
-4.846589	Cruz's	-3.283198e-05
-5.02268	Cruz.	0.02306318
-5.02268	Cruz’s	-3.187424e-05
-5.02268	Crystal	-2.156911e-05
-5.02268	Cubans,	-2.156911e-05
-4.846589	Cultures	0.003096967
-4.846589	Cuomo	0.007183165
-5.02268	Custer	0.001667652
-5.02268	Custom	-3.187424e-05
-5.02268	Cyrus	-2.363015e-05
-5.02268	Czars	0.000737561
-4.846589	Czech	-4.368818e-05
-5.02268	D	-3.187424e-05
-5.02268	D,	-2.775222e-05
-5.02268	D-Calif.,	-1.126373e-05
-4.846589	D.C.	0.0071664
-5.02268	DA	0.001872539
-5.02268	DA?	0.02306318
-5.02268	DARE	-2.775222e-05
-4.545558	DC	0.008227243
-4.846589	DC's	0.001962199
-4.846589	DC.	0.02304519
-5.02268	DC?	0.02306318
-4.846589	DDD	0.001027903
-5.02268	DEA	-3.187424e-05
-5.02268	DEAD	-3.187424e-05
-5.02268	DEBATE	-3.187424e-05
-5.02268	DEFENDERS.	0.02306318
-5.02268	DEMOCRACY.	0.02306318
-5.02268	DEMOCRATS	-2.363015e-05
-5.02268	DESTROYS	0.01628911
-5.02268	DHS	0.01087897
-5.02268	DHS,,,not	0.0002897613
-5.02268	DIAMONDS	-2.363015e-05
-5.02268	DICTA	0.007187727
-5.02268	DIE	-2.775222e-05
-5.02268	DIFFERENT	-3.187424e-05
-4.846589	DIM	0.0006231147
-5.02268	DIMS	0.007187727
-4.846589	DIRECTV	0.00118083
-5.02268	DISCLAIMER:	0.004413713
-5.02268	DISENGAGED,	0.0008986343
-5.02268	DIY	0.0009667986
-5.02268	DNC	4.23282e-05
-4.369467	DO	0.003350438
-4.846589	DOES	5.786893e-05
-5.02268	DOESN'T.	0.02306318
-5.02268	DOJ	0.0002443879
-5.02268	DOLLAR	-3.187424e-05
-4.42062	DON'T	0.003720457
-5.02268	DONT	-3.187424e-05
-4.72165	DP	0.00721214
-5.02268	DR	0.005209846
-5.02268	DROWNINGS	-3.187424e-05
-5.02268	DSM-V	0.002494002
-4.369467	DUI	0.005420936
-5.02268	DUI,	0.01628911
-5.02268	DUI.	0.02306318
-5.02268	DUIs	3.82055e-05
-5.02268	DV	-1.126373e-05
-5.02268	Da	-3.187424e-05
-5.02268	Dad	-3.187424e-05
-5.02268	Dad's	0.0009667986
-5.02268	Daily	-3.187424e-05
-5.02268	DailyMail	0.001982267
-4.846589	Dakota	-5.550425e-05
-5.02268	Dallas,	-2.981323e-05
-5.02268	Dallas.	0.02306318
-4.62474	Damn	-3.473909e-05
-5.02268	Damnit	-3.187424e-05
-4.62474	Dan	0.008465008
-5.02268	Dana	-3.187424e-05
-5.02268	Dangerous	0.0001165433
-4.846589	Darwin	0.005086246
-5.02268	Dat!	0.02306318
-4.846589	Data	0.001950412
-5.02268	Date:	-2.363015e-05
-5.02268	Daughter?	0.02306318
-5.02268	Daughters	0.001185823
-4.369467	David	0.006981858
-5.02268	Davidian	3.614417e-05
-5.02268	Daviding	0.0006508539
-5.02268	Davies,	-2.363015e-05
-5.02268	Davis	0.005209846
-4.846589	Dawn"	0.002584478
-5.02268	Dax,	0.0001144816
-5.02268	Day.	0.02306318
-5.02268	Day:	0.0002732614
-5.02268	Dayland	-2.981323e-05
-5.02268	DeLauro	-3.187424e-05
-4.846589	Deals	0.001646139
-4.72165	Dean	-9.150055e-05
-5.02268	Death	-3.187424e-05
-5.02268	Debate	0.01628911
-4.72165	DebateChallenge	0.00713669
-5.02268	Debunked	0.001704897
-5.02268	Dec.	-3.187424e-05
-4.545558	December	0.001583052
-4.478612	Declaration	0.00769418
-5.02268	Dee	-3.187424e-05
-5.02268	Deep	-3.187424e-05
-5.02268	Deer	-2.156911e-05
-5.02268	Defeats	0.01628911
-4.846589	Defense	7.642368e-05
-5.02268	Defense"	0.004413713
-5.02268	Defense,	0.003964189
-5.02268	Defensive	0.0003186376
-5.02268	Define	0.01628911
-5.02268	Definitely	-3.187424e-05
-5.02268	Delicious	-3.187424e-05
-5.02268	Delinquency	-2.981323e-05
-4.62474	Dem	0.005389824
-5.02268	Demanding	0.005416411
-5.02268	Democracy.	0.02306318
-4.209766	Democrat	0.008822908
-5.02268	Democrat,	-3.187424e-05
-4.369467	Democratic	-2.313377e-05
-3.72165	Democrats	0.04710063
-5.02268	Democrats!	0.02306318
-4.846589	Democrats,	0.01627111
-5.02268	Democrats.	0.02306318
-5.02268	Democrats/liberals/progressives.	0.02306318
-5.02268	Demonstrate	-2.775222e-05
-5.02268	Demos	0.003128811
-4.545558	Dems	0.007849179
-5.02268	Dems.	0.02306318
-5.02268	Denial	0.001982267
-5.02268	Denver	0.007187727
-5.02268	Denver-area	-1.332482e-05
-5.02268	Denying	0.005416411
-4.545558	Department	0.007975164
-5.02268	Dependent	0.001982267
-5.02268	Depends	0.001982267
-5.02268	Deploying	2.789896e-05
-5.02268	Depot	0.005209846
-5.02268	Depts.,	0.0008986343
-4.545558	Despite	0.01975085
-5.02268	Destroy	0.01628911
-5.02268	Destroyer.	0.02306318
-5.02268	Detective	-2.569118e-05
-5.02268	Detectives	0.000347516
-5.02268	Detroit	0.0008986343
-4.62474	Detroit,	6.160574e-05
-5.02268	Detroit.	0.02306318
-4.846589	Devil's	-6.374842e-05
-5.02268	Devin	-3.187424e-05
-5.02268	DiFi's	-2.156911e-05
-5.02268	DiFi.	0.02306318
-5.02268	Diabetes	0.0006219557
-5.02268	Diabetes:43966	-3.187424e-05
-5.02268	Diana	-2.156911e-05
-5.02268	Diane	-2.156911e-05
-4.846589	Dianne	-3.956611e-05
-5.02268	Dick	-3.187424e-05
-5.02268	Dickerson,	-2.569118e-05
-5.02268	Dickey	0.0001969573
-4.846589	Dictatorship	0.01413973
-3.81856	Did	0.02970666
-4.62474	Didn't	0.001187388
-5.02268	Didn’t	0.0006549826
-5.02268	Die	0.001872539
-4.72165	Diego	0.0004447063
-5.02268	Diesel	0.007187727
-5.02268	Difference,	5.225401e-06
-5.02268	DifferentDrummr	0.0003330766
-5.02268	Digest	-2.981323e-05
-5.02268	Dime	0.005209846
-5.02268	Dims	0.01087897
-5.02268	Dings?	0.02306318
-5.02268	Dirt	-3.187424e-05
-5.02268	Disarm	0.0009688642
-4.62474	Disarmament	0.001613463
-4.846589	Discovery	0.005178022
-5.02268	Discovery,	-2.981323e-05
-5.02268	Disease:353133	-3.187424e-05
-5.02268	Disease:53768	-3.187424e-05
-5.02268	Disease:82165	-3.187424e-05
-5.02268	Disgusting	-2.363015e-05
-5.02268	Dish..	0.007187727
-5.02268	Disney.	0.02306318
-4.846589	Disneyland	0.001032036
-5.02268	Disrespect,	-2.981323e-05
-5.02268	Distributed.	0.02306318
-4.42062	District	0.008858096
-5.02268	Divide	0.001371873
-5.02268	Divisions	2.171513e-05
-3.524369	Do	0.01333199
-4.846589	DoJ	0.00298695
-5.02268	Doc,	0.004413713
-5.02268	Doc.	0.02306318
-4.369467	Doctor	-0.0002019484
-5.02268	Doctors	-2.363015e-05
-5.02268	Doctrine	0.007187727
-4.02268	Does	0.0262154
-4.62474	Doesn't	0.0006337015
-4.846589	Dog	1.045472e-05
-5.02268	Dogs	0.003128811
-5.02268	Doing	-1.950805e-05
-5.02268	Dome"	0.0001577794
-4.846589	Domestic	-5.138211e-05
-5.02268	Dominicans,	-2.569118e-05
-5.02268	Dominik	-3.187424e-05
-3.755508	Don't	0.009562794
-4.545558	Donald	-1.713295e-05
-5.02268	Dont	0.0001598413
-4.846589	Door	0.0006231148
-5.02268	Doris	-2.981323e-05
-5.02268	Doritos	0.002050602
-5.02268	Dork's	1.553142e-05
-5.02268	Double-Speak	0.00154973
-5.02268	Doubt	0.0003372021
-4.846589	Douglas	-5.138211e-05
-5.02268	Down	-2.775222e-05
