
\data\
ngram 1=19615
ngram 2=76343

\1-grams:
-4.703956	!	0.02234075
-4.703956	!!	0.02234075
-4.880047	!!!	0.02236289
-4.880047	!!!!.	0.02236289
-4.880047	!,	0.005182015
-4.482107	!.	0.02229647
-3.902323	"	0.032697
-4.880047	""	0.00479111
-4.880047	"...more	0.000694804
-4.880047	"..Orlando,	-3.569731e-05
-4.880047	"2	0.00258548
-4.880047	"50	-3.85596e-05
-4.703956	"A	-7.139444e-05
-4.703956	"AR"	0.00476897
-4.880047	"AR-15's	0.000422513
-4.880047	"Again..	0.02236289
-4.880047	"Airweight",	-2.997266e-05
-4.880047	"Among	0.01581529
-4.703956	"Anti	-7.711912e-05
-4.880047	"Article	0.01581529
-4.579017	"Assault	-0.0001070914
-4.880047	"Because	0.0008381837
-4.880047	"Black",	2.155255e-05
-4.880047	"Blessed	0.002974405
-4.880047	"British	1.582722e-05
-4.880047	"Bubba"	0.006958547
-4.880047	"But	0.001202581
-4.880047	"Can	0.00423576
-4.880047	"Cant	0.000528543
-4.880047	"Caught	0.001917919
-4.880047	"Christian	-3.85596e-05
-4.880047	"Climate	-3.85596e-05
-4.880047	"Conflict	0.007645559
-4.880047	"Conservatives"	-3.85596e-05
-4.880047	"Constitutional	-3.85596e-05
-4.880047	"Control	-3.85596e-05
-4.880047	"Cruz",	0.002671877
-4.880047	"Damn.	0.02236289
-4.880047	"Dead,	-3.85596e-05
-4.703956	"Democrat	-6.853207e-05
-4.880047	"Do	0.002671877
-4.880047	"Don't	-3.85596e-05
-4.880047	"Draw	-3.85596e-05
-4.880047	"Empowerment"	-2.997266e-05
-4.880047	"Empty	-3.85596e-05
-4.880047	"Escape	0.001027518
-4.880047	"Everyone	0.0009271032
-4.880047	"Everything	0.004120152
-4.880047	"Fact	0.005182015
-4.880047	"For	0.001073429
-4.880047	"GUN	-3.85596e-05
-4.226835	"Gun	0.0003209607
-4.880047	"Gunners.".	0.02236289
-4.880047	"Guns	0.0007865618
-4.880047	"Hawaii".	0.02236289
-4.880047	"He's	0.008786188
-4.880047	"Heavy	-2.711031e-05
-4.880047	"Hey,	0.00423576
-4.402926	"I	0.002359393
-4.880047	"I've	-3.85596e-05
-4.402926	"If	0.02015919
-4.880047	"In	0.008786188
-4.880047	"Inalienable	-3.283499e-05
-4.880047	"Indians	0.000720609
-4.880047	"Infringe"	0.001917919
-4.880047	"Inquisition"?.	0.02236289
-4.880047	"It	0.005182015
-4.880047	"It's	0.002671877
-4.880047	"Jim	-3.85596e-05
-4.880047	"Just	0.0007034055
-4.880047	"Kids,	1.010198e-05
-4.880047	"Lalalalalalalala,	-3.569731e-05
-4.880047	"Law	-3.85596e-05
-4.880047	"Left"	0.0001475288
-4.703956	"Liberal	9.389091e-05
-4.880047	"Looking	0.001041865
-4.880047	"Media"	1.29646e-05
-4.880047	"Militia"	0.005182015
-4.880047	"Militias"	0.002090466
-4.880047	"Minority",	-3.85596e-05
-4.880047	"More	5.018028e-05
-4.880047	"Most	-3.85596e-05
-4.880047	"Mustang,	0.008786188
-4.880047	"My	0.0008181081
-4.880047	"NGRAC"--No	-3.85596e-05
-4.880047	"NO"	-3.85596e-05
-4.880047	"NRA	-3.85596e-05
-4.880047	"Nanny	-3.85596e-05
-4.226835	"No	0.0006749566
-4.880047	"No,	0.002801506
-4.703956	"Not	0.007776114
-4.880047	"Now,	-1.279829e-05
-4.880047	"OMG	-3.85596e-05
-4.703956	"Obama's	-5.708239e-05
-4.880047	"Of	0.01581529
-4.880047	"Open	-3.85596e-05
-4.880047	"Out	0.007645559
-4.880047	"Possessing	9.598859e-05
-4.880047	"Possible	-3.85596e-05
-4.880047	"Public	-3.85596e-05
-4.880047	"Publius"	0.0007034055
-4.880047	"Pursuant	0.01066556
-4.880047	"R"	0.000597333
-4.880047	"Radical"	0.0006632671
-4.880047	"Reasonable	0.001915043
-4.880047	"Relying	7.880997e-05
-4.703956	"Rights"	0.001850634
-4.880047	"Ruger's	2.441524e-05
-4.880047	"Ruger,	0.0001074414
-4.703956	"SALE	-7.711912e-05
-4.880047	"SHALL	3.014069e-05
-4.880047	"Saturday	-1.566071e-05
-4.880047	"Second	0.0002735416
-4.880047	"Shall	0.002671877
-4.880047	"Should	3.872897e-05
-4.880047	"Skilled"	7.880997e-05
-4.880047	"So...?"	0.02236289
-4.880047	"Some	0.0002993213
-4.880047	"Sorry	0.0008525246
-4.703956	"State	-4.35259e-05
-4.880047	"Stop	0.01581529
-4.880047	"Surely	0.001139436
-4.880047	"Tax	-2.424793e-05
-4.880047	"Thank	-3.85596e-05
-4.579017	"That	0.01578016
-4.880047	"That's	-3.85596e-05
-3.766104	"The	0.002680064
-4.703956	"There	0.005911893
-4.880047	"They	-3.85596e-05
-4.880047	"They"	0.002974405
-4.579017	"This	0.006098753
-4.880047	"Thread:	4.376793e-06
-4.880047	"Thumpers".	0.02236289
-4.880047	"Today	0.0008525246
-4.880047	"Too	0.0002735416
-4.880047	"Totalitarians".	0.02236289
-4.880047	"Trump	0.005182015
-4.880047	"UNINTENTIONAL"	-3.569731e-05
-4.880047	"UNIVERSAL	-3.85596e-05
-4.880047	"Um...	0.001139436
-4.880047	"Un-nice	-4.210838e-06
-4.880047	"Used	0.01066556
-4.880047	"WASHINGTON	-3.85596e-05
-4.880047	"WTF	0.000720609
-4.335979	"We	0.001854663
-4.880047	"We're	-1.566071e-05
-4.880047	"Well	0.0005170789
-4.880047	"Well,	0.001073429
-4.880047	"What	0.001130825
-4.880047	"When	0.00479111
-4.703956	"Why	0.00241739
-4.335979	"You	0.004343906
-4.880047	"You",	7.23938e-06
-4.880047	"\~~	1.010198e-05
-4.703956	"a	8.606393e-05
-4.880047	"a"	0.0002019389
-4.880047	"access	0.01066556
-4.880047	"according	0.01066556
-4.880047	"acquisition"	0.007645559
-4.880047	"acts	-4.210838e-06
-4.880047	"added	-3.85596e-05
-4.880047	"adults"	0.0009615284
-4.880047	"advanced	-3.85596e-05
-4.880047	"aha	-3.85596e-05
-4.880047	"airport	-3.85596e-05
-4.880047	"all	-3.85596e-05
-4.880047	"already	0.01581529
-4.880047	"americans	0.002974405
-4.880047	"an	0.0001074414
-4.880047	"apples	0.01066556
-4.880047	"armed	0.0001274846
-4.880047	"arms"	0.00479111
-4.880047	"as	-3.85596e-05
-4.482107	"assault	-0.0001177797
-4.880047	"attackers"	0.002974405
-4.880047	"authorities"	-2.997266e-05
-4.880047	"automatic	-3.85596e-05
-4.703956	"ban	-6.853207e-05
-4.880047	"based	0.001917919
-4.880047	"be	0.0001045782
-4.880047	"bearing	0.0001962113
-4.880047	"because	0.0008381837
-4.703956	"being	0.0009459341
-4.880047	"belonging",	0.001202581
-4.880047	"best	0.006958547
-4.880047	"blew	-3.85596e-05
-4.880047	"bolt	-3.85596e-05
-4.703956	"boosting"	0.001155427
-4.880047	"brandish,"	0.000528543
-4.880047	"brandishing"?	0.02236289
-4.880047	"bubba"	0.0009615284
-4.880047	"bugging	-3.85596e-05
-4.880047	"bullet	-3.85596e-05
-4.880047	"buy	-3.85596e-05
-4.880047	"camp	-3.283499e-05
-4.880047	"can't	-4.210838e-06
-4.880047	"carry"	0.008786188
-4.880047	"challenges"	-2.424793e-05
-4.880047	"changed";	0.00479111
-4.880047	"choosing	-2.997266e-05
-4.880047	"christians"	0.002951347
-4.703956	"citizen	-7.711912e-05
-4.880047	"clarified,"	0.0009615284
-4.880047	"clips",	1.29646e-05
-4.703956	"collusion"	0.0006591213
-4.579017	"combat".	0.02231861
-4.880047	"comfort".	0.02236289
-4.880047	"community"	0.001771308
-4.880047	"compassionate	-3.85596e-05
-4.880047	"compromising"	0.006958547
-4.880047	"conflated"	0.0007435479
-4.703956	"convenient"	-5.211302e-05
-4.880047	"convenient?"	0.02236289
-4.880047	"cop	-3.283499e-05
-4.880047	"crappin'	0.001076299
-4.880047	"crisis".	0.02236289
-4.880047	"dance"	0.0007435479
-4.703956	"dealing	0.002068325
-4.880047	"death	0.006958547
-4.880047	"declaratory	-3.283499e-05
-4.880047	"democratic".	0.02236289
-4.703956	"detailing"	6.60206e-05
-4.703956	"direct	-7.711912e-05
-4.880047	"diverse"	0.005182015
-4.482107	"do	-0.0001485131
-4.482107	"don't	0.0004644807
-4.880047	"door	0.005182015
-4.880047	"doubling"	0.008786188
-4.880047	"dropped	0.01581529
-4.880047	"drug	-3.85596e-05
-4.880047	"due	-3.85596e-05
-4.880047	"easier	-3.85596e-05
-4.880047	"educated.".	0.02236289
-4.880047	"empowerment"	0.0009328405
-4.880047	"enemies	0.007645559
-4.880047	"enforce	0.01581529
-4.880047	"enslave"	0.01581529
-4.880047	"entertainment."	0.02236289
-4.880047	"ever	7.594687e-05
-4.880047	"every	-3.85596e-05
-4.703956	"exactly	0.001051289
-4.880047	"excessive	0.006958547
-4.880047	"executive	-3.85596e-05
-4.880047	"exterminate"	0.006958547
-4.703956	"extremely	-7.711912e-05
-4.880047	"face",	-1.566071e-05
-4.880047	"faction"	2.441524e-05
-4.880047	"failure	0.01066556
-4.880047	"fairness",	0.0003795353
-4.880047	"far	0.0008123722
-4.880047	"fire"	0.006958547
-4.880047	"first	0.0002907279
-4.703956	"for	-6.566968e-05
-4.880047	"freedom	0.007645559
-4.880047	"from	0.008786188
-4.880047	"gang	-3.85596e-05
-4.880047	"gifts",	-1.566071e-05
-4.880047	"giving	0.0005371411
-4.880047	"going	-3.85596e-05
-4.880047	"good	-3.85596e-05
-4.880047	"government	-9.935799e-06
-4.880047	"government"	-3.85596e-05
-4.880047	"government".	0.02236289
-3.902323	"gun	5.485836e-05
-4.880047	"gun-grabber"	0.001917919
-4.880047	"gunfire	-3.85596e-05
-4.703956	"guns	5.743086e-05
-4.880047	"guns"	0.000720609
-4.880047	"ha	0.01066556
-4.880047	"had	0.01066556
-4.880047	"ham	-3.85596e-05
-4.880047	"handguns	0.0004053213
-4.579017	"high	-6.777168e-05
-4.880047	"home	-3.85596e-05
-4.880047	"home-grown."	0.02236289
-4.880047	"homicide"	0.005182015
-4.880047	"human"	2.155255e-05
-4.880047	"hustling"	0.001076299
-4.880047	"hysterically	-3.85596e-05
-4.703956	"if	0.004966846
-4.880047	"ignore"	0.0003136442
-4.880047	"ignored"	0.000597333
-4.880047	"in	-3.85596e-05
-4.880047	"in"credible	0.000101715
-4.880047	"inalienable	-3.85596e-05
-4.880047	"independent	0.007645559
-4.880047	"individual	-3.85596e-05
-4.703956	"infringe"	0.005386936
-4.703956	"infringed"	0.01062714
-4.880047	"innocent"	0.00124277
-4.880047	"intelligence	-3.85596e-05
-4.880047	"introduction	0.007645559
-4.703956	"it's	0.01142585
-4.880047	"judicial	-3.85596e-05
-4.880047	"jurisprudence"	0.005381947
-4.703956	"just	0.0001175624
-4.880047	"keep	0.01581529
-4.880047	"killing	0.00118823
-4.880047	"know"	0.005381947
-4.880047	"knowing"	0.005381947
-4.880047	"law".	0.02236289
-4.880047	"learning"	-1.852315e-05
-4.703956	"legal	0.0001146988
-4.703956	"legally"	-7.711912e-05
-4.703956	"legitimate	-7.711912e-05
-4.880047	"liberals	0.0004626295
-4.880047	"license	0.01066556
-4.880047	"like	0.000322238
-4.880047	"limit	3.014069e-05
-4.880047	"liscense	0.01066556
-4.880047	"litigation	-3.85596e-05
-4.880047	"live	0.002090466
-4.880047	"living,	-3.283499e-05
-4.579017	"logic"	0.0163179
-4.880047	"logic",	0.004120152
-4.880047	"looks	-3.85596e-05
-4.880047	"lying"	0.001041865
-4.880047	"m"	0.002951347
-4.880047	"machine	0.001915043
-4.880047	"magazine	-3.85596e-05
-4.880047	"make	0.008786188
-4.703956	"man	0.005143525
-4.880047	"manslaughter".	0.02236289
-4.880047	"manual	-3.569731e-05
-4.880047	"many	3.300342e-05
-4.703956	"mass	-7.425679e-05
-4.880047	"massacres"	0.005381947
-4.880047	"massive	-3.85596e-05
-4.703956	"may	-5.783767e-05
-4.703956	"mental	-1.12807e-05
-4.703956	"mentally	-7.711912e-05
-4.880047	"mentally"	1.29646e-05
-4.880047	"merit",	0.0003394264
-4.880047	"militia"	0.005182015
-4.880047	"militia."	0.02236289
-4.880047	"militias"	0.001041865
-4.880047	"mind	-3.85596e-05
-4.880047	"minority	-2.424793e-05
-4.880047	"mission	-3.85596e-05
-4.880047	"morally	8.167298e-05
-4.880047	"more	-3.85596e-05
-4.880047	"most")	0.002974405
-4.880047	"mugging".	0.02236289
-4.880047	"murder""	0.001771308
-4.880047	"murders"?	0.02236289
-4.880047	"murse"	5.018028e-05
-4.880047	"mysterious"	-2.138554e-05
-4.880047	"native	-3.569731e-05
-4.880047	"needed"	0.0003537506
-4.880047	"needed".	0.02236289
-4.880047	"needless"	-3.85596e-05
-4.880047	"needlessly	-3.85596e-05
-4.880047	"news",	4.376793e-06
-4.703956	"no	0.0007422777
-4.880047	"no-go	-3.569731e-05
-4.880047	"noble	-3.85596e-05
-4.880047	"not	-3.85596e-05
-4.880047	"nothing"	0.00479111
-4.880047	"null	0.006958547
-4.880047	"odds"	0.002974405
-4.880047	"official	-3.85596e-05
-4.880047	"one	0.0005772682
-4.880047	"one"...	-3.85596e-05
-4.703956	"only	0.0008168452
-4.703956	"ordinary	-5.421992e-05
-4.703956	"original	-7.711912e-05
-4.703956	"our	5.456766e-05
-4.880047	"out	0.007645559
-4.880047	"passage"	7.880997e-05
-4.880047	"pathway	0.01066556
-4.880047	"people	1.010198e-05
-4.880047	"people"	0.01066556
-4.880047	"perfectly	-3.85596e-05
-4.880047	"persons	-3.569731e-05
-4.880047	"persons"?	0.02236289
-4.579017	"perverse"	0.005292339
-4.703956	"perverted,"	0.001051289
-4.703956	"petty,	3.662863e-05
-4.703956	"political	-7.711912e-05
-4.880047	"poof"	-3.85596e-05
-4.579017	"poor"	7.537838e-05
-4.880047	"possibility	0.007645559
-4.880047	"potential	-3.85596e-05
-4.880047	"practice"	-3.569731e-05
-4.880047	"prevalent	0.0001818923
-4.880047	"privacy/4th	0.0001561194
-4.880047	"private"	4.445462e-05
-4.880047	"privilege"	0.000720609
-4.703956	"professional	8.033714e-05
-4.880047	"professionals"	0.00479111
-4.880047	"prohibited	-3.85596e-05
-4.880047	"proof")	0.001774182
-4.880047	"proof".	0.02236289
-4.880047	"protects	0.001216934
-4.880047	"public	-3.569731e-05
-4.880047	"racist	-3.85596e-05
-4.880047	"racist".	0.02236289
-4.880047	"rangeland"	0.0001418018
-4.703956	"real	-7.425679e-05
-4.880047	"real"	-3.85596e-05
-4.880047	"real".	0.02236289
-4.880047	"reasonable	0.001915043
-4.880047	"reasonable"	0.005182015
-4.880047	"reasonable"_	0.0005887335
-4.880047	"reasonings".	0.02236289
-4.880047	"reconcile"	0.01581529
-4.579017	"red	-8.991654e-05
-4.880047	"reg	-3.569731e-05
-4.880047	"rejected"	0.006958547
-4.880047	"repeal"	-3.569731e-05
-4.880047	"reverse"	-3.85596e-05
-4.880047	"rich	-2.997266e-05
-4.402926	"right	0.01843422
-4.335979	"right"	0.01937097
-4.880047	"right".	0.02236289
-4.880047	"right-thinking	0.00124277
-4.880047	"rights	0.007645559
-4.402926	"rights"	0.006168092
-4.703956	"rights",	0.008181426
-4.880047	"rise	0.00479111
-4.880047	"safety"	0.01581529
-4.880047	"save	0.01581529
-4.880047	"saving	-3.85596e-05
-4.703956	"school	-5.783767e-05
-4.880047	"schools"	-3.85596e-05
-4.880047	"second	0.0001561194
-4.880047	"security,	-3.85596e-05
-4.703956	"segue."	0.02234075
-4.880047	"self-preservation"?)	0.02236289
-4.880047	"serious	-3.569731e-05
-4.703956	"sex	-7.711912e-05
-4.579017	"shall	0.002627597
-4.880047	"shoot	0.0002620844
-4.880047	"sick	0.007645559
-4.880047	"side",	0.006958547
-4.880047	"simple"	0.005182015
-4.880047	"slaughtered"	0.002090466
-4.880047	"slaughtered".	0.02236289
-4.703956	"smart	8.759056e-06
-4.880047	"societal	-3.85596e-05
-4.880047	"society	0.006958547
-4.880047	"solution"	0.004120152
-4.880047	"solutions"..	0.0007435479
-4.880047	"some	-3.85596e-05
-4.880047	"speaking	0.00258548
-4.880047	"special"	0.00479111
-4.880047	"started	-3.85596e-05
-4.277987	"state	-0.0001841873
-4.880047	"state"	0.001590269
-4.880047	"stigmatize"	0.01581529
-4.880047	"stop	0.0003021859
-4.880047	"stopping	-3.85596e-05
-4.880047	"stream	0.007645559
-4.880047	"street	-3.85596e-05
-4.880047	"stupidity	0.002090466
-4.880047	"stupidity"	0.0002133945
-4.703956	"subsequent	-5.783767e-05
-4.880047	"supporters"	-9.935799e-06
-4.880047	"suppress	-3.85596e-05
-4.880047	"sure...no	2.155255e-05
-4.880047	"swift").	0.02236289
-4.880047	"taboo"	0.0002133945
-4.703956	"team	-7.711912e-05
-4.880047	"tear	0.002801506
-3.703956	"the	0.001427003
-4.880047	"the"	0.0002019389
-4.880047	"their	0.0003738051
-4.880047	"their"	4.445462e-05
-4.880047	"then	0.004120152
-4.880047	"they	-3.85596e-05
-4.880047	"they"	0.002974405
-4.880047	"they",	0.006958547
-4.880047	"think	0.004120152
-4.880047	"think"	0.00423576
-4.880047	"this	7.23938e-06
-4.880047	"thought	0.0009672663
-4.880047	"three-fifths"	-3.569731e-05
-4.579017	"to	0.001386794
-4.880047	"truly	-2.424793e-05
-4.880047	"twisted	-3.85596e-05
-4.880047	"undesirables"(	-3.85596e-05
-4.880047	"unreasonable".	0.02236289
-4.880047	"use	0.0003021859
-4.880047	"utopianism"	-3.85596e-05
-4.880047	"very	-3.85596e-05
-4.880047	"veteran.".	0.02236289
-4.880047	"virtual	-3.85596e-05
-4.880047	"waiting	-3.85596e-05
-4.703956	"war	0.001895778
-4.880047	"warrior	-3.569731e-05
-4.703956	"we	0.000383181
-4.880047	"we"	-3.85596e-05
-4.703956	"we're	0.0009344579
-4.880047	"weapon"	4.731744e-05
-4.880047	"weapon".	0.02236289
-4.880047	"weapons	0.007645559
-4.579017	"well	-5.270206e-05
-4.579017	"what	0.001062348
-4.880047	"whenever	0.0007435479
-4.703956	"why	0.001589083
-4.703956	"will	0.007623419
-4.880047	"wind	0.0005772682
-4.880047	"without	0.008786188
-4.880047	"wrong".	0.02236289
-4.880047	"wrong-thinking"	0.005182015
-4.880047	"yawning"	0.0006632671
-4.880047	"yeah".	0.02236289
-4.880047	"yes"	0.01066556
-4.880047	"you	-1.566071e-05
-4.703956	"your	-7.711912e-05
-4.880047	"~~	1.010198e-05
-4.880047	#	0.006958547
-4.880047	#000000;	-3.85596e-05
-4.880047	#000;	-3.85596e-05
-4.880047	#1	0.00479111
-4.703956	#1,	-7.711912e-05
-4.579017	#10	0.007763892
-4.880047	#11,	-3.85596e-05
-4.880047	#12	0.00423576
-4.880047	#12.	0.02236289
-4.880047	#13,	0.006958547
-4.880047	#14	0.002974405
-4.880047	#14,	0.006958547
-4.880047	#158	0.00479111
-4.880047	#2	0.00423576
-4.880047	#206	0.00479111
-4.880047	#3	0.005182015
-4.880047	#313	0.0001103047
-4.880047	#4	0.006958547
-4.880047	#4,	0.006958547
-4.880047	#46	-1.566071e-05
-4.880047	#474	-3.569731e-05
-4.880047	#474,	-1.566071e-05
-4.880047	#5	0.002974405
-4.880047	#58,	0.00423576
-4.880047	#6	0.005182015
-4.880047	#6.	0.02236289
-4.880047	#7	0.005182015
-4.880047	#7...	0.0001675738
-4.880047	#8	0.00479111
-4.880047	#8,	-3.85596e-05
-4.880047	#829	-3.85596e-05
-4.880047	#9,	-3.283499e-05
-4.880047	#94	0.00479111
-4.880047	#FFFFFF;	-3.85596e-05
-4.880047	#ShallNotBeInfringed.	0.02236289
-4.880047	$	0.001041865
-4.880047	$$$$.	0.02236289
-4.880047	$.02.	0.02236289
-4.880047	$0.94/bushel)	0.001590269
-4.880047	$1,000	0.00258548
-4.880047	$1,200	-3.283499e-05
-4.880047	$1.25	7.23938e-06
-4.880047	$100	-2.138554e-05
-4.703956	$1000	-3.704475e-05
-4.880047	$15	-2.424793e-05
-4.880047	$16-20K,	0.008786188
-4.880047	$16.7	-2.424793e-05
-4.880047	$1600	-2.711031e-05
-4.880047	$174,000?	0.02236289
-4.880047	$18	-2.424793e-05
-4.880047	$18T	-2.711031e-05
-4.880047	$224.66.	0.02236289
-4.880047	$233	8.453608e-05
-4.703956	$240	5.170449e-05
-4.880047	$240.	0.02236289
-4.880047	$25.00	-2.711031e-05
-4.880047	$25K]?".	0.02236289
-4.880047	$3,800	0.00162762
-4.880047	$331	8.453608e-05
-4.880047	$35	1.868987e-05
-4.880047	$400	-2.711031e-05
-4.880047	$4K.	0.02236289
-4.880047	$5.4	8.453608e-05
-4.703956	$5.4M,	0.005166701
-4.880047	$500	0.007645559
-4.880047	$52/1000	0.01066556
-4.880047	$550	-2.711031e-05
-4.880047	$725	-3.85596e-05
-4.880047	$750.	0.02236289
-4.880047	$890.00.	0.02236289
-4.880047	$900	-3.85596e-05
-4.880047	$900.00	0.01066556
-4.880047	$90K	0.000158983
-4.579017	%	0.01327261
-3.858858	&	-0.0004547804
-4.880047	&#39;most	-3.569731e-05
-4.880047	''	0.02236289
-4.880047	'68	-2.711031e-05
-4.880047	'75	0.001774182
-4.880047	'Cause	0.00423576
-4.703956	'Children's	-7.711912e-05
-4.880047	'Clipdraw'	0.00258548
-4.880047	'Holy	-3.85596e-05
-4.880047	'Keep	0.00118823
-4.880047	'Tactical'	-3.569731e-05
-4.880047	'Tis	-9.935799e-06
-4.880047	'Verily,	0.00423576
-4.880047	'You	0.0007865618
-4.880047	'actual	-3.85596e-05
-4.880047	'arms	0.002974405
-4.880047	'arms'	-1.279829e-05
-4.880047	'base'	0.002090466
-4.880047	'canned	0.0001561194
-4.880047	'cause	2.155255e-05
-4.880047	'centuries	0.007645559
-4.880047	'conversation'	0.001823047
-4.880047	'could	-3.85596e-05
-4.880047	'crap'	0.01066556
-4.880047	'designed'	0.00258548
-4.703956	'em	0.01062714
-4.880047	'em!	0.02236289
-4.880047	'em.".	0.02236289
-4.880047	'enhanced'	-2.711031e-05
-4.703956	'fact'	0.005181187
-4.880047	'freedom'	0.005182015
-4.880047	'great	-3.85596e-05
-4.579017	'gun	-0.0001156786
-4.880047	'gun',	0.001202581
-4.880047	'gun-free	-3.85596e-05
-4.880047	'had'	0.008786188
-4.880047	'health'	-1.279829e-05
-4.880047	'incredible	-3.85596e-05
-4.880047	'kill'	0.01581529
-4.880047	'light	-3.85596e-05
-4.880047	'lucida	-3.85596e-05
-4.880047	'maintain'	-1.566071e-05
-4.880047	'more	0.000694804
-4.703956	'n	-7.425679e-05
-4.880047	'national	-3.85596e-05
-4.880047	'need'	0.005182015
-4.880047	'no	-3.85596e-05
-4.880047	'no'?.	0.02236289
-4.880047	'nother	0.0009615284
-4.880047	'off	0.01581529
-4.880047	'one'	0.004120152
-4.880047	'other	-3.85596e-05
-4.880047	'over-reaching	-3.569731e-05
-4.880047	'perverted.'	0.02236289
-4.880047	'protecting'	0.01581529
-4.880047	'questionable'.	0.02236289
-4.880047	'reaffirmed'.	0.02236289
-4.880047	'reality'?.	0.02236289
-4.880047	'reasonable	-3.85596e-05
-4.880047	'research'	0.005182015
-4.880047	'retailer'	0.001771308
-4.880047	'root	-3.85596e-05
-4.880047	'safety'	0.001027518
-4.880047	'see	-3.85596e-05
-4.880047	'sensible	0.001915043
-4.880047	'silent'	-3.85596e-05
-4.703956	'similar	-5.783767e-05
-4.880047	'small	-3.569731e-05
-4.880047	'solution'.	0.02236289
-4.880047	'sposed	0.01066556
-4.880047	'state	0.007645559
-4.880047	'take	0.0008783387
-4.880047	'undisclosed'.	0.02236289
-4.880047	'what	0.0002878636
-4.880047	'who	-3.283499e-05
-4.880047	'yes',	0.001202581
-4.880047	'	3.872897e-05
-3.858858	(	0.02214287
-4.880047	("Ridiculous"	0.0001418018
-4.703956	("state	-5.783767e-05
-4.703956	(1	-5.783767e-05
-4.402926	(1)	0.00290104
-4.880047	(10945)	0.006958547
-4.880047	(11.3	0.000158983
-4.880047	(11th	0.00479111
-4.703956	(15%)	0.0006984686
-4.703956	(17%)	-4.066351e-05
-4.880047	(1822)	0.000597333
-4.703956	(1846)	0.0002922776
-4.703956	(1859)	0.001583336
-4.703956	(1875)	0.01581851
-4.880047	(1899)	-3.85596e-05
-4.880047	(19%)	-4.210838e-06
-4.880047	(1974);	-2.997266e-05
-4.880047	(1976);	-3.283499e-05
-4.880047	(1981);	-2.997266e-05
-4.703956	(1982);	-5.421993e-05
-4.880047	(1983).	0.02236289
-4.880047	(1983);	-2.997266e-05
-4.880047	(1989).	0.02236289
-4.880047	(1991).	0.02236289
-4.880047	(1994).	0.02236289
-4.880047	(1996).	0.02236289
-4.880047	(1998).	0.02236289
-4.880047	(1998);	-2.711031e-05
-4.880047	(2	-3.85596e-05
-4.482107	(2)	0.00184545
-4.880047	(2007	0.0005170789
-4.880047	(2007)	-3.85596e-05
-4.880047	(2007).	0.02236289
-4.880047	(2008)	-3.85596e-05
-4.880047	(2014	-3.85596e-05
-4.579017	(2017):	-0.0001156786
-4.880047	(2017):59,495	-2.997266e-05
-4.880047	(21.5	0.000158983
-4.880047	(239	-3.85596e-05
-4.880047	(26.5	0.000158983
-4.880047	(28	-3.85596e-05
-4.880047	(29	-3.85596e-05
-4.880047	(3)	0.0008381837
-4.880047	(30.8	0.000158983
-4.880047	(39.9	0.000158983
-4.880047	(3d	-3.85596e-05
-4.880047	(4)	-3.85596e-05
-4.880047	(4.7	0.000158983
-4.880047	(41.2	0.000158983
-4.880047	(44.7	0.000158983
-4.703956	(5)	-5.211302e-05
-4.880047	(5-6000),	2.155255e-05
-4.880047	(52.6	0.000158983
-4.880047	(53.7	0.000158983
-4.880047	(586),	0.002801506
-4.703956	(61%)	0.0006984686
-4.880047	(72%)	0.0003193735
-4.880047	(88th	-3.283499e-05
-4.880047	(90.4	0.000158983
-4.703956	(95%	-7.139444e-05
-4.703956	(A)	0.02688432
-4.880047	(AP)	-1.279829e-05
-4.880047	(ATF	-3.85596e-05
-4.880047	(ATF)	0.01581529
-4.703956	(And	0.004975535
-4.880047	(Armed	-3.85596e-05
-4.880047	(As	-3.85596e-05
-4.703956	(B)	0.02688432
-4.880047	(BLM).	0.02236289
-4.880047	(CPSC),	0.0004683606
-4.880047	(CTA)	0.01581529
-4.880047	(Columbine),	0.00124277
-4.703956	(Communist)	-7.711912e-05
-4.880047	(Cruikshank,	-3.85596e-05
-4.880047	(D)	0.0009328405
-4.880047	(D-Buffalo	-3.85596e-05
-4.880047	(D-Calif.),	0.01581529
-4.880047	(D-Conn.),	0.01581529
-4.880047	(D-Del)	-1.852315e-05
-4.880047	(Declaration	0.007645559
-4.880047	(Different	-3.85596e-05
-4.880047	(Drinking,	-3.85596e-05
-4.880047	(Dunn,	0.01581529
-4.880047	(Europe,	-3.283499e-05
-4.703956	(Ex:	-1.986888e-05
-4.880047	(FCIC)	-3.85596e-05
-4.880047	(Guinn	2.155255e-05
-4.703956	(Guns	-6.853207e-05
-4.880047	(Harper	2.155255e-05
-4.880047	(He	0.0004597637
-4.880047	(Hence	-3.85596e-05
-4.703956	(Highest	0.00476897
-4.880047	(Homer	-3.85596e-05
-4.226835	(I	0.004425132
-4.703956	(I'm	0.000358172
-4.880047	(ILA)	0.005182015
-4.880047	(IM	0.0001217579
-4.880047	(Including	-3.569731e-05
-4.880047	(It's	0.0003394264
-4.880047	(Its	-3.85596e-05
-4.880047	(Japan	0.0009271032
-4.703956	(Just	0.001974279
-4.880047	(Khmer	-3.569731e-05
-4.703956	(Moot	3.662863e-05
-4.880047	(Most	0.007645559
-4.880047	(Murdock	2.155255e-05
-4.880047	(NICS),	-3.569731e-05
-4.703956	(NRA	-3.780106e-05
-4.880047	(NSSF)	0.00479111
-4.880047	(New	-3.85596e-05
-4.579017	(Not	0.001159122
-4.880047	(OPIC)	-3.85596e-05
-4.880047	(ObamaCare:	-3.85596e-05
-4.880047	(Of	4.376793e-06
-4.880047	(Org.	0.02236289
-4.880047	(PBGC)	0.006958547
-4.703956	(PPP)	0.0001368427
-4.880047	(Part	-3.85596e-05
-4.880047	(Quran	-3.85596e-05
-4.880047	(R-Okla.)	0.006958547
-4.880047	(RPGs),	0.006958547
-4.880047	(Really...there	0.005182015
-4.880047	(Remember)	0.000597333
-4.880047	(SALW)	-3.85596e-05
-4.880047	(Scalia,	-3.85596e-05
-4.880047	(Search	1.582722e-05
-4.880047	(Speech	1.582722e-05
-4.880047	(State	0.006958547
-4.880047	(Stevens,	-3.85596e-05
-4.880047	(Such	0.001823047
-4.880047	(Targetted	-3.85596e-05
-4.880047	(The	0.0008181081
-4.880047	(Thomas	2.155255e-05
-4.880047	(Two	0.007645559
-4.880047	(Univ.	0.02236289
-4.703956	(Unless	0.004116327
-4.880047	(Unless,	0.007645559
-4.880047	(VA	-3.569731e-05
-4.880047	(WA)	0.000694804
-4.880047	(Who	3.014069e-05
-4.703956	(Yale	-5.783767e-05
-4.880047	(Yes	0.0005170789
-4.880047	(Z-man),	0.006958547
-4.482107	(a	0.0002438178
-4.579017	(a)	0.004224261
-4.482107	(according	0.01059914
-4.703956	(again,	-4.849497e-05
-4.880047	(all	-3.85596e-05
-4.880047	(allowed	0.0005371411
-4.880047	(almost	-3.85596e-05
-4.880047	(also	-2.138554e-05
-4.880047	(although	0.01581529
-4.034949	(and	0.005239075
-4.880047	(annoying,	0.001202581
-4.880047	(armaments,	-2.424793e-05
-4.880047	(armed	-3.85596e-05
-4.181077	(as	0.01578718
-4.703956	(at	0.00544781
-4.703956	(b)	0.0005903147
-4.880047	(b):	0.004120152
-4.880047	(be	0.002801506
-4.703956	(because	0.007612929
-4.880047	(believe	0.002801506
-4.880047	(black	-3.85596e-05
-4.880047	(blood	-3.85596e-05
-4.880047	(born	0.00479111
-4.880047	(but	-3.569731e-05
-4.880047	(by	-3.85596e-05
-4.880047	(cars	0.006958547
-4.880047	(citizens	-1.279829e-05
-4.703956	(closer	0.01064342
-4.880047	(conferred	7.23938e-06
-4.880047	(death	0.00479111
-4.880047	(defence	-3.85596e-05
-4.880047	(depending	0.001917919
-4.880047	(due	0.01066556
-4.880047	(e.g.	0.02236289
-4.703956	(emphasis	-5.783767e-05
-4.880047	(er,	-3.85596e-05
-4.703956	(especially	0.0007766918
-4.880047	(especially)	0.0001188946
-4.703956	(even	0.001117295
-4.880047	(ever).	0.02236289
-4.880047	(evil	-9.935799e-06
-4.703956	(except	0.00663511
-4.880047	(false)	-3.569731e-05
-4.880047	(families	0.002974405
-4.880047	(fill	0.00479111
-4.880047	(for	1.514249e-06
-4.880047	(four	0.005182015
-4.880047	(from	0.001216934
-4.880047	(given	0.00118823
-4.880047	(government	-3.85596e-05
-4.880047	(great	-3.85596e-05
-4.703956	(guns)	0.001750018
-4.880047	(he	0.0001446653
-4.579017	(i.e.	0.02231861
-4.579017	(if	0.004861756
-4.101896	(in	0.02663585
-4.579017	(including	-6.129029e-05
-4.880047	(individual	-3.85596e-05
-4.880047	(inferring	0.01581529
-4.880047	(intent)	0.006958547
-4.880047	(internet)	0.006958547
-4.880047	(irony	-3.85596e-05
-4.880047	(kind	-3.85596e-05
-4.880047	(lack	-3.569731e-05
-4.703956	(laugh	0.0006468606
-4.703956	(left	0.001732772
-4.880047	(legally)	0.0001389383
-4.880047	(like	1.29646e-05
-4.880047	(mama	0.0009615284
-4.880047	(many	0.007645559
-4.880047	(maybe	0.01581529
-4.880047	(middle	-3.85596e-05
-4.880047	(might	-1.279829e-05
-4.880047	(minorities)	7.23938e-06
-4.880047	(most?)	0.02236289
-4.880047	(mostly)	0.002090466
-4.880047	(municipal	1.582722e-05
-4.880047	(newspaper	-3.85596e-05
-4.579017	(no	-0.000104229
-4.703956	(nominal)	0.0001368427
-4.277987	(not	0.003356739
-4.703956	(of	0.0007480131
-4.703956	(on	-1.986891e-05
-4.880047	(once	0.008786188
-4.101896	(or	0.01636778
-4.880047	(other	0.000694804
-4.880047	(part	0.007645559
-4.880047	(pathetic	-3.85596e-05
-4.880047	(perhaps	-2.138554e-05
-4.880047	(pre-ban	-3.569731e-05
-4.880047	(press),	0.001771308
-4.880047	(primarily	4.376793e-06
-4.880047	(pro-gun)	-3.85596e-05
-4.880047	(probably	0.0001704374
-4.880047	(quotas,	-3.85596e-05
-4.880047	(read,	-3.85596e-05
-4.880047	(record	0.00479111
-4.880047	(regarding	0.01581529
-4.880047	(remember,	0.002801506
-4.880047	(right	-3.85596e-05
-4.880047	(rings	0.001771308
-4.880047	(say)	-3.569731e-05
-4.880047	(say,	-3.85596e-05
-4.703956	(see	0.01578585
-4.880047	(seriously),	0.00423576
-4.880047	(sheagh,	-3.85596e-05
-4.880047	(since	0.0003021859
-4.880047	(so	0.01581529
-4.880047	(someone's	2.727796e-05
-4.880047	(something	0.00423576
-4.880047	(sources	3.586619e-05
-4.880047	(still	0.002671877
-4.880047	(stockpile)	0.00423576
-4.880047	(stores).	0.02236289
-4.880047	(stratagem	-3.85596e-05
-4.880047	(strongly	1.582722e-05
-4.880047	(terrible)	-3.85596e-05
-4.703956	(that	0.0001061082
-4.277987	(the	-0.0002155245
-4.880047	(there	0.000720609
-4.880047	(there's	0.002671877
-4.880047	(they	0.000720609
-4.880047	(they're	0.001216934
-4.880047	(things	0.0007865618
-4.482107	(though	0.008790645
-4.703956	(to	0.0003896904
-4.703956	(true	0.00944937
-4.703956	(unbeknownst	0.01064342
-4.880047	(unintentional):78205	-3.85596e-05
-4.880047	(unless	0.002801506
-4.880047	(unlicensed)	-2.997266e-05
-4.880047	(used	-3.85596e-05
-4.880047	(w/o	-3.85596e-05
-4.880047	(whether	0.005381947
-4.226835	(which	0.01417726
-4.482107	(who	0.009829184
-4.880047	(whom	8.453608e-05
-4.579017	(with	0.01768752
-4.880047	(yes)	0.0001503923
-4.703956	(yes,	0.00602799
-4.880047	(your	-7.073332e-06
-4.067134	)	0.01306157
-4.703956	),	0.007083004
-4.880047	).	0.02236289
-4.880047	)Mental	-3.85596e-05
-4.277987	*	0.0006470553
-4.335979	****	0.003130718
-4.880047	******MIC	-3.85596e-05
-4.880047	****,	0.004120152
-4.703956	****.	0.02234075
-4.880047	****head	-3.85596e-05
-4.880047	****hole,	-2.711031e-05
-4.579017	****ing	0.0003224835
-4.880047	****load	0.007645559
-4.880047	****ty	0.0001675738
-4.880047	****ty.	0.02236289
-4.880047	*2*	-3.569731e-05
-4.880047	*Fairly	7.594687e-05
-4.880047	*NOT*	-9.935799e-06
-4.880047	*ONE*	-3.283499e-05
-4.880047	*WAAAYYYY*	0.0008123722
-4.880047	*long*	0.0001675738
-4.880047	*shrug*	0.000597333
-4.880047	*sigh*	0.0001246213
-4.880047	*that	0.0002105307
-4.880047	*then*	0.0008525246
-4.880047	*yawn*	-3.85596e-05
-4.880047	+	0.0005027496
-4.880047	+P	-3.283499e-05
-4.880047	+P.	0.02236289
-3.858858	,	0.03266666
-4.880047	,,	0.0003508858
-4.880047	,,,	0.001917919
-4.880047	,,,gloves	0.0006259988
-4.880047	,they	0.001130825
-2.888821	-	0.0878523
-4.181077	--	0.01458458
-4.402926	---	0.01482549
-4.880047	----	1.010198e-05
-4.880047	---especially	-3.283499e-05
-4.880047	--gun	0.0001818923
-4.880047	--violent	0.0001818923
-4.703956	-.	0.02234075
-4.880047	-.-.	0.02236289
-4.880047	-1200	3.586619e-05
-4.703956	->	0.001523001
-4.880047	-In	4.731744e-05
-4.880047	-Maybe	0.0008381837
-4.880047	-Trump	-3.569731e-05
-4.181077	-VySky.	0.0221858
-4.880047	-ammunition	0.0001389383
-4.880047	-declaration,	0.01581529
-4.880047	-even	0.0005543379
-4.880047	-identification	-1.852315e-05
-4.880047	-universal	0.0001389383
-4.880047	-wing	-3.569731e-05
-3.410225	.	0.02110269
-4.579017	..	0.003849563
-3.718679	...	0.03937754
-4.703956	..."	8.606393e-05
-4.579017	....	0.01110831
-4.880047	.....	-3.85596e-05
-4.880047	................	1.514249e-06
-4.880047	......is	0.008786188
-4.880047	.....no.	0.02236289
-4.880047	.....then	0.00423576
-4.880047	....But	0.001774182
-4.880047	....But...Anyone	0.0009615284
-4.880047	....Dumb	0.006958547
-4.880047	....To	0.0001360749
-4.880047	....okay,	0.002801506
-4.880047	....throw	0.008786188
-4.880047	...Jones...liar...	-2.711031e-05
-4.880047	...Like	0.000322238
-4.880047	...No,	0.002801506
-4.880047	...To	-3.85596e-05
-4.880047	...WHAT	-2.138554e-05
-4.703956	...and	0.002817729
-4.880047	...deleted	-2.711031e-05
-4.880047	...screaming	0.00479111
-4.880047	...stop	-3.85596e-05
-4.880047	..Federal	-3.85596e-05
-4.880047	..deceitful.."you	0.0009615284
-4.880047	..that	3.586619e-05
-4.880047	.0257	0.006958547
-4.880047	.078	-4.210838e-06
-4.482107	.08	0.00170489
-4.880047	.094977	0.001561539
-4.335979	.22	0.008465463
-4.482107	.223	0.01435592
-4.880047	.223..	0.0002620844
-4.880047	.270	0.000422513
-4.880047	.300	-3.85596e-05
-4.880047	.3006	3.586619e-05
-4.880047	.308	-2.424793e-05
-4.880047	.308,	0.006958547
-4.880047	.32's	0.0007435479
-4.880047	.327	-2.997266e-05
-4.482107	.357	5.190362e-05
-4.880047	.357.	0.02236289
-4.579017	.38	-9.564158e-05
-4.880047	.38+p	0.006958547
-4.880047	.38,	0.00162762
-4.880047	.380	-2.997266e-05
-4.579017	.40	0.01184032
-4.880047	.40s	0.001202581
-4.703956	.44	-7.425679e-05
-4.880047	.44"?	0.02236289
-4.277987	.45	0.01125891
-4.880047	.45's	0.006958547
-4.880047	.45's.	0.02236289
-4.880047	.code{font-family:	-3.85596e-05
-4.880047	.gov	-3.283499e-05
-4.067134	/	0.001660871
-4.880047	/*overflow:	-3.569731e-05
-4.880047	/feelgood	0.001130825
-4.703956	0	0.01082961
-4.880047	0.039	0.000158983
-4.880047	0.0602	-3.283499e-05
-4.880047	0.6),	0.001202581
-4.880047	0.85).	0.02236289
-4.880047	0.x	-2.138554e-05
-4.703956	0px	-3.418215e-05
-3.925805	1	0.01372835
-4.880047	1"	-3.283499e-05
-4.880047	1")	0.001771308
-4.880047	1",	0.004120152
-4.880047	1".	0.02236289
-4.703956	1%	0.007650805
-4.226835	1)	0.002611635
-4.880047	1,	-3.85596e-05
-4.579017	1,000	4.177979e-05
-4.880047	1,055,689	-3.85596e-05
-4.880047	1,065	-2.711031e-05
-4.880047	1,070	-1.852315e-05
-4.880047	1,074,200	-3.85596e-05
-4.482107	1,149	-1.162289e-06
-4.880047	1,166,676	4.376793e-06
-4.880047	1,200	0.0002248504
-4.880047	1,251,311	-3.85596e-05
-4.880047	1,290,684	-3.85596e-05
-4.880047	1,300	7.308386e-05
-4.880047	1,400	-2.711031e-05
-4.880047	1,506,534	-3.85596e-05
-4.880047	1,515	-3.85596e-05
-4.880047	1,551,399	-3.85596e-05
-4.880047	1,575	-4.210838e-06
-4.880047	1,798,593	-3.85596e-05
-4.880047	1-14(3),	0.00258548
-4.880047	1-2	0.0001561194
-4.703956	1-3	0.0001347444
-4.880047	1-800-***-****	0.001139436
-4.402926	1.	0.02233056
-4.880047	1......	7.23938e-06
-4.880047	1.25	-3.569731e-05
-4.880047	1.35	8.453608e-05
-4.482107	1.5	1.601673e-05
-4.880047	1.And	0.001130825
-4.880047	1.How	0.0009328405
-4.703956	1/2	0.007621669
-4.880047	1/2"	0.01066556
-4.703956	1/3	0.01252354
-4.880047	1/4"	0.01066556
-4.880047	1/8	-3.283499e-05
-4.703956	1/x	-5.497535e-05
-3.800866	10	0.009545679
-4.579017	10%	0.007601279
-4.880047	10+	0.0001561194
-4.880047	10,000	-2.997266e-05
-4.880047	10,000:	-3.569731e-05
-4.880047	10,000?.	0.02236289
-4.880047	10,129	0.006958547
-4.579017	10,265	0.001943512
-4.880047	10,6%	0.0001675738
-4.703956	10.	0.02234075
-4.880047	10.54	0.001915043
-3.880047	100	0.0001031184
-4.181077	100%	0.01235358
-4.880047	100,00)	-2.997266e-05
-4.139685	100,000	0.005927078
-4.139685	100,000)	0.001875443
-4.703956	1000	0.0001376082
-4.880047	1000.	-3.569731e-05
-4.880047	100K+	5.876899e-05
-4.880047	100ft	0.0003021859
-4.880047	100k	7.022086e-05
-4.880047	100mph.	0.02236289
-4.880047	101	0.006958547
-4.880047	101.5	7.308386e-05
-4.880047	107	-2.997266e-05
-4.880047	107-54	-3.85596e-05
-4.880047	1096	5.018028e-05
-4.880047	10:34	-1.566071e-05
-4.402926	10th	0.001542438
-4.703956	11	4.597819e-05
-4.880047	11,	-3.283499e-05
-4.880047	11,000	0.002974405
-4.880047	11,004.	0.02236289
-4.703956	11.	0.02234075
-4.880047	110-11	-3.85596e-05
-4.880047	111	0.001917919
-4.880047	111.	0.02236289
-4.880047	1139	-3.85596e-05
-4.880047	1147?	0.02236289
-4.880047	1189?	0.02236289
-4.880047	1190	0.000158983
-4.880047	1198?	0.02236289
-4.277987	12	0.003297069
-4.703956	12"	-5.421995e-05
-4.880047	12")?	0.02236289
-4.880047	12,500	-3.85596e-05
-4.579017	12.	0.02231861
-4.880047	120	-2.711031e-05
-4.880047	1200	0.000694804
-4.703956	121	-5.783767e-05
-4.880047	1215	0.006958547
-4.880047	1236	-3.85596e-05
-4.880047	124	-3.569731e-05
-4.139685	13	0.00153779
-4.880047	13%	0.007645559
-4.703956	13,	0.00073941
-4.880047	13,657	-9.935799e-06
-4.880047	13-15	8.167298e-05
-4.880047	13.This	0.005182015
-4.880047	133-49	-3.569731e-05
-4.880047	1340	-3.85596e-05
-4.402926	14	0.01205939
-4.880047	14,	-2.997266e-05
-4.880047	14,123	-7.073332e-06
-4.880047	14-16	0.000158983
-4.880047	14.	0.02236289
-4.703956	140	0.0001175624
-4.880047	147	-3.569731e-05
-4.703956	14th	0.0004298078
-3.800866	15	0.008438861
-4.880047	15)?	0.02236289
-4.703956	15,	0.004203038
-4.880047	15-20	0.0007435479
-4.880047	15.76%	0.0001933474
-4.880047	15.91%	-1.279829e-05
-4.226835	150	-3.224639e-05
-4.880047	15th	-2.711031e-05
-4.402926	16	0.0002818503
-4.880047	16,	-3.85596e-05
-4.880047	16-bullet	1.514249e-06
-4.880047	16.	0.02236289
-4.880047	16.3	8.453608e-05
-4.880047	16.78%	-2.138554e-05
-4.880047	1640	0.0006690009
-4.880047	1640-1995	-2.424793e-05
-4.880047	1688,	-3.569731e-05
-4.482107	17	0.0002000732
-4.880047	17,000	0.00479111
-4.880047	17...or	-3.85596e-05
-4.880047	1700	0.000720609
-4.880047	177	-3.569731e-05
-4.579017	1776	0.004072043
-4.880047	1776/I]..."	-3.85596e-05
-4.880047	1777	-2.997266e-05
-4.880047	1780	-3.283499e-05
-4.880047	1787,	0.0004683606
-4.880047	1787-1791,	2.441524e-05
-4.880047	1788.	0.02236289
-4.880047	1789,	0.006958547
-4.880047	1791	0.00162762
-4.880047	1791,	0.01581529
-4.703956	1791.	0.02234075
-4.880047	1792	2.441524e-05
-4.880047	1792,	0.0002019389
-3.950628	18	0.02367897
-4.880047	18%	-2.997266e-05
-4.579017	18,	0.00114764
-4.880047	18-year-olds	7.594687e-05
-4.880047	18.	0.006958547
-4.880047	18.Liability	-1.279829e-05
-4.880047	180	-1.852315e-05
-4.880047	1800	4.376793e-06
-4.880047	1804	0.0005170789
-4.880047	1820	-3.283499e-05
-4.880047	1822,	0.001216934
-4.880047	18255	6.163192e-05
-4.880047	1828	-3.85596e-05
-4.880047	1836-1845.	0.02236289
-4.880047	1844,	0.002801506
-4.880047	1846	0.00479111
-4.880047	1858	0.0001246213
-4.880047	1865,	0.002671877
-4.703956	1866	0.0001719744
-4.880047	1866)]	-3.569731e-05
-4.880047	1871?	0.02236289
-4.880047	1873	0.006958547
-4.880047	1876	0.00479111
-4.880047	1878.	0.02236289
-4.880047	1895	-3.283499e-05
-4.579017	19	0.0001849733
-4.880047	19%	0.007645559
-4.880047	19,	0.007645559
-4.880047	19,200	-1.852315e-05
-4.880047	19.91%	-3.569731e-05
-4.880047	1903	0.006958547
-4.880047	1908	-3.283499e-05
-4.880047	191,814	-3.85596e-05
-4.402926	1911	-4.468468e-05
-4.880047	1911's.	0.02236289
-4.880047	1911,	0.0007865618
-4.880047	1911:	-2.997266e-05
-4.880047	1915	1.582722e-05
-4.880047	1915,	-3.85596e-05
-4.880047	1915-1917	-2.997266e-05
-4.880047	1915-1917,	-2.997266e-05
-4.703956	1917	0.001735646
-4.880047	1919.	0.02236289
-4.880047	1920"	-2.997266e-05
-4.880047	1920s.	0.02236289
-4.703956	1929	-6.313138e-06
-4.880047	1929-1953	-1.279829e-05
-4.880047	1929-1953,	-1.279829e-05
-4.880047	1929:	0.001561539
-4.880047	1930's	0.0001790285
-4.880047	1931,	-3.85596e-05
-4.880047	1933-1945	-1.279829e-05
-4.880047	1935	1.582722e-05
-4.880047	1935:	-2.997266e-05
-4.880047	1938	1.582722e-05
-4.880047	1938:	-2.424793e-05
-4.880047	1939	1.582722e-05
-4.880047	1939);	-3.569731e-05
-4.880047	1939,	-3.85596e-05
-4.880047	1939-1945,	-1.279829e-05
-4.880047	1940.	0.02236289
-4.880047	1940?	0.02236289
-4.880047	1941	-2.138554e-05
-4.880047	1943,	-3.85596e-05
-4.880047	1945	0.001774182
-4.880047	1945,	-3.85596e-05
-4.880047	1948	1.582722e-05
-4.880047	1948-1952,	-1.279829e-05
-4.880047	1949-1976	-1.279829e-05
-4.880047	1952	0.001774182
-4.880047	1953	0.001774182
-4.880047	1953)	0.006958547
-4.880047	1954	-2.711031e-05
-4.880047	1954,	0.0003795353
-4.880047	1954.	0.02236289
-4.880047	1956	1.582722e-05
-4.880047	1956:	-3.283499e-05
-4.880047	1959.	0.02236289
-4.880047	1960's.	0.02236289
-4.880047	1960-1981	-1.279829e-05
-4.880047	1960.	0.02236289
-4.880047	1960s	0.00423576
-4.880047	1963,	0.01581529
-4.402926	1964	0.0017707
-4.880047	1964.	0.02236289
-4.880047	1964:	-3.283499e-05
-4.703956	1965,	-7.711912e-05
-4.703956	1966);	-7.425679e-05
-4.880047	1968).	0.02236289
-4.880047	1970	1.582722e-05
-4.880047	1970:	-3.283499e-05
-4.880047	1970s	0.0001246213
-4.880047	1971	1.582722e-05
-4.880047	1971);	-3.85596e-05
-4.880047	1971-1979	-2.711031e-05
-4.880047	1971-1979,	-2.711031e-05
-4.880047	1972	4.376793e-06
-4.880047	1972.	0.02236289
-4.880047	1974	0.006958547
-4.880047	1974,	-2.138554e-05
-4.880047	1975	1.582722e-05
-4.880047	1975-1977,	7.23938e-06
-4.880047	1975-1979	0.0007722234
-4.880047	1977	0.001774182
-4.880047	1979	0.001774182
-4.880047	1980	0.0004683606
-4.880047	1981	0.001774182
-4.880047	1981-1984,	-1.279829e-05
-4.880047	1981.	0.02236289
-4.880047	1982).	0.02236289
-4.880047	1982-2019	4.376793e-06
-4.880047	1982?	0.02236289
-4.880047	1983	1.29646e-05
-4.880047	1983,	-3.283499e-05
-4.880047	1990	0.01066556
-4.880047	1990's	0.002801506
-4.880047	1990s	0.006958547
-4.880047	1990s,	0.01581529
-4.880047	1991	0.001771308
-4.880047	1993	-3.85596e-05
-4.880047	1993,	0.01581529
-4.703956	1993.	0.02234075
-4.579017	1994	0.0127062
-4.703956	1996	0.0005645149
-4.880047	1997	0.01066556
-4.880047	1997...to	1.010198e-05
-4.880047	1998).	0.02236289
-4.482107	1999	0.006843147
-4.880047	1999).	0.02236289
-4.880047	1px	-3.85596e-05
-4.482107	1st	0.0001771572
-4.579017	1st,	0.0157475
-3.925805	2	0.02595906
-4.703956	2%	0.007623419
-4.277987	2)	0.001982989
-4.880047	2,048,628	-3.85596e-05
-4.880047	2,400	0.0007808264
-4.880047	2,659	0.00124277
-4.880047	2,999,862	-3.85596e-05
-4.703956	2-3	-3.990734e-05
-4.880047	2-3x/month.	0.02236289
-4.880047	2-5	0.0008123722
-4.335979	2.	0.02230842
-4.880047	2.....	0.02236289
-4.703956	2.5	6.315734e-05
-4.880047	2.5M	-2.997266e-05
-4.880047	2.5million	3.300342e-05
-4.880047	2.9%	0.007645559
-4.880047	2.Per	0.00118823
-4.139685	20	0.0001511249
-4.880047	20+	-4.210838e-06
-4.880047	20-30	3.586619e-05
-4.703956	20-round	-1.12807e-05
-4.880047	20.95%	2.441524e-05
-3.950628	200	0.0009456906
-4.703956	2000	0.004862613
-4.880047	2000).	0.02236289
-4.880047	2000.	0.02236289
-4.880047	2001	0.006958547
-4.703956	2002	0.008747746
-4.880047	2003,	0.000597333
-4.880047	2004,	0.0001790285
-4.880047	2004.	0.02236289
-4.880047	2005,	0.01581529
-4.703956	2005.	0.02234075
-4.880047	2006	0.001202581
-4.880047	2006,	0.0004683606
-4.880047	2006.	0.02236289
-4.703956	2007	0.002492245
-4.880047	2007,	3.300342e-05
-4.880047	2007-2017	-3.85596e-05
-4.880047	2008	0.01066556
-4.880047	2008,	-3.569731e-05
-4.880047	2009	0.006958547
-4.703956	2009-2015	2.274882e-06
-4.880047	200px;*/}	-3.85596e-05
-4.880047	2010's	-3.569731e-05
-4.703956	2010,	0.007228524
-4.880047	2010.	0.02236289
-4.880047	2011	0.000694804
-4.880047	2011,	0.008786188
-4.880047	2012	0.00479111
-4.880047	2012).	0.02236289
-4.703956	2012,	0.0005759813
-4.880047	2012.	0.006958547
-4.703956	2013	0.00251528
-4.482107	2013,	0.008704693
-4.579017	2013.	0.02231861
-4.880047	2013:	0.0005170789
-4.880047	2014	-2.711031e-05
-4.402926	2014,	0.02687026
-4.880047	2014.	0.02236289
-4.880047	2014–with	-3.283499e-05
-4.579017	2015	0.005360043
-4.482107	2015,	0.004700664
-4.579017	2015.	0.02235675
-4.482107	2016	0.02715833
-4.880047	2016's	0.0005170789
-4.880047	2016),	0.0006087991
-4.880047	2016,	-2.997266e-05
-4.579017	2016.	0.02231861
-4.880047	2016:	0.001561539
-4.579017	2016;	-0.0001099538
-4.482107	2017	0.002360489
-4.880047	2017,	0.001202581
-4.880047	2017...guess	0.001073429
-4.402926	2018	0.007480077
-4.880047	2018,	0.002801506
-4.703956	2020	0.002647755
-4.880047	2020.	0.02236289
-4.880047	204	-3.85596e-05
-4.703956	209	-3.418216e-05
-4.703956	20K	0.003163642
-4.880047	20s,	4.376793e-06
-4.579017	20th	-0.000104229
-4.880047	20th,	-3.85596e-05
-4.579017	21	0.002191778
-4.579017	21.	0.02231861
-4.880047	21.60%	-1.852315e-05
-4.703956	21st	-6.280727e-05
-4.703956	22	-7.711912e-05
-4.880047	22,000	0.00124277
-4.880047	22.	0.02236289
-4.880047	228	8.73992e-05
-4.880047	229:	-3.85596e-05
-4.880047	22nd	-2.997266e-05
-4.402926	23	-0.0001670346
-4.703956	23,	-4.563244e-05
-4.880047	23,141,970	4.376793e-06
-4.880047	235.7k	0.00124277
-4.880047	236.9839	0.000158983
-4.880047	238	-2.424793e-05
-4.181077	24	-0.0001152809
-4.880047	24,	-2.997266e-05
-4.880047	24-Year-Old	-3.85596e-05
-4.703956	24/7	0.006943351
-4.703956	243	-5.783767e-05
-4.880047	247,	0.001041865
-4.703956	248	-6.280727e-05
-4.880047	249	-3.283499e-05
-4.482107	25	1.391492e-05
-4.880047	25,	-9.935799e-06
-4.880047	25,2	0.000158983
-4.703956	250	-4.849496e-05
-4.703956	251	-7.711912e-05
-4.880047	252	-3.85596e-05
-4.880047	253	-3.85596e-05
-4.880047	254	-3.569731e-05
-4.880047	255	-3.569731e-05
-4.880047	256	-2.424793e-05
-4.880047	257	-2.711031e-05
-4.880047	257-67	-3.569731e-05
-4.880047	258	-3.569731e-05
-4.880047	259	-3.569731e-05
-4.880047	25kj487.jpg2z6fhb9.jpg	-3.85596e-05
-4.880047	26.38%	-2.424793e-05
-4.880047	260	8.453608e-05
-4.880047	269	-3.85596e-05
-4.880047	26TH	-2.997266e-05
-4.579017	28	-7.42523e-05
-4.880047	28-2,	-3.569731e-05
-4.880047	28.48%	-1.348292e-06
-4.703956	2800	0.002952265
-4.880047	285	-3.85596e-05
-4.880047	285.	0.02236289
-4.579017	29	2.097584e-05
-4.880047	29.6	8.453608e-05
-4.703956	290,000	0.0006984686
-4.579017	297	0.0007496157
-4.880047	2:53	-3.85596e-05
-4.277987	2A	0.01228891
-4.880047	2A,	0.001073429
-4.880047	2A.	0.02236289
-4.880047	2a.	0.02236289
-4.880047	2am,	-9.935799e-06
-4.880047	2lsoha.jpg	0.0001246213
-3.203354	2nd	0.01359254
-4.703956	2nd,	-7.139444e-05
-4.880047	2nd.	0.02236289
-4.880047	2ndA,	-2.711031e-05
-4.880047	2px;	-3.85596e-05
-4.880047	2zf7pj8.jpg2rcpls4.jpg	-3.85596e-05
-3.766104	3	0.008065265
-4.880047	3"	-2.997266e-05
-4.880047	3",	0.001202581
-4.880047	3%	7.308386e-05
-4.482107	3)	0.0001349606
-4.880047	3,150,435	-3.85596e-05
-4.880047	3,727	-3.85596e-05
-4.579017	3-D	-6.70157e-05
-4.579017	3.	0.02231861
-4.880047	3.1	0.00124277
-4.880047	3.2	-3.283499e-05
-4.880047	3.3	-3.85596e-05
-4.703956	3.5%	0.009303105
-4.880047	3.9	8.453608e-05
-4.880047	3.Is	0.005381947
-4.880047	3/4	0.007645559
-4.703956	3/5	0.007624583
-4.880047	3/5ths	0.007645559
-4.880047	3/8	-3.283499e-05
-4.067134	30	0.000102147
-4.880047	30%	0.007645559
-4.579017	30,	4.75066e-05
-4.880047	30,000	0.001915043
-4.880047	30-06	-2.997266e-05
-4.703956	30.06	0.004185695
-4.880047	30.06.	0.02236289
-4.880047	30.1%	-2.424793e-05
-4.482107	300	0.001181692
-4.402926	300,000	-0.0001391622
-4.880047	3006vs556mm.jpg	0.0001246213
-4.880047	305,074	-3.85596e-05
-4.880047	308.	0.02236289
-4.880047	309	-3.85596e-05
-4.482107	31	-0.0001128094
-4.880047	31,	-3.283499e-05
-4.880047	31.4%	1.514249e-06
-4.703956	32	4.597819e-05
-4.880047	32-37K	-3.85596e-05
-4.880047	32.4%	-1.566071e-05
-4.880047	320	-3.283499e-05
-4.880047	329	8.453608e-05
-4.703956	33	0.002051934
-4.880047	33,000	4.445462e-05
-4.880047	33.	0.02236289
-4.880047	3360	-3.85596e-05
-4.880047	33600	0.01066556
-4.880047	33:	-3.85596e-05
-4.880047	34%	0.001481107
-4.880047	35	0.00258548
-4.703956	35%	0.007615842
-4.880047	350	8.453608e-05
-4.880047	356	-3.85596e-05
-4.703956	36	4.597819e-05
-4.880047	37	0.00479111
-4.880047	37,	-3.85596e-05
-4.880047	37,000	0.00124277
-4.880047	37.00	0.002090466
-4.880047	37.30%	3.014069e-05
-4.880047	38	-3.85596e-05
-4.880047	380.	0.02236289
-4.703956	394,	0.001019724
-4.880047	39th	-2.997266e-05
-4.703956	3D	-5.211302e-05
-4.579017	3d	0.0007094646
-4.880047	3rd	0.002464552
-4.181077	4	0.005180266
-4.880047	4"	0.00479111
-4.579017	4)	-0.000104229
-4.880047	4,	-3.85596e-05
-4.880047	4-5	7.880997e-05
-4.880047	4-6	4.376793e-06
-4.402926	4.	0.02227434
-4.880047	4.7	8.453608e-05
-4.703956	40	0.0001175624
-4.703956	40%	-7.425679e-05
-4.880047	40,	-3.283499e-05
-4.880047	40,000	0.00124277
-4.880047	40.	0.02236289
-4.703956	400	0.000129017
-4.880047	400-600	8.453608e-05
-4.703956	401-402	-5.783767e-05
-4.880047	40mm	-2.711031e-05
-4.880047	40sw	-2.424793e-05
-4.880047	41	-2.997266e-05
-4.880047	427,198-441,322)	1.514249e-06
-4.579017	43	-6.129029e-05
-4.703956	43-year	-4.563242e-05
-4.880047	434,259	-3.569731e-05
-4.880047	44	-9.935799e-06
-4.880047	442..	-1.852315e-05
-4.880047	443	0.0003365617
-4.880047	4473	3.300342e-05
-4.880047	449,895	-3.85596e-05
-4.402926	45	0.001890319
-4.880047	45,	-3.283499e-05
-4.880047	45,000	2.155255e-05
-4.880047	45.	0.02236289
-4.880047	463.	0.02236289
-4.880047	47	-3.85596e-05
-4.880047	47.	0.02236289
-4.880047	474	-3.85596e-05
-4.703956	49	0.007653719
-4.579017	49%	-1.548438e-05
-4.880047	49,882	-2.997266e-05
-4.880047	4A	5.018028e-05
-4.579017	4th	0.00799595
-3.976957	5	0.002188392
-4.703956	5%	0.008625077
-4.880047	5,082	0.007645559
-4.880047	5,300	-9.935799e-06
-4.880047	5-10	0.0001246213
-4.880047	5-6	-4.210838e-06
-4.880047	5-year	-7.073332e-06
-4.482107	5.	0.02229647
-4.880047	5.3	-3.569731e-05
-4.880047	5.5	8.453608e-05
-4.703956	5.56	5.953262e-05
-4.880047	5.56mm	-2.424793e-05
-4.034949	50	0.01090527
-4.880047	50%.	0.02236289
-4.880047	50,000	0.008786188
-4.880047	50-60	0.0001561194
-4.880047	50.	0.02236289
-4.880047	50.08%	7.23938e-06
-4.226835	500	0.004253441
-4.880047	500,	0.006958547
-4.880047	500,000	0.0001246213
-4.880047	50s	0.006958547
-4.579017	51	-7.635918e-05
-4.880047	52%	-3.569731e-05
-4.703956	542	-5.783767e-05
-4.880047	55.	0.02236289
-4.703956	554	-5.878076e-07
-4.880047	56	8.453608e-05
-4.880047	56%.	0.02236289
-4.880047	56,135	-2.997266e-05
-4.880047	569	-3.85596e-05
-4.880047	56906	-3.85596e-05
-4.880047	57.	0.02236289
-4.703956	570	0.00692008
-4.880047	59	0.00124277
-4.880047	59,495	-2.997266e-05
-4.703956	5th	0.007117924
-4.335979	6	0.001638998
-4.482107	6"	0.00258511
-4.880047	6%	1.868987e-05
-4.880047	6,	-3.283499e-05
-4.880047	6-26-2008	-3.85596e-05
-4.880047	6-7	-3.85596e-05
-4.880047	6-8	-2.424793e-05
-4.579017	6.	0.02231861
-4.482107	60	0.0001349605
-4.880047	60%	0.007645559
-4.880047	60's	0.0004339744
-4.880047	60.	0.02236289
-4.579017	600	-8.419146e-05
-4.880047	600fps	5.304315e-05
-4.703956	60s	0.004182804
-4.880047	61	8.73992e-05
-4.880047	62	-3.85596e-05
-4.880047	63%	0.007645559
-4.880047	630,000	0.00124277
-4.880047	636.	0.02236289
-4.880047	637	-3.85596e-05
-4.880047	642	1.010198e-05
-4.880047	65	-3.569731e-05
-4.880047	650,000	0.01066556
-4.880047	672	-3.85596e-05
-4.880047	68	0.001915043
-4.703956	6th	-6.853207e-05
-4.004986	7	0.004258831
-4.880047	7%	0.007645559
-4.880047	7,149,074-9,352,755)	-3.85596e-05
-4.703956	7.	0.02234075
-4.880047	7.5	-9.935799e-06
-4.880047	7.7	-3.85596e-05
-4.579017	70%	0.02120574
-4.880047	70-year-old	7.594687e-05
-4.880047	70s.	0.02236289
-4.703956	71	0.0001461994
-4.880047	72	-3.569731e-05
-4.880047	72%	0.0001160313
-4.703956	723	8.32005e-05
-4.703956	73	-5.783767e-05
-4.880047	73rd	-3.85596e-05
-4.402926	75	0.01068956
-4.482107	75%	0.007593124
-4.880047	75,	-3.85596e-05
-4.880047	78	0.0002105307
-4.880047	79	1.514249e-06
-4.880047	793	-3.85596e-05
-4.880047	7:14.	0.02236289
-4.880047	7th	0.0001561194
-4.335979	8	0.0002203752
-4.880047	8,000	0.00124277
-4.880047	8,250,914	-3.569731e-05
-4.880047	8-12	-3.569731e-05
-4.579017	8-year-old-girl	-9.639606e-05
-4.579017	8.	0.02231861
-4.579017	80	-5.842758e-05
-4.579017	80%	0.009001513
-4.880047	80,000	0.00124277
-4.880047	80-character	-3.85596e-05
-4.703956	800	-5.421993e-05
-4.880047	8100	0.0005170789
-4.880047	8108	0.00258548
-4.880047	82	-3.85596e-05
-4.880047	831	-3.85596e-05
-4.880047	837	-3.85596e-05
-4.880047	84.5	-3.85596e-05
-4.880047	85,000	-3.283499e-05
-4.880047	850,634	-1.852315e-05
-4.880047	87%	0.007645559
-4.880047	896-97	-3.85596e-05
-4.880047	8:00??	0.02236289
-4.880047	8:12-13	-3.283499e-05
-4.226835	9	-6.947782e-05
-4.880047	9%	0.000158983
-4.703956	9,	-7.139444e-05
-4.880047	9,248.	0.02236289
-4.880047	9-0	-3.85596e-05
-4.703956	9-11.	0.02234075
-4.880047	9-11?	0.02236289
-4.703956	9.	0.02234075
-4.880047	9.41;	0.006958547
-4.880047	9.9-11.24	0.0007808264
-4.880047	9/11).	0.02236289
-4.402926	90%	0.007555255
-4.880047	90%,	0.001027518
-4.880047	90%.	0.02236289
-4.703956	90's.	0.02234075
-4.880047	90's.It	0.0001475288
-4.880047	90,	0.001041865
-4.880047	900	-3.85596e-05
-4.880047	91.5	0.00124277
-4.880047	911	-3.569731e-05
-4.880047	911"	0.00258548
-4.703956	92	-5.878076e-07
-4.880047	92%	0.007645559
-4.880047	92,	0.006958547
-4.880047	922(d),	0.002801506
-4.880047	922-23;	-3.85596e-05
-4.880047	93,	-1.279829e-05
-4.880047	94%	0.007645559
-4.880047	94,	0.001041865
-4.880047	94.	0.02236289
-4.880047	95%	-3.283499e-05
-4.880047	97%	0.007645559
-4.880047	99	-3.85596e-05
-4.579017	99%	0.0125014
-4.880047	99.x	-3.283499e-05
-4.880047	9:29)	-2.424793e-05
-3.880047	9mm	0.0178825
-4.880047	9mm,	-3.85596e-05
-4.579017	9mm.	0.02231861
-4.482107	9th	7.481428e-05
-4.880047	9yet	0.0001990751
-3.902323	:	0.001809872
-4.880047	:-).	0.02236289
-4.703956	:.	0.02234075
-4.880047	:....Because	0.002801506
-4.880047	:P	0.0001246213
-4.880047	:P.	0.001561539
-4.880047	:doublefacepalm:	3.300342e-05
-4.226835	;	0.01969882
-1.298553	</s>
-4.880047	<fraction>	0.007645559
-4.880047	<fractional>	-3.569731e-05
-4.880047	<further	-7.073332e-06
-99	<s>	0.01061845
-4.880047	<stop>?	0.02236289
-4.880047	<yawn>	4.376793e-06
-4.101896	=	0.01045454
-4.880047	>	-3.569731e-05
-4.579017	>"	0.0004371087
-3.880047	?	0.02196454
-4.335979	?.	0.0222522
-4.880047	??	0.02236289
-4.703956	@	-4.276991e-05
-4.880047	@AP	-3.569731e-05
-4.880047	@Checkerboard	0.0007005386
-3.151693	A	0.006049994
-4.880047	A's,	-3.283499e-05
-4.880047	A-15	0.0002334426
-4.880047	A-3645/S-2476	-2.711031e-05
-4.880047	A-3646/S-2474	-3.85596e-05
-4.880047	A-3653	-3.85596e-05
-4.880047	A-3659	-3.85596e-05
-4.880047	A-3664	-3.569731e-05
-4.880047	A-3666/S-2465	-3.569731e-05
-4.880047	A-3667	-2.711031e-05
-4.880047	A-3668/S-2467	-3.569731e-05
-4.880047	A-3676	-2.711031e-05
-4.880047	A-3687	-3.85596e-05
-4.880047	A-3688	-2.711031e-05
-4.880047	A-3689	-2.711031e-05
-4.880047	A-3690/S-2430	-3.85596e-05
-4.703956	A.	-7.711912e-05
-4.880047	A1.	0.02236289
-4.579017	AA	-0.0001128162
-4.880047	AA,	0.002801506
-4.880047	AA.	0.02236289
-4.880047	AARP	0.006958547
-4.880047	ABC	-2.997266e-05
-4.880047	ABC.Net.au	0.0001933474
-4.880047	ABOUT	-3.85596e-05
-4.880047	ABSOLUTELY!	0.02236289
-4.703956	ACA.	0.02234075
-4.880047	ACCIDENTAL	-3.85596e-05
-4.880047	ACT	0.001771308
-4.880047	ACT!)	0.02236289
-4.703956	ACT,	0.0005387168
-4.880047	ACTUALLY	0.0001904835
-4.880047	ADHD	0.006958547
-4.880047	ADRIAN	-3.85596e-05
-4.880047	AF	0.002951347
-4.880047	AFACIT,	2.441524e-05
-4.880047	AFFIRNATION	-2.138554e-05
-4.880047	AFTER	0.0008381837
-4.880047	AGAINST	0.0005371411
-4.880047	AID.	0.02236289
-4.703956	AIDS	0.0009229821
-4.880047	AIDS.	0.02236289
-4.880047	AJR-89	-3.569731e-05
-4.880047	AK	-3.85596e-05
-4.880047	AK,	0.002801506
-4.880047	AK-47	0.00479111
-4.880047	AK47	0.006958547
-4.880047	AKA	-2.138554e-05
-4.880047	AKHIL	-3.85596e-05
-4.402926	ALL	0.0007126757
-4.880047	ALSO	-2.997266e-05
-4.880047	ALWAYS	0.0004053213
-4.880047	AMAR,	1.29646e-05
-4.880047	AMERICAN	-3.85596e-05
-4.181077	AND	0.005749933
-4.880047	AND,	0.001774182
-4.880047	AND------------it	0.00162762
-4.880047	ANTI	-3.283499e-05
-4.579017	ANY	-9.758323e-06
-4.880047	ANYONE	-2.997266e-05
-4.703956	ANYTHING	0.002881125
-4.703956	AP	0.0008914251
-4.880047	APPLY	0.01066556
-3.925805	AR	0.01680534
-4.703956	AR's	0.007406123
-4.880047	AR,	0.0004683606
-4.880047	AR-1,	-3.85596e-05
-4.880047	AR-10	-2.997266e-05
-4.880047	AR-10,	-3.85596e-05
-4.880047	AR-10;	-3.85596e-05
-4.880047	AR-133	-3.85596e-05
-3.976957	AR-15	0.01568516
-4.880047	AR-15'S	0.000422513
-4.482107	AR-15's	0.01028341
-4.880047	AR-15's,	-2.997266e-05
-4.703956	AR-15,	0.000977495
-4.703956	AR-15.	0.02234075
-4.880047	AR-15?	0.02236289
-4.880047	AR-15?"	0.02236289
-4.703956	AR-15s	0.002961827
-4.880047	AR-15s.	0.02236289
-4.880047	AR-16	0.006958547
-4.880047	AR-17.	0.02236289
-4.880047	AR-5,	-3.85596e-05
-4.880047	AR-7,	-3.85596e-05
-4.579017	AR.	0.02231861
-4.880047	AR12	0.01066556
-4.004986	AR15	0.02906023
-4.703956	AR15,	0.002549835
-4.579017	AR15.	0.02231861
-4.880047	AR15...	0.0001332115
-4.880047	AR15?	0.02236289
-4.880047	AR15s	0.002974405
-4.703956	ARE	-5.555147e-06
-4.880047	AREN'T	0.008786188
-4.880047	ARMED	-3.85596e-05
-4.880047	ARMY	-3.283499e-05
-4.482107	ARTICLE	-0.0001485131
-4.880047	ASCII	-3.569731e-05
-4.482107	ATF	0.01198592
-4.880047	ATF.	0.02236289
-4.579017	ATF4473	0.001878232
-4.880047	ATF4473,	-9.935799e-06
-4.880047	ATF4473.	0.02236289
-4.880047	ATV's.	0.02236289
-4.880047	AUTO	-3.85596e-05
-4.880047	AWAY.	0.02236289
-4.880047	AZ	-3.569731e-05
-4.880047	Aaaaaand....	7.23938e-06
-4.880047	Abbott	-3.283499e-05
-4.880047	Abiding	-3.85596e-05
-4.880047	Abortion	0.0009271032
-4.880047	Abortion,	0.0004683606
-4.880047	Abortion.	0.02236289
-4.880047	Abortion:627698	-3.85596e-05
-4.579017	About	0.01574157
-4.880047	Above!	0.02236289
-4.482107	Absolutely	0.0001263677
-4.703956	Absolutely!	0.02234075
-4.880047	Absolutely.	0.02236289
-4.880047	Abundance	0.007645559
-4.880047	Abuse:14373	-3.85596e-05
-4.880047	Academics	2.441524e-05
-4.880047	Academies	-1.279829e-05
-4.880047	Access	-3.569731e-05
-4.880047	Accident	-3.85596e-05
-4.880047	Accidental/unintendeddeaths,	0.0001274846
-4.880047	Accidents	0.00479111
-4.226835	According	0.0105106
-4.880047	Accursed,	-3.85596e-05
-4.335979	Act	0.01629474
-4.880047	Act".	0.02236289
-4.703956	Act,	0.01583929
-4.880047	Acting?	0.02236289
-4.482107	Action	0.005082896
-4.880047	Active	4.731744e-05
-4.880047	Acts	4.159178e-05
-4.101896	Actually	0.03043624
-4.226835	Actually,	0.02860733
-4.880047	Actually...criminals	1.582722e-05
-4.703956	Adam	-7.139445e-05
-4.703956	Adams	-7.139444e-05
-4.880047	Adams,	0.0001074414
-4.579017	Add	0.01062128
-4.703956	Additionally,	0.01579772
-4.880047	Administration	0.001590269
-4.880047	Administration.	0.02236289
-4.880047	Admittedly	0.00423576
-4.880047	Adoption	0.007645559
-4.880047	Ads	-3.283499e-05
-4.880047	Adults	0.002951347
-4.880047	Advantages	-2.997266e-05
-4.880047	Advertising	-3.85596e-05
-4.880047	AfaIk,	0.001774182
-4.703956	Affirmative	-5.211302e-05
-4.402926	Africa	0.01021567
-4.880047	Africa's	-9.935799e-06
-4.880047	Africa,	0.001774182
-4.579017	African	-7.06342e-05
-4.880047	Africans	0.000720609
-4.880047	AfroAmericanist	-3.85596e-05
-4.101896	After	0.02634432
-4.335979	Again	0.02079038
-4.482107	Again,	0.01974175
-4.880047	Again.	0.02236289
-4.703956	Again...	0.0006275838
-4.880047	Again.....	-3.283499e-05
-4.703956	Age	0.007624583
-4.880047	Agencies	2.155255e-05
-4.880047	Agent	-2.138554e-05
-4.880047	Ages	0.001771308
-4.482107	Agreed,	0.008784803
-4.880047	Agreed.	0.02236289
-4.880047	Ah	0.0001274846
-4.880047	Ah,	0.01581529
-4.335979	Air	-0.0001977582
-4.703956	Aircraft	-5.783767e-05
-4.880047	Airmen	-9.935799e-06
-4.703956	Akhil	-7.425679e-05
-4.880047	Al	-3.569731e-05
-4.880047	Al-Madinah,	-3.569731e-05
-4.703956	Alabama	0.00692008
-4.880047	Alabama,	0.00479111
-4.880047	Alarm	1.514249e-06
-4.880047	Alas;	0.004120152
-4.880047	Alaska	0.0008525246
-4.703956	Albania	-6.566968e-05
-4.880047	Alcohol,	-3.85596e-05
-4.880047	Alcohol:57481	-3.85596e-05
-4.880047	Alex	-9.935799e-06
-4.880047	Algonquin	-3.85596e-05
-4.880047	Aliens	0.001027518
-4.880047	Alinksy	-3.85596e-05
-4.880047	Alinsky	-3.85596e-05
-4.880047	Alinsky.	0.02236289
-4.880047	Alioto--and	-7.073332e-06
-4.880047	Alito).	0.02236289
-3.612875	All	0.04478166
-4.335979	Allah	0.0131147
-4.880047	Allen	-3.85596e-05
-4.880047	Allow	-2.424793e-05
-4.703956	Allowed"	-2.84569e-05
-4.880047	Allowed",	0.001771308
-4.880047	Allowing	-1.279829e-05
-4.703956	Already	4.597818e-05
-4.880047	Alright.	0.02236289
-4.101896	Also	0.02180961
-4.181077	Also,	0.01225186
-4.880047	Also,there	0.0006259988
-4.880047	Alstyne,	0.001561539
-4.880047	Alstyne,250	-3.569731e-05
-4.482107	Although	0.02106937
-4.703956	Always	0.00692008
-4.880047	Alzheimer's	-3.85596e-05
-4.703956	Am	0.00421362
-4.703956	Am.	0.02234075
-4.880047	Amadou	-3.85596e-05
-4.703956	Amar	0.01473024
-4.880047	Amar,251	-3.85596e-05
-4.880047	Amazing	-3.85596e-05
-4.880047	Ambiguous	0.001041865
-4.880047	Ameen	-2.997266e-05
-4.880047	Amendmenet	0.005381947
-3.135754	Amendment	0.0631655
-4.880047	Amendment's	-3.85596e-05
-4.880047	Amendment),	0.006958547
-4.880047	Amendment).	0.02236289
-4.101896	Amendment,	0.01662539
-4.880047	Amendment,	8.453608e-05
-4.880047	Amendment--which	0.005182015
-3.925805	Amendment.	0.02200878
-4.880047	Amendment....just	-3.85596e-05
-4.880047	Amendment.259	-3.85596e-05
-4.703956	Amendment:	0.001523001
-4.402926	Amendment?	0.02227434
-4.703956	Amendments	0.0137156
-4.880047	Amendments,	-1.566071e-05
-3.902323	America	0.0355043
-4.880047	America!	0.02236289
-4.703956	America's	-1.414345e-05
-4.880047	America)	0.0008123722
-4.335979	America,	0.006990261
-4.880047	America,	0.0005543379
-4.880047	America-	1.514249e-06
-4.181077	America.	0.0221858
-3.456801	American	0.01798971
-4.880047	American"	-3.569731e-05
-4.579017	American,	0.004883901
-4.579017	American.	0.02231861
-3.689715	Americans	0.04861218
-4.703956	Americans"	0.0006017818
-4.880047	Americans".	0.02236289
-4.335979	Americans,	0.00672549
-4.335979	Americans.	0.0222522
-4.880047	Americans..	0.0007005386
-4.880047	Americans?.	0.02236289
-4.880047	Amin.	0.02236289
-4.880047	Ammendment.	0.02236289
-4.703956	Ammo	0.001784512
-4.880047	Ammunition	0.005182015
-4.880047	Amnesty	0.002974405
-4.880047	Amy	-3.85596e-05
-3.950628	An	-0.0001185229
-4.880047	Ancient	-3.85596e-05
-2.863014	And	0.1117096
-4.101896	And,	0.03596091
-4.703956	Andrew	-7.139445e-05
-4.482107	Angeles	0.006868202
-4.880047	Anger	-9.935799e-06
-4.880047	Anglo:	-3.569731e-05
-4.703956	Annual	2.307372e-05
-4.402926	Another	0.0003370765
-4.703956	Anti	8.320051e-05
-4.880047	Anti-2nd	0.0002735416
-4.579017	Anti-Federalists	0.001521812
-4.880047	Anti-Federalists,	0.001774182
-4.880047	Anti-Personnel	-3.85596e-05
-4.880047	Antifa	0.006958547
-4.703956	Antonin	-5.994484e-05
-4.067134	Any	0.003061218
-4.880047	Anymore	0.000694804
-4.226835	Anyone	0.003899731
-4.402926	Anything	0.0009364694
-4.880047	Anyway	0.01581529
-4.579017	Anyway,	0.005284683
-4.880047	Anyway,,	0.01581529
-4.880047	Anyways	0.0008123722
-4.880047	Ao	0.01066556
-4.880047	Apache?	0.02236289
-4.880047	Apoplectic	-3.85596e-05
-4.880047	Apostle.	0.02236289
-4.880047	Apparently	0.002671877
-4.880047	Apparently,	0.004120152
-4.880047	Appeal	0.01066556
-4.703956	Apple	0.006960806
-4.880047	Applies	2.155255e-05
-4.880047	Apply	0.001216934
-4.880047	Applying	0.01581529
-4.880047	Appropriate	-2.424793e-05
-4.880047	Apr	-3.283499e-05
-4.579017	April	0.008715147
-4.880047	Archie	-3.85596e-05
-4.880047	Archive[GVA]),	0.006958547
-4.880047	Ardern.	0.02236289
-3.703956	Are	0.02408631
-4.880047	Area	4.159178e-05
-4.880047	Argue	0.005381947
-4.880047	Argument	0.001027518
-4.880047	Argumentum	-9.935799e-06
-4.880047	Arizona	0.00423576
-4.482107	Arkansas	0.009925851
-4.880047	Arkansas,	0.0007435479
-4.880047	Arkansas.	0.02236289
-4.880047	Arm	0.0005543379
-4.482107	ArmaLite	0.00252949
-4.703956	ArmaLite.	0.02234075
-4.880047	Armalite	-1.852315e-05
-4.880047	Armalite.	0.02236289
-4.335979	Armed	-0.0001863078
-4.880047	Armenians	-1.566071e-05
-4.880047	Armenians.	0.02236289
-4.579017	Arming	6.678805e-05
-4.703956	Armory	-7.425679e-05
-4.101896	Arms	0.01220607
-4.101896	Arms,	0.001636737
-4.579017	Arms.	0.02231861
-4.579017	Arms:	0.001569816
-4.880047	Arms?	0.02236289
-4.880047	Army	-3.85596e-05
-4.880047	Army"	0.001590269
-4.880047	Art	-2.711031e-05
-4.579017	Arthur	-9.639606e-05
-4.335979	Article	0.01569
-4.880047	Articles:	1.514249e-06
-3.251658	As	0.06812106
-4.880047	As,	0.0001675738
-4.880047	Asbergers	-3.85596e-05
-4.880047	Asians	0.006958547
-4.579017	Aside	0.0009832382
-4.880047	Ask	1.514249e-06
-4.880047	Aspergers	0.006958547
-4.402926	Assault	0.002215451
-4.880047	Assembly	-2.711031e-05
-4.482107	Associated	-9.563484e-05
-4.482107	Association	0.01452322
-4.703956	Association,	0.004200147
-4.880047	Association.	0.02236289
-4.880047	Assuming	0.00258548
-3.766104	At	0.02586296
-4.880047	Atchison	1.582722e-05
-4.880047	Atheist	0.0009615284
-4.880047	Attacking	0.00118823
-4.880047	Attacks	0.001481107
-4.880047	Attend	-2.997266e-05
-4.880047	Attorney	-3.569731e-05
-4.880047	August	-3.569731e-05
-4.880047	Aulinskites	0.0007435479
-4.880047	Aulinsky	6.163192e-05
-4.880047	Aulinsky/Lennon	0.006958547
-4.880047	Aurora	4.731744e-05
-4.880047	Aurora,	-2.711031e-05
-4.703956	Aussies	0.001413845
-4.880047	Austin	2.155255e-05
-4.181077	Australia	0.01247301
-4.880047	Australia's	-1.279829e-05
-4.880047	Australia).	0.02236289
-4.703956	Australia,	-5.708239e-05
-4.703956	Australia.	0.02234075
-4.880047	Australia....	-1.566071e-05
-4.880047	Australian	0.0004683606
-4.703956	Australians	0.003328047
-4.880047	Austria	-3.569731e-05
-4.880047	Authority	0.01066556
-4.703956	Auto	-7.139444e-05
-4.880047	Auto,	0.006958547
-4.703956	Auto:	-7.425679e-05
-4.579017	Automatic	0.0001506025
-4.880047	Avoid	0.0008783387
-4.880047	Ayers	0.005182015
-4.880047	Ayers'	-3.283499e-05
-4.703956	Ayers,	0.01580366
-4.880047	Aztec's	0.00162762
-4.880047	B	0.005182015
-4.703956	B.	-5.783767e-05
-4.880047	B.S.	0.02236289
-4.880047	B2's	0.0005170789
-4.880047	BA	0.001027518
-4.880047	BACKGROUND	-3.85596e-05
-4.482107	BACS	0.007579141
-4.703956	BAD	6.888383e-05
-4.880047	BATF	0.006958547
-4.880047	BATHTUB	-3.85596e-05
-4.880047	BBC	0.005381947
-4.579017	BE	-0.0001156786
-4.703956	BECAUSE	-5.421995e-05
-4.880047	BEING	-3.85596e-05
-4.880047	BELIEVE	-1.566071e-05
-4.880047	BETTER	-3.85596e-05
-4.880047	BG	6.163192e-05
-4.880047	BG,	0.004120152
-4.703956	BILL	-4.35259e-05
-4.880047	BLAME	1.29646e-05
-4.579017	BLM	0.001745977
-4.703956	BLM.	0.02234075
-4.880047	BLOOD	-3.85596e-05
-4.880047	BOR	-3.85596e-05
-4.880047	BREAKING	1.29646e-05
-4.880047	BREATH!.	0.02236289
-4.579017	BS	0.005186158
-4.579017	BS.	0.02231861
-4.880047	BS...	0.02236289
-4.482107	BTW	0.001195225
-4.579017	BTW,	0.01378656
-4.703956	BTW.	0.02234075
-4.880047	BUT,	0.01581529
-4.880047	BUt	0.01581529
-4.482107	BY	-0.0001485131
-4.880047	Baby	-2.138554e-05
-4.579017	Back	0.007338543
-4.880047	Backed	-1.279829e-05
-4.579017	Background	-1.33802e-05
-4.482107	Bad	-0.0001006044
-4.880047	BahamaBob	0.0003508858
-4.880047	Bail	-3.85596e-05
-4.880047	Bakers	0.002951347
-4.880047	Bakers",	0.006958547
-4.880047	Balance:	0.001561539
-4.880047	Balcombe	-3.283499e-05
-4.880047	Ball	-3.85596e-05
-4.402926	Baltimore	0.007086939
-4.880047	Baltimore".	0.02236289
-4.880047	Baltimore's	-1.852315e-05
-4.880047	Baltimore,	0.0003279674
-4.703956	Baltimore?	0.02234075
-4.579017	Ban	0.000471502
-4.880047	Bank	0.001917919
-4.880047	Banks,	-3.85596e-05
-4.880047	Banning	0.0007808264
-4.880047	Bans	-3.85596e-05
-4.880047	Bans"	0.0001790285
-4.402926	Barack	-3.533482e-05
-4.880047	Barking	-3.85596e-05
-4.880047	Barnett	1.582722e-05
-4.880047	Barnett,254	-3.569731e-05
-4.703956	Based	0.001895778
-4.880047	Basic	0.0003652102
-4.482107	Basically,	0.007116668
-4.880047	Baton	-3.569731e-05
-4.880047	Battle	0.0003193735
-4.880047	Baty,	-2.424793e-05
-4.880047	Bayer	0.0002391708
-4.880047	Bayer:	-3.85596e-05
-4.579017	Be	-0.0001013665
-4.579017	Bear	-4.411363e-05
-4.880047	Bearing	0.0001962113
-4.880047	Beat	0.01581529
-3.624775	Because	0.04918299
-4.880047	Bed:344	-3.283499e-05
-4.880047	Bed:448	-3.283499e-05
-4.880047	Bee	0.0001246213
-4.402926	Before	0.01662157
-4.703956	Begins	0.004752615
-4.139685	Being	0.01248036
-4.703956	Belgium	-7.139445e-05
-4.880047	Belief	0.0001418018
-4.880047	Believe	-3.85596e-05
-4.880047	Belize	-3.85596e-05
-4.880047	Bell	0.005182015
-4.880047	Belt	-3.569731e-05
-4.703956	Ben	-7.711912e-05
-4.880047	Berdoo	0.006958547
-4.703956	Beretta	0.001752893
-4.703956	Berger	2.021075e-05
-4.880047	Bernadino	0.001771308
-4.880047	Bernardino,	0.0002105307
-4.703956	Bernie	-6.566968e-05
-4.703956	Besides	1.162193e-05
-4.880047	Besides,	0.0004397051
-4.880047	Best	0.007645559
-4.226835	Beto	0.00698788
-4.880047	Beto's	4.731744e-05
-4.880047	Beto.	0.02236289
-4.880047	Beto...got	0.0003165089
-4.482107	Better	0.0002438178
-4.880047	Between	-3.569731e-05
-4.703956	Beyond	2.803992e-05
-4.880047	Bible	-3.85596e-05
-4.880047	Bible,	0.0009615284
-4.880047	Bible.	0.02236289
-4.703956	Biden	0.006792111
-4.880047	Biden.	0.02236289
-4.226835	Big	-0.000280599
-4.880047	Bigotry.	0.02236289
-3.902323	Bill	0.007947122
-4.880047	Bill),	0.001202581
-4.880047	Billionaire,	0.002090466
-4.703956	Billy	-7.711912e-05
-4.880047	Bingo.	0.02236289
-4.880047	Biology	-3.569731e-05
-4.880047	Birmingham	-2.138554e-05
-4.880047	Birmingham,	-3.85596e-05
-4.880047	Bishop,	-3.85596e-05
-4.181077	Black	0.0009717568
-4.880047	Black__4%	0.001823047
-4.482107	Blacks	0.00491303
-4.703956	Bless	-6.280727e-05
-4.880047	Blessings	0.007645559
-4.880047	Blind	-3.85596e-05
-4.880047	Bliss	-2.711031e-05
-4.880047	Blood	-3.85596e-05
-4.880047	Bloomberg's	-3.85596e-05
-4.703956	Blow	0.0003868249
-4.482107	Blue	-0.0001235046
-4.880047	Blue.	0.02236289
-4.880047	Blunt	-3.85596e-05
-4.703956	BoR	0.0009746259
-4.880047	Board	0.007645559
-4.880047	Boarding	0.001216934
-4.880047	Bob	3.014069e-05
-4.880047	Bob".	0.02236289
-4.880047	Bob's	-3.283499e-05
-4.880047	Bodies	0.0009328405
-4.880047	Bombs	-3.85596e-05
-4.880047	Bondsmen.	0.02236289
-4.880047	Booker,	-3.283499e-05
-4.880047	Boowhoo.	0.02236289
-4.703956	Border	-5.783767e-05
-4.880047	Boring,	-3.85596e-05
-4.880047	Boston	-3.569731e-05
-4.402926	Both	0.003740776
-4.482107	Bottom	-7.770296e-05
-4.880047	Bottom.	0.02236289
-4.880047	Boxer	3.586619e-05
-4.482107	Boy	0.0008364779
-4.880047	Boy,	0.001130825
-4.880047	Brady	1.010198e-05
-4.880047	Brain	-3.85596e-05
-4.880047	Brazil	0.0004597637
-4.880047	Brazil,	0.002801506
-4.880047	Brazil.	0.02236289
-4.880047	Brazilian	0.0004683606
-4.880047	Break.	0.02236289
-4.880047	Breaking	-3.85596e-05
-4.880047	BrewerBob	-2.711031e-05
-4.880047	Breyer)	0.000720609
-4.880047	Bridgeport	-3.85596e-05
-4.880047	Brit.	0.02236289
-4.402926	Britain	0.0210822
-4.067134	British	0.001416418
-4.880047	British,	4.445462e-05
-4.703956	Brother	0.005149319
-4.277987	Broward	0.005298632
-4.880047	Brownsville,	4.376793e-06
-4.880047	Bryan!!"	0.02236289
-4.880047	Bryan,	-2.711031e-05
-4.880047	Bubba_	0.001561539
-4.703956	Bull	-5.783767e-05
-4.880047	Bullet	0.0002133945
-4.880047	Bullets	0.002974405
-4.703956	Bump	-4.066351e-05
-4.880047	Bundy	-2.424793e-05
-4.880047	Bunker	0.000284999
-4.880047	Burch,	0.008786188
-4.703956	Bureau	0.007623419
-4.880047	Burger	-3.85596e-05
-4.880047	Burglaries	-3.85596e-05
-4.579017	Bush	0.007868836
-4.880047	Business	0.000158983
-3.057225	But	0.08431663
-4.181077	But,	0.02488212
-4.880047	Butchering	0.00124277
-3.925805	By	0.0248553
-4.703956	Byrd	0.007423596
-4.880047	C-4	0.005182015
-4.880047	C.	-3.85596e-05
-4.880047	C.F.R.	0.02236289
-4.880047	CA	0.0003995909
-4.880047	CA.	0.02236289
-4.880047	CAN	0.001130825
-4.880047	CARE	0.001073429
-4.880047	CAUSATIVE)	7.308386e-05
-4.880047	CBC	-2.711031e-05
-4.880047	CC,	0.002671877
-4.880047	CCTV	-3.85596e-05
-4.101896	CCW	0.01881013
-4.703956	CCW.	0.02234075
-4.703956	CCWs	0.008254362
-3.976957	CDC	0.01622604
-4.703956	CDC.	0.02234075
-4.880047	CDC?	0.02236289
-4.880047	CEO	0.00162762
-4.880047	CEOs	0.002951347
-4.880047	CHANGE).	0.02236289
-4.880047	CHECKS"	0.006958547
-4.880047	CHI.-KENT	-2.138554e-05
-4.880047	CHILDREN	-3.85596e-05
-4.880047	CI	-3.85596e-05
-4.880047	CIA,	2.727796e-05
-4.880047	CIC.	0.02236289
-4.880047	CITY	-3.569731e-05
-4.880047	CIVIL	-3.85596e-05
-4.880047	CLAUSE's	1.868987e-05
-4.880047	CMP	-3.85596e-05
-4.335979	CNN	-0.0002055935
-4.880047	CNN's	0.0001188946
-4.880047	CNNPolitics	0.0002993213
-4.880047	CO2	-3.283499e-05
-4.880047	CODE:	-3.85596e-05
-4.880047	COMMERCE	-3.85596e-05
-4.880047	COMMIT	1.29646e-05
-4.880047	CONST.	0.02236289
-4.880047	CONSTITUION,	-3.283499e-05
-4.880047	CONSTITUTION	-2.138554e-05
-4.880047	CONSTITUTIONAL	-3.283499e-05
-4.703956	CONTROL	0.007615842
-4.880047	CONTROL.	0.02236289
-4.880047	COPS....	0.000694804
-4.880047	COULD	-1.348292e-06
-4.880047	COURT	-3.569731e-05
-4.703956	CPR	0.007004444
-4.880047	CPR.	0.02236289
-4.880047	CPRC:	-3.569731e-05
-4.880047	CRA	0.007645559
-4.880047	CRACK	0.01066556
-4.880047	CREATION	-1.566071e-05
-4.880047	CRIME.	0.02236289
-4.703956	CRIMINAL	0.007936444
-4.880047	CRPA	-3.85596e-05
-4.880047	CRW's	0.0001733011
-4.880047	CS,	0.0008381837
-4.880047	CSA	0.00162762
-4.703956	CSSO	0.001014797
-4.880047	CSSO's	0.00479111
-4.880047	CURRENTLY	0.0009271032
-4.880047	CUTS	-3.85596e-05
-4.880047	Cal	-3.85596e-05
-4.880047	Cal.	0.02236289
-4.880047	Calamity	0.0001475288
-4.880047	Calhoun's	-3.85596e-05
-4.880047	Caliber	1.868987e-05
-4.034949	California	0.02357091
-4.880047	California's	-9.935799e-06
-4.880047	California,	0.006958547
-4.703956	California.	0.02234075
-4.880047	Californicate	-3.85596e-05
-4.482107	Call	0.0192476
-4.703956	Calling	0.001465547
-4.579017	Cambodia	-4.697649e-05
-4.880047	Camera	-3.85596e-05
-4.880047	Camera"	-2.711031e-05
-4.880047	Campuses	-9.935799e-06
-4.181077	Can	0.01369958
-4.226835	Can't	-0.0002091834
-4.181077	Canada	0.03313833
-4.579017	Canada,	-4.697647e-05
-4.482107	Canada.	0.02229647
-4.703956	Canadians	0.003062723
-4.880047	Cancer:340114	-3.85596e-05
-4.880047	Candidates	7.308386e-05
-4.880047	Candle	-3.283499e-05
-4.880047	Candy	-3.569731e-05
-4.880047	Capitalism	-3.569731e-05
-4.880047	Capitalists	0.002951347
-4.880047	Caplan,	-3.85596e-05
-4.880047	Capster78	0.0003136442
-4.703956	Car	-6.853207e-05
-4.880047	Carbine,	0.0001103047
-4.880047	Carcano,	-3.569731e-05
-4.880047	Card	0.0006690009
-4.880047	Card!	0.02236289
-4.880047	Card.	0.02236289
-4.880047	Carelessly	-1.852315e-05
-4.579017	Carolina	-0.0001099538
-4.579017	Carry	0.0006607148
-4.880047	Carry.	-3.85596e-05
-4.579017	Carry:	-0.0001128162
-4.880047	Carrying	0.008786188
-4.579017	Cars	0.002930125
-4.880047	Cars/Trucks	-3.85596e-05
-4.880047	Carson	-3.85596e-05
-4.880047	Carta,	0.007645559
-4.880047	Carta.	0.02236289
-4.880047	Cartagena,	-3.85596e-05
-4.880047	Cartel.	0.02236289
-4.880047	Carter.	0.02236289
-4.880047	Case	-3.85596e-05
-4.880047	Cases	0.007645559
-4.880047	Casper	0.004120152
-4.880047	Castille	0.0001503923
-4.880047	Castro,	0.006958547
-4.880047	Casual	5.876899e-05
-4.880047	Catholic	-3.85596e-05
-4.880047	Catholics	0.0004597637
-4.703956	Cause	0.01765725
-4.880047	Celebrity.	0.02236289
-4.402926	Center	0.01332281
-4.880047	Center,	0.006958547
-4.880047	Central	-3.85596e-05
-4.880047	Centrally	-3.283499e-05
-4.880047	Century	0.0008123722
-4.880047	Century;	1.010198e-05
-4.579017	Certainly	0.01016646
-4.880047	Certainly,	0.001216934
-4.880047	Certified	-3.569731e-05
-4.703956	Chad	0.003224205
-4.880047	Chain	-3.85596e-05
-4.880047	Chamber	0.007645559
-4.880047	Channel	7.23938e-06
-4.880047	Chapter	3.014069e-05
-4.880047	Charge	0.008786188
-4.880047	Charles	-3.569731e-05
-4.880047	Charta!	0.02236289
-4.880047	Charts	0.006958547
-4.880047	Chavez	-2.997266e-05
-4.880047	Chavez.	0.02236289
-4.880047	Cheap	-3.85596e-05
-4.579017	Check	0.0008414038
-4.880047	Cheetos	3.872897e-05
-4.880047	Cherokee?	0.02236289
-4.880047	Chevy	0.006958547
-4.402926	Chicago	0.01110494
-4.579017	Chicago,	0.002433565
-4.703956	Chicago.	0.02234075
-4.880047	Chicago...	-2.711031e-05
-4.880047	Chicago...where	0.001774182
-4.880047	Chicago?	0.02236289
-4.880047	Chicago?.	0.02236289
-4.880047	Chicken	-3.85596e-05
-4.402926	Chief	0.007497557
-4.880047	Child	-3.85596e-05
-4.703956	Children	1.658861e-05
-4.880047	Children,	0.001823047
-4.880047	Chill...........the	-3.569731e-05
-4.482107	China	-7.122044e-05
-4.880047	China,	-2.424793e-05
-4.880047	Chinese	0.001823047
-4.880047	Chinese.	0.02236289
-4.703956	Choice	-6.566968e-05
-4.880047	Chris	-3.569731e-05
-4.880047	Christ	-1.279829e-05
-4.139685	Christian	0.01090702
-4.703956	Christian,	0.001100892
-4.880047	Christian.	0.02236289
-4.579017	Christianity	0.0008721546
-4.579017	Christianity.	0.02231861
-4.703956	Christians	0.0006103823
-4.579017	Christians.	0.02231861
-4.880047	Chrome	-3.85596e-05
-4.880047	Chronicles	-3.85596e-05
-4.703956	Chuck	-7.711912e-05
-4.579017	Church	0.002024909
-4.880047	Church.	0.02236289
-4.880047	Churchgoers	-3.85596e-05
-4.880047	Churchill.	0.02236289
-4.703956	Cincinnati	0.0002349862
-4.703956	Circuit	-5.994484e-05
-4.880047	Circuit,	0.01581529
-4.880047	Citations	0.007645559
-4.880047	Cities,	0.006958547
-4.579017	Citizens	0.003572345
-4.880047	Citizens"	0.01066556
-4.880047	Citizens--meaning	0.008786188
-4.482107	City	0.01501203
-4.880047	Civics	-7.073332e-06
-4.335979	Civil	-3.245996e-05
-4.880047	Clampett	2.441524e-05
-4.703956	Class	0.0004949386
-4.880047	Claus	7.23938e-06
-4.703956	Clause	0.008283542
-4.880047	Clause.	0.02236289
-4.703956	Clearly	0.01858852
-4.703956	Cleveland	0.0002034791
-4.880047	Cleveland’s	-3.85596e-05
-4.880047	Clever	-3.283499e-05
-4.277987	Clinton	0.007063044
-4.880047	Clinton,	-3.85596e-05
-4.880047	Clipdraw	0.0009271032
-4.880047	Cliven	-3.85596e-05
-4.880047	Close	0.01581529
-4.880047	Clown	-3.85596e-05
-4.880047	Club"	0.00423576
-4.880047	Club".	0.02236289
-4.880047	Clubs/Hammers:	-3.85596e-05
-4.880047	Co-Op	0.001771308
-4.880047	Co.	7.23938e-06
-4.880047	Coach	-3.569731e-05
-4.880047	Coal	-3.283499e-05
-4.880047	Coalition	0.01066556
-4.880047	Coast	-3.85596e-05
-4.880047	Cobra	0.005182015
-4.880047	Cocked	1.582722e-05
-4.703956	Cockrum	2.879975e-05
-4.277987	Code	0.008513422
-4.880047	Code.-The	8.167298e-05
-4.880047	Code;	0.01581529
-4.880047	Code[W:118])	5.018028e-05
-4.703956	Codes	0.006936406
-4.703956	Codes,	-5.421992e-05
-4.880047	Codes,”	2.155255e-05
-4.880047	Cody	-3.569731e-05
-4.703956	Cold	5.89617e-06
-4.880047	Cole	-3.85596e-05
-4.880047	Collateral	-3.85596e-05
-4.880047	Collection	0.007645559
-4.703956	College	-5.421993e-05
-4.880047	Collins	-3.85596e-05
-4.880047	Colombia	-3.85596e-05
-4.880047	Colombia.	0.02236289
-4.880047	Colorado	-3.283499e-05
-4.880047	Colorado.	0.02236289
-4.277987	Colt	0.004867066
-4.880047	Colt,	0.006958547
-4.880047	Colt.	0.02236289
-4.880047	Colt?.	0.02236289
-4.482107	Columbia	0.001769836
-4.880047	Columbia;	-3.569731e-05
-4.880047	Columbine	-1.852315e-05
-4.880047	Columbine.	0.02236289
-4.880047	Columbine...people	0.002974405
-4.880047	Columbus	-3.85596e-05
-4.880047	Combat	0.005182015
-4.880047	Come	0.0003336969
-4.703956	Comey	-5.708239e-05
-4.703956	Comitatus	-4.638829e-05
-4.880047	Commander	-2.997266e-05
-4.703956	Commandments	0.009464
-4.880047	Commerce	-2.424793e-05
-4.880047	Commission	0.001917919
-4.880047	Commission​	-3.85596e-05
-4.880047	Committing	0.008786188
-4.335979	Common	-7.178776e-05
-4.880047	Commonplace	0.000184756
-4.880047	Commonwealth,	-2.138554e-05
-4.703956	Communist	-5.135745e-05
-4.880047	Communists)	-2.711031e-05
-4.579017	Commutations	0.006903758
-4.880047	Compact	-2.138554e-05
-4.703956	Compare	0.005355053
-4.703956	Compared	0.003579102
-4.880047	Comparing	-3.569731e-05
-4.880047	Comparisons	0.005381947
-4.703956	Compromise	0.002057687
-4.880047	Compton,	-3.569731e-05
-4.482107	Concealed	6.259481e-05
-4.880047	Concord.	0.02236289
-4.703956	Conference	0.01252354
-4.880047	Confiscating	-3.85596e-05
-4.579017	Confiscation	0.004717014
-4.880047	Confucius	0.00162762
-4.703956	Congrefs	-5.994484e-05
-3.800866	Congress	0.0332283
-4.880047	Congress"	0.006958547
-4.482107	Congress,	0.008629967
-4.880047	Congress.	0.02236289
-4.579017	Connecticut	-9.067133e-05
-4.703956	Connor	0.007426509
-4.880047	Consensus	0.001917919
-4.579017	Consider	0.01690821
-3.355002	Constitution	0.06341857
-4.880047	Constitution"	3.872897e-05
-4.703956	Constitution).	0.02234075
-3.925805	Constitution,	0.04022274
-3.624775	Constitution.	0.02161075
-4.880047	Constitution;	-2.138554e-05
-4.703956	Constitution?	0.02234075
-3.902323	Constitutional	0.001226168
-4.579017	Constitutional,	0.001808369
-4.880047	Constitutionally-protected	5.018028e-05
-4.880047	Constitutions	0.006958547
-4.703956	Consumer	-5.783767e-05
-4.880047	Continental	-3.85596e-05
-4.880047	Contract	0.002090466
-4.880047	Contrary	0.01066556
-4.226835	Control	0.01228141
-4.880047	Control"	0.0002162584
-4.880047	Control.	0.02236289
-4.880047	Control...	-9.935799e-06
-4.703956	Convention,	0.009586906
-4.880047	Conversely,	-3.569731e-05
-4.880047	Convicted	-2.711031e-05
-4.482107	Cops	0.0002696038
-4.880047	Cordelier	0.00423576
-4.579017	Cornell	0.005290481
-4.703956	Cornell's	0.0003495765
-4.703956	Corporation.	0.02234075
-4.703956	Corps	0.005845151
-4.880047	Corpus	5.590607e-05
-4.880047	Correct,	0.002801506
-4.880047	Correct.	0.02236289
-4.880047	Correction,	0.000322238
-4.880047	Correction:	1.010198e-05
-4.880047	Correctness	0.001823047
-4.703956	Correlation	0.007330416
-4.880047	Corruption	-2.138554e-05
-4.880047	Cortez	0.006958547
-4.880047	Cosby's	-2.424793e-05
-4.880047	Cottrol	1.582722e-05
-4.880047	Cottrol,256	0.006958547
-4.482107	Cougarbear:	0.005837834
-4.579017	Could	0.005261499
-4.880047	Couldn't	0.008786188
-4.880047	Counsel	0.00258548
-4.880047	Count,	-2.424793e-05
-4.880047	Counter	-3.283499e-05
-4.703956	Countries	0.006922989
-4.703956	Country	0.0004899909
-4.880047	Country!	0.02236289
-4.482107	County	0.005289671
-4.880047	Couple	0.007645559
-4.880047	Courage	-3.569731e-05
-4.880047	Courant	-3.85596e-05
-3.675927	Court	0.06437888
-4.579017	Court's	0.0003138879
-4.703956	Court,	0.000401152
-4.880047	Court.	0.02236289
-4.880047	Courts	0.0001790285
-4.880047	Courts,	-3.85596e-05
-4.880047	Court’s	-2.424793e-05
-4.880047	Covenant	-3.283499e-05
-4.703956	Creator	0.002068325
-4.139685	Crime	0.01306449
-4.335979	Crimefree	0.0002326119
-4.880047	Crimes	4.376793e-06
-4.703956	Criminal	-6.566968e-05
-4.880047	Criminal?	0.02236289
-4.880047	Criminalizes	-1.566071e-05
-4.402926	Criminals	0.008657489
-4.703956	Crovax	0.0005759813
-4.880047	Cruikshank	-3.85596e-05
-4.703956	Cruikshank,	-5.783767e-05
-4.880047	Cruikshank.	0.02236289
-4.482107	Crusade	0.004724693
-4.880047	Crusade'	3.014069e-05
-4.880047	Crusade'.	0.02236289
-4.880047	Crusades	-3.85596e-05
-4.226835	Cruz	0.007594939
-4.703956	Cruz's	-4.276988e-05
-4.703956	Cruz,	0.001531619
-4.880047	Cruz’s	-3.85596e-05
-4.880047	Cuba...why	-2.138554e-05
-4.880047	Culture.	0.02236289
-4.880047	Culture?	0.02236289
-4.880047	Cultures	-3.85596e-05
-4.703956	Cuomo	-4.563242e-05
-4.880047	Curbelo-Moulton	-3.85596e-05
-4.880047	Curious.	0.02236289
-4.703956	Current	-5.421992e-05
-4.880047	Currently	0.0006202654
-4.703956	Custom	-7.425679e-05
-4.703956	Czech	-5.211302e-05
-4.880047	D	7.23938e-06
-4.880047	D-Calif.,	-1.852315e-05
-4.880047	D.C.	7.23938e-06
-4.880047	D/A	-3.569731e-05
-4.703956	DA	-4.849494e-05
-4.880047	DARE	-3.85596e-05
-4.880047	DC,	-2.711031e-05
-4.880047	DC.	0.02236289
-4.880047	DD's	0.001771308
-4.880047	DEAD	-3.85596e-05
-4.880047	DEADLY	-3.85596e-05
-4.880047	DEATHS	-2.997266e-05
-4.880047	DEBATE	-3.569731e-05
-4.880047	DEFENDERS.	0.02236289
-4.880047	DELAYED	-3.85596e-05
-4.880047	DEMANDING	0.005381947
-4.880047	DEMOCRACY.	0.02236289
-4.880047	DEMOCRATS	0.0006145323
-4.880047	DENIED"	0.001771308
-4.880047	DEPENDENT	-3.569731e-05
-4.880047	DID	3.014069e-05
-4.880047	DIE	-2.138554e-05
-4.880047	DISCLAIMER:	0.00423576
-4.880047	DIY.	0.02236289
-4.880047	DMV	-3.569731e-05
-4.277987	DO	3.285052e-05
-4.880047	DOCUMENT,	1.514249e-06
-4.880047	DOESN'T.	0.02236289
-4.880047	DOJ.	0.02236289
-4.335979	DON'T	0.002758748
-4.880047	DON'T...........I	-3.85596e-05
-4.880047	DONT	-3.85596e-05
-4.880047	DOWN..	0.0001274846
-4.703956	DP	7.461051e-05
-4.880047	DP_	-3.85596e-05
-4.880047	DROP**************.	0.02236289
-4.880047	DROWNINGS	-3.85596e-05
-4.703956	DUI	0.001732772
-4.880047	DUKE	-3.283499e-05
-4.880047	DWI	0.00479111
-4.880047	Dad	-2.997266e-05
-4.703956	Daddy	3.376571e-05
-4.579017	Daily	-8.132889e-05
-4.579017	Dallas	-5.556482e-05
-4.880047	Dallas,	-2.997266e-05
-4.880047	Dallas.	0.02236289
-4.880047	Dallas.....	0.001139436
-4.579017	Damn	0.005310768
-4.880047	Damnit	-3.85596e-05
-4.880047	Dana	-2.138554e-05
-4.880047	Daniel	-3.283499e-05
-4.880047	Daniels	0.005182015
-4.703956	Darwin	-7.425679e-05
-4.703956	Data	0.00188226
-4.880047	Database?	0.02236289
-4.482107	David	0.006848965
-4.880047	Davis	0.005182015
-4.880047	Dax,	7.308386e-05
-4.880047	Day	0.005182015
-4.880047	DeLauro	-3.85596e-05
-4.880047	Deadly	-3.85596e-05
-4.880047	Dean	-3.85596e-05
-4.880047	Debate	0.01581529
-4.880047	Dec.	-3.569731e-05
-4.880047	December	-3.283499e-05
-4.067134	Declaration	0.007639301
-4.880047	Declares	7.594687e-05
-4.880047	Deep	-3.85596e-05
-4.703956	Deer	0.0002750893
-4.880047	Defeats	0.01581529
-4.880047	Defend	0.00118823
-4.579017	Defense	3.891639e-05
-4.880047	Defense,	0.004120152
-4.703956	Definitely	0.01577694
-4.880047	Degree	-3.283499e-05
-4.880047	Delaware	-3.85596e-05
-4.880047	Delay	0.01581529
-4.880047	Delfic	-3.85596e-05
-4.880047	Delis	0.0004568983
-4.703956	Dem	0.005343459
-3.902323	Democrat	0.006683017
-4.880047	Democrat,	0.008786188
-4.880047	Democrat-Marxists	0.00423576
-4.880047	Democrat.	0.02236289
-4.402926	Democratic	-5.041117e-05
-3.612875	Democrats	0.03011
-4.579017	Democrats,	7.041476e-05
-4.880047	Democrats/liberals/progressives.	0.02236289
-4.880047	Democrats	0.006958547
-4.880047	Demos	0.002974405
-4.579017	Dems	0.00692703
-4.880047	Dems.	0.02236289
-4.880047	Denying	0.005381947
-4.579017	Department	0.0002508581
-4.880047	Dependent	0.001917919
-4.880047	Depends.	0.02236289
-4.880047	Deputy	-3.85596e-05
-4.880047	Derringer-	0.000101715
-4.277987	Despite	0.01783681
-4.880047	Detective	-2.997266e-05
-4.703956	Detroit	0.00694626
-4.880047	Devices	0.000422513
-4.880047	Devin	-3.85596e-05
-4.880047	DiFi.	0.02236289
-4.880047	Dia'mon	-3.283499e-05
-4.880047	Diabetes	0.000694804
-4.880047	Diabetes:43966	-3.85596e-05
-4.880047	Diallo	0.0001503923
-4.880047	Diamond,	0.001561539
-4.880047	Dice	-3.85596e-05
-4.880047	Dick	-3.85596e-05
-4.880047	Dick's	-3.85596e-05
-4.880047	Dickerson,	-3.85596e-05
-4.880047	Dickey	0.0002735416
-4.703956	Dicks	0.006126699
-4.880047	Dictatorship	-3.85596e-05
-4.004986	Did	0.01154063
-4.579017	Didech	0.005148491
-4.579017	Didn't	0.001757476
-4.880047	Differences	-3.85596e-05
-4.880047	Digest	-3.569731e-05
-4.880047	Dings?	0.02236289
-4.880047	Dirt	-2.997266e-05
-4.703956	Disarmament	-7.711912e-05
-4.880047	Disarming	0.0003165089
-4.880047	Discharge	0.008786188
-4.703956	Discussion	0.001885135
-4.880047	Disease:353133	-3.85596e-05
-4.880047	Disease:53768	-3.85596e-05
-4.880047	Disease:82165	-3.85596e-05
-4.880047	Disney.	0.02236289
-4.703956	Disneyland	0.0008541335
-4.880047	Disqualifies	0.0001876198
-4.880047	Distributed.	0.02236289
-4.880047	Distributing	-9.935799e-06
-4.226835	District	0.008630757
-4.880047	Divine	3.586619e-05
-4.880047	Division	5.018028e-05
-3.579017	Do	0.03081146
-4.703956	DoJ	0.002947414
-4.880047	Documents	-2.997266e-05
-4.139685	Does	0.00656313
-4.482107	Doesn't	0.009392989
-4.880047	Doing	-2.138554e-05
-4.880047	Domestic	-3.85596e-05
-4.579017	Don	-9.639606e-05
-3.838655	Don't	0.007829729
-4.482107	Donald	-4.124406e-05
-4.579017	Door	0.01069595
-4.880047	Dork's	1.868987e-05
-4.880047	Dot.	0.02236289
-4.880047	Doubtlessly	3.300342e-05
-4.880047	Douglas	-3.569731e-05
-4.880047	Dowlut	1.582722e-05
-4.880047	Down	-3.283499e-05
-4.880047	Downtrend	-3.283499e-05
-4.880047	Dozens	0.007645559
-4.880047	Dr.	-3.85596e-05
-4.703956	Dream	0.0003037368
-4.880047	Driving,	0.006958547
-4.880047	Driving:19433	-3.85596e-05
-4.880047	Driving:3443	-3.85596e-05
-4.880047	Drowning:2250	-3.85596e-05
-4.579017	Drug	-9.850405e-05
-4.880047	Drugs	0.001130825
-4.482107	Drunk	-5.842082e-05
-4.703956	Dude,	0.005349255
-4.402926	Due	0.01056366
-4.880047	Dueling	-3.85596e-05
-4.880047	Duke	0.001590269
-4.880047	Duponts,	0.01581529
-4.579017	During	0.009604088
-4.880047	Dweezil.	0.02236289
-4.880047	Dyer.	0.02236289
-4.880047	E	0.00258548
-4.880047	E.	-3.85596e-05
-4.880047	E2	-2.997266e-05
-4.880047	EARNED	0.005381947
-4.880047	EDIT:	0.0001103047
-4.880047	EDs	0.001027518
-4.880047	EMORY	-3.283499e-05
-4.880047	END	-2.711031e-05
-4.880047	ENGAGE	1.29646e-05
-4.880047	ENTIRELY	-3.85596e-05
-4.703956	EOs	0.01075918
-4.880047	EPA	-3.569731e-05
-4.482107	EU	0.007409597
-4.579017	EVER	0.000159195
-4.482107	EVERY	-0.0001513755
-4.703956	EVERYTHING	-5.421995e-05
-4.880047	EXACT	-3.85596e-05
-4.703956	EXACTLY	0.001790262
-4.880047	EXACTLY!	0.02236289
-4.579017	Each	-7.34967e-05
-4.703956	Eagle	0.0005587818
-4.880047	Earnest	0.0002391708
-4.880047	Earth,	0.0002964569
-4.703956	Earth.	0.02234075
-4.880047	East",	-3.85596e-05
-4.880047	Easy,	-1.566071e-05
-4.880047	Easy..	0.01581529
-4.880047	Economic-Based	0.0001160313
-4.880047	Eddie	-3.569731e-05
-4.880047	Edgar	-3.85596e-05
-4.880047	Edit:	0.00423576
-4.880047	Educated	0.00124277
-4.880047	Effectively,	1.582722e-05
-4.880047	Eh,	0.004120152
-4.880047	Eight	-9.935799e-06
-4.277987	Either	0.02147895
-4.880047	Either..	0.004120152
-4.703956	El	-7.711912e-05
-4.880047	Elections	-3.569731e-05
-4.880047	Electric	2.155255e-05
-4.880047	Eliminating	0.0007808264
-4.703956	Embarrassing	0.0001626156
-4.880047	Emerson,261	0.0003279674
-4.880047	Emperor	-2.997266e-05
-4.880047	Emperor.	0.02236289
-4.703956	End	0.0237495
-4.880047	Enemies	0.007645559
-4.703956	Energy	-3.990734e-05
-4.880047	Enfield	0.006958547
-4.880047	Enforcement	-3.85596e-05
-4.880047	Engaging	0.00479111
-4.880047	Engine	0.006958547
-4.880047	Engineer	0.007645559
-4.402926	England	0.007851981
-4.880047	England's	-1.279829e-05
-4.880047	England,	-3.283499e-05
-4.226835	English	0.00772087
-4.703956	English,	0.003183829
-4.880047	Enlightenment,	-3.85596e-05
-4.880047	Ennis	-3.569731e-05
-4.880047	Enough	-3.569731e-05
-4.880047	Entertainingly,	-2.997266e-05
-4.880047	Epcot	0.0001790285
-4.880047	Era	-3.569731e-05
-4.703956	Eric	-7.425679e-05
-4.880047	Errors:144538	-3.85596e-05
-4.402926	Especially	0.006698854
-4.880047	Essentially	0.01581529
-4.880047	Establishes	0.008786188
-4.402926	Eugene	-0.0001735126
-4.482107	Europe	0.003827425
-4.880047	Europe!.	0.02236289
-4.880047	Europe,	9.885181e-05
-4.703956	Europe.	0.02234075
-4.482107	European	0.0003240457
-4.880047	Europeans	0.0001818923
-4.880047	Euroweenie	-3.85596e-05
-3.675927	Even	0.0315198
-4.880047	Eventually	0.002801506
-4.880047	Eventually,	-3.569731e-05
-4.703956	Ever	3.452583e-05
-4.004986	Every	0.003283505
-4.880047	Everyday,	0.0006202654
-4.703956	Everyone	0.0052826
-4.880047	Everything	0.005381947
-4.880047	Evidently,	-1.852315e-05
-4.335979	Evilroddy	0.002141508
-4.703956	Exactly	0.001672417
-4.880047	Exactly,	0.0003537506
-4.880047	Exactly.	0.02236289
-4.880047	Example:.	0.02236289
-4.880047	Examples:	-3.569731e-05
-4.335979	Except	0.01636908
-4.880047	Except..	0.005381947
-4.880047	Excercising	0.005182015
-4.880047	Excerpts:	3.014069e-05
-4.579017	Exclusive	-0.0001013665
-4.880047	Exclusive:	0.0001074414
-4.880047	Excuse	-2.711031e-05
-4.880047	Experiment	-3.569731e-05
-4.703956	Experts	-6.566968e-05
-4.880047	Explain	0.00118823
-4.880047	Explosives.	0.02236289
-4.880047	Expresses	0.0001475288
-4.880047	Extrapolating	0.001216934
-4.880047	Extremely	-3.85596e-05
-4.880047	F	-3.85596e-05
-4.880047	FAMILY	3.300342e-05
-4.880047	FAR	0.0008123722
-4.880047	FAR,	0.001139436
-3.950628	FBI	0.005795001
-4.880047	FBI!	0.02236289
-4.703956	FBI's	-2.559426e-05
-4.880047	FBI,	0.0006632671
-4.703956	FBI.	0.02234075
-4.880047	FCKING	-2.138554e-05
-4.880047	FDR	-3.85596e-05
-4.880047	FEAR	0.006958547
-4.880047	FEBRUARY	-3.85596e-05
-4.880047	FEEL	-3.85596e-05
-4.880047	FELONY	0.002671877
-4.402926	FFL	0.00954352
-4.880047	FFS.	0.02236289
-4.880047	FIND	0.01581529
-4.880047	FIRST	6.163192e-05
-4.880047	FISA	-3.85596e-05
-4.880047	FLA	-1.279829e-05
-4.880047	FLAT	-3.85596e-05
-4.880047	FORCE	-2.997266e-05
-4.880047	FORDHAM	-3.85596e-05
-4.880047	FOX	-3.283499e-05
-4.880047	FPS	0.006958547
-4.880047	FPS?.	0.02236289
-4.880047	FREE	-3.85596e-05
-4.880047	FRIDAY,	-3.85596e-05
-4.880047	FWIW,	0.00423576
-4.880047	FYI	0.01581529
-4.880047	FYI,	0.0004024562
-4.880047	Face,	-2.997266e-05
-4.703956	Facebook	-7.425679e-05
-4.880047	Facing	0.008786188
-4.703956	Fact	-6.280727e-05
-4.703956	Facts:	-6.280727e-05
-4.880047	Faculty	0.006958547
-4.880047	Failed	-3.85596e-05
-4.880047	Failure:24580	-3.85596e-05
-4.880047	Fair	-2.997266e-05
-4.880047	Fairchild	-3.85596e-05
-4.703956	Fairy	-6.853207e-05
-4.880047	Fall	0.00258548
-4.880047	Fallacy...	0.02236289
-4.579017	Falling	0.001659747
-4.880047	Fallujah,	0.0001217579
-4.880047	False,	0.00423576
-4.880047	False.	0.02236289
-4.880047	Family	-3.569731e-05
-4.880047	Far	0.0001188946
-4.880047	Fascism.	0.02236289
-4.880047	Fascists	0.0006690009
-4.703956	Fast	0.006975351
-4.880047	Father	0.007645559
-4.482107	Fathers	0.01847007
-4.880047	Fathers,	0.01581529
-4.703956	February	0.005343459
-3.976957	Federal	0.0001191421
-4.880047	Federal)	-3.283499e-05
-4.579017	Federal,	0.005182226
-4.402926	Federalist	-0.0001677877
-4.880047	Federalists	0.000720609
-4.880047	Federalists.	0.02236289
-4.880047	Federally.	0.02236289
-4.482107	Feds	0.00220505
-4.579017	Feel	0.0001576593
-4.880047	Feinstein	0.0001475288
-4.880047	Feinstein,	-4.210838e-06
-4.880047	Feinstein-Curbelo	1.010198e-05
-4.703956	Feinstein.	0.02234075
-4.880047	Fewer	0.000694804
-4.880047	Fifteenth	0.0002735416
-4.579017	Fifth	0.0002279407
-4.880047	Fifth,	0.0006202654
-4.880047	Fight-lite	-3.85596e-05
-4.880047	Fights	-3.85596e-05
-4.880047	Figures	0.0007865618
-4.880047	Filburn	0.001590269
-4.703956	Finally,	0.0158868
-4.880047	Find	0.008786188
-4.703956	Finland	-6.853207e-05
-4.880047	FinnFox...a	0.000322238
-4.880047	Fire	-3.85596e-05
-4.880047	Fire:	0.001561539
-4.703956	Firearm	5.09435e-05
-4.880047	Firearm-Related	-2.711031e-05
-4.703956	Firearms	0.00692008
-3.858858	First	0.01765285
-4.482107	First,	0.0264639
-4.880047	First.	0.02236289
-4.880047	First;	0.00423576
-4.880047	Fitness	-3.283499e-05
-4.880047	Five	0.0008123722
-4.880047	Fix	0.00118823
-4.880047	Fl	3.300342e-05
-4.880047	Fleeting	0.001041865
-4.181077	Florida	0.00426032
-4.880047	Florida!	0.02236289
-4.703956	Florida.	0.02234075
-4.880047	Florida?	0.02236289
-4.880047	Fly"	5.304315e-05
-4.880047	Foggy	-3.85596e-05
-4.880047	Folks,	0.001139436
-4.880047	Folks..	0.0003652102
-4.703956	Following	0.01704943
-3.499836	For	0.03861123
-4.703956	Force	0.002095082
-4.880047	Force.	0.02236289
-4.880047	Foreign	-4.210838e-06
-4.880047	Forge.	0.02236289
-4.579017	Form	0.007584963
-4.579017	Fort	-0.0001128162
-4.880047	Fortunately,	-2.138554e-05
-4.880047	Foster	0.0001561194
-4.579017	Foundation	0.01061513
-4.402926	Founders	0.00770447
-4.880047	Founders,	0.0004683606
-4.880047	Founders.	0.02236289
-4.335979	Founding	-0.0001735024
-4.880047	Four	-3.85596e-05
-4.482107	Fourteenth	0.0001865212
-4.880047	Fourth	0.0002735416
-4.880047	Fourth,	0.0001933474
-4.880047	Fourth.	0.02236289
-4.880047	Fourth....."	-3.569731e-05
-4.402926	Fox	-0.0001191232
-4.482107	Framers	0.005492615
-4.880047	Framers.	0.02236289
-4.880047	Framers’	-3.283499e-05
-4.703956	Fran	0.001132464
-4.482107	France	0.01294208
-4.880047	Francis	-3.569731e-05
-4.880047	Frank	-3.85596e-05
-4.880047	Franklin	-3.85596e-05
-4.880047	Frankly	0.01581529
-4.880047	Freaks"	0.006958547
-4.703956	Free	-7.711912e-05
-4.880047	Freedman	2.155255e-05
-4.482107	Freedom	0.007836213
-4.880047	Freedom"	-3.85596e-05
-4.880047	FreedomFromAll	-1.852315e-05
-4.880047	French	0.0001217579
-4.703956	French,	0.01750522
-4.880047	Freudabout	0.008786188
-4.703956	Friday	-6.853207e-05
-4.880047	Friday,	0.0005027496
-4.880047	Friday.	0.02236289
-4.880047	Frog.	0.02236289
-4.004986	From	0.02492775
-4.880047	Front	-3.569731e-05
-4.880047	Frost’s	4.376793e-06
-4.482107	Full	-6.338894e-05
-4.880047	Funny	0.0004884202
-4.880047	Furious	-3.85596e-05
-4.880047	Furious,	-3.569731e-05
-4.703956	Further	0.001629311
-4.703956	Further,	0.004153899
-4.880047	Furthermore,	0.001481107
-4.880047	Furthermore...he	0.0009615284
-4.880047	Fuzzy	-3.569731e-05
-4.703956	G	-5.783767e-05
-4.880047	GAVE	-3.85596e-05
-4.402926	GDP	4.332149e-05
-4.880047	GED.	0.02236289
-4.703956	GEO.	0.02234075
-4.880047	GET	0.01581529
-4.880047	GFZs	5.876899e-05
-4.880047	GIVEN	-2.997266e-05
-4.880047	GJ.	0.02236289
-4.880047	GLADLY	0.0003336969
-4.880047	GLOBE,	-3.85596e-05
-4.880047	GOA	0.0009271032
-4.880047	GOD	-3.85596e-05
-4.880047	GOOD	0.0001876198
-4.226835	GOP	0.01388439
-4.880047	GOP,	0.002671877
-4.880047	GP100.	0.02236289
-4.880047	GREAT,	0.001774182
-4.880047	GUARANTEE	0.004120152
-4.579017	GUN	0.001125495
-4.880047	GUN.	0.02236289
-4.880047	GUN:6606	-3.85596e-05
-4.880047	GUNS	0.0001818923
-4.880047	GUNS.	0.02236289
-4.703956	Ga.	-5.783767e-05
-4.880047	Gabbard	0.0002105307
-4.880047	Galileo	-1.852315e-05
-4.880047	Game	-3.283499e-05
-4.880047	Gang	3.300342e-05
-4.880047	Garage	-3.283499e-05
-4.880047	Garand	-4.210838e-06
-4.880047	Garand,	1.29646e-05
-4.880047	Garands,	0.0008381837
-4.880047	Garrand,	-3.85596e-05
-4.880047	Gas,	-3.85596e-05
-4.880047	Gen	-3.85596e-05
-4.703956	General	-7.425679e-05
-4.880047	Generally	0.00423576
-4.880047	Generally,	0.004120152
-4.880047	Generations	0.007645559
-4.880047	Genocide	4.376793e-06
-4.579017	George	0.0008557473
-4.880047	George.	0.02236289
-4.880047	Georgia	-3.85596e-05
-4.880047	Georgia.	0.02236289
-4.880047	Germans,	0.01581529
-4.335979	Germany	0.007779717
-4.703956	Germany.	0.02234075
-4.335979	Get	0.02612842
-4.703956	Getting	0.0007824277
-4.880047	Giants	0.01066556
-4.880047	Gifford's	-1.279829e-05
-4.880047	Gilder;	0.006958547
-4.703956	Ginsberg	0.0005903147
-4.880047	Ginsburg,	-3.85596e-05
-4.880047	Ginsburg.	0.02236289
-4.703956	Give	0.01594619
-4.482107	Given	0.02135609
-4.703956	Giving	0.0007021314
-4.880047	Glad	0.01581529
-4.703956	Glenn	-5.783767e-05
-4.880047	Global	-3.85596e-05
-4.277987	Glock	0.0003365791
-4.703956	Glock.	0.02234075
-4.579017	Go	0.0006635821
-3.902323	God	0.03993908
-4.880047	God",	0.001073429
-4.880047	God's	-7.073332e-06
-4.880047	God's,	0.006958547
-4.880047	God-given,	-3.283499e-05
-4.880047	God.	0.02236289
-4.880047	God/Creator/Nature/etc.	0.02236289
-4.880047	Godlessness	0.005182015
-4.880047	Godlessness.	0.02236289
-4.880047	Godly	-3.569731e-05
-4.880047	Goes	0.01066556
-4.880047	Golf,	-3.85596e-05
-4.880047	Gonna	0.002951347
-3.902323	Good	0.01452797
-4.880047	Goodbye.	0.02236289
-4.880047	Goods	0.0002391708
-4.703956	Google	0.0001318807
-4.880047	Google.	0.02236289
-4.880047	Gorsuch,	0.001202581
-4.880047	Gosh..	0.004120152
-4.880047	Goshin!.	0.02236289
-4.880047	Goshin's	-3.569731e-05
-4.402926	Got	0.0009836324
-4.880047	Gotta	3.014069e-05
-4.880047	Gov.	0.02236289
-3.637009	Government	0.03903926
-4.880047	Government"	0.0005170789
-4.880047	Government".	0.02236289
-4.880047	Government,	0.002671877
-4.579017	Government.	0.02231861
-4.579017	Governments	0.003018439
-4.579017	Governor	0.005105035
-4.880047	Governor.	0.02236289
-4.880047	Govt.	0.02236289
-4.880047	Grabber	-1.566071e-05
-4.880047	Grabbers	0.0005056154
-4.703956	Grand	-7.711912e-05
-4.880047	Grandma	6.163192e-05
-4.880047	Grandmother	-3.569731e-05
-4.579017	Granny	0.00476622
-4.880047	Granted	-3.569731e-05
-4.880047	Granted,	0.0001818923
-4.579017	Grants	-7.711463e-05
-4.880047	Graphs	-3.283499e-05
-4.482107	Grathwohl	0.001704568
-4.880047	Grathwohl's	-3.283499e-05
-4.880047	Grathwohl,	0.0009615284
-4.880047	GrathwohlBill	-3.85596e-05
-4.004986	Great	0.004273201
-4.880047	Greater	-3.85596e-05
-4.703956	Green	-6.853207e-05
-4.880047	Greetings,	-3.85596e-05
-4.880047	Gregory,	0.006958547
-4.579017	Grench	0.0008213234
-4.880047	Griffin	-3.85596e-05
-4.880047	Grove).	0.02236289
-4.880047	Grow	0.008786188
-4.880047	Growing	-3.283499e-05
-4.880047	Grown-ups	0.0001246213
-4.880047	Gruber	0.0009271032
-4.880047	Guaranteeing	0.008786188
-4.880047	Guard	-3.85596e-05
-4.703956	Guard,	0.001784512
-4.880047	Guatamala	-1.279829e-05
-4.579017	Guatemala	-7.274104e-05
-4.880047	Guess	0.000284999
-4.880047	Gulotta,	-3.85596e-05
-3.432889	Gun	0.01263903
-4.880047	Gun!.	0.02236289
-4.880047	Gun,"	0.00423576
-4.880047	Gun.	0.02236289
-4.880047	Gun.jpg	0.0001246213
-4.880047	Gunman	-7.073332e-06
-4.880047	Gunner	-3.85596e-05
-3.568293	Guns	0.0209545
-4.703956	Guns"	-2.84569e-05
-4.880047	Guns.	0.02236289
-4.880047	GunsAmerica	-3.85596e-05
-4.703956	Guy	0.002644875
-4.579017	Guys	0.00180635
-4.335979	H&K	-0.0001612981
-4.880047	H.	-3.85596e-05
-4.880047	HASTINGS	-3.85596e-05
-4.703956	HAVE	-6.566968e-05
-4.880047	HELD	-3.85596e-05
-4.880047	HELL	-3.85596e-05
-4.880047	HINT	0.005381947
-4.880047	HIPPA	0.0004683606
-4.703956	HIV	0.008759431
-4.880047	HK416.	0.02236289
-4.880047	HMO's	1.514249e-06
-4.880047	HOLD	-2.424793e-05
-4.880047	HOME	0.01066556
-4.880047	HRC	0.0009615284
-4.703956	HUGE	-6.566968e-05
-4.880047	Habeas	-3.85596e-05
-4.880047	Had	0.008786188
-4.703956	Haha	0.001962775
-4.579017	Halbrook,	0.0015879
-4.880047	Hallelujah	-2.997266e-05
-4.579017	Hamilton	0.000126924
-4.880047	Hammers	-3.85596e-05
-4.880047	Hampshire	0.0006202654
-4.880047	Handgun	-3.283499e-05
-4.880047	Hands/Feet:	-3.85596e-05
-4.880047	Hands/feet/etc.	0.02236289
-4.880047	Hang	0.001917919
-4.880047	Happens	0.0001074414
-4.880047	Happiness.	0.02236289
-4.880047	Happiness."	0.02236289
-4.880047	Happiness?	0.02236289
-4.880047	Hard	0.01066556
