
\data\
ngram 1=19616
ngram 2=76343

\1-grams:
-4.703959	!	0.0223406
-4.703959	!!	0.0223406
-4.88005	!!!	0.02236274
-4.88005	!!!!.	0.02236274
-4.88005	!,	0.005181983
-4.48211	!.	0.02229633
-3.902326	"	0.03269681
-4.88005	""	0.00479108
-4.88005	"...more	0.0006948014
-4.88005	"..Orlando,	-3.569511e-05
-4.88005	"2	0.002585465
-4.88005	"50	-3.855738e-05
-4.703959	"A	-7.139003e-05
-4.703959	"AR"	0.004768941
-4.88005	"AR-15's	0.0004225122
-4.88005	"Again..	0.02236274
-4.88005	"Airweight",	-2.997049e-05
-4.88005	"Among	0.01581519
-4.703959	"Anti	-7.711467e-05
-4.88005	"Article	0.01581519
-4.57902	"Assault	-0.0001070848
-4.88005	"Because	0.0008381801
-4.88005	"Black",	2.155438e-05
-4.88005	"Blessed	0.002974387
-4.88005	"British	1.582908e-05
-4.88005	"Bubba"	0.006958502
-4.88005	"But	0.001202575
-4.88005	"Can	0.004235734
-4.88005	"Cant	0.0005285415
-4.88005	"Caught	0.001917908
-4.88005	"Christian	-3.855738e-05
-4.88005	"Climate	-3.855738e-05
-4.88005	"Conflict	0.00764551
-4.88005	"Conservatives"	-3.855738e-05
-4.88005	"Constitutional	-3.855738e-05
-4.88005	"Control	-3.855738e-05
-4.88005	"Cruz",	0.002671862
-4.88005	"Damn.	0.02236274
-4.88005	"Dead,	-3.855738e-05
-4.703959	"Democrat	-6.852768e-05
-4.88005	"Do	0.002671862
-4.88005	"Don't	-3.855738e-05
-4.88005	"Draw	-3.855738e-05
-4.88005	"Empowerment"	-2.997049e-05
-4.88005	"Empty	-3.855738e-05
-4.88005	"Escape	0.001027513
-4.88005	"Everyone	0.0009270991
-4.88005	"Everything	0.004120126
-4.88005	"Fact	0.005181983
-4.88005	"For	0.001073424
-4.88005	"GUN	-3.855738e-05
-4.226838	"Gun	0.0003209734
-4.88005	"Gunners.".	0.02236274
-4.88005	"Guns	0.0007865586
-4.88005	"Hawaii".	0.02236274
-4.88005	"He's	0.008786132
-4.88005	"Heavy	-2.710816e-05
-4.88005	"Hey,	0.004235734
-4.402929	"I	0.002359387
-4.88005	"I've	-3.855738e-05
-4.402929	"If	0.02015906
-4.88005	"In	0.008786132
-4.88005	"Inalienable	-3.283281e-05
-4.88005	"Indians	0.0007206062
-4.88005	"Infringe"	0.001917908
-4.88005	"Inquisition"?.	0.02236274
-4.88005	"It	0.005181983
-4.88005	"It's	0.002671862
-4.88005	"Jim	-3.855738e-05
-4.88005	"Just	0.0007034029
-4.88005	"Kids,	1.010388e-05
-4.88005	"Lalalalalalalala,	-3.569511e-05
-4.88005	"Law	-3.855738e-05
-4.88005	"Left"	0.0001475298
-4.703959	"Liberal	9.389321e-05
-4.88005	"Looking	0.00104186
-4.88005	"Media"	1.296648e-05
-4.88005	"Militia"	0.005181983
-4.88005	"Militias"	0.002090454
-4.88005	"Minority",	-3.855738e-05
-4.88005	"More	5.018192e-05
-4.88005	"Most	-3.855738e-05
-4.88005	"Mustang,	0.008786132
-4.88005	"My	0.0008181047
-4.88005	"NGRAC"--No	-3.855738e-05
-4.88005	"NO"	-3.855738e-05
-4.88005	"NRA	-3.855738e-05
-4.88005	"Nanny	-3.855738e-05
-4.226838	"No	0.0006749649
-4.88005	"No,	0.00280149
-4.703959	"Not	0.007776066
-4.88005	"Now,	-1.279623e-05
-4.88005	"OMG	-3.855738e-05
-4.703959	"Obama's	-5.707808e-05
-4.88005	"Of	0.01581519
-4.88005	"Open	-3.855738e-05
-4.88005	"Out	0.00764551
-4.88005	"Possessing	9.598993e-05
-4.88005	"Possible	-3.855738e-05
-4.88005	"Public	-3.855738e-05
-4.88005	"Publius"	0.0007034029
-4.88005	"Pursuant	0.01066549
-4.88005	"R"	0.000597331
-4.88005	"Radical"	0.0006632647
-4.88005	"Reasonable	0.001915033
-4.88005	"Relying	7.881142e-05
-4.703959	"Rights"	0.001850625
-4.88005	"Ruger's	2.441705e-05
-4.88005	"Ruger,	0.0001074427
-4.703959	"SALE	-7.711467e-05
-4.88005	"SHALL	3.014246e-05
-4.88005	"Saturday	-1.565863e-05
-4.88005	"Second	0.0002735418
-4.88005	"Shall	0.002671862
-4.88005	"Should	3.873068e-05
-4.88005	"Skilled"	7.881142e-05
-4.88005	"So...?"	0.02236274
-4.88005	"Some	0.0002993213
-4.88005	"Sorry	0.0008525209
-4.703959	"State	-4.352269e-05
-4.88005	"Stop	0.01581519
-4.88005	"Surely	0.00113943
-4.88005	"Tax	-2.42458e-05
-4.88005	"Thank	-3.855738e-05
-4.57902	"That	0.01578006
-4.88005	"That's	-3.855738e-05
-3.766107	"The	0.002680091
-4.703959	"There	0.005911857
-4.88005	"They	-3.855738e-05
-4.88005	"They"	0.002974387
-4.57902	"This	0.006098717
-4.88005	"Thread:	4.378733e-06
-4.88005	"Thumpers".	0.02236274
-4.88005	"Today	0.0008525209
-4.88005	"Too	0.0002735418
-4.88005	"Totalitarians".	0.02236274
-4.88005	"Trump	0.005181983
-4.88005	"UNINTENTIONAL"	-3.569511e-05
-4.88005	"UNIVERSAL	-3.855738e-05
-4.88005	"Um...	0.00113943
-4.88005	"Un-nice	-4.208841e-06
-4.88005	"Used	0.01066549
-4.88005	"WASHINGTON	-3.855738e-05
-4.88005	"WTF	0.0007206062
-4.335982	"We	0.001854663
-4.88005	"We're	-1.565863e-05
-4.88005	"Well	0.0005170775
-4.88005	"Well,	0.001073424
-4.88005	"What	0.00113082
-4.88005	"When	0.00479108
-4.703959	"Why	0.002417377
-4.335982	"You	0.004343886
-4.88005	"You",	7.241301e-06
-4.88005	"\~~	1.010388e-05
-4.703959	"a	8.60673e-05
-4.88005	"a"	0.0002019396
-4.88005	"access	0.01066549
-4.88005	"according	0.01066549
-4.88005	"acquisition"	0.00764551
-4.88005	"acts	-4.208841e-06
-4.88005	"added	-3.855738e-05
-4.88005	"adults"	0.000961524
-4.88005	"advanced	-3.855738e-05
-4.88005	"aha	-3.855738e-05
-4.88005	"airport	-3.855738e-05
-4.88005	"all	-3.855738e-05
-4.88005	"already	0.01581519
-4.88005	"americans	0.002974387
-4.88005	"an	0.0001074427
-4.88005	"apples	0.01066549
-4.88005	"armed	0.0001274858
-4.88005	"arms"	0.00479108
-4.88005	"as	-3.855738e-05
-4.48211	"assault	-0.0001177721
-4.88005	"attackers"	0.002974387
-4.88005	"authorities"	-2.997049e-05
-4.88005	"automatic	-3.855738e-05
-4.703959	"ban	-6.852768e-05
-4.88005	"based	0.001917908
-4.88005	"be	0.0001045795
-4.88005	"bearing	0.0001962119
-4.88005	"because	0.0008381801
-4.703959	"being	0.0009459318
-4.88005	"belonging",	0.001202575
-4.88005	"best	0.006958502
-4.88005	"blew	-3.855738e-05
-4.88005	"bolt	-3.855738e-05
-4.703959	"boosting"	0.001155423
-4.88005	"brandish,"	0.0005285415
-4.88005	"brandishing"?	0.02236274
-4.88005	"bubba"	0.000961524
-4.88005	"bugging	-3.855738e-05
-4.88005	"bullet	-3.855738e-05
-4.88005	"buy	-3.855738e-05
-4.88005	"camp	-3.283281e-05
-4.88005	"can't	-4.208841e-06
-4.88005	"carry"	0.008786132
-4.88005	"challenges"	-2.42458e-05
-4.88005	"changed";	0.00479108
-4.88005	"choosing	-2.997049e-05
-4.88005	"christians"	0.00295133
-4.703959	"citizen	-7.711467e-05
-4.88005	"clarified,"	0.000961524
-4.88005	"clips",	1.296648e-05
-4.703959	"collusion"	0.0006591209
-4.57902	"combat".	0.02231846
-4.88005	"comfort".	0.02236274
-4.88005	"community"	0.001771298
-4.88005	"compassionate	-3.855738e-05
-4.88005	"compromising"	0.006958502
-4.88005	"conflated"	0.000743545
-4.703959	"convenient"	-5.210976e-05
-4.88005	"convenient?"	0.02236274
-4.88005	"cop	-3.283281e-05
-4.88005	"crappin'	0.001076294
-4.88005	"crisis".	0.02236274
-4.88005	"dance"	0.000743545
-4.703959	"dealing	0.002068314
-4.88005	"death	0.006958502
-4.88005	"declaratory	-3.283281e-05
-4.88005	"democratic".	0.02236274
-4.703959	"detailing"	6.602411e-05
-4.703959	"direct	-7.711467e-05
-4.88005	"diverse"	0.005181983
-4.48211	"do	-0.0001485043
-4.48211	"don't	0.0004644854
-4.88005	"door	0.005181983
-4.88005	"doubling"	0.008786132
-4.88005	"dropped	0.01581519
-4.88005	"drug	-3.855738e-05
-4.88005	"due	-3.855738e-05
-4.88005	"easier	-3.855738e-05
-4.88005	"educated.".	0.02236274
-4.88005	"empowerment"	0.0009328363
-4.88005	"enemies	0.00764551
-4.88005	"enforce	0.01581519
-4.88005	"enslave"	0.01581519
-4.88005	"entertainment."	0.02236274
-4.88005	"ever	7.594834e-05
-4.88005	"every	-3.855738e-05
-4.703959	"exactly	0.001051285
-4.88005	"excessive	0.006958502
-4.88005	"executive	-3.855738e-05
-4.88005	"exterminate"	0.006958502
-4.703959	"extremely	-7.711467e-05
-4.88005	"face",	-1.565863e-05
-4.88005	"faction"	2.441705e-05
-4.88005	"failure	0.01066549
-4.88005	"fairness",	0.0003795347
-4.88005	"far	0.0008123688
-4.88005	"fire"	0.006958502
-4.88005	"first	0.0002907279
-4.703959	"for	-6.566531e-05
-4.88005	"freedom	0.00764551
-4.88005	"from	0.008786132
-4.88005	"gang	-3.855738e-05
-4.88005	"gifts",	-1.565863e-05
-4.88005	"giving	0.0005371395
-4.88005	"going	-3.855738e-05
-4.88005	"good	-3.855738e-05
-4.88005	"government	-9.933764e-06
-4.88005	"government"	-3.855738e-05
-4.88005	"government".	0.02236274
-3.902326	"gun	5.488749e-05
-4.88005	"gun-grabber"	0.001917908
-4.88005	"gunfire	-3.855738e-05
-4.703959	"guns	5.743442e-05
-4.88005	"guns"	0.0007206062
-4.88005	"ha	0.01066549
-4.88005	"had	0.01066549
-4.88005	"ham	-3.855738e-05
-4.88005	"handguns	0.0004053206
-4.57902	"high	-6.776631e-05
-4.88005	"home	-3.855738e-05
-4.88005	"home-grown."	0.02236274
-4.88005	"homicide"	0.005181983
-4.88005	"human"	2.155438e-05
-4.88005	"hustling"	0.001076294
-4.88005	"hysterically	-3.855738e-05
-4.703959	"if	0.004966817
-4.88005	"ignore"	0.0003136441
-4.88005	"ignored"	0.000597331
-4.88005	"in	-3.855738e-05
-4.88005	"in"credible	0.0001017163
-4.88005	"inalienable	-3.855738e-05
-4.88005	"independent	0.00764551
-4.88005	"individual	-3.855738e-05
-4.703959	"infringe"	0.005386904
-4.703959	"infringed"	0.01062707
-4.88005	"innocent"	0.001242764
-4.88005	"intelligence	-3.855738e-05
-4.88005	"introduction	0.00764551
-4.703959	"it's	0.01142578
-4.88005	"judicial	-3.855738e-05
-4.88005	"jurisprudence"	0.005381913
-4.703959	"just	0.0001175656
-4.88005	"keep	0.01581519
-4.88005	"killing	0.001188224
-4.88005	"know"	0.005381913
-4.88005	"knowing"	0.005381913
-4.88005	"law".	0.02236274
-4.88005	"learning"	-1.852106e-05
-4.703959	"legal	0.000114702
-4.703959	"legally"	-7.711467e-05
-4.703959	"legitimate	-7.711467e-05
-4.88005	"liberals	0.0004626284
-4.88005	"license	0.01066549
-4.88005	"like	0.0003222379
-4.88005	"limit	3.014246e-05
-4.88005	"liscense	0.01066549
-4.88005	"litigation	-3.855738e-05
-4.88005	"live	0.002090454
-4.88005	"living,	-3.283281e-05
-4.57902	"logic"	0.01631779
-4.88005	"logic",	0.004120126
-4.88005	"looks	-3.855738e-05
-4.88005	"lying"	0.00104186
-4.88005	"m"	0.00295133
-4.88005	"machine	0.001915033
-4.88005	"magazine	-3.855738e-05
-4.88005	"make	0.008786132
-4.703959	"man	0.005143495
-4.88005	"manslaughter".	0.02236274
-4.88005	"manual	-3.569511e-05
-4.88005	"many	3.300517e-05
-4.703959	"mass	-7.425236e-05
-4.88005	"massacres"	0.005381913
-4.88005	"massive	-3.855738e-05
-4.703959	"may	-5.783437e-05
-4.703959	"mental	-1.127668e-05
-4.703959	"mentally	-7.711467e-05
-4.88005	"mentally"	1.296648e-05
-4.88005	"merit",	0.0003394261
-4.88005	"militia"	0.005181983
-4.88005	"militia."	0.02236274
-4.88005	"militias"	0.00104186
-4.88005	"mind	-3.855738e-05
-4.88005	"minority	-2.42458e-05
-4.88005	"mission	-3.855738e-05
-4.88005	"morally	8.167441e-05
-4.88005	"more	-3.855738e-05
-4.88005	"most")	0.002974387
-4.88005	"mugging".	0.02236274
-4.88005	"murder""	0.001771298
-4.88005	"murders"?	0.02236274
-4.88005	"murse"	5.018192e-05
-4.88005	"mysterious"	-2.138343e-05
-4.88005	"native	-3.569511e-05
-4.88005	"needed"	0.0003537502
-4.88005	"needed".	0.02236274
-4.88005	"needless"	-3.855738e-05
-4.88005	"needlessly	-3.855738e-05
-4.88005	"news",	4.378733e-06
-4.703959	"no	0.0007422767
-4.88005	"no-go	-3.569511e-05
-4.88005	"noble	-3.855738e-05
-4.88005	"not	-3.855738e-05
-4.88005	"nothing"	0.00479108
-4.88005	"null	0.006958502
-4.88005	"odds"	0.002974387
-4.88005	"official	-3.855738e-05
-4.88005	"one	0.0005772663
-4.88005	"one"...	-3.855738e-05
-4.703959	"only	0.0008168437
-4.703959	"ordinary	-5.421563e-05
-4.703959	"original	-7.711467e-05
-4.703959	"our	5.457124e-05
-4.88005	"out	0.00764551
-4.88005	"passage"	7.881142e-05
-4.88005	"pathway	0.01066549
-4.88005	"people	1.010388e-05
-4.88005	"people"	0.01066549
-4.88005	"perfectly	-3.855738e-05
-4.88005	"persons	-3.569511e-05
-4.88005	"persons"?	0.02236274
-4.57902	"perverse"	0.005292309
-4.703959	"perverted,"	0.001051285
-4.703959	"petty,	3.66313e-05
-4.703959	"political	-7.711467e-05
-4.88005	"poof"	-3.855738e-05
-4.57902	"poor"	7.538281e-05
-4.88005	"possibility	0.00764551
-4.88005	"potential	-3.855738e-05
-4.88005	"practice"	-3.569511e-05
-4.88005	"prevalent	0.000181893
-4.88005	"privacy/4th	0.0001561203
-4.88005	"private"	4.445629e-05
-4.88005	"privilege"	0.0007206062
-4.703959	"professional	8.034056e-05
-4.88005	"professionals"	0.00479108
-4.88005	"prohibited	-3.855738e-05
-4.88005	"proof")	0.001774172
-4.88005	"proof".	0.02236274
-4.88005	"protects	0.001216928
-4.88005	"public	-3.569511e-05
-4.88005	"racist	-3.855738e-05
-4.88005	"racist".	0.02236274
-4.88005	"rangeland"	0.0001418028
-4.703959	"real	-7.425236e-05
-4.88005	"real"	-3.855738e-05
-4.88005	"real".	0.02236274
-4.88005	"reasonable	0.001915033
-4.88005	"reasonable"	0.005181983
-4.88005	"reasonable"_	0.0005887316
-4.88005	"reasonings".	0.02236274
-4.88005	"reconcile"	0.01581519
-4.57902	"red	-8.991004e-05
-4.88005	"reg	-3.569511e-05
-4.88005	"rejected"	0.006958502
-4.88005	"repeal"	-3.569511e-05
-4.88005	"reverse"	-3.855738e-05
-4.88005	"rich	-2.997049e-05
-4.402929	"right	0.01843411
-4.335982	"right"	0.01937085
-4.88005	"right".	0.02236274
-4.88005	"right-thinking	0.001242764
-4.88005	"rights	0.00764551
-4.402929	"rights"	0.006168061
-4.703959	"rights",	0.008181375
-4.88005	"rise	0.00479108
-4.88005	"safety"	0.01581519
-4.88005	"save	0.01581519
-4.88005	"saving	-3.855738e-05
-4.703959	"school	-5.783437e-05
-4.88005	"schools"	-3.855738e-05
-4.88005	"second	0.0001561203
-4.88005	"security,	-3.855738e-05
-4.703959	"segue."	0.0223406
-4.88005	"self-preservation"?)	0.02236274
-4.88005	"serious	-3.569511e-05
-4.703959	"sex	-7.711467e-05
-4.57902	"shall	0.002627584
-4.88005	"shoot	0.0002620846
-4.88005	"sick	0.00764551
-4.88005	"side",	0.006958502
-4.88005	"simple"	0.005181983
-4.88005	"slaughtered"	0.002090454
-4.88005	"slaughtered".	0.02236274
-4.703959	"smart	8.762937e-06
-4.88005	"societal	-3.855738e-05
-4.88005	"society	0.006958502
-4.88005	"solution"	0.004120126
-4.88005	"solutions"..	0.000743545
-4.88005	"some	-3.855738e-05
-4.88005	"speaking	0.002585465
-4.88005	"special"	0.00479108
-4.88005	"started	-3.855738e-05
-4.27799	"state	-0.0001841762
-4.88005	"state"	0.00159026
-4.88005	"stigmatize"	0.01581519
-4.88005	"stop	0.0003021859
-4.88005	"stopping	-3.855738e-05
-4.88005	"stream	0.00764551
-4.88005	"street	-3.855738e-05
-4.88005	"stupidity	0.002090454
-4.88005	"stupidity"	0.000213395
-4.703959	"subsequent	-5.783437e-05
-4.88005	"supporters"	-9.933764e-06
-4.88005	"suppress	-3.855738e-05
-4.88005	"sure...no	2.155438e-05
-4.88005	"swift").	0.02236274
-4.88005	"taboo"	0.000213395
-4.703959	"team	-7.711467e-05
-4.88005	"tear	0.00280149
-3.703959	"the	0.001427041
-4.88005	"the"	0.0002019396
-4.88005	"their	0.0003738046
-4.88005	"their"	4.445629e-05
-4.88005	"then	0.004120126
-4.88005	"they	-3.855738e-05
-4.88005	"they"	0.002974387
-4.88005	"they",	0.006958502
-4.88005	"think	0.004120126
-4.88005	"think"	0.004235734
-4.88005	"this	7.241301e-06
-4.88005	"thought	0.0009672619
-4.88005	"three-fifths"	-3.569511e-05
-4.57902	"to	0.001386791
-4.88005	"truly	-2.42458e-05
-4.88005	"twisted	-3.855738e-05
-4.88005	"undesirables"(	-3.855738e-05
-4.88005	"unreasonable".	0.02236274
-4.88005	"use	0.0003021859
-4.88005	"utopianism"	-3.855738e-05
-4.88005	"very	-3.855738e-05
-4.88005	"veteran.".	0.02236274
-4.88005	"virtual	-3.855738e-05
-4.88005	"waiting	-3.855738e-05
-4.703959	"war	0.001895769
-4.88005	"warrior	-3.569511e-05
-4.703959	"we	0.0003831814
-4.88005	"we"	-3.855738e-05
-4.703959	"we're	0.0009344557
-4.88005	"weapon"	4.73191e-05
-4.88005	"weapon".	0.02236274
-4.88005	"weapons	0.00764551
-4.57902	"well	-5.26958e-05
-4.57902	"what	0.001062347
-4.88005	"whenever	0.000743545
-4.703959	"why	0.001589076
-4.703959	"will	0.007623371
-4.88005	"wind	0.0005772663
-4.88005	"without	0.008786132
-4.88005	"wrong".	0.02236274
-4.88005	"wrong-thinking"	0.005181983
-4.88005	"yawning"	0.0006632647
-4.88005	"yeah".	0.02236274
-4.88005	"yes"	0.01066549
-4.88005	"you	-1.565863e-05
-4.703959	"your	-7.711467e-05
-4.88005	"~~	1.010388e-05
-4.88005	#	0.006958502
-4.88005	#000000;	-3.855738e-05
-4.88005	#000;	-3.855738e-05
-4.88005	#1	0.00479108
-4.703959	#1,	-7.711467e-05
-4.57902	#10	0.007763846
-4.88005	#11,	-3.855738e-05
-4.88005	#12	0.004235734
-4.88005	#12.	0.02236274
-4.88005	#13,	0.006958502
-4.88005	#14	0.002974387
-4.88005	#14,	0.006958502
-4.88005	#158	0.00479108
-4.88005	#2	0.004235734
-4.88005	#206	0.00479108
-4.88005	#3	0.005181983
-4.88005	#313	0.0001103059
-4.88005	#4	0.006958502
-4.88005	#4,	0.006958502
-4.88005	#46	-1.565863e-05
-4.88005	#474	-3.569511e-05
-4.88005	#474,	-1.565863e-05
-4.88005	#5	0.002974387
-4.88005	#58,	0.004235734
-4.88005	#6	0.005181983
-4.88005	#6.	0.02236274
-4.88005	#7	0.005181983
-4.88005	#7...	0.0001675746
-4.88005	#8	0.00479108
-4.88005	#8,	-3.855738e-05
-4.88005	#829	-3.855738e-05
-4.88005	#9,	-3.283281e-05
-4.88005	#94	0.00479108
-4.88005	#FFFFFF;	-3.855738e-05
-4.88005	#ShallNotBeInfringed.	0.02236274
-4.88005	$	0.00104186
-4.88005	$$$$.	0.02236274
-4.88005	$.02.	0.02236274
-4.88005	$0.94/bushel)	0.00159026
-4.88005	$1,000	0.002585465
-4.88005	$1,200	-3.283281e-05
-4.88005	$1.25	7.241301e-06
-4.88005	$100	-2.138343e-05
-4.703959	$1000	-3.704056e-05
-4.88005	$15	-2.42458e-05
-4.88005	$16-20K,	0.008786132
-4.88005	$16.7	-2.42458e-05
-4.88005	$1600	-2.710816e-05
-4.88005	$174,000?	0.02236274
-4.88005	$18	-2.42458e-05
-4.88005	$18T	-2.710816e-05
-4.88005	$224.66.	0.02236274
-4.88005	$233	8.45375e-05
-4.703959	$240	5.170809e-05
-4.88005	$240.	0.02236274
-4.88005	$25.00	-2.710816e-05
-4.88005	$25K]?".	0.02236274
-4.88005	$3,800	0.001627611
-4.88005	$331	8.45375e-05
-4.88005	$35	1.869171e-05
-4.88005	$400	-2.710816e-05
-4.88005	$4K.	0.02236274
-4.88005	$5.4	8.45375e-05
-4.703959	$5.4M,	0.005166671
-4.88005	$500	0.00764551
-4.88005	$52/1000	0.01066549
-4.88005	$550	-2.710816e-05
-4.88005	$725	-3.855738e-05
-4.88005	$750.	0.02236274
-4.88005	$890.00.	0.02236274
-4.88005	$900	-3.855738e-05
-4.88005	$900.00	0.01066549
-4.88005	$90K	0.000158984
-4.57902	%	0.01327253
-3.858861	&	-0.0004547404
-4.88005	&#39;most	-3.569511e-05
-4.88005	''	0.02236274
-4.88005	'68	-2.710816e-05
-4.88005	'75	0.001774172
-4.88005	'Cause	0.004235734
-4.703959	'Children's	-7.711467e-05
-4.88005	'Clipdraw'	0.002585465
-4.88005	'Holy	-3.855738e-05
-4.88005	'Keep	0.001188224
-4.88005	'Tactical'	-3.569511e-05
-4.88005	'Tis	-9.933764e-06
-4.88005	'Verily,	0.004235734
-4.88005	'You	0.0007865586
-4.88005	'actual	-3.855738e-05
-4.88005	'arms	0.002974387
-4.88005	'arms'	-1.279623e-05
-4.88005	'base'	0.002090454
-4.88005	'canned	0.0001561203
-4.88005	'cause	2.155438e-05
-4.88005	'centuries	0.00764551
-4.88005	'conversation'	0.001823037
-4.88005	'could	-3.855738e-05
-4.88005	'crap'	0.01066549
-4.88005	'designed'	0.002585465
-4.703959	'em	0.01062707
-4.88005	'em!	0.02236274
-4.88005	'em.".	0.02236274
-4.88005	'enhanced'	-2.710816e-05
-4.703959	'fact'	0.005181157
-4.88005	'freedom'	0.005181983
-4.88005	'great	-3.855738e-05
-4.57902	'gun	-0.0001156719
-4.88005	'gun',	0.001202575
-4.88005	'gun-free	-3.855738e-05
-4.88005	'had'	0.008786132
-4.88005	'health'	-1.279623e-05
-4.88005	'incredible	-3.855738e-05
-4.88005	'kill'	0.01581519
-4.88005	'light	-3.855738e-05
-4.88005	'lucida	-3.855738e-05
-4.88005	'maintain'	-1.565863e-05
-4.88005	'more	0.0006948014
-4.703959	'n	-7.425236e-05
-4.88005	'national	-3.855738e-05
-4.88005	'need'	0.005181983
-4.88005	'no	-3.855738e-05
-4.88005	'no'?.	0.02236274
-4.88005	'nother	0.000961524
-4.88005	'off	0.01581519
-4.88005	'one'	0.004120126
-4.88005	'other	-3.855738e-05
-4.88005	'over-reaching	-3.569511e-05
-4.88005	'perverted.'	0.02236274
-4.88005	'protecting'	0.01581519
-4.88005	'questionable'.	0.02236274
-4.88005	'reaffirmed'.	0.02236274
-4.88005	'reality'?.	0.02236274
-4.88005	'reasonable	-3.855738e-05
-4.88005	'research'	0.005181983
-4.88005	'retailer'	0.001771298
-4.88005	'root	-3.855738e-05
-4.88005	'safety'	0.001027513
-4.88005	'see	-3.855738e-05
-4.88005	'sensible	0.001915033
-4.88005	'silent'	-3.855738e-05
-4.703959	'similar	-5.783437e-05
-4.88005	'small	-3.569511e-05
-4.88005	'solution'.	0.02236274
-4.88005	'sposed	0.01066549
-4.88005	'state	0.00764551
-4.88005	'take	0.0008783349
-4.88005	'undisclosed'.	0.02236274
-4.88005	'what	0.0002878637
-4.88005	'who	-3.283281e-05
-4.88005	'yes',	0.001202575
-4.88005	'	3.873068e-05
-3.858861	(	0.02214276
-4.88005	("Ridiculous"	0.0001418028
-4.703959	("state	-5.783437e-05
-4.703959	(1	-5.783437e-05
-4.402929	(1)	0.00290103
-4.88005	(10945)	0.006958502
-4.88005	(11.3	0.000158984
-4.88005	(11th	0.00479108
-4.703959	(15%)	0.0006984669
-4.703959	(17%)	-4.066032e-05
-4.88005	(1822)	0.000597331
-4.703959	(1846)	0.0002922796
-4.703959	(1859)	0.001583329
-4.703959	(1875)	0.01581841
-4.88005	(1899)	-3.855738e-05
-4.88005	(19%)	-4.208841e-06
-4.88005	(1974);	-2.997049e-05
-4.88005	(1976);	-3.283281e-05
-4.88005	(1981);	-2.997049e-05
-4.703959	(1982);	-5.421563e-05
-4.88005	(1983).	0.02236274
-4.88005	(1983);	-2.997049e-05
-4.88005	(1989).	0.02236274
-4.88005	(1991).	0.02236274
-4.88005	(1994).	0.02236274
-4.88005	(1996).	0.02236274
-4.88005	(1998).	0.02236274
-4.88005	(1998);	-2.710816e-05
-4.88005	(2	-3.855738e-05
-4.48211	(2)	0.001845446
-4.88005	(2007	0.0005170775
-4.88005	(2007)	-3.855738e-05
-4.88005	(2007).	0.02236274
-4.88005	(2008)	-3.855738e-05
-4.88005	(2014	-3.855738e-05
-4.57902	(2017):	-0.0001156719
-4.88005	(2017):59,495	-2.997049e-05
-4.88005	(21.5	0.000158984
-4.88005	(239	-3.855738e-05
-4.88005	(26.5	0.000158984
-4.88005	(28	-3.855738e-05
-4.88005	(29	-3.855738e-05
-4.88005	(3)	0.0008381801
-4.88005	(30.8	0.000158984
-4.88005	(39.9	0.000158984
-4.88005	(3d	-3.855738e-05
-4.88005	(4)	-3.855738e-05
-4.88005	(4.7	0.000158984
-4.88005	(41.2	0.000158984
-4.88005	(44.7	0.000158984
-4.703959	(5)	-5.210976e-05
-4.88005	(5-6000),	2.155438e-05
-4.88005	(52.6	0.000158984
-4.88005	(53.7	0.000158984
-4.88005	(586),	0.00280149
-4.703959	(61%)	0.0006984669
-4.88005	(72%)	0.0003193734
-4.88005	(88th	-3.283281e-05
-4.88005	(90.4	0.000158984
-4.703959	(95%	-7.139003e-05
-4.703959	(A)	0.02688414
-4.88005	(AP)	-1.279623e-05
-4.88005	(ATF	-3.855738e-05
-4.88005	(ATF)	0.01581519
-4.703959	(And	0.004975507
-4.88005	(Armed	-3.855738e-05
-4.88005	(As	-3.855738e-05
-4.703959	(B)	0.02688414
-4.88005	(BLM).	0.02236274
-4.88005	(CPSC),	0.0004683595
-4.88005	(CTA)	0.01581519
-4.88005	(Columbine),	0.001242764
-4.703959	(Communist)	-7.711467e-05
-4.88005	(Cruikshank,	-3.855738e-05
-4.88005	(D)	0.0009328363
-4.88005	(D-Buffalo	-3.855738e-05
-4.88005	(D-Calif.),	0.01581519
-4.88005	(D-Conn.),	0.01581519
-4.88005	(D-Del)	-1.852106e-05
-4.88005	(Declaration	0.00764551
-4.88005	(Different	-3.855738e-05
-4.88005	(Drinking,	-3.855738e-05
-4.88005	(Dunn,	0.01581519
-4.88005	(Europe,	-3.283281e-05
-4.703959	(Ex:	-1.986481e-05
-4.88005	(FCIC)	-3.855738e-05
-4.88005	(Guinn	2.155438e-05
-4.703959	(Guns	-6.852768e-05
-4.88005	(Harper	2.155438e-05
-4.88005	(He	0.0004597627
-4.88005	(Hence	-3.855738e-05
-4.703959	(Highest	0.004768941
-4.88005	(Homer	-3.855738e-05
-4.226838	(I	0.004425118
-4.703959	(I'm	0.0003581736
-4.88005	(ILA)	0.005181983
-4.88005	(IM	0.0001217591
-4.88005	(Including	-3.569511e-05
-4.88005	(It's	0.0003394261
-4.88005	(Its	-3.855738e-05
-4.88005	(Japan	0.0009270991
-4.703959	(Just	0.00197427
-4.88005	(Khmer	-3.569511e-05
-4.703959	(Moot	3.66313e-05
-4.88005	(Most	0.00764551
-4.88005	(Murdock	2.155438e-05
-4.88005	(NICS),	-3.569511e-05
-4.703959	(NRA	-3.77979e-05
-4.88005	(NSSF)	0.00479108
-4.88005	(New	-3.855738e-05
-4.57902	(Not	0.00115912
-4.88005	(OPIC)	-3.855738e-05
-4.88005	(ObamaCare:	-3.855738e-05
-4.88005	(Of	4.378733e-06
-4.88005	(Org.	0.02236274
-4.88005	(PBGC)	0.006958502
-4.703959	(PPP)	0.0001368447
-4.88005	(Part	-3.855738e-05
-4.88005	(Quran	-3.855738e-05
-4.88005	(R-Okla.)	0.006958502
-4.88005	(RPGs),	0.006958502
-4.88005	(Really...there	0.005181983
-4.88005	(Remember)	0.000597331
-4.88005	(SALW)	-3.855738e-05
-4.88005	(Scalia,	-3.855738e-05
-4.88005	(Search	1.582908e-05
-4.88005	(Speech	1.582908e-05
-4.88005	(State	0.006958502
-4.88005	(Stevens,	-3.855738e-05
-4.88005	(Such	0.001823037
-4.88005	(Targetted	-3.855738e-05
-4.88005	(The	0.0008181047
-4.88005	(Thomas	2.155438e-05
-4.88005	(Two	0.00764551
-4.88005	(Univ.	0.02236274
-4.703959	(Unless	0.004116303
-4.88005	(Unless,	0.00764551
-4.88005	(VA	-3.569511e-05
-4.88005	(WA)	0.0006948014
-4.88005	(Who	3.014246e-05
-4.703959	(Yale	-5.783437e-05
-4.88005	(Yes	0.0005170775
-4.88005	(Z-man),	0.006958502
-4.48211	(a	0.000243824
-4.57902	(a)	0.004224238
-4.48211	(according	0.01059907
-4.703959	(again,	-4.849071e-05
-4.88005	(all	-3.855738e-05
-4.88005	(allowed	0.0005371395
-4.88005	(almost	-3.855738e-05
-4.88005	(also	-2.138343e-05
-4.88005	(although	0.01581519
-4.034952	(and	0.005239066
-4.88005	(annoying,	0.001202575
-4.88005	(armaments,	-2.42458e-05
-4.88005	(armed	-3.855738e-05
-4.18108	(as	0.01578709
-4.703959	(at	0.005447777
-4.703959	(b)	0.0005903147
-4.88005	(b):	0.004120126
-4.88005	(be	0.00280149
-4.703959	(because	0.007612882
-4.88005	(believe	0.00280149
-4.88005	(black	-3.855738e-05
-4.88005	(blood	-3.855738e-05
-4.88005	(born	0.00479108
-4.88005	(but	-3.569511e-05
-4.88005	(by	-3.855738e-05
-4.88005	(cars	0.006958502
-4.88005	(citizens	-1.279623e-05
-4.703959	(closer	0.01064335
-4.88005	(conferred	7.241301e-06
-4.88005	(death	0.00479108
-4.88005	(defence	-3.855738e-05
-4.88005	(depending	0.001917908
-4.88005	(due	0.01066549
-4.88005	(e.g.	0.02236274
-4.703959	(emphasis	-5.783437e-05
-4.88005	(er,	-3.855738e-05
-4.703959	(especially	0.0007766906
-4.88005	(especially)	0.0001188958
-4.703959	(even	0.001117291
-4.88005	(ever).	0.02236274
-4.88005	(evil	-9.933764e-06
-4.703959	(except	0.00663507
-4.88005	(false)	-3.569511e-05
-4.88005	(families	0.002974387
-4.88005	(fill	0.00479108
-4.88005	(for	1.516208e-06
-4.88005	(four	0.005181983
-4.88005	(from	0.001216928
-4.88005	(given	0.001188224
-4.88005	(government	-3.855738e-05
-4.88005	(great	-3.855738e-05
-4.703959	(guns)	0.001750011
-4.88005	(he	0.0001446663
-4.57902	(i.e.	0.02231846
-4.57902	(if	0.00486173
-4.101899	(in	0.02663569
-4.57902	(including	-6.128399e-05
-4.88005	(individual	-3.855738e-05
-4.88005	(inferring	0.01581519
-4.88005	(intent)	0.006958502
-4.88005	(internet)	0.006958502
-4.88005	(irony	-3.855738e-05
-4.88005	(kind	-3.855738e-05
-4.88005	(lack	-3.569511e-05
-4.703959	(laugh	0.0006468592
-4.703959	(left	0.001732765
-4.88005	(legally)	0.0001389394
-4.88005	(like	1.296648e-05
-4.88005	(mama	0.000961524
-4.88005	(many	0.00764551
-4.88005	(maybe	0.01581519
-4.88005	(middle	-3.855738e-05
-4.88005	(might	-1.279623e-05
-4.88005	(minorities)	7.241301e-06
-4.88005	(most?)	0.02236274
-4.88005	(mostly)	0.002090454
-4.88005	(municipal	1.582908e-05
-4.88005	(newspaper	-3.855738e-05
-4.57902	(no	-0.0001042224
-4.703959	(nominal)	0.0001368447
-4.27799	(not	0.00335673
-4.703959	(of	0.0007480121
-4.703959	(on	-1.986484e-05
-4.88005	(once	0.008786132
-4.101899	(or	0.01636769
-4.88005	(other	0.0006948014
-4.88005	(part	0.00764551
-4.88005	(pathetic	-3.855738e-05
-4.88005	(perhaps	-2.138343e-05
-4.88005	(pre-ban	-3.569511e-05
-4.88005	(press),	0.001771298
-4.88005	(primarily	4.378733e-06
-4.88005	(pro-gun)	-3.855738e-05
-4.88005	(probably	0.0001704383
-4.88005	(quotas,	-3.855738e-05
-4.88005	(read,	-3.855738e-05
-4.88005	(record	0.00479108
-4.88005	(regarding	0.01581519
-4.88005	(remember,	0.00280149
-4.88005	(right	-3.855738e-05
-4.88005	(rings	0.001771298
-4.88005	(say)	-3.569511e-05
-4.88005	(say,	-3.855738e-05
-4.703959	(see	0.01578575
-4.88005	(seriously),	0.004235734
-4.88005	(sheagh,	-3.855738e-05
-4.88005	(since	0.0003021859
-4.88005	(so	0.01581519
-4.88005	(someone's	2.727975e-05
-4.88005	(something	0.004235734
-4.88005	(sources	3.586792e-05
-4.88005	(still	0.002671862
-4.88005	(stockpile)	0.004235734
-4.88005	(stores).	0.02236274
-4.88005	(stratagem	-3.855738e-05
-4.88005	(strongly	1.582908e-05
-4.88005	(terrible)	-3.855738e-05
-4.703959	(that	0.0001061114
-4.27799	(the	-0.0002155093
-4.88005	(there	0.0007206062
-4.88005	(there's	0.002671862
-4.88005	(they	0.0007206062
-4.88005	(they're	0.001216928
-4.88005	(things	0.0007865586
-4.48211	(though	0.008790595
-4.703959	(to	0.0003896917
-4.703959	(true	0.009449312
-4.703959	(unbeknownst	0.01064335
-4.88005	(unintentional):78205	-3.855738e-05
-4.88005	(unless	0.00280149
-4.88005	(unlicensed)	-2.997049e-05
-4.88005	(used	-3.855738e-05
-4.88005	(w/o	-3.855738e-05
-4.88005	(whether	0.005381913
-4.226838	(which	0.01417718
-4.48211	(who	0.009829126
-4.88005	(whom	8.45375e-05
-4.57902	(with	0.0176874
-4.88005	(yes)	0.0001503933
-4.703959	(yes,	0.006027954
-4.88005	(your	-7.071316e-06
-4.067137	)	0.0130615
-4.703959	),	0.007082961
-4.88005	).	0.02236274
-4.88005	)Mental	-3.855738e-05
-4.27799	*	0.0006470648
-4.335982	****	0.003130709
-4.88005	******MIC	-3.855738e-05
-4.88005	****,	0.004120126
-4.703959	****.	0.0223406
-4.88005	****head	-3.855738e-05
-4.88005	****hole,	-2.710816e-05
-4.57902	****ing	0.0003224873
-4.88005	****load	0.00764551
-4.88005	****ty	0.0001675746
-4.88005	****ty.	0.02236274
-4.88005	*2*	-3.569511e-05
-4.88005	*Fairly	7.594834e-05
-4.88005	*NOT*	-9.933764e-06
-4.88005	*ONE*	-3.283281e-05
-4.88005	*WAAAYYYY*	0.0008123688
-4.88005	*long*	0.0001675746
-4.88005	*shrug*	0.000597331
-4.88005	*sigh*	0.0001246224
-4.88005	*that	0.0002105312
-4.88005	*then*	0.0008525209
-4.88005	*yawn*	-3.855738e-05
-4.88005	+	0.0005027482
-4.88005	+P	-3.283281e-05
-4.88005	+P.	0.02236274
-3.858861	,	0.03266648
-4.88005	,,	0.0003508854
-4.88005	,,,	0.001917908
-4.88005	,,,gloves	0.0006259966
-4.88005	,they	0.00113082
-2.888824	-	0.08785198
-4.18108	--	0.0145845
-4.402929	---	0.0148254
-4.88005	----	1.010388e-05
-4.88005	---especially	-3.283281e-05
-4.88005	--gun	0.000181893
-4.88005	--violent	0.000181893
-4.703959	-.	0.0223406
-4.88005	-.-.	0.02236274
-4.88005	-1200	3.586792e-05
-4.703959	->	0.001522995
-4.88005	-In	4.73191e-05
-4.88005	-Maybe	0.0008381801
-4.88005	-Trump	-3.569511e-05
-4.18108	-VySky.	0.02218566
-4.88005	-ammunition	0.0001389394
-4.88005	-declaration,	0.01581519
-4.88005	-even	0.0005543362
-4.88005	-identification	-1.852106e-05
-4.88005	-universal	0.0001389394
-4.88005	-wing	-3.569511e-05
-3.410228	.	0.0211026
-4.57902	..	0.003849544
-3.718682	...	0.03937731
-4.703959	..."	8.60673e-05
-4.57902	....	0.01110824
-4.88005	.....	-3.855738e-05
-4.88005	................	1.516208e-06
-4.88005	......is	0.008786132
-4.88005	.....no.	0.02236274
-4.88005	.....then	0.004235734
-4.88005	....But	0.001774172
-4.88005	....But...Anyone	0.000961524
-4.88005	....Dumb	0.006958502
-4.88005	....To	0.000136076
-4.88005	....okay,	0.00280149
-4.88005	....throw	0.008786132
-4.88005	...Jones...liar...	-2.710816e-05
-4.88005	...Like	0.0003222379
-4.88005	...No,	0.00280149
-4.88005	...To	-3.855738e-05
-4.88005	...WHAT	-2.138343e-05
-4.703959	...and	0.002817714
-4.88005	...deleted	-2.710816e-05
-4.88005	...screaming	0.00479108
-4.88005	...stop	-3.855738e-05
-4.88005	..Federal	-3.855738e-05
-4.88005	..deceitful.."you	0.000961524
-4.88005	..that	3.586792e-05
-4.88005	.0257	0.006958502
-4.88005	.078	-4.208841e-06
-4.48211	.08	0.001704884
-4.88005	.094977	0.001561531
-4.335982	.22	0.008465419
-4.48211	.223	0.01435583
-4.88005	.223..	0.0002620846
-4.88005	.270	0.0004225122
-4.88005	.300	-3.855738e-05
-4.88005	.3006	3.586792e-05
-4.88005	.308	-2.42458e-05
-4.88005	.308,	0.006958502
-4.88005	.32's	0.000743545
-4.88005	.327	-2.997049e-05
-4.48211	.357	5.191106e-05
-4.88005	.357.	0.02236274
-4.57902	.38	-9.563504e-05
-4.88005	.38+p	0.006958502
-4.88005	.38,	0.001627611
-4.88005	.380	-2.997049e-05
-4.57902	.40	0.01184025
-4.88005	.40s	0.001202575
-4.703959	.44	-7.425236e-05
-4.88005	.44"?	0.02236274
-4.27799	.45	0.01125885
-4.88005	.45's	0.006958502
-4.88005	.45's.	0.02236274
-4.88005	.code{font-family:	-3.855738e-05
-4.88005	.gov	-3.283281e-05
-4.067137	/	0.001660884
-4.88005	/*overflow:	-3.569511e-05
-4.88005	/feelgood	0.00113082
-4.703959	0	0.01082955
-4.88005	0.039	0.000158984
-4.88005	0.0602	-3.283281e-05
-4.88005	0.6),	0.001202575
-4.88005	0.85).	0.02236274
-4.88005	0.x	-2.138343e-05
-4.703959	0px	-3.417799e-05
-3.925807	1	0.01372829
-4.88005	1"	-3.283281e-05
-4.88005	1")	0.001771298
-4.88005	1",	0.004120126
-4.88005	1".	0.02236274
-4.703959	1%	0.007650758
-4.226838	1)	0.002611632
-4.88005	1,	-3.855738e-05
-4.57902	1,000	4.178542e-05
-4.88005	1,055,689	-3.855738e-05
-4.88005	1,065	-2.710816e-05
-4.88005	1,070	-1.852106e-05
-4.88005	1,074,200	-3.855738e-05
-4.48211	1,149	-1.156373e-06
-4.88005	1,166,676	4.378733e-06
-4.88005	1,200	0.0002248509
-4.88005	1,251,311	-3.855738e-05
-4.88005	1,290,684	-3.855738e-05
-4.88005	1,300	7.308534e-05
-4.88005	1,400	-2.710816e-05
-4.88005	1,506,534	-3.855738e-05
-4.88005	1,515	-3.855738e-05
-4.88005	1,551,399	-3.855738e-05
-4.88005	1,575	-4.208841e-06
-4.88005	1,798,593	-3.855738e-05
-4.88005	1-14(3),	0.002585465
-4.88005	1-2	0.0001561203
-4.703959	1-3	0.0001347474
-4.88005	1-800-***-****	0.00113943
-4.402929	1.	0.02233041
-4.88005	1......	7.241301e-06
-4.88005	1.25	-3.569511e-05
-4.88005	1.35	8.45375e-05
-4.48211	1.5	1.602251e-05
-4.88005	1.And	0.00113082
-4.88005	1.How	0.0009328363
-4.703959	1/2	0.007621623
-4.88005	1/2"	0.01066549
-4.703959	1/3	0.01252346
-4.88005	1/4"	0.01066549
-4.88005	1/8	-3.283281e-05
-4.703959	1/x	-5.497207e-05
-3.800869	10	0.009545655
-4.57902	10%	0.007601233
-4.88005	10+	0.0001561203
-4.88005	10,000	-2.997049e-05
-4.88005	10,000:	-3.569511e-05
-4.88005	10,000?.	0.02236274
-4.88005	10,129	0.006958502
-4.57902	10,265	0.001943504
-4.88005	10,6%	0.0001675746
-4.703959	10.	0.0223406
-4.88005	10.54	0.001915033
-3.88005	100	0.0001031501
-4.18108	100%	0.01235352
-4.88005	100,00)	-2.997049e-05
-4.139688	100,000	0.005927057
-4.139688	100,000)	0.001875446
-4.703959	1000	0.0001376112
-4.88005	1000.	-3.569511e-05
-4.88005	100K+	5.877057e-05
-4.88005	100ft	0.0003021859
-4.88005	100k	7.022236e-05
-4.88005	100mph.	0.02236274
-4.88005	101	0.006958502
-4.88005	101.5	7.308534e-05
-4.88005	107	-2.997049e-05
-4.88005	107-54	-3.855738e-05
-4.88005	1096	5.018192e-05
-4.88005	10:34	-1.565863e-05
-4.402929	10th	0.001542438
-4.703959	11	4.598182e-05
-4.88005	11,	-3.283281e-05
-4.88005	11,000	0.002974387
-4.88005	11,004.	0.02236274
-4.703959	11.	0.0223406
-4.88005	110-11	-3.855738e-05
-4.88005	111	0.001917908
-4.88005	111.	0.02236274
-4.88005	1139	-3.855738e-05
-4.88005	1147?	0.02236274
-4.88005	1189?	0.02236274
-4.88005	1190	0.000158984
-4.88005	1198?	0.02236274
-4.27799	12	0.003297061
-4.703959	12"	-5.421565e-05
-4.88005	12")?	0.02236274
-4.88005	12,500	-3.855738e-05
-4.57902	12.	0.02231846
-4.88005	120	-2.710816e-05
-4.88005	1200	0.0006948014
-4.703959	121	-5.783437e-05
-4.88005	1215	0.006958502
-4.88005	1236	-3.855738e-05
-4.88005	124	-3.569511e-05
-4.139688	13	0.001537797
-4.88005	13%	0.00764551
-4.703959	13,	0.0007394091
-4.88005	13,657	-9.933764e-06
-4.88005	13-15	8.167441e-05
-4.88005	13.This	0.005181983
-4.88005	133-49	-3.569511e-05
-4.88005	1340	-3.855738e-05
-4.402929	14	0.01205932
-4.88005	14,	-2.997049e-05
-4.88005	14,123	-7.071316e-06
-4.88005	14-16	0.000158984
-4.88005	14.	0.02236274
-4.703959	140	0.0001175656
-4.88005	147	-3.569511e-05
-4.703959	14th	0.0004298089
-3.800869	15	0.008438844
-4.88005	15)?	0.02236274
-4.703959	15,	0.004203014
-4.88005	15-20	0.000743545
-4.88005	15.76%	0.0001933481
-4.88005	15.91%	-1.279623e-05
-4.226838	150	-3.223239e-05
-4.88005	15th	-2.710816e-05
-4.402929	16	0.0002818573
-4.88005	16,	-3.855738e-05
-4.88005	16-bullet	1.516208e-06
-4.88005	16.	0.02236274
-4.88005	16.3	8.45375e-05
-4.88005	16.78%	-2.138343e-05
-4.88005	1640	0.0006689985
-4.88005	1640-1995	-2.42458e-05
-4.88005	1688,	-3.569511e-05
-4.48211	17	0.0002000787
-4.88005	17,000	0.00479108
-4.88005	17...or	-3.855738e-05
-4.88005	1700	0.0007206062
-4.88005	177	-3.569511e-05
-4.57902	1776	0.004072021
-4.88005	1776/I]..."	-3.855738e-05
-4.88005	1777	-2.997049e-05
-4.88005	1780	-3.283281e-05
-4.88005	1787,	0.0004683595
-4.88005	1787-1791,	2.441705e-05
-4.88005	1788.	0.02236274
-4.88005	1789,	0.006958502
-4.88005	1791	0.001627611
-4.88005	1791,	0.01581519
-4.703959	1791.	0.0223406
-4.88005	1792	2.441705e-05
-4.88005	1792,	0.0002019396
-3.950631	18	0.02367884
-4.88005	18%	-2.997049e-05
-4.57902	18,	0.001147637
-4.88005	18-year-olds	7.594834e-05
-4.88005	18.	0.006958502
-4.88005	18.Liability	-1.279623e-05
-4.88005	180	-1.852106e-05
-4.88005	1800	4.378733e-06
-4.88005	1804	0.0005170775
-4.88005	1820	-3.283281e-05
-4.88005	1822,	0.001216928
-4.88005	18255	6.163349e-05
-4.88005	1828	-3.855738e-05
-4.88005	1836-1845.	0.02236274
-4.88005	1844,	0.00280149
-4.88005	1846	0.00479108
-4.88005	1858	0.0001246224
-4.88005	1865,	0.002671862
-4.703959	1866	0.0001719772
-4.88005	1866)]	-3.569511e-05
-4.88005	1871?	0.02236274
-4.88005	1873	0.006958502
-4.88005	1876	0.00479108
-4.88005	1878.	0.02236274
-4.88005	1895	-3.283281e-05
-4.57902	19	0.000184978
-4.88005	19%	0.00764551
-4.88005	19,	0.00764551
-4.88005	19,200	-1.852106e-05
-4.88005	19.91%	-3.569511e-05
-4.88005	1903	0.006958502
-4.88005	1908	-3.283281e-05
-4.88005	191,814	-3.855738e-05
-4.402929	1911	-4.467552e-05
-4.88005	1911's.	0.02236274
-4.88005	1911,	0.0007865586
-4.88005	1911:	-2.997049e-05
-4.88005	1915	1.582908e-05
-4.88005	1915,	-3.855738e-05
-4.88005	1915-1917	-2.997049e-05
-4.88005	1915-1917,	-2.997049e-05
-4.703959	1917	0.001735639
-4.88005	1919.	0.02236274
-4.88005	1920"	-2.997049e-05
-4.88005	1920s.	0.02236274
-4.703959	1929	-6.310179e-06
-4.88005	1929-1953	-1.279623e-05
-4.88005	1929-1953,	-1.279623e-05
-4.88005	1929:	0.001561531
-4.88005	1930's	0.0001790293
-4.88005	1931,	-3.855738e-05
-4.88005	1933-1945	-1.279623e-05
-4.88005	1935	1.582908e-05
-4.88005	1935:	-2.997049e-05
-4.88005	1938	1.582908e-05
-4.88005	1938:	-2.42458e-05
-4.88005	1939	1.582908e-05
-4.88005	1939);	-3.569511e-05
-4.88005	1939,	-3.855738e-05
-4.88005	1939-1945,	-1.279623e-05
-4.88005	1940.	0.02236274
-4.88005	1940?	0.02236274
-4.88005	1941	-2.138343e-05
-4.88005	1943,	-3.855738e-05
-4.88005	1945	0.001774172
-4.88005	1945,	-3.855738e-05
-4.88005	1948	1.582908e-05
-4.88005	1948-1952,	-1.279623e-05
-4.88005	1949-1976	-1.279623e-05
-4.88005	1952	0.001774172
-4.88005	1953	0.001774172
-4.88005	1953)	0.006958502
-4.88005	1954	-2.710816e-05
-4.88005	1954,	0.0003795347
-4.88005	1954.	0.02236274
-4.88005	1956	1.582908e-05
-4.88005	1956:	-3.283281e-05
-4.88005	1959.	0.02236274
-4.88005	1960's.	0.02236274
-4.88005	1960-1981	-1.279623e-05
-4.88005	1960.	0.02236274
-4.88005	1960s	0.004235734
-4.88005	1963,	0.01581519
-4.402929	1964	0.001770696
-4.88005	1964.	0.02236274
-4.88005	1964:	-3.283281e-05
-4.703959	1965,	-7.711467e-05
-4.703959	1966);	-7.425236e-05
-4.88005	1968).	0.02236274
-4.88005	1970	1.582908e-05
-4.88005	1970:	-3.283281e-05
-4.88005	1970s	0.0001246224
-4.88005	1971	1.582908e-05
-4.88005	1971);	-3.855738e-05
-4.88005	1971-1979	-2.710816e-05
-4.88005	1971-1979,	-2.710816e-05
-4.88005	1972	4.378733e-06
-4.88005	1972.	0.02236274
-4.88005	1974	0.006958502
-4.88005	1974,	-2.138343e-05
-4.88005	1975	1.582908e-05
-4.88005	1975-1977,	7.241301e-06
-4.88005	1975-1979	0.0007722203
-4.88005	1977	0.001774172
-4.88005	1979	0.001774172
-4.88005	1980	0.0004683595
-4.88005	1981	0.001774172
-4.88005	1981-1984,	-1.279623e-05
-4.88005	1981.	0.02236274
-4.88005	1982).	0.02236274
-4.88005	1982-2019	4.378733e-06
-4.88005	1982?	0.02236274
-4.88005	1983	1.296648e-05
-4.88005	1983,	-3.283281e-05
-4.88005	1990	0.01066549
-4.88005	1990's	0.00280149
-4.88005	1990s	0.006958502
-4.88005	1990s,	0.01581519
-4.88005	1991	0.001771298
-4.88005	1993	-3.855738e-05
-4.88005	1993,	0.01581519
-4.703959	1993.	0.0223406
-4.57902	1994	0.01270612
-4.703959	1996	0.0005645151
-4.88005	1997	0.01066549
-4.88005	1997...to	1.010388e-05
-4.88005	1998).	0.02236274
-4.48211	1999	0.00684311
-4.88005	1999).	0.02236274
-4.88005	1px	-3.855738e-05
-4.48211	1st	0.0001771629
-4.57902	1st,	0.0157474
-3.925807	2	0.02595892
-4.703959	2%	0.007623371
-4.27799	2)	0.001982989
-4.88005	2,048,628	-3.855738e-05
-4.88005	2,400	0.0007808232
-4.88005	2,659	0.001242764
-4.88005	2,999,862	-3.855738e-05
-4.703959	2-3	-3.990313e-05
-4.88005	2-3x/month.	0.02236274
-4.88005	2-5	0.0008123688
-4.335982	2.	0.02230828
-4.88005	2.....	0.02236274
-4.703959	2.5	6.316086e-05
-4.88005	2.5M	-2.997049e-05
-4.88005	2.5million	3.300517e-05
-4.88005	2.9%	0.00764551
-4.88005	2.Per	0.001188224
-4.139688	20	0.0001511376
-4.88005	20+	-4.208841e-06
-4.88005	20-30	3.586792e-05
-4.703959	20-round	-1.127668e-05
-4.88005	20.95%	2.441705e-05
-3.950631	200	0.0009457119
-4.703959	2000	0.004862585
-4.88005	2000).	0.02236274
-4.88005	2000.	0.02236274
-4.88005	2001	0.006958502
-4.703959	2002	0.008747692
-4.88005	2003,	0.000597331
-4.88005	2004,	0.0001790293
-4.88005	2004.	0.02236274
-4.88005	2005,	0.01581519
-4.703959	2005.	0.0223406
-4.88005	2006	0.001202575
-4.88005	2006,	0.0004683595
-4.88005	2006.	0.02236274
-4.703959	2007	0.002492232
-4.88005	2007,	3.300517e-05
-4.88005	2007-2017	-3.855738e-05
-4.88005	2008	0.01066549
-4.88005	2008,	-3.569511e-05
-4.88005	2009	0.006958502
-4.703959	2009-2015	2.277785e-06
-4.88005	200px;*/}	-3.855738e-05
-4.88005	2010's	-3.569511e-05
-4.703959	2010,	0.00722848
-4.88005	2010.	0.02236274
-4.88005	2011	0.0006948014
-4.88005	2011,	0.008786132
-4.88005	2012	0.00479108
-4.88005	2012).	0.02236274
-4.703959	2012,	0.0005759815
-4.88005	2012.	0.006958502
-4.703959	2013	0.002515267
-4.48211	2013,	0.008704643
-4.57902	2013.	0.02231846
-4.88005	2013:	0.0005170775
-4.88005	2014	-2.710816e-05
-4.402929	2014,	0.02687009
-4.88005	2014.	0.02236274
-4.88005	2014–with	-3.283281e-05
-4.57902	2015	0.005360013
-4.48211	2015,	0.00470064
-4.57902	2015.	0.0223566
-4.48211	2016	0.02715816
-4.88005	2016's	0.0005170775
-4.88005	2016),	0.000608797
-4.88005	2016,	-2.997049e-05
-4.57902	2016.	0.02231846
-4.88005	2016:	0.001561531
-4.57902	2016;	-0.0001099472
-4.48211	2017	0.002360481
-4.88005	2017,	0.001202575
-4.88005	2017...guess	0.001073424
-4.402929	2018	0.007480037
-4.88005	2018,	0.00280149
-4.703959	2020	0.002647741
-4.88005	2020.	0.02236274
-4.88005	204	-3.855738e-05
-4.703959	209	-3.4178e-05
-4.703959	20K	0.003163625
-4.88005	20s,	4.378733e-06
-4.57902	20th	-0.0001042224
-4.88005	20th,	-3.855738e-05
-4.57902	21	0.00219177
-4.57902	21.	0.02231846
-4.88005	21.60%	-1.852106e-05
-4.703959	21st	-6.280292e-05
-4.703959	22	-7.711467e-05
-4.88005	22,000	0.001242764
-4.88005	22.	0.02236274
-4.88005	228	8.740059e-05
-4.88005	229:	-3.855738e-05
-4.88005	22nd	-2.997049e-05
-4.402929	23	-0.0001670237
-4.703959	23,	-4.56282e-05
-4.88005	23,141,970	4.378733e-06
-4.88005	235.7k	0.001242764
-4.88005	236.9839	0.000158984
-4.88005	238	-2.42458e-05
-4.18108	24	-0.0001152664
-4.88005	24,	-2.997049e-05
-4.88005	24-Year-Old	-3.855738e-05
-4.703959	24/7	0.006943309
-4.703959	243	-5.783437e-05
-4.88005	247,	0.00104186
-4.703959	248	-6.280292e-05
-4.88005	249	-3.283281e-05
-4.48211	25	1.392167e-05
-4.88005	25,	-9.933764e-06
-4.88005	25,2	0.000158984
-4.703959	250	-4.84907e-05
-4.703959	251	-7.711467e-05
-4.88005	252	-3.855738e-05
-4.88005	253	-3.855738e-05
-4.88005	254	-3.569511e-05
-4.88005	255	-3.569511e-05
-4.88005	256	-2.42458e-05
-4.88005	257	-2.710816e-05
-4.88005	257-67	-3.569511e-05
-4.88005	258	-3.569511e-05
-4.88005	259	-3.569511e-05
-4.88005	25kj487.jpg2z6fhb9.jpg	-3.855738e-05
-4.88005	26.38%	-2.42458e-05
-4.88005	260	8.45375e-05
-4.88005	269	-3.855738e-05
-4.88005	26TH	-2.997049e-05
-4.57902	28	-7.424787e-05
-4.88005	28-2,	-3.569511e-05
-4.88005	28.48%	-1.346314e-06
-4.703959	2800	0.002952248
-4.88005	285	-3.855738e-05
-4.88005	285.	0.02236274
-4.57902	29	2.098062e-05
-4.88005	29.6	8.45375e-05
-4.703959	290,000	0.0006984669
-4.57902	297	0.0007496167
-4.88005	2:53	-3.855738e-05
-4.27799	2A	0.01228884
-4.88005	2A,	0.001073424
-4.88005	2A.	0.02236274
-4.88005	2a.	0.02236274
-4.88005	2am,	-9.933764e-06
-4.88005	2lsoha.jpg	0.0001246224
-3.203357	2nd	0.01359256
-4.703959	2nd,	-7.139003e-05
-4.88005	2nd.	0.02236274
-4.88005	2ndA,	-2.710816e-05
-4.88005	2px;	-3.855738e-05
-4.88005	2zf7pj8.jpg2rcpls4.jpg	-3.855738e-05
-3.766107	3	0.00806526
-4.88005	3"	-2.997049e-05
-4.88005	3",	0.001202575
-4.88005	3%	7.308534e-05
-4.48211	3)	0.0001349675
-4.88005	3,150,435	-3.855738e-05
-4.88005	3,727	-3.855738e-05
-4.57902	3-D	-6.700934e-05
-4.57902	3.	0.02231846
-4.88005	3.1	0.001242764
-4.88005	3.2	-3.283281e-05
-4.88005	3.3	-3.855738e-05
-4.703959	3.5%	0.009303047
-4.88005	3.9	8.45375e-05
-4.88005	3.Is	0.005381913
-4.88005	3/4	0.00764551
-4.703959	3/5	0.007624536
-4.88005	3/5ths	0.00764551
-4.88005	3/8	-3.283281e-05
-4.067137	30	0.000102167
-4.88005	30%	0.00764551
-4.57902	30,	4.75122e-05
-4.88005	30,000	0.001915033
-4.88005	30-06	-2.997049e-05
-4.703959	30.06	0.004185671
-4.88005	30.06.	0.02236274
-4.88005	30.1%	-2.42458e-05
-4.48211	300	0.001181692
-4.402929	300,000	-0.0001391524
-4.88005	3006vs556mm.jpg	0.0001246224
-4.88005	305,074	-3.855738e-05
-4.88005	308.	0.02236274
-4.88005	309	-3.855738e-05
-4.48211	31	-0.0001128028
-4.88005	31,	-3.283281e-05
-4.88005	31.4%	1.516208e-06
-4.703959	32	4.598182e-05
-4.88005	32-37K	-3.855738e-05
-4.88005	32.4%	-1.565863e-05
-4.88005	320	-3.283281e-05
-4.88005	329	8.45375e-05
-4.703959	33	0.002051925
-4.88005	33,000	4.445629e-05
-4.88005	33.	0.02236274
-4.88005	3360	-3.855738e-05
-4.88005	33600	0.01066549
-4.88005	33:	-3.855738e-05
-4.88005	34%	0.001481099
-4.88005	35	0.002585465
-4.703959	35%	0.007615795
-4.88005	350	8.45375e-05
-4.88005	356	-3.855738e-05
-4.703959	36	4.598182e-05
-4.88005	37	0.00479108
-4.88005	37,	-3.855738e-05
-4.88005	37,000	0.001242764
-4.88005	37.00	0.002090454
-4.88005	37.30%	3.014246e-05
-4.88005	38	-3.855738e-05
-4.88005	380.	0.02236274
-4.703959	394,	0.00101972
-4.88005	39th	-2.997049e-05
-4.703959	3D	-5.210976e-05
-4.57902	3d	0.0007094658
-4.88005	3rd	0.002464538
-4.18108	4	0.005180249
-4.88005	4"	0.00479108
-4.57902	4)	-0.0001042224
-4.88005	4,	-3.855738e-05
-4.88005	4-5	7.881142e-05
-4.88005	4-6	4.378733e-06
-4.402929	4.	0.02227419
-4.88005	4.7	8.45375e-05
-4.703959	40	0.0001175656
-4.703959	40%	-7.425236e-05
-4.88005	40,	-3.283281e-05
-4.88005	40,000	0.001242764
-4.88005	40.	0.02236274
-4.703959	400	0.0001290201
-4.88005	400-600	8.45375e-05
-4.703959	401-402	-5.783437e-05
-4.88005	40mm	-2.710816e-05
-4.88005	40sw	-2.42458e-05
-4.88005	41	-2.997049e-05
-4.88005	427,198-441,322)	1.516208e-06
-4.57902	43	-6.128398e-05
-4.703959	43-year	-4.562819e-05
-4.88005	434,259	-3.569511e-05
-4.88005	44	-9.933764e-06
-4.88005	442..	-1.852106e-05
-4.88005	443	0.0003365615
-4.88005	4473	3.300517e-05
-4.88005	449,895	-3.855738e-05
-4.402929	45	0.001890316
-4.88005	45,	-3.283281e-05
-4.88005	45,000	2.155438e-05
-4.88005	45.	0.02236274
-4.88005	463.	0.02236274
-4.88005	47	-3.855738e-05
-4.88005	47.	0.02236274
-4.88005	474	-3.855738e-05
-4.703959	49	0.007653672
-4.57902	49%	-1.547837e-05
-4.88005	49,882	-2.997049e-05
-4.88005	4A	5.018192e-05
-4.57902	4th	0.007995902
-3.97696	5	0.002188405
-4.703959	5%	0.008625023
-4.88005	5,082	0.00764551
-4.88005	5,300	-9.933764e-06
-4.88005	5-10	0.0001246224
-4.88005	5-6	-4.208841e-06
-4.88005	5-year	-7.071316e-06
-4.48211	5.	0.02229633
-4.88005	5.3	-3.569511e-05
-4.88005	5.5	8.45375e-05
-4.703959	5.56	5.953514e-05
-4.88005	5.56mm	-2.42458e-05
-4.034952	50	0.01090522
-4.88005	50%.	0.02236274
-4.88005	50,000	0.008786132
-4.88005	50-60	0.0001561203
-4.88005	50.	0.02236274
-4.88005	50.08%	7.241301e-06
-4.226838	500	0.004253427
-4.88005	500,	0.006958502
-4.88005	500,000	0.0001246224
-4.88005	50s	0.006958502
-4.57902	51	-7.635376e-05
-4.88005	52%	-3.569511e-05
-4.703959	542	-5.783437e-05
-4.88005	55.	0.02236274
-4.703959	554	-5.848864e-07
-4.88005	56	8.45375e-05
-4.88005	56%.	0.02236274
-4.88005	56,135	-2.997049e-05
-4.88005	569	-3.855738e-05
-4.88005	56906	-3.855738e-05
-4.88005	57.	0.02236274
-4.703959	570	0.006920038
-4.88005	59	0.001242764
-4.88005	59,495	-2.997049e-05
-4.703959	5th	0.007117881
-4.335982	6	0.001638999
-4.48211	6"	0.002585101
-4.88005	6%	1.869171e-05
-4.88005	6,	-3.283281e-05
-4.88005	6-26-2008	-3.855738e-05
-4.88005	6-7	-3.855738e-05
-4.88005	6-8	-2.42458e-05
-4.57902	6.	0.02231846
-4.48211	60	0.0001349674
-4.88005	60%	0.00764551
-4.88005	60's	0.0004339735
-4.88005	60.	0.02236274
-4.57902	600	-8.4185e-05
-4.88005	600fps	5.304477e-05
-4.703959	60s	0.00418278
-4.88005	61	8.740059e-05
-4.88005	62	-3.855738e-05
-4.88005	63%	0.00764551
-4.88005	630,000	0.001242764
-4.88005	636.	0.02236274
-4.88005	637	-3.855738e-05
-4.88005	642	1.010388e-05
-4.88005	65	-3.569511e-05
-4.88005	650,000	0.01066549
-4.88005	672	-3.855738e-05
-4.88005	68	0.001915033
-4.703959	6th	-6.852768e-05
-4.004989	7	0.004258831
-4.88005	7%	0.00764551
-4.88005	7,149,074-9,352,755)	-3.855738e-05
-4.703959	7.	0.0223406
-4.88005	7.5	-9.933764e-06
-4.88005	7.7	-3.855738e-05
-4.57902	70%	0.0212056
-4.88005	70-year-old	7.594834e-05
-4.88005	70s.	0.02236274
-4.703959	71	0.0001462024
-4.88005	72	-3.569511e-05
-4.88005	72%	0.0001160325
-4.703959	723	8.320389e-05
-4.703959	73	-5.783437e-05
-4.88005	73rd	-3.855738e-05
-4.402929	75	0.0106895
-4.48211	75%	0.00759308
-4.88005	75,	-3.855738e-05
-4.88005	78	0.0002105312
-4.88005	79	1.516208e-06
-4.88005	793	-3.855738e-05
-4.88005	7:14.	0.02236274
-4.88005	7th	0.0001561203
-4.335982	8	0.0002203845
-4.88005	8,000	0.001242764
-4.88005	8,250,914	-3.569511e-05
-4.88005	8-12	-3.569511e-05
-4.57902	8-year-old-girl	-9.63905e-05
-4.57902	8.	0.02231846
-4.57902	80	-5.842129e-05
-4.57902	80%	0.009001459
-4.88005	80,000	0.001242764
-4.88005	80-character	-3.855738e-05
-4.703959	800	-5.421563e-05
-4.88005	8100	0.0005170775
-4.88005	8108	0.002585465
-4.88005	82	-3.855738e-05
-4.88005	831	-3.855738e-05
-4.88005	837	-3.855738e-05
-4.88005	84.5	-3.855738e-05
-4.88005	85,000	-3.283281e-05
-4.88005	850,634	-1.852106e-05
-4.88005	87%	0.00764551
-4.88005	896-97	-3.855738e-05
-4.88005	8:00??	0.02236274
-4.88005	8:12-13	-3.283281e-05
-4.226838	9	-6.946363e-05
-4.88005	9%	0.000158984
-4.703959	9,	-7.139003e-05
-4.88005	9,248.	0.02236274
-4.88005	9-0	-3.855738e-05
-4.703959	9-11.	0.0223406
-4.88005	9-11?	0.02236274
-4.703959	9.	0.0223406
-4.88005	9.41;	0.006958502
-4.88005	9.9-11.24	0.0007808232
-4.88005	9/11).	0.02236274
-4.402929	90%	0.007555211
-4.88005	90%,	0.001027513
-4.88005	90%.	0.02236274
-4.703959	90's.	0.0223406
-4.88005	90's.It	0.0001475298
-4.88005	90,	0.00104186
-4.88005	900	-3.855738e-05
-4.88005	91.5	0.001242764
-4.88005	911	-3.569511e-05
-4.88005	911"	0.002585465
-4.703959	92	-5.848864e-07
-4.88005	92%	0.00764551
-4.88005	92,	0.006958502
-4.88005	922(d),	0.00280149
-4.88005	922-23;	-3.855738e-05
-4.88005	93,	-1.279623e-05
-4.88005	94%	0.00764551
-4.88005	94,	0.00104186
-4.88005	94.	0.02236274
-4.88005	95%	-3.283281e-05
-4.88005	97%	0.00764551
-4.88005	99	-3.855738e-05
-4.57902	99%	0.01250132
-4.88005	99.x	-3.283281e-05
-4.88005	9:29)	-2.42458e-05
-3.88005	9mm	0.01788241
-4.88005	9mm,	-3.855738e-05
-4.57902	9mm.	0.02231846
-4.48211	9th	7.482157e-05
-4.88005	9yet	0.0001990757
-3.902326	:	0.001809893
-4.88005	:-).	0.02236274
-4.703959	:.	0.0223406
-4.88005	:....Because	0.00280149
-4.88005	:P	0.0001246224
-4.88005	:P.	0.001561531
-4.88005	:doublefacepalm:	3.300517e-05
-4.226838	;	0.01969871
-1.298555	</s>
-4.88005	<fraction>	0.00764551
-4.88005	<fractional>	-3.569511e-05
-4.88005	<further	-7.071316e-06
-99	<s>	0.01062509
-4.88005	<stop>?	0.02236274
-5.176574	<unk>
-4.88005	<yawn>	4.378733e-06
-4.101899	=	0.01045449
-4.88005	>	-3.569511e-05
-4.57902	>"	0.0004371117
-3.88005	?	0.02196441
-4.335982	?.	0.02225206
-4.88005	??	0.02236274
-4.703959	@	-4.276569e-05
-4.88005	@AP	-3.569511e-05
-4.88005	@Checkerboard	0.000700536
-3.151696	A	0.006050136
-4.88005	A's,	-3.283281e-05
-4.88005	A-15	0.0002334431
-4.88005	A-3645/S-2476	-2.710816e-05
-4.88005	A-3646/S-2474	-3.855738e-05
-4.88005	A-3653	-3.855738e-05
-4.88005	A-3659	-3.855738e-05
-4.88005	A-3664	-3.569511e-05
-4.88005	A-3666/S-2465	-3.569511e-05
-4.88005	A-3667	-2.710816e-05
-4.88005	A-3668/S-2467	-3.569511e-05
-4.88005	A-3676	-2.710816e-05
-4.88005	A-3687	-3.855738e-05
-4.88005	A-3688	-2.710816e-05
-4.88005	A-3689	-2.710816e-05
-4.88005	A-3690/S-2430	-3.855738e-05
-4.703959	A.	-7.711467e-05
-4.88005	A1.	0.02236274
-4.57902	AA	-0.0001128095
-4.88005	AA,	0.00280149
-4.88005	AA.	0.02236274
-4.88005	AARP	0.006958502
-4.88005	ABC	-2.997049e-05
-4.88005	ABC.Net.au	0.0001933481
-4.88005	ABOUT	-3.855738e-05
-4.88005	ABSOLUTELY!	0.02236274
-4.703959	ACA.	0.0223406
-4.88005	ACCIDENTAL	-3.855738e-05
-4.88005	ACT	0.001771298
-4.88005	ACT!)	0.02236274
-4.703959	ACT,	0.0005387171
-4.88005	ACTUALLY	0.0001904843
-4.88005	ADHD	0.006958502
-4.88005	ADRIAN	-3.855738e-05
-4.88005	AF	0.00295133
-4.88005	AFACIT,	2.441705e-05
-4.88005	AFFIRNATION	-2.138343e-05
-4.88005	AFTER	0.0008381801
-4.88005	AGAINST	0.0005371395
-4.88005	AID.	0.02236274
-4.703959	AIDS	0.0009229799
-4.88005	AIDS.	0.02236274
-4.88005	AJR-89	-3.569511e-05
-4.88005	AK	-3.855738e-05
-4.88005	AK,	0.00280149
-4.88005	AK-47	0.00479108
-4.88005	AK47	0.006958502
-4.88005	AKA	-2.138343e-05
-4.88005	AKHIL	-3.855738e-05
-4.402929	ALL	0.0007126808
-4.88005	ALSO	-2.997049e-05
-4.88005	ALWAYS	0.0004053206
-4.88005	AMAR,	1.296648e-05
-4.88005	AMERICAN	-3.855738e-05
-4.18108	AND	0.005749913
-4.88005	AND,	0.001774172
-4.88005	AND------------it	0.001627611
-4.88005	ANTI	-3.283281e-05
-4.57902	ANY	-9.752351e-06
-4.88005	ANYONE	-2.997049e-05
-4.703959	ANYTHING	0.00288111
-4.703959	AP	0.0008914232
-4.88005	APPLY	0.01066549
-3.925807	AR	0.01680525
-4.703959	AR's	0.007406078
-4.88005	AR,	0.0004683595
-4.88005	AR-1,	-3.855738e-05
-4.88005	AR-10	-2.997049e-05
-4.88005	AR-10,	-3.855738e-05
-4.88005	AR-10;	-3.855738e-05
-4.88005	AR-133	-3.855738e-05
-3.97696	AR-15	0.01568508
-4.88005	AR-15'S	0.0004225122
-4.48211	AR-15's	0.01028335
-4.88005	AR-15's,	-2.997049e-05
-4.703959	AR-15,	0.0009774925
-4.703959	AR-15.	0.0223406
-4.88005	AR-15?	0.02236274
-4.88005	AR-15?"	0.02236274
-4.703959	AR-15s	0.002961811
-4.88005	AR-15s.	0.02236274
-4.88005	AR-16	0.006958502
-4.88005	AR-17.	0.02236274
-4.88005	AR-5,	-3.855738e-05
-4.88005	AR-7,	-3.855738e-05
-4.57902	AR.	0.02231846
-4.88005	AR12	0.01066549
-4.004989	AR15	0.02906005
-4.703959	AR15,	0.002549822
-4.57902	AR15.	0.02231846
-4.88005	AR15...	0.0001332126
-4.88005	AR15?	0.02236274
-4.88005	AR15s	0.002974387
-4.703959	ARE	-5.551171e-06
-4.88005	AREN'T	0.008786132
-4.88005	ARMED	-3.855738e-05
-4.88005	ARMY	-3.283281e-05
-4.48211	ARTICLE	-0.0001485043
-4.88005	ASCII	-3.569511e-05
-4.48211	ATF	0.01198585
-4.88005	ATF.	0.02236274
-4.57902	ATF4473	0.001878225
-4.88005	ATF4473,	-9.933764e-06
-4.88005	ATF4473.	0.02236274
-4.88005	ATV's.	0.02236274
-4.88005	AUTO	-3.855738e-05
-4.88005	AWAY.	0.02236274
-4.88005	AZ	-3.569511e-05
-4.88005	Aaaaaand....	7.241301e-06
-4.88005	Abbott	-3.283281e-05
-4.88005	Abiding	-3.855738e-05
-4.88005	Abortion	0.0009270991
-4.88005	Abortion,	0.0004683595
-4.88005	Abortion.	0.02236274
-4.88005	Abortion:627698	-3.855738e-05
-4.57902	About	0.01574147
-4.88005	Above!	0.02236274
-4.48211	Absolutely	0.0001263747
-4.703959	Absolutely!	0.0223406
-4.88005	Absolutely.	0.02236274
-4.88005	Abundance	0.00764551
-4.88005	Abuse:14373	-3.855738e-05
-4.88005	Academics	2.441705e-05
-4.88005	Academies	-1.279623e-05
-4.88005	Access	-3.569511e-05
-4.88005	Accident	-3.855738e-05
-4.88005	Accidental/unintendeddeaths,	0.0001274858
-4.88005	Accidents	0.00479108
-4.226838	According	0.01051053
-4.88005	Accursed,	-3.855738e-05
-4.335982	Act	0.01629464
-4.88005	Act".	0.02236274
-4.703959	Act,	0.01583919
-4.88005	Acting?	0.02236274
-4.48211	Action	0.00508287
-4.88005	Active	4.73191e-05
-4.88005	Acts	4.159347e-05
-4.101899	Actually	0.03043605
-4.226838	Actually,	0.02860715
-4.88005	Actually...criminals	1.582908e-05
-4.703959	Adam	-7.139004e-05
-4.703959	Adams	-7.139003e-05
-4.88005	Adams,	0.0001074427
-4.57902	Add	0.01062121
-4.703959	Additionally,	0.01579762
-4.88005	Administration	0.00159026
-4.88005	Administration.	0.02236274
-4.88005	Admittedly	0.004235734
-4.88005	Adoption	0.00764551
-4.88005	Ads	-3.283281e-05
-4.88005	Adults	0.00295133
-4.88005	Advantages	-2.997049e-05
-4.88005	Advertising	-3.855738e-05
-4.88005	AfaIk,	0.001774172
-4.703959	Affirmative	-5.210976e-05
-4.402929	Africa	0.01021561
-4.88005	Africa's	-9.933764e-06
-4.88005	Africa,	0.001774172
-4.57902	African	-7.06288e-05
-4.88005	Africans	0.0007206062
-4.88005	AfroAmericanist	-3.855738e-05
-4.101899	After	0.02634416
-4.335982	Again	0.02079025
-4.48211	Again,	0.01974163
-4.88005	Again.	0.02236274
-4.703959	Again...	0.0006275836
-4.88005	Again.....	-3.283281e-05
-4.703959	Age	0.007624536
-4.88005	Agencies	2.155438e-05
-4.88005	Agent	-2.138343e-05
-4.88005	Ages	0.001771298
-4.48211	Agreed,	0.008784751
-4.88005	Agreed.	0.02236274
-4.88005	Ah	0.0001274858
-4.88005	Ah,	0.01581519
-4.335982	Air	-0.000197746
-4.703959	Aircraft	-5.783437e-05
-4.88005	Airmen	-9.933764e-06
-4.703959	Akhil	-7.425236e-05
-4.88005	Al	-3.569511e-05
-4.88005	Al-Madinah,	-3.569511e-05
-4.703959	Alabama	0.006920038
-4.88005	Alabama,	0.00479108
-4.88005	Alarm	1.516208e-06
-4.88005	Alas;	0.004120126
-4.88005	Alaska	0.0008525209
-4.703959	Albania	-6.566531e-05
-4.88005	Alcohol,	-3.855738e-05
-4.88005	Alcohol:57481	-3.855738e-05
-4.88005	Alex	-9.933764e-06
-4.88005	Algonquin	-3.855738e-05
-4.88005	Aliens	0.001027513
-4.88005	Alinksy	-3.855738e-05
-4.88005	Alinsky	-3.855738e-05
-4.88005	Alinsky.	0.02236274
-4.88005	Alioto--and	-7.071316e-06
-4.88005	Alito).	0.02236274
-3.612878	All	0.04478141
-4.335982	Allah	0.01311462
-4.88005	Allen	-3.855738e-05
-4.88005	Allow	-2.42458e-05
-4.703959	Allowed"	-2.845277e-05
-4.88005	Allowed",	0.001771298
-4.88005	Allowing	-1.279623e-05
-4.703959	Already	4.598182e-05
-4.88005	Alright.	0.02236274
-4.101899	Also	0.02180949
-4.18108	Also,	0.0122518
-4.88005	Also,there	0.0006259966
-4.88005	Alstyne,	0.001561531
-4.88005	Alstyne,250	-3.569511e-05
-4.48211	Although	0.02106924
-4.703959	Always	0.006920038
-4.88005	Alzheimer's	-3.855738e-05
-4.703959	Am	0.004213594
-4.703959	Am.	0.0223406
-4.88005	Amadou	-3.855738e-05
-4.703959	Amar	0.01473014
-4.88005	Amar,251	-3.855738e-05
-4.88005	Amazing	-3.855738e-05
-4.88005	Ambiguous	0.00104186
-4.88005	Ameen	-2.997049e-05
-4.88005	Amendmenet	0.005381913
-3.135757	Amendment	0.06316522
-4.88005	Amendment's	-3.855738e-05
-4.88005	Amendment),	0.006958502
-4.88005	Amendment).	0.02236274
-4.101899	Amendment,	0.0166253
-4.88005	Amendment,	8.45375e-05
-4.88005	Amendment--which	0.005181983
-3.925807	Amendment.	0.02200865
-4.88005	Amendment....just	-3.855738e-05
-4.88005	Amendment.259	-3.855738e-05
-4.703959	Amendment:	0.001522995
-4.402929	Amendment?	0.02227419
-4.703959	Amendments	0.01371551
-4.88005	Amendments,	-1.565863e-05
-3.902326	America	0.0355041
-4.88005	America!	0.02236274
-4.703959	America's	-1.413942e-05
-4.88005	America)	0.0008123688
-4.335982	America,	0.006990226
-4.88005	America,	0.0005543362
-4.88005	America-	1.516208e-06
-4.18108	America.	0.02218566
-3.456804	American	0.01798968
-4.88005	American"	-3.569511e-05
-4.57902	American,	0.004883873
-4.57902	American.	0.02231846
-3.689718	Americans	0.04861189
-4.703959	Americans"	0.0006017818
-4.88005	Americans".	0.02236274
-4.335982	Americans,	0.006725457
-4.335982	Americans.	0.02225206
-4.88005	Americans..	0.000700536
-4.88005	Americans?.	0.02236274
-4.88005	Amin.	0.02236274
-4.88005	Ammendment.	0.02236274
-4.703959	Ammo	0.001784505
-4.88005	Ammunition	0.005181983
-4.88005	Amnesty	0.002974387
-4.88005	Amy	-3.855738e-05
-3.950631	An	-0.0001184906
-4.88005	Ancient	-3.855738e-05
-2.863017	And	0.1117091
-4.101899	And,	0.03596068
-4.703959	Andrew	-7.139004e-05
-4.48211	Angeles	0.006868163
-4.88005	Anger	-9.933764e-06
-4.88005	Anglo:	-3.569511e-05
-4.703959	Annual	2.307751e-05
-4.402929	Another	0.0003370841
-4.703959	Anti	8.32039e-05
-4.88005	Anti-2nd	0.0002735418
-4.57902	Anti-Federalists	0.001521808
-4.88005	Anti-Federalists,	0.001774172
-4.88005	Anti-Personnel	-3.855738e-05
-4.88005	Antifa	0.006958502
-4.703959	Antonin	-5.994051e-05
-4.067137	Any	0.003061221
-4.88005	Anymore	0.0006948014
-4.226838	Anyone	0.003899717
-4.402929	Anything	0.0009364731
-4.88005	Anyway	0.01581519
-4.57902	Anyway,	0.005284654
-4.88005	Anyway,,	0.01581519
-4.88005	Anyways	0.0008123688
-4.88005	Ao	0.01066549
-4.88005	Apache?	0.02236274
-4.88005	Apoplectic	-3.855738e-05
-4.88005	Apostle.	0.02236274
-4.88005	Apparently	0.002671862
-4.88005	Apparently,	0.004120126
-4.88005	Appeal	0.01066549
-4.703959	Apple	0.006960763
-4.88005	Applies	2.155438e-05
-4.88005	Apply	0.001216928
-4.88005	Applying	0.01581519
-4.88005	Appropriate	-2.42458e-05
-4.88005	Apr	-3.283281e-05
-4.57902	April	0.008715095
-4.88005	Archie	-3.855738e-05
-4.88005	Archive[GVA]),	0.006958502
-4.88005	Ardern.	0.02236274
-3.703959	Are	0.02408619
-4.88005	Area	4.159347e-05
-4.88005	Argue	0.005381913
-4.88005	Argument	0.001027513
-4.88005	Argumentum	-9.933764e-06
-4.88005	Arizona	0.004235734
-4.48211	Arkansas	0.009925792
-4.88005	Arkansas,	0.000743545
-4.88005	Arkansas.	0.02236274
-4.88005	Arm	0.0005543362
-4.48211	ArmaLite	0.00252948
-4.703959	ArmaLite.	0.0223406
-4.88005	Armalite	-1.852106e-05
-4.88005	Armalite.	0.02236274
-4.335982	Armed	-0.0001862958
-4.88005	Armenians	-1.565863e-05
-4.88005	Armenians.	0.02236274
-4.57902	Arming	6.679253e-05
-4.703959	Armory	-7.425236e-05
-4.101899	Arms	0.01220601
-4.101899	Arms,	0.001636742
-4.57902	Arms.	0.02231846
-4.57902	Arms:	0.001569811
-4.88005	Arms?	0.02236274
-4.88005	Army	-3.855738e-05
-4.88005	Army"	0.00159026
-4.88005	Art	-2.710816e-05
-4.57902	Arthur	-9.63905e-05
-4.335982	Article	0.0156899
-4.88005	Articles:	1.516208e-06
-3.251661	As	0.06812068
-4.88005	As,	0.0001675746
-4.88005	Asbergers	-3.855738e-05
-4.88005	Asians	0.006958502
-4.57902	Aside	0.0009832357
-4.88005	Ask	1.516208e-06
-4.88005	Aspergers	0.006958502
-4.402929	Assault	0.002215446
-4.88005	Assembly	-2.710816e-05
-4.48211	Associated	-9.562832e-05
-4.48211	Association	0.01452313
-4.703959	Association,	0.004200124
-4.88005	Association.	0.02236274
-4.88005	Assuming	0.002585465
-3.766107	At	0.02586282
-4.88005	Atchison	1.582908e-05
-4.88005	Atheist	0.000961524
-4.88005	Attacking	0.001188224
-4.88005	Attacks	0.001481099
-4.88005	Attend	-2.997049e-05
-4.88005	Attorney	-3.569511e-05
-4.88005	August	-3.569511e-05
-4.88005	Aulinskites	0.000743545
-4.88005	Aulinsky	6.163349e-05
-4.88005	Aulinsky/Lennon	0.006958502
-4.88005	Aurora	4.73191e-05
-4.88005	Aurora,	-2.710816e-05
-4.703959	Aussies	0.00141384
-4.88005	Austin	2.155438e-05
-4.18108	Australia	0.01247294
-4.88005	Australia's	-1.279623e-05
-4.88005	Australia).	0.02236274
-4.703959	Australia,	-5.707808e-05
-4.703959	Australia.	0.0223406
-4.88005	Australia....	-1.565863e-05
-4.88005	Australian	0.0004683595
-4.703959	Australians	0.003328029
-4.88005	Austria	-3.569511e-05
-4.88005	Authority	0.01066549
-4.703959	Auto	-7.139003e-05
-4.88005	Auto,	0.006958502
-4.703959	Auto:	-7.425236e-05
-4.57902	Automatic	0.0001506074
-4.88005	Avoid	0.0008783349
-4.88005	Ayers	0.005181983
-4.88005	Ayers'	-3.283281e-05
-4.703959	Ayers,	0.01580356
-4.88005	Aztec's	0.001627611
-4.88005	B	0.005181983
-4.703959	B.	-5.783437e-05
-4.88005	B.S.	0.02236274
-4.88005	B2's	0.0005170775
-4.88005	BA	0.001027513
-4.88005	BACKGROUND	-3.855738e-05
-4.48211	BACS	0.007579096
-4.703959	BAD	6.888732e-05
-4.88005	BATF	0.006958502
-4.88005	BATHTUB	-3.855738e-05
-4.88005	BBC	0.005381913
-4.57902	BE	-0.0001156719
-4.703959	BECAUSE	-5.421565e-05
-4.88005	BEING	-3.855738e-05
-4.88005	BELIEVE	-1.565863e-05
-4.88005	BETTER	-3.855738e-05
-4.88005	BG	6.163349e-05
-4.88005	BG,	0.004120126
-4.703959	BILL	-4.352269e-05
-4.88005	BLAME	1.296648e-05
-4.57902	BLM	0.001745972
-4.703959	BLM.	0.0223406
-4.88005	BLOOD	-3.855738e-05
-4.88005	BOR	-3.855738e-05
-4.88005	BREAKING	1.296648e-05
-4.88005	BREATH!.	0.02236274
-4.57902	BS	0.005186129
-4.57902	BS.	0.02231846
-4.88005	BS...	0.02236274
-4.48211	BTW	0.001195224
-4.57902	BTW,	0.01378647
-4.703959	BTW.	0.0223406
-4.88005	BUT,	0.01581519
-4.88005	BUt	0.01581519
-4.48211	BY	-0.0001485043
-4.88005	Baby	-2.138343e-05
-4.57902	Back	0.007338501
-4.88005	Backed	-1.279623e-05
-4.57902	Background	-1.337519e-05
-4.48211	Bad	-0.0001005969
-4.88005	BahamaBob	0.0003508854
-4.88005	Bail	-3.855738e-05
-4.88005	Bakers	0.00295133
-4.88005	Bakers",	0.006958502
-4.88005	Balance:	0.001561531
-4.88005	Balcombe	-3.283281e-05
-4.88005	Ball	-3.855738e-05
-4.402929	Baltimore	0.007086901
-4.88005	Baltimore".	0.02236274
-4.88005	Baltimore's	-1.852106e-05
-4.88005	Baltimore,	0.0003279672
-4.703959	Baltimore?	0.0223406
-4.57902	Ban	0.0004715048
-4.88005	Bank	0.001917908
-4.88005	Banks,	-3.855738e-05
-4.88005	Banning	0.0007808232
-4.88005	Bans	-3.855738e-05
-4.88005	Bans"	0.0001790293
-4.402929	Barack	-3.532473e-05
-4.88005	Barking	-3.855738e-05
-4.88005	Barnett	1.582908e-05
-4.88005	Barnett,254	-3.569511e-05
-4.703959	Based	0.001895769
-4.88005	Basic	0.0003652098
-4.48211	Basically,	0.007116628
-4.88005	Baton	-3.569511e-05
-4.88005	Battle	0.0003193734
-4.88005	Baty,	-2.42458e-05
-4.88005	Bayer	0.0002391712
-4.88005	Bayer:	-3.855738e-05
-4.57902	Be	-0.0001013599
-4.57902	Bear	-4.410743e-05
-4.88005	Bearing	0.0001962119
-4.88005	Beat	0.01581519
-3.624778	Because	0.0491827
-4.88005	Bed:344	-3.283281e-05
-4.88005	Bed:448	-3.283281e-05
-4.88005	Bee	0.0001246224
-4.402929	Before	0.01662147
-4.703959	Begins	0.004752587
-4.139688	Being	0.01248029
-4.703959	Belgium	-7.139004e-05
-4.88005	Belief	0.0001418028
-4.88005	Believe	-3.855738e-05
-4.88005	Belize	-3.855738e-05
-4.88005	Bell	0.005181983
-4.88005	Belt	-3.569511e-05
-4.703959	Ben	-7.711467e-05
-4.88005	Berdoo	0.006958502
-4.703959	Beretta	0.001752885
-4.703959	Berger	2.021455e-05
-4.88005	Bernadino	0.001771298
-4.88005	Bernardino,	0.0002105312
-4.703959	Bernie	-6.566531e-05
-4.703959	Besides	1.162579e-05
-4.88005	Besides,	0.0004397042
-4.88005	Best	0.00764551
-4.226838	Beto	0.006987848
-4.88005	Beto's	4.73191e-05
-4.88005	Beto.	0.02236274
-4.88005	Beto...got	0.0003165088
-4.48211	Better	0.0002438239
-4.88005	Between	-3.569511e-05
-4.703959	Beyond	2.804265e-05
-4.88005	Bible	-3.855738e-05
-4.88005	Bible,	0.000961524
-4.88005	Bible.	0.02236274
-4.703959	Biden	0.006792069
-4.88005	Biden.	0.02236274
-4.226838	Big	-0.0002805824
-4.88005	Bigotry.	0.02236274
-3.902326	Bill	0.007947094
-4.88005	Bill),	0.001202575
-4.88005	Billionaire,	0.002090454
-4.703959	Billy	-7.711467e-05
-4.88005	Bingo.	0.02236274
-4.88005	Biology	-3.569511e-05
-4.88005	Birmingham	-2.138343e-05
-4.88005	Birmingham,	-3.855738e-05
-4.88005	Bishop,	-3.855738e-05
-4.18108	Black	0.0009717681
-4.88005	Black__4%	0.001823037
-4.48211	Blacks	0.004913006
-4.703959	Bless	-6.280292e-05
-4.88005	Blessings	0.00764551
-4.88005	Blind	-3.855738e-05
-4.88005	Bliss	-2.710816e-05
-4.88005	Blood	-3.855738e-05
-4.88005	Bloomberg's	-3.855738e-05
-4.703959	Blow	0.0003868263
-4.48211	Blue	-0.000123497
-4.88005	Blue.	0.02236274
-4.88005	Blunt	-3.855738e-05
-4.703959	BoR	0.0009746234
-4.88005	Board	0.00764551
-4.88005	Boarding	0.001216928
-4.88005	Bob	3.014246e-05
-4.88005	Bob".	0.02236274
-4.88005	Bob's	-3.283281e-05
-4.88005	Bodies	0.0009328363
-4.88005	Bombs	-3.855738e-05
-4.88005	Bondsmen.	0.02236274
-4.88005	Booker,	-3.283281e-05
-4.88005	Boowhoo.	0.02236274
-4.703959	Border	-5.783437e-05
-4.88005	Boring,	-3.855738e-05
-4.88005	Boston	-3.569511e-05
-4.402929	Both	0.003740761
-4.48211	Bottom	-7.76956e-05
-4.88005	Bottom.	0.02236274
-4.88005	Boxer	3.586792e-05
-4.48211	Boy	0.0008364792
-4.88005	Boy,	0.00113082
-4.88005	Brady	1.010388e-05
-4.88005	Brain	-3.855738e-05
-4.88005	Brazil	0.0004597627
-4.88005	Brazil,	0.00280149
-4.88005	Brazil.	0.02236274
-4.88005	Brazilian	0.0004683595
-4.88005	Break.	0.02236274
-4.88005	Breaking	-3.855738e-05
-4.88005	BrewerBob	-2.710816e-05
-4.88005	Breyer)	0.0007206062
-4.88005	Bridgeport	-3.855738e-05
-4.88005	Brit.	0.02236274
-4.402929	Britain	0.02108207
-4.067137	British	0.001416432
-4.88005	British,	4.445629e-05
-4.703959	Brother	0.005149289
-4.27799	Broward	0.005298608
-4.88005	Brownsville,	4.378733e-06
-4.88005	Bryan!!"	0.02236274
-4.88005	Bryan,	-2.710816e-05
-4.88005	Bubba_	0.001561531
-4.703959	Bull	-5.783437e-05
-4.88005	Bullet	0.000213395
-4.88005	Bullets	0.002974387
-4.703959	Bump	-4.066032e-05
-4.88005	Bundy	-2.42458e-05
-4.88005	Bunker	0.0002849991
-4.88005	Burch,	0.008786132
-4.703959	Bureau	0.007623371
-4.88005	Burger	-3.855738e-05
-4.88005	Burglaries	-3.855738e-05
-4.57902	Bush	0.007868789
-4.88005	Business	0.000158984
-3.057228	But	0.08431621
-4.18108	But,	0.02488197
-4.88005	Butchering	0.001242764
-3.925807	By	0.02485516
-4.703959	Byrd	0.007423551
-4.88005	C-4	0.005181983
-4.88005	C.	-3.855738e-05
-4.88005	C.F.R.	0.02236274
-4.88005	CA	0.0003995902
-4.88005	CA.	0.02236274
-4.88005	CAN	0.00113082
-4.88005	CARE	0.001073424
-4.88005	CAUSATIVE)	7.308534e-05
-4.88005	CBC	-2.710816e-05
-4.88005	CC,	0.002671862
-4.88005	CCTV	-3.855738e-05
-4.101899	CCW	0.01881002
-4.703959	CCW.	0.0223406
-4.703959	CCWs	0.008254312
-3.97696	CDC	0.01622595
-4.703959	CDC.	0.0223406
-4.88005	CDC?	0.02236274
-4.88005	CEO	0.001627611
-4.88005	CEOs	0.00295133
-4.88005	CHANGE).	0.02236274
-4.88005	CHECKS"	0.006958502
-4.88005	CHI.-KENT	-2.138343e-05
-4.88005	CHILDREN	-3.855738e-05
-4.88005	CI	-3.855738e-05
-4.88005	CIA,	2.727975e-05
-4.88005	CIC.	0.02236274
-4.88005	CITY	-3.569511e-05
-4.88005	CIVIL	-3.855738e-05
-4.88005	CLAUSE's	1.869171e-05
-4.88005	CMP	-3.855738e-05
-4.335982	CNN	-0.0002055803
-4.88005	CNN's	0.0001188958
-4.88005	CNNPolitics	0.0002993213
-4.88005	CO2	-3.283281e-05
-4.88005	CODE:	-3.855738e-05
-4.88005	COMMERCE	-3.855738e-05
-4.88005	COMMIT	1.296648e-05
-4.88005	CONST.	0.02236274
-4.88005	CONSTITUION,	-3.283281e-05
-4.88005	CONSTITUTION	-2.138343e-05
-4.88005	CONSTITUTIONAL	-3.283281e-05
-4.703959	CONTROL	0.007615795
-4.88005	CONTROL.	0.02236274
-4.88005	COPS....	0.0006948014
-4.88005	COULD	-1.346314e-06
-4.88005	COURT	-3.569511e-05
-4.703959	CPR	0.007004401
-4.88005	CPR.	0.02236274
-4.88005	CPRC:	-3.569511e-05
-4.88005	CRA	0.00764551
-4.88005	CRACK	0.01066549
-4.88005	CREATION	-1.565863e-05
-4.88005	CRIME.	0.02236274
-4.703959	CRIMINAL	0.007936395
-4.88005	CRPA	-3.855738e-05
-4.88005	CRW's	0.0001733019
-4.88005	CS,	0.0008381801
-4.88005	CSA	0.001627611
-4.703959	CSSO	0.001014795
-4.88005	CSSO's	0.00479108
-4.88005	CURRENTLY	0.0009270991
-4.88005	CUTS	-3.855738e-05
-4.88005	Cal	-3.855738e-05
-4.88005	Cal.	0.02236274
-4.88005	Calamity	0.0001475298
-4.88005	Calhoun's	-3.855738e-05
-4.88005	Caliber	1.869171e-05
-4.034952	California	0.02357077
-4.88005	California's	-9.933764e-06
-4.88005	California,	0.006958502
-4.703959	California.	0.0223406
-4.88005	Californicate	-3.855738e-05
-4.48211	Call	0.01924748
-4.703959	Calling	0.001465542
-4.57902	Cambodia	-4.697027e-05
-4.88005	Camera	-3.855738e-05
-4.88005	Camera"	-2.710816e-05
-4.88005	Campuses	-9.933764e-06
-4.18108	Can	0.01369951
-4.226838	Can't	-0.0002091712
-4.18108	Canada	0.03313812
-4.57902	Canada,	-4.697025e-05
-4.48211	Canada.	0.02229633
-4.703959	Canadians	0.003062707
-4.88005	Cancer:340114	-3.855738e-05
-4.88005	Candidates	7.308534e-05
-4.88005	Candle	-3.283281e-05
-4.88005	Candy	-3.569511e-05
-4.88005	Capitalism	-3.569511e-05
-4.88005	Capitalists	0.00295133
-4.88005	Caplan,	-3.855738e-05
-4.88005	Capster78	0.0003136441
-4.703959	Car	-6.852768e-05
-4.88005	Carbine,	0.0001103059
-4.88005	Carcano,	-3.569511e-05
-4.88005	Card	0.0006689985
-4.88005	Card!	0.02236274
-4.88005	Card.	0.02236274
-4.88005	Carelessly	-1.852106e-05
-4.57902	Carolina	-0.0001099472
-4.57902	Carry	0.0006607163
-4.88005	Carry.	-3.855738e-05
-4.57902	Carry:	-0.0001128095
-4.88005	Carrying	0.008786132
-4.57902	Cars	0.00293011
-4.88005	Cars/Trucks	-3.855738e-05
-4.88005	Carson	-3.855738e-05
-4.88005	Carta,	0.00764551
-4.88005	Carta.	0.02236274
-4.88005	Cartagena,	-3.855738e-05
-4.88005	Cartel.	0.02236274
-4.88005	Carter.	0.02236274
-4.88005	Case	-3.855738e-05
-4.88005	Cases	0.00764551
-4.88005	Casper	0.004120126
-4.88005	Castille	0.0001503933
-4.88005	Castro,	0.006958502
-4.88005	Casual	5.877057e-05
-4.88005	Catholic	-3.855738e-05
-4.88005	Catholics	0.0004597627
-4.703959	Cause	0.01765714
-4.88005	Celebrity.	0.02236274
-4.402929	Center	0.01332273
-4.88005	Center,	0.006958502
-4.88005	Central	-3.855738e-05
-4.88005	Centrally	-3.283281e-05
-4.88005	Century	0.0008123688
-4.88005	Century;	1.010388e-05
-4.57902	Certainly	0.0101664
-4.88005	Certainly,	0.001216928
-4.88005	Certified	-3.569511e-05
-4.703959	Chad	0.003224188
-4.88005	Chain	-3.855738e-05
-4.88005	Chamber	0.00764551
-4.88005	Channel	7.241301e-06
-4.88005	Chapter	3.014246e-05
-4.88005	Charge	0.008786132
-4.88005	Charles	-3.569511e-05
-4.88005	Charta!	0.02236274
-4.88005	Charts	0.006958502
-4.88005	Chavez	-2.997049e-05
-4.88005	Chavez.	0.02236274
-4.88005	Cheap	-3.855738e-05
-4.57902	Check	0.0008414041
-4.88005	Cheetos	3.873068e-05
-4.88005	Cherokee?	0.02236274
-4.88005	Chevy	0.006958502
-4.402929	Chicago	0.01110487
-4.57902	Chicago,	0.002433555
-4.703959	Chicago.	0.0223406
-4.88005	Chicago...	-2.710816e-05
-4.88005	Chicago...where	0.001774172
-4.88005	Chicago?	0.02236274
-4.88005	Chicago?.	0.02236274
-4.88005	Chicken	-3.855738e-05
-4.402929	Chief	0.007497517
-4.88005	Child	-3.855738e-05
-4.703959	Children	1.659142e-05
-4.88005	Children,	0.001823037
-4.88005	Chill...........the	-3.569511e-05
-4.48211	China	-7.121219e-05
-4.88005	China,	-2.42458e-05
-4.88005	Chinese	0.001823037
-4.88005	Chinese.	0.02236274
-4.703959	Choice	-6.566531e-05
-4.88005	Chris	-3.569511e-05
-4.88005	Christ	-1.279623e-05
-4.139688	Christian	0.01090696
-4.703959	Christian,	0.001100888
-4.88005	Christian.	0.02236274
-4.57902	Christianity	0.0008721538
-4.57902	Christianity.	0.02231846
-4.703959	Christians	0.0006103822
-4.57902	Christians.	0.02231846
-4.88005	Chrome	-3.855738e-05
-4.88005	Chronicles	-3.855738e-05
-4.703959	Chuck	-7.711467e-05
-4.57902	Church	0.002024901
-4.88005	Church.	0.02236274
-4.88005	Churchgoers	-3.855738e-05
-4.88005	Churchill.	0.02236274
-4.703959	Cincinnati	0.0002349886
-4.703959	Circuit	-5.99405e-05
-4.88005	Circuit,	0.01581519
-4.88005	Citations	0.00764551
-4.88005	Cities,	0.006958502
-4.57902	Citizens	0.003572327
-4.88005	Citizens"	0.01066549
-4.88005	Citizens--meaning	0.008786132
-4.48211	City	0.01501193
-4.88005	Civics	-7.071316e-06
-4.335982	Civil	-3.24499e-05
-4.88005	Clampett	2.441705e-05
-4.703959	Class	0.0004949382
-4.88005	Claus	7.241301e-06
-4.703959	Clause	0.00828349
-4.88005	Clause.	0.02236274
-4.703959	Clearly	0.0185884
-4.703959	Cleveland	0.0002034817
-4.88005	Cleveland’s	-3.855738e-05
-4.88005	Clever	-3.283281e-05
-4.27799	Clinton	0.007063009
-4.88005	Clinton,	-3.855738e-05
-4.88005	Clipdraw	0.0009270991
-4.88005	Cliven	-3.855738e-05
-4.88005	Close	0.01581519
-4.88005	Clown	-3.855738e-05
-4.88005	Club"	0.004235734
-4.88005	Club".	0.02236274
-4.88005	Clubs/Hammers:	-3.855738e-05
-4.88005	Co-Op	0.001771298
-4.88005	Co.	7.241301e-06
-4.88005	Coach	-3.569511e-05
-4.88005	Coal	-3.283281e-05
-4.88005	Coalition	0.01066549
-4.88005	Coast	-3.855738e-05
-4.88005	Cobra	0.005181983
-4.88005	Cocked	1.582908e-05
-4.703959	Cockrum	2.88035e-05
-4.27799	Code	0.008513378
-4.88005	Code.-The	8.167441e-05
-4.88005	Code;	0.01581519
-4.88005	Code[W:118])	5.018192e-05
-4.703959	Codes	0.006936363
-4.703959	Codes,	-5.421563e-05
-4.88005	Codes,”	2.155438e-05
-4.88005	Cody	-3.569511e-05
-4.703959	Cold	5.900069e-06
-4.88005	Cole	-3.855738e-05
-4.88005	Collateral	-3.855738e-05
-4.88005	Collection	0.00764551
-4.703959	College	-5.421563e-05
-4.88005	Collins	-3.855738e-05
-4.88005	Colombia	-3.855738e-05
-4.88005	Colombia.	0.02236274
-4.88005	Colorado	-3.283281e-05
-4.88005	Colorado.	0.02236274
-4.27799	Colt	0.004867048
-4.88005	Colt,	0.006958502
-4.88005	Colt.	0.02236274
-4.88005	Colt?.	0.02236274
-4.48211	Columbia	0.001769831
-4.88005	Columbia;	-3.569511e-05
-4.88005	Columbine	-1.852106e-05
-4.88005	Columbine.	0.02236274
-4.88005	Columbine...people	0.002974387
-4.88005	Columbus	-3.855738e-05
-4.88005	Combat	0.005181983
-4.88005	Come	0.0003336967
-4.703959	Comey	-5.707808e-05
-4.703959	Comitatus	-4.638507e-05
-4.88005	Commander	-2.997049e-05
-4.703959	Commandments	0.009463942
-4.88005	Commerce	-2.42458e-05
-4.88005	Commission	0.001917908
-4.88005	Commission​	-3.855738e-05
-4.88005	Committing	0.008786132
-4.335982	Common	-7.177646e-05
-4.88005	Commonplace	0.0001847567
-4.88005	Commonwealth,	-2.138343e-05
-4.703959	Communist	-5.135317e-05
-4.88005	Communists)	-2.710816e-05
-4.57902	Commutations	0.006903717
-4.88005	Compact	-2.138343e-05
-4.703959	Compare	0.005355021
-4.703959	Compared	0.003579082
-4.88005	Comparing	-3.569511e-05
-4.88005	Comparisons	0.005381913
-4.703959	Compromise	0.002057677
-4.88005	Compton,	-3.569511e-05
-4.48211	Concealed	6.260124e-05
-4.88005	Concord.	0.02236274
-4.703959	Conference	0.01252346
-4.88005	Confiscating	-3.855738e-05
-4.57902	Confiscation	0.004716988
-4.88005	Confucius	0.001627611
-4.703959	Congrefs	-5.994051e-05
-3.800869	Congress	0.03322811
-4.88005	Congress"	0.006958502
-4.48211	Congress,	0.008629918
-4.88005	Congress.	0.02236274
-4.57902	Connecticut	-9.066581e-05
-4.703959	Connor	0.007426463
-4.88005	Consensus	0.001917908
-4.57902	Consider	0.0169081
-3.355005	Constitution	0.06341822
-4.88005	Constitution"	3.873068e-05
-4.703959	Constitution).	0.0223406
-3.925807	Constitution,	0.04022249
-3.624778	Constitution.	0.02161064
-4.88005	Constitution;	-2.138343e-05
-4.703959	Constitution?	0.0223406
-3.902326	Constitutional	0.00122619
-4.57902	Constitutional,	0.001808362
-4.88005	Constitutionally-protected	5.018192e-05
-4.88005	Constitutions	0.006958502
-4.703959	Consumer	-5.783437e-05
-4.88005	Continental	-3.855738e-05
-4.88005	Contract	0.002090454
-4.88005	Contrary	0.01066549
-4.226838	Control	0.01228134
-4.88005	Control"	0.000216259
-4.88005	Control.	0.02236274
-4.88005	Control...	-9.933764e-06
-4.703959	Convention,	0.009586846
-4.88005	Conversely,	-3.569511e-05
-4.88005	Convicted	-2.710816e-05
-4.48211	Cops	0.0002696098
-4.88005	Cordelier	0.004235734
-4.57902	Cornell	0.005290451
-4.703959	Cornell's	0.0003495781
-4.703959	Corporation.	0.0223406
-4.703959	Corps	0.005845116
-4.88005	Corpus	5.590767e-05
-4.88005	Correct,	0.00280149
-4.88005	Correct.	0.02236274
-4.88005	Correction,	0.0003222379
-4.88005	Correction:	1.010388e-05
-4.88005	Correctness	0.001823037
-4.703959	Correlation	0.007330372
-4.88005	Corruption	-2.138343e-05
-4.88005	Cortez	0.006958502
-4.88005	Cosby's	-2.42458e-05
-4.88005	Cottrol	1.582908e-05
-4.88005	Cottrol,256	0.006958502
-4.48211	Cougarbear:	0.005837803
-4.57902	Could	0.00526147
-4.88005	Couldn't	0.008786132
-4.88005	Counsel	0.002585465
-4.88005	Count,	-2.42458e-05
-4.88005	Counter	-3.283281e-05
-4.703959	Countries	0.006922947
-4.703959	Country	0.0004899916
-4.88005	Country!	0.02236274
-4.48211	County	0.005289644
-4.88005	Couple	0.00764551
-4.88005	Courage	-3.569511e-05
-4.88005	Courant	-3.855738e-05
-3.67593	Court	0.06437848
-4.57902	Court's	0.0003138917
-4.703959	Court,	0.0004011533
-4.88005	Court.	0.02236274
-4.88005	Courts	0.0001790293
-4.88005	Courts,	-3.855738e-05
-4.88005	Court’s	-2.42458e-05
-4.88005	Covenant	-3.283281e-05
-4.703959	Creator	0.002068314
-4.139688	Crime	0.01306442
-4.335982	Crimefree	0.0002326222
-4.88005	Crimes	4.378733e-06
-4.703959	Criminal	-6.566531e-05
-4.88005	Criminal?	0.02236274
-4.88005	Criminalizes	-1.565863e-05
-4.402929	Criminals	0.00865744
-4.703959	Crovax	0.0005759815
-4.88005	Cruikshank	-3.855738e-05
-4.703959	Cruikshank,	-5.783437e-05
-4.88005	Cruikshank.	0.02236274
-4.48211	Crusade	0.004724666
-4.88005	Crusade'	3.014246e-05
-4.88005	Crusade'.	0.02236274
-4.88005	Crusades	-3.855738e-05
-4.226838	Cruz	0.007594904
-4.703959	Cruz's	-4.276566e-05
-4.703959	Cruz,	0.001531613
-4.88005	Cruz’s	-3.855738e-05
-4.88005	Cuba...why	-2.138343e-05
-4.88005	Culture.	0.02236274
-4.88005	Culture?	0.02236274
-4.88005	Cultures	-3.855738e-05
-4.703959	Cuomo	-4.562818e-05
-4.88005	Curbelo-Moulton	-3.855738e-05
-4.88005	Curious.	0.02236274
-4.703959	Current	-5.421563e-05
-4.88005	Currently	0.0006202633
-4.703959	Custom	-7.425236e-05
-4.703959	Czech	-5.210976e-05
-4.88005	D	7.241301e-06
-4.88005	D-Calif.,	-1.852106e-05
-4.88005	D.C.	7.241301e-06
-4.88005	D/A	-3.569511e-05
-4.703959	DA	-4.849068e-05
-4.88005	DARE	-3.855738e-05
-4.88005	DC,	-2.710816e-05
-4.88005	DC.	0.02236274
-4.88005	DD's	0.001771298
-4.88005	DEAD	-3.855738e-05
-4.88005	DEADLY	-3.855738e-05
-4.88005	DEATHS	-2.997049e-05
-4.88005	DEBATE	-3.569511e-05
-4.88005	DEFENDERS.	0.02236274
-4.88005	DELAYED	-3.855738e-05
-4.88005	DEMANDING	0.005381913
-4.88005	DEMOCRACY.	0.02236274
-4.88005	DEMOCRATS	0.0006145302
-4.88005	DENIED"	0.001771298
-4.88005	DEPENDENT	-3.569511e-05
-4.88005	DID	3.014246e-05
-4.88005	DIE	-2.138343e-05
-4.88005	DISCLAIMER:	0.004235734
-4.88005	DIY.	0.02236274
-4.88005	DMV	-3.569511e-05
-4.27799	DO	3.286311e-05
-4.88005	DOCUMENT,	1.516208e-06
-4.88005	DOESN'T.	0.02236274
-4.88005	DOJ.	0.02236274
-4.335982	DON'T	0.002758741
-4.88005	DON'T...........I	-3.855738e-05
-4.88005	DONT	-3.855738e-05
-4.88005	DOWN..	0.0001274858
-4.703959	DP	7.461396e-05
-4.88005	DP_	-3.855738e-05
-4.88005	DROP**************.	0.02236274
-4.88005	DROWNINGS	-3.855738e-05
-4.703959	DUI	0.001732765
-4.88005	DUKE	-3.283281e-05
-4.88005	DWI	0.00479108
-4.88005	Dad	-2.997049e-05
-4.703959	Daddy	3.376841e-05
-4.57902	Daily	-8.132244e-05
-4.57902	Dallas	-5.555855e-05
-4.88005	Dallas,	-2.997049e-05
-4.88005	Dallas.	0.02236274
-4.88005	Dallas.....	0.00113943
-4.57902	Damn	0.005310739
-4.88005	Damnit	-3.855738e-05
-4.88005	Dana	-2.138343e-05
-4.88005	Daniel	-3.283281e-05
-4.88005	Daniels	0.005181983
-4.703959	Darwin	-7.425236e-05
-4.703959	Data	0.001882252
-4.88005	Database?	0.02236274
-4.48211	David	0.006848927
-4.88005	Davis	0.005181983
-4.88005	Dax,	7.308534e-05
-4.88005	Day	0.005181983
-4.88005	DeLauro	-3.855738e-05
-4.88005	Deadly	-3.855738e-05
-4.88005	Dean	-3.855738e-05
-4.88005	Debate	0.01581519
-4.88005	Dec.	-3.569511e-05
-4.88005	December	-3.283281e-05
-4.067137	Declaration	0.007639265
-4.88005	Declares	7.594834e-05
-4.88005	Deep	-3.855738e-05
-4.703959	Deer	0.0002750914
-4.88005	Defeats	0.01581519
-4.88005	Defend	0.001188224
-4.57902	Defense	3.892204e-05
-4.88005	Defense,	0.004120126
-4.703959	Definitely	0.01577684
-4.88005	Degree	-3.283281e-05
-4.88005	Delaware	-3.855738e-05
-4.88005	Delay	0.01581519
-4.88005	Delfic	-3.855738e-05
-4.88005	Delis	0.0004568972
-4.703959	Dem	0.005343428
-3.902326	Democrat	0.006683008
-4.88005	Democrat,	0.008786132
-4.88005	Democrat-Marxists	0.004235734
-4.88005	Democrat.	0.02236274
-4.402929	Democratic	-5.040198e-05
-3.612878	Democrats	0.03010985
-4.57902	Democrats,	7.04202e-05
-4.88005	Democrats/liberals/progressives.	0.02236274
-4.88005	Democrats	0.006958502
-4.88005	Demos	0.002974387
-4.57902	Dems	0.006926989
-4.88005	Dems.	0.02236274
-4.88005	Denying	0.005381913
-4.57902	Department	0.0002508624
-4.88005	Dependent	0.001917908
-4.88005	Depends.	0.02236274
-4.88005	Deputy	-3.855738e-05
-4.88005	Derringer-	0.0001017163
-4.27799	Despite	0.01783671
-4.88005	Detective	-2.997049e-05
-4.703959	Detroit	0.006946218
-4.88005	Devices	0.0004225122
-4.88005	Devin	-3.855738e-05
-4.88005	DiFi.	0.02236274
-4.88005	Dia'mon	-3.283281e-05
-4.88005	Diabetes	0.0006948014
-4.88005	Diabetes:43966	-3.855738e-05
-4.88005	Diallo	0.0001503933
-4.88005	Diamond,	0.001561531
-4.88005	Dice	-3.855738e-05
-4.88005	Dick	-3.855738e-05
-4.88005	Dick's	-3.855738e-05
-4.88005	Dickerson,	-3.855738e-05
-4.88005	Dickey	0.0002735418
-4.703959	Dicks	0.006126662
-4.88005	Dictatorship	-3.855738e-05
-4.004989	Did	0.01154058
-4.57902	Didech	0.005148463
-4.57902	Didn't	0.001757471
-4.88005	Differences	-3.855738e-05
-4.88005	Digest	-3.569511e-05
-4.88005	Dings?	0.02236274
-4.88005	Dirt	-2.997049e-05
-4.703959	Disarmament	-7.711467e-05
-4.88005	Disarming	0.0003165088
-4.88005	Discharge	0.008786132
-4.703959	Discussion	0.001885127
-4.88005	Disease:353133	-3.855738e-05
-4.88005	Disease:53768	-3.855738e-05
-4.88005	Disease:82165	-3.855738e-05
-4.88005	Disney.	0.02236274
-4.703959	Disneyland	0.0008541318
-4.88005	Disqualifies	0.0001876206
-4.88005	Distributed.	0.02236274
-4.88005	Distributing	-9.933764e-06
-4.226838	District	0.008630711
-4.88005	Divine	3.586792e-05
-4.88005	Division	5.018192e-05
-3.57902	Do	0.0308113
-4.703959	DoJ	0.002947398
-4.88005	Documents	-2.997049e-05
-4.139688	Does	0.006563101
-4.48211	Doesn't	0.009392934
-4.88005	Doing	-2.138343e-05
-4.88005	Domestic	-3.855738e-05
-4.57902	Don	-9.63905e-05
-3.838657	Don't	0.007829715
-4.48211	Donald	-4.12379e-05
-4.57902	Door	0.01069589
-4.88005	Dork's	1.869171e-05
-4.88005	Dot.	0.02236274
-4.88005	Doubtlessly	3.300517e-05
-4.88005	Douglas	-3.569511e-05
-4.88005	Dowlut	1.582908e-05
-4.88005	Down	-3.283281e-05
-4.88005	Downtrend	-3.283281e-05
-4.88005	Dozens	0.00764551
-4.88005	Dr.	-3.855738e-05
-4.703959	Dream	0.0003037388
-4.88005	Driving,	0.006958502
-4.88005	Driving:19433	-3.855738e-05
-4.88005	Driving:3443	-3.855738e-05
-4.88005	Drowning:2250	-3.855738e-05
-4.57902	Drug	-9.849749e-05
-4.88005	Drugs	0.00113082
-4.48211	Drunk	-5.841455e-05
-4.703959	Dude,	0.005349224
-4.402929	Due	0.01056359
-4.88005	Dueling	-3.855738e-05
-4.88005	Duke	0.00159026
-4.88005	Duponts,	0.01581519
-4.57902	During	0.00960403
-4.88005	Dweezil.	0.02236274
-4.88005	Dyer.	0.02236274
-4.88005	E	0.002585465
-4.88005	E.	-3.855738e-05
-4.88005	E2	-2.997049e-05
-4.88005	EARNED	0.005381913
-4.88005	EDIT:	0.0001103059
-4.88005	EDs	0.001027513
-4.88005	EMORY	-3.283281e-05
-4.88005	END	-2.710816e-05
-4.88005	ENGAGE	1.296648e-05
-4.88005	ENTIRELY	-3.855738e-05
-4.703959	EOs	0.01075911
-4.88005	EPA	-3.569511e-05
-4.48211	EU	0.007409554
-4.57902	EVER	0.0001591999
-4.48211	EVERY	-0.0001513667
-4.703959	EVERYTHING	-5.421565e-05
-4.88005	EXACT	-3.855738e-05
-4.703959	EXACTLY	0.001790254
-4.88005	EXACTLY!	0.02236274
-4.57902	Each	-7.34913e-05
-4.703959	Eagle	0.0005587821
-4.88005	Earnest	0.0002391712
-4.88005	Earth,	0.0002964569
-4.703959	Earth.	0.0223406
-4.88005	East",	-3.855738e-05
-4.88005	Easy,	-1.565863e-05
-4.88005	Easy..	0.01581519
-4.88005	Economic-Based	0.0001160325
-4.88005	Eddie	-3.569511e-05
-4.88005	Edgar	-3.855738e-05
-4.88005	Edit:	0.004235734
-4.88005	Educated	0.001242764
-4.88005	Effectively,	1.582908e-05
-4.88005	Eh,	0.004120126
-4.88005	Eight	-9.933764e-06
-4.27799	Either	0.02147882
-4.88005	Either..	0.004120126
-4.703959	El	-7.711467e-05
-4.88005	Elections	-3.569511e-05
-4.88005	Electric	2.155438e-05
-4.88005	Eliminating	0.0007808232
-4.703959	Embarrassing	0.0001626175
-4.88005	Emerson,261	0.0003279672
-4.88005	Emperor	-2.997049e-05
-4.88005	Emperor.	0.02236274
-4.703959	End	0.02374934
-4.88005	Enemies	0.00764551
-4.703959	Energy	-3.990313e-05
-4.88005	Enfield	0.006958502
-4.88005	Enforcement	-3.855738e-05
-4.88005	Engaging	0.00479108
-4.88005	Engine	0.006958502
-4.88005	Engineer	0.00764551
-4.402929	England	0.007851937
-4.88005	England's	-1.279623e-05
-4.88005	England,	-3.283281e-05
-4.226838	English	0.007720832
-4.703959	English,	0.003183812
-4.88005	Enlightenment,	-3.855738e-05
-4.88005	Ennis	-3.569511e-05
-4.88005	Enough	-3.569511e-05
-4.88005	Entertainingly,	-2.997049e-05
-4.88005	Epcot	0.0001790293
-4.88005	Era	-3.569511e-05
-4.703959	Eric	-7.425236e-05
-4.88005	Errors:144538	-3.855738e-05
-4.402929	Especially	0.006698818
-4.88005	Essentially	0.01581519
-4.88005	Establishes	0.008786132
-4.402929	Eugene	-0.0001735026
-4.48211	Europe	0.003827406
-4.88005	Europe!.	0.02236274
-4.88005	Europe,	9.885313e-05
-4.703959	Europe.	0.0223406
-4.48211	European	0.0003240514
-4.88005	Europeans	0.000181893
-4.88005	Euroweenie	-3.855738e-05
-3.67593	Even	0.03151962
-4.88005	Eventually	0.00280149
-4.88005	Eventually,	-3.569511e-05
-4.703959	Ever	3.452954e-05
-4.004989	Every	0.00328351
-4.88005	Everyday,	0.0006202633
-4.703959	Everyone	0.005282569
-4.88005	Everything	0.005381913
-4.88005	Evidently,	-1.852106e-05
-4.335982	Evilroddy	0.002141505
-4.703959	Exactly	0.00167241
-4.88005	Exactly,	0.0003537502
-4.88005	Exactly.	0.02236274
-4.88005	Example:.	0.02236274
-4.88005	Examples:	-3.569511e-05
-4.335982	Except	0.01636898
-4.88005	Except..	0.005381913
-4.88005	Excercising	0.005181983
-4.88005	Excerpts:	3.014246e-05
-4.57902	Exclusive	-0.0001013599
-4.88005	Exclusive:	0.0001074427
-4.88005	Excuse	-2.710816e-05
-4.88005	Experiment	-3.569511e-05
-4.703959	Experts	-6.566531e-05
-4.88005	Explain	0.001188224
-4.88005	Explosives.	0.02236274
-4.88005	Expresses	0.0001475298
-4.88005	Extrapolating	0.001216928
-4.88005	Extremely	-3.855738e-05
-4.88005	F	-3.855738e-05
-4.88005	FAMILY	3.300517e-05
-4.88005	FAR	0.0008123688
-4.88005	FAR,	0.00113943
-3.950631	FBI	0.005794992
-4.88005	FBI!	0.02236274
-4.703959	FBI's	-2.559015e-05
-4.88005	FBI,	0.0006632647
-4.703959	FBI.	0.0223406
-4.88005	FCKING	-2.138343e-05
-4.88005	FDR	-3.855738e-05
-4.88005	FEAR	0.006958502
-4.88005	FEBRUARY	-3.855738e-05
-4.88005	FEEL	-3.855738e-05
-4.88005	FELONY	0.002671862
-4.402929	FFL	0.009543465
-4.88005	FFS.	0.02236274
-4.88005	FIND	0.01581519
-4.88005	FIRST	6.163349e-05
-4.88005	FISA	-3.855738e-05
-4.88005	FLA	-1.279623e-05
-4.88005	FLAT	-3.855738e-05
-4.88005	FORCE	-2.997049e-05
-4.88005	FORDHAM	-3.855738e-05
-4.88005	FOX	-3.283281e-05
-4.88005	FPS	0.006958502
-4.88005	FPS?.	0.02236274
-4.88005	FREE	-3.855738e-05
-4.88005	FRIDAY,	-3.855738e-05
-4.88005	FWIW,	0.004235734
-4.88005	FYI	0.01581519
-4.88005	FYI,	0.0004024555
-4.88005	Face,	-2.997049e-05
-4.703959	Facebook	-7.425236e-05
-4.88005	Facing	0.008786132
-4.703959	Fact	-6.280292e-05
-4.703959	Facts:	-6.280292e-05
-4.88005	Faculty	0.006958502
-4.88005	Failed	-3.855738e-05
-4.88005	Failure:24580	-3.855738e-05
-4.88005	Fair	-2.997049e-05
-4.88005	Fairchild	-3.855738e-05
-4.703959	Fairy	-6.852768e-05
-4.88005	Fall	0.002585465
-4.88005	Fallacy...	0.02236274
-4.57902	Falling	0.001659742
-4.88005	Fallujah,	0.0001217591
-4.88005	False,	0.004235734
-4.88005	False.	0.02236274
-4.88005	Family	-3.569511e-05
-4.88005	Far	0.0001188958
-4.88005	Fascism.	0.02236274
-4.88005	Fascists	0.0006689985
-4.703959	Fast	0.006975309
-4.88005	Father	0.00764551
-4.48211	Fathers	0.01846995
-4.88005	Fathers,	0.01581519
-4.703959	February	0.005343428
-3.97696	Federal	0.0001191686
-4.88005	Federal)	-3.283281e-05
-4.57902	Federal,	0.005182196
-4.402929	Federalist	-0.0001677777
-4.88005	Federalists	0.0007206062
-4.88005	Federalists.	0.02236274
-4.88005	Federally.	0.02236274
-4.48211	Feds	0.002205043
-4.57902	Feel	0.0001576622
-4.88005	Feinstein	0.0001475298
-4.88005	Feinstein,	-4.208841e-06
-4.88005	Feinstein-Curbelo	1.010388e-05
-4.703959	Feinstein.	0.0223406
-4.88005	Fewer	0.0006948014
-4.88005	Fifteenth	0.0002735418
-4.57902	Fifth	0.0002279451
-4.88005	Fifth,	0.0006202633
-4.88005	Fight-lite	-3.855738e-05
-4.88005	Fights	-3.855738e-05
-4.88005	Figures	0.0007865586
-4.88005	Filburn	0.00159026
-4.703959	Finally,	0.0158867
-4.88005	Find	0.008786132
-4.703959	Finland	-6.852768e-05
-4.88005	FinnFox...a	0.0003222379
-4.88005	Fire	-3.855738e-05
-4.88005	Fire:	0.001561531
-4.703959	Firearm	5.094608e-05
-4.88005	Firearm-Related	-2.710816e-05
-4.703959	Firearms	0.006920038
-3.858861	First	0.01765276
-4.48211	First,	0.02646372
-4.88005	First.	0.02236274
-4.88005	First;	0.004235734
-4.88005	Fitness	-3.283281e-05
-4.88005	Five	0.0008123688
-4.88005	Fix	0.001188224
-4.88005	Fl	3.300517e-05
-4.88005	Fleeting	0.00104186
-4.18108	Florida	0.00426031
-4.88005	Florida!	0.02236274
-4.703959	Florida.	0.0223406
-4.88005	Florida?	0.02236274
-4.88005	Fly"	5.304477e-05
-4.88005	Foggy	-3.855738e-05
-4.88005	Folks,	0.00113943
-4.88005	Folks..	0.0003652098
-4.703959	Following	0.01704932
-3.499839	For	0.03861104
-4.703959	Force	0.002095072
-4.88005	Force.	0.02236274
-4.88005	Foreign	-4.208841e-06
-4.88005	Forge.	0.02236274
-4.57902	Form	0.007584917
-4.57902	Fort	-0.0001128095
-4.88005	Fortunately,	-2.138343e-05
-4.88005	Foster	0.0001561203
-4.57902	Foundation	0.01061506
-4.402929	Founders	0.007704429
-4.88005	Founders,	0.0004683595
-4.88005	Founders.	0.02236274
-4.335982	Founding	-0.0001734924
-4.88005	Four	-3.855738e-05
-4.48211	Fourteenth	0.0001865277
-4.88005	Fourth	0.0002735418
-4.88005	Fourth,	0.0001933481
-4.88005	Fourth.	0.02236274
-4.88005	Fourth....."	-3.569511e-05
-4.402929	Fox	-0.0001191136
-4.48211	Framers	0.005492586
-4.88005	Framers.	0.02236274
-4.88005	Framers’	-3.283281e-05
-4.703959	Fran	0.001132461
-4.48211	France	0.012942
-4.88005	Francis	-3.569511e-05
-4.88005	Frank	-3.855738e-05
-4.88005	Franklin	-3.855738e-05
-4.88005	Frankly	0.01581519
-4.88005	Freaks"	0.006958502
-4.703959	Free	-7.711467e-05
-4.88005	Freedman	2.155438e-05
-4.48211	Freedom	0.007836169
-4.88005	Freedom"	-3.855738e-05
-4.88005	FreedomFromAll	-1.852106e-05
-4.88005	French	0.0001217591
-4.703959	French,	0.0175051
-4.88005	Freudabout	0.008786132
-4.703959	Friday	-6.852768e-05
-4.88005	Friday,	0.0005027482
-4.88005	Friday.	0.02236274
-4.88005	Frog.	0.02236274
-4.004989	From	0.02492761
-4.88005	Front	-3.569511e-05
-4.88005	Frost’s	4.378733e-06
-4.48211	Full	-6.338168e-05
-4.88005	Funny	0.000488419
-4.88005	Furious	-3.855738e-05
-4.88005	Furious,	-3.569511e-05
-4.703959	Further	0.001629304
-4.703959	Further,	0.004153876
-4.88005	Furthermore,	0.001481099
-4.88005	Furthermore...he	0.000961524
-4.88005	Fuzzy	-3.569511e-05
-4.703959	G	-5.783437e-05
-4.88005	GAVE	-3.855738e-05
-4.402929	GDP	4.332908e-05
-4.88005	GED.	0.02236274
-4.703959	GEO.	0.0223406
-4.88005	GET	0.01581519
-4.88005	GFZs	5.877057e-05
-4.88005	GIVEN	-2.997049e-05
-4.88005	GJ.	0.02236274
-4.88005	GLADLY	0.0003336967
-4.88005	GLOBE,	-3.855738e-05
-4.88005	GOA	0.0009270991
-4.88005	GOD	-3.855738e-05
-4.88005	GOOD	0.0001876206
-4.226838	GOP	0.01388431
-4.88005	GOP,	0.002671862
-4.88005	GP100.	0.02236274
-4.88005	GREAT,	0.001774172
-4.88005	GUARANTEE	0.004120126
-4.57902	GUN	0.001125494
-4.88005	GUN.	0.02236274
-4.88005	GUN:6606	-3.855738e-05
-4.88005	GUNS	0.000181893
-4.88005	GUNS.	0.02236274
-4.703959	Ga.	-5.783437e-05
-4.88005	Gabbard	0.0002105312
-4.88005	Galileo	-1.852106e-05
-4.88005	Game	-3.283281e-05
-4.88005	Gang	3.300517e-05
-4.88005	Garage	-3.283281e-05
-4.88005	Garand	-4.208841e-06
-4.88005	Garand,	1.296648e-05
-4.88005	Garands,	0.0008381801
-4.88005	Garrand,	-3.855738e-05
-4.88005	Gas,	-3.855738e-05
-4.88005	Gen	-3.855738e-05
-4.703959	General	-7.425236e-05
-4.88005	Generally	0.004235734
-4.88005	Generally,	0.004120126
-4.88005	Generations	0.00764551
-4.88005	Genocide	4.378733e-06
-4.57902	George	0.0008557475
-4.88005	George.	0.02236274
-4.88005	Georgia	-3.855738e-05
-4.88005	Georgia.	0.02236274
-4.88005	Germans,	0.01581519
-4.335982	Germany	0.007779677
-4.703959	Germany.	0.0223406
-4.335982	Get	0.02612825
-4.703959	Getting	0.0007824265
-4.88005	Giants	0.01066549
-4.88005	Gifford's	-1.279623e-05
-4.88005	Gilder;	0.006958502
-4.703959	Ginsberg	0.0005903147
-4.88005	Ginsburg,	-3.855738e-05
-4.88005	Ginsburg.	0.02236274
-4.703959	Give	0.01594609
-4.48211	Given	0.02135595
-4.703959	Giving	0.0007021307
-4.88005	Glad	0.01581519
-4.703959	Glenn	-5.783437e-05
-4.88005	Global	-3.855738e-05
-4.27799	Glock	0.0003365897
-4.703959	Glock.	0.0223406
-4.57902	Go	0.0006635837
-3.902326	God	0.03993883
-4.88005	God",	0.001073424
-4.88005	God's	-7.071316e-06
-4.88005	God's,	0.006958502
-4.88005	God-given,	-3.283281e-05
-4.88005	God.	0.02236274
-4.88005	God/Creator/Nature/etc.	0.02236274
-4.88005	Godlessness	0.005181983
-4.88005	Godlessness.	0.02236274
-4.88005	Godly	-3.569511e-05
-4.88005	Goes	0.01066549
-4.88005	Golf,	-3.855738e-05
-4.88005	Gonna	0.00295133
-3.902326	Good	0.0145279
-4.88005	Goodbye.	0.02236274
-4.88005	Goods	0.0002391712
-4.703959	Google	0.0001318837
-4.88005	Google.	0.02236274
-4.88005	Gorsuch,	0.001202575
-4.88005	Gosh..	0.004120126
-4.88005	Goshin!.	0.02236274
-4.88005	Goshin's	-3.569511e-05
-4.402929	Got	0.0009836338
-4.88005	Gotta	3.014246e-05
-4.88005	Gov.	0.02236274
-3.637012	Government	0.03903905
-4.88005	Government"	0.0005170775
-4.88005	Government".	0.02236274
-4.88005	Government,	0.002671862
-4.57902	Government.	0.02231846
-4.57902	Governments	0.003018425
-4.57902	Governor	0.005105007
-4.88005	Governor.	0.02236274
-4.88005	Govt.	0.02236274
-4.88005	Grabber	-1.565863e-05
-4.88005	Grabbers	0.000505614
-4.703959	Grand	-7.711467e-05
-4.88005	Grandma	6.163349e-05
-4.88005	Grandmother	-3.569511e-05
-4.57902	Granny	0.004766195
-4.88005	Granted	-3.569511e-05
-4.88005	Granted,	0.000181893
-4.57902	Grants	-7.711018e-05
-4.88005	Graphs	-3.283281e-05
-4.48211	Grathwohl	0.001704565
-4.88005	Grathwohl's	-3.283281e-05
-4.88005	Grathwohl,	0.000961524
-4.88005	GrathwohlBill	-3.855738e-05
-4.004989	Great	0.004273197
-4.88005	Greater	-3.855738e-05
-4.703959	Green	-6.852768e-05
-4.88005	Greetings,	-3.855738e-05
-4.88005	Gregory,	0.006958502
-4.57902	Grench	0.0008213239
-4.88005	Griffin	-3.855738e-05
-4.88005	Grove).	0.02236274
-4.88005	Grow	0.008786132
-4.88005	Growing	-3.283281e-05
-4.88005	Grown-ups	0.0001246224
-4.88005	Gruber	0.0009270991
-4.88005	Guaranteeing	0.008786132
-4.88005	Guard	-3.855738e-05
-4.703959	Guard,	0.001784505
-4.88005	Guatamala	-1.279623e-05
-4.57902	Guatemala	-7.273465e-05
-4.88005	Guess	0.0002849991
-4.88005	Gulotta,	-3.855738e-05
-3.432892	Gun	0.01263904
-4.88005	Gun!.	0.02236274
-4.88005	Gun,"	0.004235734
-4.88005	Gun.	0.02236274
-4.88005	Gun.jpg	0.0001246224
-4.88005	Gunman	-7.071316e-06
-4.88005	Gunner	-3.855738e-05
-3.568296	Guns	0.02095442
-4.703959	Guns"	-2.845277e-05
-4.88005	Guns.	0.02236274
-4.88005	GunsAmerica	-3.855738e-05
-4.703959	Guy	0.002644861
-4.57902	Guys	0.001806344
-4.335982	H&K	-0.0001612871
-4.88005	H.	-3.855738e-05
-4.88005	HASTINGS	-3.855738e-05
-4.703959	HAVE	-6.566531e-05
-4.88005	HELD	-3.855738e-05
-4.88005	HELL	-3.855738e-05
-4.88005	HINT	0.005381913
-4.88005	HIPPA	0.0004683595
-4.703959	HIV	0.008759376
-4.88005	HK416.	0.02236274
-4.88005	HMO's	1.516208e-06
-4.88005	HOLD	-2.42458e-05
-4.88005	HOME	0.01066549
-4.88005	HRC	0.000961524
-4.703959	HUGE	-6.566531e-05
-4.88005	Habeas	-3.855738e-05
-4.88005	Had	0.008786132
-4.703959	Haha	0.001962766
-4.57902	Halbrook,	0.001587896
-4.88005	Hallelujah	-2.997049e-05
-4.57902	Hamilton	0.0001269281
-4.88005	Hammers	-3.855738e-05
-4.88005	Hampshire	0.0006202633
-4.88005	Handgun	-3.283281e-05
-4.88005	Hands/Feet:	-3.855738e-05
-4.88005	Hands/feet/etc.	0.02236274
-4.88005	Hang	0.001917908
-4.88005	Happens	0.0001074427
-4.88005	Happiness.	0.02236274
-4.88005	Happiness."	0.02236274
-4.88005	Happiness?	0.02236274
-4.88005	Hard	0.01066549
-4.88005	Harder,	-3.569511e-05
-4.88005	Hardy	1.582908e-05
-4.703959	Harlan	-7.711467e-05
-4.88005	Harris	0.001771298
-4.88005	Hartford	-3.855738e-05
-4.57902	Harvard	-4.983306e-05
-4.27799	Has	0.003079729
-4.88005	Hasan	1.582908e-05
-4.88005	Hasan's	-3.855738e-05
-4.88005	Hasn't	-1.565863e-05
-4.703959	Hate	0.01065641
-4.004989	Have	0.01447527
-4.402929	Having	0.02531006
-4.703959	Hawaii	0.001387991
-4.88005	Hawaii's	-4.208841e-06
-4.88005	Hawaii's.	0.02236274
-4.703959	Hawaii,	0.008747692
-4.88005	Hawaii?	0.02236274
-4.88005	Haymarket	3.300517e-05
-4.88005	Haymarket's	-3.855738e-05
-4.703959	Haymarket.	0.0223406
-4.88005	Haynes	2.155438e-05
-4.703959	Hays	0.0003724997
-3.425205	He	0.0133309
-4.226838	He's	0.01255404
-4.88005	Headbanger	0.002974387
-4.88005	Headline	-3.855738e-05
-4.88005	Health	0.005181983
-4.88005	Hearing	0.008786132
-4.88005	Hearld	0.000961524
-4.88005	Heart	-3.855738e-05
-4.88005	Heck	-3.569511e-05
-4.703959	Heck,	0.01579305
-4.703959	Helen	-4.276569e-05
-4.88005	Helicopters	9.02637e-05
-4.48211	Hell	0.005362113
-4.48211	Hell,	0.01475414
-3.925807	Heller	0.02308205
-4.88005	Heller),	-9.933764e-06
-4.88005	Heller,	0.006958502
-4.48211	Heller.	0.02229633
-4.88005	Heller:	-3.855738e-05
-4.88005	Hello	-3.855738e-05
-4.88005	Hello,	-2.710816e-05
-4.88005	Help	0.008786132
-4.88005	Helper...what	-2.710816e-05
-4.703959	Hence	0.01577684
-4.703959	Hence,	0.0169987
-4.88005	Hence:	0.002974387
-4.88005	Henry,	0.006958502
-4.88005	Her	-3.283281e-05
-3.749716	Here	0.02524891
-4.18108	Here's	0.02731342
-4.88005	Hereafter,	0.006958502
-4.88005	Here’s	0.008786132
-4.703959	Hero	0.0005874481
-4.88005	Hey	0.0001274858
-4.57902	Hey,	0.000184978
-4.88005	Heyne	4.378733e-06
-4.88005	Heyne,	-2.997049e-05
-4.88005	He’s	-1.565863e-05
-4.88005	Hide.	0.02236274
-4.88005	Hide:	0.001561531
-4.703959	Hide	0.003105954
-4.703959	High	3.166652e-05
-4.88005	Highlands	-1.852106e-05
-4.88005	Highschool	0.0008525209
-4.88005	Hijacking.Meaning	0.0006632647
-4.88005	Hilary	0.00159026
-4.88005	Hilary.	0.02236274
-4.034952	Hillary	0.01866284
-4.88005	Hillary's	-3.855738e-05
-4.88005	Hillary,	0.0003795347
-4.88005	Hillay	3.014246e-05
-4.88005	Himself	0.0005170775
-4.88005	Hindsight	0.0009270991
-4.88005	Hint:	0.0001503933
-4.88005	Hiroshima	0.006958502
-4.101899	His	-0.0003038795
-4.88005	Hispanics	7.594834e-05
