
\data\
ngram 1=16720
ngram 2=63515

\1-grams:
-4.188858	!	0.02228693
-4.614827	!!	0.02241678
-4.790918	!!!!!!.	0.02244275
-4.614827	!!!!!.	0.02241678
-4.614827	!.	0.02241678
-4.137706	"	0.0239856
-4.614827	",	-1.978408e-06
-4.790918	"..........	0.00112693
-4.790918	".....the	0.0007218779
-4.790918	"..Orlando,	-3.789488e-05
-4.790918	"22	-4.492361e-05
-4.790918	"35,	-4.492361e-05
-4.313797	"A	0.0001064501
-4.790918	"AR"	0.004842802
-4.790918	"AR-15's	0.0004790282
-4.790918	"All	0.007684706
-4.790918	"Am	0.004622505
-4.790918	"American"	-3.438047e-05
-4.790918	"Americans	-4.492361e-05
-4.790918	"Armalite	-4.492361e-05
-4.489888	"Assault	-0.0001347705
-4.614827	"Aurora,	-3.575259e-05
-4.790918	"British	4.27988e-06
-4.614827	"Can	0.004596531
-4.790918	"Caught	0.001828739
-4.790918	"Community	-4.492361e-05
-4.790918	"Constitutional	-4.492361e-05
-4.790918	"Coors".	0.02244275
-4.790918	"Cyrylek"	0.001084646
-4.790918	"Damn.	0.02244275
-4.790918	"Dancing	-4.492361e-05
-4.790918	"Debbie	-4.492361e-05
-4.790918	"Democracy"	0.005244602
-4.790918	"Democrats	0.001828739
-4.790918	"Don't	-4.492361e-05
-4.790918	"Draw	-4.492361e-05
-4.790918	"Extremism"	0.005244602
-4.790918	"FOR	-4.492361e-05
-4.790918	"Fat	-4.492361e-05
-4.790918	"Final	-4.492361e-05
-4.790918	"For	-4.140926e-05
-4.790918	"GIVE	-4.492361e-05
-4.790918	"GUN	-4.492361e-05
-4.790918	"God	2.185389e-05
-4.790918	"Good	-2.735157e-05
-4.392978	"Gun	4.88092e-05
-4.790918	"Hate	-4.492361e-05
-4.790918	"Hawaii	0.0009578185
-4.614827	"He	4.372033e-05
-4.790918	"Head	0.007684706
-4.790918	"Homophobes"	0.0003699661
-4.790918	"How	0.0004227347
-4.392978	"I	0.001635337
-4.790918	"INSULT	-4.492361e-05
-4.392978	"If	0.005990732
-4.790918	"In	1.13094e-05
-4.790918	"It	0.005244602
-4.614827	"It's	0.002430241
-4.790918	"Just	6.051924e-05
-4.790918	"Kids,	-1.329346e-05
-4.790918	"LOL."	0.02244275
-4.790918	"Little	-4.492361e-05
-4.790918	"Looking	0.001084646
-4.790918	"Mass	-2.383708e-05
-4.614827	"More	0.0009952537
-4.790918	"NRA	-4.492361e-05
-4.614827	"Nat	-6.738303e-05
-4.24685	"No	0.0009235534
-4.790918	"No.	0.02244275
-4.790918	"Now,	-2.383708e-05
-4.790918	"Obama's	-2.735157e-05
-4.790918	"Odd	-4.492361e-05
-4.790918	"Of	0.01588239
-4.790918	"Open-carry"	0.005244602
-4.790918	"Playgirl"	-4.140926e-05
-4.790918	"Power	0.01041931
-4.790918	"Progress"	0.005244602
-4.790918	"Responsible"	-4.492361e-05
-4.489888	"Right	0.01826858
-4.790918	"Roman	-4.492361e-05
-4.790918	"Security	-4.492361e-05
-4.790918	"Sen.	-4.140926e-05
-4.790918	"Should	5.348892e-05
-4.790918	"Skilled"	0.0001308287
-4.614827	"So	0.003403413
-4.790918	"State's	-4.492361e-05
-4.790918	"Stop	0.01588239
-4.790918	"Surely	0.001183314
-4.790918	"TRUMP:	0.0002503809
-4.790918	"Thank	-4.140926e-05
-4.614827	"That	0.01583773
-4.614827	"That's	-3.712803e-05
-4.050556	"The	0.001388443
-4.614827	"There	0.005908277
-4.790918	"They	0.000581079
-4.790918	"Those	0.00100009
-4.790918	"Truthful	-4.492361e-05
-4.790918	"Under	0.01588239
-4.790918	"WANT"	0.01041931
-4.392978	"We	0.0009160139
-4.790918	"We're	-2.749535e-06
-4.489888	"What	0.001493235
-4.790918	"What's	0.01588239
-4.790918	"When	0.01588239
-4.489888	"Why	0.003521546
-4.790918	"Y"	6.051924e-05
-4.614827	"You	0.0004776853
-4.790918	"Your	0.0005881179
-4.489888	"a	-8.908025e-05
-4.790918	"able	-4.492361e-05
-4.790918	"accessible"	0.0005458863
-4.790918	"accessible".	0.02244275
-4.790918	"accidentally	7.6516e-07
-4.790918	"accidents"	-4.492361e-05
-4.790918	"according	0.01041931
-4.790918	"actors"	0.00100009
-4.790918	"against	-4.492361e-05
-4.790918	"all	-4.140926e-05
-4.790918	"alteration"	0.007684706
-4.790918	"altered"?	0.02244275
-4.790918	"and	9.918807e-05
-4.790918	"anti	0.00195935
-4.790918	"apples	0.01041931
-4.790918	"argument"	0.005244602
-4.614827	"armory".	0.02241678
-4.313797	"arms"	0.01359065
-4.489888	"assault	-0.0001123049
-4.790918	"attackers"	0.003179115
-4.790918	"average	-1.680801e-05
-4.790918	"background	-4.492361e-05
-4.790918	"bad	-4.492361e-05
-4.790918	"be	0.0001484078
-4.790918	"bear	-4.492361e-05
-4.790918	"because	0.0007113165
-4.790918	"being	1.482421e-05
-4.790918	"belonging",	0.00112693
-4.790918	"beyond	0.008633766
-4.790918	"black	-4.492361e-05
-4.790918	"blew	-4.492361e-05
-4.614827	"blinked	0.0003123342
-4.790918	"blinking	0.000338308
-4.790918	"blotter"	-4.492361e-05
-4.790918	"bolt	-4.492361e-05
-4.790918	"born	0.001334886
-4.790918	"brandishing"?	0.02244275
-4.790918	"bucky"`s	3.591363e-05
-4.790918	"bullet	-1.680801e-05
-4.790918	"bus	-4.492361e-05
-4.790918	"but	0.003430566
-4.790918	"carry"	0.008633766
-4.790918	"chose	-4.492361e-05
-4.790918	"clean"..	0.007112693
-4.790918	"clearly"	4.27988e-06
-4.790918	"clip".	0.02244275
-4.489888	"combat".	0.02239081
-4.790918	"comfortable"	0.002499867
-4.790918	"common	4.294365e-05
-4.790918	"community"	0.001525305
-4.790918	"compassionate	-4.492361e-05
-4.790918	"concern"	9.918807e-05
-4.790918	"connected".	0.02244275
-4.790918	"conservative	-4.492361e-05
-4.790918	"continuous	-4.140926e-05
-4.614827	"continuous"	0.008664282
-4.790918	"control"	0.0006514729
-4.790918	"control".	0.02244275
-4.790918	"cops",	0.0003172039
-4.790918	"could	-4.492361e-05
-4.790918	"could,"	0.002588251
-4.614827	"critical	-6.738303e-05
-4.790918	"deal"	0.002118257
-4.790918	"definitions"	4.997379e-05
-4.790918	"direct	-4.492361e-05
-4.790918	"disadvantaged	-4.140926e-05
-4.790918	"disarming"	0.0004121804
-4.790918	"discussion"	0.0009190732
-4.790918	"diversity"	0.0003875548
-4.614827	"do	0.003467187
-4.790918	"do"	0.0001027035
-4.790918	"doing	-4.140926e-05
-4.489888	"don't	0.0006426182
-4.790918	"doomed	-4.492361e-05
-4.790918	"dropped	0.01588239
-4.790918	"drug-free"	-2.735157e-05
-4.790918	"edge"	0.007684706
-4.790918	"educated"	1.13094e-05
-4.790918	"enforce	0.01588239
-4.790918	"enlightened	-4.492361e-05
-4.790918	"enlightened"	0.0001835682
-4.790918	"equality"	0.004842802
-4.790918	"everyday	-4.140926e-05
-4.790918	"evil"	0.005244602
-4.790918	"exactly	0.001056458
-4.790918	"expansion"	0.007684706
-4.790918	"explained"	-1.680801e-05
-4.614827	"extremely	-8.98471e-05
-4.790918	"facts"	0.0006620327
-4.790918	"facts",	0.000384037
-4.790918	"failure	0.01041931
-4.790918	"familiarity"	0.002118257
-4.790918	"far	0.0009014628
-4.790918	"feed	0.000338308
-4.790918	"feel	0.0002538977
-4.790918	"feelings."	0.02244275
-4.790918	"fire	-4.492361e-05
-4.790918	"first	0.0003101694
-4.614827	"fix"	0.001335819
-4.489888	"for	0.0008468692
-4.790918	"forms	0.01041931
-4.790918	"fraction",	-2.383708e-05
-4.790918	"frangere",	0.0004755098
-4.614827	"free	0.007639909
-4.790918	"freedom"	0.01041931
-4.790918	"fun"	0.0001484078
-4.790918	"gave	2.536877e-05
-4.790918	"genius	0.007112693
-4.790918	"get	-1.329346e-05
-4.790918	"given"	0.0001519237
-4.790918	"go	0.0001167659
-4.790918	"going	-4.492361e-05
-4.790918	"good"	-3.789488e-05
-4.091948	"gun	-0.0002763781
-4.790918	"gun-grabber"	0.001828739
-4.790918	"gunfire	-4.492361e-05
-4.392978	"guns	0.01040388
-4.790918	"ha	0.01041931
-4.489888	"hate	-0.0001123049
-4.790918	"hey,	2.536877e-05
-4.614827	"high	-4.064282e-05
-4.790918	"historical	-4.492361e-05
-4.790918	"hollywood	-4.492361e-05
-4.790918	"homicides".	0.02244275
-4.790918	"how	0.001021227
-4.790918	"idiotic	-4.492361e-05
-4.790918	"idiotic",	0.001183314
-4.790918	"in	-4.492361e-05
-4.790918	"individual	-4.492361e-05
-4.790918	"inexplicable"	-4.140926e-05
-4.790918	"infringe"	-4.140926e-05
-4.790918	"infringed",	0.0006444327
-4.790918	"infringement".	0.02244275
-4.790918	"intellectual	-4.492361e-05
-4.790918	"interpretation"	0.007684706
-4.790918	"issue"	-2.735157e-05
-4.614827	"it	-3.361319e-05
-4.790918	"judged	0.001317258
-4.790918	"just	0.0001413761
-4.614827	"justice",	0.002562277
-4.790918	"kids	0.003179115
-4.790918	"killing	0.001133978
-4.790918	"know"	0.005312199
-4.614827	"last	0.004801513
-4.790918	"law	7.809553e-05
-4.790918	"law".	0.02244275
-4.790918	"learning"	-2.383708e-05
-4.790918	"left"	-4.140926e-05
-4.489888	"legal	0.0001113106
-4.790918	"legally	-4.492361e-05
-4.790918	"liberal	-4.492361e-05
-4.790918	"liberalism"	0.0009578185
-4.790918	"liberals	0.0005036591
-4.614827	"liberty"	-5.118705e-05
-4.790918	"lid").	0.02244275
-4.790918	"like	0.0003277558
-4.790918	"limit	1.13094e-05
-4.790918	"litigation	-4.492361e-05
-4.790918	"live	0.002118257
-4.790918	"logic"	1.13094e-05
-4.790918	"machine	-4.492361e-05
-4.790918	"man	0.005244602
-4.790918	"mass	-4.140926e-05
-4.790918	"massive	-4.140926e-05
-4.790918	"may	-4.492361e-05
-4.790918	"members	0.007684706
-4.614827	"mentally	-8.98471e-05
-4.790918	"military	-4.492361e-05
-4.790918	"militia"	-3.438047e-05
-4.614827	"militia",	0.01047177
-4.790918	"militia-only"	8.864166e-05
-4.614827	"militias"	0.002285336
-4.790918	"mind	-4.492361e-05
-4.790918	"minority	-4.140926e-05
-4.614827	"mistake"	0.005218629
-4.790918	"more	0.001021227
-4.790918	"most")	0.003179115
-4.790918	"multiculturalism"	-4.140926e-05
-4.790918	"murder	0.005244602
-4.790918	"murders	0.007684706
-4.790918	"necessary	0.01041931
-4.790918	"needed".	0.02244275
-4.790918	"needs"	0.001056458
-4.790918	"noble	-4.492361e-05
-4.614827	"non-continuous"	-4.064284e-05
-4.790918	"non-sequitur"	-4.492361e-05
-4.790918	"nothing"	0.004842802
-4.614827	"object"	0.01829455
-4.790918	"off	-4.492361e-05
-4.790918	"oops,	-4.140926e-05
-4.614827	"open	-6.738303e-05
-4.790918	"original	-4.492361e-05
-4.790918	"other	-4.492361e-05
-4.790918	"other"	-2.383708e-05
-4.790918	"our	7.6516e-07
-4.24685	"out	0.007554853
-4.790918	"paperwork	-4.492361e-05
-4.790918	"paperwork"	0.001592325
-4.790918	"patriots"	0.00100009
-4.790918	"people	0.007684706
-4.790918	"permanent	-4.492361e-05
-4.790918	"persons"?	0.02244275
-4.790918	"perverted,"	0.001056458
-4.790918	"portraits	0.007684706
-4.790918	"possibility	0.007684706
-4.790918	"prevalent	0.0001237972
-4.790918	"prevent"	0.01588239
-4.790918	"primer"	0.005244602
-4.790918	"professional	0.000222248
-4.790918	"prohibited	-4.492361e-05
-4.790918	"protects	0.001056458
-4.790918	"purple	-4.492361e-05
-4.790918	"quite	-4.492361e-05
-4.790918	"quote."	0.02244275
-4.790918	"racist".	0.02244275
-4.790918	"real	-4.140926e-05
-4.790918	"really"	0.000384037
-4.790918	"reasonable	-4.492361e-05
-4.790918	"reasonable"	0.005312199
-4.614827	"red	-6.173104e-05
-4.790918	"regulations"	0.002499867
-4.790918	"respect	0.01588239
-4.392978	"right	-0.0001431685
-4.614827	"right"	0.008807744
-4.614827	"rights"	0.001304086
-4.790918	"rimfire"	-4.140926e-05
-4.790918	"rise	0.004842802
-4.790918	"sacrificing	7.6516e-07
-4.790918	"safe	-4.492361e-05
-4.614827	"savage"	0.01198318
-4.614827	"savages"	0.004854829
-4.790918	"scared	-4.140926e-05
-4.614827	"school	-6.738303e-05
-4.790918	"schools"	-4.492361e-05
-4.790918	"security,	-4.492361e-05
-4.790918	"self-determination,"	0.007112693
-4.790918	"sensible	0.00195935
-4.489888	"shall	0.002352487
-4.790918	"shoot	0.0002855495
-4.790918	"significant	-4.140926e-05
-4.790918	"smart"	-4.140926e-05
-4.790918	"smarty-pants".	0.02244275
-4.790918	"sneak"	0.000338308
-4.790918	"something	0.005244602
-4.790918	"special"	0.004842802
-4.790918	"spins"	0.005312199
-4.790918	"spray	0.01588239
-4.790918	"state's	-4.492361e-05
-4.790918	"stop	0.0003875548
-4.790918	"stopped"..by	0.01588239
-4.790918	"stopping	-4.492361e-05
-4.790918	"style"	-4.140926e-05
-4.790918	"successful",	0.0001554397
-4.790918	"talk".	0.02244275
-4.790918	"team	-4.492361e-05
-4.790918	"terrible	-4.492361e-05
-3.887828	"the	0.0006727604
-4.614827	"they	0.001074977
-4.614827	"this	0.0001034875
-4.790918	"threat",	-3.789488e-05
-4.790918	"total	-4.492361e-05
-4.790918	"treat".	0.02244275
-4.790918	"treated"	-4.492361e-05
-4.790918	"trolling	-4.492361e-05
-4.790918	"unarmed"	5.700409e-05
-4.790918	"undesirables"(	-4.140926e-05
-4.790918	"unloaded"	0.0001519237
-4.790918	"use	0.0003875548
-4.790918	"vacuous	8.864166e-05
-4.790918	"warrior	-4.492361e-05
-4.790918	"wasting"	-4.140926e-05
-4.790918	"we	0.0001027035
-4.790918	"weapon	0.007684706
-4.790918	"weapon"	4.997379e-05
-4.790918	"weapon".	0.02244275
-4.790918	"well	-4.492361e-05
-4.489888	"what	-7.150578e-05
-4.790918	"what's	0.008633766
-4.790918	"whenever	0.000707796
-4.614827	"why"	0.01584137
-4.790918	"window	-4.492361e-05
-4.790918	"would	0.001116358
-4.790918	"wrong".	0.02244275
-4.790918	"yes,	0.01588239
-4.313797	"you	0.001217823
-4.790918	"you're	-1.329346e-05
-4.790918	"your"	-4.492361e-05
-4.790918	"youths"	0.005312199
-4.790918	####	-1.680801e-05
-4.392978	#1	0.005264164
-4.790918	#1.	0.02244275
-4.790918	#161.	0.02244275
-4.790918	#1:	0.0006021961
-4.790918	#2	0.007684706
-4.790918	#2:	0.0006021961
-4.790918	#955	-4.492361e-05
-4.790918	#GodBlessAmerica.	0.02244275
-4.790918	#RepealHughesAmendment.	0.02244275
-4.790918	$	0.001084646
-4.790918	$$$$.	0.02244275
-4.790918	$.02.	0.02244275
-4.790918	$10	0.008633766
-4.790918	$100	-3.086605e-05
-4.614827	$1000	-6.524565e-05
-4.790918	$14	0.0001097346
-4.790918	$174,000?	0.02244275
-4.790918	$189.00	-3.789488e-05
-4.614827	$200	0.004339713
-4.790918	$230,	0.0004227347
-4.790918	$25K]?".	0.02244275
-4.790918	$3.30	0.001056458
-4.790918	$30$35	0.001056458
-4.614827	$400	0.001797964
-4.790918	$5.4	0.0001097346
-4.790918	$50-100	0.008633766
-4.790918	$500	4.27988e-06
-4.790918	$550	-3.086605e-05
-4.790918	$60.99(24%)	-4.492361e-05
-4.790918	$600	-4.140926e-05
-4.790918	$63,300	0.004842802
-4.790918	$725	-4.492361e-05
-4.790918	$890.00.	0.02244275
-4.790918	$900.00	0.01041931
-4.614827	%	0.007658732
-3.711737	&	0.0242484
-4.790918	'74	0.007112693
-4.790918	'75.	0.02244275
-4.790918	'Beat'	-3.789488e-05
-4.614827	'Children's	-8.98471e-05
-4.790918	'Clipdraw'	0.002499867
-4.790918	'GOT	-4.492361e-05
-4.790918	'Holy	-4.492361e-05
-4.790918	'If	0.00195935
-4.790918	'Open	-4.492361e-05
-4.790918	'Stand"	-6.264213e-06
-4.790918	'arms	0.003179115
-4.790918	'arms'	7.79461e-06
-4.790918	'assault	-4.492361e-05
-4.790918	'attacking	-4.492361e-05
-4.790918	'back	-4.492361e-05
-4.790918	'bad'	-4.140926e-05
-4.790918	'base'	0.002118257
-4.790918	'civilians'	0.002118257
-4.790918	'collective	-4.492361e-05
-4.790918	'counteroffensive'.	0.02244275
-4.790918	'defense'.	0.02244275
-4.392978	'em	0.012646
-4.790918	'em!	0.02244275
-4.790918	'fodder'	0.003179115
-4.790918	'great	-4.492361e-05
-4.614827	'gun	-8.98471e-05
-4.790918	'guns'?	0.02244275
-4.790918	'ideal'	0.0005458863
-4.790918	'more	0.0005670015
-4.790918	'n	-4.492361e-05
-4.790918	'necessary'?	0.02244275
-4.790918	'need'	0.005244602
-4.790918	'no	-4.492361e-05
-4.790918	'off	0.01588239
-4.790918	'over-reaching	-4.492361e-05
-4.790918	'power	0.007684706
-4.790918	'reality'...	0.0002398308
-4.790918	'reality'?.	0.02244275
-4.790918	'reasonable	-4.492361e-05
-4.790918	'right	0.007684706
-4.790918	'safety	-4.492361e-05
-4.790918	'safety'	0.001197412
-4.790918	'select	-4.492361e-05
-4.790918	'silent'	-4.492361e-05
-4.790918	'solution'.	0.02244275
-4.790918	'take	0.0009225954
-4.614827	'the	4.372032e-05
-4.614827	'we	0.003141325
-4.790918	'well	-2.032258e-05
-3.861499	(	0.02601873
-4.790918	("I	0.000581079
-4.790918	("I")	0.001546468
-4.790918	("There	0.003179115
-4.790918	("tricks").	0.02244275
-4.790918	(.56)	0.007112693
-4.790918	(.72).	0.02244275
-4.790918	(1	-4.492361e-05
-4.790918	(1)	-4.140926e-05
-4.790918	(11th	0.004842802
-4.790918	(15%)	0.0006549928
-4.790918	(1689).	0.02244275
-4.790918	(17%)	-3.438047e-05
-4.790918	(1825)	-3.789488e-05
-4.790918	(1833)	-3.789488e-05
-4.790918	(1846)	-1.329346e-05
-4.790918	(1859)	0.001624074
-4.790918	(1875)	0.01588239
-4.790918	(19%)	-1.329346e-05
-4.790918	(1901)	-4.492361e-05
-4.790918	(1957);	-4.140926e-05
-4.790918	(1970)	-4.492361e-05
-4.790918	(1981).	0.02244275
-4.790918	(1994)	-3.789488e-05
-4.790918	(1994-2004),	0.007112693
-4.790918	(1999-2005),	0.0009014628
-4.790918	(2	-2.749535e-06
-4.790918	(2.9%	0.007684706
-4.790918	(2008)	-4.140926e-05
-4.790918	(2008-?).	0.02244275
-4.489888	(2017):	-0.0001347705
-4.790918	(2017):59,495	-3.438047e-05
-4.790918	(3	-3.438047e-05
-4.790918	(3-5%)."	0.02244275
-4.790918	(3532)	-4.492361e-05
-4.614827	(5)	-5.683981e-05
-4.790918	(5-7%)	0.001525305
-4.790918	(61%)	0.0006549928
-4.790918	(7-shot)	-3.086605e-05
-4.790918	(72%)	0.0002398308
-4.790918	(88th	-4.140926e-05
-4.790918	(9-shot)	0.0002503809
-4.790918	(Aftermarket)	-4.492361e-05
-4.790918	(Also	-4.492361e-05
-4.790918	(Bureau	0.007684706
-4.790918	(CTA)	0.01588239
-4.790918	(Ccw)	0.0001519237
-4.790918	(Charleston),	-3.438047e-05
-4.790918	(Columbine),	0.001310208
-4.790918	(D)	0.0009789538
-4.790918	(DUHHH!!!	0.02244275
-4.790918	(Emphasis	-4.492361e-05
-4.614827	(GOP	-6.738303e-05
-4.790918	(He	0.0005177343
-4.790918	(Hence	-4.492361e-05
-4.614827	(Highest	0.004816829
-4.790918	(Hint:	0.01588239
-4.313797	(I	0.0009437881
-4.489888	(I'm	0.01153032
-4.790918	(IM	0.0001062191
-4.790918	(Including	-4.140926e-05
-4.790918	(Indianapolis:	-3.086605e-05
-4.790918	(It's	0.008633766
-4.790918	(Just	0.00166641
-4.790918	(Limited	2.185389e-05
-4.790918	(Most	0.007684706
-4.489888	(New	-8.418865e-05
-4.489888	(Not	0.0009855806
-4.614827	(PPP)	9.782347e-05
-4.790918	(Part	-4.492361e-05
-4.790918	(Pierce	3.239865e-05
-4.790918	(RAPS).	0.02244275
-4.790918	(SYG	-4.492361e-05
-4.790918	(Scalia,	-4.492361e-05
-4.790918	(See	7.106493e-05
-4.790918	(Small	-9.778827e-06
-4.790918	(Stevens,	-4.492361e-05
-4.790918	(Such	0.00166641
-4.614827	(The	-6.876024e-05
-4.614827	(Thomas	-4.278177e-05
-4.790918	(Trust	0.003430566
-4.790918	(Unless,	0.007684706
-4.790918	(VT?	0.02244275
-4.790918	(WA)	0.0005670015
-4.790918	(Websters	8.864166e-05
-4.790918	(Which	-2.749535e-06
-4.614827	(a	-2.658343e-05
-4.489888	(a.k.a.	0.02239081
-4.790918	(abortion),	0.007112693
-4.790918	(according	0.01041931
-4.614827	(again,	-5.118706e-05
-4.790918	(all	-4.492361e-05
-4.790918	(among	-4.492361e-05
-4.012767	(and	0.006018342
-4.790918	(arguably	-4.492361e-05
-4.790918	(armed	0.002118257
-4.614827	(as	0.004829947
-4.614827	(at	0.01595441
-4.790918	(ballpark	7.79461e-06
-4.790918	(bartender,	-4.492361e-05
-4.790918	(be	0.002588251
-4.790918	(becoming	0.001056458
-4.790918	(believe	0.002588251
-4.790918	(born	0.004842802
-4.790918	(boxe	-4.492361e-05
-4.489888	(but	0.0009419846
-4.790918	(certainly	0.002404433
-4.790918	(citizens	-3.086605e-05
-4.614827	(closer	0.01039334
-4.790918	(concealed	0.0001941169
-4.790918	(contending	0.005312199
-4.614827	(depending	0.001802765
-4.790918	(diapers)	0.0009789538
-4.790918	(does	0.002404433
-4.790918	(duh!	0.02244275
-4.790918	(e.g.	0.02244275
-4.489888	(emphasis	-0.0001123049
-4.614827	(especially	0.009842071
-4.790918	(especially)	0.0001132503
-4.614827	(even	0.01711194
-4.790918	(false)	-4.492361e-05
-4.489888	(for	0.001753071
-4.790918	(from	0.0009261175
-4.790918	(good	-4.492361e-05
-4.790918	(guest).	0.02244275
-4.790918	(guns)	0.001197412
-4.489888	(hereinafter	-0.0001347705
-4.790918	(hidden	-1.329346e-05
-4.790918	(high	-2.735157e-05
-4.790918	(hopefully).	0.02244275
-4.614827	(however	-8.281826e-05
-4.614827	(i.e.	0.02241678
-4.489888	(if	0.005810006
-4.050556	(in	0.02711627
-4.614827	(including	-2.306851e-05
-4.790918	(intentional	0.001525305
-4.790918	(ironically)	0.0007113165
-4.790918	(irony	-4.492361e-05
-4.614827	(just	-2.658343e-05
-4.790918	(known	0.00166641
-4.790918	(lack	-4.140926e-05
-4.790918	(leaning	-2.735157e-05
-4.790918	(legally).	0.02244275
-4.614827	(let	-6.524567e-05
-4.790918	(mama	0.001010658
-4.790918	(many	0.007684706
-4.790918	(me)	0.00100009
-4.790918	(more	0.0007183572
-4.790918	(most?)	0.02244275
-4.790918	(never	-4.492361e-05
-4.790918	(newspaper	-4.492361e-05
-4.489888	(no	-0.000131256
-4.614827	(nominal)	9.782347e-05
-4.392978	(not	0.0007984394
-4.790918	(occupy	-4.492361e-05
-4.790918	(on	0.01588239
-4.614827	(one	-8.98471e-05
-3.813195	(or	0.02556765
-4.790918	(other	0.0005670015
-4.790918	(otherwise	0.0003699661
-4.790918	(particularly	0.004842802
-4.790918	(pdf).	0.02244275
-4.790918	(people	-3.086605e-05
-4.790918	(perhaps	-2.383708e-05
-4.790918	(personally)	0.0001027035
-4.790918	(pre-ban	-4.492361e-05
-4.790918	(primarily	-2.735157e-05
-4.790918	(regulate)	0.01041931
-4.790918	(rejecting	1.13094e-05
-4.790918	(remember	0.01588239
-4.790918	(reprinted	-4.492361e-05
-4.790918	(right/wrong/morality--get	-4.492361e-05
-4.790918	(rings	0.001525305
-4.790918	(say	-4.492361e-05
-4.614827	(see	-6.035424e-05
-4.790918	(shot	0.002404433
-4.790918	(some	8.161088e-05
-4.790918	(sources	5.700409e-05
-4.790918	(still	0.002404433
-4.790918	(stores).	0.02244275
-4.614827	(such	0.001640436
-4.489888	(that	0.003493195
-4.313797	(the	-0.000203529
-4.790918	(there's	0.002404433
-4.489888	(they	0.00753072
-4.790918	(they're	0.001056458
-4.790918	(things	0.000841593
-4.790918	(those	0.007684706
-4.790918	(though	0.0003910727
-4.790918	(true	-4.140926e-05
-4.790918	(two	-4.492361e-05
-4.790918	(unintentional):78205	-4.492361e-05
-4.790918	(unlicensed)	-4.492361e-05
-4.790918	(welfare/	-4.492361e-05
-4.790918	(whatever	0.005312199
-4.790918	(where	-4.492361e-05
-4.790918	(whether	0.005312199
-4.188858	(which	0.01637429
-4.790918	(which,	0.0003629306
-4.790918	(while	0.003430566
-4.489888	(who	0.004480642
-4.489888	(with	0.01019662
-4.790918	(without	4.997379e-05
-4.790918	(yes)	0.0001484078
-4.614827	(yes,	0.0001491973
-4.790918	(you)	0.00100009
-4.188858	)	0.01236347
-4.614827	),	0.00821627
-4.790918	).	0.02244275
-4.790918	)standard	-4.140926e-05
-3.978005	****	0.01858973
-4.790918	****"	0.004842802
-4.790918	****,	0.003430566
-4.614827	****.	0.02241678
-4.614827	****ing	-8.281827e-05
-4.790918	*EDIT*	-3.438047e-05
-4.790918	*WAAAYYYY*	0.0009014628
-4.790918	*braces	-4.492361e-05
-4.790918	*flex	-4.492361e-05
-4.790918	*not*	-4.492361e-05
-4.790918	*the	0.0007218779
-4.790918	*then*	0.001200936
-4.790918	*yawn*	-4.492361e-05
-4.790918	+/-	-4.492361e-05
-4.790918	+50%	-3.438047e-05
-4.790918	+P	-6.264213e-06
-4.790918	+P+	-3.789488e-05
-4.790918	+P.	0.02244275
-3.887828	,	0.03712518
-4.790918	,,,gloves	0.0006514729
-2.907257	-	0.0937617
-4.313797	--	0.01865963
-4.188858	---	0.01943761
-4.790918	----	-2.032258e-05
-4.790918	------------	-4.492361e-05
-4.790918	-----------------------------------------------------	0.0001624716
-4.614827	------>	0.000147046
-4.790918	--gun	0.0001624716
-4.790918	--violent	0.0001624716
-4.614827	-.	0.02241678
-4.790918	-A	0.0001835682
-4.790918	-All	0.0002855495
-4.790918	-Benjamin	-4.492361e-05
-4.790918	-VySky	-4.492361e-05
-4.392978	-VySky.	0.02236484
-4.790918	-_-	-6.264213e-06
-4.790918	-are-	0.008633766
-4.790918	-chuckles-	0.0002398308
-4.790918	-wing	-4.492361e-05
-3.32852	.	0.02099061
-4.313797	..	0.02233866
-3.600586	...	0.04625298
-4.790918	..."	0.0001519237
-4.313797	....	0.007559187
-4.614827	.....	0.007067886
-4.790918	.......	0.02244275
-4.790918	.......I	2.536877e-05
-4.790918	.....nothing	-4.492361e-05
-4.790918	.....then	0.004622505
-4.790918	....But	0.001804032
-4.790918	....But...Anyone	0.00100009
-4.790918	....To	0.0001027035
-4.790918	....and	0.008633766
-4.790918	....throw	0.008633766
-4.790918	.../s	-4.492361e-05
-4.790918	...Like	0.0003277558
-4.790918	...WHAT	-3.789488e-05
-4.790918	...and	1.833904e-05
-4.614827	...which	0.001174962
-4.790918	..Federal	-4.492361e-05
-4.790918	..deceitful.."you	0.001010658
-4.790918	.0257	0.007112693
-4.790918	.078	7.79461e-06
-4.614827	.08	0.001499331
-4.790918	.094977	0.001624074
-4.489888	.22	0.001132278
-4.392978	.223	0.01340744
-4.614827	.223,	0.007150068
-4.790918	.223-caliber	6.403442e-05
-4.489888	.22LR	0.005173793
-4.790918	.22LR,	-4.492361e-05
-4.790918	.22LR.	0.02244275
-4.790918	.308	0.004842802
-4.790918	.32	-2.735157e-05
-4.313797	.357	-0.0001304754
-4.790918	.357.	0.02244275
-4.392978	.38	-0.0001480621
-4.790918	.38,	0.001546468
-4.790918	.380	-3.438047e-05
-4.790918	.38sp	0.0001027035
-4.614827	.40	-2.658342e-05
-4.313797	.45	0.006851296
-4.790918	.45,	0.0004860653
-4.790918	.45ACP,	-4.492361e-05
-4.790918	.45acp	0.005244602
-4.614827	.46	-5.332534e-05
-4.790918	.60-caliber	-4.492361e-05
-4.790918	.67-caliber	6.403442e-05
-4.790918	.905	-4.492361e-05
-4.790918	.The	-4.492361e-05
-4.012767	/	0.004710851
-4.790918	/b	0.004622505
-4.790918	/feelgood	0.001116358
-4.790918	/flush.	0.02244275
-4.790918	/i	0.001525305
-4.790918	/quote	0.001525305
-4.790918	/thread	1.13094e-05
-4.790918	0	0.01041931
-4.614827	0.	0.02241678
-4.790918	0.0025%	0.007684706
-4.790918	0.0602	-4.492361e-05
-4.790918	0.62	0.0001237972
-4.790918	0.72	-3.086605e-05
-4.790918	00	0.005244602
-4.790918	0079234323252_180X180.jpg	-4.492361e-05
-4.790918	0200	-4.492361e-05
-4.012767	1	0.00712321
-4.614827	1"	-8.281826e-05
-4.790918	1")	0.001525305
-4.790918	1",	0.003430566
-4.614827	1%	0.007689997
-4.137706	1)	0.006634715
-4.790918	1,	-4.140926e-05
-4.790918	1,070	-2.735157e-05
-4.614827	1,149	2.262797e-05
-4.790918	1,300	7.106493e-05
-4.790918	1,600+	0.004842802
-4.614827	1-	0.00051153
-4.790918	1-2	0.0001519237
-4.790918	1-3	-3.438047e-05
-4.188858	1.	0.03905897
-4.790918	1......	-9.778827e-06
-4.790918	1.1	0.0001097346
-4.790918	1.2	0.0001097346
-4.790918	1.3	-3.789488e-05
-4.790918	1.4	-3.438047e-05
-4.790918	1.5	0.0001097346
-4.790918	1.7B	-3.789488e-05
-4.790918	1.Register	-4.492361e-05
-4.313797	1/2	0.007992355
-4.614827	1/2"	0.01041056
-4.614827	1/4"	0.01041056
-3.749526	10	0.002293664
-4.790918	10%	0.007684706
-4.790918	10+	0.0001519237
-4.790918	10,265	0.001310208
-4.790918	10,6%	0.0001800521
-4.614827	10.	0.02241678
-4.790918	10.54	0.00195935
-4.790918	10.8	-1.329346e-05
-3.915857	100	0.0002561073
-3.94582	100%	0.01687446
-4.790918	100,	0.000528291
-4.091948	100,000	0.0012736
-4.790918	100,000.	0.02244275
-4.790918	100,000."	0.02244275
-4.790918	1000	9.567252e-05
-4.790918	1000-1300fps	-3.438047e-05
-4.790918	1000.	-4.492361e-05
-4.790918	100K+	4.997379e-05
-4.790918	101	0.007112693
-4.790918	101.5	4.645871e-05
-4.790918	103–106.	0.02244275
-4.790918	10mm	-4.492361e-05
-4.614827	10s	0.01023058
-4.614827	10th	0.0001105194
-4.489888	11	-8.908026e-05
-4.614827	11,	-8.281826e-05
-4.790918	11-30	4.997379e-05
-4.614827	11.	0.02241678
-4.790918	11/27/2012	-1.680801e-05
-4.790918	11th	-4.492361e-05
-3.978005	12	0.0133993
-4.614827	12"	-6.173104e-05
-4.790918	12")?	0.02244275
-4.790918	12,	-4.140926e-05
-4.790918	12,500	-4.492361e-05
-4.790918	12.	0.02244275
-4.790918	12."	0.02244275
-4.790918	121	-4.492361e-05
-4.790918	122	-4.492361e-05
-4.790918	122–134.	0.02244275
-4.790918	124	-4.492361e-05
-4.24685	13	0.002722344
-4.614827	13%	0.01492726
-4.790918	13,	-4.492361e-05
-4.790918	13.8	0.0001097346
-4.790918	1300's.	0.02244275
-4.790918	13A-6-23	0.0004860653
-4.790918	13A:	-4.140926e-05
-4.790918	13th	0.0001554397
-4.790918	13th,	-4.492361e-05
-4.313797	14	0.008530824
-4.614827	14,	-8.63327e-05
-4.790918	14.7	0.0001097346
-4.790918	143	8.161088e-05
-4.790918	145	0.002499867
-4.614827	14th	0.007278732
-3.94582	15	0.008858797
-4.614827	15,	0.004581209
-4.489888	150	-0.0001031393
-4.614827	150,000	2.614328e-05
-4.614827	1500	-6.035424e-05
-4.790918	150MPH?	0.02244275
-4.790918	1580.	0.02244275
-4.790918	1580.jpg	0.0004860653
-4.790918	15K	0.0004825469
-4.790918	15th	-4.492361e-05
-4.790918	15th,	0.007112693
-4.489888	16	0.001273289
-4.790918	16.3	0.0001097346
-4.790918	16.4	0.0001097346
-4.790918	16.6	0.0001097346
-4.790918	1600	-4.492361e-05
-4.790918	1671	-4.492361e-05
-4.790918	1680	-1.329346e-05
-4.790918	1680.	0.02244275
-4.614827	1680:	-3.223798e-05
-4.790918	1688,	-4.492361e-05
-4.790918	1689,	-3.789488e-05
-4.24685	17	0.007490284
-4.790918	1718,	0.008633766
-4.790918	1721.	0.02244275
-4.790918	1721:	0.0001097346
-4.614827	175	0.0001070034
-4.790918	1754.	0.02244275
-4.790918	1775;	0.001624074
-4.614827	1776	-2.658343e-05
-4.790918	1776.	0.02244275
-4.790918	1776;	0.001624074
-4.790918	1776?	0.02244275
-4.790918	1778	-4.492361e-05
-4.790918	1778;	-4.492361e-05
-4.489888	1780:	-8.067398e-05
-4.790918	1787	0.007112693
-4.790918	1787;	0.001624074
-4.392978	1788	0.006996138
-4.790918	1788;	-3.789488e-05
-4.790918	1790;	-3.086605e-05
-4.790918	1791	8.864166e-05
-4.790918	1799-1806	4.294365e-05
-4.790918	17th	-3.789488e-05
-4.392978	18	0.001189605
-4.790918	180	-3.789488e-05
-4.790918	18255	5.700409e-05
-4.614827	1828	-3.926723e-05
-4.614827	1830's	0.0003180139
-4.790918	1833.	0.02244275
-4.790918	1836,	-4.140926e-05
-4.790918	1840's.	0.02244275
-4.790918	1845	0.0001237972
-4.790918	1850)	-4.492361e-05
-4.790918	1865.	0.02244275
-4.790918	1871.	0.02244275
-4.790918	1873	0.007112693
-4.790918	1880-90	-4.492361e-05
-4.790918	1894)	-4.492361e-05
-4.790918	18??	0.02244275
-4.790918	18th	-4.140926e-05
-4.392978	19	0.0005026561
-4.790918	19%	0.007684706
-4.614827	19,	0.007647064
-4.790918	19.	0.02244275
-4.790918	1900.	0.0001659877
-4.614827	1900s.	0.02241678
-4.790918	1903	-3.438047e-05
-4.790918	1904-5)	-4.140926e-05
-4.790918	1904-5);	-4.140926e-05
-4.392978	1911	0.001790641
-4.790918	1911:	-4.140926e-05
-4.790918	1911s	0.0006514729
-4.790918	1915-1917,	-4.492361e-05
-4.790918	1920"	-3.086605e-05
-4.790918	1927	0.004842802
-4.790918	1929-1953,	4.27988e-06
-4.790918	1929:	0.001624074
-4.614827	1930's	0.0008389446
-4.790918	1930.	0.02244275
-4.790918	1933.	0.02244275
-4.790918	1934	0.001592325
-4.790918	1935:	-2.735157e-05
-4.790918	1938:	-2.032258e-05
-4.790918	1939-1945,	-2.735157e-05
-4.790918	1940's.	0.02244275
-4.790918	1948-1952,	4.27988e-06
-4.790918	1953)	0.007112693
-4.790918	1956:	-4.492361e-05
-4.790918	1959	0.00100009
-4.790918	1959,	0.000352378
-4.790918	1960's	0.0004860653
-4.790918	1960s	0.007112693
-4.790918	1963,	0.01588239
-4.790918	1964	-3.789488e-05
-4.790918	1964.	0.02244275
-4.790918	1964:	-4.140926e-05
-4.790918	1965	0.004622505
-4.790918	1970's.	0.02244275
-4.790918	1970:	-4.492361e-05
-4.790918	1970s,	-2.735157e-05
-4.790918	1971-1979,	-4.140926e-05
-4.790918	1974,	-2.735157e-05
-4.790918	1975-1977,	-9.778827e-06
-4.790918	1975.	0.02244275
-4.790918	1977,	0.008633766
-4.790918	1979).	0.02244275
-4.790918	1981-1984,	-1.680801e-05
-4.614827	1981.	0.02241678
-4.790918	1982,	-4.492361e-05
-4.790918	1982.	0.02244275
-4.790918	1982?	0.02244275
-4.790918	1985	0.0006444327
-4.790918	1988),	-4.140926e-05
-4.790918	1990s	0.007112693
-4.790918	1991	0.001525305
-4.790918	1993	-4.492361e-05
-4.790918	1993,	0.01588239
-4.790918	1993.	0.02244275
-4.313797	1994	0.02010096
-4.614827	1996	0.0005995204
-4.790918	1996,	0.008633766
-4.790918	1997...to	2.536877e-05
-4.614827	1999	-7.93038e-05
-4.790918	19th	-3.789488e-05
-4.790918	1St	-4.492361e-05
-4.790918	1k,	0.004622505
-4.313797	1st	0.0001318608
-4.790918	1st,	-4.140926e-05
-3.813195	2	0.003456378
-4.188858	2)	0.005624621
-4.790918	2,	-4.492361e-05
-4.790918	2,000	0.007684706
-4.790918	2,000,000	8.161088e-05
-4.614827	2-	0.0005185686
-4.790918	2-3x/month.	0.02244275
-4.392978	2.	0.02236484
-4.790918	2.....	0.02244275
-4.790918	2.5	0.0001097346
-4.790918	2.5"	0.001525305
-4.790918	2.56	0.0001237972
-4.790918	2.5M	-4.492361e-05
-4.790918	2.Ban	-3.086605e-05
-4.790918	2.Nonsense.The	0.0007218779
-4.790918	2/3rds	0.007684706
-3.887828	20	0.0129466
-4.790918	20%	-4.492361e-05
-4.790918	20,	-3.438047e-05
-4.790918	20,000	0.0001941169
-4.790918	20-30	7.79461e-06
-4.790918	20-inch	-4.492361e-05
-4.614827	20/20.	0.02241678
-4.188858	200	9.479214e-05
-4.790918	2000	3.591363e-05
-4.790918	2000,	-9.778827e-06
-4.790918	2000;	-3.086605e-05
-4.790918	2001,	0.008633766
-4.790918	2001.	0.02244275
-4.790918	2001;	-4.492361e-05
-4.614827	2002	0.0006065604
-4.790918	2002;	-3.789488e-05
-4.790918	2003,	0.0006444327
-4.790918	2003;	-4.492361e-05
-4.790918	2004,	0.0002327977
-4.790918	2004.	0.02244275
-4.790918	2004;	-2.735157e-05
-4.790918	2005,	0.01588239
-4.790918	2005.	0.02244275
-4.790918	2005;	-4.492361e-05
-4.790918	2006,	0.0001484078
-4.790918	2006.	0.02244275
-4.790918	2006;	4.27988e-06
-4.489888	2007	0.0003329029
-4.790918	2007,	0.0007218779
-4.790918	2007.	0.02244275
-4.392978	2008	0.000235216
-4.790918	2008--217	0.0001519237
-4.614827	2009-2015	-4.629634e-05
-4.790918	200px-Jared_Loughner_USMS.jpg	-4.492361e-05
-4.790918	2010's	-3.789488e-05
-4.489888	2010,	0.02091995
-4.790918	2011	0.0005670015
-4.790918	2011,	0.008633766
-4.790918	2011The	-4.492361e-05
-4.790918	2012	-4.140926e-05
-4.614827	2012).	0.02241678
-4.614827	2012,	0.008607793
-4.790918	2013	-4.492361e-05
-4.790918	2013,	0.008633766
-4.614827	2013.	0.02241678
-4.392978	2014	0.0004081487
-4.489888	2014,	0.01771497
-4.790918	2014.	0.02244275
-4.614827	2015	-6.524567e-05
-4.614827	2015,	0.004797958
-4.790918	2015Known	0.0001308287
-4.392978	2016	0.01571559
-4.790918	2016,	-2.735157e-05
-4.489888	2016.	0.02239081
-4.188858	2017	0.01004078
-4.790918	2017,	1.482421e-05
-4.790918	2017.	0.02244275
-4.790918	2017...guess	0.001056458
-4.614827	2018	0.008259259
-4.790918	2018,	-2.032258e-05
-4.790918	2019	0.01041931
-4.614827	2020	0.002454985
-4.614827	2020.	0.02241678
-4.790918	2024	0.007112693
-4.790918	2034-38	-4.492361e-05
-4.790918	207,	-4.492361e-05
-4.614827	209	-3.009832e-05
-4.790918	20rd	-2.735157e-05
-4.614827	20th	-7.227479e-05
-4.392978	21	0.0004568981
-4.614827	21,	-6.035424e-05
-4.614827	21.	0.02241678
-4.790918	218;	0.00112693
-4.137706	22	0.01171191
-4.790918	22%.	0.02244275
-4.790918	22,	-3.438047e-05
-4.790918	222	-4.492361e-05
-4.790918	22?	0.02244275
-4.790918	22lr	0.007112693
-4.790918	22lr.	0.02244275
-4.790918	22nd	-3.789488e-05
-4.790918	22short.	0.02244275
-4.614827	23	-6.876024e-05
-4.614827	23,	-5.118708e-05
-4.790918	230	-3.438047e-05
-4.790918	236.9839	0.0001237972
-4.489888	24	0.007180314
-4.790918	24/7	0.007112693
-4.790918	24/7/365	0.004622505
-4.790918	2400	0.01041931
-4.790918	243	-4.492361e-05
-4.790918	248	-3.789488e-05
-4.313797	25	0.005339279
-4.790918	25%	0.007684706
-4.790918	25,	-3.438047e-05
-4.790918	25,000-50,000	8.161088e-05
-4.790918	25,2	0.0001237972
-4.790918	250	-3.438047e-05
-4.790918	2500	7.6516e-07
-4.614827	26	0.004797958
-4.614827	27	0.00147688
-4.790918	27%.	0.02244275
-4.790918	270	0.0001097346
-4.790918	2700fps	0.01041931
-4.790918	279	0.0001237972
-4.313797	28	0.002428871
-4.614827	2800	0.003134244
-4.790918	283;	0.0002609313
-4.790918	29	6.754964e-05
-4.790918	290,000	0.0006549928
-4.614827	297	0.0006417623
-3.978005	2A	0.006896992
-4.790918	2A,	0.001056458
-4.790918	2a.	0.02244275
-3.359555	2nd	0.0008431966
-4.614827	2nd,	0.0006065604
-4.614827	2nd.	0.02241678
-3.694008	3	0.001176742
-4.614827	3"	0.007078605
-4.790918	3",	0.00112693
-4.614827	3)	0.0015981
-4.614827	3,	-8.281826e-05
-4.790918	3,000	-3.789488e-05
-4.790918	3-	-4.492361e-05
-4.614827	3-D	-8.98471e-05
-4.313797	3.	0.02233887
-4.790918	3.1	0.001310208
-4.790918	3.26%	0.002118257
-4.790918	3.78	0.0001237972
-4.790918	3.Nonsense.	0.02244275
-4.050556	30	0.008344562
-4.790918	30,000+	0.00195935
-4.790918	30-30.	0.02244275
-4.790918	30/30	0.002499867
-4.614827	300	0.00142045
-4.614827	300+	8.376088e-05
-4.614827	300,000	-7.930381e-05
-4.790918	3000fps	-3.438047e-05
-4.614827	31	-6.738303e-05
-4.790918	31.5"	-4.492361e-05
-4.790918	310-320	0.0001097346
-4.790918	31–53	-4.492361e-05
-4.790918	32"	-3.086605e-05
-4.489888	33	9.997772e-05
-4.790918	33%	-4.140926e-05
-4.614827	34	0.0004600916
-4.790918	34%	-3.438047e-05
-4.790918	35%	0.007112693
-4.790918	35,000	0.001310208
-4.790918	350	0.0001097346
-4.614827	36	-8.98471e-05
-4.790918	37,000	0.001310208
-4.790918	386	-4.492361e-05
-4.790918	38sp	-4.492361e-05
-4.790918	39%	0.007684706
-4.790918	394,	0.001084646
-4.790918	3:00	-4.492361e-05
-4.614827	3rd	0.002412567
-3.978005	4	0.01248449
-4.790918	4)	0.0002890666
-4.790918	4,450.	0.02244275
-4.313797	4.	0.02311306
-4.790918	4.1	0.0004860653
-4.790918	4.7	0.0001097346
-4.790918	4.You	0.001310208
-4.790918	40	3.239865e-05
-4.790918	40'	0.001197412
-4.790918	40+	-4.492361e-05
-4.790918	40,	0.008633766
-4.790918	40,000	0.001310208
-4.790918	40.	0.02244275
-4.790918	400	-3.789488e-05
-4.790918	400-600	0.0001097346
-4.790918	400K	0.005244602
-4.790918	401-402	-4.492361e-05
-4.790918	40mm	-4.140926e-05
-4.790918	40sw	-3.086605e-05
-4.790918	41	1.13094e-05
-4.790918	420	-4.492361e-05
-4.790918	43	7.6516e-07
-4.790918	44	4.27988e-06
-4.790918	44-barreled	-4.492361e-05
-4.790918	441	-4.492361e-05
-4.790918	442..	-3.086605e-05
-4.790918	4473,	0.007112693
-4.137706	45	0.01015082
-4.790918	45.	-2.735157e-05
-4.790918	450	-4.492361e-05
-4.489888	452	0.0007531042
-4.790918	45ACP	-3.789488e-05
-4.790918	46000	-3.789488e-05
-4.790918	466	4.997379e-05
-4.790918	47,173	-3.438047e-05
-4.790918	48	0.002499867
-4.489888	49%	-4.338521e-05
-4.790918	49,	0.007112693
-4.790918	49,882	-3.438047e-05
-4.790918	4k	0.000338308
-4.489888	4th	0.007248227
-4.790918	4th,	-4.492361e-05
-4.188858	5	0.0194452
-4.489888	5%	0.01026141
-4.790918	5)	0.001624074
-4.790918	5,	-4.492361e-05
-4.790918	5,000	0.001310208
-4.790918	5-10	0.0002011495
-4.614827	5-6	-7.578931e-05
-4.790918	5-8	-1.329346e-05
-4.489888	5.	0.02267213
-4.790918	5.56	-4.492361e-05
-4.790918	5.There	0.0006514729
-3.915857	50	0.01994287
-4.489888	50%	0.0129152
-4.790918	50,000	0.00195935
-4.790918	50,000)	-4.492361e-05
-4.790918	50-53	-4.140926e-05
-4.790918	50.	0.02244275
-4.614827	500	-1.252359e-05
-4.790918	500,000	0.01041931
-4.489888	51	0.00244192
-4.790918	52%	-4.140926e-05
-4.790918	542	-4.492361e-05
-4.790918	55	-4.140926e-05
-4.790918	55.	0.02244275
-4.790918	550	0.0001519237
-4.790918	554	2.185389e-05
-4.790918	56	0.0001097346
-4.790918	56%.	0.02244275
-4.790918	56,135	-3.438047e-05
-4.790918	56906	-4.492361e-05
-4.790918	570	-4.492361e-05
-4.790918	586	0.004842802
-4.790918	59	0.001310208
-4.790918	59,495	-3.438047e-05
-4.614827	5th	-7.227479e-05
-4.614827	6	0.0001421647
-4.489888	6"	0.002452527
-4.790918	6)	0.0002890666
-4.614827	6,	0.0003250494
-4.790918	6,500	0.00195935
-4.392978	6.	0.02236484
-4.790918	6.4	0.0001237972
-4.790918	6.5	-4.492361e-05
-4.790918	6.They	-4.492361e-05
-4.790918	60%	0.007684706
-4.790918	60.	0.02244275
-4.790918	60Hz	-4.492361e-05
-4.790918	63	-3.086605e-05
-4.790918	63%	0.007684706
-4.790918	630,000	0.001310208
-4.614827	642	0.002119286
-4.614827	65	0.00245852
-4.790918	67).	0.02244275
-4.790918	67139975	0.001624074
-4.790918	68	0.00195935
-4.790918	68)	-4.492361e-05
-4.790918	6th	0.0001554397
-4.050556	7	0.005112628
-4.790918	7%	0.007684706
-4.790918	7)	-4.492361e-05
-4.614827	7-shot	0.007086719
-4.614827	7.	0.02241678
-4.790918	7.5	-1.329346e-05
-4.790918	7.If	0.01588239
-4.790918	70	-4.492361e-05
-4.790918	70%	0.007684706
-4.790918	70-90%	0.007684706
-4.790918	70-year-old	8.512625e-05
-4.790918	71	0.0001519237
-4.790918	72%	0.0001378602
-4.790918	720p	-4.492361e-05
-4.790918	73%	0.0001800521
-4.790918	73rd	-4.492361e-05
-4.790918	74%	0.007684706
-4.790918	7464027510_9818a56532.jpg	-4.492361e-05
-4.790918	7464029606_cf3da9a5e1.jpg	-4.492361e-05
-4.188858	75	0.01037485
-4.392978	75%	0.007622808
-4.790918	75,	-4.492361e-05
-4.790918	755	8.161088e-05
-4.790918	75mph	0.0006620327
-4.790918	75s	0.0001800521
-4.790918	76	-4.492361e-05
-4.790918	78;	-4.492361e-05
-4.790918	7th	0.0001554397
-4.137706	8	0.01062122
-4.489888	8,	-0.0001207125
-4.790918	8,000	0.001310208
-4.790918	8-shot,	-4.492361e-05
-4.614827	8.	0.02241678
-4.790918	80	-1.680801e-05
-4.790918	80+	0.0001097346
-4.790918	80,000	0.001310208
-4.790918	800	-4.140926e-05
-4.790918	81	0.001525305
-4.790918	8100	0.0004860653
-4.790918	8108	0.002499867
-4.790918	82	0.002499867
-4.790918	83.	0.02244275
-4.790918	84	0.001624074
-4.790918	85	0.01041931
-4.790918	870	-4.492361e-05
-4.392978	9	-0.0001255953
-4.790918	9-0	-4.492361e-05
-4.790918	9-and-11	-9.778827e-06
-4.614827	9-shot	-6.738303e-05
-4.614827	9.	0.02241678
-4.790918	9.9-11.24	0.001021227
-4.790918	9/11,	0.001200936
-4.790918	90	-1.680801e-05
-4.24685	90%	0.007554853
-4.790918	90's.	0.02244275
-4.790918	90's.It	0.0001027035
-4.790918	90?	0.02244275
-4.790918	91.5	0.001310208
-4.790918	911	0.0002046659
-4.392978	92	-5.881018e-05
-4.790918	922(d),	0.002588251
-4.489888	95%	2.692424e-05
-4.790918	95-98%	0.007684706
-4.790918	96	1.13094e-05
-4.790918	96%	0.007684706
-4.790918	98%	0.007684706
-4.790918	99	9.567252e-05
-4.790918	99%	-3.438047e-05
-4.790918	99.9%	0.007684706
-4.790918	9:08	-4.492361e-05
-4.790918	9:38.	0.02244275
-4.790918	9MM,	-4.140926e-05
-3.813195	9mm	0.02026346
-4.790918	9mm,	0.002316087
-4.790918	9mms	0.003179115
-4.614827	9th	-3.712803e-05
-4.790918	9th.	0.02244275
-3.915857	:	0.0001187943
-4.790918	:....Because	0.002588251
-4.790918	:doublefacepalm:	3.942864e-05
-4.790918	:eye	-4.492361e-05
-4.313797	;	0.01279681
-1.296903	</s>
-99	<s>	-0.0242627
-5.087926	<unk>
-4.137706	=	0.001050093
-4.790918	>	-4.140926e-05
-4.790918	>"	0.0002503809
-4.790918	>>	-4.492361e-05
-3.836676	?	0.02202736
-4.313797	?.	0.02233887
-4.790918	?...I	-3.789488e-05
-4.614827	??	0.02241678
-4.790918	??.	0.02244275
-4.489888	???	0.02239081
-4.790918	@Checkerboard	0.0006021961
-4.790918	@MailOnline	0.001828739
-4.790918	@RepDianaDeGette	0.007112693
-4.790918	@everyone	2.88837e-05
-4.790918	@thread	0.0003136865
-3.15745	A	0.005109065
-4.614827	A,	4.372033e-05
-4.790918	A-10	-1.329346e-05
-4.790918	A.	-4.492361e-05
-4.790918	A1.	0.02244275
-4.790918	ABSOLUTELY!	0.02244275
-4.614827	ACA.	0.02241678
-4.790918	ACLU	8.161088e-05
-4.790918	ACP.	0.02244275
-4.790918	ACTUAL	4.27988e-06
-4.790918	ADHD	0.007112693
-4.790918	AF	0.002761536
-4.614827	AGAIN,	0.005324295
-4.790918	AID.	0.02244275
-4.790918	AJ	-2.383708e-05
-4.790918	AK	-2.735157e-05
-4.614827	AK-47	0.003679837
-4.790918	AK-47?	0.02244275
-4.790918	AK-47s,	0.002499867
-4.790918	AK-74	-3.086605e-05
-4.091948	ALL	0.0184301
-4.790918	ALONE.	0.02244275
-4.790918	ALSO	-3.789488e-05
-4.790918	ALWAYS	0.0005036591
-4.790918	AMEN	-2.383708e-05
-4.790918	AMONG	-3.438047e-05
-4.489888	AND	0.004973534
-4.489888	AND,	0.003457755
-4.790918	ANSWER	-3.789488e-05
-4.790918	ANSWER!!!!.	0.02244275
-4.392978	ANY	-6.369957e-05
-4.790918	ANYBODY	-4.492361e-05
-4.790918	ANYONE	-3.086605e-05
-4.188858	AR	0.01299784
-4.790918	AR's	0.002499867
-4.790918	AR,	0.0007183572
-3.915857	AR-15	0.01991338
-4.790918	AR-15's	0.0003453428
-4.614827	AR-15,	0.000923479
-4.489888	AR-15.	0.02239081
-4.790918	AR-15?	0.02244275
-4.790918	AR-15?.	0.02244275
-4.489888	AR-15s	0.01032261
-4.790918	AR-15s.	0.02244275
-4.790918	AR.	0.02244275
-4.489888	AR15	0.005521507
-4.790918	AR15,	-4.492361e-05
-4.313797	ARE	-0.0001437744
-4.790918	AREN'T	0.01588239
-4.790918	ARGUE	4.27988e-06
-4.790918	ARMS"	-4.492361e-05
-4.790918	AT	4.27988e-06
-4.790918	ATF	-4.492361e-05
-4.790918	AWAY.	0.02244275
-4.790918	AWB	-3.438047e-05
-4.790918	AWOL	-4.492361e-05
-4.790918	Aaron	-3.789488e-05
-4.790918	Abbott	-4.140926e-05
-4.790918	Abiding	-4.492361e-05
-4.790918	Abolishing	0.001334886
-4.790918	Abortion	0.0009578185
-4.790918	Abortion.	0.02244275
-4.790918	Abortion:627698	-4.492361e-05
-4.790918	About	0.01588239
-4.790918	Above	0.01041931
-4.790918	Absolutely	-4.140926e-05
-4.790918	Abuse:14373	-4.492361e-05
-4.790918	Academies,	0.01588239
-4.790918	Accept	0.0002714817
-4.790918	Accident	-4.492361e-05
-4.614827	Accidentally	-6.738303e-05
-4.392978	According	0.01034139
-4.790918	Accounting	-3.789488e-05
-4.614827	Act	0.007689997
-4.614827	Act,	0.01847791
-4.790918	Action.	0.02244275
-4.790918	Activists"	-3.086605e-05
-4.313797	Actually	0.007527925
-4.392978	Actually,	0.00385608
-4.790918	Adam	-4.140926e-05
-4.614827	Adams	-8.281827e-05
-4.790918	Add	-3.438047e-05
-4.614827	Additional	5.051857e-06
-4.790918	Additionally,	-1.680801e-05
-4.790918	Adjustable	-2.735157e-05
-4.790918	Administration	0.001592325
-4.790918	Adolph	-3.438047e-05
-4.614827	Adoption	0.007658732
-4.790918	Adults	0.000841593
-4.790918	Advocating	-1.329346e-05
-4.489888	Affirmative	0.002477275
-4.790918	Afghan	-4.492361e-05
-4.790918	Afghanistan	0.001525305
-4.614827	Africa	0.005246014
-4.392978	African	-6.36996e-05
-4.790918	African-Americans	0.0001519237
-4.790918	African???	0.02244275
-3.861499	After	0.01715751
-4.489888	Again	0.02339866
-4.188858	Again,	0.005852703
-4.790918	Again.....	-3.789488e-05
-4.614827	Against	0.01583773
-4.790918	Age	-3.789488e-05
-4.790918	Agency.Crimes	-4.140926e-05
-4.790918	Agency.Despite	-4.140926e-05
-4.790918	Agent	-1.329346e-05
-4.790918	Agonistes	-4.492361e-05
-4.614827	Agreed,	0.01705344
-4.489888	Agreed.	0.02239081
-4.614827	Ah	5.051837e-06
-4.790918	Aha.	0.02244275
-4.137706	Air	-0.0002617177
-4.790918	Airmen	2.536877e-05
-4.790918	Airports	0.000443844
-4.790918	Akita	0.005312199
-4.790918	Alabama	0.0004860653
-4.790918	Aladdin	0.0002187315
-4.790918	Alarm	-9.778827e-06
-4.790918	Alaska	0.007112693
-4.392978	Alaska.	0.02236484
-4.614827	Albania	-6.524567e-05
-4.790918	Alcohol:57481	-4.492361e-05
-4.790918	Alex	-3.789488e-05
-4.790918	Alfred	-4.492361e-05
-4.790918	Algore	-4.140926e-05
-4.790918	Algore's	-4.492361e-05
-4.790918	Alito).	0.02244275
-3.600586	All	0.04646932
-4.489888	Allen	-0.000106654
-4.790918	Allies	0.001546468
-4.790918	Allowed",	0.001525305
-4.790918	Allowing	0.01588239
-4.392978	Almost	0.001023933
-4.790918	Along	0.002118257
-4.790918	Alright	6.051924e-05
-3.978005	Also	0.03509092
-4.188858	Also,	0.02193493
-4.790918	Alstyne	8.161088e-05
-4.790918	Alternative	0.002499867
-4.392978	Although	0.005290145
-4.790918	Although,	0.0003277558
-4.614827	Always	0.0003883734
-4.790918	Alzheimer's	-4.492361e-05
-4.790918	Am	0.004622505
-4.790918	Amend	0.01588239
-3.306618	Amendment	0.07410868
-4.614827	Amendment').	0.02241678
-4.790918	Amendment).	0.02244275
-4.392978	Amendment,	0.03622827
-3.978005	Amendment.	0.02215713
-4.790918	Amendment.jpg	0.0001519237
-4.790918	Amendment;	0.01588239
-4.614827	Amendment?	0.02241678
-4.790918	Amendments	-4.140926e-05
-3.523746	America	0.04769092
-4.188858	America's	0.003742793
-4.790918	America)	0.0009014628
-4.24685	America,	0.00316372
-4.790918	America-	-1.329346e-05
-4.050556	America.	0.02220905
-3.489888	American	0.01188977
-4.790918	American"	0.001546468
-4.489888	American,	0.004562342
-4.489888	American.	0.02239081
-3.560469	Americans	0.06419327
-4.614827	Americans".	0.02241678
-4.489888	Americans,	0.002979628
-4.489888	Americans.	0.02239081
-4.790918	Americans..	0.0006021961
-4.790918	Americans?	0.02244275
-4.790918	Americas	0.00195935
-4.790918	Ammendment.	0.02244275
-4.790918	Ammo	-4.492361e-05
-4.790918	Ammunition	0.005244602
-4.614827	Amnesty	0.003205062
-3.861499	An	-0.0002095502
-4.790918	Analytics	0.007112693
-2.915857	And	0.0836044
-4.137706	And,	0.02624032
-4.790918	Anderson	-4.140926e-05
-4.790918	Anderson,	-4.140926e-05
-4.790918	Andrea	-4.492361e-05
-4.614827	Andrew	-8.98471e-05
-4.790918	Andy	0.001133978
-4.790918	Angeles	0.007112693
-4.790918	Anglo:	-3.789488e-05
-4.614827	Annual	8.567008e-06
-4.137706	Another	8.369677e-05
-4.614827	Anschutz	-7.93038e-05
-4.790918	Answered	0.001133978
-4.614827	Anti	9.293969e-05
-4.790918	Antonio	0.00166641
-3.94582	Any	0.009739086
-4.489888	Anyone	0.002823908
-4.790918	Anything	2.88837e-05
-4.790918	Anyway,	0.0006444327
-4.790918	Apart	0.001197412
-4.790918	Apocalypse	-4.492361e-05
-4.392978	Apparently	0.002994936
-4.790918	Appetite	0.002499867
-4.790918	Applies	-2.749535e-06
-4.790918	Apply	0.001334886
-4.790918	Apply"	-1.680801e-05
-4.790918	April	0.008633766
-4.790918	Archive[GVA]),	0.007112693
-4.790918	Ardern.	0.02244275
-3.676975	Are	0.02346273
-4.790918	Areas	0.002118257
-4.790918	Argument	0.01041931
-4.790918	Arguments	-3.789488e-05
-4.790918	Arizona	0.004622505
-4.790918	Arkansas	0.005244602
-4.790918	Arkansas.	0.02244275
-4.790918	Arm	0.0005423671
-4.790918	ArmaLite	7.79461e-06
-4.489888	Armed	-0.0001277415
-4.790918	Armenians	-2.032258e-05
-4.489888	Arming	0.01591385
-4.614827	Armory	-5.470175e-05
-4.790918	Armour	3.239865e-05
-4.012767	Arms	0.001751893
-4.790918	Arms*	-3.086605e-05
-4.313797	Arms,	0.0002739269
-4.790918	Arms,"	0.001624074
-4.790918	Arms:	0.001624074
-4.790918	Armscor	-6.264213e-06
-4.614827	Army	0.009655134
-4.790918	Army,	0.001525305
-4.790918	Arsenal	0.004842802
-4.790918	Arthur	-4.140926e-05
-4.614827	Article	-5.683981e-05
-4.790918	Articles	0.007684706
-4.790918	Articles:	7.6516e-07
-4.790918	Arts	0.0002890666
-3.306618	As	0.07157174
-4.790918	Asbergers	-4.492361e-05
-4.790918	Asia	0.007112693
-4.790918	Asian.	0.02244275
-4.790918	Asians	0.007112693
-4.790918	Aside	0.001197412
-4.790918	Ask	0.0001062191
-4.790918	Aspergers	0.007112693
-4.24685	Assault	0.009053848
-4.790918	Assertion	0.005244602
-4.790918	Associated	-4.492361e-05
-4.614827	Association	0.007654219
-4.790918	Assuming	0.003430566
-3.769729	At	0.03184054
-4.790918	Atheist	0.00100009
-4.790918	Attachment	-4.492361e-05
-4.790918	Attacks	4.294365e-05
-4.614827	Attorney	-8.63327e-05
-4.790918	Atty.	0.02244275
-4.790918	Au	-4.492361e-05
-4.790918	Auction	4.294365e-05
-4.790918	Aulinskites	0.0008486361
-4.790918	Aulinsky	3.239865e-05
-4.790918	Aulinsky/Lennon	0.007112693
-4.24685	Aurora	0.007197006
-4.614827	Aurora,	0.004822839
-4.790918	Aussi	-4.492361e-05
-4.614827	Aussies	0.001494516
-4.790918	Austin	0.0003172039
-4.137706	Australia	0.008378556
-4.614827	Australia's	-1.817916e-05
-4.790918	Australia).	0.02244275
-4.614827	Australia,	0.008588985
-4.614827	Australia.	0.02241678
-4.790918	Australia....	-2.032258e-05
-4.790918	Australia...the	-4.492361e-05
-4.790918	Australian	0.000443844
-4.790918	Australians	-3.438047e-05
-4.790918	Austria	-4.140926e-05
-4.790918	Authorities	0.0002785155
-4.790918	Authority	-4.492361e-05
-4.614827	Auto	-8.63327e-05
-4.614827	Auto:	-8.63327e-05
-4.614827	Automatic	0.0002441485
-4.790918	Award	0.00166641
-4.790918	Ayers'	-4.140926e-05
-4.614827	Ayers,	0.01586689
-4.790918	Aymette	-3.086605e-05
-4.790918	B	0.0004755098
-4.790918	B&E's	0.005244602
-4.790918	B.	0.02244275
-4.614827	BACS	0.007658732
-4.790918	BAD	-4.492361e-05
-4.790918	BAR"	0.0003629306
-4.790918	BARACK	-4.140926e-05
-4.614827	BARB	0.003406956
-4.790918	BARBARIAN	0.0008486361
-4.790918	BATF.	0.02244275
-4.790918	BATFE	0.0007746894
-4.790918	BB	-2.749535e-06
-4.790918	BBC	0.005312199
-4.790918	BC	-6.264213e-06
-4.790918	BECAUSE	-4.140926e-05
-4.790918	BGC	0.002761536
-4.790918	BLAHM,	0.005312199
-4.790918	BLAME	4.27988e-06
-4.614827	BLM	-8.98471e-05
-4.790918	BOMBS.	0.02244275
-4.614827	BS	6.266789e-05
-4.614827	BS,	0.003414041
-4.614827	BS.	0.02241678
-4.790918	BTK	-2.735157e-05
-4.614827	BTW	0.001279408
-4.091948	BTW,	0.02820328
-4.790918	BUT	-3.086605e-05
-4.489888	BY	-0.0001347705
-4.313797	Back	0.01642665
-4.614827	Background	-7.634725e-06
-4.614827	Bad	0.0002595757
-4.790918	Baker	0.0009578185
-4.790918	Bakers	0.002761536
-4.790918	Balcombe	-4.140926e-05
-4.790918	Ballista	0.0001519237
-4.790918	Ballistic	-4.492361e-05
-4.790918	Baltimore	-2.383708e-05
-4.790918	Ban	0.01588239
-4.790918	Bank	0.001828739
-4.614827	Banned	0.0003039432
-4.614827	Banning	0.01604558
-4.24685	Barack	-9.805865e-05
-4.790918	Barking	-4.492361e-05
-4.790918	Barring	0.008633766
-4.790918	Based	0.001828739
-4.614827	Basic	0.0002933907
-4.790918	Basically	0.001183314
-4.790918	Basically,	-4.140926e-05
-4.614827	Bath	0.0001949119
-4.790918	Bay	-4.492361e-05
-4.614827	Be	0.005267363
-4.614827	Bear	-5.470175e-05
-4.790918	Bearing	-9.778827e-06
-4.790918	Bears"	0.001084646
-3.887828	Because	0.03399171
-4.790918	Bed:344	-4.140926e-05
-4.790918	Bed:448	-4.140926e-05
-4.790918	Been	-4.492361e-05
-4.489888	Before	0.001703657
-4.790918	Begin	0.01041931
-4.24685	Being	0.01037998
-4.614827	Belgium	-8.281827e-05
-4.790918	Belgium.	0.02244275
-4.790918	Believe	-2.749535e-06
-4.614827	Ben	-6.035424e-05
-4.614827	Benjamin	-7.93038e-05
-4.790918	Bent	-4.492361e-05
-4.790918	Beretta	-4.492361e-05
-4.614827	Berger	1.911273e-05
-4.489888	Bernardino	-9.473244e-05
-4.790918	Bernardino,	0.0002257645
-4.489888	Besides	0.001086459
-4.489888	Besides,	0.009247509
-4.790918	Best	-4.492361e-05
-4.313797	Beto	0.005339278
-4.790918	Beto.	0.02244275
-4.790918	Beto...got	0.0002714817
-4.489888	Better	-4.33852e-05
-4.614827	Between	0.02139635
-4.790918	Bible,	0.00100009
-4.614827	Biden	0.005210438
-4.790918	Biden's	-4.492361e-05
-4.24685	Big	-0.0002435552
-4.790918	Bigotry.	0.02244275
-3.790918	Bill	0.01260727
-4.614827	Bill,	0.003389242
-4.790918	Bill.	0.02244275
-4.790918	Billy	-3.789488e-05
-4.790918	Bingo.	0.02244275
-4.313797	Black	-0.0002211023
-4.392978	Blacks	0.003359739
-4.790918	Blacks.	0.02244275
-4.489888	Bland	0.008723509
-4.790918	Blitzer,	-4.492361e-05
-4.790918	Blood	-4.492361e-05
-4.790918	Bloomberg	-4.140926e-05
-4.790918	Bloomberg's	-3.789488e-05
-4.790918	Bloomfield	5.700409e-05
-4.790918	Bloomfield,	0.008633766
-4.790918	Blue	8.864166e-05
-4.790918	Blunt	-3.789488e-05
-4.790918	Bob	-4.492361e-05
-4.790918	Body	-4.492361e-05
-4.790918	Bogus	-4.492361e-05
-4.790918	Bohemian	0.0006268334
-4.790918	Bombs	-4.492361e-05
-4.790918	Border	-4.492361e-05
-4.790918	Boston,	-4.492361e-05
-4.392978	Both	0.003782747
-4.614827	Bottom	-4.119878e-06
-4.614827	Boulder	0.0002898731
-4.614827	Boy	-6.386865e-05
-4.790918	Boy".	0.02244275
-4.790918	Boy.	0.02244275
-4.790918	Brady	-3.438047e-05
-4.790918	Brain	-4.492361e-05
-4.790918	Brainwashed	0.001317258
-4.790918	Brazil	0.0005177343
-4.790918	Brazil,	0.002588251
-4.790918	Brazil.	0.02244275
-4.790918	Brazilian	0.000443844
-4.790918	BretJ	-3.438047e-05
-4.790918	Bretagne,	0.002404433
-4.790918	Breton,	0.001197412
-4.790918	BrewerBob	-3.086605e-05
-4.790918	Breyer)	0.0006549928
-4.489888	Brian	0.002420708
-4.790918	Brighton	0.004842802
-4.790918	Brit/Swede	-4.492361e-05
-4.489888	Britain	0.007312577
-4.489888	Britain,	0.0009138001
-4.790918	Britain.	0.02244275
-3.94582	British	0.001170018
-4.790918	Brits	6.403442e-05
-4.790918	Brokaw	0.007112693
-4.614827	Brother	0.005218629
-4.24685	Broward	0.0001846367
-4.790918	Brownsville,	1.13094e-05
-4.790918	Bruce	-3.789488e-05
-4.790918	Bubbalaw	0.008633766
-4.614827	Bucky	0.0008882544
-4.790918	Buds	0.0001378602
-4.790918	Bullseye	-4.492361e-05
-4.614827	Bundy	0.007078605
-4.790918	Burger	-4.492361e-05
-4.614827	Burglary	-5.332534e-05
-4.790918	Bush	0.001592325
-4.614827	Business	7.887647e-05
-3.035043	But	0.07418406
-4.012767	But,	0.02096968
-4.614827	But...	0.02250555
-4.790918	Butt	0.002499867
-4.012767	By	0.01558489
-4.790918	Byrd	0.0003875548
-4.790918	C,	-4.492361e-05
-4.790918	C..."	-3.789488e-05
-4.614827	CA	0.001117265
-4.790918	CAB	-2.383708e-05
-4.614827	CAFE	-8.281826e-05
-4.790918	CAN	0.002316087
-4.790918	CANDY	-4.492361e-05
-4.790918	CBC	-3.086605e-05
-4.790918	CBS	0.0003488605
-4.614827	CC	0.005833455
-4.614827	CCO	0.00150157
-4.790918	CCP	0.0001870845
-4.790918	CCTV	-4.492361e-05
-4.614827	CCW	-7.578931e-05
-4.790918	CCWs	0.007112693
-4.790918	CCer	0.004842802
-4.790918	CD	-4.492361e-05
-4.790918	CDC	-1.680801e-05
-4.790918	CDC's	1.482421e-05
-4.790918	CEOs	0.002761536
-4.790918	CHANGE	-4.140926e-05
-4.790918	CHANGE).	0.02244275
-4.790918	CHicago.	0.02244275
-4.790918	CIRCA	-4.492361e-05
-4.790918	CITATION	0.002499867
-4.790918	CLACK-SHLACK!	0.02244275
-4.614827	CLEAR	-3.712801e-05
-4.790918	CNC.	0.02244275
-4.489888	CNN	-0.0001347705
-4.790918	CNN's	0.0001027035
-4.790918	CNN.com	-4.492361e-05
-4.790918	CNS	-4.492361e-05
-4.790918	CO,	0.007112693
-4.790918	CO.,	-4.492361e-05
-4.790918	CO2	-3.789488e-05
-4.790918	COLORS!.	0.02244275
-4.790918	CONSTITUTIONAL	-4.140926e-05
-4.790918	CONTROL	0.007684706
-4.790918	CONTROL"	7.79461e-06
-4.790918	CONTROL.	0.02244275
-4.790918	CONUS	0.007112693
-4.790918	COPS....	0.0005670015
-4.790918	COUNTRY	0.002118257
-4.614827	CPR	0.00717151
-4.790918	CPR.	0.02244275
-4.614827	CREATED	0.01037456
-4.790918	CRUE	-4.492361e-05
-4.790918	CRUX	0.007684706
-4.790918	CRW's	0.0001624716
-4.790918	CS,	0.0007113165
-4.790918	CSSO’s	0.000384037
-4.489888	CT	0.0001746111
-4.790918	CT.	0.02244275
-4.790918	CU-Boulder,	0.003430566
-4.790918	CU-Boulder?	0.02244275
-4.614827	CW9	0.01014781
-4.489888	CZ	-0.000124227
-4.790918	CZ)	0.004622505
-4.790918	Cal	-4.492361e-05
-4.790918	Cal.	0.02244275
-4.790918	Caliber	1.482421e-05
-4.790918	Calif.,	0.003430566
-4.091948	California	0.01826832
-4.790918	California)	0.001317258
-4.614827	California.	0.02241678
-4.489888	Call	0.01091703
-4.614827	Called	-6.738303e-05
-4.790918	Calling	0.0001378602
-4.790918	Cambodia	-6.264213e-06
-4.790918	Cambridge?	0.02244275
-4.790918	Camera"	-3.789488e-05
-4.790918	Cameron’s	-4.492361e-05
-4.790918	Camp	-4.492361e-05
-4.790918	Campbellfield	0.007112693
-4.489888	Campus	-4.690036e-05
-4.790918	Campus"	0.004842802
-4.790918	Campus,	0.01588239
-4.790918	Campuses	-2.032258e-05
-4.24685	Can	0.007968212
-4.313797	Can't	0.0003935611
-4.313797	Canada	0.0209747
-4.790918	Canada!	0.02244275
-4.614827	Canada's	-7.930381e-05
-4.392978	Canada,	0.01617153
-4.790918	Canada.	0.02244275
-4.614827	Canadian	-7.578931e-05
-4.790918	Canadian,	0.0007183572
-4.790918	Canadians	0.003179115
-4.790918	Cancer:340114	-4.492361e-05
-4.790918	Canda	0.005244602
-4.790918	Candian).	0.02244275
-4.790918	Candle	-4.140926e-05
-4.790918	Capitalists	0.002761536
-4.790918	Captain	-4.492361e-05
-4.614827	Car	-8.98471e-05
-4.790918	Carbines,	0.004622505
-4.790918	Carnegie	-4.492361e-05
-4.790918	Carolina	-3.438047e-05
-4.790918	Carolina-based	-4.492361e-05
-4.790918	Carolina.	0.02244275
-4.790918	Carrey	0.001592325
-4.614827	Carry	0.0002758036
-4.790918	Carry'	0.005244602
-4.489888	Carry:	-0.000131256
-4.790918	Carrying	0.008633766
-4.392978	Cars	0.003223947
-4.790918	Cars,trucks,trains,planes.....	-4.492361e-05
-4.790918	Cars/Trucks	-4.492361e-05
-4.614827	Cartels	0.004858383
-4.614827	Case	-8.281826e-05
-4.614827	Casper	0.00809091
-4.614827	Castile	5.778242e-05
-4.790918	Castille	0.0001484078
-4.790918	Castro	0.004842802
-4.790918	Catcher	0.004842802
-4.614827	Catholic	-6.173107e-05
-4.790918	Celebrities	0.0008486361
-4.790918	Census	0.004842802
-4.790918	Center	-4.140926e-05
-4.790918	Centrist	0.0001659877
-4.614827	Century	0.0009234789
-4.489888	Certain	0.00100893
-4.313797	Certainly	0.01043836
-4.790918	Certification	0.002499867
-4.790918	Change.	0.02244275
-4.790918	Channel	1.482421e-05
-4.614827	Chapter	-8.281826e-05
-4.614827	Charles	-7.578931e-05
-4.790918	Charta!	0.02244275
-4.790918	Charts	0.007112693
-4.790918	Cheap	-4.492361e-05
-4.790918	Check	0.0004825469
-4.790918	Checkpoints"	0.0004790282
-4.790918	Cheetos	5.700409e-05
-3.978005	Chicago	0.01742356
-4.050556	Chicago,	0.01748717
-4.790918	Chicago-style	0.00195935
-4.790918	Chicago.	0.02244275
-4.790918	Children	7.79461e-06
-4.790918	Children,	0.00166641
-4.24685	China	0.01687161
-4.790918	China,	-4.492361e-05
-4.790918	China?	0.02244275
-4.790918	Chinese	0.002761536
-4.614827	Choice	-6.876023e-05
-4.392978	Chris	-0.0001304879
-4.790918	Chris'	0.0007218779
-4.24685	Christian	0.007203201
-4.790918	Christian,	-4.492361e-05
-4.790918	Christian.	0.02244275
-4.489888	Christians	0.003135404
-4.790918	Christians.	0.02244275
-4.790918	Christie	0.005244602
-4.790918	Christie's	0.001624074
-4.614827	Christmas,	-6.386865e-05
-4.790918	Chuck	-4.492361e-05
-4.790918	Churchgoers	-4.492361e-05
-4.790918	Churchill	0.0005177343
-4.790918	Churchill.	0.02244275
-4.790918	Churchill....	0.0001519237
-4.790918	Cincinnati	-3.438047e-05
-4.790918	Circuit	3.942864e-05
-4.790918	Citation	-4.140926e-05
-4.790918	Cities,	0.007112693
-4.790918	Citizen's	-4.140926e-05
-4.392978	Citizens	0.0005237769
-4.614827	City	0.0004833768
-4.489888	City,	0.01257128
-4.790918	City.	0.02244275
-4.489888	Civil	4.801934e-05
-4.790918	Civilized?	0.02244275
-4.790918	Claimants	0.0001800521
-4.614827	Claiming	0.0003461563
-4.614827	Clark	0.002473893
-4.313797	Class	0.0001551219
-4.790918	Classification	-4.140926e-05
-4.790918	Classifications	0.001592325
-4.790918	Classifications.	0.02244275
-4.392978	Clause	0.009289775
-4.614827	Clearly	0.003821661
-4.790918	Clearly,	-4.140926e-05
-4.614827	Clifton	0.0003461563
-4.489888	Clinton	0.0001464765
-4.614827	Clinton,	-8.63327e-05
-4.790918	Clinton.	0.02244275
-4.790918	Clip	-4.492361e-05
-4.790918	Clipdraw	0.0009578185
-4.790918	Cliven	-4.140926e-05
-4.790918	Close	0.01588239
-4.790918	CnC	0.00112693
-4.790918	Coach	-4.492361e-05
-4.790918	Coal	-3.438047e-05
-4.790918	Coalition	0.01041931
-4.790918	Cocain,	-4.492361e-05
-4.790918	Cocked	3.239865e-05
-4.790918	Cockrum	-3.086605e-05
-4.489888	Code	0.00813566
-4.790918	Cold	-3.438047e-05
-4.790918	Collected	0.007112693
-4.790918	Collection,	-4.492361e-05
-4.790918	College	0.0001835682
-4.790918	Colleges	0.003179115
-4.790918	Collins,	-4.492361e-05
-4.489888	Colorado	0.004760223
-4.313797	Colt	0.01877344
-4.614827	Columbia	0.005210438
-4.392978	Columbine	0.01437611
-4.790918	Columbine...people	0.003179115
-4.790918	Com	-4.492361e-05
-4.790918	Combat	0.005244602
-4.790918	Commander	-2.735157e-05
-4.790918	Commander-in-Chief	0.007684706
-4.614827	Commandments	0.00946828
-4.790918	Commentaries	0.001828739
-4.790918	Commerce	-3.438047e-05
-4.790918	Commies	0.003179115
-4.790918	Committee	7.6516e-07
-4.790918	Committing	0.008633766
-4.790918	Common	4.294365e-05
-4.614827	Commonwealth	0.007657797
-4.790918	Communist	-2.735157e-05
-4.790918	Communist/socialist,	-3.438047e-05
-4.790918	Communists	-6.264213e-06
-4.790918	Community	-4.492361e-05
-4.790918	Comp	-4.492361e-05
-4.614827	Compact	-6.173104e-05
-4.790918	Compare	0.001334886
-4.614827	Compared	0.003442385
-4.790918	Comparing	-3.789488e-05
-4.790918	Comparisons	0.005312199
-4.790918	Compromise	0.002118257
-4.790918	Conceal	-4.140926e-05
-4.313797	Concealed	5.097182e-05
-4.790918	Concept	0.007684706
-4.790918	Confederation,	0.002588251
-4.790918	Confiscation	0.001546468
-4.012767	Congress	0.02048237
-4.392978	Congress,	0.00163053
-4.614827	Congress.	0.02241678
-4.790918	Congressional	-4.492361e-05
-4.790918	Congressman,	0.000707796
-4.790918	Conn.,	0.01588239
-4.790918	Connecticut	-2.383708e-05
-4.790918	Connecticut,	0.0005071777
-4.790918	Connecticut:	-4.492361e-05
-4.790918	Connersville	-6.264213e-06
-4.790918	Connersville,	-4.140926e-05
-4.790918	Conneticut	0.0006620327
-4.790918	Consequences:	-4.140926e-05
-4.614827	Conservatives	0.001043264
-4.790918	Conservatives)	-2.383708e-05
-4.614827	Consider	0.01711194
-4.614827	Considering	0.01585642
-4.790918	Consistency	0.007684706
-3.489888	Constitution	0.05297924
-4.790918	Constitution"	5.700409e-05
-4.012767	Constitution,	0.02213076
-4.790918	Constitution,	-3.789488e-05
-4.012767	Constitution.	0.02218309
-4.790918	Constitution...	0.0002398308
-4.790918	Constitution;	-3.438047e-05
-3.978005	Constitutional	0.001185734
-4.790918	Constitutionalist	-4.492361e-05
-4.790918	Constitutionally-protected	4.997379e-05
-4.790918	Consulting	7.79461e-06
-4.790918	Context	3.591363e-05
-4.614827	Contrary	0.01039334
-4.790918	Contributions	0.002499867
-3.978005	Control	0.01828128
-4.790918	Control"	0.0002046659
-4.614827	Convention	0.007658732
-4.614827	Convention,	-6.035424e-05
-4.614827	Conventions	0.001802765
-4.790918	Conway	-3.789488e-05
-4.614827	Cook	0.01583773
-4.790918	Cook".	0.02244275
-4.790918	Cook,	0.003430566
-4.614827	Cookson	-6.386865e-05
-4.790918	Coolaroo,	-4.492361e-05
-4.614827	Cooper,	0.000465782
-4.489888	Cop	0.0009327343
-4.489888	Cops	0.001005406
-4.790918	Cops,	-4.492361e-05
-4.790918	Cops.	0.02244275
-4.790918	Copy,	-4.140926e-05
-4.790918	Corps,	-3.789488e-05
-4.790918	Correct	0.0001237972
-4.790918	Correct,	-3.789488e-05
-4.790918	Correct.	0.02244275
-4.790918	Correction,	0.0003277558
-4.790918	Corrections.	0.02244275
-4.790918	Correlation	0.0003172039
-4.790918	Cortez	0.007112693
-4.790918	Cosby's	-2.383708e-05
-4.790918	Costa	-4.492361e-05
-4.790918	Costas	0.001546468
-4.790918	Costas'	0.0001027035
-4.790918	Costas...	6.051924e-05
-4.392978	Cougarbear:	0.006257145
-4.790918	Cough	-4.492361e-05
-4.392978	Could	0.003906894
-4.790918	Couldn't	0.008633766
-4.790918	Counter	-4.492361e-05
-4.790918	Countries	-4.140926e-05
-4.790918	Country!	0.02244275
-4.188858	County	0.01071643
-4.790918	County,	-2.032258e-05
-3.676975	Court	0.03299166
-4.790918	Court,	-3.086605e-05
-4.790918	Court.	0.02244275
-4.790918	Courtesy....lol....Riiiiiiiight	9.918807e-05
-4.790918	Courts	0.007112693
-4.790918	Cranbourne,	-4.492361e-05
-4.012767	Crime	0.004971688
-4.790918	Crime"	0.004842802
-4.790918	Crime.	0.02244275
-4.790918	Crimefree!	0.02244275
-4.790918	Crimefree's	-4.492361e-05
-4.614827	Criminal	-6.876024e-05
-4.313797	Criminals	0.004963181
-4.790918	Criminologist	-4.492361e-05
-4.790918	Criminology	0.0001519237
-4.790918	Cronkite's	-4.492361e-05
-4.790918	Cronkite,	-3.438047e-05
-4.790918	Crow	0.0002961007
-4.790918	Crowder	0.0001519237
-4.790918	Crown,	0.002404433
-4.790918	Cruikshank	-4.492361e-05
-4.790918	Cruikshank,	-3.438047e-05
-4.790918	Crusade'	5.700409e-05
-4.790918	Crusade'.	0.02244275
-4.790918	Crusades	-4.492361e-05
-4.188858	Cruz	0.01756209
-4.790918	Cruz,	0.000352378
-4.790918	Cruz’s	-4.492361e-05
-4.790918	Cultures	0.003179115
-4.489888	Custom	-0.0001123049
-4.614827	Czech	-6.386865e-05
-4.790918	D	-1.329346e-05
-4.790918	D,	-4.492361e-05
-4.790918	D.	-4.492361e-05
-4.790918	DA?	0.02244275
-4.790918	DARE	-4.492361e-05
-4.614827	DC	0.0003707824
-4.489888	DDD	-0.0001031393
-4.790918	DEAD	-4.492361e-05
-4.790918	DEBATE	-4.492361e-05
-4.790918	DEFENDERS.	0.02244275
-4.790918	DHS	0.01041931
-4.790918	DID	-4.492361e-05
-4.614827	DIRECTV	0.00129351
-4.790918	DISCLAIMER:	0.004622505
-4.489888	DO	0.002746068
-4.790918	DOES	7.79461e-06
-4.790918	DOESN'T.	0.02244275
-4.489888	DON'T	0.002682392
-4.790918	DONT	-4.492361e-05
-4.489888	DP	0.007123131
-4.392978	DUI	0.005740238
-4.790918	Dad's	0.001021227
-4.790918	Daddy	1.482421e-05
-4.790918	Dahmer,	-4.140926e-05
-4.489888	Daily	-0.0001123049
-4.790918	DailyMail	0.001828739
-4.790918	Dakotas	0.002761536
-4.790918	Damn	0.005312199
-4.313797	Dan	0.008368596
-4.790918	Dana	-4.492361e-05
-4.790918	Dandenong	0.004842802
-4.790918	Daniel	-4.492361e-05
-4.790918	Dartmouth	-3.086605e-05
-4.489888	David	-0.0001277415
-4.790918	Davis	0.005244602
-4.790918	Dax,	5.700409e-05
-4.790918	Day:	0.0002503809
-4.790918	Deadly	-4.492361e-05
-4.614827	Deals	0.001685028
-4.489888	Dean	-0.0001277415
-4.489888	Debate	0.01580036
-4.489888	Debates	0.01994345
-4.091948	Declaration	0.007476959
-4.614827	Declaration.	0.02241678
-4.790918	Dee	-4.492361e-05
-4.790918	Deep	-4.140926e-05
-4.790918	Defeats	0.01588239
-4.790918	Defend	-4.492361e-05
-4.489888	Defense	0.007781185
-4.790918	Defense...	-4.492361e-05
-4.790918	Defensive	-4.492361e-05
-4.790918	Define	0.01588239
-4.614827	Definitely	0.0002160127
-4.790918	Definition	0.007684706
-4.489888	Dem	0.005589163
-4.790918	Demand	0.0004860653
-3.978005	Democrat	0.00751409
-4.790918	Democrat.	0.02244275
-3.711737	Democrats	0.03548282
-4.614827	Democrats,	0.01585642
-4.790918	Democrats.	0.02244275
-4.790918	Demos	0.003179115
-4.790918	Dems	-4.492361e-05
-4.790918	Dems,	-4.492361e-05
-4.790918	Denver	0.007112693
-4.313797	Department	0.009295296
-4.790918	Dependent	0.001828739
-4.790918	Depending	0.001828739
-4.790918	Depression	-3.789488e-05
-4.790918	Depression.	0.02244275
-4.790918	Depts.,	0.0008486361
-4.614827	Deputy	-6.876023e-05
-4.489888	Despite	0.001940189
-4.790918	Destroyed	0.0001378602
-4.790918	Destruction.	0.02244275
-4.313797	Detroit,	-5.451277e-05
-4.790918	Detroit.	0.02244275
-4.790918	Development:	0.001624074
-4.790918	DiFi's	-3.438047e-05
-4.790918	Diabetes:43966	-4.492361e-05
-4.790918	Diane	-4.140926e-05
-4.790918	Dianne	-4.140926e-05
-4.790918	Dick	-4.492361e-05
-4.790918	Dickerson,	-4.140926e-05
-4.790918	Dictionary	4.294365e-05
-3.887828	Did	0.015954
-4.614827	Didn't	0.01638127
-4.790918	Dims	0.01041931
-4.790918	Direct	-4.492361e-05
-4.790918	Directly	4.27988e-06
-4.790918	Disagreed.	0.02244275
-4.614827	Disarmament	-8.98471e-05
-4.790918	Discovery	-4.492361e-05
-4.790918	Discussion?	0.02244275
-4.790918	Disease:353133	-4.492361e-05
-4.790918	Disease:53768	-4.492361e-05
-4.790918	Disease:82165	-4.492361e-05
-4.790918	Disgusting	-2.735157e-05
-4.790918	Disney.	0.02244275
-4.313797	District	0.01420479
-4.790918	District,	0.00112693
-3.586798	Do	0.02867015
-4.790918	Doctors	0.002761536
-4.790918	Dodging	-4.140926e-05
-4.050556	Does	0.02659961
-4.614827	Doesn't	5.426687e-05
-4.489888	Dog	-3.283949e-05
-4.790918	Dogs	0.003179115
-4.790918	Doing	0.008633766
-4.790918	Dome"	0.0001097346
-4.790918	Domestic	-4.492361e-05
-4.790918	Don	-4.492361e-05
-3.73022	Don't	0.007725682
-4.24685	Donald	-9.454302e-05
-4.790918	Dont	1.13094e-05
-4.790918	Dontray	-3.789488e-05
-4.614827	Door	0.0006030407
-4.790918	Doritos	0.001804032
-4.790918	Dork's	4.27988e-06
-4.790918	Dot	-4.492361e-05
-4.790918	Doug	-4.492361e-05
-4.790918	Douglas	-4.140926e-05
-4.790918	Down	-3.789488e-05
-4.790918	Dr.	-4.492361e-05
-4.790918	Draft	-4.492361e-05
-4.790918	Drehling	-4.492361e-05
-4.790918	Drivimg	0.0001906006
-4.614827	Driving	0.0001773288
-4.790918	Driving:19433	-4.492361e-05
-4.790918	Driving:3443	-4.492361e-05
-4.790918	Drones	0.003179115
-4.790918	Drowning:2250	-4.140926e-05
-4.790918	Drudge	-1.680801e-05
-4.24685	Drug	-0.0002259818
-4.790918	Drugs	0.001116358
-4.489888	Drunk	-6.661503e-05
-4.790918	Dude,	0.000841593
-4.614827	Due	-8.98471e-05
-4.790918	Dueling	-4.140926e-05
-4.489888	Duke	0.003092914
-4.790918	Dumbauld,	0.001624074
-4.790918	Duponts,	0.01588239
-4.614827	During	0.0003461562
-4.790918	Duty	0.0009261175
-4.790918	Dylann	-4.492361e-05
-4.790918	E	0.007112693
-4.790918	E,	-3.438047e-05
-4.790918	E.	-4.492361e-05
-4.790918	E2	-2.735157e-05
-4.790918	EDIT:	9.918807e-05
-4.790918	EM	-4.492361e-05
-4.790918	END	-4.140926e-05
-4.790918	ENORMOUS	3.942864e-05
-4.614827	EO	0.00356641
-4.790918	EOs	0.01041931
-4.790918	EPA	-4.492361e-05
-4.790918	EQUAL	0.007112693
-4.188858	EU	0.02300911
-4.790918	EU,	0.002499867
-4.614827	EU.	0.02241678
-4.790918	EVER	3.591363e-05
-4.790918	EVERYTHING	0.005312199
-4.790918	EXACT	-4.492361e-05
-4.790918	EXACTLY	0.00166641
-4.790918	EXCEPTION	-3.086605e-05
-4.790918	EXCEPTION!.	0.02244275
-4.790918	EXPRESSLY	-4.140926e-05
-4.614827	Each	0.007071459
-4.790918	Eagle	-4.492361e-05
-4.790918	Earl	-4.140926e-05
-4.790918	Earlier	0.004622505
-4.790918	EarlzP;1061274985]First	0.0001167659
-4.790918	Earnest	0.0002187315
-4.614827	Earth	0.001205378
-4.790918	Earth;	0.007112693
-4.790918	Easily.	0.02244275
-4.790918	Easing	-4.492361e-05
-4.790918	East	0.002588251
-4.790918	East",	-4.492361e-05
-4.489888	Ed	0.007060747
-4.392978	Edit:	0.004551912
-4.790918	Edited	0.001317258
-4.790918	Edition	-3.789488e-05
-4.790918	Edition,	-4.492361e-05
-4.790918	Editor:	-4.492361e-05
-4.790918	Einstein,	0.003430566
-4.614827	Either	0.0003250493
-4.614827	El	-8.98471e-05
-4.790918	Elaborate	0.001056458
-4.790918	Elbow	5.700409e-05
-4.790918	Election,	0.00112693
-4.790918	Electrical	-4.492361e-05
-4.790918	Eliminate	-4.140926e-05
-4.790918	Eliminating	0.001021227
-4.614827	Elliot,	-8.98471e-05
-4.790918	Empire	0.0005177343
-4.790918	End	0.01588239
-4.790918	End.	0.02244275
-4.614827	Ends	-3.223798e-05
-4.614827	Energy	-4.415759e-05
-4.790918	Enfields,	-4.140926e-05
-4.790918	Enforcement	-4.492361e-05
-4.790918	Eng.	0.02244275
-4.790918	Engine.com:	-4.492361e-05
-4.790918	Engineering	0.007112693
-4.392978	England	0.002461911
-4.790918	England's	-9.778827e-06
-4.614827	England,	9.997149e-05
-4.091948	English	0.01409873
-4.790918	English,	0.000384037
-4.790918	English.	0.02244275
-4.790918	English...so	0.004622505
-4.790918	Englishmen	0.01041931
-4.790918	Ennis	-4.140926e-05
-4.614827	Equal	-1.955357e-05
-4.790918	Equality	0.005244602
-4.489888	Eric	-8.632646e-05
-4.790918	Erik	-3.086605e-05
-4.790918	Erp.	0.02244275
-4.790918	Errors:144538	-4.492361e-05
-4.489888	Especially	0.01730137
-4.790918	Esprit	-4.492361e-05
-4.790918	Essentially	0.01588239
-4.24685	Europe	0.01620997
-4.790918	Europe!.	0.02244275
-4.790918	Europe's	0.00195935
-4.790918	Europe,	0.001525305
-4.790918	Europe.	0.02244275
-4.392978	European	0.006981846
-3.711737	Even	0.03560518
-4.790918	Eventually	0.002588251
-4.614827	Ever	-7.634725e-06
-4.012767	Every	0.001322377
-4.489888	Everyone	0.001788371
-4.489888	Everything	0.01010305
-4.790918	Everywhere	-2.735157e-05
-4.790918	Evidently,	-9.778827e-06
-4.790918	Evil	-3.438047e-05
-4.790918	Evolution	0.0002257645
-4.790918	Ex-police	-3.789488e-05
-4.790918	Exactly	0.001056458
-4.392978	Exactly.	0.02236484
-4.392978	Except	0.008510177
-4.790918	Excercising	0.005244602
-4.790918	Executive	-4.492361e-05
-4.790918	Executive,	-4.492361e-05
-4.790918	Experts	-4.492361e-05
-4.790918	Ezzel	0.001592325
-4.790918	F-22	-4.492361e-05
-4.790918	F.	0.0003136865
-4.790918	FAQs	4.294365e-05
-4.790918	FAR	0.0009014628
-4.050556	FBI	0.01649892
-4.614827	FBI,	0.0006910493
-4.489888	FF	0.01133181
-4.790918	FF's	-2.383708e-05
-4.614827	FFL	0.007071459
-4.489888	FFs	-6.447584e-05
-4.790918	FIREARM	-4.140926e-05
-4.790918	FIRST	-2.383708e-05
-4.790918	FLINTLOCK	-4.492361e-05
-4.790918	FOX	-4.492361e-05
-4.790918	FOX23.	0.02244275
-4.790918	FPS	0.007112693
-4.790918	FPS?.	0.02244275
-4.790918	FROM	-4.492361e-05
-4.790918	FYI,	0.0003629306
-4.790918	FYI.	0.02244275
-4.790918	Facebook	0.0006021961
-4.489888	Facts	0.001068837
-4.790918	Fail...	0.02244275
-4.790918	Failed	-4.492361e-05
-4.790918	Failure:24580	-4.492361e-05
-4.614827	Fair	-7.93038e-05
-4.614827	Fairy	-8.281826e-05
-4.790918	Fallacy...	0.0001870845
-4.614827	Falling	0.000437632
-4.614827	False	-6.524567e-05
-4.790918	Fan	-2.735157e-05
-4.790918	Farmer	0.01041931
-4.790918	Farrakhan,	0.0006233139
-4.790918	Fascism.	0.02244275
-4.790918	Fascists	0.0004825469
-4.489888	Fast	0.007120523
-4.489888	Fathers	0.007598689
-4.790918	Fathers,	0.0003875548
-4.790918	Fatima.	0.02244275
-4.790918	Fear	5.700409e-05
-4.790918	February	-4.140926e-05
-3.836676	Federal	0.00669088
-4.614827	Federal,	0.00525313
-4.489888	Federalist	-0.0001347705
-4.614827	Federalists	0.002748494
-4.392978	Feds	0.00505673
-4.614827	Feel	0.000147046
-4.614827	Feinstein	0.0009657523
-4.790918	Feinstien	0.0004297709
-4.790918	Feminism	6.754964e-05
-4.790918	Ferdinand	-4.492361e-05
-4.790918	Fergurson,	0.004622505
-4.489888	Ferguson	0.0008975067
-4.790918	Fergusson.	0.02244275
-4.790918	Fi	0.0009261175
-4.790918	Fifteen	-1.329346e-05
-4.790918	Fifth.	0.02244275
-4.790918	Fights	-4.140926e-05
-4.790918	Filerehling	-4.492361e-05
-4.790918	Final	-4.492361e-05
-4.790918	Finally	0.01588239
-4.790918	Finally,	0.001828739
-4.790918	Find	0.0004825469
-4.790918	Fine...you	0.0003594132
-4.614827	Finland	-8.281827e-05
-4.614827	Fire	-5.470175e-05
-4.790918	Firearm	1.833904e-05
-4.790918	Firearms	-4.492361e-05
-3.915857	First	0.01252142
-4.392978	First,	0.03131453
-4.790918	Fitness	-3.789488e-05
-4.790918	Flashback:	-4.140926e-05
-4.489888	Flintlock	-8.984086e-05
-4.489888	Florida	0.004575441
-4.614827	Florida.	0.02241678
-4.790918	Flueckiger,	0.01588239
-4.614827	Flush	0.01585642
-4.790918	Fly"	7.79461e-06
-4.790918	Folks	0.0007218779
-4.790918	Follow	-4.492361e-05
-4.614827	Following	0.006596533
-3.500884	For	0.0375693
-4.790918	Force	0.0001941169
-4.790918	Force,	0.00112693
-4.790918	Force.	0.02244275
-4.790918	Forces	-4.140926e-05
-4.790918	Ford,	-3.789488e-05
-4.790918	Forecasting	-4.492361e-05
-4.489888	Forget	0.01681182
-4.790918	Forgotten	-3.789488e-05
-4.790918	Form	0.007684706
-4.790918	Fortunately,	-3.438047e-05
-4.790918	Founder,	0.005312199
-4.489888	Founders	0.0002203339
-4.392978	Founding	-0.0001347611
-4.790918	Fourteenth	-3.438047e-05
-4.790918	Fourth.	0.02244275
-4.392978	Fox	-0.0001277322
-4.790918	Fraco-Prussian	1.13094e-05
-4.614827	Fran	0.001233579
-4.313797	France	0.007566343
-4.790918	Frank	-4.492361e-05
-4.392978	Franklin	0.001450578
-4.790918	Franklin.	0.02244275
-4.790918	Freakifornia.	0.02244275
-4.392978	Free	-0.000116428
-4.790918	Freedom	-4.492361e-05
-4.790918	Freedom.	0.02244275
-4.614827	Freespeech	0.003153142
-4.614827	Freethinking	0.007086719
-4.790918	French	-4.140926e-05
-4.790918	Frenchman	-3.438047e-05
-4.790918	Friday	-2.749535e-06
-4.790918	Friken	-4.140926e-05
-3.769729	From	0.02780369
-4.790918	Front	0.007112693
-4.614827	Full	-6.738303e-05
-4.790918	Fund,	-4.492361e-05
-4.614827	Funding	0.008607793
-4.790918	Funny	0.003430566
-4.614827	Furious	0.0009763212
-4.790918	Furious,	-3.438047e-05
-4.790918	Further	7.6516e-07
-4.489888	Further,	0.004614523
-4.790918	Furthermore	-3.789488e-05
-4.489888	Furthermore,	0.01127047
-4.790918	Future	-3.789488e-05
-4.614827	G	-6.738303e-05
-4.790918	G.	-4.492361e-05
-4.489888	G.P.	0.02239081
-4.790918	GA.	-3.438047e-05
-4.313797	GDP	-1.095225e-05
-4.790918	GDP,	-4.492361e-05
-4.790918	GET	0.01588239
-4.790918	GFZ	0.005244602
-4.790918	GI	1.833904e-05
-4.790918	GIVEN	-3.789488e-05
-4.790918	GNM	-4.492361e-05
-4.790918	GOA	0.005244602
-4.790918	GOD	-4.492361e-05
-4.790918	GOOD	0.0002855495
-4.489888	GOP	0.005696007
-4.790918	GOP-controlled	-3.789488e-05
-4.790918	GREAT,	0.001804032
-4.790918	GU,	-6.264213e-06
-4.614827	GUN	-8.98471e-05
-4.790918	GUN.	0.02244275
-4.790918	GUN:6606	-4.492361e-05
-4.614827	GUNS.	0.02241678
-4.790918	GUNZ!!!	0.02244275
-4.790918	Ga.	-4.492361e-05
-4.790918	Gabbard	0.0002679648
-4.790918	Gabby	-4.492361e-05
-4.790918	Gabby.JPG	-4.492361e-05
-4.790918	Gabe	-4.492361e-05
-4.790918	Gallup	-4.492361e-05
-4.790918	Game	-4.140926e-05
-4.790918	Games.	0.02244275
-4.614827	Gang	-1.252359e-05
-4.790918	Gangs	4.294365e-05
-4.790918	Garand,	0.0003277558
-4.790918	Garry	-4.140926e-05
-4.790918	Gary	-4.492361e-05
-4.790918	Gas?	0.02244275
-4.790918	Gate	1.482421e-05
-4.790918	Gazette	-4.492361e-05
-4.790918	Gear	7.79461e-06
-4.790918	Geez,	-2.749535e-06
-4.790918	Geez...	0.02244275
-4.790918	Gen.	-3.789488e-05
-4.614827	General	0.007075032
-4.790918	Generally	0.004622505
-4.790918	Generally,	0.003430566
-4.790918	Generals	-4.140926e-05
-4.790918	Generations	0.007684706
-4.313797	George	0.001459888
-4.790918	George.	0.02244275
-4.790918	Geraldo	-4.492361e-05
-4.614827	German	-3.009832e-05
-4.137706	Germany	0.01025164
-4.790918	Germany's	-4.140926e-05
-4.790918	Germany,	1.833904e-05
-4.614827	Get	0.01585642
-4.790918	Gets	0.0009261175
-4.790918	Giffords	-9.778827e-06
-4.790918	Gingrich	2.185389e-05
-4.790918	Ginsburg,	-4.492361e-05
-4.614827	Girardoni	-4.629634e-05
-4.790918	Giron	0.007112693
-4.489888	Give	0.01697955
-4.489888	Given	0.02498206
-4.790918	Gives	-4.492361e-05
-4.790918	Giving	0.0005458863
-4.790918	Glad	0.01588239
-4.790918	Glenroy	0.004842802
-4.790918	Global	-4.492361e-05
-4.091948	Glock	0.008395628
-4.790918	Glorious	-4.492361e-05
-4.091948	Go	0.001849987
-4.091948	God	0.03015634
-4.790918	God",	0.001056458
-4.790918	God's	-4.492361e-05
-4.790918	God,	0.001525305
-4.614827	God."	0.02241678
-4.790918	Goddard	0.0006233139
-4.790918	Goddard's	0.0001237972
-4.790918	Goddard,	0.008633766
-4.790918	Golden	-4.492361e-05
-4.790918	Golf,	-4.492361e-05
-3.915857	Good	0.01418851
-4.790918	Goodbye.	0.02244275
-4.489888	Google	2.692422e-05
-4.790918	Goshin!.	0.02244275
-4.790918	Goshin.	0.02244275
-4.313797	Got	0.0001332223
-4.790918	Gov.	0.02244275
-3.813195	Government	0.01605575
-4.790918	Government".	0.02244275
-4.790918	Government.	0.02244275
-4.790918	Government:	-4.492361e-05
-4.790918	Government?	0.02244275
-4.790918	Governor	0.00166641
-4.790918	Governor.	0.02244275
-4.790918	Grand	-4.492361e-05
-4.489888	Granny	0.00440139
-4.790918	Granted	-4.140926e-05
-4.790918	Granted,	-4.492361e-05
-4.790918	Graphs	-4.492361e-05
-4.392978	Grathwohl	0.001619942
-4.790918	Grathwohl's	-3.789488e-05
-4.790918	Grathwohl,	0.00100009
-4.790918	GrathwohlBill	-4.492361e-05
-4.137706	Great	0.002206907
-4.790918	Grow	-2.032258e-05
-4.790918	Gruber	0.0009578185
-4.790918	Guangxi	-2.735157e-05
-4.137706	Guard	0.00669026
-4.614827	Guatemala	-4.767237e-05
-4.790918	Gubmit	-3.438047e-05
-4.489888	Guess	0.006491051
-4.790918	Guide	-2.735157e-05
-4.790918	Gulotta,	-4.140926e-05
-3.359555	Gun	0.006775839
-4.790918	Gun!.	0.02244275
-4.790918	Gun,	-1.680801e-05
-4.790918	Gunman	-6.264213e-06
-3.64479	Guns	0.01009387
-4.790918	Guns"	-4.140926e-05
-4.614827	Guns,	-9.00857e-06
-4.313797	H&K	-0.0001515643
-4.790918	H.	-3.789488e-05
-4.790918	H.S.	0.02244275
-4.790918	H.W.	0.02244275
-4.790918	H1B	-4.492361e-05
-4.790918	H1B's	0.003179115
-4.790918	HAD	0.01041931
-4.790918	HAND	-4.140926e-05
-4.614827	HAVE	-3.009832e-05
-4.790918	HDMI	-4.492361e-05
-4.790918	HDTV,	-4.140926e-05
-4.790918	HE	-4.492361e-05
-4.790918	HELD	-4.492361e-05
-4.790918	HIGH	0.004842802
-4.790918	HIGHER	7.6516e-07
-4.790918	HIGHEST	-4.492361e-05
-4.790918	HIPPA	0.0004755098
-4.790918	HIS	-4.492361e-05
-4.790918	HK416.	0.02244275
-4.790918	HLN	-1.329346e-05
-4.790918	HOMICIDES	-3.789488e-05
-4.790918	HTML	6.403442e-05
-4.790918	HUGE	-4.492361e-05
-4.790918	Haha	0.0008451143
-4.790918	Hale,	-4.492361e-05
-4.790918	Hall	0.0005881179
-4.790918	Hall?	0.02244275
-4.790918	Hamilton	0.0002679648
-4.790918	Hammers	-4.492361e-05
-4.790918	Handgun	0.007684706
-4.790918	Handguns	3.942864e-05
-4.790918	Hands/feet/etc.	0.02244275
-4.614827	Happens	0.0003918916
-4.790918	Happiness	0.003179115
-4.790918	Happiness?	0.02244275
-4.790918	Harold	-4.492361e-05
-4.614827	Harris	0.001498043
-4.790918	Harvey,	-3.789488e-05
-4.392978	Has	0.0008583249
-4.790918	Hatter	-4.492361e-05
-4.188858	Have	0.03047859
-4.24685	Having	0.02611247
-4.188858	Hawaii	0.004791711
-4.790918	Haymarket	-4.492361e-05
-3.42919	He	0.01871158
-4.24685	He's	0.01012794
-4.614827	He,	0.01181338
-4.790918	He/she/it	-9.778827e-06
-4.790918	Hearld	0.00100009
-4.790918	Heart	-4.492361e-05
-4.790918	Hebrew	-4.140926e-05
-4.790918	Heck	-4.140926e-05
-4.790918	Heck,	0.001183314
-4.790918	Hedge	0.0001519237
-4.313797	Hell	0.0231575
-4.614827	Hell,	0.007239415
-4.24685	Heller	0.005123603
-4.489888	Hello	-0.0001347705
-4.790918	Help	0.0001976333
-4.790918	Helper...what	-2.735157e-05
-4.790918	Hence	0.01588239
-4.614827	Henderson	0.001159557
-4.614827	Henderson,	5.778244e-05
-4.489888	Henry	0.0006355764
-4.790918	Her	-4.140926e-05
-3.676975	Here	0.02040751
-4.012767	Here's	0.02733777
-4.790918	Here,	0.004622505
-4.790918	Here’s	0.008633766
-4.489888	Hey	0.004532809
-4.790918	Hey,	-4.492361e-05
-4.790918	Hey.	0.02244275
-4.790918	Heyne	1.13094e-05
-4.790918	Heyne,	-4.492361e-05
-4.790918	He’s	-1.680801e-05
-4.790918	Hi	-4.492361e-05
-4.790918	Hi?	0.02244275
-4.790918	Hide.	0.02244275
-4.790918	Hide:	0.001624074
-4.614827	Hide	0.002989105
-4.489888	High	-8.231912e-06
-4.790918	Higher	-4.492361e-05
-4.790918	Highly	-4.492361e-05
-4.790918	Highschool	0.001200936
-4.790918	Hijacking.Meaning	0.0007183572
-4.392978	Hillary	4.469354e-06
-4.790918	Hillay	2.185389e-05
-4.790918	Him,	2.88837e-05
-4.614827	Himself	0.0001280999
-4.614827	Hindsight	0.006214826
-4.790918	Hint....they	8.161088e-05
-4.137706	His	0.0002420501
-4.790918	Hispanic,	0.001525305
-4.790918	Hispanics,	-4.492361e-05
-4.790918	Hispanics.	0.02244275
-4.790918	Historically	-2.032258e-05
-4.790918	History,	-4.492361e-05
-4.392978	Hitler	0.003225116
-4.790918	Hitler's	-4.492361e-05
-4.790918	Hitler,	-4.492361e-05
-4.614827	Hitler.	0.02241678
-4.790918	Hmm...when	0.003430566
-4.790918	Hmmm...	0.01588239
-4.790918	Hmmmm.....Kinda	-4.492361e-05
-4.790918	Hogg	0.005244602
-4.790918	Hogs	-4.492361e-05
-4.790918	Hold	0.007112693
-4.392978	Holder	0.0008371878
-4.790918	Hollywood	0.004842802
-4.614827	Holy	-3.712804e-05
-4.188858	Home	-0.0002624919
-4.790918	Homeowners	0.0006514729
-4.790918	Homes	0.007112693
-4.790918	Homicide	-4.140926e-05
-4.790918	Homicide:9656	-4.492361e-05
-4.790918	Homicides	-3.438047e-05
-4.790918	Honduras:	-4.492361e-05
-4.392978	HonestJoe	0.001729358
-4.614827	Honestly,	0.0007156953
-4.790918	Hood	0.0009789538
-4.392978	Hook	0.02328735
-4.790918	Hook,	-3.438047e-05
-4.790918	Hook?	0.02244275
-4.790918	Hooters	-4.492361e-05
-4.614827	Hope	0.004911708
-4.790918	Hope,	0.0001378602
-4.614827	Hopefully	0.0008706431
-4.790918	Hopefully,	-4.492361e-05
-4.790918	Hopkins......and	0.0003699661
-4.790918	Hornady	0.007112693
-4.790918	Horrible,	-2.735157e-05
-4.790918	Horrid	-4.492361e-05
-4.790918	Horrifying!	0.02244275
-4.790918	Hospital	-4.492361e-05
-4.188858	House	0.01473351
-4.614827	House.	0.02241678
-4.790918	Housing	3.239865e-05
-4.790918	Houston,	0.01588239
-3.285768	How	0.03695353
-4.790918	How,	-4.492361e-05
-4.790918	Howard	-4.492361e-05
-4.614827	However	0.004460445
-3.64479	However,	0.05610896
-4.790918	Hows	0.005312199
-4.790918	Hudak	0.003179115
-4.790918	Huh???	0.02244275
-4.790918	Hunter	-4.492361e-05
-4.790918	Hunter-Killer	0.001525305
-4.790918	Hunters	0.004842802
-4.790918	Hunting	4.645871e-05
-4.790918	Hurricane	-9.778827e-06
-4.790918	Hurting	0.008633766
-4.790918	Hussain,	0.00100009
-4.790918	Hyatt	-4.140926e-05
-4.790918	Hyena.jpg	-4.492361e-05
-4.790918	Hyperbole."	0.02244275
-4.790918	Hypocracy	0.003430566
-4.790918	Hypocrisy	-4.492361e-05
-1.970388	I	0.0237066
-3.660584	I'd	0.01619424
-4.790918	I'de	0.001116358
-3.62955	I'll	0.004351692
-3.020066	I'm	0.02473912
-3.45848	I've	0.001701596
-4.313797	I,	0.003521604
-4.790918	I.	0.007112693
-4.790918	I.E	0.001804032
-4.790918	I?.	0.02244275
-4.790918	ICE	0.003179115
-4.313797	ID	0.01497883
-4.790918	ID'd	0.003430566
-4.790918	ID.	0.02244275
-4.790918	IDEA	0.005312199
-4.790918	IDs...it's	0.002404433
-4.489888	IF	0.008361386
-4.313797	II	0.007756028
-4.790918	ILLEGAL	0.01041931
-4.790918	IMHO	0.01588239
-4.614827	IMHO.	0.02241678
-4.392978	IMO	0.00504606
-4.790918	IMO.	0.02244275
-4.614827	IN	-3.712801e-05
-4.790918	INCLUDES	-1.329346e-05
-4.790918	INNOCENT	2.88837e-05
-4.790918	INRE	0.01588239
-4.790918	INS	-1.329346e-05
-4.790918	INTERPRET	0.01588239
-4.790918	IP,	0.003430566
-4.489888	IS	0.02480336
-4.790918	IS.	0.02244275
-4.790918	ISIS.	0.0003488605
-4.790918	ISN'T	0.008633766
-4.614827	IT	-8.281826e-05
-4.790918	IT.	0.02244275
-4.790918	IV:	-3.438047e-05
-4.790918	Id	0.0002327977
-4.790918	Idaho.	0.02244275
-4.790918	Idea.	0.02244275
-2.806391	If	0.05816992
-4.790918	Ignorance	0.005244602
-4.790918	Ignorance...	-6.264213e-06
-4.790918	Ignore	7.6516e-07
-4.790918	Illegal	-2.383708e-05
-4.614827	Illinois	0.005199765
-4.489888	Im	0.003386889
-4.790918	Imagine	0.001183314
-4.790918	Immodest	-3.438047e-05
-4.790918	Immunity	0.005312199
-3.074915	In	0.0372467
-4.790918	Inalienable	3.942864e-05
-4.790918	Incorrect.	0.02244275
-4.790918	Incredibly	-2.735157e-05
-4.614827	Ind.	0.02241678
-4.489888	Independence	0.008859832
-4.790918	Independence,	-2.749535e-06
-4.790918	India	0.007112693
-4.790918	Indian	-4.492361e-05
-4.790918	Indian.".	0.02244275
-4.614827	Indiana	0.001297035
-4.790918	Indianapolis	-3.789488e-05
-4.790918	Indianapolis.	0.02244275
-4.614827	Indians	0.0008283792
-4.790918	Indians.	0.02244275
-4.790918	Indirect	-4.492361e-05
-4.790918	Infection:	-4.492361e-05
-4.790918	Infection:19235	-4.492361e-05
-4.790918	Influenza/Pneumonia:31745	-4.492361e-05
-4.790918	Inhofe,	-4.492361e-05
-4.790918	Inner	-4.492361e-05
-4.790918	Insecurity	0.007112693
-4.790918	Insider	-4.492361e-05
-4.790918	Inspector	-4.492361e-05
-4.790918	Inst.	0.02244275
-4.489888	Instead	0.00763276
-4.489888	Instead,	0.0004982913
-4.790918	Instituting	0.00195935
-4.790918	Insured	7.79461e-06
-4.790918	Insurrection?	0.02244275
-4.790918	Intelligent	-4.140926e-05
-4.614827	Interesting.	0.02241678
-4.790918	International	-3.086605e-05
-4.489888	Internet	-6.799081e-05
-4.790918	Into	0.01588239
-4.790918	IntraTec	-4.492361e-05
-4.790918	Invalid	0.002588251
-4.489888	Invasion	0.006605256
-4.790918	Iowa	-4.492361e-05
-4.790918	Iowa,	0.000384037
-4.614827	Iowa.	0.02241678
-4.489888	Iran	0.01926305
-4.790918	Iran.	0.02244275
-4.790918	Iran?	0.02244275
-4.614827	Iraq	0.0006206408
-4.790918	Irrelevant.	0.02244275
-3.711737	Is	0.0284307
-4.790918	Islamic	-4.492361e-05
-4.790918	Island	0.01041931
-4.790918	Islands	0.0001519237
-4.313797	Isn't	0.008822245
-4.24685	Israel	0.01533156
-4.614827	Israel,	0.003403412
-4.790918	Israel.	0.02244275
-4.790918	Israeli	6.051924e-05
-4.790918	Israelis	0.0006444327
-2.853902	It	0.01374832
-3.167669	It's	0.0473117
-4.790918	Italian	-4.492361e-05
-4.188858	Its	0.0102488
-4.614827	It’s	6.481368e-05
-4.790918	Ive	-3.789488e-05
-4.790918	Ivory...	-2.383708e-05
-4.790918	Iz	-4.492361e-05
-4.790918	I’ll	0.002316087
-4.392978	I’m	0.01878868
-4.790918	I’ve	0.0001167659
-4.790918	J-frame	-4.492361e-05
-4.614827	J.	0.02239821
-4.790918	J.T.	0.02244275
-4.790918	Jacinda	-4.492361e-05
-4.790918	Jack	-4.140926e-05
-4.790918	Jacking	0.0004755098
-4.790918	Jackson/Sharpton	-4.492361e-05
-4.790918	Jail	0.002499867
-4.790918	Jake	-4.492361e-05
-4.614827	James	-5.683981e-05
-4.614827	Jan	-8.63327e-05
-4.790918	Janet	-4.140926e-05
-4.313797	January	-0.0002140731
-4.614827	Japan	0.00859257
-4.790918	Japan,	-3.789488e-05
-4.091948	Japanese	0.01325345
-4.790918	Jaq"	0.0001378602
-4.790918	Jeb	0.0001519237
-4.790918	Jeez!.	0.02244275
-4.790918	Jeeze,	0.0007183572
-4.091948	Jefferson	0.02033183
-4.489888	Jefferson,	0.005230716
-4.790918	Jeh	-4.492361e-05
-4.790918	Jellinek,	0.001624074
-4.790918	Jennings.	0.02244275
-4.489888	Jerry	0.001576619
-4.790918	Jerry!	0.02244275
-4.790918	Jersey	0.0003172039
-4.790918	Jersey,	-4.492361e-05
-4.790918	Jesuits	0.002761536
-4.790918	Jesus	0.002118257
-4.790918	Jesus,	0.0003699661
-4.790918	Jew	0.007112693
-4.790918	Jew,	-3.438047e-05
-4.313797	Jews	0.0127214
-4.790918	Jews,	-3.438047e-05
-4.790918	Jews.	0.02244275
-4.614827	Jim	-8.98471e-05
-4.614827	Jimmy	-6.738303e-05
-4.050556	Joe	0.002726916
-4.790918	Joe,	-4.492361e-05
-4.790918	Joey	-4.140926e-05
-4.392978	John	0.001062702
-4.790918	Johns	-4.492361e-05
-4.790918	Johnson	0.0006514729
-4.790918	Johnson's	-3.438047e-05
-4.790918	Johnson,	-2.735157e-05
-4.489888	Jonathan	-0.0001123049
-4.489888	Jones	0.01408657
-4.790918	Jones,	0.001525305
-4.790918	Joseph	-4.492361e-05
-4.790918	Josh	-4.492361e-05
-4.790918	Journal	0.007684706
-4.790918	Jr	-2.749535e-06
-4.790918	Jr.	-4.492361e-05
-4.489888	Judge	-0.0001087905
-4.790918	Judges	0.007112693
-4.790918	Judicial,	0.00100009
-4.790918	Judiciary	-4.492361e-05
-4.614827	Jul	-8.63327e-05
-4.790918	July	-4.492361e-05
-4.392978	June	-0.0001761792
-4.790918	June.	0.02244275
-3.45848	Just	0.02732251
-4.489888	Justice	-0.0001207125
-4.790918	Justin	-4.492361e-05
-4.614827	K	0.001480407
-4.489888	K-12	-0.000106654
-4.790918	KILL	-3.086605e-05
-4.790918	KILLED	0.0001343445
-4.790918	KILLS	-2.383708e-05
-4.790918	KNOW	0.005312199
-4.790918	KTLA	4.27988e-06
-4.790918	KTVN	-4.492361e-05
-4.790918	KY.	0.000331273
-4.790918	Kaarma	0.005244602
-4.614827	Kahr	6.1298e-05
-4.489888	Kal'Stang	0.002180382
-4.790918	Kalashnikov	-1.680801e-05
-4.614827	Kalthoff	-8.281826e-05
-4.790918	Kardashian/Clooney	-4.140926e-05
-4.489888	Karen	-0.0001277415
-4.790918	Katrina	-3.789488e-05
-4.790918	Kavanaugh	-4.492361e-05
-4.790918	Kavanaugh.".	0.02244275
-4.790918	Keenan,	0.01588239
-4.24685	Keep	0.01310839
-4.790918	Keepers	0.0001027035
-4.790918	Keeping	0.001133978
-4.790918	Kel.)	0.02244275
-4.790918	Keltec	-4.492361e-05
-4.790918	Kennedy,	-4.492361e-05
-4.790918	Kennedys	4.27988e-06
-4.790918	Kentucky	0.0001167659
-4.790918	Kept.)	0.02244275
-4.790918	Kerry	-4.140926e-05
-4.790918	Keystone	-3.789488e-05
-4.790918	Kidney	-4.492361e-05
-4.614827	Kids	0.002755568
-4.614827	Kill	-7.227479e-05
-4.614827	Killed	0.006175604
-4.790918	Killing	0.001310208
-4.790918	Killing.Like	1.833904e-05
-4.790918	Kim	0.0009578185
-4.790918	Kim's	-4.492361e-05
-4.790918	Kim.	0.02244275
-4.392978	Kimber	-2.014043e-05
-4.614827	Kimmel	-4.767235e-05
-4.614827	Kind	0.007658732
-4.489888	Kinda	0.008511934
-4.392978	King	0.01295018
-4.790918	King's	3.942864e-05
-4.790918	King.	0.02244275
-4.614827	Kings	-4.064282e-05
-4.790918	Kings,	-3.086605e-05
-4.790918	Klan	-4.492361e-05
-4.790918	Klansmen.	0.02244275
-4.790918	Kleck	0.0004860653
-4.790918	Kliebold	0.007112693
-4.790918	Knife-Wielding	-2.735157e-05
-4.790918	Knives	-4.492361e-05
-4.790918	Knives,	-4.492361e-05
-4.790918	Knives.	0.02244275
-4.614827	Knowing	0.0005150493
-4.790918	Knumchucks	0.007112693
-4.614827	Koontz	0.0004868958
-4.614827	Koontz,	0.008130305
-4.790918	Kudos	0.01041931
-4.790918	L.	-3.789488e-05
-4.790918	L.A.	-2.383708e-05
-4.790918	LA,	-4.492361e-05
-4.790918	LANGUAGE.	0.02244275
-4.614827	LAPD	0.001103169
-4.790918	LAWS?	0.02244275
-4.790918	LCD	-4.492361e-05
-4.790918	LCR...which	6.754964e-05
-4.790918	LE	0.0002398308
-4.614827	LE,	0.0005185687
-4.614827	LEGAL	0.00191446
-4.790918	LEGALLY	-9.778827e-06
-4.489888	LEO	0.0001816451
-4.790918	LEOs	0.0006444327
-4.790918	LEO’s	0.007112693
-4.790918	LESS	-4.492361e-05
-4.790918	LIBERTY.	0.02244275
-4.790918	LNF,	0.004622505
-4.614827	LOL	0.004598972
-4.790918	LOL.	0.02244275
-4.790918	LONDON,	-4.140926e-05
-4.790918	LORENZONI	-4.492361e-05
-4.614827	LOT	0.001191279
-4.790918	LOWER	7.6516e-07
-4.790918	LR	-2.383708e-05
-4.392978	LRRH	0.007446577
-4.790918	LWOPP)	0.004842802
-4.790918	LaPierre's	-4.492361e-05
-4.790918	Lack	0.007684706
-4.313797	Lambda.	0.02233887
-4.790918	Land'	0.0003488605
-4.614827	Lanza	0.01589606
-4.790918	Lapierre	0.005244602
-4.614827	Large	-8.281826e-05
-4.050556	Larry	-0.0003558212
-4.790918	Las	-3.789488e-05
-4.790918	Last	0.004622505
-4.790918	Last,	0.003430566
-4.790918	Lastly,	0.004622505
-4.790918	Later	0.01588239
-4.790918	Latin	-1.329346e-05
-4.790918	Latino	-4.492361e-05
-4.790918	Laugh	0.001084646
-4.790918	Laughing	-4.492361e-05
-4.313797	Law	0.007026374
-4.790918	Law).	0.02244275
-4.790918	Law,	0.002588251
-4.790918	Law.	0.02244275
-4.790918	Law:	-3.086605e-05
-4.790918	Lawfully	-4.492361e-05
-4.790918	Lawmakers	0.0001237972
-4.489888	Laws	0.004124471
-4.790918	Laws:	0.0002890666
-4.790918	LeCraft	-4.140926e-05
-4.790918	Leader	8.512625e-05
-4.614827	Leave	0.0001034875
-4.489888	Lee	-0.0001101686
-4.790918	Lee,	7.79461e-06
-4.313797	Left	0.005421163
-4.790918	Left/Dems/Libs	0.000384037
-4.790918	Leftist	-4.492361e-05
-4.790918	Leftists	2.88837e-05
-4.790918	Leftists!	0.02244275
-4.790918	Leftists.	0.02244275
-4.790918	Leftwingnuts	0.003179115
-4.489888	Legal	0.001964908
-4.790918	Legislate	0.0002855495
-4.790918	Legislation	0.0003453428
-4.790918	Legislative,	0.001525305
-4.790918	Legislatures	-3.438047e-05
-4.790918	Leicester	-4.492361e-05
-4.313797	Less	0.001035423
-4.012767	Let	0.01718036
-4.050556	Let's	0.007138441
-4.188858	Lets	0.003292473
-4.614827	Letter	0.01037456
-4.790918	Letters	2.185389e-05
-4.790918	Level	0.007684706
-4.790918	Levitt,	0.0007113165
-4.614827	Lewis	6.424882e-06
-4.790918	Lib	-2.383708e-05
-4.790918	Lib,	0.000528291
-4.392978	Liberal	3.82603e-05
-3.836676	Liberals	0.01467005
-4.614827	Liberals.	0.02241678
-4.790918	Liberals/Progressive-Fascists	-4.492361e-05
-4.790918	Libertarian,	0.0007183572
-4.313797	Liberty	0.01234435
-4.790918	Liberty,	0.007112693
-4.790918	Liberty--	1.482421e-05
-4.790918	Library:	-4.140926e-05
-4.614827	Libs	0.01037456
-4.790918	Licence,	-4.140926e-05
-4.790918	License.	0.02244275
-4.614827	Lie	-8.98471e-05
-4.790918	Life	0.001197412
-4.614827	Life,	-7.578931e-05
-4.790918	Lightning:47	-4.492361e-05
-4.137706	Like	0.01443786
-4.489888	Likewise,	0.01065394
-4.790918	Lilly	-9.778827e-06
-4.790918	Limbaugh	-4.492361e-05
-4.790918	Limit	0.0002855495
-4.790918	Limiting	0.001525305
-4.790918	Lincoln.	0.02244275
-4.790918	Links	0.002761536
-4.489888	List	0.007613936
-4.790918	List:	-4.492361e-05
-4.790918	Listed	0.0004755098
-4.790918	Lithuanian	-4.140926e-05
-4.392978	Little	-5.666864e-05
-4.790918	Lives	-4.492361e-05
-4.790918	Living	0.01588239
-4.614827	Local	-8.63327e-05
-4.790918	Lock	-3.438047e-05
-4.790918	Locke	0.001525305
-4.790918	Locks	0.001010658
-4.790918	Logic	1.482421e-05
-4.790918	Logic,	0.005312199
-4.614827	London,	-6.386865e-05
-4.790918	Lone	-3.789488e-05
-4.489888	Long	5.153521e-05
-4.790918	Long-Rifle,......it	1.482421e-05
-4.790918	Longer	-2.383708e-05
-4.050556	Look	0.003951084
-4.790918	Lords	0.002118257
-4.313797	Lorenzoni	-0.0001572158
-4.790918	Los	-4.492361e-05
-4.313797	Lots	0.00758082
-4.790918	Lott:	-4.492361e-05
-4.790918	Louder	7.79461e-06
-4.790918	Louis	7.6516e-07
-4.614827	Louis.	0.02241678
-4.790918	Loves	-4.140926e-05
-4.790918	Low	6.403442e-05
-4.614827	Lower	-6.524567e-05
-4.614827	Lowest	0.0001351322
-4.790918	Lt	-4.492361e-05
-4.790918	Lt.	-3.789488e-05
-4.790918	Luckily,	0.0007113165
-4.790918	Lula	0.004842802
-4.790918	M	0.002499867
-4.790918	M-16	0.0009225954
-4.790918	M-16A1	0.01041931
-4.790918	M-1911	-3.789488e-05
-4.790918	M-4	0.00166641
-4.790918	M.	-4.492361e-05
-4.790918	M.,	-4.492361e-05
-4.614827	M1	-8.98471e-05
-4.614827	M16	0.007178657
-4.790918	M16's	0.005312199
-4.790918	M16A2,	-4.492361e-05
-4.790918	M16A3,	0.007112693
-4.790918	M16A4	4.645871e-05
-4.790918	M4A1	-4.492361e-05
-4.790918	M4BL	0.002118257
-4.790918	M9	0.0009578185
-4.790918	MA	8.161088e-05
-4.790918	MA,	0.00112693
-4.790918	MA.	0.02244275
-4.790918	MAG36.	0.02244275
-4.790918	MAGAZINE	-4.492361e-05
-4.790918	MAIN	-4.492361e-05
-4.790918	MAJESTY	4.294365e-05
-4.790918	MAKERS	-3.086605e-05
-4.790918	MAN	-4.140926e-05
-4.790918	MASK?	0.02244275
-4.790918	MATE,	1.482421e-05
-4.790918	MAW	-4.492361e-05
-4.790918	MAYBE	-9.778827e-06
-4.790918	ME	4.27988e-06
-4.614827	MEN	0.001053835
-4.790918	MEXICO.	0.02244275
-4.790918	MGs	-3.789488e-05
-4.790918	MMR	-9.778827e-06
-4.790918	MO	-3.438047e-05
-4.790918	MO.	0.02244275
-4.790918	MOAR	-4.492361e-05
-4.489888	MORE	-0.000131256
-4.790918	MORTIMER	3.239865e-05
-4.790918	MP	-4.492361e-05
-4.790918	MP7s	0.0002714817
-4.614827	MSM	0.0008213355
-4.790918	MS_.	0.02244275
-4.790918	MTIs	0.002761536
-4.790918	MURDER	-3.789488e-05
-4.392978	MUST	0.00241595
-4.614827	MY	-5.118708e-05
-4.790918	Maalot	0.004842802
-4.614827	Macedonia	-7.227479e-05
-4.790918	Machetes	0.002761536
-4.790918	Mad	-4.492361e-05
-4.790918	Made	-4.492361e-05
-4.790918	Madison	0.001525305
-4.489888	Mag	0.000952554
-4.790918	Maggie.	0.02244275
-4.790918	Magna	-4.492361e-05
-4.790918	Magnums.	0.02244275
-4.790918	Magpul	0.005244602
-4.790918	Magpuls.	0.02244275
-4.614827	Mail	-6.035424e-05
-4.790918	Main	-3.789488e-05
-4.790918	Maintaining	0.008633766
-4.313797	Major	-0.0001347518
-4.790918	Make	0.0009225954
-4.614827	Makes	0.003789747
-4.489888	Making	0.0002238513
-4.489888	Malcolm	-0.0001347705
-4.790918	Malcolm);	-4.492361e-05
-4.790918	Malcolm,	0.000127313
-4.790918	Malnutrition:1593	-4.492361e-05
-4.24685	Man	0.01043041
-4.790918	Man"	0.007112693
-4.790918	Man,	4.997379e-05
-4.790918	Manager	0.007112693
-4.790918	Mandatory	3.591363e-05
-4.790918	Manslaughter.	0.02244275
-4.050556	Many	0.009423678
-4.790918	Mao,	-4.492361e-05
-4.614827	Maori	-5.470175e-05
-4.790918	Maori's	-4.492361e-05
-4.790918	March	0.002499867
-4.790918	Marco	0.005244602
-4.790918	Marine	0.002118257
-4.790918	Marine,	-4.492361e-05
-4.790918	Marines	3.942864e-05
-4.790918	Mark	0.0009261175
-4.790918	Markey.	0.02244275
-4.790918	Marlboro	0.002499867
-4.790918	Marlin	-2.735157e-05
-4.790918	Marshals	-4.492361e-05
-4.790918	Martial	-4.492361e-05
-4.790918	Martian	0.002118257
-4.489888	Marxist	0.007044517
-4.790918	Marxists	0.01041931
-4.790918	Mary,	0.004842802
-4.489888	Maryland	0.004404941
-4.489888	Maryland.	0.02239081
-4.790918	Mason,	-4.492361e-05
-4.392978	Mass	0.0002330556
-4.790918	Massachusetts	-4.140926e-05
-4.790918	Massachusetts,	-3.438047e-05
-4.614827	Massacre.	0.02241678
-4.790918	Matthews,	-1.329346e-05
-4.790918	Mauser	0.007112693
-4.614827	Max	-8.98471e-05
-4.790918	May	0.004622505
-4.790918	Mayan	-4.140926e-05
-3.836676	Maybe	0.02515621
-4.790918	Maybe,	0.0007746894
-4.614827	Maybe.	0.02241678
-4.790918	Maybe...	3.591363e-05
-4.790918	McDonald	-3.438047e-05
-4.614827	McFarland	0.00150157
-4.790918	McFarland's	0.000384037
-4.614827	McFarland's,	0.0003580632
-4.790918	McGuire's	-4.492361e-05
-4.790918	Mccain	0.007112693
-4.790918	Meaning	0.005312199
-4.790918	Means	-3.438047e-05
-4.790918	Meanwhile	0.01588239
-4.790918	Meanwhile;	-4.140926e-05
-4.790918	Mec-gar	-2.735157e-05
-4.313797	Media	0.01170809
-4.790918	Media.	0.02244275
-4.790918	Medical	-4.492361e-05
-4.790918	Meeting	0.001334886
-4.790918	Melbourne's	-4.492361e-05
-4.790918	Members	0.0004860653
-4.790918	Membership	0.005244602
-4.790918	Memo	-4.140926e-05
-4.790918	Men	-4.140926e-05
-4.790918	Menacing.	0.02244275
-4.790918	Meredith	-4.492361e-05
-4.489888	Merriam	-0.0001123049
-4.614827	Merry	-6.738303e-05
-4.790918	Mess	0.002118257
-4.790918	Methyl	4.294365e-05
-4.790918	Metropolitan	-6.264213e-06
-4.188858	Mexican	0.007162933
-4.392978	Mexico	0.008016568
-4.614827	Mexico,	0.007843875
-4.614827	Michael	-8.98471e-05
