
\data\
ngram 1=68
ngram 2=89

\1-grams:
-1.954242	(we	-0.2961775
-1.954242	</s>
-99	<s>	-0.2912701
-1.653213	I	-0.4673614
-1.954242	Saturday,	-0.2762064
-1.954242	The	-0.2961775
-1.954242	They	-0.2961775
-1.653213	a	-0.4673614
-1.954242	able	-0.2812859
-1.954242	absolutely	-0.2961775
-1.954242	amazing	-0.2961775
-1.954242	amount	-0.2912701
-1.255273	and	-0.7160032
-1.954242	at	-0.2912701
-1.954242	both	-0.2912701
-1.954242	ceremony	-0.2912701
-1.954242	clear	-0.2812859
-1.954242	cost	-0.2961775
-1.954242	count.	-0.2961775
-1.954242	entire	-0.2961775
-1.954242	every	-0.2961775
-1.954242	everyone,	-0.2961775
-1.954242	exactly	-0.2961775
-1.954242	except	-0.2863067
-1.477121	for	-0.5720967
-1.954242	going	-0.2812859
-1.954242	got	-0.2961775
-1.954242	husband	-0.2762064
-1.653213	in	-0.4573772
-1.954242	invites	-0.2762064
-1.477121	it	-0.5772363
-1.954242	knew	-0.2863067
-1.954242	late.	-0.2961775
-1.954242	limited	-0.2961775
-1.954242	lot	-0.2912701
-1.954242	made	-0.2863067
-1.954242	make	-0.2961775
-1.954242	married	-0.2961775
-1.954242	minute	-0.2961775
-1.954242	money	-0.2961775
-1.653213	my	-0.4673614
-1.653213	of	-0.462398
-1.954242	on	-0.2961775
-1.954242	one	-0.2961775
-1.954242	only	-0.2961775
-1.954242	ourselves)	-0.2762064
-1.954242	paid	-0.2863067
-1.954242	parents	-0.2961775
-1.954242	person,	-0.2912701
-1.954242	showed	-0.2961775
-1.954242	so	-0.2863067
-1.954242	start	-0.2961775
-1.653213	that	-0.4573772
-1.477121	the	-0.5873367
-1.954242	thing:	-0.2912701
-1.653213	time,	-0.447158
-1.954242	time.	-0.2961775
-1.352183	to	-0.6792259
-1.954242	up	-0.2961775
-1.954242	us	-0.2912701
-1.954242	use	-0.2863067
-1.954242	venue	-0.2961775
-1.954242	very	-0.2961775
-1.954242	wanted	-0.2812859
-1.954242	was	-0.2961775
-1.477121	we	-0.5873367
-1.954242	wedding	-0.2961775
-1.653213	were	-0.4673614

\2-grams:
-0.30103	(we paid
-0.30103	<s> I
-0.4771213	I got
-0.4771213	I made
-0.30103	Saturday, and
-0.30103	The venue
-0.30103	They knew
-0.4771213	a limited
-0.4771213	a lot
-0.30103	able to
-0.30103	absolutely amazing
-0.30103	amazing except
-0.30103	amount of
-0.7781513	and I
-0.7781513	and in
-0.7781513	and it
-0.7781513	and my
-0.7781513	and we
-0.30103	at that
-0.30103	both in
-0.30103	ceremony time,
-0.30103	clear to
-0.30103	cost us
-0.30103	count. </s>
-0.30103	entire wedding
-0.30103	every minute
-0.30103	everyone, both
-0.30103	exactly at
-0.30103	except for
-0.60206	for a
-0.60206	for one
-0.60206	for the
-0.30103	going to
-0.30103	got married
-0.30103	husband and
-0.4771213	in person,
-0.4771213	in the
-0.30103	invites and
-0.60206	it for
-0.60206	it very
-0.60206	it was
-0.30103	knew the
-0.30103	late. They
-0.30103	limited amount
-0.30103	lot of
-0.30103	made it
-0.30103	make every
-0.30103	married on
-0.30103	minute count.
-0.30103	money (we
-0.4771213	my husband
-0.4771213	my parents
-0.4771213	of money
-0.4771213	of time,
-0.30103	on Saturday,
-0.30103	one thing:
-0.30103	only able
-0.30103	ourselves) and
-0.30103	paid for
-0.30103	parents showed
-0.30103	person, that
-0.30103	showed up
-0.30103	so we
-0.30103	start exactly
-0.4771213	that time.
-0.4771213	that we
-0.60206	the ceremony
-0.60206	the entire
-0.60206	the invites
-0.30103	thing: my
-0.4771213	time, and
-0.4771213	time, so
-0.30103	time. The
-0.69897	to everyone,
-0.69897	to make
-0.69897	to start
-0.69897	to use
-0.30103	up late.
-0.30103	us a
-0.30103	use it
-0.30103	venue cost
-0.30103	very clear
-0.30103	wanted to
-0.30103	was absolutely
-0.60206	we wanted
-0.30103	we were
-0.30103	wedding ourselves)
-0.4771213	were going
-0.4771213	were only

\end\
